3:-20.178897878399642:0.8203557739400551,0.05225181977651827,-0.9696189772071309,0.4706530283241095,0.8270385007075671,0.20904192916906217,0.7007350516830932,0.9195594122845767,-0.4290061848644138,-0.3897285730298148,-0.37486124974634105,-0.7809211563075333,-0.7630521252834981,0.9930385075406347,-0.5058958868591363,9.970752810595229E-5,-0.20001432690189347,0.44352903979148794,-0.17184882142516766,0.5954235212150127,-0.4668854308413093,0.4291452483791751,-0.023752035428244556,-0.7430388098376248,-0.7902695239822648,-0.2544159875472447,-0.5455532929695861,-0.003106866127403629,-0.829030854882455,0.38332024150952937,0.4988016229451926,0.48791364572702833,0.8517539876191826,0.8199037149217157,-0.588269945351116,0.4908820748181095,-0.15432055315948068,0.3089316245322705,0.048558028622328046,-0.12609394420882547,0.13769688261899474,-0.6364886976522849,-0.3789308260002515,-0.554913024007121,0.7448991307331168,-0.17851826729928244,-0.1125461136592818,0.5418584853423347,0.6795264327218486,-0.3683854989364346,-0.24686639589048376,0.6030545824386877,-0.11535399115343425,0.8144689657724284,0.32451394147288437,-0.20445545691738465,0.5917846684976686,-0.07147135135036597,0.537797291400248,0.17547709730458827,-0.5888772533354547,0.811699948286944,0.6275653533486268,-0.16512235754755458,-0.6113150433722057,-0.629793936395788,-0.09508203235027624,0.017547076593415846,-0.7487073005205197,-0.2486358137205613,0.5825353834364354,-0.7160874143748146,0.10886984686150482,0.3636843376346133,0.7141061382597917,-0.5373157236281133,-0.0049773303647244,0.8971842530182567,0.708144427179525,-0.6521243205442406,-0.1993577320507547,-0.2512339869363114,-0.6687047068744945,-0.11705300511469252,0.39160602260796873,-0.9280467624648672,0.633807071394062,0.9195357538277731,4.8330130184370823E-4,0.04724125799168977,0.8099249488034339,0.5464402782998151,-0.6563739155877969,-0.09494328729129627,-0.36075276769641845,-0.54713054849976,-0.6619465322431549,0.7646806684972651,0.9334948103642322,0.8412120464397308,0.779785966904855,0.3152992703367275,-0.0712183850274963,0.9408414998373444,0.8977909717206843,0.19213835898071532,-0.11526915266365853,0.44170903105521225,0.2936744963128092,0.846340875272518,-0.5473280223996189,0.7681051995367612,-0.5219710020457564,0.6469635574780441,0.7768381768338282,-0.5291838910462023,0.9229606200099439,-0.8199530873659175,0.10972597508412048,-0.15573400094022002,0.3798324332940507,0.6194808714788642,0.8532287753740516,-0.7302001032301542,-0.02704618232735687,0.39631823073841427,-0.9994347902042332,0.7059873117738555,-0.2242239880931829,-0.33903354339955,-0.5127853691192272,0.7249532294075661,-0.8161116514677075,0.22991526935946344,-0.49573565991451457,-0.7750312462397062,-0.4055462450522643,0.8474666443960547,0.0685712088608621,0.018193513594391364,-0.6453721966308206,0.06224383933405648,0.9322986609574481,-0.9962904405926227,-0.5151449336056052,0.9286957766032344,0.4295314823744947,-0.6485655331775694,0.3173120562893666,0.616351194233672,0.5171384728493201,-0.1617669299476968,0.11050661070809875,0.6896858029841666,0.19615988358298972,-0.05489410315507035,-0.7239419859202658,0.9619237843510882,-0.14863354675109702,0.5157216300043607,-0.33852351996579383,0.8072744289749327,-0.6183832773452839,-0.42807499500471535,-0.5159919716227954,0.629650497867198,-0.7000250337668086,0.3418706453631124,-0.22000696105854,-0.7369176832333142,-0.49789487912324765,0.5932444697282047,-0.3238793366691204,-0.7088795799434019,-0.8078084694975176,-0.5725827924214858,0.8778800681054707,0.44992501698061793,-0.9596267857266774,-1.0405509625536886,0.3524994507865879,-0.4502996585865915,-0.6085353686497399,0.010398677820840772,0.246886863103312,0.8766493165583197,-0.6103428512235584,0.5625211523205909,-1.032989231401404,-0.8372107291060078,-0.7952074164419075,0.7811665678244649,0.0020859913551119153,-0.27069375837417703,-0.10969566369238992,0.1034739928190529,0.7208847511739434,0.5093130541371798,-0.8358349565294118,0.05883207058782572,0.8412688993066477,0.32915779149339214,-0.41782707179984974,0.14434335205177137,-0.6270781782102598,0.6207273612394735,-0.27994189359652244,0.5500659223361732,-1.003158296889586,0.12744430282110172,-0.48283562851482753,0.28866765895182067,-1.104714016984035,-0.7214238686604435,-0.4248153123361107,-0.9200516526082497,0.14190605021313407,0.2743082701394274,-0.767557995706912,-0.019683205360647008,-0.3585512806102907,0.753686925327078,0.6315598368195616,0.611782845113684,0.5305918066225426,0.3282470271915719,-0.940593468959581,-0.9671838673079263,0.20766075854270333,0.1867558046293878,0.5961263303094402,-0.05515684360318172,-0.28081346284414044,0.32196876131767793,-0.9505914023392307,-0.5700825258914545,-0.2150427747563885,-0.5671092225991559,-0.8031875730969528,0.40316548176452494,-0.8553593358018431,0.2517345734012009,-0.9098537226930049,0.7588388443231383,-0.5939988982099097,0.4803021749519954,0.6449747839801009,-0.4667735106920374,-0.865078798641112,0.49844722103537936,0.29267588361514163,-0.18975825617117237,0.0199173365684371,-0.684616118458778,-0.6868748367671823,0.9559585474004847,0.9360542860143126,0.6824359089292283,-0.6109149290098381,0.6716546122132712,0.11602504812179623,-0.8838695932506314,0.8993439519475463,0.08380661259653416,-0.44414857003930047,-0.699901842332386,-0.5554284147492884,-0.006369165032008699,0.7007986580463307,-0.26545946504705603,-0.7021915024292158,-0.9321987666093724,-0.17712809610284136,0.09409637649421208,0.24130107987064583,-0.4039422495030277,-0.9465951936309475,-0.7243432232439619,0.4001268012773707,-0.783759726259219,-0.7379628688873499,-0.29235262389099376,-0.6675436632603559,0.4867232132235259,-0.4042675106361698,0.8855143489111734,-0.16471373236561765,-0.41710337150156035,0.3276693241846153,-0.7103325761438539,-0.022346773916377096,-0.5666243609771989,-0.44624428412484396,0.9357923833084252,0.4544829182609326,0.24350983945248714,-0.32018645915212796,0.8723058417368108,-0.6666869585577272,0.30130074017114494,-0.017143055220253743,-0.34786268340995413,0.21313854878632127,0.5643977771552284,0.9818791345604634,-0.41596052111131054,-0.949101907819737,0.11524652082199385,0.5838075899650106,-0.1566587505483148,-0.7855874902601042,0.531344047026432,0.6392434262740182,-0.34622840815015016,-0.7068976505033276,-0.4012938544216086,0.7421945160642054,0.39544147032250365,0.2026012017549935,-0.895430499200445,0.41377982884149445,0.6467937908925481,-0.5039439023159296,-0.3064096147155705,0.5209910269751888,-0.6918305880994083,-0.909665294600218,0.061839477751204845,0.28937851806457143,0.05113240603818424,-0.6908318957240879,0.6861688007013679,-0.9733801248577738,-0.1823328852004694,0.205516832772228,0.11129659320238727,-0.7550740297539544,0.7499762784264614,-0.07104608249740921,0.7595265308781656,0.5645881329392525,-0.1743092913851957,-0.14402024000047206,0.33535800622655776,0.4943015771021696,0.5603730495160969,-0.892548406597492,-0.4893305432843635,-0.9711865388762154,0.026685781546822388,0.6365729006356554,0.12337568900133074,0.14610929182119567,-0.623127289646924,-0.9505948681123638,0.3082889422240045,0.4842992415589488,0.47576054021190134,0.8907116841172612,0.5891310631003703,0.8307645879097026,0.21073825271264188,-0.3860885696532288,0.16854411078845044,0.7926758680273027,-0.8344297366250923,0.7091725054036544,-0.9330577240370235,0.9998102842101726,-0.5185702500189872,-0.7739791713870319,0.2843580134947242,-0.5603796498858801,-0.23221205291671368,-0.6949392869619757,0.7600004839076943,0.25564956374159653,-0.16065728440672325,0.6824494462385906,-0.2900735906657376,0.5627731711728473,-0.8793688230570745,0.7801324555711724,-0.6179820983938686,-0.761154481988175,-0.6621789008372575,0.2608940530637023,0.8724329586984565,-0.8603332352464067,0.6588208239111275,-0.3305496863323214,-0.7507220419876484,-0.9961825588962998,-0.6990218881456065,-0.7142700009839767,0.9784518687729252,-0.06751336391496097,-0.8485583706903089,-0.26660116885844676,-0.6620940063258162,-0.5843119939164824,-0.5115842740904427,-0.8086845033371348,0.15754711878166722,-0.9316304633659782,-0.33036065059670533,-0.3613264988459769,-0.27767827590728306,0.5696839200697451,0.7230873611961662,-0.3093266728425494,0.531266370888488,0.5197529292880624,0.4910561739848052,-0.8687195868181053,-0.7356938006314829,0.2442468864989443,-0.5737747013810953,-0.9334132922044351,0.5620185567269957,0.6865104880621522,0.5902607890914264,0.2452760340563084,-0.5431176278377686,-0.27002906750126765,0.38124018066221455,-0.6035508950257867,0.2998416069493924,0.6854240537995576,0.12688412907092286,-0.18063405707443436,-0.657264140541042,0.8330733504948179,-1.1135233782005092,0.2171911242391197,0.15520048599937067,-0.3039100397356848,-0.48070491989096087,-1.0273846642720958,-1.028188781382276,-0.7035131116124471,0.5314121264517399,-0.8961118810261641,0.1336259090079079,0.38876361052209524,0.07140225790112471,-0.8448854561721718,0.2790071615998911,-0.5860128536718174,0.5530558268536885,0.8726478168708411,0.9903418465868927,-0.5423421236947503,0.5412897270074875,-0.48969613942320916,-0.09666452402002018,0.05321210543678702,0.49389906166957015,0.9389401537010135,-0.42108947012981895,0.2655810459893235,0.46006148344168557,0.16217346190832713,0.7388179927357962,0.6379735787001977,0.001102345856496875,0.6880599646766226,0.4224968628408114,0.14818993126263832,0.2694452244325723,0.4292449720929741,-0.648601392521467,-0.6185733933961929,-0.8262747605942584,-0.6608803970861759,0.3656047349066443,-0.5019818901841655,0.7073647272534449,0.3542318676455987,-0.8232413189615813,-0.6986338810286026,-0.9116121971997649,-0.464783673804379,-0.9649648479354614,-0.05644820113715328,-0.35544971568806377,0.24625975507956505,-0.7969103373169742,-0.5421849295294318,0.4217919726793602,-0.9316505823168246,-0.8632723494847144,-0.3382953237770363,0.6734490676747676,0.47040166800960803,0.45325549120537645,0.9843524633122983,0.0660667001984079,-0.8320892334505815,-0.3413231535700504,0.27259026124590824,-0.373785569151194,0.7612869412889334,-0.11517871193850313,0.18404535214527784,-0.776874217953339,-0.8250530033713093,0.3075379163765633,0.6362289524317359,-0.16462035808935588,-0.9058208350707688,-0.6761079301609021,-0.11483783029676678,0.7213849269682281,-0.8763452206462716,0.700377658446016,-0.12765854996148215,0.07682210504916719,-0.5851125924463617,0.20166139268235905,-0.3119827917794261,-1.100897764113117,0.4968652040492931,0.5776411088183399,-0.024356935714132322,0.4921506370327405,-0.9777747961318258,-0.16471181865447318,0.9950975482798496,-0.5999303882763624,0.8433047884641071,-0.20160173485630062,0.16118188725539095,0.6963945810819261,0.9338838928754619,0.6729295478817081,0.4584110489896867,0.02914200947825783,0.49110259267972006,0.10362946004328956,0.13536658557429965,-0.13705530626542367,0.36343770659263974,-0.09401715550079483,0.19613730198141496,0.6825752255748813,-0.0016654796982479069,-0.8900633282624222,-0.8995148146925107,-0.41749055577885485,-0.798107998202214,-0.7299306966612272,-0.42354992697805777,0.13769806710825533,-0.040658762521398134,0.9070767972297243,0.37424351010290985,-0.268398180614455,-0.9793236181842294,0.8815711616801163,0.02910716198550367,-0.949093429493036,0.6337171963256677,0.46990669554695924,-0.4928533905487136,0.2254855551218308,0.841874538804228,0.20223717713477227,-0.6970986780276753,0.5433459491940252,0.0047981328395549,-0.3955534666448834,0.4614076271245326,0.7585466338264449,-0.3292704829789037,-0.5730118642388629,0.8340233806251347,-0.5494434847404769,0.16923083833532274,-0.6352167748741595,-0.3893052068470611,-0.20583957955328747,-0.18003625733968803,0.6873689687638156,0.8485381096183582,-0.2947642868450693,0.2153048431780278,0.9018411702656348,-0.6497845663546424,0.1382500780414304,-0.2334175579330886,0.2890580042244885,-0.5464817536460674,-0.9228620704558893,-0.5382955565012102,-0.3879947211113994,-0.4195961016370013,-0.043608817735854684,0.9825665166236885,-0.5758350977239212,-0.30497443175712396,0.40354821037815225,-0.8853418539970717,-0.7219619557306112,-0.4711657459019866,0.2903489635793405,0.5637261807200993,0.11829076572549846,0.2772020583288556,0.7978296053786563,-0.324454191965852,-0.19144729643831138,-0.5014352112326086,0.13270766880860335,-0.7678227592760335,-0.31721044186976544,-0.6607981762297215,0.10983052378257274,-0.7758112097516625,-0.8098064497880033,0.018728945695948983,0.21541256356430216,0.7662537421430131,-0.6233650253010314,-0.35405048194949984,0.43893336891728085,-0.056738204847456286,-0.9917149339230528,-0.2803564398036568,0.21213155049055568,0.3285436567608067,0.12554128361412578,0.6967369891159617,0.3430872338794378,-0.7606855008559715,0.14678592420677766,0.13632625576400606,0.4476246760457455,0.7463266588651544,0.2780593582933587,-0.01991247499466918,0.5053815139210374,0.34511184089659525,-0.9178304059457651,0.10359942878556438,0.07326071650847793,0.2025168597498782,0.347076382854959,-0.19123489488570009,0.40738101664872745,0.20982029854901915,-0.5015248835838564,-0.12733300298537306,-0.47651934477363495,-0.6081758830273055,-0.8999685393139178,-0.5385655741085684,-0.9257708872987505,0.22454178233675318,0.1773577826491182,0.36579422815507007,0.45078255092286573,-0.6012058016860532,0.37562393512990444,-0.04354886668509416,-0.26422652132976,0.15473873686017808,-0.6505319723718425,-0.05032721865354976,0.619316364926615,-0.14316404978063457,-0.7407841156198534,0.6476087932152477,0.9227641143638827,0.8515289412995539,-0.8501107261735709,-0.988045469796136,-0.8879934864632022,0.4127082431256042,0.22151277699553637,0.45745945176729813,0.8854513062192856,-0.7523814000774444,-0.8785245449352265,-0.7645901070321515,-0.7470364736670132,0.7192787180588427,-0.6732599922988989,0.08289673260034221,0.6466295058972905,-0.9960432333003634,-0.8427569661532052,-0.9907657773382159,-0.15457194515596018,0.6073192045492654,-0.8197466592587654,0.4810027457212732,-0.7831793615087741,-0.6291438152180617,0.8893123510225454,0.5878890160284362,0.5476316092601567,0.43789651555360254,-0.5002495296562923,-0.09132199243423335,-0.5666982994502122,0.7144258129599503,-0.5578329168442554,-0.14725495480683387,-0.09980517902213355,-0.05740027413551793,0.20041161384205525,0.32506627433257124,0.04129301562520317,-0.946888088060271,-0.350709175963007,0.0830084624266469,-0.7290353629413548,0.10158719574290807,-0.8369659513823405,0.15220599306223404,-0.08286811789236596,-0.48301081731107476,0.5487295615875082,0.904972598263809,-0.31900207700810257,-0.09328477267080726,-0.7951351111305458,0.7038082425584951,0.8747260179569392,-0.7561704376191365,0.8127950578947476,0.37361240297567333,-0.7156813589094275,-0.09535614485867727,0.34044788947546095,-0.8097691119805407,0.00814164990335446,-0.271066891918168,0.1699765441485913,0.5591990195786285,-0.3143131757429061,-0.9562966588336008,0.7573247333677312,-0.8925923806493242,0.1581283106389443,-0.5790686920120227,0.38961951243144083,-0.478270875137742,-0.208308221696292,-0.1675487540852719,0.3270964453429279,-0.8575097852090563,-0.5531909352002211,-0.17979434491916724,-0.10057344269548518,-0.9440208989364665,0.390480211676564,-0.6823320711596965,0.9720430496081733,0.22902559253529864,-0.6737775807582462,0.8383174098324577,0.6062562140821584,0.09000928827818087,-0.8445644144832722,-0.11037460330329533,0.707651299167485,0.884481743174407,-0.9140318297063919,-0.3239093271129012,-0.009532413684090885,0.11991747009348208,0.2681201713256415,0.4224398063524958,0.6813589206563848,-0.5370645964613678,-0.7347265346054683,-0.021813962264326525,0.044140143242351604,-0.43633813836409985,-0.6442078368778905,0.7573190927668803,-0.9721732460528254,
2:-23.21773999631642:-0.896356436241339,-0.803874637341464,-0.811442651246548,0.40427527230648486,0.8992689565412799,0.10134739629747891,0.36621947333258253,-0.9228420266128365,0.09952851194815038,-0.41288966424465423,0.5657377772123084,0.1348258214045157,-0.12059038412659118,-0.46829969223989076,-0.8104319046645052,-0.10112739134743842,-0.7192039155161467,-0.0840469964102204,-0.5223412175906177,0.6201964682086418,-0.8277919508561502,0.9059439029733296,-0.7479035283847009,0.3346709533577261,-0.01301353843444919,0.4897120213294519,-0.8395588474308666,0.726737108866325,0.5715262229206057,0.39268689882959373,-0.3356055868056631,-0.695311028248577,-0.3041360808958673,-0.8296816868854453,-0.7276036531423656,0.6465022685240805,0.5621321954753918,0.6127347095845939,-0.6707995370198522,-0.007365390613518253,-0.007907562260034758,-0.1049150315559119,-0.9475698207795192,-0.95769609607484,-0.11683650212380094,-0.7314527431306438,0.4455691372211689,0.4523266046819536,0.9930648559501731,-0.48918475206477696,0.218801302052809,0.2426875384990701,0.14639927298220345,0.8412010820961571,0.9135515826430276,0.08056629514341251,-0.44780267910260396,-0.44567756522835467,0.05355282559461694,0.24465500500556514,-0.9203438606780303,0.23766913933139464,0.33470067124116043,0.964154839782369,-0.9399969002210274,0.11225320046026248,-0.3819903913967753,0.78198327100316,0.4655533039801007,-0.23224550333037267,0.7760251118990703,-0.5233102237314987,-0.9269795844464478,-0.6119297760397995,0.5441902694219595,-0.7834022186346306,-0.6535933961872393,-0.6421778174749432,0.1865289318846379,-0.9417954647000439,0.2225518253898875,-0.8585437065966919,0.34823586726659705,0.5118907138214648,-0.4357699001315236,0.31114636630454884,0.0801751570546263,-0.090290005943227,-0.1713919005530773,0.537855921563821,0.7187953455158954,0.08150904683240674,-0.7350029910272642,-0.2623935856237317,-0.6565000219029136,-0.5464370309430394,-0.5820040254889913,-0.11297314938185612,-0.20458978063357816,0.5963747981336135,0.10393710361523276,0.15179774618756395,-0.9357703337330241,0.925490311819875,-0.2335423233685942,0.4218939529934733,-0.8283706193993088,0.6948318810721048,-0.5425992688978271,0.21863974501782776,0.5404083819560681,-0.5800614162598232,0.8033380390928304,0.3211460504473225,-0.0821711870348294,0.33905618976394203,0.09483495618850468,0.24647782677453395,0.35522491436155806,-0.4656763315474058,-0.4911501935040422,1.24549538355488,0.2959469178622714,0.1834298762812977,0.8543305720369487,-0.6290732303662545,0.5041439551924887,0.7023908880752943,0.7098781746862992,-0.655753806452175,0.14401428288317053,0.3119319257463901,-0.514871838207032,0.08583884863317494,0.7666895923773875,0.22287953309912875,-0.5618299505533381,0.7358126829132094,0.9904098671210199,-0.8128851552392469,-0.2631658103592931,0.1296802191697788,-0.622148152325696,-0.5077498286010598,0.2556692663810247,0.19249576177538946,-0.7198435536637966,0.020154327124152646,0.3263270891620037,0.8114034643469767,0.7244028009002572,-0.5620182958742675,-0.21218328235247505,0.467381902134801,0.7831515004693375,-0.6285988017000786,0.40881271883942266,1.0042797866031754,0.08343401848101253,0.7686604895249322,0.259831347492238,0.29154135533162256,0.7389336528509958,-0.22837892308013838,0.3180386024635335,-0.627245676153006,-0.579313523252392,-0.3817625954144046,0.2928498651756777,0.06167892312877865,0.24717569473784068,-0.8278894610081894,0.08659683189168381,-0.6433921810663034,0.6828906563974487,-0.8139066369683825,0.9615684165070528,-0.6645887893213498,0.9988156438245092,0.8695857090908024,0.19919794344850628,-0.9156525815396956,-0.4971884096056319,-0.2895564429577762,0.2767708641874033,-0.3701651515803304,0.20419026414626198,0.5193760109139016,0.507799258027248,0.30601321239424295,0.6139127778705533,-0.7885610139382111,0.6540567447580079,0.255678282604549,-0.33235242916678187,-0.6327829910339837,0.5876102720357792,0.0366207586383267,-0.17267878586376723,0.07575443796233867,0.4005319948653843,-0.8320892476346157,0.12448649665609571,-0.577283873465457,-0.709284931302608,0.7222354814448234,-0.9360274941034434,0.07523038759191517,-0.890906669312604,-0.9694587441007905,-0.700284904923319,-0.9940726343966094,-0.7287073215636528,0.4931613839256595,-0.19788998789748977,0.41825314563489263,0.9395954275414168,-0.7341893331970137,-0.6879360895139792,0.8162570801380239,0.18672972932747464,-0.0800190223419677,0.3014312711074994,-0.7636257283849729,0.22976907479429465,-0.7548093053194476,-0.14677789079402154,0.07575571972936992,0.9561076046696368,0.7116090054338026,-0.721256097279833,0.7977474362080911,-0.3630047343941884,-0.7955207323788575,-0.2755476214464508,-1.0578573980736092,-0.25150955623939697,-1.4800014532741783,-0.24202636503198263,-0.7132773160096469,-1.233754844538712,0.43084329731789184,-0.1766198105265938,0.17525228197752918,0.8818365106374552,1.130648734542907,-0.44784340664758837,-0.7256331193416864,0.8230712626035952,0.16707927460342564,0.10925787014364884,0.9386640030345632,0.2740065061636268,0.11285144691489686,0.03496652956030372,0.6009879131291238,0.01912631685173674,-0.42672663772174585,-0.9736770611197125,0.4649807752729913,-0.5060683207879365,-1.1713978918208696,-0.5698394264984196,-0.5870971954486833,0.32211186522452107,0.5593784856978756,-0.6515312604353932,-0.9378813925680259,-1.0646377693612097,-0.41427224477951985,0.1279298074138017,-0.4992168694253955,0.41932363312973736,-0.8656791001170889,0.8925173484735363,0.3454923785113573,0.43513873363256433,-0.5522397036420731,-0.9824942640637944,0.05565697318704896,0.8667982604989899,-0.10061279875835204,-0.5324687886774636,-0.8081969674806256,0.5901673884773755,0.9066913107398296,0.1074803791193272,-0.603877468854919,0.8484886512203328,-0.8584482699593585,-0.36499565128201095,-1.2090889063782047,-0.08754263345105465,0.8224368780825851,-0.5236952519428508,-0.18729301178783672,-0.7809204556812868,0.4110816869013571,-0.009979371115401692,-0.29476860194692706,0.3242201685621054,-0.6136040893102357,-0.0146713438089672,0.4515976976219458,-0.14202087823146678,0.8404992521715764,0.4045979441059276,-0.4957944317135247,0.5354666675421337,-0.3551912344039736,0.09300236798739657,-0.05322908682873918,-0.4890364953970444,0.8096642783810187,-0.019892572618370435,-0.48640908342521283,-0.9909930232166161,0.47738534554971435,0.12961467715812477,-0.5140477578864137,0.5940453990310304,0.3499592224018105,-1.0734459463586834,0.35200446616083814,-0.06767729926842853,-0.9599200376285988,-0.330980348659453,-0.4036940178719259,0.6323476228013024,0.7027173269913396,0.9669876527933504,-0.8972114577048839,-0.7042386857018742,0.5541750007194483,-0.92876133617423,-0.15770110567167284,-0.08267270450108488,-0.02916364219301361,0.276752130893268,-0.3417307214887985,-0.4965626989152278,-0.9249792509751439,-0.07304378172684274,-0.5465897336017831,-0.8802613001074435,-0.476893913700096,0.4045696942989633,-1.2728264468750852,0.07044411112100592,-0.7398809212873688,0.029513171342472427,0.11088583243190506,-0.3350898288264944,0.046510080500775625,-1.2512996490431005,0.34044039379241847,0.6559250125075764,-0.49400005381163686,0.8903969285436734,-0.7589535923234412,-0.3678945376287568,0.02709268112985634,0.38649423441868813,-0.8003089562435575,-0.49105076982761453,0.4835040268881652,-0.6265148372391988,-0.0481821025474279,-0.9459908972408415,0.3256986545158811,0.9638474347148321,0.13423247243211478,-0.8659366448685707,-0.8739161589554908,0.7258576370408836,-0.03185242635783624,0.45800797000745336,0.594486745163174,-0.826302783566925,0.14694439012821287,-0.09058946030057939,0.328179883529742,0.18902082426951625,-0.6822265448068121,-0.7710273118560299,0.21018785368214268,-0.8057498294308882,0.90906472880999,-0.4999440164511881,-0.1570184403477386,0.3176649921980457,0.5114641325947176,-0.26375207861474936,0.196258559407821,-0.08897583664355506,0.6991230430352062,0.8818610173362139,0.8943004236102152,0.580588744191941,0.5138928170108921,0.11831455992972115,0.6724631031517586,0.26870572877376175,-0.971159700617685,0.813249224703043,-0.6381108840103694,0.5482707653391431,0.18595651142137792,0.35203375710055285,-1.1360065495013754,0.8863665939161575,-0.7463374656264222,-0.3923197314934703,-0.9282820347572348,0.6710320782600048,-1.0048771452619287,-0.6615545812281393,0.7817995036836007,-0.8211516333588444,-0.9372346665958478,0.3043347402450338,0.5042537666341858,0.7091557337409242,-0.6326591218115316,0.2965897643141924,-0.9067664901682755,0.9948204132179643,-0.2656421748637947,0.10289113726803084,0.449917706889476,0.784588519121558,0.12647624100741595,0.24878532112419693,-0.6822537064609678,-0.014497730166732977,0.11116343482500794,0.8012434417395291,0.2368863423159715,0.9328223636186022,-0.048717924659812326,-0.9073836293559089,0.3514164874244423,-0.2577673197155443,-0.27668994315467765,-0.31780905040558294,-0.15187584919234315,-0.0024553652764950436,-0.8794632902327764,0.3817499483991893,-0.21063162822062131,-0.12218842200282946,0.7985295441849136,0.6131820596107059,0.0915097112725795,-0.3315547161884906,0.9516935140082284,0.5691385101882847,-0.09363231409364718,-0.1862784584947036,-0.5688612536524459,-0.8133228773932905,-0.5914162592223183,0.08841076094554262,-0.776829699858015,-0.9019324148579078,-1.0099155198238912,0.845089284602258,-0.5412336731138234,-0.2955320626419198,0.6671879692619008,-0.9300674956267126,-0.22232602352311112,0.8616714865475524,-0.9649228468318592,-0.5993863778322668,0.6331333377334794,-0.2930923295518939,-0.2781947820761228,-0.7966867151264456,0.18593332178059588,1.0466321542884975,-0.2065034267620463,0.6314680739807256,0.23351142692448,-0.5308668142020693,-0.7741988863054204,0.261809799473076,0.5774609312810913,-0.5346957473406875,-0.8475554080131467,-0.6163754395362803,0.17032043965564145,0.6831041131186174,-0.6861276665497883,-0.23334403750822105,-0.15767957163839838,0.12685852190479235,-0.0020340879479100855,0.3193258944478583,-0.9122342389509637,-0.759794216407038,-0.06971110048720769,0.8603433091508776,-0.37869877145469477,-0.8247134129958171,-0.2520440384813076,0.9333616023240545,0.678746716335944,0.6930491871787153,0.7882239264986733,1.213462286846383,0.7333311196192933,-0.919427746262721,0.22713524413124214,-0.4637396174699362,0.27670179987784554,0.7607216144795866,-0.09277083778541127,0.425061991154897,0.8815979863983368,0.7479063313711509,1.025754615410147,1.0118850136199955,0.2176837713011641,0.763508933140475,-0.650583539309583,0.673985418537494,-0.6428989978299401,0.9324729000535859,0.0911431217470898,-0.9816062128239897,0.9640755735123321,-0.12589839617601917,0.11554523850032197,0.41090476205311816,0.196922119186459,0.15628515864417233,0.5097970183616647,0.6871147166182958,0.9621765834208031,0.8100362996800233,-0.8787065735046196,-0.2001786801616206,0.5790764575148069,-0.16962716384477677,0.8655212215391404,0.5374637147951571,0.7905988709223617,0.2563291994275791,0.8282005277824833,-0.12397996143299786,-0.5347959575801541,-0.765705834486922,0.6327749445896215,-0.09028196561787706,0.9665845376337296,-0.2342770057580011,-0.645368023271082,-0.3806005692656815,-0.199281831453118,-0.12310421833262009,-0.9141050069244426,-0.616027542901188,-0.030082227408616092,-0.5401090736920316,-0.044549849662654475,0.15762128352244958,0.3217911139141965,-0.7752755270886639,0.20076828298086666,-0.004948755722631762,0.8902384180450034,-0.6976652847016931,-1.0022683927334044,0.41167370374949314,-0.8159171121513085,-0.3171889144033898,-0.06441489688171315,-0.9873217638518719,0.3760312190143415,0.293547843453084,-0.48711579468762717,-0.4012259374717896,0.19853766850474813,-0.16423751798221797,-0.1493712802976401,0.3394230719458426,-0.2750874371971559,0.3936942491342801,0.7194790546967957,-0.8669825005367668,0.3131846888340909,0.39419444901420797,0.061280683350594035,-0.7108084257448388,0.9857177853259378,-0.7040820169923774,-0.6811433426767964,-0.7014704412291894,-0.25591739318374623,-0.025809580914455774,-0.7280261391096736,-0.5503725515978279,-0.3913711147861766,0.05405429708142312,0.7513884742691574,-0.47416756476029814,0.08218912179183635,-0.024843959554974288,0.12783654373359152,0.7568961757687509,0.5613485415002647,0.7758016579200742,0.6202027548398423,-0.518729650624937,0.33999536854471657,-0.9069341742580777,-0.2052351682715381,-0.19074258363642507,-0.9268286136503433,-0.8684530991789293,0.8190120066334967,0.8161371316177362,-0.30824680619148004,0.6995976326441391,1.0336063036528593,0.36387240522760705,-1.0072104852096817,-1.0311402851815314,-1.246056292738529,0.3734364904988464,0.19481979626459728,0.4890121775668898,-0.005793916269517456,-0.827266184225778,0.08834137782254618,0.002302078472658746,0.1426733496136455,0.27120331138738135,0.1710776060727942,0.06536445991195569,0.7314466110075621,0.13839316797471027,-0.42590449836016964,0.5706401978649127,0.03166801908934702,0.5669631038275162,-0.3082535715177364,0.7582199232061423,-0.508922681211587,-0.6296324289145642,0.4032680934117479,-0.6099471739562362,0.7312646604302978,-1.15379188284799,-1.2620115689633737,-0.24904433640280912,-1.2183660225146953,-0.052190532028554434,-0.3407209077756493,0.7303572224824727,-0.6674393056084906,-0.07159580130084267,-0.5310292141263482,-0.7856684926332468,0.1643532873469485,-0.9244543465491234,0.08318642538312118,0.4167573493410919,-0.3500237079664878,0.9920007886283956,-0.5783794699126801,0.03433241135352927,0.8397746596423192,0.19959491663585105,0.20601481280623823,-0.37025276278163644,-0.01507428194553281,-0.9100563828054836,-0.06565072912845933,0.53597085701861,0.9510670421180404,0.5876314631284755,-0.7802488639446133,-0.4264624970244531,0.07419437421196917,0.23374490545989912,0.7855653373179985,-0.7614850170796946,-0.14429470816181997,-0.17747673780558657,0.25412323785433977,-0.5715053219822083,-0.3084635807859953,-0.611905383337389,-0.06590602485830195,-0.250126092455629,0.21194435412659676,-0.5918126721746408,-0.5173889726600689,0.30972907223231827,0.2978117130661262,0.05413897444316529,-0.43763963229493763,-0.3589972377678566,0.6119795571132114,-0.31381925257548,-0.259042218247573,-0.1410562269261539,-0.6419619567998929,-0.007979239128756742,-0.01690455068558131,-0.2776048332176181,0.19762228083059047,0.7867318538952079,0.08929132748826163,0.9182874000528968,0.9966484459887981,0.4134100025391695,-0.7269332517585554,0.4235719904602371,0.8924417343282984,0.8420425089014535,-0.06025654124175084,0.08904339523161786,0.0762476325407091,-0.05841807689929013,0.8140632697268759,0.2397943948484873,-0.00532341640174927,-5.066932736652596E-5,0.20418792068908997,-0.49952071545626353,-0.5024940429267603,0.4281697588843457,0.6280527904139462,0.8975925229044535,0.6592678232416062,0.7383221252596033,-0.8231788728740287,0.03603641275983731,-0.3305563405765239,0.6907444828174637,0.7386096043028088,0.39144864536331264,-0.4783155411687625,-0.8768932161360609,-0.17701125791599912,-0.3978910315880836,0.6957347319007804,-0.848580625588792,0.21415150158812257,0.24645729886536816,-0.6252661072716752,-0.2711683835429983,-0.8126031402748055,0.46125612495589907,0.7236639652528634,0.16785617142233789,0.4205857506873507,0.482274630645084,0.35773090530675744,-0.07771767558962332,0.8552773015204498,0.28218770363421947,0.6952770375084057,-0.527320738271957,-0.06183835977989431,0.3625211577990933,0.8663135139055478,0.9397149645989238,-0.5088596079432928,-0.10546347197697173,-0.4541255670530959,-0.6522845523498022,0.47086030802785295,-0.7503556347650201,-0.11977809183049738,-0.6621595245472311,0.9585786403197543,-0.6318630033670214,0.5352621415768608,-0.4302916179131382,-0.13617690176137232,
1:-50.19019852978552:-0.7009278173744704,0.8371261074099019,0.6116365842392826,-0.4944621914098519,-0.23552353441839546,0.9907390827968354,-0.12759178392179416,-0.17003998845220525,-0.765782750360193,-0.3824739537400841,-0.9140556053818805,0.3068990156896607,0.801859305780831,-0.71535639567778,0.4643355825259632,-0.7442819913902643,-0.199916015339771,0.16052513111985145,0.9462108197333994,0.2636026992458449,-0.17957156059429313,0.9948768430857717,-0.7382190801319701,0.9015128844274822,0.09903943820386418,0.5272649706487584,-0.8077036015202959,-0.44618616781195297,-0.14067729545203456,-0.9769149756065669,0.3032769411843501,-0.149581912617617,-0.6550521008386214,-0.3935920094982437,-0.645300737413546,-0.8077785964794917,-0.518253778719598,-0.40759868723765297,0.5776572069277007,0.425069965365079,0.37461677753532063,-0.8822747971589375,-0.9441638094075249,-0.15555219624084482,-0.8243645003899442,0.02550871651916453,0.5614727494496787,0.4025289491888391,0.25213824552577635,0.18221231015300599,-0.630702427212529,0.24118924676661369,-0.9613713419503802,-0.8131125627217031,0.8082884063054336,-0.5109720977158962,-0.5260613346350804,0.7790464483753645,-0.39011163046136454,0.6374007343959067,-0.4948517664090617,-0.8404407140028558,0.4726714409697417,-0.2500788674678004,-0.2180666634627358,0.8669259632437742,-0.35924032147984886,-0.740099715459738,-0.6268554481968831,-0.7733629910526393,0.15174152475819996,0.18933448766757863,-0.9115855163644561,0.7814552302284564,0.6448055459821036,0.19071137505839192,-0.11236125087617335,-0.2734078162428619,-0.07509178222208653,0.1805081981545809,0.5614043351404538,-0.11298720509854965,0.5948266147395351,-0.32835752748362035,0.15105830122526354,-0.13752145783463532,-0.0116652490253073,0.9251093790270624,-0.7561001644661833,-0.8685367309754368,-0.552533239451628,0.05885347144220839,-0.5495154495975535,-0.20406386262767612,-0.5299647010852363,0.45460729162544516,0.14061566640022605,-1.0879011037292994,0.946367846740647,0.029993472086779632,-0.3234998238351192,-0.40793397108997764,-0.34326027799006026,-0.19499720219580366,0.18693901755511744,-0.436604021183686,0.3444830899431853,0.049933045283959775,0.11010822665955568,0.28296831178692505,-0.8294956320459854,0.7237774302172646,0.8496760370204637,0.04284163215761816,0.8038803015427987,0.3267345129200592,-0.38193346219024815,0.039435421692497856,-0.8526726797182039,-0.9008292947235038,-0.8997470589428875,-0.48088299534106566,-0.04329294000391743,-0.30304470271238726,0.3074401523269902,-0.40935221623034673,0.30141602226842706,0.05729473142724473,0.5856148357915543,1.0291094368707325,0.8062534913579388,1.1013075976965034,1.2762570623869511,0.47383181078671643,0.5322025479736612,0.6706152133887203,0.3891211647125647,0.886101889404208,0.8545443000335053,-0.38700629720661794,-0.4842683193709114,-0.09526549082618763,-0.6599139264406737,0.009724790529462065,-0.48208173424922474,-1.020470798349903,-1.0881992372905667,-0.6297591072240527,-1.2564425437091302,-1.4220747315000077,-0.5772743403291577,-0.9236748335550723,-0.14717876052355658,-0.7957186052490615,0.5686348840940811,0.4903819236782617,0.7211837719788007,0.7913992919553107,0.5099863305157882,1.5087580069050754,-0.07869977053724639,0.379783307950477,0.5285029720230008,0.9556950662490092,-0.24387017110087694,0.9569521851854562,0.4884218166140621,0.6143473604878844,0.5815349549567994,-0.5610850427458416,-0.5064920946337441,0.6904024715386946,-0.92866132961924,0.6262758393786791,-0.7131551409930673,-0.8007602584532515,-0.21825332215670398,-1.4435246582105985,-0.3825063172706227,-1.7852690241537716,-1.6027140634745887,-0.03575836124925596,-0.41865735845978164,0.31871786333567337,-0.3262370193858439,1.0167254382824693,0.1445905863725719,1.5001918181228628,0.7040342420483283,-0.7243284832739438,0.8969336094955734,0.1490175185867612,-0.9191787408465666,0.9067364367439403,-0.015532041968080095,0.16520697176965846,0.6789521810288621,0.30980542869230665,0.30108335840335765,0.7447053605148986,0.5617729033391767,0.03684743350301835,0.3804216226853423,-1.7348024212890305,-0.33141390686138794,-1.1610485135003974,-0.7084202899357812,-0.37886671297224134,-0.5025344599484554,-1.2870275913314544,0.39556564177202647,-0.8706973962802259,0.31331794327170076,1.389985794569008,1.117713737019074,0.15860749397898477,-0.2157504043605465,0.6838489176957663,-0.5700146035677053,0.8430459636762222,-0.24705515946291343,-0.13619557615390387,0.5582031383214194,0.81687472597754,-0.6656396379348644,0.5337975387688254,-0.7530754557254133,-0.5703634802612261,-0.714602664549359,-0.29078347615625966,-0.3863396837824673,-0.5628660187528742,-0.03858194129032442,-1.91643505629475,-0.505999741210783,-1.1089902320783174,-0.2702021478667307,-0.7834616752534731,0.1877240409080761,2.0418607949865435,1.0819328837945876,0.679983952661688,-0.033010257801453155,1.1294441391361145,-0.4100696947630035,-0.6138013207863641,0.6084362693354012,-0.7231312420832035,0.015946761207342165,-0.7180275749927619,0.7705782821246625,0.7390044780067553,-0.13154684485349433,-0.9141271302871833,0.531560643338145,-0.9190416991424246,-0.9371276873389466,0.4682428157154661,-0.44356451943856395,-1.108477285909654,-0.978247662240898,-1.4868276367778732,-0.8468722482348875,-2.2813737836290024,-1.7807507074786737,-0.46114320795625985,2.0374495262165255,3.1844082935598435,1.7067519632962367,0.14099470467667832,0.8206410761728893,-0.8879520200785805,0.5898208810024094,-0.35563683410662134,0.23260858198679568,-0.7028989956649532,-0.4093145127810466,-0.36892704021593503,0.09428699698556568,-0.5777356096761699,0.6165586046045456,0.6727600060687625,-0.8394965810409066,-0.3187379106900864,0.04578944581918043,0.04801532664837844,-1.0378084159442267,-0.5543764696423733,-1.0257801023265152,-1.500181745777598,-0.6267154042974754,-1.4380555260419468,-1.8297145951343725,1.1605776372723922,2.5171048501711897,2.412909880124288,1.9869777481035795,0.6118049919727463,-0.5520781144167741,-0.26939626700987407,-0.9110230627448751,0.3997700415451219,-0.3757456174916402,-0.2287701241474987,-0.28656472416324597,-0.6372757010687521,0.803920054084409,-0.6483567881477058,-0.08478972817063135,-0.4309487823921272,-0.179664315021096,0.3366455428197259,0.1274852197396637,0.9183159748849651,0.10550533590768583,-1.2558459488590659,-0.7579090111209523,-0.2664415815227913,-0.20683562498305202,-1.251230488856497,0.2548378341701481,0.2334716707709488,3.2931293695542085,3.935271447950415,0.2889303223422047,0.12166132569346834,-0.7813989340482629,-1.1169664324451025,-0.8544503831167929,-0.7849646683558656,-0.23745572770831058,-1.0823594539423407,-0.16689877312197238,-0.9554040997815512,-0.5396833229213617,-0.5127461512631198,0.06828823795841776,0.00840547918287049,-0.9406482423917598,-0.7177943470643443,0.7031158346568274,-0.8189146982498058,0.49902372747628804,0.604829413961279,0.47258052524248045,-1.1175622214983452,-0.784898977651712,-0.6856318046105144,-1.548894177125735,1.5881290523046219,3.4279136059460353,3.208033849103403,0.4234870604326347,-0.3154131353236168,-0.34590098351719517,-0.609997353244334,0.4620963037387554,0.2847372416009124,-0.03021538867973219,-0.5281171643452309,-0.31296961493840986,0.42069067541740246,-0.8234308257694922,-0.6085602116868105,-0.28887325315486745,-0.8448331171290664,0.27610580702517473,0.9898964643038844,-0.166682027533594,-0.16866033395030308,0.8064586019705609,-1.1862239948352766,-0.25859592802185544,-1.1426086637811972,0.07723004212065789,-2.053535049967618,-1.8034699748032397,2.031802369834637,3.238988290163423,2.358022230180549,-0.9895591093523727,-0.3744330211764557,-1.4991318273588354,-0.5989662884725877,0.49973893888779125,0.31100265836768637,0.8052835402835009,0.33864573541229964,0.3255865324966496,0.5539463232770407,-0.7884729945373057,0.7804442606511908,0.633562204125826,-0.847568298851878,-0.5569364646918133,0.3066071813871332,-0.9413072995080941,0.4768218676977435,0.21774366781003948,-0.20722872390986408,0.3925682849705657,-0.9945024874512379,0.007014423494036955,-2.023026302510159,-1.4502864198890753,2.512433295879619,4.229392560606334,0.969004852605385,-1.174770671051232,-0.7329649332103518,-1.4137567323139515,0.5041114810028582,-0.23463533716828494,-0.5342903828294886,-0.6725984837732113,0.22299586079822367,-0.8477690861180145,0.6917353752257634,-0.7425179708547168,0.15585417229402232,0.20297392050068797,-0.8492001192759921,-0.6461632307838463,0.0029302284116827083,0.6998557778623196,0.6904421513606387,-0.07708830504428868,0.748134903930687,0.17620377958616387,-1.283403552954128,-1.7817926159682256,-0.3420502115526436,-0.4549835962310675,3.302826326527171,4.081703789686516,1.5699118073734866,-1.4847833679114457,-1.2892485511690694,-1.0079815521215603,-0.9105148876167118,-0.4224981150136716,-0.07546815876563116,-0.8440165785955263,0.38847406884398,-0.8071915319313006,0.31766061631264736,0.004915095522223943,-0.01451562914913359,0.045948178148564,0.5677494051293297,-0.5186004677141746,-0.5000140198472169,0.31267561446695147,-0.11170995353800424,-0.615113950529451,-0.9565390768591319,-0.3658862911587026,-0.12860775260614277,-0.7328161056772807,-0.14329183821257693,0.68296094553693,2.863700354989313,2.633084666201231,0.6503870521819218,-1.7974350402392472,-0.36325647064865363,-1.4372733350812152,-1.1804362172813894,0.12481125148357425,0.17574440390091706,-0.8844097889970423,-0.7452870066712111,0.13664201740026258,0.5329594074338417,-0.7519405839759935,0.6553210278218383,-0.3977262405064579,-0.8892238399253478,-0.7291027980694798,0.8531023635654336,0.9417220349363097,-0.6665194244156244,0.006684867168226006,-0.059956674157259006,-0.9856067952149332,-0.47000607612623235,-0.26533607557065764,0.4563538598737674,0.5278671864640038,3.463513929010722,2.5218186760513777,-0.831296974644407,-1.0859984493771677,-1.317685835586618,-0.8415635840261478,0.1720305467673733,-1.3503569156711022,0.2383041730196357,-0.13402790861323297,0.17803116248454606,-0.27024319211488024,-0.8997324637757651,-0.09408292916923208,-0.8964043778483602,-0.44244444294485796,-0.6818553408919568,0.8645813801012179,-0.6764810794955598,0.2700011807739112,0.6220364591393771,-1.0846109615297594,-0.7648164542595598,-0.8657875732451217,-1.2796196561671473,-0.9766624638475784,-0.20106594294956426,0.711350236846357,1.6996631960047366,0.6852965206639418,-1.14839609038894,-0.3723529544437429,-0.38282634617736944,-1.1057959772989825,-0.06444552943317775,-0.44420860118564875,-0.900998953231777,-0.8849985431967649,0.7386934170770754,0.324776516585759,0.702951438304631,0.8820074825236729,0.6750151056184805,0.9908116559942672,-0.47070298694817736,0.8676841802324777,0.058484724815316,0.6541420848847587,-0.0976125709423631,-1.3057309937517347,-0.4702709086606997,-0.3765007544953997,0.4643475446385301,-0.5838830603963705,1.9610562275969259,1.9095869687164944,1.3028979586152527,1.2005001876556187,-0.37669527782713874,-1.9902628822963067,-0.8974540033390499,-2.1052709870048347,-0.8702591858999732,-0.8874006608696408,-0.8354223075178409,-0.8161554125050368,-1.253226738830906,-0.25461615175590296,-0.30970214293404197,-0.32829527941587044,0.29762528016166856,-0.6590043349949501,-0.7073271215965928,-0.18711246976080242,-0.4728797661982796,-0.6248775722417478,-0.30802735889057764,-0.8479515992996824,0.700502000413407,-1.148637239377079,0.1662793551728186,-0.29656351248337776,1.6934533532230045,-0.11477803347877552,0.33863557340439276,0.13890368831920016,-0.03208397370379534,-1.816055673593619,-1.0612244824657424,-1.10632042030138,-1.0921463124099748,-0.36419320318335,-0.9611722975091824,-1.2469926326358443,0.30582721386299466,0.13077875037208403,-0.18238496258446082,-0.9554812418063852,-0.41326064408487584,0.0014664142929436963,-0.7481059810629913,0.4673696091913879,0.42394083995412013,0.17079718058608148,-0.24392576239447186,-0.4270744764923289,-0.18705262631921163,-0.5570922389245789,-0.1680422511909565,1.1999015917883014,0.6632881497962956,-0.7825423650901083,0.49582739912092366,0.24296088877408253,-0.8267782179511657,0.36336467630154295,-0.4754108832242159,-0.7102208106784743,-0.787355696242977,-1.4301262550104088,-0.8167283775765235,0.5891465179582781,-0.44662199550136306,-0.7137341694287308,0.873390318113279,-0.9451697449183734,-0.08018438006093276,0.49400324588326705,-0.4780284816384752,0.05023819384711503,-0.24623640651945675,-0.621489896896836,-0.8017397604284376,0.8052269867895596,1.0683271463319912,-0.44781427203383806,1.2266002236711409,0.5250734659463214,-0.14038152827619638,-0.5602201367979398,-0.7289616464777414,0.9963062093503599,0.3012371353604639,0.37158406419752577,-1.0540606123666538,0.00862089776794649,0.19522330028761128,-0.8514470254255108,0.16940948644728962,0.5448303179179065,-1.1175413802804663,-0.201915473950727,0.2890884171500842,-0.3033391907083297,-0.09687819160638012,0.7540450082465564,0.4753966726922032,0.7894893733002439,-0.2557267301603002,0.5187896874563127,1.00107845915492,0.812191872611624,-0.17191674387620381,-0.441893110241444,-0.11362256548070265,-0.19064060225516796,-1.1037997682356397,-0.06651270224186874,-0.9706786249912254,0.8420249566625425,0.4811520061025501,0.15857622636056587,-0.3533095399265158,-0.8356768121162677,0.06699158789115081,-0.3695137004116647,-0.9914968357529846,-0.8288499630619015,0.38226477636028605,-0.3978428825179667,-0.40624894214872653,-0.29827445808432484,0.9654763079552438,0.07640681540610283,-0.29632078793917005,0.04645747101839448,0.16374919066994342,0.6109436047774238,-0.4289950497336736,-0.1683587001025843,-0.006708823927888127,1.1535224636622476,0.5512218279816447,0.14653088212572773,-1.1604317758189995,0.25476572539764203,0.2833188060132326,0.0906517003955365,-0.4706759842203516,-1.1334339182146465,0.4507554943811425,0.09703458488394069,0.7666575169774436,-0.5890318334053818,0.16481715891083312,0.875755601401554,-0.9135440431519507,0.7123571904879421,0.15148769087610814,-0.3280368774147695,-0.9336896319534524,0.7258099386334549,0.7031000941258223,-0.5279485388299578,0.260318200879446,0.44857478836686826,0.8365925803351039,-0.8406480946286428,-0.2747954711447088,-1.000201598730312,-0.5493165628101223,-1.0103935404444861,-0.6062977774962416,-0.21371470080153201,-0.4606876514546785,0.2852391101621275,-0.4829526804721812,0.6623174196191125,-0.46893351288367613,0.4205419606129649,-0.3745422957787425,0.6703550200976494,0.15086720041626336,-0.3290587319880736,0.5938815706855843,0.734687150172173,-0.9727526118596781,0.6260781841804437,-0.3052523731373886,0.1091345879826815,0.5541491253288982,0.33289928614774267,-0.40233211720508666,-0.7379089046902234,0.3663576808608296,-0.5250597132089986,-0.14645474612733836,0.9427358565813185,0.31379514513771034,0.22211154134837813,-0.05896495434364534,0.12839390498661116,-0.6864810331462663,0.722930384491085,0.8239965214769357,0.43549452787096715,-0.5573103444334482,-0.6535623667144305,-0.32421399588799527,-0.8191310418846205,0.07720743390967574,0.8966804009558815,-0.9536387580846466,-0.14695660025134383,-0.7614824543649441,-0.9536390427837809,-0.5366485652562005,-0.26361347966790194,-0.47767939138153404,-0.7431480066115843,0.4502110923426508,-0.8782612203372666,0.33310062052400213,-0.5283776642437084,-0.8906286746516476,-0.4657724957523801,0.8913102790519736,-0.06328223684065287,0.16438429793478185,0.767565047879842,0.3265012675580856,-0.7165124797424715,0.37446331103186536,0.2874353204231503,0.09643101744129608,-0.207847158279153,-0.8284711090232946,-0.2241056432119244,0.7599904800161779,-0.3489118510044571,-0.8311720523372457,0.5349622436941517,-0.450135991164764,0.9537083375379387,0.6646420788061027,
0:-28.90721074071131:0.17137725103087043,-0.9741530081592205,-0.6171778967187354,-0.978676781992073,0.5458196598097897,0.7492628384933431,-0.6416998372428622,-0.4196150948407509,0.8634784642334821,0.4287166154251134,0.7069421515146208,-0.5337745787023982,-0.07572520088616708,0.9001240650223965,-0.5605870552202568,0.04357319795330117,-0.844640159683939,-0.7954792980789869,-0.9338724048087634,-0.6644244157430923,0.21380625696431332,-0.8648017990347168,-0.9093322619528557,0.3534225061871952,-0.1923454696447564,0.7013924043650397,0.11318522623268512,-0.9579854962221517,-0.7231205409072157,0.7790916256214124,0.6097717757466148,0.6757214133259417,-0.3347051423859362,-0.8878874511330959,0.17447760892153696,-0.7878947858584866,-0.2336355104018639,-0.21833540110119834,0.2938626564920125,0.8478079616076714,0.9403656181389971,0.2802327240589185,0.5696727104483957,0.8196354122434399,0.37721814817219196,0.4055830975376477,-0.28657603278105354,-0.644804659904429,-0.08108819164235803,-0.6665270864858801,0.6073991968486461,0.601270510380993,0.5572220717443319,-0.5675106995344652,-0.740248507214567,-0.6555480633337776,-0.713001275195039,-0.34780820729692086,0.5771106274948361,0.3873625905827558,-0.8777934443877944,-0.3542616512628438,-0.46369728949957056,0.555149236549116,0.7713574627583686,0.17287656440312565,0.5437224304785147,-0.5201339888617463,-0.2794002589365134,-0.1528511941067277,0.6641622674831751,0.5536620688606337,-0.7100818795360779,0.5896687754483259,-0.6383277255838063,-0.28372309137278434,0.5951773914576493,-0.8327238096589976,0.07237283404702662,-0.848173797591119,0.3075608270497951,0.2960728116208644,0.4396672320498378,-0.6659318182053375,0.5798241895491991,-0.07785751185740475,-0.15784035542280184,0.3926866698795184,0.5922813595051541,-0.1492332472967789,0.058139785324,0.29890657355780703,-0.2118117904557179,-0.23818637976107077,-0.8514208303264873,0.9754517952674879,-0.9422937788096056,-0.31169803350808495,-0.4272884887043289,0.19818302086673242,-0.06693060905179324,0.5040962670421243,0.0701986693221285,0.5831523577278284,0.9544861753518562,-0.17510191748465578,0.151054727542399,0.3587571352918409,-0.2874712342635075,0.9855887074404571,0.7311302537516406,-0.2485625322199585,0.9034838582884883,0.28140168769525453,0.6518878233812169,0.2896002592184556,-0.7691921007666344,0.9031079787650974,-0.14331881420632678,0.06464768389005698,-0.7067913799936081,-0.9926016611328384,0.0414219461082204,-0.9909302176524528,-0.1993789056410369,-0.3209122885472911,-0.6395660536597721,-0.7563069780100299,0.4381386461523967,0.6442240732593079,0.7648402484299811,-0.9515893012062288,0.49389631141417617,-0.003309659114702508,-0.7591600025754486,0.25403536924600534,-0.0849191960447722,0.11670370133454969,-0.33769342926099416,-0.7984185975292872,0.17640040649807576,0.14437327476499373,0.34439389856909114,-0.3891381891385933,0.3571584719413512,0.9772765995590716,-0.9450174865301865,-0.4442308642559155,0.8933778120755603,-0.5112015460348908,-0.11862645964195066,-1.1416301999614114,0.5418789899314472,0.27369877736588566,-0.7563627669402481,-0.19208432813872783,-1.0606354881281828,-0.10832049434383591,0.6966101754659674,-0.3762103549656422,0.6912327166805687,0.7678757766971385,-0.8916930545821486,0.6074870002423456,0.3596977185838487,-0.7690792345815918,-0.5301132843878632,0.8315254963419418,0.8002440876807644,-0.7080194021156268,0.7626270921392371,-0.9844516217178231,-0.4864577770901284,0.005722517420397206,-0.4526517477618658,0.9338662190088063,-0.8334584240530974,0.6021813618676193,-0.3692231768405501,-0.3556638739802344,-0.7786727568972558,-0.11712623677544642,0.6327928176470227,0.7784378280314342,-0.35259297866161904,-0.17730340468361805,-0.525257090651424,0.7226652292488496,0.28436672980591526,0.6084439572721086,-0.46077421806985736,0.5754563761845466,-0.030945718221416826,-0.30570875434818456,0.7930991702185565,0.501372464663254,0.19548273746904887,0.7375707589915593,0.5142685719829946,0.5042718808536086,-0.9174918939688941,-0.5949358070213316,-0.5614745603598437,-0.572573867406852,0.4871647906955445,-0.030234118109142612,-1.049878017326279,-0.21917613184196622,0.17914642194581562,0.09469831993726478,0.47595032938538,-0.25054911594586743,0.048726312199241464,-1.0725595514871968,-0.13362970685681153,-0.6381943259189887,-0.3022375034293103,0.47402405428962335,-0.1363133877348662,-0.14633478048055504,0.3081182162222808,-0.13725336334772778,0.9066359019564684,-0.8446254908781763,0.3338821745089817,0.46496246191283414,-0.4926034437078382,0.6141745352503125,0.2939952424304972,0.14819664618261186,-0.9747228398102038,-0.1546493649062736,-0.32357527047215295,-0.3525155436565697,0.3231165010680836,0.07387802133663678,0.38618755191902865,-0.33867562688864356,-0.035609229344524956,-0.9553053583110626,-0.6052426479583835,0.6010654294938655,0.00677096418041174,-1.1342338210172829,-0.8241791739885149,0.8401969534498769,-0.44234573197579397,0.10631989721252579,0.9017052705599762,0.028147715400941565,-0.4333529447891961,0.02331442165807462,0.04424421093877705,-0.10546304255084432,-0.27517346184754116,-0.46978268807591506,-0.005942740630278248,0.8016147638722679,-0.021139966748474116,0.8176011703169406,-0.9933985261124562,0.6910474184814956,-0.37074855380361826,0.143877900120913,0.7002533935716061,0.4726044337518681,0.5720920050402261,0.07515998910277198,-0.6253907746005463,0.19447075546060572,-0.4362680938794404,0.6300659274846505,0.47765001764276144,-0.1563851528320863,-0.06378417572287719,-0.30583381548218136,-0.8385049224600872,-0.7607800148738443,-0.5478335027388622,0.6438339260478139,-0.19275934290662974,-0.4240723493387786,0.670505081681596,-0.5178358601947491,-0.9315187494529422,-0.11499420179286675,0.5756306333720288,-0.4513609176211456,0.2713844944104049,-0.48897908661876954,0.5459299813850036,0.6087856086200957,1.1018962994131067,0.7342209420179467,-0.25714426623417336,-0.88304360988134,0.06025151756477329,0.5554887730011265,0.5361552138451203,-0.04810345891807975,0.8055664890444183,0.7794460335263053,-0.417069802134975,0.5109348706342717,0.6992179636342205,-0.8908248467268192,0.030031106164806195,0.5001751016941195,-0.36812691963254146,-0.31440253740602436,0.32983707734659407,-0.34700687706892774,-0.1545344140392208,0.024936681494676552,0.8813740238035128,-0.44716619843519273,-0.8691828389898519,0.41928867696126204,-0.5664061684269984,-0.7017469524880293,-0.05774786965968321,-0.28640268081961756,-0.8578823192603748,-1.1206919447095463,0.24637129113243,-0.6046337597379284,0.5580845984113723,-1.0324831402082806,0.894789126721264,0.32896872472854194,0.7215461669104196,0.8996793605448997,0.11205405816609133,-0.8500653599628992,-0.5454380919562544,-0.7048698091695398,0.42077949700473294,0.4257333044655858,0.8313194601989418,0.11926305812059311,-0.8237388545236816,0.9692699343710788,0.2769612821267383,-0.20199631472364396,-0.6470211772644182,0.5536186180183027,0.9709871020446901,0.05563282598993494,0.3975152704169162,0.48414244417849744,0.7761049409296685,-0.1370258487533083,-0.9711932378505997,-0.89132754598466,0.3262741410159412,0.5857138616344894,0.31730209859643005,0.48655745030061576,0.6711938674100189,-0.7941779994758909,-0.5764699135050351,0.25193857344517834,0.833976820185934,0.5658212273794623,-0.01620647053012836,-0.6243626003710842,0.28027199742660475,0.08923139778971333,0.21215090699727612,0.5418347052018138,-0.6867142929702238,-0.6464135116330494,-0.5043017053672596,-0.6630375092571338,-0.2785214720223168,-0.11701175093216216,0.18655438111448297,-0.4545701415779503,-0.8112942999703295,-0.8260786207725694,-0.9406259188265071,0.22654083042226988,0.472554175316141,-1.0610627113169253,0.03155214968268033,0.9963938633453938,-0.30237771939792035,0.6131591590408082,-0.2861580574310236,0.7075406311372462,0.853708266558866,0.4502611726983625,0.5478545483886399,-0.7608384283751393,0.45569150793303154,-0.12887584073952896,-0.8526840077987816,-0.9258701416796519,-0.09006624441308612,-1.038959393563721,-0.7461475506602215,0.9218273085417849,-0.6554893885298366,-0.06224520600218481,0.4695039613117013,-0.6308545077313561,-0.7132417950133655,0.19361050698059828,0.005229118876768903,-0.6893550031170834,-0.19129237756420173,0.1885948963685943,-0.783963105961463,0.9711674702759943,-0.37106088764550166,-0.49843433321878966,0.14840435000001065,0.8623026333499104,0.3425022804793529,-0.03352538994607057,-0.7608889357364936,0.26226575859624845,0.2200705909525838,-0.3809967034456584,-0.6150845672269831,-0.2595540127503665,-0.9290242170911787,0.4717021123361865,-0.4913757905297459,-0.20316279018805083,0.7914037958136232,-1.1263040350598832,0.6854285237839993,0.378695739064248,-0.5312191079503661,-0.6241815567715371,-1.0266076680582454,0.6441524839549224,0.06472322146924071,-0.6592763272217484,0.24808543309218284,-0.06220892278602176,-0.042961299505670535,-0.0781450728807082,0.7094983722252489,0.6635081435830953,-0.09962139357536694,-0.8487143753892564,0.5771109263232888,0.862080304085003,0.5873044789889276,0.9509835547086636,0.7091766796194003,0.5572792154524686,-0.3995790153964754,0.6074361953134161,-0.31099695685739914,0.8041330583178298,-0.965700947686988,-0.9920531190928709,-0.2047272612123811,-0.6425542015297256,-0.5834903467992811,-0.3188615888961372,-0.3012056543798256,0.5467687024752254,-0.39839878580108223,-0.11934619554983066,-0.9783588122830106,-0.5168417311903708,0.5595427052140545,0.11023098274155547,0.6543356675115178,0.9824176554358988,-0.8217649443915938,0.8297073106958157,0.5230050188188009,-0.28600933662732664,-0.5728039869614876,0.021364995908358567,-0.883738647590714,-0.4301724793801218,0.6739508643909166,-0.6987532907426388,0.42503671558338885,-0.4103457935658289,-0.09453928895710524,-0.8980286169813954,-0.1491894482337891,-1.0953659533090707,-0.23951002765218105,-0.43435197100763745,0.4588104837842722,-0.2543389082591732,0.048615938306442626,-0.9334584218959768,0.3561967555766537,-0.174840090526807,0.44524881284164886,0.08264986927358947,-0.6669270596215618,0.7151594256463686,-0.19292348225078618,0.6471963466977224,-0.9368474250031682,0.6858460920178293,-0.2443515771271268,0.5519636705555521,-0.04736928130742026,0.9261971155938143,0.41192121891261185,-0.0818505337454453,-0.03496950836490792,-0.9010720538163868,0.6437220117889441,0.09772598991412923,0.1753702313277718,-1.093801571328082,-0.019752900939934252,0.7381874400644626,-0.046622264150895744,0.3666484643914037,-1.1110917833223501,-0.3658389280810573,0.11741333776558176,-0.14329848230564735,0.09665734007247984,0.5517178521198209,-0.5032215291232817,-0.9888204043657207,-0.6794157871563739,0.29586392788435134,0.686466836778411,0.5884690535044788,-0.5320351300181406,0.6893012848386368,0.9529242904119726,0.37241994975138165,0.5433633573931773,0.3253626577219812,0.6173540976072311,0.6719474856829949,-0.9231725374709339,-0.5153673780789048,-0.5795334622747639,0.3504054575127191,-0.5245448505905259,-0.0584225222966605,-0.946808667187606,-0.7193662444447564,0.5780708473459981,0.47734002558943084,0.8042098194675912,-0.49821788037377657,0.6341034860692953,0.47939403716729295,-0.8373856663182031,0.46455472180361335,0.6978487142092815,0.602062837544321,-0.5717094371125087,0.7292217314284852,0.21829428176020038,0.3531195646924756,0.6118285297329643,-0.7230449741213986,-0.2937468450212822,0.8552732716488077,-0.06748588592790324,-0.5900977179097965,0.2513930186048525,-0.604776881180092,0.84207701328057,-0.5500714682305625,-0.9763371596004162,0.4561236716443549,-0.3659273965365444,-0.5521361814073541,0.23264203743652098,0.32801518798457396,0.5632482947541563,-0.2331318946399736,-0.5923315431665493,0.3326965939557154,0.35837238756416107,0.5922099185565026,-0.6260402814355968,0.31659746130195754,-0.5944542811938456,0.7104627744969769,0.9314949240909787,-0.02199886329830271,-0.6636266760794919,0.6821319229719062,0.7680746451044413,-0.5723756526483342,0.13459963741976086,-0.04120195685747189,-0.14181919156565492,0.43393178605956,0.5860143412147136,-0.44640860469440613,-0.5418944632655059,-0.7649238239090349,-0.6296522359495643,-0.636897253176356,-0.41332608692760564,-0.7517586430064298,-0.8819599431720979,0.7846534855813789,-0.28727237733347116,-0.0488703430788105,0.9521846066410904,0.85410600377588,0.7241852061270946,-0.9398669941202848,0.9573534457172026,0.8073054276440814,-0.8456138214960318,-0.7762689734687647,-0.8500014333394065,-0.48364570462098355,-0.21212278137538876,0.3168954779689293,0.5537531367952482,0.3767887235845911,0.5204744687751327,-0.9990346909844428,0.7900418631372652,0.6269390191859638,-0.061856893520611404,-0.2281646926796254,0.5163656404223927,0.523245126693118,-0.14432612077927495,-0.2737844143322778,-0.843953611918348,-0.19611427498317863,0.8244607059941228,0.7063063242409616,0.23393659398155406,0.5985102777375366,0.12322465437276654,0.9252077256155649,0.6322749437896829,-0.41083204852724586,-0.8884389501438947,-0.6586524505486702,-0.328079360877177,-0.6446464451243442,-0.7713601813235856,0.32395806716331893,0.3030849279841423,0.29268771892193485,-0.012731048530059966,-0.06498304506309986,-0.037032670666291546,0.7721393014242286,-0.26762555979336555,0.14433513972235668,-0.37291807367288576,-0.05589613398748955,-0.9306109179120379,-0.018037138395078808,0.656500123684083,-0.37721567146207224,-0.7382287356669065,0.09984723654731548,0.4400908425975944,0.1120044307257083,0.7143171874552847,0.7225796786905814,0.3277756149309381,0.21718268494785042,0.9266367611498456,-0.5693488845037554,-0.8176580504571652,0.7571203540781329,0.39623114707363094,-0.30145045431183837,-0.6683400916446157,-0.08634152926127961,-0.7208958134448624,0.5782138215944954,0.03997973340409004,0.33690409728161674,0.272150704146231,0.29707145544016794,-0.9047290334867254,0.23699185185422103,-0.6943886376358804,-0.19450225802305712,-0.6825241988646694,0.7295702484758961,0.312731630336667,0.9398614401923413,0.8811779889983081,0.06921043161011926,0.9935443097888794,-0.21653142365469225,0.8894693539113985,0.05461130617259924,-0.9969773618590059,0.8112971607823733,0.22847763257287707,-0.5108198363235246,-0.8810112020141088,0.33085874964934414,0.7877094719566403,0.871469841914377,-0.36688393653846135,-0.3889339959184331,0.88754463269576,0.5181659045523976,-0.8808935209060269,0.1953582331665471,-0.7800101986682989,-0.8969323268206175,0.6571810157272634,-0.9247229994408045,-0.6434054939972816,0.06483777761627554,-0.6989806567722703,0.3143448205010187,0.674643930608636,0.2539071665296597,-0.7770371444984898,0.5905804970478852,0.41715138350805514,-0.1300108595288163,-0.9710123854615271,-0.8466103627010744,0.18831916643097324,-0.5776062757778513,-0.5501350992024859,0.05423795530466143,0.5549922240356202,0.5952801547749529,0.6530139933060362,-0.7368809008153013,-0.9660184306793095,0.6766387349239048,-0.42072842916644504,-0.9312674763596409,0.16420181259221753,-0.7072805065813211,-0.5239752300563036,0.7037467215462082,-0.9753664412733367,-0.7487940958130743,0.45229826535168166,0.520142591130069,0.41438119709120214,0.4455160531845377,0.5318843907846236,-0.6903679950296819,-0.5984170040843766,0.9928015125126266,0.48001407034008636,0.8748479475134321,0.9113896592534501,-0.9937873192381659,-0.3708800857618879,0.7405288774046495,0.9583561916824177,-0.22577507712247397,0.6394390803499219,0.08456317200594814,0.869144878644438,0.4880574002459614,0.33883384890177165,-0.8697296316371038,0.08796767099876801,0.12064990469163943,-0.42881873159425715,0.4786420976219222,0.9716245588402648,-0.4225840384618329,-0.6716671800496476,0.1579443304921475,0.3578878824198246,0.8190284317153267,-0.6511866940505553,0.5294181247411462,
7:-30.233217403255903:0.3112109408279853,0.12713322182391273,-0.45826211289513386,-0.46990583060679936,0.1398508058904362,0.4975919146462253,0.590053659948456,0.47582555871418863,0.8417441196434292,0.6366345563155713,-0.1358078750165861,-0.2491534808138447,0.9426214254477403,0.7885233091332571,0.34555580004169517,-0.3727985013018438,0.9852376398249623,0.9853157004355573,-0.6229228875065789,-0.04040351621291194,0.3795737369618286,-0.7906944103028168,0.9430474879908433,0.30491014413105155,-0.7248498997121153,-0.5163420904610942,0.586079014092064,2.0314709945679077E-4,-0.1694867311797752,-0.571103607180476,0.8216115130321779,0.19879799091251926,-0.2587156782108766,0.8873557293010388,0.677955441490939,0.4597055740022158,0.43698693633999763,0.8446631724457027,0.8199395845689857,-0.35612249592197276,0.9682001103741422,-0.9332321589978458,-0.3931893147751895,0.5914659260676787,0.2794090765868156,-0.37701134764882505,-0.6098901998706976,0.33747681423383113,-0.7007434754319453,-0.21999452477404557,0.3748287883829533,0.46890390902803847,0.0787233159259988,-0.3713295069749878,-0.5527715395063728,-0.36536346776732453,0.06909690964620574,-0.755028915455398,-0.4847228161913901,0.19013402998043105,-0.4445864477327115,-0.811572952195706,-0.8872513260977495,-0.5079338080137323,-0.7526115799506967,0.7056596751891192,0.28559332549939614,-0.5461807640664814,-0.9213244467240512,0.13382231233779363,-0.8907218012995697,-0.3690274592678667,0.3766290697356948,-0.31196464586794714,-0.4216332774265169,-0.6734476926310182,-0.26143750279129446,0.06892225503812438,0.0646888024194503,0.9890727976284357,0.18683491088115,-0.8592044336698146,0.05802920898156838,0.5220786231848265,-0.5260833717439701,-0.6920047995263399,-0.5166595043810187,0.03210442935631663,0.7699192030219528,0.15633550335426838,-0.46893445592755345,-0.9873283443827091,-0.6111006458186022,0.42856834843304464,0.5857771762184952,0.9343105234365484,0.6133550554893132,0.3431228777112375,-0.06654540178655856,0.2199735072772593,0.8456717387486815,0.8851534466097501,0.16988899940840246,-0.37594611811308665,-0.04151488989857965,-0.5864876520438871,-0.18812926198176472,0.11662172519609149,0.7828642104910748,-0.3710458440004998,-0.43419005261804733,0.4873490583387885,0.1186373016823159,0.5761610756486255,-0.799693405470828,0.025945917146819264,-0.05783169570040228,-0.8211332004507175,0.4182669202890011,0.42882886285646227,-0.44738616018018423,-0.31030474581351153,-0.8796138686125472,0.37196702525714614,-0.40313328728245695,-1.0340411045463769,-0.5448377326818216,-0.8918722445773196,0.057517606806987254,0.590491879539753,0.7314981920796105,-0.9931346640661954,0.6928846231315867,-0.7413589472698141,-0.9523548636876868,-0.9385841528021822,0.45404644891414225,0.27102777098507636,-0.840994577642646,0.8835503336903705,0.8999454661577262,0.02813407792836209,-0.16140602140685933,0.7668475272897641,0.33651563140866203,0.8074771868092904,0.9491382839263721,-0.8078513582590632,-0.8839181181108275,0.38593233767213814,-0.5598334825046337,-0.528539806392677,-0.5366841843830271,-0.5808276827386978,0.8873161295155008,0.42108257813822775,-0.2533254787785785,-0.968412220550339,0.010614123207898814,-0.5977798932998128,0.18292437225362368,0.5552334786677026,-0.12698321531557802,0.11066534359353478,-0.8887774819132499,0.5717478370869788,-0.5318249315643954,0.9315300475833732,-0.17063284999810246,0.9832424115533616,0.1983287514761065,-0.32809731133597175,0.5417402419774573,0.8565119982405134,-0.9525295860588966,0.18981564541560805,-0.7662077353549421,-0.6500669066871029,0.7413522013247232,-1.056992240498902,-0.7570905055713748,0.5428728686659383,0.6396800653601902,-0.5212746364873843,0.37657241724642765,0.29410028169303964,-0.09224355839326792,-0.44232496377116315,-0.7190485020871998,0.2289499396024332,-0.3289585886685564,-0.9377212184856487,0.5005551224872615,0.7116519525153644,0.15887227809118712,-0.6586421526852932,0.8946530541487709,-0.6830071366293591,0.6828153633305768,-0.4273362926953579,-0.8457448109830148,-0.9516494105188068,0.6510972015359582,-0.5122659659499071,0.4398400098846798,-0.45563853753868694,-0.5863583024306571,-0.5265177026450147,-0.16049820400212614,-0.7876956486912385,-0.7607771922524404,0.053234976221908294,-0.7396841867505071,-0.7529305057717252,-0.4953982175390749,0.2926390302807489,-0.9743821829716494,-0.4989915830484359,-0.23513424032035565,-0.46467597304390373,-0.7929468489721495,0.5641937456673737,0.15429145302856928,0.291928404756024,-0.6738820516623685,0.8816286997894696,0.16096598774836368,0.8953691433288876,-0.2703411594606611,-0.3191653363724045,0.833630207257385,0.9695285287744432,0.8550718365453628,-0.7956622278021986,-0.8520763117535705,-0.32185059622457857,0.07360947338003383,0.8001769705082897,0.20546058433298547,0.26113430695641904,0.5125450051219097,0.8608987507547275,-0.9923666526012223,-1.0204584284273805,0.738112645987113,-0.40037770211940493,0.5477071183845603,-0.9967610836405176,0.7860731483363839,0.7725466476646505,0.9431983837007999,-0.30949642055603177,0.9021517083766878,-0.6828683150351749,-0.360741673839935,0.3729809661474855,-0.9140424872785854,-0.7590984287655523,-0.37496789231064964,-0.937427689315613,-0.5697726733165842,0.44574914075463384,0.6213872385303382,-0.4331416619540819,0.22975475819834018,-0.9515335361812572,0.13842644406097748,-0.07249051732390077,-0.8124489722119965,0.18789367125599996,0.008582161686639339,0.038594338489028004,-0.047991163589238925,0.06607745749055052,-0.09643095191940292,0.616136955661503,-0.16720388624935054,0.5295963204506801,-0.11627242155203923,0.4172117270217159,0.16444606889740176,0.25528080507015355,-0.8131027859621353,0.5614651519795613,0.3104354817121951,0.2642242575433702,0.03300807811472321,0.8372780736218547,0.5529352096848309,-0.2705537816218045,-0.7262133471837892,0.9616037431376856,0.32577109174055613,-1.0523311406375755,0.12485161530308497,-0.6062544488065436,-0.5741509525989883,-0.4618925869787001,0.03649309077295811,0.3552192715217859,-0.3504309568324145,-0.4749980677661385,0.5675484160321043,-0.9632436805322135,0.4110043216195933,0.8940671572967317,-0.6937923328239547,-0.019776231005635813,-0.9126909310583773,-0.32985609508765784,-0.4980334539672231,-0.2679276106076817,-0.4074763928819568,-0.029827915632666513,0.6252792539391963,0.5074118698323458,-0.8449272308399334,-0.41031446188069437,-0.9343251770297569,-0.2524331002118636,0.12880023493641446,0.171880239623879,-1.0920109336931594,0.20127120766946102,0.5347027649796758,0.48340337611541007,-0.8557136702929546,0.4366311026268766,-1.093693765158903,0.38151005208957967,-0.6578294867281472,0.6103031479110357,0.3113132381500543,-0.3973161312473615,0.5482552914539303,0.6655295507111043,-0.14323080468191507,0.8120604111050193,0.9104379750575007,0.9120371748293764,-0.8761601852139848,0.8223869505091193,0.26822106537884266,0.6572080435596717,-0.2921058820153522,0.4133491845758737,0.007836778460967033,-0.6904496769722017,-0.9927885505735548,0.28420543152503197,-0.3083007712170569,0.6639264862998158,0.20618674553325328,0.6701083271893129,0.8094541241886489,-0.60044376563339,-0.4632813270451968,-0.7737241788742485,0.7912892199279232,0.2216447787008729,-0.9046608026311312,-0.5972797341999365,-0.1770452686214976,0.8609410490525602,0.9639963422980884,-0.19804224885668764,0.4164404528228785,0.035989457235079306,-0.967619547703468,0.6371664937099131,-0.7158961787724684,-0.7246979592122564,-0.17633758193227642,-0.6044847707745209,0.13718617556235504,0.4296448664590943,-0.02554775403941657,-1.108025455711823,-0.3054380521695052,-0.9793787872435445,-1.022047782498396,-0.6583126967075874,-0.15641956586856676,0.4429307581401478,-0.5163847934717579,0.429029068754893,0.17563463991502112,-0.8359904422901311,-0.193886152532629,0.9312424174333911,-0.9739803219016613,0.7671517753721058,0.8038981916378676,0.5146138250428642,-0.3125954100741922,0.2317889838724405,-0.7870356070262852,0.6311106749374128,-1.0748551586390467,0.5244697959477009,-0.5611160433401717,0.5552387316953442,0.04318103485541843,-0.5986452411378137,-0.19535441139809046,0.6071061190068544,-0.9842537355050618,0.15936787200299485,0.1071661502611766,-0.29861663498119184,-0.543305553654774,0.45633912365710155,0.5928151356051552,0.6281911394683674,0.9741974173281966,0.2515547000403282,-0.4136168302612567,-0.8931957443990817,-0.7695888052904633,0.17938562363948285,-0.6064242313684793,0.8881410739047844,-0.43584802488193586,0.31899125766166553,-0.523494528915931,0.7596621404262518,-0.10176068736127052,0.6624316191684181,-0.9357936372445766,0.07341611479730557,-0.8099571273293851,-0.6056871589700401,-0.3408573024728873,0.4461191323279926,-1.022020000829464,0.07661789239846382,-1.0138618356063178,0.5245996776225699,0.7375254577569055,0.8715731341241278,-0.8164957003975997,-0.8661399978610224,-0.6467987640514655,0.25386605841608495,-0.7547427752040299,0.8763091881780485,-0.3030362244657036,0.431369951699735,0.686652084800494,-0.7652653595478807,-0.1705766045886037,0.5620358408715356,-0.5437093933545311,-0.49741348702962734,0.17960867272913233,0.6418425966651256,0.5273928158008211,-1.0358717620027884,0.11797584714772359,0.09489069631874596,0.20978781490957835,0.529275101331649,-0.0923939416185448,-0.08051230003572125,-0.738038183731675,-0.19125686879364615,-0.5922271485144232,-0.20375135757364618,0.3820521418332781,-0.4482337717263564,-0.6005045808413344,-0.486343377760658,0.0500053651502505,-0.02579754786810415,0.7471506193970545,0.9390733220995576,-0.7416850979677376,0.5047302340104978,0.5475912063812305,-0.3707810038513383,-0.10685373799899736,0.24862919586090437,-0.23221262514485197,0.5538428034157454,0.31958825211294145,-0.7372426449618145,0.5383249886562778,-0.18095819541451397,-0.04030291696295938,-0.37794113122094697,0.3422037256536724,0.14382723536653724,-1.0079800580430762,0.8739959453719555,0.3338579095173659,-0.9742743379139988,0.5550884973111712,-0.8419086161890096,0.8277812101405142,0.3296342795674491,-0.3063805789413974,-0.8968870017257481,0.7991956570408612,-0.9351514984433105,-0.12775668934946482,0.7705129269979267,-0.6939384065635104,-0.4457373715255539,0.8227689664890325,0.14037681535715293,0.23391375856141422,0.857986734209195,0.18313849188088008,-0.40288330091055824,0.5471034705101525,0.8884212302320361,-0.23902233634783457,-0.2579957110292237,0.035528410263118246,0.8978478468630201,-0.7177023988909063,0.29836486293508596,0.6032432633054082,0.25752451340255555,0.9213291450899771,0.5741476591494649,-0.7988389811577166,-0.6552877891729452,0.5000952273943394,-0.3654825579072763,0.2613197275136361,0.24332717090495737,0.6144151036484793,-0.5512301736884928,-0.8560504535974653,0.2804958740224426,-0.5309394318556265,0.7726483708471881,-0.7990578812996819,-0.7773180055706611,0.0798341282402928,-0.038759266760046145,-0.7693503307854543,-0.6212271124834581,-0.0143228029536458,0.792728679967717,-0.8877643984447904,0.26703540255932257,-0.8510544507693816,-0.20016768510868874,0.7563037327851249,0.07166040696435191,0.26599434765010677,-0.5463902020004131,-0.6009236082684466,0.702436374110027,-0.5947896000567543,-0.5165920373930368,-0.19888133395319443,-0.5313861303757006,-0.10987862492261113,0.9690337854628104,0.8461887805870119,0.08837017585763807,-0.81444563209957,-0.923888182578851,-0.7687107745900579,0.7711755842174095,0.5946942508037536,-0.25911895455245815,0.2964489519749431,-0.1429960991262328,-0.9886462232962417,0.19000766166836608,-0.7442834403413091,-0.8871760899568161,-0.5901267554829913,-0.619942029997013,0.7389705314191544,0.07199751019285547,-0.7450553396211489,-0.14611501673663074,0.7326629864962918,0.7285915599206191,-0.30221431965885054,-0.17539517805069968,-0.24327810733179006,-0.6619691413222721,0.6293416635889788,0.7234182372835534,0.6113157104827884,0.8652309284535773,-0.97949107819033,-0.6032074480037939,-0.049935829122622566,0.9082997573925999,0.03450665366292375,-1.0678608815833506,-0.4801338911353687,-0.9538061136344813,0.6183225866198853,0.7892705331014179,0.19796219251599517,-0.4448313702630989,0.16703469222012973,0.3558420012619222,-0.8002596879688108,0.16441297187394266,0.327978507681643,0.27342287909066776,0.570909548931341,-0.7756069463628125,0.8142977499643017,0.745236319728878,-0.5246608931550654,-0.1191311909899988,-0.4680383762831959,0.19689548813421065,-0.13125404601706436,-0.2280283246117092,0.9777189147691496,0.2502753023005784,-0.7242949601131873,-0.2337831353007076,0.9352867212522495,0.3845880129150138,0.25265545514387144,-0.2109057979359422,-0.10922838926306531,-0.2535410966496917,0.2271863480805645,-0.444843219086795,0.38967591572797755,0.30512129957425493,-0.3713594090246928,-0.3550777149138396,-0.1971853862794051,-0.257012052876664,-0.9767731798950274,-0.8356723650369017,0.43703369867101954,0.3815969871400364,0.3257289394367937,-0.6286993998766672,-0.8918565081160148,-0.8205745671633664,0.22643912588432946,-0.6055984636399174,-0.9650892463807619,0.9736152344489946,-0.9053708768352933,-0.678475822404289,0.17418287292258466,0.8099111290493118,-0.26243948340621015,0.22465891977650032,-0.4980643459906391,0.14408686808532675,-0.4174804386364842,0.13475400315711802,0.4788844210537711,0.24817523308693126,0.6367852623313244,-0.9538655717265628,0.14465539951890796,0.4387205029155094,0.16088505056924274,-0.5804135284069045,-0.36441737010026887,0.7585270591039779,0.946020608728652,-0.767180780796497,-0.3695126872758012,0.9006933798088887,-0.8275743588451545,0.9378574952386511,0.41090467123986696,-0.6635008354069469,0.643223029549484,-0.17572746149465943,-0.8261316839701761,-0.9915113198141285,-0.7765345869789816,-0.8450896317460547,-0.11385948616173068,-0.756027417801975,-0.3093424119487821,-0.5093416039292997,-0.2229987231317063,0.5347464990108602,0.20460838433766607,-0.507038448918309,-0.8272007321665513,0.1583013890779649,0.4156058886260858,0.48618438408935644,0.18553541292832884,-0.5601059604630931,-0.05837621668924409,-0.01273609122129793,0.9134492856006398,0.8051697931174098,-0.7662513938099274,-0.5682019735262271,-0.5674445786882643,-0.43621451324634775,0.20203011727360765,-0.5671291679582068,0.24612523024165092,0.9574463056580163,-0.5624996790940925,-0.24629309246812436,-0.05206773987899172,-0.893616345363131,-0.36460213880999975,-0.8631903070722599,-0.9002278245073605,0.47491599139266644,0.43501043152925845,-0.06241344821497629,-0.6254795361701568,0.667387135306041,0.6227301408041904,-0.48862897658387533,-0.7625983842336332,-0.7430979113601965,-0.022842153913249286,0.9847013496557444,0.07181187654065946,-0.5003428205399516,0.8139503981591718,0.25681689748063063,-0.34868622630821045,-0.4034894374121947,-0.6974715379565957,-0.09757085196789896,-0.2644092763086551,0.6780813039480453,0.8209765696617516,0.5432994469979608,0.06524822316460521,-0.2983127674819914,-0.34151158610367194,0.12352535101493813,0.7925781154813818,0.6364310512940569,-0.7036022023193467,-0.6664138518556441,0.43048860111985354,0.9785833715824691,-0.1254350619698823,-0.18755531328377484,-0.5548195116178867,-0.1161728000062412,-0.9847969578213951,0.3711322462077149,-0.9161721086767258,-0.8425573337442722,0.8853130001865221,0.5897190182639491,0.5955776442058862,0.7329018378999665,-0.34799513690419726,-0.0016460438635609391,0.8758051871373326,0.28633674299983164,0.683292690233285,0.7672084641891169,0.6787184696309142,0.2002099367737027,0.1067720482104867,-0.14090498455887704,0.5343104892678909,0.2141915737054323,0.652580282513339,-0.8216909552821078,-0.3807304332871492,0.7908518743462236,-0.8367328770822124,-0.21313959355005885,0.030531292844636182,0.47686908082437873,0.48203977320396474,-0.5908032871324564,
6:-13.769742002180525:-0.07573933935510402,0.9548070702140823,-0.149950596818345,-0.6586504400855218,0.2553481783094038,-0.0666554566900206,-0.44481284949743594,0.5420642632735075,0.27728784771795323,-0.990981739106213,0.7219654323930131,0.982397739116464,-0.4580969312897414,0.3394653516143309,0.45375795233461913,-0.8708683949728675,-0.06519664296694216,-0.178496432395854,-0.3117634079381528,0.24061565902845383,-0.5239006238015806,-0.6283157589350872,-0.7540868940406542,-0.8948536308607256,0.4743303131495915,0.5177753135872436,-0.49219743745372346,0.388890279910995,-0.8828393038847278,0.980923549832464,0.25205462159095426,0.633452127599966,-0.6343928631464559,0.1645716636069796,0.9938521103719,-0.5392338171229558,0.3642578695907424,0.7650361551232389,-0.450170375592452,-0.8769331473554924,-0.5118477426484811,0.07997803050925667,-0.5122830894602358,-0.8217266909004763,0.617689407177891,0.014827832035585718,-0.3761332695519454,0.7762005988154325,-0.7338614268105336,-0.7264463130063845,0.7957782350163194,0.8085878908880679,0.7800279670716157,0.7689906728377409,0.763681287828595,0.006012778742631619,0.9908897871481737,-0.10072461769447671,-0.7153006580537993,0.9573387598655356,0.417544892403348,-0.9892393687893668,0.15506246821400063,-0.01757931529763192,-0.5986886462977239,0.10411116014125835,-0.6697047550909201,0.8063721762379554,0.4022261074767307,-0.3608888670341146,0.11025436515592173,0.06377291597494571,-0.9074313489694416,0.15503632896353306,-0.18464905403228396,0.8037844470516481,-0.1453111829099149,-0.6527082642282984,-0.6177598381649341,0.37219828853598397,-0.17667570105022895,0.2273044140223044,-0.12829244611683355,-0.6859558012470852,0.7083202085832221,0.041538141016077335,0.00845445176258175,0.2704464483625222,-0.7081514789730727,0.7367856410454686,0.5619165563164996,0.2360014570748641,-0.2850627126494644,-0.06725693586916953,0.6292153771643816,-0.001972074325531162,-0.5486865926523314,0.599185740056469,-0.3042124285604326,-0.9033887629054387,0.21228784616190652,-0.06608199773531044,-0.27379304052545667,-0.7755327141750376,0.9345810747749027,-0.7010471684969803,-0.5228690561673645,-0.3718255513175346,0.47371636223592584,-0.5037395466445054,0.7263166216844015,0.7774868106484938,0.6588109930607842,-0.8492996192414364,-0.8239782772554505,-0.6630860221300781,-0.039721888680073814,0.5166243301744309,-0.5838506911110115,0.3039319639547468,0.1801800980866605,0.635934662702039,-0.47812176180575827,-0.9293054565864717,-0.704355239539402,0.44921322361282456,0.6125049890132503,-0.8787655709317835,0.857662410917128,0.12192424486230613,-0.019924557000144696,0.09370095867468352,0.28409578745102626,0.25431666504593364,-0.4658329631351148,0.01725703906855729,0.4757943427155844,0.3774593314244608,0.8356598108309183,0.6758821885644255,0.7919080248654624,-0.6831152634579343,-0.17971006189291247,0.2563054613055765,0.15794245568485596,0.672521509922428,-0.40529794350514137,0.7049995034267721,-0.18751555374835915,-0.032218272731666595,0.6406024324579129,0.548726177448841,-0.4616790987531536,0.00429186950904035,-0.46011442222987975,-0.6709688797335368,0.5055418838260041,0.6522511926871435,-0.18647373638565132,-0.7555385802529118,-0.1348595894205044,0.17272119602115832,0.4943540844819595,-0.8631773941919877,-0.2597633887178441,-0.0038740480635406963,0.5849340119679746,-0.4982144468316778,-0.1557960877046538,0.1842127119630086,0.1739584163453661,0.8847453004890965,0.3340491537379869,0.049515832818113385,-0.6123119893649765,-0.3025241097130464,-0.7872152633660211,-0.16568572714291632,0.09455722285859205,-0.729822318718406,0.2851502218737468,0.33860731106116093,0.06932900119110753,-0.16937308938034437,-0.42483622365882384,-0.6566122061989419,0.7513461496895347,0.8079100249049975,0.26071086925109055,-0.5956902718953836,0.5037547953878874,-0.8163544752720792,0.9316503744915271,-0.9776937529211043,-0.6497012137327745,-0.824653061104151,0.8225782556911898,-0.5894144380333679,-0.3888041887342656,0.9809244231743746,-0.6169780508117363,-0.9322519985604498,-0.4757624586709541,0.2613274339523893,0.44141440741134047,0.5067801485655768,0.5599299834625704,0.22894569226846964,0.777147453068362,0.7236519720019571,-0.32944427550276045,-0.7909730227706072,-0.8575433362986912,0.4526194652109952,0.8434317934192124,0.2052108507537866,0.8838202213163535,-0.44963437802384837,0.19609839345385996,0.6452855135157286,-0.38898932638035755,0.8953463628371929,-0.6392183482207084,0.6462380726109191,0.7652410510692997,-0.5264171699953545,0.9911564172412243,-0.6979863621952892,-0.12142003253614005,0.16879908559903475,-0.7083407549677787,-0.90747255078479,-0.30446630167822614,-0.9588113191491328,-1.110239158751652,-0.5697551157230536,-0.7263457573999696,0.6530427134377291,-0.5923782133418521,-0.0776739447394205,0.5425142884855642,0.28510326845183803,-0.16361418815133583,-0.1794027889950411,0.8553237165550511,0.20921361213224904,-0.6054989127544147,0.2990692402837446,0.22365154468130546,-0.5543639140708074,0.2700237099809462,-0.7787557938223982,-0.60229407225171,-0.5354941324382364,0.4101287127723365,0.7045990630183794,0.6915774541922195,-0.01636607937148887,0.7328068305822528,-0.2156366149867401,0.8464084207790551,0.35637891130935073,-1.0858295046636446,-0.6979172412070036,0.09103700780685467,0.3731119251071968,-0.48984895845277904,0.19089457598708282,-0.13286639736455635,0.35684150253585056,-0.20371155010692887,-0.3175606255844084,0.879020679969707,-0.9439563903059622,-0.4734658033973563,0.7203672740643507,0.1944672726537952,0.231427200334113,0.40167259238032627,-0.8390848684156181,-0.1659767909520194,-0.501075103960964,-0.0664555743780536,0.5733323312067228,-0.03189443385421752,-0.40144636086795826,0.018302495634742195,0.7653480077087149,-0.42597195436582913,0.6280667000913025,-0.1122651762891691,-0.491073106582419,-0.8405293870675604,0.26794715285623233,0.08116240994941072,0.3642996025279391,0.020719452537832965,-0.8677080351387487,0.6838948751228502,-0.08730517407330139,-0.26449491393997016,0.9968406824169519,0.42313712055564173,-0.9182694537117589,0.3001852930790522,0.2698643629901214,0.5716810547947561,-0.26874876546293847,0.9443049014290552,-0.20408663635946184,0.381028465724644,0.6050668878977885,0.47756033884880156,0.7818890326306999,0.22752280068764588,-0.698973836065841,-0.47218319765149536,0.8398336846291423,0.4746517796233156,0.040433631456998645,-0.6918727081113278,0.12495284490404586,-0.08701180259798846,0.2781408909676017,0.4693939115374368,0.2717300832172296,-0.034440220562956966,0.7691561440641903,0.3700362374442027,-0.12976406387932818,-0.5131873129099642,0.04221526775683423,-0.6657269977413317,-0.35980515571953864,-0.7322750177110414,-0.023524401721053412,-0.5822223902354247,0.3394834989084884,-0.3228745852971475,-0.8811707019913447,0.31108532756397533,0.9579957066665092,-0.3362106234856568,0.05670234697996716,-0.7518937655798301,0.8108055433926107,0.3286349575082291,-0.024513423717367682,-0.8099651001097083,-0.17899066905361197,0.44675857818356046,-0.6900395000746864,0.46118153955784885,-0.1592496697635722,0.13292250839434427,-0.5818035492911995,-0.2826780764442345,-0.6339364483901708,-0.5336594645811888,0.9812030059922597,0.8632481035023679,0.6734521014976991,-0.2195954004933116,0.9965232970677345,-0.10369719038508096,0.3345642630360701,-0.34271145745270254,0.6420527650175278,0.8189987889963688,0.07643742160415681,0.8528951502004584,0.37527539840352914,0.14688411671675494,-0.6992805757440471,0.8494967535536734,-0.10065352778615343,0.07413742258144435,0.49590015824279243,0.12356249980387225,-1.1469024574110376,-0.1668157336540763,-1.042854423786762,-0.5865016276000391,0.42733199238758474,-0.4218724339275128,0.41863720301484747,0.264696870228724,-0.27636744376498473,-0.4061404503673117,0.11673498128678894,0.6328493854674426,0.46795568521996644,-0.1634941616651462,-0.5938091331551376,0.5331726121880971,-0.458921658758779,0.5215204414788283,0.323076062853733,-0.7771580833231881,0.5185898391795118,-0.23052253792996724,0.34768608970863835,0.2780525944741414,-0.5108907495147276,-0.9376916492075872,-0.27901548196135184,-0.01953200142468713,-0.8551832048878046,-0.012380899990950765,-0.17330221867789666,-0.14242698517089067,-0.7509145377510903,0.9793740366264454,0.38045690779550656,0.33382851869377705,-0.7663675604000837,0.5288150133826001,0.7715340537929215,0.3447967368283034,0.5395870398673421,-0.020640461901896723,0.6644037089816965,-0.5267757497703982,0.919007308995025,0.5103138839803495,0.856110851992126,-0.7257231742635833,-0.38413687438451005,0.3949018768962461,0.6362080588195165,-0.8232940297953054,-0.6810874721893974,-0.5269518811223552,0.7411487880659802,0.06823636887117542,0.7658673547863748,-0.06748513319991847,-0.4509330337812084,0.29180485583617105,0.6451006202716472,-0.560792608173528,0.7871679261495783,0.27437871982402434,0.5211227155115813,-0.3155695566010075,-0.3456169026869552,0.19417075251483518,-0.9358123380258704,-0.5357298775533763,-0.631317660538586,-0.05598401852590004,0.8965662473820094,-0.42093430068651183,0.42394125027586316,-0.19189465390344063,-0.9718915224256427,0.7069989245951622,0.34880787273975594,-0.18878773414392036,-0.6203762762424688,-0.6843083618122979,-0.3086220910598568,0.7175688093067872,-0.6670308657244275,0.8815537963190545,-0.0805036723361095,0.026589483555144646,-0.8271191260746713,-0.42155904300677977,-0.5656744843839031,-0.7395629168235272,0.21102950144913793,0.6767810878376332,-0.2855568965811041,0.2036380462463617,-0.6047932148067845,0.720417534025682,-0.025432071366973785,-0.4152751563576717,-0.27827516903459837,-0.02047613872392397,0.8330516993511106,0.4652616517614107,0.22958685916072913,-0.9072564102235053,0.7452856459256075,-0.48414366253281815,-0.47987725547719584,0.7940490502968169,-0.05847418610714318,-0.9360560259179889,-0.5411101367028388,-0.6350795717674127,0.5315340291638332,0.5219429237165524,0.42575629622076877,0.38940255276152586,0.8510083822388097,-0.1511939089406343,0.8673421922215108,0.9536358521608568,-0.433545690184657,0.08157242903393884,-0.3174639353900946,-0.69869576492206,0.8314570092913505,0.45160735996859036,0.9213836525971925,-0.7048774352858989,-0.21705098248363316,-0.5398232934223309,0.13435826551156152,-0.31165847650271283,-0.4666767835144569,-0.14182257098780585,-0.5853991971999047,0.6458232291669768,-0.10896014302901967,-0.5922907186029015,-0.8869995619142621,0.7808507835577997,-0.8407265801841497,-1.0524491021904938,-0.16993898913450062,-0.6663453491819109,-0.945207311540071,0.6092521403775091,0.2443087127156404,0.8576654671594781,0.5588175353913104,0.2863125641672226,0.7439125206808181,-0.2008293731232733,-0.27562457193864875,0.4712782188533637,-0.08647113582609003,0.4575227693520313,0.5715094881887706,0.9542266009139623,-0.9313244914286307,-0.9582438462166161,-0.7271240194334829,0.28669724766594046,-0.6739798573303295,-0.933332996941592,-0.5028711755760555,-0.20488464517151625,0.30480642393295654,0.060312825119898654,-0.9597797903248807,0.3646944115194281,-0.22911385427735373,0.2202259181028614,-0.2913717086084891,0.8266626177489781,0.1546540412225825,0.05210523150223556,0.7953989338612095,0.7595496478864058,0.16863892555703108,0.8841374506158848,0.8138717335842262,0.8810511147160827,0.14082698449370395,0.4021008827602867,0.5979194437872629,0.017433762677547947,-0.7110310581905677,0.2544219904643907,-0.929759181938969,0.38133197664494944,-0.3890173545865142,0.2922896421524486,-0.7624334626025522,-0.3402248794668732,-0.09451844143723884,-0.7189949745619524,-0.642598276487246,-0.49905070104367016,-0.3462105046103191,0.6586161961693496,-0.543852321908985,-0.7220291099015402,0.5997762519340979,-0.876728113684379,-0.5340229955065455,0.18913645583476527,-0.6721238665962663,0.3586396036545534,0.32699535835553517,-0.6884453810141116,-0.13328745636406972,0.2666223397861033,0.45172321254214515,-0.4340145437879812,-0.9075857072709675,0.4353534843599219,0.22549739545834133,0.27203740434968465,0.5198020438945968,-0.5253714315544988,-0.0330360573682314,0.2116000080024886,-0.34812315390627224,-0.6214878720155153,0.9641026999396549,0.5700420731961874,-0.04330013672278767,-0.8138222300909215,0.3852456474185229,-0.22805449749233161,0.1994635749641934,-0.6049747699658846,0.014074928467561502,0.9135602414381329,-0.5791586834749116,0.9009183543705916,0.5886552033519414,-0.018711628298495223,0.29259910778708026,0.38303770844173357,0.6753183552589199,-0.9598288771421342,-0.8546967766879816,0.24323976070989786,0.7480563820923836,-0.7770095520170522,-0.9465591751490132,0.10173230034669503,0.7584672493078511,-0.7330304293723034,0.24381781917409062,0.32013902996309623,-0.8407427643054889,-0.6621748720924316,-0.7066079090562559,-0.9878085882890592,-0.8541558608767769,-0.2208934084205132,-0.2112604058527028,-0.8515214016917738,-0.7177385190489869,-0.2302224710597447,0.578824004724372,0.8920416847407342,-0.34352027125762263,-0.775261887121022,-0.3900786580068872,-0.4044554895951616,0.023571262575634234,0.9017806769268881,-0.3279838961106718,-0.8758020078999851,-0.40689779123911807,0.16666193777303498,0.6770118000951578,0.0967952053029632,-0.8444189614626292,0.6533172227332288,0.5596875786555566,0.33143101043187545,0.025582715940873694,0.5404382457417938,0.3611247746512157,0.30398458216826846,0.8067404701666436,-0.9795365444520275,0.31703354315439497,-0.46405175320064507,-0.17618153869260114,-0.6869402862373506,0.37900865360830704,0.37912695205749425,0.9336305526036033,0.2651219302128316,-0.00670392053789595,0.6587596161965059,-0.7819531572146726,0.2819533857359571,-0.3972457604709052,0.6380008940969414,0.6768088142189046,0.8499949657368081,0.5288899042970474,0.5580225549210521,0.2401589054624801,-0.24136553550341253,-0.43254876680539056,0.6755744009206746,-0.3688380142579234,0.00439914491429382,0.25648326646581826,0.09728209638389193,0.761399673395666,0.5228483911266665,0.8702226537663522,0.5113608829174037,0.05600909529037401,0.9019529720966348,0.887673165468617,-0.17685858806400456,-0.3171523595474164,-0.23020809649273977,-0.6288343933818901,-0.371949568811236,-0.19532048139651959,-0.7000693916734454,-0.3293143782319464,0.9859917283604296,-0.5977167549093151,0.11691616201616865,-0.394389184279184,0.4516558492872772,-0.9628263840094803,0.7602317023322147,-0.4508462947322054,0.30822241256608435,0.4196896424463961,-0.3897163291776838,0.38302945202306354,-0.6258080510933586,-0.7687994224348329,0.6443222682001933,-0.10017197065513109,0.07001592650540034,-0.14599337657029324,-0.8565913675170715,0.5574075489792099,0.8128611192832484,-0.6486669390365634,0.29076963625499785,-0.9221325242715834,-0.7502235635893229,0.7725398477269098,0.7001071725385553,0.7792552633972774,0.5121183384868991,0.5394356807134252,0.39247737996717297,-0.49052253661777634,0.04817977728964165,-0.6364655808593841,0.9995847856524346,0.7107497768928086,0.5209754430544253,-0.679822828195787,0.9254111994972196,0.6493181664281877,0.638693428767503,0.17402687366068764,0.6431718885990146,0.06450855658293597,0.9988184386423007,-0.4541281210137398,0.13259300918534334,0.9455785462326136,-0.6027297409525618,0.039908709199418135,-0.8051535489619401,0.19615063895725893,0.39239573588228693,0.07767725665736669,-0.4807641318674155,0.7279695537698024,0.5442100530623992,-0.1491870037375386,-0.8572622178666397,-0.48758945499424666,0.058241710764545616,-0.4566525377890852,-0.7439286813856826,-0.8682092503419477,-0.5941799679910059,-0.22716271706841307,0.18692461206818597,0.4526157438608309,-0.09915339131122236,0.06092887964762039,-0.16958166182128664,-0.8145296169433771,0.18379496100685633,0.06779557153593285,-0.20116050138954078,0.3013413751755507,
