3:-24.420451341839595:-0.5028050906168369,0.04173819946185331,0.8342403533926384,0.03803493286781756,0.5025784916453679,-0.02400266054952027,0.2735188795712671,0.12334637279826177,-0.363082114659371,-0.8205685511117591,-0.7653098437621644,-0.5295922458338618,-0.8866055382483203,0.1646126598978661,-0.5038341415446823,0.7332444260889507,0.9706846387776371,-0.6625552448318626,0.23328954824251835,0.5260836044276447,0.5404571552359241,-0.747243489435593,-0.45036025376517963,-0.279181502592734,-0.43492002375216376,0.678017893851143,0.6551546643631998,-0.4749618112458909,0.5217499325105035,-0.22616683684203043,0.25608187436494,0.07212886348250902,-0.38253830630026986,-0.9388050978005502,0.6612074105572909,0.8975312642634864,0.38993559719138926,-0.7306910332835121,0.610774086686802,-0.6196834155094336,0.8828273005168047,0.6441301852762359,0.8989494804101024,-0.0031822392058971213,0.9592066237206586,0.8465720755775621,-0.5123386701168889,0.06316506565146451,0.47580251698207027,0.18071197537926373,0.9990625217733428,0.5360309924677484,-0.239856888078116,-0.4339624317887345,-0.7741443672903296,-0.6037863017603908,-0.8819355426186561,0.4043156854283707,0.6131428725376338,0.15695761859992463,-0.057911906461211554,0.29023374074985553,-0.45756607149356654,-0.8807646636747279,0.4014913290291875,0.3764705272426607,0.6871405743015168,0.13769038216614046,-0.3356947816774465,-0.8705948020483905,-0.2807843561667619,0.8747846309736732,0.12457406822840959,-0.8388274225300558,-0.8629404855356693,-0.25751237246479247,-0.70240745447961,-0.8948463539188053,-0.5077786674361248,0.23037602054749673,-0.6375827624994466,-0.1299714697944132,-0.1555201342579715,0.2795125191093555,0.24936986986312903,-0.8015048824135285,-0.3610440225168509,0.5608582260669592,-0.9284479213653214,1.0068124208442302,-0.4926262106558558,0.18511150287489275,-0.2620875683606176,0.43417989134965346,-0.18796764589004158,0.8616896147257546,-0.18477320236940534,0.17092631066355704,-0.3169553488362015,-0.08775160756414171,0.7809498202633754,1.0405469117658714,0.6067123475119149,-0.5013065337639314,-0.79717017300806,0.05674143264439577,0.8302822075346435,-0.46615308899385943,-0.2612219688580622,0.2332659183224206,0.32825468190035956,0.9817159718100845,-0.8571036799760205,0.552326605936982,-0.46635253675901456,0.3613399681511501,0.03491824777207935,-0.830886599648895,0.5450854837720622,-0.16752036267037132,0.5348303790003186,-0.02503330095077944,0.19472049304257874,1.6228647264782499,0.6175585550273599,0.5806154472681808,1.4777311491265663,0.20104604629631267,0.5432064850947808,-0.0939787377562574,-0.1568528816415207,0.14612440026966017,-0.19674158814362463,-0.8080511902789127,-1.4551801020819126,-0.3674193255192152,-0.8274048204421206,0.8147366053020372,-0.3531191633628061,-0.3367685648842782,-0.3302885892844425,-0.11196330119589204,-0.5780542773958025,-0.26312183448222376,1.1725442438307097,-0.06353823252375583,1.37453913872511,0.9727472320653208,0.7888668362526111,0.9472410121243173,0.7277461452540859,1.2882482687963748,-0.20775741004632814,0.6678062805570016,0.6749981613028897,-0.06345796057937582,0.6481827640957192,-0.45905077709136716,-0.10821353791081949,-0.7197663948554018,-0.5155643678597177,-1.098555079553745,-0.5508472193745799,-1.4826895183053255,-0.8941738848880538,-0.7584829915755447,0.5778864997022126,-0.017324432245214395,0.2838567294909671,-0.9214929022902728,-0.04644627223467935,0.7732825636563063,-0.05800259750858856,1.364923373862306,-0.3004077501681253,0.7120005842782218,0.3155549207804324,-0.25335394277385936,0.8119757091682338,0.9385327137374179,0.40875316889821944,0.5660857814240629,1.5918526888450035,1.2248404576186194,0.03944915986792261,0.7858832325968911,0.3775652095308923,-1.440978353931179,-0.20908754892959389,-0.7432759551611181,-1.2064612868714617,-0.8159245380997394,-1.08465221569586,-0.563718159936976,0.960929846485913,0.5435373854691468,0.005095908506246868,0.14471604118071968,0.8115883013537656,0.5836647680688716,1.734843354307878,0.6127832723809783,0.5076603891244018,0.14218115098543932,0.020121938866414814,0.4303386975313625,0.5955768361261998,-0.5753780892091458,0.5727743070870622,0.10745705078068478,1.3127758142285955,0.18864445654442225,1.1571746035544463,1.0043139367522065,-0.7844534619550954,0.08607369658875873,0.20407511361207153,-0.50105332135812,-1.668691938978047,-1.072015007381258,0.029429696835129325,-0.7744892612512108,-0.20327265313691723,0.6160055132415275,-0.28720891283761174,0.8034994062662499,0.4708725518817899,-0.5011952644246771,0.37800668366879936,-0.21192939738318117,-0.06677583939659988,-0.6200840723098103,-0.27553859655028196,0.3193168559128924,-0.7956515087705174,-0.1207757197699355,-0.1455945886254135,0.6494057552600583,0.6059669523848459,0.6082482821378238,-0.05579196885100707,0.6966060769111151,-0.13230888140914887,0.21571386715118204,1.2767882307874463,0.8198562298736796,-0.8046561650130323,-1.8141121623448038,-1.4621286514459715,0.0837466058417575,0.466987356646206,-3.8270264065675357E-4,0.739128336885394,-0.43854817160481463,-0.04104720340412715,-0.2300924426680111,0.6274667477826349,-0.06443581136800114,0.1177915920783303,0.013943855103135857,-1.2407040504161275,-0.9958878460724049,-0.5361687908295018,-2.0290413730396417,-2.407705616707561,-1.4721161728019614,0.3263174008436455,1.2450428525227757,0.5651806984457115,0.31673555754037164,0.9158025275144115,0.5628265078784215,1.3645983030405604,-0.1670272388982853,0.06048048025590652,-1.0517573801499769,0.5832739567902808,-0.023101080464185558,0.7958209287808401,0.22248916842122587,-0.5918846141387315,-0.7539541988882387,0.43711021373267395,-0.1383571535645557,0.3433133667267492,-0.006593471680300963,-0.023036332803025215,-0.9056928550859578,-1.3532903881347935,-2.363342613529764,-3.0007728255821475,-2.357707262251554,-1.059130333478768,-0.36987460513929066,1.9101581578450655,0.28343739676791085,1.328665888086442,1.1334805558684127,1.3648664007372235,-0.4008337611948541,0.7968882717040444,0.22041271229138074,-0.23053461654200488,-0.1687995558345235,-0.8204361236700266,-0.8200242277099531,-0.6562445365588248,0.04039300953281922,0.7624775691917135,-0.9209490093417315,-0.36794489455759377,-0.6502609211477939,0.7418932573367395,-0.1953227223046513,-0.6549179652491549,-2.738403203361569,-1.9283161891957747,-2.3764928479608,-1.1446798939448397,-1.315843461487327,0.5693684345248463,0.20605584644334385,1.7602018612159003,1.51134552415667,1.0322533337613402,1.3270121646350543,0.0504820561512271,1.121533319302603,0.6033218240293531,-1.3666047637411867,0.5024560880137581,-0.565567435871449,0.48035159237501124,-0.1927481957498248,0.6339841092622738,0.40416130900686825,-0.7462173192114542,-0.6044859868700447,0.5046738318115522,0.7893205199235415,-0.34737252670406754,-0.6796665595229894,-1.6166334202028068,-0.8194570519552676,-2.0899860679440225,-0.7856286033519172,-0.7013377034681292,0.16109570351424035,0.8590768165441974,1.0383627043855475,1.6071241128639926,1.1288402489858003,1.626182227730897,1.08987837361709,0.9638511959560399,-0.6623185388455732,-0.5415911309569996,-0.9609165468188904,-0.7961455206877528,0.00774932230407799,0.03305375052209511,-0.10186490058983208,-0.1867867030027647,0.7062958493195903,0.6418259587259536,-0.8296788428700621,0.8356356080867592,0.36041929394487293,-0.5033138180338115,-0.7312967741302915,-0.2543351109797855,-1.324868704317078,-0.5468401260192818,-1.1102502052500791,-0.8459279654797667,-0.1809243782121673,1.7092729934641906,1.0760877809205482,1.9504629959725857,0.08263615356840799,0.9694601937749738,-0.48341776378392254,-0.7851631391884174,-0.3246225955906854,-0.7527570218522202,-0.47476791421611714,-1.6868879817085376,0.019704146997201397,-0.9926227422078622,-0.4864457029863315,0.1441261456990606,-0.8020800739405265,-0.24248744267684044,-0.2774157220690872,0.27111248490224965,0.48310672612456396,0.3153018890428595,-0.3854619252739023,-1.2260482910252761,-1.7575368891695744,-0.7816542498672245,-0.3826370041887224,-1.490349149749858,0.08285090208353021,0.9063538905680109,1.7300878790137244,0.20391914775823888,0.1478589023803197,0.1616956215325349,-0.3086127444110571,0.5061690225657375,-0.594023871375079,-0.736621805564258,0.9584011889593332,0.458448240147727,-0.2561440623523908,0.10653486808270508,0.5962161878745275,0.5575753247672164,-0.015346901048928357,-0.8708246836237383,-0.5580982222578669,0.47843234624892184,0.39226791834092123,0.8789549402614807,-0.9477763568999317,-0.4731088071616298,-0.9696258832581214,-1.4516040244964827,-0.40876255756831215,0.27653575128795194,-0.7243355657519803,0.5734860492526852,1.3261509584932085,1.8098301792302007,0.08271648710417381,-0.16482083317073337,0.08331434105555799,-0.014729426427532104,1.365166832252798,0.5270244629582077,0.586779255449709,-0.311897538170383,0.5533685079372177,-0.9665759817774009,-0.9305952172238465,-0.7917488948440042,0.9651159573451623,-0.2445294378068983,-0.7779372578769194,-0.2289475627683622,0.8313530649122334,-0.6046466786128674,-0.5331379060826105,-1.2839868756309858,-0.9082764885453156,-1.0584482530987411,-1.4113382646677484,-1.1063456591405694,-1.0090218383789546,0.4087085072509449,0.5657809995475006,-0.1727502405676682,-0.4131050253670528,-0.14654690336984819,0.2540948853760253,1.3017777488953182,0.4272827216163227,0.8409839274623817,0.8355908376123409,0.4248828748640189,-0.04497097039629697,-1.1172902545459305,-0.2985565848196213,0.8481823555594623,-0.5316158106047875,-0.4713031635748861,0.19806688983813905,-0.2335574429872345,0.9247747863318484,-0.1018279609688087,0.7663426137022192,-0.3652648307055658,-0.8872834253803776,-2.847614228543334,-2.2276298346471237,-3.737312159634074,-3.705206594694703,-3.430868257095171,-2.9229591444598806,-1.3300293843852178,-0.2656731528223251,0.21654287164086178,0.9700405021883741,-0.1285691365953049,0.3094586770636784,0.9403173170873851,1.852634484738972,-0.14437068666713226,-0.038169684623602436,-1.2552409222554872,0.34483823308186473,-0.07007124804746535,-0.8241795487809994,0.9704266848820984,-0.7176856892424459,-0.6163405703262628,1.1985062216740336,0.6864076962951311,0.2366598214709999,-0.3139316319641098,-0.6606833874940337,-1.2028773303431624,-1.9673779221778407,-2.7172792378679604,-3.446938326855679,-2.4162651447294934,-3.4470946236218776,-2.7494516564210683,-1.2566999905749012,1.5707048247326236,0.8453161751320447,0.2750022811461007,1.540926392951301,-1.1807487439204574E-4,1.2860350614481846,0.7623159855350454,-0.04695401818030523,0.23654119757218797,-0.31301089468844245,-0.29110376575126246,-0.8126892894255625,0.03831244302171863,0.7907147188802841,-0.25511509787877074,0.6660194539100593,1.0472658304839346,0.3916803524701377,-0.31950038448488693,0.06528737158212464,-0.7135586285675494,-0.593085192378807,-1.099343220423913,-0.6507488899876868,-1.2411497637610749,-2.045051934483799,-1.2282834957443525,-1.071435396556399,-0.6021924694247209,0.8001525225132178,0.47724738305035264,0.3133472822429544,1.3417179206158554,0.046970874704807784,-0.19798902350069425,-1.525326093714551,0.28087791317707983,-0.2038061050722285,-0.31493447809763775,-0.2260754159377764,-0.20830911230664717,-0.8535425673997766,-0.35511294828887424,1.7309504644397637,1.8508768402930915,0.23117086423481983,-0.36173599610247287,0.236866891812471,-0.044592659023568834,0.16456202911954163,0.4468730284005744,-0.36633430375621395,-0.5198668771502973,-0.17511844481931915,-0.3248511334521866,-0.934878599285149,-0.6936752055425558,-0.195252362807589,0.1622105918518419,0.7214301953417398,-0.4582806486387922,-0.7646167567095726,-0.6314073526681757,-1.6768723325280108,-0.04559543570833832,0.6749298799439809,0.6150378778152378,-0.45595452463432196,0.6831949379156388,-0.601310890682641,0.38170911487102627,1.161279679572658,1.0801478278728456,0.9912989799860703,0.7464375443989937,0.6320913491916276,-0.413365392544768,0.08055946841069438,-0.35127969189075103,-0.6469161097162128,0.2845269108619282,0.33959165514650413,-0.4515040381411548,0.5794045454381881,-0.053484802162626084,0.43129185353989263,0.6110022764197646,0.5094932566425789,0.7174025553534867,-0.2225039799978014,-1.1987650389700166,-0.34164596177752826,-0.4876356484660147,-0.42401112712499606,0.002321780647673462,-0.7164709372205269,-0.859317887505418,-0.1932238438979385,0.9797903457247538,1.043501824835092,1.4790263815318028,0.7489657562565638,1.2010680519389163,0.16537600534607128,-0.07359979739972318,0.29424121761080235,0.5868306903137541,1.329604700003653,-0.3434082286503969,0.11962968843215209,-0.44866221840746057,0.2562223267126965,-0.6620736867262356,0.5436978046335184,-0.6031904471908918,1.144884111632505,0.3908604029952829,-1.1842545372212607,-0.9203105775510985,-0.40992224044829717,0.5872066016348344,-0.08455099701562221,-0.8584286957667356,0.7775141322903647,-0.04162506722850989,-0.5030679741554613,0.8100129904694022,-0.2999685180315812,0.593903671051789,0.7871405660680001,1.3600901007394957,1.1208359958800602,0.8673115348220133,0.2971283386832839,0.14947680714880487,0.4621934567303498,1.089290004903928,0.18567738020564406,0.7343066034551395,-0.5945533637201694,-0.15100028678886812,0.16304199396688204,-0.08682563764007678,0.5871669155934252,0.1709702136252688,0.33104958124298045,-0.9076895312087855,0.47009720184900833,0.8644353545374351,0.7274743925276915,-0.4917066498461705,0.3682688232371265,-0.20513051157801332,0.17551297059439652,-0.25622875261043887,0.9204046622258669,0.09243930708800548,0.7330581079261983,0.5732130062242542,1.8032802362161995,0.8581225394279394,0.6073519286922235,1.591729216418583,1.0706994532687881,-0.32819265182213403,0.6249249383141204,0.3055903416638689,0.5496312415799702,0.295378382558753,-0.47444648468118905,-0.1298143786870513,-0.8729663082099457,-0.7310600281037807,0.11567950835773946,0.5371425543718062,-0.7276216727066892,0.7822614324740144,0.5558099969014804,-0.5608348996643518,0.8947809494152379,0.7976414424887994,-0.8735746182239761,-0.07668798973893588,0.4841500025714169,0.9087788022023995,0.5559339901736672,-0.6108481586759285,1.3041266344796145,1.1645812679054806,0.052656781421742564,0.8359836865715458,0.6713067107878481,0.811369008188262,0.506271772710306,0.2354501642286016,0.6684371227528878,-0.16743829401622112,0.2516088309598728,0.3938802538028619,-0.5056999950784458,0.6966567960321963,-0.008360354107320368,0.5756845757745367,0.008905709307630358,-0.01061409824079847,0.4667474089258343,0.19140885534620874,-0.008628723307760655,-0.9682775231518295,-0.755254783069047,0.2805330656792382,-0.17666483769231214,-0.4670336817135832,-0.1819979769731342,-0.38364093652399756,-0.7839582945491681,0.46599780894204473,0.2702449461001397,-0.9517113856783246,0.48311852133286437,-0.8192972109076493,0.16209725983341045,-0.617126315867265,-0.64643808337146,0.6615315685194972,0.3545114124082981,-0.9672169302939411,-0.5210900128672982,-0.30435765034829676,0.5272760522967349,0.4894822267278572,-0.4988808482493946,-0.2607310502212868,0.08829143020337793,-0.5365109187341304,-0.5100997099055915,-0.014076026173331035,0.747662676861429,0.8203316209199962,0.6702112276158874,0.16781907751678202,0.512234450619245,0.23684549416119896,-0.830399682928799,-0.14715364629757374,0.40169442634677033,0.28278206762780395,0.028597301158823866,-0.11245053023652084,0.5844556344469882,-0.9412532208393793,-0.8322235295965473,0.3650108765550487,0.6785400034679334,0.4692820523863176,0.8268947458156258,-0.006715087888861925,0.07262169276662778,-0.18845780967198733,0.2476818969439367,0.6552519040288918,0.09845609970254321,0.5071158883786313,-0.1247852306681001,
2:-22.40718878136952:-0.17990038943902964,0.20801751885231234,0.30855060067401996,-0.27249225661392185,0.4446770330385188,0.7722213726071745,0.4108649298602789,0.6834167802703794,0.24205900924423318,0.2213704594683874,-0.6829907272152151,-0.34407398764458597,-0.9416219472861705,0.15316625193990294,0.9019068022625291,-0.16944300266558812,0.4450334990755258,0.1976888849471874,-0.8744196779251117,-0.3017855943559924,0.45037821121464683,0.19810286775124508,0.12225438918518305,0.019966443160327474,0.09886227217329147,-0.4573693114415236,0.1513724735388089,0.530173139716211,0.6388010500984971,0.8223334010831715,0.5250105426330951,-0.5648004148626229,0.9699309519331929,0.6456197972862909,-0.2643257283019097,0.4543284953866482,-0.9454652736516828,0.6620081896247431,-0.8180776955558757,-0.6272165098295658,-0.43132747001086985,0.6354817860935162,0.12632056347357776,-0.8937842061148996,0.7172420057928851,0.7075393683246798,-0.16873741585108362,-0.04632690178050865,0.5636424987478864,0.07939748101971952,0.20039297739006884,0.9532198205314172,-0.01677481290886318,-0.562085640093638,0.37636133219378376,0.21846096933872605,-0.5526913644244944,-0.11694136443172054,-0.8846786022024082,0.475533976137705,-0.8737315172782237,0.6224087604521694,-0.035379626432700755,-0.2032584750799318,0.4969020530723989,-0.306132792600473,-0.8167176924128545,0.23188216572413187,0.19056039587742155,-0.11102824162585004,-0.6224311855204085,0.09196934642213753,-0.023218101507126106,-1.2389166973966474,-0.4424800111765541,-0.07088985862152475,-0.25414782146195686,-0.18936675335785952,-0.7228805869487215,-0.39279369452609825,0.40935104072655915,0.8664783806120452,0.6452070537731671,0.5261793555247063,0.5012763637383582,0.054352471712899364,-0.010439687163617418,0.4769538417555842,-0.45034559860847484,0.3594169269639267,0.5737804648695568,-0.4930746738179841,0.013521693424948349,0.33510218890051374,1.4125248977941078,0.08841469552911213,0.6375224003349313,0.3736484069089718,-0.7011384857417828,0.6893340601338073,-1.46402117523111,-0.7469490116145301,-0.5987316812582228,-0.6547873319415968,-0.5317725657858786,-0.6446441590684238,0.18631485190165872,-0.6189365910353516,0.29343223543579927,0.8122366630712663,0.8513660384661137,-0.38865956673109725,0.22099965490959828,-0.12467482967151645,-0.124090622648921,-0.9133688998521051,-0.5463236795360903,0.49127437109937677,0.38207441198615594,0.5397256763586242,0.1760324580789695,0.5987513632637732,1.960715592112532,0.6408519709885421,1.9110215549955631,1.269834337470905,0.048614943042128815,0.03797821643248829,0.3441739838646983,0.5426441601396665,0.07508697098980467,-0.2629252517943282,0.02697561179788794,-0.8306872178032138,-0.37094999706689535,-0.7695541922649028,-0.4087996553280106,-0.5882655963101637,-0.6018583831312522,0.7063149248166422,-0.7716770248486842,0.7438269309818404,-0.25553023930425806,0.8025683954286756,0.03221307373928378,0.20945395911891868,0.32006443699946213,0.3632200811287894,1.0238815460014563,0.19935424316822825,1.376985683055132,1.5178901851077118,1.2717553401901478,0.6614729614922482,1.674289039009698,0.7761480949571902,1.8868286519434307,0.653571423085367,0.8246902722574192,-0.139825337505678,-0.3339986050519471,0.06978631682828237,-0.8008872412907676,0.4322985213387092,-1.165838638617616,-0.899619900885488,-0.17763770049165575,0.7728855044509974,-0.8248092835758722,-0.37078690080760746,-0.11337643198816244,-0.8323172702183483,-0.03753072598960796,-0.8290669980663243,0.6398066234396069,0.7587276660250978,-0.3622476613536226,0.4167302515180054,-0.38514154931953754,0.05922241034521979,0.39431385957788356,-0.08250644620826768,0.648554445238823,0.10178384900146882,1.1557995283699343,-0.2579137193620973,0.3252033235987433,-0.8028732848718974,0.28062229578182346,-0.41015690634270435,-0.41932930932464146,-1.1498090053003296,-0.6136330440969296,0.9105639709152581,-0.13137761926243707,0.5963141950155645,-0.23534125840422093,0.6937099663473258,0.7533859464290767,-0.2419797804817071,0.32424142288674374,0.5868364561388387,0.6244194965309603,-0.03403163897893343,0.6662142579967635,0.3596549296982356,0.38319366428329105,0.9072856320118076,-0.1463274369682022,1.0567749212743343,-0.15755401356569929,0.22989090779392743,-0.9559950607196217,-0.29876448777807424,-0.3205902885609711,-0.5368200112566945,0.08263176991326097,-0.5380981842619517,-0.655599360098256,-0.148998864922284,-0.8592604063082072,0.6035588694070265,-0.9852778345459656,-0.11245620590819272,-0.42973660425599114,-0.46039248282470446,-0.8477040859892064,-0.4823975857524963,-0.5434880790916922,-0.08610421474149069,-0.349245963675303,0.030192676977254206,0.09628720621170322,-0.1028183198005209,0.2478075047809054,0.9703200332872174,0.9761231664919868,-0.06630517068097054,1.148706264875179,-0.1982510031753845,0.16737137602738525,-0.05668978669820541,-0.19070967899795538,0.3245720850549245,-0.7188079687329183,-0.3451661070730399,-0.8104934789741948,-1.0052711369870269,-0.7105182562717485,-0.865433300604431,-0.9260614970324121,-0.9623224394807931,0.9022212451851042,0.2350352843204758,0.6492907663302435,0.7068401652856453,0.9928412153423181,-0.6581102699807957,0.7351942691884285,5.014587905003574E-4,0.09110847306763294,1.0686006215565624,0.20589264864734716,0.3103292560686423,-0.6820558805455388,-0.18052227994646192,0.3696012572660495,0.3640350482743702,-0.13895661988085684,0.2998885514937768,0.057795711024704786,-0.384354254360361,-0.5083459467695419,0.48441302836682754,0.5560024301863987,-0.47262768643157105,0.4375291064573633,-0.04306150252210003,-0.6381825603682262,-0.4607797940791954,0.049012457314537586,-0.19758452667006152,-0.6251321008660385,-0.5422000456370992,-0.538678472079099,-0.16672396727082206,-1.6034949597926762,-1.9348599695329356,-1.212756442779357,-0.7733325480573492,-0.24265421952661953,-1.280075822549612,-1.4064351360318614,-1.4150514258537887,-1.2521205319644462,-0.045073958939094605,0.43925542176857146,1.0414799298766113,0.3899203323057795,-0.5369284899206315,-0.5020041825332037,-1.2212856886576464,-1.3668834207770317,-1.2243490915689574,-0.022719624187195538,0.28629058532675405,-0.037291102253302746,-0.511878992378592,-0.25952219910105,0.9530692614337702,0.6967070168080403,-0.19825240404707098,-0.3258845018738128,-0.6710858805338554,-0.9546049663765295,-1.3440458791100531,-2.2554118664027696,-2.562704686304807,-2.9919439536695576,-1.982435068384046,-2.305872363720008,-3.131722442136178,-2.6933813605387407,-1.4614907833328408,-0.9071384248515787,-0.01697108720010217,0.34888216144325196,0.7426842518037701,0.04128026197574415,-0.4230002523854305,-1.2837731875205942,-0.038233460015930844,-1.014148139369502,-0.6232659120611641,-0.8334315462680874,0.9758413235481493,0.6336379587581722,0.44241139206900765,-0.6877182807700697,0.27624982602613485,-0.9570891703214269,-1.8790135824589511,-3.400722357235656,-3.649775972779287,-2.3712114039779943,-2.603237396097689,-4.094022721290614,-2.891836898739463,-3.0839914380267435,-2.8504791342782343,-2.7150868010574354,-2.6819015647850124,-1.327481339191097,-1.4246319238092089,0.029302518324512954,-0.3294234922995931,0.8544213905881182,-0.36640115595106043,-0.7889735259222093,-0.7191135418589888,-0.8782064774938382,0.39670178092472164,0.7695681883996771,-0.01419316600852917,-0.9849784438410879,0.39555772818493284,0.09512785444918849,0.6538094327366459,0.27449023300185815,-2.034451716438766,-3.0187737224139757,-3.0507016289591373,-3.147068583003468,-2.742221139973675,-1.9456222506977403,-0.5518478783264055,-1.3695406701324244,-1.2962557915851667,-1.1903399962466066,-0.7147501869641978,-0.9440027051183212,-0.9475124062167808,-0.6282942588374741,0.4296626402693088,-1.0615652614880062,-1.1006025363340983,-0.978810626036113,-0.6901106374706332,-0.6907323691809362,0.39282166029835663,-0.583966523071095,0.020224118187477075,0.7433671186966055,0.19990730994556916,0.20080599832204987,0.47554515900404565,-0.47689250456258503,-1.373051914767964,-1.7220716135674419,-1.078130373901474,-1.1953146240199934,0.9861263374834539,0.08783207751906305,0.34949660449215725,0.2761827447754182,0.861211272145334,0.06644831537584434,-1.0313427360958425,-0.9167704832275093,-0.4440952467805966,-0.4008323468938037,-0.6440529672583681,-0.7761832298289908,-1.534832895346986,-1.8766502686806503,-2.1420763413767197,-0.23211945201127104,0.35050647089958137,0.02688551453119022,0.2510652642390533,0.7241411898531867,0.8087767961876361,0.7128991203707983,-0.12178667655398065,-0.32470551641968987,-0.04361185311993621,0.3040374832999474,0.7062491496990455,0.08399313324508945,1.0399132873267642,0.5961195702656265,0.7874467178804827,0.7974119520700902,1.155328887343071,0.19411051170804317,-0.6585817886295617,-0.29123443293916207,0.12978235481781533,-0.9618736151641392,-0.5697785621975233,-1.2106415800119168,-1.914884227103302,-0.8693189924666923,-0.4072208327047604,-0.28589888259974766,0.6490466994150854,0.00892149469713684,-0.5255706477825604,0.9123940104141282,-1.012017158400874,-0.23483777655129948,-0.3289534844536233,0.3476373877101142,0.6710677932477035,0.40371039518913027,1.0512114808775652,0.4315834448545337,0.8615376190217102,0.4246044270208117,0.47633535568930724,0.5526006638097891,0.6712691979099666,1.5633954085961754,0.36837674035919354,0.30819952193437056,0.3782743522777185,-0.8261533712935123,-0.5599143604417269,-1.2784584814891882,-0.6015912983066201,0.7758028228113715,-0.12439159443488586,-0.3622313635089225,0.23524611822607763,1.2467096862205365,0.5614138459809478,-0.016948076784128574,-0.9823899974213511,-0.1676702125335479,0.8305570678550173,0.3986112344086837,1.4068084749392844,1.3392600463462345,0.6132759946022039,0.8001886915158068,0.3041797224037071,0.8445622669606576,0.7587249864955624,1.8270762899039368,0.6440802110487067,0.050980342204570685,0.41019035978041973,1.9551906446097176,0.18101351566767848,0.8238369247416485,-0.7348150834415393,-0.44632852751633023,0.27590151228325077,0.5045720421687001,-0.08413311489722812,1.4370348813103477,1.0808027130635363,1.0069609444379646,0.7793627024194507,0.3878233695049399,0.25960211983576753,0.06169481989885096,-0.3022803410614324,0.9090967489932449,2.0187065739548595,0.5119640085683139,1.0969907023076655,1.5215376794421989,0.8516156143668471,1.1972877232431192,0.8798544188145092,1.2406878745141758,1.3614323185446637,1.4468660972599197,1.1251680089755578,0.6012025509888753,0.5966644960959159,0.34048092426834836,-0.37586456824061043,-0.037785576227436266,1.7150895607681511,0.5575233016084014,1.4744771511377093,1.8034564152663124,0.36321589296774914,-0.0021175280234779163,-0.2707426888356504,-0.4645256154501123,-0.8916880706344805,-0.9146249522402885,-1.0323860889906977,-0.20480938404402782,0.40262377692222256,0.9244625128946621,1.0392820648104781,0.727955264339267,1.1430530866078092,1.0155770584402648,1.2226976501162803,2.1209044071888044,0.7237664580086903,0.8590145286659661,0.285193420996312,1.0241951715278552,-0.1440210095621509,0.10286765207076527,0.4945217613351029,-0.7160929637244794,1.0033709881534654,0.6052171860167886,2.830728959046884,1.7772168180791361,1.4984992958415824,1.0841484456768897,0.5962235228740899,-0.7126920495181688,-0.9174375189400017,0.04654160426827876,0.02243384748095585,0.6939976071348356,1.1395005383476797,0.6392292146923766,0.6926316459204961,0.6246324945765217,0.8093271063309788,1.3711923887990014,0.7407471888680843,-0.09759224514058774,0.5945641174793559,-0.455038797527552,-0.4400409327623162,-0.1260963557177881,-0.6109920475125128,0.9149458535564992,0.20467197562459707,0.28435237093543353,0.602985079878633,1.5371013311956243,2.620674902612149,1.3976298677493202,0.07249684462099266,-0.5501095630703031,-0.2949647847069757,-0.14780412506120688,-0.14697459976112315,0.7146934610099297,0.9310990677668888,0.9046998143787036,1.1120101480285098,-0.4819868973148446,0.12768010880670647,0.49650226407158543,0.8936872359758931,0.7820013361341465,0.17954688241873515,0.5060284201701267,-0.2653787699391761,-0.37893286022467915,-0.490624315320695,0.5642279535839122,-0.30556932996220243,0.7582518675832512,1.2101584611805882,-0.057959366359405795,1.3021550231251209,1.3257039586768185,1.1662095828384207,0.5997736763466057,0.9279129272466863,-0.704524838148861,0.5211597660535516,0.4960088764509464,-0.11349677765576473,-0.16712020426110938,-0.3107736641727384,0.0945137921010538,-0.13023876995739983,0.22133826053594427,1.2453750005437874,0.9473498421994887,0.4783281941847156,0.9846865655828262,1.087406982811519,-0.2625398069064732,-0.4612271227808514,-0.6541843285081512,-0.6842139799068288,-0.7051248667680207,-0.32145591312142885,0.2928698047596324,0.5143458808601453,1.0319661823093682,1.287249756890282,0.4957989434374713,0.03869811208610292,0.28806294847115715,0.41350409381885345,0.8183208406194622,-0.3281775370886202,0.2466894263845667,0.8598449445139913,0.002017962238027689,0.7348323106226922,-0.07937055321787924,0.5005188757604787,-0.7356368064601453,-0.9275324387859105,-0.21569232686512285,-1.2348095151374125,-1.2861586662033437,-0.5649806433538702,-0.8575172641449873,-0.9263955707141828,-0.443690669913125,-0.410678570885421,-1.2763313710322408,-0.17521384171332074,0.46512690140405855,1.153493820181949,0.8485529500302962,1.2446683777523473,0.31294943679565795,0.6176389500401129,-0.47097730449003333,-0.600021373039857,0.4809608948317938,-0.525682195508236,0.9829562264339626,-0.33724852942884365,0.6955228516653942,0.4630174527540712,-0.23449048111503853,-1.3466262987124915,-0.5999850414210481,-1.092293330169001,-0.6942485870255155,-1.204022814304712,-1.2833293360216262,-0.671466277537217,-1.5441554262943256,-1.2040631297201516,-0.755641986491737,-1.3773947220749962,-0.11693974030594206,0.07512597804282722,-0.047539682559506156,0.0684087212735157,0.04670524973345709,0.40437167909293154,-0.15859159598527922,-0.7333961306322475,-0.5678188452640972,-0.6295448732313443,0.495957493032442,-0.7779519392095628,0.9362997058575953,-0.8881947137791788,-0.9912342174311015,-0.45457794275514746,0.5668322027640805,-0.13801664100688332,0.46501451638760694,-0.9490910209798787,-1.1798776523114283,-1.0239687282944696,-1.9607777117163272,-1.7546336118568593,0.1412088203574024,-0.3152175860303615,-0.04746321536785398,-0.05080670627396144,-0.19514296751494772,-1.3632237676808387,0.17848317465182043,0.1768716114815476,-1.0987537245142196,0.29079008808954965,-0.8047085167094713,0.1690964951985431,-0.9325685434941781,-0.7193933703686982,0.3504179610202154,-0.9406498159027159,0.715335893328062,0.06579685842634331,0.3651849651066039,0.21742039964957904,-0.9248931270833005,-0.5799855506470962,0.7642591187147744,-0.356295726171132,-0.8114543383652487,-0.01055263658052939,0.19480468230182482,-0.3965219956026977,0.3043665417621739,0.46211640168298646,-0.37916624764516177,0.03635839172033791,0.7581815597616097,0.7541081612364938,-0.4895658626203724,-0.9069653914485443,0.32251805752974494,-0.4525065187274524,0.9325751530939493,-0.3752799977160719,-0.0024959819088276256,-0.20766757895760976,-0.29946368920703703,-0.866703410703668,0.4806590097781327,0.8860143955665443,-0.19214455229479221,-0.13602705652535163,0.8725250078195319,0.04600845475565085,0.3374528417606181,-0.0066811827088439,0.5630385325155471,-0.8101482929990309,-0.18390402877584391,-0.7135080300428186,-0.7092807632133523,-0.8104380579906297,0.4112569641818568,0.6599645979684768,-0.7550643428934422,0.7971049077909105,0.09235251979503029,-0.2311398142358673,0.9687326990710903,-0.006666591830334198,-0.3262631485696541,-0.9576311944571041,0.8228911599446553,0.20528247286696022,-0.6998836986032613,0.46284448214590057,
1:-76.35998254170684:-0.4667518980924299,0.15430693734072043,-0.4020243309660574,0.23144284837553308,0.33695316719887036,0.3379438145449667,0.4519562986073824,-0.22750306629223882,-0.3104250487653528,-0.6181516579762913,0.6301235738082458,0.7058163045546313,0.5656294084019258,0.7026192154477371,0.604541079872595,0.8714707000378217,0.18084657403764348,-0.6861716930326867,0.7616304274446204,-0.17752080065938447,-0.5708125275802105,0.8513887349625087,0.3823484536865689,0.37274688321988103,0.5086142103030167,-0.37399128076879307,-0.19275776028156666,-0.15673941726193852,0.40803770112121085,0.7135351933717851,-0.4230303469921217,0.9245739274237503,-0.19517992280088126,-0.8259318058115563,-0.2529226714222428,0.9349393578000466,0.3616626264815774,-0.36669462063961167,0.5465303641999154,0.17727321108959163,0.4136628087708057,-0.335345148347045,0.0828270795146011,-0.9150890702732302,-0.399217367694237,0.6782310652182113,-0.10884615296756789,-0.1086040184269642,-0.8721177495717476,0.3529287976022529,0.7870193109069603,-0.3167334220972411,0.02406749905429595,-0.9596543216544349,-0.3050487264525523,-0.15614827990277602,-0.9752261017730808,-0.9755944617303869,0.9184894974542914,0.16338865831860439,0.5148085755248394,0.03810827619190772,0.6548542579265252,0.16482570332282837,-0.7021595225627429,-1.0512372066157847,-0.5748259001088547,-0.4127186761786246,-0.7163832955278541,0.7256041585599435,-0.025940928351195457,0.35654966643297986,-0.5266797947238424,0.5554010440889204,-0.4947377166652404,-0.5585053761059978,-0.5844157244037631,-0.3814881050661646,0.9069629554742847,0.7757556125806961,0.726121025325196,-0.8911405928667441,-0.7324692514615667,0.9152888084475064,0.13059658442643873,-0.43224339580394955,-0.7989232339788533,0.3583304545330507,-0.9237231575172399,0.11502973034462437,-0.004651442250704924,-0.6830003595682609,-1.0404594901054032,-1.3801546075544597,-0.5789529625497727,-1.0524655484291856,0.0126816099066159,-0.7664162494122556,-0.8477683268317054,0.27973451322630183,-0.010129231206868448,-1.1452640434522345,-0.3760219045294963,-0.18310615492915813,-0.6139532835566276,-0.13126117172057972,0.40002636141000264,0.7606327360562793,0.5482712743133017,0.8176700468342019,0.2864834373148997,0.24609217845803388,-0.28509765301491896,0.825417974700273,0.2489720005719915,-0.7178913196711092,0.8311941989222942,0.919718790614283,-0.9966348298274954,0.6601443307416192,-1.628416037719897,-0.10638627937364128,-1.536782724303415,-1.1410677948617842,0.44276547773218544,0.10164681823782944,0.6465021526516128,-0.4043016241797806,-0.43548018665306093,-0.30933558569545544,0.10754682328094971,1.5357581252903276,1.8968645857532866,1.8620469645112383,1.2197594990406508,-0.6817453989452559,0.07275623590578804,-0.3018428159781624,-0.19926896889332438,-0.806257296967718,0.589944303633894,-0.7965223748384476,0.2660487145208977,-0.1371370710435864,0.5252161325179794,0.8234628522012947,-0.9759471582470534,-0.8495935136394438,-1.8650443138382131,-1.6497640971125143,-1.1775076559110065,-0.1030999034247005,0.22857474504691733,1.5196329624417675,-0.385860565685807,-0.40074487490788246,-0.012531501946896634,-0.18332903952468863,0.109449389681433,0.5990818521124075,1.5053579809363216,2.5796059989125233,0.8155231263379101,-1.0172893957294473,-0.06342384165347809,0.7762755968684015,0.16899324599655974,-0.8264636493193315,0.8129253403821102,-0.4639887421433575,0.8963055045408412,0.081840227012196,-0.42045356917039306,-0.649051415278994,-0.9842981950280536,-0.4203008066246184,-2.192917954958058,-1.9875382180558328,-2.7482634226075078,-1.342141741138374,0.4653749973539957,0.049552167073959756,-1.2101695081165333,-1.474244224044286,-1.7686736304561674,-2.005767483552394,-0.6578493514452858,0.8814031501409081,1.9953905921270965,0.8795092307798831,0.5843115335747667,-0.4510264504001993,-1.3293605511451019,0.5822434115301249,0.018717598036086983,-0.27412518701612126,0.04425068576455558,-0.5471105125427286,0.09954027146364625,0.8027721238753907,-0.7788915493508546,0.4186629928550265,-0.30339518605764315,-1.3295725716112183,-2.5740782236493183,-2.9912778944202754,-2.0223436745104304,-2.917892903425766,-0.21566176739894782,0.5820127034505673,-0.8473643925271,-2.0002373695745255,-1.3163252461454193,-0.8919773407272973,-0.702253566517607,0.652882447499928,1.0917919954913924,-0.18571387802101838,-0.15385627062206908,-1.437184061894273,-1.1362325032772316,-1.1085471933236437,0.849638972085691,0.7607205129440222,-0.3114419405677707,0.8504581950168354,-0.01890827606084817,0.37132299318778694,-0.669074278245199,0.4904709783741876,-0.8097260627781026,-1.2784641633276477,-1.3568176562903134,-2.6187106779874587,-1.7897726221031527,-2.8648423812094754,-0.8116276872611267,-0.7063035640926848,0.6557521945015458,-0.559064065658668,-0.4289432441342967,0.23852237396141862,1.0403920711762673,0.10339073857220302,-0.7429151586053355,-1.1926777104860318,-1.7407565672297345,-1.7814428005414122,-0.6921524055760367,-0.21928414645992517,0.22016893801026355,-0.3080309742237456,0.35459754999719073,0.09905434680255702,0.9498385883893238,-0.7974960088143139,-0.15876512373852908,0.26718503923204345,0.3384558207156491,-0.4855319912962692,-1.2936964485611084,-1.4978896184845099,-1.97050786742144,-2.1877498282931596,-2.416783209342656,1.02670238593963,1.8617509036381792,2.5195206582671528,1.7058843403325818,0.5025842763440884,0.10350821529648903,0.3298175735435874,-1.2338544947940975,-0.10515005384854206,-0.30261690223928983,-1.0493572120955126,-0.6341673727993394,0.6210498925957786,-0.11272014332104688,-0.6174294328304046,0.7969858663228155,-0.5665147239125458,-0.20832123626415427,0.5938202861443534,-0.052759612881540636,-0.39787349776661807,-1.060459964966687,-1.2155537958934777,-0.23856933244980003,-1.2360826955426343,-1.4927922543802785,-0.5128101719263597,-1.0777897652072743,1.3723639258621387,3.3317318737445976,3.8815533011251104,3.1330603905257233,-0.26975208251143046,-0.3672084557640784,-1.61214801764788,-1.276710074524387,-1.4527836157052183,-1.1587981072547466,0.4505484690190438,0.5003673693191288,-0.9471843051050638,0.2749769652217248,0.22036868837817147,0.06731320122891127,-0.7171970417789517,-0.7771363555192111,-0.4615551388833147,-0.8798133115760801,0.7380397194422826,-0.5977654229477374,0.5137215851178559,-1.407948986380537,-0.013295484686513526,-1.6328039381583095,-0.9350735154866774,-2.536712961392184,-0.09809668576414803,5.890750399441725,6.514211196367519,2.3632137997364864,0.11661154471218882,-1.3307363366105973,-1.0176099516284243,-0.2007273406562084,-1.1121804401646211,-0.3046589087904787,-0.6306318898062642,0.7084062515943882,-0.18548913118422403,-0.8323623975591085,-0.7460392152813785,-0.8959665287621092,0.9717874257060038,0.6319617683412967,-0.15941819448275882,0.8588634719164935,0.1584597470113599,0.6936600770636508,-0.40805930727809314,-0.8679055697014543,-0.7727644290698172,-1.6873561341815613,-2.7848731723610203,-1.5757271340988392,0.8429158137699523,8.147895843759589,6.15952876061,1.0531683796176508,-1.0850463852501606,-1.003051102731593,-1.3082433357831234,-0.23904061779387092,0.327824085359364,-0.844081917189013,0.2683423741818248,0.5279200657777889,0.8360188724660848,0.5269517110366677,0.3233293493207444,-0.5699770468427946,-0.6940657836511089,-0.36405407184362676,-0.755372177520851,-0.2052421741706797,-1.0088976732329749,0.20131228166116388,-0.39133134939543085,-0.6071163045361807,-1.056170556901883,-1.560691406596815,-1.3154042682236793,-2.0574949682727555,0.9522566457763382,9.684636006225455,5.042920534044559,-0.4500663650457413,-1.7304523540841754,-1.221873396940299,-0.8310574686640696,0.14685589804401697,-0.4081941536061585,-0.8335970017323918,-0.522120720253506,-0.10214966782190728,0.557344881165586,0.40680132289034987,-0.7577087567656979,-0.9963567499769725,-0.6980281200683573,-0.005121419507556664,-0.44670858018137377,0.12278415558713293,-0.3504151089883346,-0.87319127883864,-0.8313503286131938,-0.2931064263480314,-1.6582917980757579,-1.6167547857277917,-2.372925404948526,-2.404628204471842,4.73918988252684,12.659657252755336,3.1162875381550506,-1.5804187205022093,-1.9159367207753444,-1.7443020741097146,-0.9003634723268931,0.1466091670696014,0.5496060570769157,-0.708076077897795,-0.4507422020473666,-0.591565698402392,-0.027508545340186288,0.2940539557340631,-0.10103818696301725,0.5836020909835202,0.15874038861933104,-0.7237795749529269,-0.41410973863782946,0.31291521627890617,-0.6262033138911731,0.5210092032786509,0.46452255198721426,-0.5108489264087863,-1.5643280727886923,-0.96368130037969,-1.8946484208085714,-0.27234316741741676,5.371095752384659,9.366586986686505,2.6425893387257426,-2.235418003888648,-1.9957015277286188,-1.8428339183300404,-1.2988390152632363,0.13964191715249308,-0.7275598654439027,0.16583027797138192,-0.736750920622536,0.7905275040136505,0.001897258508577996,-0.6904725375870986,0.3029834052270269,0.2198510270030538,-0.8719034883479918,-0.5576329255196941,-0.8637724471997684,0.22976961931017392,-0.42346623959394264,0.531916361932533,-0.7427023825557028,-0.874219563259057,-1.3884409468585595,-2.295720050948568,-1.6760120175089002,0.5055917717703802,6.4637339032166174,6.911936649635121,0.3923870796829177,-1.7463181472535811,-1.5654830564234643,-0.9634562701036512,-1.8258819013607879,-0.7613818779267324,0.2362899661455785,-0.1360901088224745,-0.2577185799288723,-0.8221343138009578,0.02052571751628691,0.2250328973017843,0.21960121658806278,0.6722215679943284,-0.19698847126483673,-0.7437650137363416,-0.4106080822014141,-0.9875953410936602,-0.15590410882599556,-1.0074402964280211,-0.8362432228965186,-1.8617542767975956,-0.8113467323034483,-2.123984238972795,-0.6462436740847507,1.0809116319313135,5.3378324093376674,3.949870460710736,-0.009895083059132814,-2.958185614195357,-1.0971442046623763,-0.9736431396709262,-0.33444345690853655,-0.9744832912030182,-0.08610154358720229,0.3604084232618657,-0.6879973168051583,0.15349190914745717,-1.0066405111654257,0.7103999454762678,0.08027782306003763,0.685446273829762,-0.32514882432428993,-0.941647503500631,0.15033035695145044,-0.354966157463983,0.47328383302607,-1.5659886146010504,-1.0745381720813578,-1.1231803184464615,-0.9431707982187355,-1.4264840962134469,0.12450648732445642,2.4862146134141163,4.019632718945823,3.0677846549844494,-0.8857032401821895,-2.4491162713723265,-2.1280066055170788,-2.2331617184289594,-0.4114420072887776,-0.7680573511437264,-1.141023499131344,-0.8802981069687654,-0.37274003333333666,0.4011024783680806,0.022602604257174693,0.9498559868259981,0.3525025544224164,0.11366966977182631,0.5794059624671503,0.06085000348828077,-0.9144818901502987,0.6284524046256684,-1.0620233488401079,-1.573368990865716,-0.44580127372348094,-0.7412379004240037,-1.3289141895222556,0.34122645170485416,0.05441329580582139,1.0907825440268808,0.8907234499584458,1.3918031749681683,0.1146302017915135,-0.5493450063319617,-0.18804511628955012,-1.9614472521235107,-2.160622503358402,-0.6801089808345784,-0.8021464170115461,-0.9938765046500209,-1.608284114622019,0.2519455021888998,0.3677607605258206,-0.7392865643946762,-0.5965150566812406,0.8895042787228142,0.8563170246523412,-0.1592498636392239,-0.6233801027011372,-0.33393122276261694,-0.6984546596923968,-0.4257584741749105,-1.492688854799668,-0.7369127124270208,-0.26627792503885306,-0.09183841062414855,1.0914155545193407,0.35370609596067565,-0.47320994465000493,-0.013131260361742982,0.743031946693959,0.5267237497917394,-1.2741632805754257,-0.6323987494489358,-2.1126068781861562,-1.035967366159165,-1.8395595943031837,-0.7887040721863272,-0.7475709049357697,0.32198985294106686,0.3315434998352961,0.5151783386419984,0.49337103307470787,0.7721412229957109,-0.31087720877434677,-0.7882918328249358,-0.3544648975694638,0.13698541560788394,-0.824636677087523,0.2960011800675863,-0.4290626740695739,0.5215322209132495,0.022486777510146858,0.38531416429406107,-0.9221791672687959,-0.6188910197611808,-1.1041859880829945,0.22661458918568875,0.492848449809192,1.032759735389982,-0.07247615038931285,-1.5376954178217412,-0.5569490276929613,-1.9655684525150003,-1.2537692029766532,-0.3660268805716778,-0.4311335075263468,0.05932561086919639,-0.5585111801062039,0.7426471064915051,-0.059211857121985956,0.68597811614614,0.17322737153473655,0.921503103768089,-0.015724588119868994,-0.6666348110887308,0.7259318662384706,0.6533651858764934,1.4544285776452455,-0.5304967968372618,0.03062154170405689,-1.759876770648945,-2.0019937968125037,-1.5663314753623199,-1.215447879939142,0.16036813394791163,2.472213318720478,1.3615060196720608,1.417166197314269,-1.0311582274262565,-0.3390999613416187,-0.20814844228121046,-1.0183377748547722,0.46826670502024104,-1.1207582203675337,0.05560355966505715,-0.06542954263361193,0.46262613497877153,0.042116764488267844,-0.724320628104058,0.17667260582964972,0.30721919694774946,0.7659184703465596,0.8937667487411591,1.441350457330241,1.2433995095660384,0.9197105452173959,0.9578123333139589,-0.20597281488616684,-0.30155389023010143,-0.7291745518471029,-1.6440578117870057,-0.7653687170055689,1.038240725231908,1.0798786861507161,3.344727000945655,2.2467701137665523,0.3348076944075112,0.17513001653940652,-1.1916643668581668,-0.23174245944876876,-0.7015050104301004,0.948511484314797,0.3645614963315561,0.19070645900737493,-0.36824963939676064,0.9997292947468015,0.05553756892321271,-0.9863294638916924,0.869996955729945,0.20868055190697346,-0.4612487731061127,0.2850927580103595,0.783776012396199,1.1884589688613714,0.1252392698207713,-0.393517641096978,-1.7348716035388727,-1.1390560940828873,-0.6254096930070477,-2.286217633837317,-0.7336766108851778,0.20952144843406798,0.9698720773983793,0.6978766934349527,0.011035692617973039,0.7760994244896434,0.10782734963503728,0.9113413328202874,0.17871678000549954,0.027338352069575692,-0.8432616822287973,0.7204602675334594,-0.012327923173799014,0.017738227768004267,-0.7795417067417714,-0.6565653219887173,-0.7569868446034449,-0.7292899007034328,0.9328229166140385,0.4527818233778157,-0.9632883531773722,-0.7122430493865874,-1.1197211985529885,-1.0885072628404093,0.03623921244834479,-0.3160892351089042,-0.09672379560084175,-0.07688493860747615,-0.6007417381521013,-1.4168885691022919,-1.0732817963610353,0.16312194505969915,0.28825685318000965,-0.18271197553757876,0.9570322637370943,-0.6696257478610889,-0.35069680036846707,-0.7881015757298211,0.526996095764362,-0.0528260081187395,-0.92109761093637,-0.5473313241263151,-0.1871576588160424,-0.4630769691023924,-0.7763626485379522,-0.1951869906140182,-0.8206881204386618,-0.27910646503554654,0.5458439374796076,-0.21746562410866926,-0.5057421729713805,0.7982412507250778,-0.12593119953748586,0.7015769096318085,0.3843459888564813,-0.450913064392044,-0.586048773859353,-0.42466481783345594,-0.15751606013292047,-0.38976582010873684,-0.32034755823192035,-0.6279768356004942,0.32289737248160955,0.8639475691895918,0.35415785344324774,0.48234881757749715,0.9813050005710933,-0.3646593351399605,0.8160667756558513,0.8247741431497293,0.5040943844105366,0.021687586154757632,-0.5878350701102386,-0.4863013054508787,-0.4380177694679111,-0.2580010225378186,-0.5873315962664298,-0.15884619678156567,-0.6549686383417015,-0.40167575270975603,-0.4068917662275227,-0.8308019657738042,0.7888682150138676,0.1848284486962748,-0.31973943789813786,0.9249244948223658,0.19155941607054414,-0.7786554481861288,0.2409544493746125,-0.8663916310777691,-0.8715565920856612,-0.009648441204411867,0.3990816996588639,0.41751519038496143,-0.8470688814225891,0.30974581857241734,-0.14256087317427646,-0.07031939303083767,
0:-9.147185939179526:0.5486980926937621,-0.7558149296106087,0.5953021518045876,-0.1774802160268023,0.7500316337460877,0.4675817229583368,-0.6543529254491187,-0.988086231950779,-0.12734263595285156,0.6199285654553752,-0.9709543727917942,0.5376017043825405,0.8513545679134754,0.35314444845202253,-0.20587494816327334,-0.6938603165709021,-0.8482725840242968,-0.23924220281748831,0.9400822248474678,0.9724697862785749,-0.8630353927646106,0.16660008897397027,-0.8389010189872568,-0.31819161483018954,-0.42408799562417965,-0.4858813475930397,0.4386931794506532,-0.43937854482830985,0.46634845880985387,0.7709187648310563,-0.47750332457786526,-0.6355385459265721,0.8961812369735158,0.39010149280502265,0.7700284806305191,0.848646123473947,0.27660730745467493,-0.9405854698834774,0.008610403218408596,-0.8515378012574822,0.9551173044828616,-0.27881104778061166,-0.9623497426267349,-0.26123450979111834,0.9525150592753441,0.16047457094115633,0.4070956922976508,-0.611390348929978,-0.632929123858356,-0.6642126987652234,0.1879401390152093,-0.06537897430754516,-0.1499814193310498,0.06623851632793021,0.5932404472387258,-0.3323116045014969,-0.5192699631433184,-0.3091092794638304,0.5131833625917475,-0.3393787660104009,-0.6440066935408975,0.8805403333931339,0.29532271701958523,-0.5398000974092416,-0.7432330202597971,0.9091290500437026,-0.5688576875501443,0.22516117285606657,-0.1329267795602865,-0.6185584668729763,0.2028313103220857,-0.38739973426642443,0.19351173229811686,-0.3344266186576439,0.7989313987918917,-0.501979668843201,-0.9296844991494516,0.09355588878302804,-0.07452412292898476,0.9605022078430869,-0.0665893225433474,-0.6304236126788585,-0.48099218348239603,0.8722769089303788,-0.5913278334514294,0.5658150995659086,0.8106086931540555,0.9028506155475172,0.683060023896501,-0.4130327383100557,-0.30491478131986066,0.7810128788962332,0.11381269136924292,-0.9505746576599694,0.1270614010991443,-0.7463616002634796,0.07948201586652091,-0.8521472589161915,-0.9042590365067551,0.33905821133032726,0.6892799205984707,-0.7281470627882356,-0.3768769349921954,-0.8078377378639799,-0.3628100281500438,-0.11412111189739677,-0.8161108349582724,-0.8194037447161716,-0.7726682578785252,-0.4979188786327267,-0.033691826439045676,-0.37223012948096845,0.40174223664199915,0.4523118933759205,0.4687782050181833,0.06158753154745961,-0.5597772870354899,-0.39824499407752983,-0.9266700157830371,-0.1890281242729341,-0.041197710437845626,0.15423691562835878,-0.5595594719149412,-0.7004033795031104,0.7931177790997003,0.2602279571379752,0.8385422795265992,-0.5054748483582553,-0.5900890644364812,-0.7414694854280637,-0.1574606536369709,0.6068823232027271,0.5972181933396598,-0.9053524931595976,-0.739973829741174,0.47424362307199186,-0.5398708283421828,0.7010691506119978,-0.4613649363992047,0.4699640132062195,-0.4311142250994038,0.8627022461376748,-0.5029544154196872,-0.16006662983121805,-0.7401110968197949,0.6720153530108354,0.73997300969896,-0.5980100593231398,0.3919558307088779,-0.6378492816931918,-0.17542436693952487,-0.2687076790005986,0.11538370632900671,-0.011555420818740914,-0.14713413445763576,0.5642485816265931,0.2593550005417941,-0.5883856638933062,-0.9666728747457508,0.899592448715362,0.6536851523118787,0.6941587962426693,-0.34433594550385027,0.8303721559223293,-0.41942744689665495,-0.6645456893821055,0.30525779447284396,0.20780292430151698,0.9045951688083682,0.9596314249674128,-0.8447688192107449,0.7880905434850211,0.8576578127496467,-0.5235257466987489,0.8619005329800837,-0.6287713607508891,0.003255522239584701,-0.6121983837904489,0.8113108696294096,-0.01942370669777704,-0.8136880154429887,0.1366489398115943,-0.1356849318509497,-0.45744329314745974,-0.8070066230713387,-0.7705611085022376,-0.6328249408756033,0.5020554838069753,0.8880753973311506,-0.7397665628396272,0.48294162737524693,-0.8329528283979466,-0.8782814852881715,0.31432119702173256,-0.7341096568037246,0.875189723473057,-0.5052860252962255,0.6494973762984333,-0.43428633098583713,0.16131670234014575,-0.29119654379441506,0.1725634745103645,-0.7647398421637119,-0.7690227722275961,-0.4924820182971404,-0.29232700778490706,0.34608717116072474,0.33559269032416633,-0.2944288322831471,-0.4982801205787333,-0.9798282879646885,0.09352380181383993,-0.7030388344228411,0.5831174542387302,-0.0875250843726717,0.6831729409969931,0.08240106141998157,-0.05178247131360644,-0.8291043395915096,0.08061465122310497,0.055716358898498144,0.9274897965652615,0.6971193414446096,-0.34133765726116716,0.3958124769765939,0.7416160187800502,-0.48600212352084776,-0.900857578041626,0.5815803647315486,0.4709181132008507,-0.6352918317882972,0.5074847383943611,0.088260441707097,-0.7988816768542586,-0.6025407496359838,0.9890153759052508,-0.9710020145467376,-0.37974512772433805,-0.8556721906463762,0.6039046341634025,0.016448053011785112,0.11290392974152706,-0.9475343735091181,-0.24348861870168212,-0.5998913219494558,0.7282078193623936,-0.8533274574800953,-0.8608835306538178,0.9697506024542223,-0.9994762417739163,-0.5094942317371837,-0.5760832537029466,-0.5546072648104511,0.7704601934540395,0.4515834014993239,-0.29812310824605104,0.08507776691977995,-0.4692782533364042,-0.827014600504462,-0.9234437816447711,0.2880106948465146,0.06788963505644448,-0.0702023175502563,-0.39760968249282247,-0.9403385733190076,-0.7302537670213315,0.5201151984368365,0.18409219291407347,-0.015450866776067279,0.141802965554039,0.8575221974011937,-0.19362376968161935,0.8726800832268651,0.2300983924524424,0.5638960716127434,0.09893958836146043,0.6010936935028452,-0.9693551289699082,-0.890443342700865,0.8098681297127454,-0.44096983544795737,-0.4734024547761609,-0.702786653457208,-0.4523483187986703,-0.278932101275341,-0.07500877579087041,-0.5970723949812274,0.5093890913326939,-0.6033726229321106,0.5771685126843931,-0.7480992289720346,0.858582161660226,0.5861857472849785,0.1550494359632675,0.392665778024972,0.47628031541879434,-0.468217467337953,-0.22137829259478567,0.4373191141241419,-0.4551925924165754,0.911985409029402,-0.6563376030359147,0.07155747709064875,0.17802565912857865,0.493073146225834,-0.2266672156884403,0.7482097237632706,0.14214100437126376,-0.1931559548611684,0.4114314665179353,-0.35617587336354367,0.88472040472951,0.7016009827540111,0.6926748868819173,-0.29907232599793343,-0.31270472262724136,-0.9661715237594846,0.11939315861181321,0.40189152755363056,0.018794467176219545,-0.39655680183047565,0.3199947336883786,0.09788473073260796,-0.9860222848974856,0.03009900590688703,-1.0349647014168557,0.03217156360813526,-0.3255904602519235,-0.17943874757544762,0.5944075106570125,-0.10036638735202845,0.1087000181994108,0.5885616053791436,-0.6102765140158747,-0.33424642582648073,0.638583997146807,-0.264427846935062,0.46021502906382294,0.442502746938012,-0.3290415791128772,0.09119137014907845,0.51216390439071,0.09293357400083727,0.4981520080747822,-0.12498219270650558,0.25740508589787314,0.39168250175170255,-0.21302326841943475,0.5810518270613599,0.5368218895170715,0.485812613843321,0.1534791601136069,0.6435685635401308,-0.08105548928624626,0.25298120001204816,0.583019852980281,0.022072855022743296,0.9638081564434859,0.508538781555015,0.5143635375462514,-0.8353871048994181,-0.08611272304211658,0.5033397695185153,-0.4623922953630095,0.013808168926426135,0.4924444232823874,-0.8772720817871421,-0.7242486266844792,-0.5115310318201306,0.3750582760019449,-0.8100279680077126,-0.6773061763849877,-0.652796875310035,0.6703286468079682,-0.22428942964058032,0.7311187097373234,-0.44732772647394037,-0.6440372274966532,0.13455757309558455,0.6304700064556116,-0.33024085921817276,-0.0690523747401923,-0.28219308968964807,0.5082605229056684,0.8035903747472956,0.7659423747692953,0.8629849210435171,0.0951455987289856,-0.5209295392692319,-0.631889896301387,-0.3452277859773544,0.875846926975832,0.5268117236629927,0.4091848104137214,0.43009360292679266,-0.6627874826591937,0.4115782965935342,-0.482431551450408,-0.6047398878046174,0.8064847269336708,0.19373495000968338,-0.6329517633044628,-0.330048164748332,-0.13410307407376906,-0.9165129450251067,0.8180726731630245,0.08065407974462063,-0.06939840726225352,-0.6212539045213106,-0.23072386542564313,0.242759766472337,-0.17990643681956475,-0.9182897303695329,-0.7798591598456556,-0.5148408992525108,0.5320415244604736,-0.042216828031138326,-0.657156915195087,-0.5306558042511956,0.6748519042580289,0.5336218187935544,0.5265813935905973,-0.939240086415869,-0.14088241028441387,-0.455837254643092,0.2963259913614945,-0.49144589491403506,0.1889602298601076,-0.2591904205230702,-0.08711330175377167,-0.8476706923746161,-0.8695103588002168,-0.510700167977532,0.28268052923480635,-0.3962784738130349,-0.6789773703396582,0.4245546848635785,0.01902934641544089,0.5845976364663475,-0.32493596005578695,0.33760715992730495,0.2934201498274585,0.08731914646354748,0.5472299266564034,0.5433060628788069,0.30726054441280115,0.2070734089020755,0.2672161370766467,0.4230339807683465,-0.12018652336623342,-0.6815656050965523,0.16597370866228767,0.32795616505466285,-0.4913727578603738,-0.8466819130894077,0.481715822064349,-0.13540571913276528,-0.39978083050880453,-0.8264988952382682,-0.3783121988026467,-0.7946713427211737,-0.5643960089760774,-1.0126365031389175,0.33558976444332833,-0.5095927761568912,0.3019439344042943,0.13335277158870198,-0.042546306747369894,0.27566430191511554,0.1490410281670369,-0.400190566842381,0.2724182147757004,-0.7989266359430983,0.2890687986173718,-0.7532381558377814,0.40075206568864846,0.9663290729209879,-0.6294421502433917,0.7356702810222546,-0.19999983283602113,-0.4293179528407483,0.5549537204899371,0.5118197849109565,-0.8050199333152442,-0.6681405673315027,0.7528064625482762,-0.976449341287541,0.8000985994697101,0.8502850369654884,0.6435356427366017,-0.9781480878314237,0.945893058646649,-0.22857301726661988,-0.0630653901784298,-0.647788245705681,0.4914527467302244,-0.7248958578837152,0.4692186546524693,-0.19031669339886162,-0.5851381640432007,-0.7329089223018737,0.8776361255164742,-0.9351147234964294,-0.39497178636795477,-0.2365296670529667,-0.4930772693593086,0.6216493761891877,-0.11970707181978124,-0.21211907778725186,-0.5465176794269644,-0.7456215229761509,0.7998672570275608,-0.8959294910921146,0.48146826036332463,-0.33452084204021104,-0.23800045458931945,0.03039940684981549,-0.8673990223691227,-0.9009778927471047,0.4641830773285357,0.8759841352650866,-0.06718284337609601,0.07930814967366898,-0.2593578352743719,-0.9596340777886087,-0.965793803114401,0.5722967481052949,0.8331399611921146,0.5134417532243065,-0.24350841080152413,-0.041602799129482636,-0.9122163504851172,-0.18418711300827373,-0.7007326271630109,-0.9535708519014804,0.7362572141627856,-0.9797693867737037,0.9152993330393476,-0.6733161618645358,-0.46333954846119835,-0.7482179030692558,-0.12026590185362705,-1.0354215751718123,0.5562784763276648,0.7726634358332725,-0.6497161448321198,0.8278227872815604,-0.5618313822436412,-0.8744688606044166,-0.02767870161459468,-0.06349249264542878,0.20239663756165335,0.9070268848937311,0.3492834873371104,-0.5835277203514636,-0.7143797868140103,0.4146343996655952,-0.8393754143921246,0.37710746444292464,-0.8505548262728174,-0.16780177022476628,0.6272761313929617,0.7180274121993019,0.9667664454901838,-0.8431828595763775,-0.5096980376379997,0.8463732746723587,0.6122937545508644,0.4514707316618254,0.605444317336292,0.28170136449979516,-0.6126444948172443,-0.9220911519757193,0.4310525535062045,-0.9741022696819894,-0.4137450026262755,-0.6942754601765877,-0.44067024770758795,-0.38802049083355744,-0.25000273058225264,-0.019603671701676473,0.1552152239612334,-0.5911698738471577,-0.7549200596658416,-0.8504689818373186,0.7810064179646847,-0.938623986783444,0.7621609272414461,-0.013365299133532108,-0.916891471816949,-0.39761881001682037,0.2614355565697143,-0.8578294677269582,-0.7153242602798233,0.2581445778718001,-0.11813384372238872,-0.38308004865842293,0.7345519275787473,0.42671933497303177,-1.0637012057249768,-0.35651593801721954,0.6029311822098936,-0.7836080629525513,0.015358763556769732,0.19803737460770285,-0.333716025109004,0.31953374812727336,-0.5407352396608435,0.08936759075509522,0.2824674555278139,0.9863761767408893,-0.3022530620967843,0.3529864688667215,-0.29691706066063045,0.9484398554158298,0.5554875813359433,0.3945922981022262,-0.0775998107488901,-0.03369739994698987,-0.5089371052721647,-0.01794560767816344,0.7999349015836325,-0.5340196677980072,-0.3629782422870738,0.6988563056634757,0.26848645861438497,0.14863162215709505,-0.11607167228784548,-0.6984269449866876,-0.9774081150084651,-0.5303962909067365,0.5422988016506276,0.8243644715069492,-0.7878981460539954,0.11147441639304044,-0.22552455687850625,-0.3217567288164373,-0.20399166070542996,-0.39535321348110875,-0.18906758547390362,-0.4341986798226024,0.9683581044179034,-0.9842316951112866,-0.015946874112411333,0.5612693178035866,0.3193432263457818,-0.20888786603625115,0.675269997074768,0.6102119450441218,-0.3278170998668607,-0.903118075016481,-0.13617097685877289,0.6959797954945207,0.5710861243758985,-1.0743906480553322,-0.697402101032368,0.9416167931970487,0.4870324849342324,0.2821281887917391,-0.2020120258084472,-0.8160125544775129,-0.7633919433224344,0.5369551650648071,0.3308129289965315,0.9794022949170198,0.7352399878014718,-0.4165808797973465,-0.7374614202498689,-0.3176578500540592,0.2868010718106121,0.8724219106716558,-0.07676854401200606,0.47901511236388195,0.6240264980549941,-0.7902704993992689,0.44984372367573056,-0.9414598053745281,-0.8837543552921553,-0.10233776925660411,0.056657933379829876,-0.19520438307052773,0.6313781525164828,0.8065997131872891,0.8529497559080149,-0.6139633481109884,-0.7036194252075667,-0.6775599927147324,0.6405327898905573,0.06880632299476391,-0.42376342230164005,0.023005701057330914,-0.03291478424543647,0.6429718267874026,0.03762715807992938,-0.40822907570455347,0.8770702756857415,-0.4979066982530956,-0.6941839973990012,-0.010533881578996152,0.34706383069642177,-0.08757686242156715,-0.24032949604069898,-0.23743216530388245,-0.34906221622275047,0.35410617379689074,-0.12298287057661719,-0.6532412580268339,-0.16508092715453584,0.24721337003344326,0.612368346398942,-0.6703414040440837,0.04099859872159499,-0.2687330854565525,0.7599641951803067,-0.7571630409222784,-0.11370125211781708,0.5310482048674807,-0.5658886059522432,-0.2017554877862621,0.7888236677256992,-0.9801341623537746,-0.4833253360342061,0.6439677105016888,0.9889446642176241,-0.27747816465344577,-0.34487440733477137,0.9780707983011732,-0.911634540741016,-0.2915654905709162,-0.7256559368203075,-0.15234119593693718,0.5237020061161557,0.9192174123093526,0.4340334119778197,0.3022990830869765,0.6150305508485175,0.2671666897173412,-0.5457366423855068,0.8203145283467995,0.14562529130790902,-0.9803041858399478,-0.3807613446384032,0.3948017750307235,0.052333993279016534,-0.6927485024928233,-0.9912996988269808,-0.04237510055003032,-0.8666943405363497,0.03418834736320013,0.9529075837545641,-0.6199545576780932,0.6786152342293188,0.38723972103391696,0.739290771479755,0.27900393756454656,-0.0358393498472136,-0.2948774502265574,0.8762035422527354,-0.24198591927839175,-0.08430607204578,-0.9573069977091508,0.08624630983524403,0.5064951806788792,-0.4496503624911312,-0.14924928200549498,-0.900142342172636,0.216507676877219,-0.02553475169042329,0.22872977771186803,-0.601594079638644,0.6056684767394731,-0.6421567972107424,-0.6833750315537116,-0.28547211274869044,-0.44359325505798264,-0.46081583868804044,-0.426793700823749,-0.5320528877302525,-0.2670176239518646,0.6833069685543057,0.9135105864245967,-0.061077380059303854,0.01980574272970803,0.7702905055371083,
7:-37.55869358528598:0.6666692193874699,0.9645721522487667,0.0355692767191933,-0.8819224153004575,-0.746830486273081,0.8274443240501403,0.17816688613658216,-0.02070884806330353,-0.7337601180001545,0.2570501532130254,-0.3839780010156848,-0.0786214593831831,0.24716735230235445,-0.6956558682572499,0.2723438945584255,0.8081751560458718,-0.5787382470453482,0.2649862834213115,0.2532697264134698,0.5181110516771541,0.6388350694551024,0.7648170908956695,-0.9861869349957502,-0.42816845431883976,-0.6404820621896608,0.33808645845455154,0.7131757391022939,0.41349117506667343,-0.32442045715362067,0.9496696843524184,0.2951287991785505,-0.9989445641418231,0.8406201000247724,-0.6636688190438732,-0.6688785788818509,0.06602235100026582,0.8032095731648438,-0.47157465770355894,0.7282283176904243,-0.8294451497887697,0.8407441065370961,-0.5377497349985361,-0.9690042486910003,0.520091649634375,0.5470259563036365,0.2045478317633704,0.23348021509888175,-0.6217670326154681,0.14693127676581386,-0.015062931066483045,-0.21227573268054903,-0.08335505069166393,-0.5991523054893122,-0.033315142512139184,-0.2539588124375953,-0.7578568510093153,-0.8136536100346872,0.488558994056548,-0.021553462072964713,0.639658517334059,-0.7057200001614746,-0.6326273380801902,-0.3130219536346987,0.9416680699734049,-0.10454970246719449,-0.2217344093368922,0.5616412821309618,-0.6635574584843718,0.6791327781103924,0.1937495989492863,-0.5296458359283012,-0.7571669720911635,0.9649774317368307,-0.9377991311483591,0.5682762686668257,0.7072371516423201,-0.9888967461931751,-0.44545640478304427,0.6888388204534611,0.20356495264409777,0.3260722777816139,0.6406949055338504,0.754649102674906,-0.08444870358504653,0.08001396619902579,-0.6631050913435648,-0.8593903097502771,0.07761977167127271,-0.9990158001025871,-0.5593092467166089,0.9717846795109295,0.02974523806784564,-0.236242959556247,-0.41347991345006996,-0.5664896619609331,0.3960413492836381,-0.6443735206056753,-0.08334602241162638,-0.8970442307236591,0.15559581562738473,0.3692045846339927,-0.2537695610190856,0.7388860953186137,0.45157806429508746,-0.3564405197606613,-0.8206276697642277,0.37588333120373124,-0.6588063299091906,-0.45584109392280237,0.4616276525867269,-0.9443510872511722,-0.2171349761366308,0.10795359093531931,-0.37844408457057765,0.8156097077563844,-0.7254204889129119,-0.405094140690292,-0.2892665027963025,-0.7467344308846905,0.21231792715694783,-0.5738258226681712,0.0022957636429655386,0.0012582271280006385,-0.5609856885074407,-0.1363735301295667,-1.0315814103947294,0.44850209265515045,-0.681450939877311,-0.054176670973989476,0.5178137461267719,-0.8049532104691384,0.05173127509370159,-0.07490169462248958,0.036321310254922995,0.6678802634708987,-0.22945588315896817,0.2579758806487958,0.5338070923795402,0.3978514406538607,-0.7085064566075269,-0.5107242107501537,0.5687566184264323,0.06152217702397982,-0.8769312597707614,0.549699975588393,-1.0790837072940382,-0.14260538823894367,-1.2116775787223175,-1.558411228277778,-1.4801210624923693,-1.7197358895145567,-1.81104689255213,-1.0106308384921596,-1.2345740330822168,-2.6869384549251265,-2.235952038417367,-1.8302231456017943,-0.46198514494066517,-1.3947322740997214,-0.8158927913094214,-0.69300908724467,-0.235170973274014,-0.8654167251238838,0.17155399969922222,-0.4541305979836394,0.006398176296498899,0.4961656702898687,0.706943356292679,-0.09694968428659378,0.3949890815811803,0.03922594258730717,-0.07868305259394746,1.0048319688780283,-0.689591284735412,-0.7701566094464452,0.4358886165621481,-0.025224850190746082,0.04342740531411188,0.27300407045224495,0.20339205941359037,-2.040616352228207,-0.7292863186136981,-0.938443255137575,-1.0915527563279896,-0.7541445408282732,0.0034439743810733814,-1.0662053693822255,-0.6875905817993281,-0.7704296100474037,0.7373250945030005,-1.0657227691203262,0.33427871369868883,-0.47289842597097625,-0.6381308957547649,-0.2686405340355067,-0.6708703035967877,0.5920694583625613,0.4722597730629271,0.8233542987633666,-0.13460006203111408,0.3285167198277562,1.4461479638408044,0.5930243717525874,-0.03536526228136908,1.4035232302861564,1.8142169069643355,1.2427015695911439,1.2325060895875317,0.44138940710954955,-0.6272973367045832,-0.22040993678663875,-0.49782532125124573,0.09331407652489918,-0.09974428765742209,1.1418116174733381,0.9754182041812618,0.9243062495751698,-0.1490485216322816,0.09575093193637361,0.8818463591192441,0.42008839870676523,-1.093158140577346,0.16152575317561582,0.17631488201395024,-0.3599141240404792,0.15973243674390253,-0.17489163679167882,0.011139363615823284,1.006831592578795,0.5671504756094983,0.43068734068611736,1.7450967665569836,1.7852616214993067,1.6133985794001033,2.0960577858821585,2.2433084404602646,0.5834518410960865,1.5750907833594883,0.5434147824262641,0.46093570746500256,1.695100935915233,2.584962307169933,1.5564550695028472,0.30768978778311734,0.37343501721071204,0.3779329966026102,0.8890051031927015,0.18782549115518513,-0.15501698298450442,-1.1195456328686078,-0.9063307524100137,-0.9371982065413518,0.7717259806636574,-0.6969069059339074,1.1103670936721022,0.09884913550004555,1.5284662983812725,1.5183479735481151,0.9824993790761183,1.0189612145961873,1.507497374179781,0.9689695286567903,1.7337587452953722,0.4235616395815332,1.2598478091451237,0.5438195083611876,2.3094166620048724,1.7056378610883294,1.599975002795067,1.5879172918240565,1.1747215879784543,1.11924589670825,0.36294215573220845,1.0525092698964087,0.6912271891261071,-0.280620461235602,0.46332231485541586,-0.8062320996350948,0.610986570128571,-0.6106252345185552,0.23075732625629705,0.09238136437705986,1.076508408888749,1.1274693278573504,0.16276295308849975,1.574545605847191,1.264295596160611,-0.7188655272408284,-0.6491418874987098,0.5267708886393137,1.063531989183001,1.8690289113518963,1.9469035057033977,2.474278795474998,2.1311705927554647,2.8065392254397548,3.420329718278568,3.455719486116466,1.6897012841730692,2.1263963236398724,1.2055909515130665,0.37385555656348923,0.4055097107144017,-0.4355619213227182,-0.25737179682714817,0.15676650419687482,-0.20082039465887255,0.7949453739003354,0.48051927370703423,0.8414798739988796,0.6348181253666841,1.751699226433493,-0.00641728662779817,0.39612896670388875,0.6048765639683287,0.46004551649058545,-0.05263629975449609,-0.08826365836789264,0.35168135240207515,0.8017181035427555,2.2818154198688103,0.6548600067739624,0.13622716620646416,2.444814597004752,2.3237297716973244,2.2890782807376158,1.7956841963801138,0.9207736966489867,0.5227671597946539,-0.26256734339273347,0.16750286646653897,-0.08730746603882795,-0.5688056425548097,-0.09061444611198867,-0.6646176647488856,-0.9165913234971479,-0.48160238048883375,-0.2955007304762645,0.7747676146404372,0.6791609148269947,1.1023033785536824,-0.32858100231395315,0.45730286892972727,-0.5253838745717013,-0.9083156557961791,-0.7315503170858189,-0.3867716423960419,-0.9088174633047502,-2.4282622772537317,-2.439754893551942,-3.5062826574413277,-0.15889943109453092,1.2427957239568108,1.1100610724947668,-0.537077299637586,-0.6872190458343435,-0.4011226314661961,0.11783758654298825,-0.3070317994718315,-1.4508752285815945,-0.6512597393047881,-0.8740276710981367,-0.8871419728771064,0.5574623741268783,0.700529690265435,0.765605566900343,0.7714175512859772,1.1844752739707416,-0.05310056137176227,0.08126296899686432,-1.5237082994665263,-0.279717048115629,-0.3692170275168855,-1.7201133216094129,-2.0651149586466766,-3.017209015478365,-4.539720569606658,-5.088486133637974,-4.011436541780494,-1.0319610347926205,0.5051726996281786,0.5511808086164964,0.043110520598813935,-0.08953922788447138,0.643688061970852,0.33439271487677796,-0.2345791868379461,-1.2801693696431693,0.12429770787243345,-0.7970354037121069,-0.12790981290292924,0.032925114245522205,-0.1563642084427883,-0.6069623533982362,0.7985293783870026,0.5558224967712446,0.8879332514324587,-0.5651079287784414,-1.352000244913826,-0.7211132318846546,-2.1522489430953113,-0.6916963025661508,-1.7179727576036188,-2.359708956367271,-4.544656821348622,-3.5150865971682697,-1.835183056223644,0.17518162362843184,0.3743378656877354,0.6277756310140601,-0.5224615359093564,0.6657428181501451,1.4169291933999053,1.1032798080990778,0.40031865129346894,-0.2242348130473262,-0.20471812892385843,0.13031076678391754,0.5504584646896106,0.26558424151884275,0.390759479548415,-0.4227057406210842,-0.05591067359065032,0.21369923525347861,-0.4215174977628182,0.43765090715808425,-1.0109831234789706,-0.6251201993185534,-1.69327142344075,-1.5464060675177143,-2.7727116063186603,-2.9978892454457977,-2.6785327248229946,-3.3666442518067345,-0.3001090350777813,0.2791490086447601,1.7907665479397503,0.7908273943172933,2.0211261257353623,2.315990994237919,1.3283635266182723,0.8531892725477732,-0.19930959453791164,0.7266901601053665,-1.0608172810786984,0.7720820174363527,-0.12642245028682125,-0.09024527660144699,-0.8134633534268113,0.8098107774706876,0.7501024889758132,-0.31693999217273183,-0.5716481370412646,0.40557793060976055,-0.2772127532880427,-0.6247919466299237,-1.639914972931879,-2.575565833426407,-2.240269215097921,-2.2668595081957843,-2.1090325074349767,-0.8452978983856029,0.23681149605778495,1.0955044756098808,0.7739089785178404,2.0122671362966846,1.1771655040626847,1.6439425169301716,0.15892136760545575,0.07586951431017049,0.39401646980988964,-0.771072153617875,-0.5415769556414092,-0.7053642707854352,0.09000884871074917,0.02551655507578435,-0.7667368404166628,0.7513552898931752,-0.21979200917587874,-0.9447713481427127,0.4238611467597358,-1.37560794472971,-1.363637463594924,-1.3306485511065624,-2.0642791008503396,-2.4977860209980767,-1.7022750183620303,-1.531389666673361,-2.198824044522377,0.16456239198453732,1.640000078115311,1.8899229911743465,-0.06321467587038695,0.5315614394371597,1.5751454665188502,1.134460076723489,-0.13044019614993987,-0.5264210711672286,-0.09046833207357946,0.39067016898789936,-0.10936929651503516,-0.09442605404394921,-0.10678802358259928,-0.459039934248228,-0.4629802809390715,0.21606151086048533,0.558214108158646,-0.9303513929975386,0.5046108770523541,-1.3424049236274362,-0.7571047386956478,-0.44470667718000284,-0.9635349719760404,-1.457152627352004,-1.8974204096304097,-1.1630116129981385,-0.9328161475243418,1.337553774155955,1.9512558370695678,0.4686623485971381,0.6286913717204503,0.6955093491763243,0.7632918852112627,-1.2535421961926358,-2.6115853933303264,-1.504997725765028,-1.6233248987250037,-0.8082394164231771,-0.9235261655023643,0.04499737194482006,0.012421358125611395,0.13923941037660148,-0.3994977133329853,0.10366337739966223,-0.40828927087961936,-0.454725223140939,0.004645417287323523,-0.3089652097532443,-2.2103715403100974,-1.5191661024098921,-1.1549002775613983,-1.4641046470861967,-0.9432134793899225,-1.0869471916729405,-0.46558656239736124,2.104852658584856,1.0593357695402827,0.9084830426796314,-0.7277871085287813,-0.8339864389181859,-1.6052128272417372,-1.1573855762499703,-1.6454355906295872,-1.3955160640640072,-0.6363268085286206,-1.736294918775098,0.11786928229493457,-0.398318807421485,-0.8158782950478218,-0.11211190918062042,0.4355484595577017,0.22166282715268623,0.8883751179333976,-0.8689342913845338,-0.22852018906316368,-1.633991829670627,-1.356566365573379,-2.5794491726259556,-2.034211767350484,-1.7294469758745317,-0.5340007102050355,-1.147210781549885,1.243848738756229,0.8530248658533318,0.09051293960017627,0.564069000660838,-1.0059520610438393,-0.3206963438289327,-1.147412274148038,-1.5345881828655163,-2.334492073518721,-1.253094657808163,-1.238756947454892,-0.15960747629254865,-0.6202138901544384,-0.8038838198056637,0.9007121340678764,0.12255360514510548,0.077144294387989,0.552126276962945,-0.8816656922725922,-0.32232204856944296,-0.6640744994138096,-1.628706375927612,-0.4421519973412925,-1.0107267280780365,-1.4017625334240127,-0.4846046051289182,-0.6869359788757088,-0.7240536274621395,0.538641509806202,-0.6441596633308547,-1.094357089776082,-0.10612443513430994,-1.5375599583935635,-0.31157512054026276,-1.4633256786563185,-0.8410138402830479,-0.9407597566057281,-1.5155850023000224,-0.741447246548928,-1.4334012226145043,0.2541674545387768,-0.43882976883071156,0.027429268081645496,-0.2601389952666253,0.8228373015271931,-0.2792831138237476,-0.3053757083007708,-0.7573555025585073,-0.9367879460095832,-0.25494775110415,-1.2517413198460443,-1.8866346410519026,-1.1452671828597882,-0.150157611111316,-0.6758510487072853,-0.745100989398556,-0.17062282308668644,0.37590792979042376,-0.15873268444542774,-0.732717203634245,-0.4946536990882214,-1.4759301785030143,-1.6192908132940544,-1.4404254536774828,-1.4931151021801812,-0.5777385144945371,-0.19946917979814593,-0.6208949214778793,-0.18368131544880725,0.5932743824581718,0.28952485062574956,-0.8657821144363076,-0.5841909613179141,-0.1864879141204654,-0.6998540074790847,-0.6565760875536623,0.8384739857704769,0.9347795056536481,-0.76878615990872,1.0602467073855866,0.8676620781977893,-0.1863233043889692,0.5354111357544719,-0.34195047939912815,-0.5724304624417568,0.6460768312956394,-0.22280615506561044,-0.5588734728512957,-0.36891879253650756,0.8053986812293502,-0.9383306106931003,-1.2484360238728713,-1.0682865593726283,-0.15941507082220815,0.14137647396309067,-1.0182245871139008,-0.5495343717085633,-0.6700609235808384,0.43717044742604894,0.5309368344678915,-0.5582078241417472,-0.23523144487617587,-0.748815891535899,-0.7140859433367336,0.08477218175999264,0.9048474908970908,1.0203843321218662,0.9936565098021425,0.5943971840033789,1.660002030044553,0.8650343629179257,1.2411184236282704,0.24537214424850828,1.0259181537052442,1.3735402414969837,1.2607392463860068,1.908803422325202,0.14183907010948293,-0.16099969315936544,-0.391398756014377,0.34802265423685524,-1.3720404865079454,-1.2306449279113814,-0.24632949821166392,0.7367361136708355,-0.761108427548068,0.6548538395411738,0.42313521403802024,0.29151102298874565,-0.11433217647046812,-0.7753378851820683,1.002121778152587,-0.05151930007904171,1.0372019601245948,1.016004039768918,0.8052822159483053,1.1025445786929724,0.8188571874485886,0.8189836320164413,2.0112727016271736,0.5885871240808161,0.8045341075437921,0.938672361038331,1.9259078758691144,2.246779610662325,1.648854928927891,0.006534585827705455,0.24983706959846624,0.2695119563136907,0.3996844799538016,0.3672549458328268,0.0079015027250941,-0.6833728264896737,0.8189132394391736,-0.5298291604868093,-0.7875518090404541,0.286240266344741,-0.8964990492181384,0.02588827256597015,-0.5962678054129813,-0.2179359197107077,0.07355237829223506,0.21751346031150165,0.19080364234966274,-0.4660374665986669,1.0202790660546557,0.2469381930585542,0.8773289194661491,-0.5122603037157349,1.171714149125711,1.361801162983708,0.7942980534394984,0.6622870505106276,0.2536083066202794,1.413523017282043,0.1684628432525552,0.13921669786168217,0.04740897527421525,-0.4308221338185872,0.16314547383858563,-0.25369386645146197,0.03446077577860018,-0.9560578670872488,0.9836702688775361,0.7222806378472475,-0.88613497494566,0.2446040477390259,0.7894915716203867,0.9717031263062448,-0.29740113692636005,-0.13523138060986178,-0.5622606794676742,0.019310947871725086,-0.27354366597995694,0.584407554549162,0.024778674496536403,-0.28481504906059485,-0.4055156815750238,1.3916393253262693,-0.5511940647114635,0.1889710551567414,0.9720149682953151,0.4059695126189123,-0.39864459894897597,1.0039283287638219,0.932605660074833,-0.6159836042157368,0.7984717309268377,0.06421280491691506,0.6789329252795704,-0.7121569104874912,0.6110179093682724,
6:-25.595652717148145:-0.021871714182149615,-0.03727634254666268,-0.19888195185696933,-0.3931417281381968,-0.21518548584471509,-0.2819026413702215,0.110406678718306,-0.5355603332699448,-0.37961792784372217,0.6236611337632791,-0.7901959452868583,-0.3706646591834064,-0.7668124054527332,0.8161248770288304,0.023142169231059058,-0.4288186549517368,-0.8325459903209331,-0.4876395634654431,-0.5422150207785195,-0.5848004015047898,0.11548855173666128,0.44281181763681854,0.4988237068011132,-0.6519933005441267,0.7734020392078502,0.32114896130348924,0.5301573283497709,-0.32847306533025344,0.8935656400239596,-0.2852488935922388,-0.11162209486060792,-0.7170986072282799,-0.3816391459403914,0.8985662859778775,-0.17077000988196944,0.6112295088950733,0.6734903786736094,-0.8942166827706524,-0.5973995491173407,0.9630694628193183,-0.6576765566431614,-0.35783134722989884,-0.5750024419652774,0.7540682097102729,-0.22247312923893878,0.924717943159552,0.10305266140691267,0.921088184321377,0.12476794022830885,0.4387289662983755,0.4805850491393585,0.8227583265524259,0.8179100741701224,-0.016074111467065277,-0.9807405664814377,0.5235174161618956,0.611745437866789,-0.8904946238845333,0.18549840976883838,-0.078129754730945,0.33353907840690095,0.8381570837163635,-0.7953093065120025,-0.8828832925027454,0.44241092972516066,0.7586875036858531,-0.46353921943598153,0.0013341065335671766,1.0115146949499738,0.9970133200050189,1.0914421672736514,1.1051169381513453,0.5671451178590887,-0.27218390758434774,0.9654785187029103,-0.22651160752444705,-0.5339637819802935,-0.3837046833445724,-0.3647907454821755,-0.02444624680058587,0.5020721953630337,0.7535061436237354,-0.47028719808096286,-0.6852491342651696,-0.9767741515292296,0.069130604294525,0.14787807542067016,-0.06771274990306275,-0.27950813708110506,0.6170143076561606,-0.0292109751175206,0.733939213090782,-0.3233563108969536,0.31381261007234146,0.2974318786118796,0.5498316866481953,0.3983345507014558,0.24634506245975632,0.6758447924953794,0.3211520860768529,1.6433576410219943,1.2244502685414123,2.387942123852438,0.4651928232855134,1.8431744803109902,0.995614121703521,-0.14560128186011714,0.5553671730443428,0.9531249431574064,0.6218620045099205,0.7872979141349068,-0.7384277551936413,-0.9125584691823543,0.551852114664897,0.8387957906656133,-0.5446038876397671,0.798919422943969,-0.27279268290725717,0.9464516254593086,0.7662880479060931,-0.2764587974598986,-0.8691482098776264,-0.2034756689288075,-0.816618416757503,0.05265338440836468,0.17993119608024322,0.11977483214376403,0.22054864776203698,1.1326939347853724,0.4875332349542636,0.4905688749014644,2.055143653459437,1.870803869796581,0.7316010625851102,1.3180304729380492,0.9631499793934899,0.4703022448412085,-0.3221759809739867,0.7572973055203805,0.8029793792149619,0.02024383377133243,-0.027666676116531397,-0.17121674022039218,0.42510164333679035,-0.1884930395903369,0.2965739875622114,-0.9463941840666991,-1.0018816055823245,-0.7406357669201153,0.1472587030503904,-0.9018185065613084,-1.2100265896593334,-0.15954191550305022,-1.4210241940061223,-1.0812747851745816,-1.1506438582041845,-1.068060931898926,-0.36834753653905966,0.6246912846937771,0.05596242344978955,-0.331542065527378,0.8205393638135943,0.15485945531207698,-0.80416989622715,-0.5196589285421883,-0.1271561577267763,0.21589541932231415,-0.05949252401391486,0.7116223866221241,0.05370525824815431,-0.5999509544284832,0.8221148945359926,0.7057071322114645,0.483199923464346,-1.0156199854553776,-1.156137230788874,-0.13167945907671935,0.3248617964358097,-0.470333480957451,-1.1039447636799964,-0.049489267876491695,-1.045718590984156,-0.3745486998123339,-1.1957328896628008,-0.15080831664453914,-0.10199935666234473,-0.414068986474619,-0.5890261707957243,-1.4083956721517032,-0.8737337914494723,-1.1086149182146008,0.14276255171106303,0.4174984444067956,0.49481985237965875,0.7759553584094717,0.825296182987258,-0.04002855852415903,-0.22668239306298862,0.6922473891085487,-0.9186314777909405,0.8211890271159198,0.05943623253248882,-0.26292553958725595,0.5413368787344096,-1.1075065537999107,0.4260435554542765,-0.8892768519681465,0.20934894308807508,-0.1585969290332924,-0.8717720203607732,-1.3282839416071008,-0.1364954648308961,-0.5967739213611754,-0.722801089952902,-1.6058656434905785,-1.5755763129441471,-1.5134318212876101,-1.2063566790731157,-1.3140655134856294,-0.8141584967554123,-1.276466808892066,-0.6763417006827592,0.6739681036643945,-0.4902038940878627,-0.6231547870188574,-0.8400406747094142,0.8793477585870182,0.5692852350731568,-0.166222548516655,-0.8268057020017662,0.5861963871221559,-0.8762451425315693,-0.29852886949874086,0.1391632017378927,-0.7696892422373818,-1.1662854038433716,-0.04185373671250515,0.1148811113277428,-0.48697548758871423,-0.2263710725423388,-0.9416229536898858,-1.2930110908402035,-3.119893391535464,-2.0786543610955635,-0.9897314089450566,-2.4111015933383886,-0.3647724499096264,-1.075633879150149,-0.263764549171292,0.5742220052048989,-0.15886055584857842,0.0805145758081736,0.5212221192044678,0.7335179526192709,-0.5243429241615957,-0.7286599291252417,0.11394108981661517,-0.8870493826541553,0.5735551819272774,-0.8948285072023109,0.565193312420979,0.41698319621172864,-0.3551645150167924,0.31076642355411555,-0.38087362392866414,-0.5588706275400658,-0.445709260272112,-1.9695790348312974,-1.3429668220224764,-1.56567492424775,-2.8270736189358163,-1.2724406776054678,-2.455733455318653,-0.9842728941830442,-1.8452520218021122,-1.416280210118342,-1.333592188190719,0.47996100552111637,-0.09552543806858177,0.10877122567506224,-0.03512230775680333,-0.6512769723155446,-0.4848709914527019,0.9302969819521613,6.519722933926435E-4,-0.6428292189678471,-0.7351024521073783,0.3039344307744192,0.36039152261721813,-0.7110847426745337,-0.5000696116423359,0.6523248066762533,0.5220232184252557,-0.16958951144344103,-0.33649956841546796,-1.263368120805643,-2.565400217554322,-1.6309567317073017,-1.1197570568612516,-0.24822617079832598,-0.32821245303437857,-1.4348342252820385,0.4340037571687905,-1.209918008715987,-1.000992356851233,-0.7705882517012943,-0.8280701641234504,0.5055920825335832,0.5705432549580237,-0.8871956906056699,0.8200383929255805,0.7703041186131663,0.848548635723415,0.05150335891465236,1.0019464250105463,0.016030782572169163,0.028819807277575205,0.27549794609054584,0.2510520899165883,-0.3765127577842421,0.06791694216005353,0.5345768777788638,-0.2902656433462629,-1.2990299624398705,-0.7483670646875289,0.05598530421184646,-0.22951871321045259,-1.0488570934655075,0.16078105167375908,-0.30550454920522035,-0.404464521539784,1.0978640694528123,-0.857916099003904,0.07404116774268406,-0.6408343609223232,0.3620200123545598,0.282105486358331,-0.1073137246505104,-0.7475952516995858,0.15692158364150405,0.05140495662647736,-0.9350085026818948,-0.23421083870872933,1.3765380874680455,-0.49248065725993645,0.03587020446998292,0.4761874651810213,0.7525031289391327,1.0754168636961492,1.1757961766816791,0.07753518037284358,-0.4659263100309488,-0.015120297666113378,-0.573280042488646,0.3099326210325244,0.2578521231659131,-0.5693830754401584,1.221343234403092,1.1345258919215293,0.0902626176832304,-0.4409893753629263,0.29877797962115,0.2141913115131749,-0.720614409066759,-0.818819150687152,-0.2895245799587334,0.3104373041550768,0.07310396426956778,-1.017889637971326,-0.6907987180258925,0.6179372437803554,1.04136484462795,0.6613332352689029,0.47691285982475445,0.5670684189233868,1.504924980259467,0.9160090734333377,-0.450841704068372,-0.25744518410307365,-0.09750085209763058,0.7194571010771861,0.2552932066148508,-0.01643821676065092,-0.23121931399222267,0.7300367257825588,0.7314886503746703,1.1413673312447898,1.3184434473530027,0.6813168196770947,0.36062253718060905,0.6434356103242419,-0.49726758500193924,-0.5430242998479322,-0.9532814508907894,0.8023112003309405,0.8409274558721761,0.7355306225550442,-0.8774377996310395,0.3055770646265937,0.29721942126644046,0.5739491426402641,0.702929884348284,1.5736606683406553,0.5265940721903953,0.7288038213768268,0.13350925525766585,-0.42006097761012307,1.2838973413953445,1.0120621416053046,0.09443845377972884,-0.48211025044017985,-0.18781532068491585,-0.30487602441359357,1.2619171969746907,0.9319734435085477,1.2636559461533985,-0.2178460477228439,-0.3156926149450222,-0.3587297402540318,-0.4824316635838837,-0.7335758015155307,0.7289055002721568,-0.30475213159813413,-0.3565266096234744,0.02249359423676706,-0.266910308907244,-0.17532207100949806,0.7290201874680045,0.8643346188408643,1.4019747419798467,0.4555345793263105,1.940133601192413,-0.16178419152749515,0.012314669150373663,0.49570963218513714,0.4259699294000106,0.7606131932534129,0.2712042066934502,-0.8928471646106948,0.45102888778518674,0.6020211927653277,0.989892829862404,-0.12041393090027656,1.1735993709822887,-0.12485333635334761,-1.0236795722251493,0.2124603693435584,0.4341910007825956,0.22916599302374907,0.6790528879443486,-0.3463503326962894,0.30375623656707823,-0.8086816384118503,0.05062579497487616,-0.3735784360380091,-0.3068830607015184,1.1262184826879842,0.15777787780335895,0.5850227946925469,2.1098029405428496,-0.2187967612251838,0.015461326393882006,1.0211232385607998,0.41116970761677085,-0.0369976318963401,-0.025870970006928812,-0.016659588673727743,-0.2775455994023356,0.002527687920620065,0.16000587552417395,0.803780180347586,0.991021544838686,0.04251437520809126,0.2557420172129327,-0.5614832231551646,0.31279327760620607,-0.4929816333576389,0.3264361932943073,0.8059357917331162,0.5840540332543552,0.1472778027730249,-0.5938644982898703,-0.6002412813746414,-0.4270989855557021,1.2961026930015023,0.24832711913058012,1.1715602743603168,1.4580979640903942,1.272728522937047,-0.6216271059485644,1.004724292047136,-1.0861405482006905,-0.22263464719137246,-0.3717994677101763,1.3901064332257997,-0.11658703628448809,0.12078163039447352,0.7513856258481176,-0.04873115892448936,-0.6789905868387549,0.4692963917109401,-0.8931269249714673,-0.15444597537243898,0.30357260963495647,-0.9398401585350393,0.9630774366589453,-0.30130574770261037,-0.3435637500794245,0.004894266043558236,-0.06777317828631998,-0.9792458872136478,0.5064630044181722,0.23400531449980083,0.5339265741275102,2.0601090202522516,1.0315958011807393,1.3207724538844154,0.8159232028709692,-0.5024742563801773,-0.3896479330233347,0.1806580502318575,0.9055115105897067,0.9850954695133041,0.1050588824246953,0.8143657361623737,-0.7583047934192707,0.47789731859297235,0.7025362099456517,-1.285061272018566,-0.7488456198953668,-0.1592132639703389,0.7897761056128232,0.7523301178748879,-0.2726394024894146,-0.7420568444199185,-0.8561916184902914,-0.6744337988721728,-0.20178336763221402,-1.6770123083804267,0.008892373185280428,-0.43277224473232734,0.30869475500904126,1.5145711821714527,1.6341487394515872,1.3489248143248018,1.324282832059271,0.880413985087611,1.2334505942997163,1.7040295341591853,0.028651682386925403,0.6862458480494238,1.1532352241001373,-0.4106425356291105,0.19135332391852813,0.03576110823230498,-1.2007801090373065,-0.9445837109726059,0.7434630114152504,-0.05255587477454506,0.05131645835171414,0.4949269164087482,0.24698186409162382,-0.12434812568091165,-0.0703369737510256,-0.3771621997687426,-0.3286212880864086,-0.6149597440384694,-0.08479662960034455,-0.9153809324891917,0.9699088037607273,0.4753779513147291,2.2924595325014154,1.2236795874543656,2.503585680484706,0.841381678703211,1.6667028849483316,0.8613869788769981,1.4093870653427059,-0.03912240795030603,-0.5257485488202213,-0.29057890312134815,-0.9893840172260991,-1.0557923330659453,-1.084559610411118,-0.6026612039731946,0.5388267005982675,-0.6369563580954765,0.05583074160205792,-0.42504192776673344,0.2556259238517967,-0.5228052695105924,0.02408602431802698,-0.8633674693638701,0.07753876058782687,-1.2387427879256425,-1.4791522136759858,-0.48446241640355486,-1.2445096673722897,-0.3205563594195441,1.3067027581615878,1.0561187655674285,1.7501806603309584,2.762387666169525,0.9350368982665029,1.635377001431367,0.7937039183587025,0.962196719324103,-0.37752109863716793,-0.6262165855048837,0.004437310327561979,-0.627778096234514,0.6161747937079441,-0.5359741535297872,0.2803237107594201,-0.6350494920036994,0.6125886893342911,0.7043847661405452,-0.28153654139184137,-0.4021675620093719,-0.7370000978847467,0.3759689748567703,0.3449045495375057,-0.07571141465484262,-1.1226548768312798,-0.4639415087679423,-0.5303312608843592,-0.6034230934895052,-0.33556991591172386,-0.15067484871515766,0.16937327855034767,-0.36586542920321263,-0.1418932302068677,0.13255487789938858,-0.1621777998084226,-1.066237740571289,-0.9703963729107993,-0.6319967735662351,0.2122122385160741,-0.2774154550924317,-0.9830765215754234,-0.2367676864867238,0.1481804817045749,-0.4175250422181677,0.642793784682449,0.15847168463132277,0.159769127121131,-0.8914519710575363,-0.8290229535998622,-0.2426742240068885,-0.1279551588922346,0.0017908836262932892,0.6450003061209172,-0.8551552049926338,-0.08615803415563521,-0.8619760800806929,-1.3775667115769172,-1.8898847465976851,-0.19818840844016747,-1.3669659861372636,-1.5885165121677656,-0.5043022308223883,-0.4578322380347866,0.38183894359357123,-0.12372160467986745,0.5699684762583133,-0.12617214097619267,0.06467336817152528,-0.43814903530922716,-0.2506073660316976,0.2235801616472622,-0.27724422370377416,-0.06000166656589223,-0.3616638782162851,0.9816600353792673,-0.7198297429125347,-0.428357083013419,0.6361971976589083,0.21311711936505776,-0.5923037213413842,0.8124243884699982,-0.8967830878935907,-1.3179525378757464,0.17288529671313319,-0.8321337178128798,-0.4026255153395187,-0.1856191023263989,-0.3284047918911374,-0.03001287297897639,-1.431492804261438,0.33229124612677424,0.08033759552795249,-0.24675663913361193,0.47810744503885655,0.022124673306186525,-0.3387844741877508,-0.3108217208341362,0.7648599131841515,0.7423211379427499,0.39326285629050395,0.3574041644207484,0.19796761870972035,-0.40383924037851004,-0.6390416616000002,-0.5625503305597439,-0.01127063175897714,-0.9179105872304315,-0.23508057998767037,-0.7601866934391147,-0.10394100156396845,-0.12247277465599504,0.767176656478103,-0.7797735847522895,-0.03460808619704411,-1.0524246105364015,0.8638340160419468,-0.44231001346419435,-0.8617029350146886,0.2704686195619339,0.004995152886073472,-0.9650483165757111,0.2765407424323551,-0.056249289096104514,-0.472779833639479,0.6280056370741789,-0.3813825287135251,-0.6190699068695777,0.20149686281392776,-0.28300063716367063,-0.2814330693523164,-0.8364983409452167,0.76672216439101,0.1719671381932479,-0.3847275552101196,-0.5762066945764336,0.34394604639505316,0.627234192885642,0.8840024284276722,-0.25939266992910903,-0.5258263272573652,0.5240613535085444,-0.6723762991494229,-0.7738629132206283,-0.7898451807731786,-0.46625052181921156,0.6264067734923012,0.8789450417222324,0.7123713997632388,0.2796311782022156,0.13263726545006665,-0.5775921944623466,0.7664490554381063,0.8378331776232059,-0.16629706461832128,-0.9383341803616173,-0.32550463554809483,-0.8514323904998655,0.9931314339469339,0.6377616168924263,0.3438659489633684,0.25553016847164356,0.8731089707491909,-0.022739081588654293,0.7461374491387303,-0.9936312124848407,0.23549751867669405,0.8471798151376306,-0.5937704694659147,-0.40264191816181244,0.06944363994962352,-0.9177732093044124,0.3576302732589098,-0.2506679998979021,0.42006770380632347,0.16697020431144835,0.32990218872707644,-0.9266175335063387,-0.5779684220013559,0.33182078124578807,-0.5252450091207079,-0.2052639008582651,-0.4560819558682878,-0.33563149206443077,-0.8204413997650657,0.8751103063474723,
