3:-20.178389172342044:0.8203557739400551,0.05225181977651827,-0.9696189772071309,0.4706530283241095,0.8270385007075671,0.20904192916906217,0.7007350516830932,0.9195594122845767,-0.4290061848644138,-0.3897285730298148,-0.37486124974634105,-0.7809211563075333,-0.7630521252834981,0.9930385075406347,-0.5058958868591363,9.970752810595229E-5,-0.20001432690189347,0.44352903979148794,-0.17184882142516766,0.5954235212150127,-0.4668854308413093,0.4291452483791751,-0.023752035428244556,-0.7430388098376248,-0.7902695239822648,-0.2544159875472447,-0.5455532929695861,-0.003106866127403629,-0.829030854882455,0.38332024150952937,0.4988016229451926,0.48791364572702833,0.8517539876191826,0.8199037149217157,-0.588269945351116,0.4908820748181095,-0.15432055315948068,0.3089316245322705,0.048558028622328046,-0.12609394420882547,0.13769688261899474,-0.6364886976522849,-0.3789308260002545,-0.5549130240071243,0.7448991307331161,-0.17851826729928244,-0.1125461136592818,0.5418584853423347,0.6795264327218486,-0.3683854989364346,-0.24686639589048376,0.6030545824386877,-0.11535399115343425,0.8144689657724284,0.32451394147288437,-0.20445545691738465,0.5917846684976686,-0.07147135135036597,0.537797291400248,0.17547709730458827,-0.5888772533354547,0.811699948286944,0.6275653533486268,-0.16512235754755458,-0.6113150433722057,-0.6297939363942017,-0.09508203234624857,0.01754707659738809,-0.7487073005663394,-0.24863581391906353,0.5825353832135475,-0.7160874144418796,0.10886984686164639,0.3636843376348097,0.7141061382598544,-0.5373157236281046,-0.004977330364726355,0.8971842530182553,0.708144427179525,-0.6521243205442406,-0.1993577320507547,-0.2512339869363114,-0.6687047068744945,-0.11705300511469252,0.39160602260796873,-0.9280467624648672,0.633807071394062,0.9195357538277731,4.8330256017288574E-4,0.0472413037836242,0.8099250346038204,0.5464403292853338,-0.6563738655510631,-0.09494324851426439,-0.3607527059142371,-0.5471304582357422,-0.6619464193931165,0.7646808071603545,0.9334949506391367,0.8412121570979104,0.7797860361762149,0.3152993037390376,-0.07121835860152109,0.9408415104786375,0.8977909723203802,0.19213835915647198,-0.1152691526302093,0.4417090310552117,0.2936744963128102,0.846340875272518,-0.5473280223996189,0.7681051995367612,-0.5219710020457564,0.6469635574780475,0.7768381768403393,-0.5291838874690733,0.9229606410183416,-0.8199530216681917,0.10972616712350801,-0.15573366858103965,0.37983294139005774,0.6194819746310739,0.8532303327504018,-0.7301984125821958,-0.027044417972850416,0.3963198182744861,-0.9994336351193592,0.7059878895907068,-0.22422377247497224,-0.3390334669541717,-0.5127853309553064,0.7249532518462962,-0.8161116492710462,0.22991526990079889,-0.4957356596583108,-0.7750312461936751,-0.4055462450522606,0.8474666443960547,0.0685712088608621,0.018193513594391364,-0.6453721966308206,0.0622438393340586,0.9322986609721762,-0.9962904389404791,-0.5151448942233638,0.92869597476531,0.4295319406065695,-0.6485648650948909,0.3173134896253705,0.616353200145311,0.5171407923374957,-0.16176483698624625,0.1105087159047456,0.689687869845002,0.19616192095450527,-0.05489239104882677,-0.7239411013254411,0.961924178841816,-0.14863344329460557,0.5157216787675989,-0.33852351353715276,0.8072744306564444,-0.6183832767108224,-0.42807499466420756,-0.5159919715421527,0.629650497867198,-0.7000250337668086,0.3418706453631124,-0.22000696105854,-0.7369176832333115,-0.49789487891771134,0.5932444898464568,-0.3238792064503912,-0.7088792496934861,-0.807807932333955,-0.5725819687427293,0.8778815619703753,0.4499265336619004,-0.959625620789635,-1.04054993698024,0.3525005605093331,-0.4502984402960479,-0.6085337828200993,0.010400656409470613,0.24688836716967077,0.8766500399878118,-0.6103426619482857,0.5625212441820211,-1.0329891996983944,-0.8372107244109086,-0.7952074156774146,0.7811665679938589,0.00208599165878601,-0.27069375837417703,-0.10969566369238992,0.1034739928190529,0.7208847511739434,0.5093130541382255,-0.8358349559917473,0.05883209930764225,0.8412692458337664,0.32915821402547973,-0.4178265516954859,0.1443440194998034,-0.6270775217644399,0.6207280973438981,-0.2799413482963624,0.5500664396865675,-1.0031577783182306,0.12744509798174647,-0.4828344848777945,0.28866933064078837,-1.1047123840131627,-0.7214229726931097,-0.4248150769339883,-0.9200515577973709,0.14190608974350793,0.27430829013819497,-0.7675579944761639,-0.019683205015178902,-0.3585512803989356,0.753686925327078,0.6315598368195616,0.611782845113684,0.5305918066225426,0.32824702719157434,-0.9405934685862237,-0.9671838358440136,0.207661113280551,0.1867562209674661,0.5961269980164376,-0.05515586640763402,-0.28081237976344986,0.32196977728213,-0.9505904714417495,-0.5700820648200646,-0.21504265346272944,-0.5671087709901532,-0.8031865692829111,0.40316721140637934,-0.8553575459277866,0.25173557450935213,-0.9098534766042937,0.7588389056211687,-0.5939988611007491,0.4803022053980611,0.6449747860924125,-0.46677351031713277,-0.8650787985535001,0.49844722103537936,0.29267588361514163,-0.18975825617117237,0.0199173365684371,-0.6846161184587767,-0.6868748365712772,0.9559589810441633,0.9360580725091365,0.6824399003313616,-0.6109107888261361,0.6716589135406279,0.11602940385427368,-0.8838652771387449,0.8993482686264339,0.0838105701419343,-0.4441456281618892,-0.6998993005223447,-0.5554262082708477,-0.006367295140282341,0.7008005314468392,-0.26545855607485036,-0.7021913443791711,-0.9321987305810365,-0.17712805789612274,0.09409640107393434,0.24130108334692385,-0.403942248415632,-0.9465951936309015,-0.724343223243946,0.4001268012773707,-0.783759726259219,-0.7379628688873499,-0.2923526238909931,-0.6675436632385909,0.4867272038814664,-0.40426306415908503,0.8855185796364126,-0.16471034853716623,-0.4171009083719621,0.327671744171449,-0.7103301634505265,-0.02234434583906271,-0.5666215341882693,-0.44624010568972095,0.9357973346587269,0.4544883584137716,0.2435135781421693,-0.320184940310783,0.8723065979289176,-0.6666868385108458,0.30130077936510524,-0.017143022380512705,-0.3478626649330767,0.21313855114052466,0.564397778991047,0.9818791345605193,-0.41596052111127124,-0.949101907819737,0.11524652082199385,0.5838075899650106,-0.15665875054831446,-0.7855874902583827,0.5313466357850718,0.6392476084102783,-0.34622790207008913,-0.7068975986460837,-0.40129380128445635,0.7421945560861134,0.395441538349429,0.2026013467297728,-0.8954301928212681,0.4137804788172784,0.6467963712111866,-0.5039383761157052,-0.30640336001818586,0.5209943747045662,-0.6918301779997249,-0.9096652355773086,0.06183951610912503,0.2893785504705438,0.05113241086878121,-0.6908318939050919,0.6861688021141682,-0.9733801248577911,-0.18233288520041033,0.20551683277221544,0.11129659320236229,-0.7550740297539544,0.7499762784264614,-0.0710460824973923,0.7595269345503465,0.5645886873651897,-0.17430927066929466,-0.14402020693569328,0.33535805395492263,0.4943016535862336,0.5603732070104543,-0.8925481148353961,-0.4893296086635737,-0.9711851777050727,0.02668813714979453,0.6365767561553649,0.1233821800577949,0.14611346646538675,-0.6231269371957215,-0.9505947505315264,0.308288994487289,0.48429926708099585,0.4757605443219897,0.8907116858457952,0.5891310635642971,0.8307645879094493,0.21073825271244215,-0.386088569653419,0.1685441107883575,0.7926758680273027,-0.8344297366250923,0.7091725054036546,-0.9330577240239578,0.9998102843464481,-0.5185702471284623,-0.7739791517942634,0.2843580421823329,-0.5603795702639713,-0.2322118480131086,-0.6949389122702953,0.7600015531867439,0.25565143518035244,-0.16065520817221113,0.6824528593983926,-0.29006733369977195,0.562778416330808,-0.8793675445017062,0.7801329363069286,-0.6179819596595609,-0.7611544417449321,-0.662178891192852,0.2608940541283832,0.8724329589456757,-0.8603332352461488,0.6588208239111382,-0.33054968633232173,-0.7507220419876484,-0.9961825588962998,-0.6990218873079277,-0.7142699997444985,0.9784518792303619,-0.06751335916526915,-0.8485583630563523,-0.2666011616581536,-0.6620939909645337,-0.584311906296571,-0.5115841094479952,-0.8086839269499524,0.15754815683769013,-0.931629207891717,-0.3303577539409609,-0.36132139943305663,-0.2776732655433218,0.5696862188893589,0.7230891304078678,-0.30932539662894765,0.5312668072388619,0.5197530519017001,0.4910562021981354,-0.8687195826280979,-0.735693800083219,0.24424688659135746,-0.5737747013811066,-0.9334132922044351,0.5620185567269957,0.6865104880621522,0.5902607910036946,0.24527604438354308,-0.5431176087940244,-0.2700290536293399,0.38124018370719703,-0.6035508917176414,0.2998416190124726,0.6854241242141995,0.12688440365045173,-0.18063336157307566,-0.6572627988287075,0.8330764306863265,-1.1135184790033605,0.21719525324045863,0.15520270381878512,-0.3039088013152805,-0.48070310570418595,-1.0273827527043473,-1.0281878042682624,-0.7035128369875489,0.5314122164024512,-0.8961118666289293,0.13362591024825296,0.3887636109702132,0.07140225790109898,-0.8448854561721718,0.2790071615998911,-0.5860128536718174,0.5530558277590717,0.8726478337729067,0.9903418647936357,-0.5423421172154318,0.5412897311586484,-0.4896961346266964,-0.09666450655836666,0.05321247744707154,0.49389967702142107,0.9389411596610652,-0.42108538189881817,0.2655854671501927,0.46006597985631625,0.16217778718029052,0.738822073098552,0.6379765102522043,0.0011057386009232072,0.6880638185785403,0.42249919687943954,0.14819103641659034,0.2694454383268189,0.4292450114422374,-0.6486013885010155,-0.6185733928234303,-0.8262747605942897,-0.6608803970861792,0.3656047349066443,-0.5019818901841655,0.7073647275666871,0.3542318885351484,-0.8232413005989665,-0.6986338726513688,-0.9116121865028188,-0.46478366421321166,-0.9649646713411326,-0.05644765736474876,-0.355449240351766,0.24626002497184865,-0.7969090152442156,-0.5421824067158322,0.4217944757476267,-0.9316480755336484,-0.8632697816097724,-0.3382910839495014,0.6734537815460302,0.47040782616831167,0.4532620299977148,0.9843574065672974,0.06606934022415935,-0.8320890042461081,-0.3413231444044836,0.27259026190395946,-0.37378556915123495,0.761286941288926,-0.11517871193850313,0.18404535214527784,-0.7768742179489645,-0.8250529833879203,0.30753794510692206,0.6362289868133855,-0.16462030931569488,-0.9058207701890786,-0.676107811379675,-0.11483734161765158,0.7213854582452904,-0.8763448838141942,0.7003778150898555,-0.1276584806350512,0.07682216364439133,-0.5851125399930349,0.2016614439209338,-0.31198270449530385,-1.1008975014405997,0.4968678036246506,0.5776447028677053,-0.02435236492193843,0.4921554056565732,-0.9777739048563506,-0.16471180181415426,0.9950975489313991,-0.5999303882764934,0.8433047884640924,-0.20160173485630078,0.16118188725539095,0.6963945810966369,0.9338839111553393,0.672929580187811,0.45841109475916425,0.02914209826267519,0.49110272530740184,0.10362962732612162,0.13536703138021078,-0.13705451266889274,0.36343852472638327,-0.0940166693915678,0.19613751422323358,0.682575360386081,-0.0016653661166486935,-0.8900632368579227,-0.899514698079886,-0.41749030718424773,-0.7981065315121052,-0.7299288428479842,-0.4235487661210504,0.13770239197547385,-0.040655049925275716,0.9070769245728906,0.3742435107254168,-0.2683981806145679,-0.9793236181842314,0.8815711616801163,0.02910716198550367,-0.9490934294820524,0.6337172017920136,0.46990671269154083,-0.49285335688416626,0.22548565285980257,0.8418747271689063,0.2022374190921436,-0.6970983110928841,0.5433467577251941,0.004799261769169225,-0.39555239303416123,0.4614084697973966,0.7585471331670155,-0.32927024865700366,-0.5730116526484932,0.8340236681023203,-0.5494428416461605,0.1692326605467012,-0.6352138451243644,-0.38930030617122713,-0.2058348042224244,-0.18003574989756665,0.6873690253891707,0.8485381098116804,-0.294764286845154,0.21530484317802687,0.9018411702656348,-0.6497845663546424,0.13825007805173326,-0.2334175567689521,0.28905800837924683,-0.5464817409228302,-0.9228620055767889,-0.5382954120631872,-0.3879944985595695,-0.41959566354677935,-0.043607994407335586,0.9825677256823095,-0.5758336126704336,-0.30497269100138596,0.4035497299603147,-0.8853408627364906,-0.7219589061015009,-0.4711634600956051,0.29035263888609103,0.5637322732672075,0.11829650029924606,0.2772065755586568,0.7978318189111322,-0.3244539704420246,-0.1914472848402724,-0.5014352111835894,0.13270766880855878,-0.7678227592760344,-0.31721044186976544,-0.6607981762297215,0.10983052378498039,-0.775811209107554,-0.8098064485206614,0.01872894908622257,0.21541257538012604,0.7662537812285857,-0.6233649315675225,-0.35405027754362906,0.4389339194470298,-0.056737362475969666,-0.9917136019280695,-0.280354388315673,0.21213381181533342,0.3285464551757608,0.1255470299030316,0.6967435308321488,0.3430935807297521,-0.7606799105047833,0.14678795324978217,0.13632707257411328,0.44762495651852263,0.7463266844258735,0.2780593615322433,-0.019912474993180315,0.505381513921034,0.34511184089661123,-0.9178304059457651,0.10359942878556438,0.07326071650848004,0.20251686029247012,0.3470763840481861,-0.19123489274688696,0.40738101969350143,0.20982030542769312,-0.5015248718408548,-0.1273329766131599,-0.4765192865584536,-0.6081757360625899,-0.8999682533236382,-0.5385648526778882,-0.9257694483927734,0.22454380278376856,0.17736036054706256,0.36579731903639645,0.45078463113851114,-0.6012049568721854,0.3756244486943142,-0.04354866379761704,-0.26422650210118925,0.15473874355737421,-0.6505319709882539,-0.05032721865354797,0.6193163649266157,-0.14316404978037406,-0.7407841156198534,0.6476087932152477,0.9227641143638827,0.851528941351811,-0.8501107258971039,-0.9880454691698767,-0.8879934852159868,0.41270824519815014,0.22151277987478593,0.45745945648164354,0.885451314443048,-0.7523813860862058,-0.8785245204066577,-0.7645900510402354,-0.7470362745249226,0.7192792051830779,-0.6732594982965021,0.08289716943967779,0.6466297556477374,-0.9960431653062001,-0.8427569504391668,-0.990765773035191,-0.1545719429199628,0.6073192054787808,-0.8197466586102209,0.4810027457212732,-0.7831793615087741,-0.6291438152180617,0.8893123510225454,0.5878890160284362,0.5476316092601567,0.43789651555628134,-0.5002495296544878,-0.09132199242821747,-0.5666982994269127,0.7144258130275414,-0.5578329166108588,-0.14725495379748638,-0.09980517788913391,-0.05740027243127559,0.2004116195590037,0.3250662906865441,0.041293045278206784,-0.9468880643516623,-0.35070916484958264,0.0830084675509514,-0.7290353613996647,0.10158719723402437,-0.8369659499857861,0.15220599442858443,-0.08286811717056401,-0.48301081709622073,0.5487295615875082,0.904972598263809,-0.31900207700810257,-0.09328477267080726,-0.7951351111305458,0.7038082425584951,0.8747260179569392,-0.7561704376191365,0.8127950578947476,0.37361240297567333,-0.7156813589093909,-0.09535614485860475,0.34044788947609544,-0.809769111979565,0.008141649903499231,-0.2710668919168704,0.1699765480204949,0.5591990380117717,-0.314313165873935,-0.9562966581508539,0.7573247334242093,-0.892592380589862,0.15812831074224945,-0.5790686918538102,0.389619512700926,-0.4782708748256498,-0.2083082215251356,-0.1675487540619891,0.3270964453429279,-0.8575097852090563,-0.5531909352002211,-0.17979434491916724,-0.10057344269548518,-0.9440208989364665,0.390480211676564,-0.6823320711596965,0.9720430496081733,0.22902559253529864,-0.6737775807582462,0.8383174098324577,0.6062562140821584,0.09000928827863337,-0.84456441448252,-0.1103746033029246,0.707651299167485,0.8844817431751593,-0.9140318297063919,-0.3239093271129012,-0.009532413684090992,0.119917470093482,0.2681201713256415,0.4224398063524958,0.6813589206563848,-0.5370645964613678,-0.7347265346054683,-0.021813962264326525,0.044140143242351604,-0.43633813836409985,-0.6442078368778905,0.7573190927668803,-0.9721732460528254,
2:-75.36615929701492:-0.896356436241339,-0.803874637341464,-0.811442651246548,0.40427527230648486,0.8992689565412799,0.10134739629747891,0.36621947333258253,-0.9228420266128365,0.09952851194815038,-0.41288966424465423,0.5657377772123084,0.1348258214045157,-0.12059038349806663,-0.4682996786637603,-0.8104318910883748,-0.10112739078176632,-0.7192039155161467,-0.0840469964102204,-0.5223412175906177,0.6201964682086418,-0.8277919508561502,0.9059439029733296,-0.7479035283847009,0.3346709533577261,-0.01301353843444919,0.4897120213294519,-0.8395588474308666,0.726737108866325,0.5715262229206057,0.39268689882959373,-0.3356055868056631,-0.695311028248577,-0.3041360808958673,-0.8085159692258399,-0.5961534066248158,0.7356633368136951,0.7481819195373813,0.7364934303721613,-0.6496019072055161,-0.007369096885520742,-0.011188065132512104,-0.12731623616258492,-1.3187249466657698,-1.1909533730333786,0.14652731107091663,-0.7645849117475721,0.39894291701002416,0.35464410581414063,0.9095100834400851,-0.5034875761272626,0.2172693717213127,0.2426875384990701,0.14639927298220345,0.8412010820961571,0.9135515826430276,0.08056629514341251,-0.44780267910260396,-0.44567756522835467,0.05355282559461694,0.24465500500556514,-0.9203438606780373,0.26551876783112505,0.4388582769927862,1.03285922518965,-0.5925334224490622,0.8144684549137039,0.33177001456206157,1.4273182085183862,1.366244377956996,-0.18639228342066036,-0.4746383229014022,-2.3805518562135006,-2.67074890568172,-2.5437736259531483,-1.074849521511501,-1.4177598857906537,-1.3448952870183064,-1.2433240372498655,-0.23383631627554555,-1.036923723265912,0.21960207960456318,-0.8525286069428062,0.34823586726659705,0.5118907138214648,-0.4357699001315236,0.31114636630454884,0.08017515688119194,-0.0902900059845209,-0.17139190055308182,0.5489693825481505,0.7331930058875101,0.4060515095155205,0.2850928216488219,0.9515296362766466,1.1156196275003016,1.6966400891743316,2.0250231943122845,1.9758333473409067,-0.2538141283322008,-1.4246787639637464,-1.9401294141197079,-1.8422488032318909,-3.455986420440302,-1.5430040645169691,-2.2006360669844183,-1.3406640182322238,-2.102910739548383,0.0426433196271521,-0.7144381180133811,0.20073402755531777,0.5404083819560673,-0.5800614162598232,0.8033380390928304,0.3211460504473225,-0.08217118762946152,0.34037685331541406,0.12039734342166748,0.21698713288201468,0.7039372968103684,0.9700209025513862,2.0349716296031435,4.604967934676286,3.5683533609146103,3.0039519822802423,5.139865827109711,2.690975578012903,2.446424948291663,2.295359409171853,2.426739856453108,0.3754196661107765,-0.36852593142575,-0.9300158141523454,-1.8059138489006779,-2.0320978037653674,-1.367090124928725,-1.2326821537616754,-1.2309050807930906,0.6796064093840002,0.990409867120975,-0.8128851552392801,-0.2631658103592931,0.1296802191697722,-0.6221481524082911,-0.39677714986481566,0.5570749845015108,0.4704169352582099,0.4567332382215921,2.6738492328140473,3.847700092938624,3.7128255338079192,4.180931847796646,2.7960536879879565,3.2454368407411978,4.466206552806496,4.89991558979201,3.6069027014735338,3.594117593859643,3.4484515724095064,1.2533959181584855,0.7230987589351422,-0.2066118555467261,-0.9737099562431949,-1.0135169278056015,-1.9066759252616716,-0.6929528668200143,-0.7097490568181329,-0.5793174114832005,-0.38176259541445345,0.2928498651756777,0.06167892312877865,0.24745438455505972,-0.8048049010626954,0.4666120300065151,0.296770373675063,2.998861001119262,2.135751402253093,2.329271672537583,0.2199106778750175,2.8767025501585746,3.3540934880040694,1.8291101333430195,1.5088488277021244,2.3820565393129347,2.674467394937316,1.7275613250851345,1.512021959259423,0.24811496455051962,-0.011502946549034032,0.3377785673943631,-0.15254651181875883,-0.07655240841351534,-1.7325286894453285,-0.32568474389929664,-0.0997883375293912,-0.3324075073421508,-0.6327955542927227,0.5876102720357792,0.0366207586383267,-0.16751826312608686,-0.078575812311737,0.6325968446892628,0.29904657643730154,3.1008445891267606,1.4995196859899682,0.023417211489023298,1.3310283659327617,1.1411525418941486,2.9353411618014253,1.253502826947596,1.5561908122167858,1.4139337667494907,0.6910094164530494,-0.6129271809917163,0.12010141483265956,-1.2296856681963357,-0.5319297892849075,0.011486253400052162,-1.2404161540235026,-0.7836620268784776,-0.5620592511992866,-0.9476017908519927,-0.4907516803088159,0.3013086258505447,-0.7636338668481811,0.22976907479429465,-0.7315969787261695,-0.15573693923416718,-0.20618961584655238,1.1415191998884302,1.686339956554925,1.140677953071977,1.2113435845912277,0.6535287781887781,1.02111000530304,2.5044607190727373,1.3580466335200623,0.32796284392875324,0.3155296984282461,2.2431282805926167,1.6331767480500774,0.5450503507293601,1.3103947035942518,-1.850147561190931,-0.5647080268874273,0.06750301879443911,0.40184006366163066,-0.5152918849669825,-1.9785402526081066,-0.44651354745661365,-0.1368366304858655,0.1090211543259894,0.9386640030345632,0.274006505949856,0.1113110543172219,-0.140672590535447,0.36800952782226243,0.7152885527692913,0.5128775089496901,-1.5681268127027983,-0.7865283203165919,-1.9098112238267078,-1.3171931675484432,-0.200324685264076,-0.800891121223944,-1.495434962411808,-0.3863885532217468,-0.43472186011703473,1.4120120155709492,1.089771409901718,2.990644696607114,-0.6033814947921469,-1.1430452082689009,-0.32935770290962935,-2.325303202503608,0.7211697049036635,-1.283160539520043,-1.0683811809465777,-0.8290448064108507,-0.9849886608742487,0.05565697318704896,0.8667982598576773,-0.10314208513210384,-0.6238590191030187,-0.9119226484768513,0.7462325022848713,-0.4792447851433645,-3.4067987861799827,-4.722102073432582,-1.4678071686322753,-2.8769674668088587,-2.09150233049328,-4.018574596726343,-4.415586416404232,-4.877539105289615,-4.051892690884241,-2.0334260945575173,1.0400315255120975,3.6378436400055816,1.600984412350446,-0.5471639591636679,-0.16183230563474188,-2.2693473485272415,-1.2698619857768958,-1.1972311996814213,-0.9028252579781493,0.7795584674719735,0.3962185407422002,-0.4957944317135247,0.5354666675421337,-0.35519123440397365,0.09299201783283131,-0.13967417214915484,-0.9763297636391195,-2.8095414549576336,-6.801822430092302,-6.8626781534646035,-6.136825370625718,-5.844627527854707,-6.6574953047935415,-7.146081200148232,-7.453203125220159,-8.987927476535814,-8.518507685209162,-5.864514607598345,-0.8682862538268544,-0.009876945301499082,-0.01396291285886764,1.0417342832763539,0.8723596983376597,-0.6142682409680602,-0.9754060147368678,-2.6409154571981373,-1.3357220310578546,0.47631010438786725,-0.9362354393671668,-0.15770110567167284,-0.08267270450108488,-0.02916364219301361,0.27675213066351734,-0.4796081813070211,-1.6281596114188444,-5.919140858056303,-8.233230216019418,-8.05346495144451,-9.160381386331514,-9.321340699719837,-8.649415672088043,-9.88119111374074,-8.498231959571815,-9.478826706926125,-9.521261072377527,-5.827200798658223,-2.8070831502068447,-3.345456756831608,-1.5017619578083634,2.1096486815814472,0.9022471136414518,-2.1802652028465563,-2.77228395025417,-3.9750653753764946,-1.3844206234048257,-0.14812132665355682,0.3801424181964326,-0.8003089562435575,-0.49105076982761453,0.4835040268881652,-0.6265148404700915,-0.21355733226085577,-2.410312767613207,-4.691773059797229,-6.664069572202436,-6.925460163677541,-7.977774828542846,-7.136744056136558,-5.789006289574031,-5.1148385152731475,-3.1295811315770727,-4.347789534179148,-5.27075703859912,-3.469359040160663,-4.034295211949749,-4.106401691582756,-1.276563736606393,-0.16374241033627077,-1.7732392788650693,-2.915888480248159,-6.165181163108449,-3.6140189395951543,-2.4850553584517114,-0.22251762161005226,0.3799862657757001,0.5115003239376043,-0.26375207861474936,0.19560790295513003,-0.0907524394680958,0.5668468825397633,-0.5788523485610994,-2.878710704694682,-4.3548906289160065,-3.365064333470745,-2.6681655390365355,-1.4074957618347157,-0.7627783428236602,0.8348221781671828,1.9333081118941566,-0.06334465114017986,0.6860259586207456,-2.3561320463909494,-3.5418648908815187,-4.438234311360485,0.32201638598250937,-0.850449835608782,-2.7538966427893263,-5.785951654527419,-5.0240860848126365,-5.352274354588102,-2.6812182106804854,1.0360325253348535,-0.3043599531205798,-0.936711648426163,0.3043347402450338,0.5027684296815781,0.6571551273603915,-0.6828395120119928,-0.5830032057652805,-2.6034844190687974,-0.6124817205943692,-0.39037577490527103,0.29918690375435436,1.5543734933520297,3.552980383372863,3.5420244206001548,2.3775308826618615,3.455325109567746,1.8069099803287518,-0.9288028370502981,-0.46234373120721284,-1.2745196267010928,-0.42138488008114505,-1.1810049240897083,-4.846566597955194,-3.829610267692363,-3.8231866030920854,-2.832569199968987,-1.4239448825790981,0.8847620115797298,0.6567698906446519,-0.8641130340068258,0.3817499483991893,-0.21133489636569824,-0.24549990723254753,0.44179651825893873,0.31501899790988924,1.1496901166189186,1.7798781429806263,2.864979096795418,2.9723261604623072,2.1904943455035046,2.77976493983587,2.083603572844257,2.576907306952298,3.6913779761835914,2.8783262245768917,1.9654707200357158,2.13574907166693,-0.20772411600783133,-0.26263232614868964,-1.2049597889231582,-3.3169976023968326,-0.7188476337993503,-1.058828456986361,-0.5427399770204022,0.8101503922632041,0.8294948086767828,0.21689667222081635,0.7058683009130292,-0.2930923295518939,-0.27843795852480346,-0.8856639687367363,-0.2668021236363571,2.2585619751850143,2.4196624274746017,2.659817583699575,1.0408106566659272,2.2069782574864796,1.7026957275934174,2.127580412801631,2.2278365640880864,3.050983038249178,3.439900043462554,3.704249518986603,3.4613790183223836,3.683093047916323,1.4139158445330589,-0.13298089463991108,-0.9025935302781293,-0.3654540665180545,0.6277948673984725,2.4195228003625933,1.729550370199267,1.6838754823996853,2.7471905952308253,1.7549072420381118,-0.3207357620278353,-0.8247134129986924,-0.23309823531922366,0.6154883911195843,-0.4735639980192151,2.20840051792126,3.727644756143273,2.9235402448333865,4.043740447169103,2.6896984142263336,2.7913034515394837,1.8723670442325233,3.716440347341731,6.448634410735976,5.371782745754429,3.4122174148352573,2.483567666664706,1.770840151256824,2.1095721159478584,1.0522977158754692,-0.8388203759958929,0.4740921974549444,0.5013982226999575,3.8491588045853415,4.411357327565328,4.943335667946733,3.3973513651435505,-0.6744804387773425,0.988989657981024,-0.1258983961903954,0.15388793532065378,0.06055979413791236,-1.0446426464595104,1.651135149498219,3.0761910436481323,2.517395128551843,4.090408063322256,4.325051782136319,4.078912069083591,4.792334651304639,4.4725066395266735,3.3280540774155334,2.5103878327521882,1.876367926997758,0.9735850351479232,0.8143299868728628,2.084153029855425,0.46516645653253746,-0.5955026601152097,-0.6441348000573585,1.5136875437640844,3.2887950750700528,5.273458265975875,3.89657177471001,1.9410612857070422,-0.05920286755303717,-0.18130927778374933,-0.12310421833262009,-0.9086919203034184,-0.8358473170826863,-0.4618181636782852,1.5520863439828958,2.7920357525933492,3.5041162171549685,3.375446728519288,2.970073904324442,4.315094090558274,2.5725434319400895,1.7464162306085735,-0.2359898144364329,-0.6060453192063511,0.9014451736653369,-0.785858151188599,-0.6494966566145705,0.3987175850821396,1.628332423995825,2.3370491290087037,1.531930127524281,2.0158377663342053,4.898109830007964,5.576737429996864,3.1794308179664816,0.9212975009346057,0.5638696776996646,-0.2750874371971559,0.39369424913407314,0.719479054696731,-1.0107273202927511,0.38381762622146776,2.0789865958081246,1.457767372109446,-0.22404489315944037,2.452419230965785,0.7325821513009607,1.6165043948283162,1.543844251423439,1.6782403074186352,0.2993944818122044,-1.1117423824161978,-2.385062376274565,-2.4576090112338402,-1.0585022904555272,1.2064060106372572,3.013081653131178,4.223940352591216,3.1396594718658806,4.2390466754661515,5.7999649974406005,4.806914133582228,3.2299217186981974,1.2773632098430312,-0.26205000101445736,0.33999536854471657,-0.9069341742582782,-0.20523516827160276,-0.326067060455394,-0.7067155302032194,0.44585356681152327,1.4057458849494606,0.8017693972414789,1.3343606600210636,2.3534542076611755,2.9255779299710314,2.582671164157182,0.612852176076828,-0.25735061838076717,-1.27521991162167,-1.6171675648822534,-1.8277461115082279,-1.516250084069612,0.3647118578506838,3.1481892988764626,4.4254685615755776,4.220110887183085,4.210705836381815,3.0242154163308124,1.747482254299257,1.0462093480864438,0.7881364868158902,0.14409352706610742,-0.42590449836016964,0.5706401978649127,0.03166801908934044,0.5670533495747667,-0.3134760223247798,0.9057056118500548,-0.5243437202597737,-1.2042499604249362,-0.39158820504882713,-2.262367338682904,-0.6893356605751443,-4.006067618663583,-2.8385410065802397,-1.2149377025253523,-2.962288672678673,-3.802980528829736,-4.600676218086504,-2.218862133922049,-1.2687398572125408,1.6340948898387369,1.444461793129298,1.2181979555284188,1.9061510140164977,0.39806573005528456,0.9582275712074733,0.6440841323736569,-0.3523564274456888,0.9925565031656723,-0.5783794699126801,0.03433241135352927,0.8397746596423192,0.19959491663584478,0.07804176603631419,-0.5908502378563693,-0.9550681777276278,-3.2425190864017495,-3.14630591508446,-2.4695072346072444,-2.6202792804644552,-3.4020946606653677,-3.627952849895214,-2.31748338996002,-2.0672981952200638,-2.0845316598533046,-2.217365696769226,-3.659130461216894,-2.094698892352044,-0.8719540269570321,-0.3694225247260936,-1.1522377991443886,-0.31657751664901346,-0.46003982651411457,0.05599832715626834,-0.04389358039927893,0.3702467490597686,-0.5178461030288463,-0.5173889726600689,0.30972907223231827,0.2978117130661262,0.05413897444316529,-0.5053278099988643,-0.530009089292696,0.023908882520248226,-1.5460282826852165,-2.021734244754689,-2.4364839761469046,-2.843109607215827,-2.0389234622618675,-1.757016014258994,-1.4104519724105027,-0.7140447069469772,-0.5040108036660589,-1.4963538127814986,-0.34461947958751027,0.14719503117438343,0.06869539294623661,-0.9177567104849208,0.31326963462929464,0.7402138060389752,0.6367089269796157,-0.1923340063187673,0.07972324275824877,0.141911831680343,0.020077057704410137,0.8140632697268759,0.2397943948484873,-0.00532341640174927,-5.066932736652596E-5,0.20418792068908997,-0.5034959597930692,-0.5696903870745962,0.3271229606733543,0.3979775736192995,0.6129827235035735,0.44996441627682426,0.6004756027411561,-1.0585589662936576,0.0032021304162982533,-0.3436002590000488,0.584579161722095,0.5948432903736017,0.0890179019552507,-0.5327852135004728,-0.9004176830051079,-0.177011972523902,-0.3979828934016872,0.6918081632255108,-0.851164124344814,0.2141515015881224,0.24645729886536816,-0.6252661072716752,-0.2711683835429983,-0.8126031402748055,0.46125612495589907,0.7236639652528634,0.16785617142233789,0.4205857506873507,0.482274630645084,0.35773090530675744,-0.07771767558962332,0.8552773015204498,0.28218770363421947,0.6952770375084057,-0.527320738271957,-0.06183835977991449,0.36252115779811256,0.8663135139047843,0.9397149625511825,-0.5088596107898341,-0.10546347391216525,-0.4541255670755986,-0.6522845523498022,0.47086030802785295,-0.7503556347650201,-0.12003067811719102,-0.665695732560942,0.9585786403197543,-0.6318630033670214,0.5352621415768608,-0.4302916179131382,-0.13617690176137232,
1:-229.19813124080588:-0.7009278173744704,0.8371261074099019,0.6116365842392826,-0.4944621914098519,-0.23552353441839546,0.9907390827968354,-0.12759178392179416,-0.17003998845220525,-0.765782750360193,-0.3824739537400841,-0.9140556053818805,0.3068990156896607,0.801859305780831,-0.71535639567778,0.4643355825259632,-0.7442819913902643,-0.199916015339771,0.16052513111985145,0.9462108197333994,0.2636026992458449,-0.17957156059429313,0.9948768430857717,-0.7382190801319701,0.9015128844274822,0.09903943820386418,0.5272649706487584,-0.8077036015202959,-0.44618616781195297,-0.14067729545203456,-0.9769149756065669,0.3032769411843501,-0.149581912617617,-0.6550521008386214,-0.3935920094982437,-0.645300737413546,-0.8077785964794917,-0.518253778719598,-0.40759868723765297,0.5776572069277007,0.425069965365079,0.37461677753532063,-0.8822747971589375,-0.9401751055572021,-0.1456138206793221,-0.8230777122257222,0.02550871651916453,0.5614727494496787,0.4025289491888391,0.25213824552577635,0.18221231015300599,-0.630702427212529,0.24118924676661369,-0.9613713419503802,-0.8131125627217031,0.8082884063054336,-0.5109720977158962,-0.5260613346350804,0.7790464483753645,-0.39011163046136454,0.6374007343959067,-0.4948517664090617,-0.8414099978014646,0.471389159277832,-0.2511541666818822,-0.2766383368808886,0.7416607785461555,-0.33277067532878013,-0.6463291920036192,-0.6091210913729894,-0.8127729372245819,0.15661381068482882,0.41368441769834247,-0.8585110590642864,0.7601535447166209,0.6447941005859161,0.11162641808790856,-0.22028527588470145,-0.28923699588253765,-0.09861756389169204,0.03011629412777919,0.4639306466322861,-0.1356163816542659,0.5948266147395351,-0.32835752748362035,0.15105830122526354,-0.13752145783463532,-0.0116652490253073,0.9251093790270624,-0.7561001644661833,-0.8686733518981309,-0.5650384182020557,-0.022626663999318525,-0.9493403232351629,-1.1518381706845102,-2.063401388163643,-1.2768166052530467,-1.6180189148392887,-2.407117821051644,0.10577963864780776,-0.5714793954704392,-1.3161286968453454,-1.4163433571576236,-1.2363482955744778,-0.8213301833936749,0.08489451620255786,-0.3917795206339614,0.23742503531860068,-0.21184169520712517,-0.032743295877544536,0.2405480359955248,-0.9012812196373456,0.7237774302172646,0.8496760370204637,0.04284163215761816,0.8038803015427987,0.3267345129200592,-0.38193346181050175,-0.13119577954839162,-1.1413585393031955,-1.4279333932795621,-2.1449104365340483,-2.6594874972182745,-2.5420548004361767,-1.4167584922193945,1.1354301757797995,0.5096711394388928,0.40098851511754335,0.3772944048662154,-1.3137424781342417,-0.565807307844576,0.7748733140823924,3.6373562014688186,5.779544331759341,4.506920493668983,1.9986230280941042,0.7866790554221798,0.09640142492632167,0.6655859991767847,0.8444587216115775,-0.38700629720661794,-0.4842683193709114,-0.09526549082618763,-0.6599139264393741,0.04437232914305819,-0.470801143269592,-1.2839078411509472,-1.727024910331562,-1.969036234081914,-3.634936514401527,-4.755236581837123,-3.93014519868212,-1.7550580873254245,2.178441832580976,0.995444528602368,0.4910941313870589,-0.9575160200134993,-1.7641089221846817,-1.841692460583917,-0.035306116738625076,4.358279479012581,5.9727801818371145,5.09171423507148,2.800379179815743,0.7650996355667021,-0.7325693899920642,0.6488288782947693,0.48482674959033933,0.6143473604878844,0.5815349549567994,-0.5610850427458416,-0.5064920946334193,0.7923306919930284,-0.8952339263993664,0.4129278319816716,-1.808540394710915,-2.8301277213764244,-3.3039154214915265,-5.488247251132486,-5.2523680549630685,-4.298590939688179,-1.232267868351602,0.16217197051176935,-2.2214971463319855,-4.71366986189642,-6.000222924686017,-3.1003820993884457,-1.1594895024403258,3.5124230810903527,3.5852966814401688,0.22609644944539314,0.8361495935649436,-0.7560193194395145,-1.6511673303816272,0.5036450725021675,-0.015538851058797315,0.1652036788180393,0.6789521810288621,0.30980542869230665,0.301387069689497,0.7447051896626218,0.5617608926820222,-0.3186024347286777,-1.1369715823280238,-4.548154674958318,-4.016363038203629,-5.393385703424269,-5.780725472794461,-4.109354553071664,-1.2295419693846559,-0.6578280543689287,-0.71937342265754,-4.333051407112858,-4.236932881956061,-1.0474058917190838,0.6588322597942307,1.5128203136004947,0.14664849202500393,-0.050233775087283106,-1.9934726102690652,-0.37926249796356715,-0.8204210314181312,-0.4359873008545968,0.5361629340377808,0.7604061917416576,-0.6656396379348644,0.5337975387688254,-0.753003746116186,-0.5694076276136113,-0.7449479190251207,-0.8274522520209157,-1.719033962956457,-2.6362036064704495,-3.009132783495546,-5.443773469249757,-5.092896666019935,-5.53918246641991,-1.7868492822497892,-0.0663469779021472,1.507565417543993,2.214448470820182,1.018470848891221,1.9741599426805305,0.923793934103268,0.3400816128914242,-2.301646672325637,-2.531355457551209,-1.6454231692751728,-2.3775816337595113,-0.9559391514173881,-1.088368188236482,0.6619184722988475,0.6972285227465693,-0.13154684485349433,-0.9118566662374005,0.531560643338145,-0.9188987419182625,-0.9953748298810117,0.16383035756974815,-1.2923742444594681,-2.1159982058786455,-3.339019795763709,-4.916547630205951,-4.981066498909083,-6.933666533137321,-3.8013326296464456,0.871796502633088,7.815673839944211,8.250080037931873,5.9747042895212905,1.8323502478609908,0.32620450480573826,-3.239517803758191,-2.5123415492284997,-3.16993211854951,-1.7173455342359503,-2.0509350761019447,-1.140772818827534,-0.6337518370466431,0.037719221661743324,-0.5777356096761699,0.6165586046045456,0.676488051977665,-0.8394965810409066,-0.31873791069008645,0.032822572358656855,-0.011988611028979843,-1.3502566236276612,-1.1659521410843512,-2.4666857951437335,-4.411772498382977,-4.381183348147194,-5.806878047489446,-4.221427205098276,3.2762928302732357,12.831221487995693,13.005836776205244,8.793321477067416,0.5265681545240114,-3.633374482127797,-3.120889101318012,-3.509418535250608,-1.4193704096812065,-1.3167013701971648,-0.8597615434196335,-0.7246260433088633,-0.7967675670854073,0.7941057463084912,-0.6483567881477058,-0.08478972817063135,-0.4309487823921272,-0.179664315021096,0.3366487453338957,0.12748495184772074,0.859411594419424,-0.18930296354098813,-1.6988318510770393,-1.8955228340738313,-2.3913636780328424,-3.3063254423880637,-5.628733478764341,-3.5755547144059405,2.3069588787853257,16.22550658509709,19.596882484022956,5.026951994538842,-1.913718297736757,-3.3282316086510577,-3.3621658819635685,-2.3039602189834296,-1.6685132042508934,-0.7585202534614193,-1.5332620437097988,-0.4448941826410534,-1.101656530745435,-0.5396833229226974,-0.5127461512631198,0.06828823795841776,0.00840547918287049,-0.9406482423917598,-0.7177943470643439,0.6716487915379727,-0.9875847043520741,0.2100601431664808,0.12537618617082225,-0.8388720370286314,-3.0929044499958405,-4.0790956597328405,-5.593827086612743,-6.010710986933832,4.682787807786363,21.75461152814699,19.806790806261446,1.4634183474839062,-3.9225414682007598,-2.893155790568683,-2.2272168342295413,-0.34476919728268995,-0.2831770561065964,-0.45223187759760314,-0.8420325706947931,-0.5086313755335873,0.3257715345668743,-0.8234328621916379,-0.6085602116868105,-0.28887325315486745,-0.8448331171290664,0.2761058069996089,0.989896477505052,-0.29661536706913605,-0.32514926925642557,0.5071652416401341,-1.8523378183012214,-1.907265620097446,-3.503024389725007,-3.313674715463545,-6.56726781087801,-6.084971488453647,7.292859650154876,28.130500711633765,15.72150056854261,-2.5453508413806896,-4.095383963315999,-4.223397643182704,-2.1566949076158695,-0.29907932540704374,-0.2892900402108602,0.41008086312855685,0.10152522725397498,0.21881468215716865,0.5382396237572369,-0.7885135014091093,0.7804442606511908,0.633562204125826,-0.847568298851878,-0.5569364628990623,0.3292820084322957,-0.9315589426768147,0.35056391834795114,-0.29329862018430725,-1.0213652051980657,-0.9861833099322711,-3.344502145395698,-3.308210302349496,-6.711116258493886,-4.848770466861753,11.672781430678667,31.146383455367864,9.482433137689423,-4.728290630997594,-5.100781393936109,-4.324079566376704,-1.6596987246467148,-1.5263105594326678,-1.5700820565393883,-1.6513429444834504,-0.2154622616517196,-0.9626871618008906,0.5971132478667025,-0.7423558034370457,0.15585417229402232,0.20297392050068797,-0.8492001192759921,-0.6452520752114808,0.02571830870842698,0.5678665994313536,0.3865083573916553,-0.6730875045543857,-0.032670553494552404,-1.0647734736470857,-3.76918503040933,-5.920655394875616,-4.732436833410019,-1.6221364487095813,15.918140530909334,28.00003618060971,6.311763365826746,-5.820828544610851,-5.7484120996863535,-4.005842669725463,-3.4362998431870997,-2.181113366550831,-1.444727212784329,-1.9523107338142074,-0.2247998289389754,-1.0069506932298278,0.2115271713404475,0.004878331190679521,-0.01451562914913359,0.045948178148564,0.5677494051293297,-0.5155143240984653,-0.5000140198472169,0.04585738182512527,-0.5108343866136915,-1.2269497815102037,-2.086639011481391,-2.456689798911706,-3.559499568967383,-5.396980467262807,-5.248406774422173,1.6159080870629337,16.541278956928057,21.14508032417965,2.044360021252163,-7.520398378382764,-4.998086284319416,-4.730734438315449,-3.4674714527039505,-1.2886666113319674,-0.9217966306248216,-1.7614181375309694,-1.2256285836193994,-0.15718404949737066,0.3235299787237059,-0.7826875509088332,0.6553210278218383,-0.3977262405064579,-0.8892238399253478,-0.7291027980694798,0.8506782295339523,0.8411016256139596,-1.1045102654170234,-0.9073854542406443,-1.5513219866834536,-3.451890469965058,-3.8249208783463504,-4.785591042075808,-2.2931254837534842,4.871618980431905,15.111073816335319,14.343347750990484,-1.2490876890909568,-5.923764810490401,-5.933609960444253,-4.226541795842837,-1.9477297978007608,-2.8973524098864356,-0.986841792172968,-0.8644461287596974,-0.4432698235906467,-0.86104770578266,-1.2227820402286977,-0.15653657056920928,-0.8964043778483602,-0.44244444294485796,-0.6818553408919568,0.8645813801012179,-0.6788455681803724,0.20282317570682146,0.0318947650736662,-2.8687823249160065,-3.046410690887281,-3.4789979647013882,-4.374460480353321,-4.0494069577796585,0.3043795688475211,6.327794921438858,7.890437434116361,8.51646889550326,-2.2277869377116364,-4.616311266603997,-4.325177817825818,-4.440082727069121,-2.26359867308095,-2.2403894530599358,-2.5011304462477426,-2.2409764457836516,-0.37707057070072847,-0.38382238788565615,0.36186460561641653,0.8812501368516087,0.6750151056184808,0.9908116559942672,-0.47070298694817736,0.8676841802324777,0.05842452107672608,0.5627001845293603,-0.9574389622752951,-3.9617451095566247,-3.2375214404333335,-3.134162568904948,-1.4505331120531193,-1.2851868756902833,3.94818824111481,4.843127938026104,3.985436783403919,4.574491465799196,-1.1611646933744806,-4.770371628951796,-3.9386197313996343,-5.4121974880291175,-3.778361148248228,-3.458473443929896,-3.339615452412368,-2.6729655501126777,-2.2346432719646145,-0.7425492831696543,-0.4866216397846032,-0.3286572876471879,0.2976252801616687,-0.6590043349949501,-0.7073271215965928,-0.18719775676094097,-0.47305426356029695,-0.7117444662943063,-1.360014839569398,-2.956420111610009,-1.345469944773589,-3.2405588426791785,-0.7454877960389525,0.7912575654239068,2.9296200622821154,0.16407412116374906,-0.5150362596435538,2.2046571266890744,1.0545055283139342,-2.8272530863005634,-2.9471459419346906,-4.289005073136624,-4.371555515906474,-3.0879587161143167,-3.3247229031770966,-2.9316672301820197,-0.6949641344743657,-0.3962172274931986,-0.4092235275093661,-0.955511662438679,-0.41326064408487584,0.0014664142929436963,-0.7481059810629913,0.468401536573504,0.4237428785632442,0.1276226061017964,-0.8140685097961438,-0.7196076907964492,-0.9582738329584483,-1.0526716954420705,-0.21539409738745455,1.0046331911829998,-1.423350456156732,-3.772984704724361,-1.5563988546683987,2.6558968468276793,2.4142282526173773,1.8769549935558072,-0.7506807358973009,-3.4817230054981323,-4.052104118539283,-4.235265251855286,-3.0023917931645197,-0.8372093318873108,-1.241480983524114,-1.0968772520381833,0.7748042090761894,-0.9452081844892501,-0.08018438006093276,0.49400324588326705,-0.4780284816384752,0.05125314575908429,-0.24678020495421463,-0.5297388587047039,-0.25526817118877226,1.7257466434509214,2.4799511458672137,0.6215146354888763,0.8401722929190806,-2.0451031238995103,-4.184812698140433,-5.247122667546851,-3.4105158771721418,2.9185749450995417,4.726028151481358,5.05222251253994,1.262595843161996,-0.7255590139403443,-1.9087164108014683,-2.9048672345595734,-1.685491919499933,-0.3172319653617237,-1.6810459646577904,-0.34483057620363394,0.28086243707791453,-0.3033391907083297,-0.09687819160638012,0.7540450082465564,0.4753966726922032,0.7894893733002439,-0.28587131807869826,0.7587385751055254,1.4733200243237117,2.1141350770487364,2.6460281268536456,2.3261950785379604,-0.42697463439303596,-1.3775723986657507,-4.085170566581062,-3.385876682573186,-3.4607666359136386,1.8600442852317838,4.544249431892255,6.331876915900272,2.8216217211120727,-0.46427744257608083,-0.8690321500474604,-1.1799356897797466,-1.5869662764303825,-1.0547688925364933,0.17953640975489563,-0.4416708861613249,-0.40625354319779444,-0.29827445808432484,0.9654763079552438,0.07640681540610283,-0.29632078793917005,0.04645747101839448,0.14756479161729202,0.5633482713270074,-0.4461828624267583,-0.3044601693801122,-0.3399410314947886,0.3367068670175528,-1.3909073501641032,-2.806578593554851,-4.296004313698357,-1.7966144169128186,-2.727089317919648,-2.088693915972736,-1.1841926622420276,-0.6643504172306857,0.673193126641682,0.2075808397708993,0.7280042725598701,-0.6341378246191807,0.2031499791594074,0.9798351540299683,-0.8960242695704956,0.7123571904879242,0.15148769087611233,-0.3280368774147688,-0.9336896319534524,0.7258099386334549,0.7031000941258223,-0.5279485388299578,0.260318200879446,0.4233848145083769,0.7105898737029908,-1.108873027836076,-0.9186189638971984,-1.6585148335611135,-1.4398078055963506,-2.507211894490119,-2.145624126152926,-1.6572266515660192,-1.786055188677694,-1.1008880731997226,-1.913030928095467,-0.32217103801036,-0.8577865108727268,0.40851724625437424,-0.37462419309638884,0.660605147873495,0.1090236727303817,-0.34685046816954446,0.5938815706855437,0.734687150172173,-0.9727526118596781,0.6260781841804437,-0.3052523731373886,0.1091345879826815,0.5541491253288982,0.33289928614774267,-0.40233211720508666,-0.7379089046902237,0.3050027505104111,-0.6566088435428792,-0.15633405921304974,0.9406526110354976,0.2985107135539644,0.10299066428074616,-0.5563992569070351,-0.5366677719058748,-0.9535362033692926,0.494977210274799,0.6143862896174012,0.2986059168332175,-0.5707588076765134,-0.6538686944011115,-0.3242139958879953,-0.8191310418846205,0.07720743390967574,0.8966804009558815,-0.9536387580846466,-0.14695660025134383,-0.7614824543649441,-0.9536390427837809,-0.5366485652562005,-0.26361347966790194,-0.47767939138153404,-0.7431480066115843,0.4502110923426508,-0.8782612203372666,0.33310062052400213,-0.5283776642437084,-0.8906286746516476,-0.4657724957523801,0.891285437351815,-0.06329750650955773,0.16435968414012928,0.7585332232722017,0.3191452021468351,-0.7165124797424715,0.37446331103186536,0.2874353204231503,0.09643101744129608,-0.207847158279153,-0.8284711090232946,-0.2241056432119244,0.7599904800161779,-0.3489118510044571,-0.8311720523372457,0.5349622436941517,-0.450135991164764,0.9537083375379387,0.6646420788061027,
0:-28.907151305596862:0.17137725103087043,-0.9741530081592205,-0.6171778967187354,-0.978676781992073,0.5458196598097897,0.7492628384933431,-0.6416998372428622,-0.4196150948407509,0.8634784642334821,0.4287166154251134,0.7069421515146208,-0.5337745787023982,-0.07572520088616708,0.9001240650223965,-0.5605870552202568,0.04357319795330117,-0.844640159683939,-0.7954792980789869,-0.9338724048087634,-0.6644244157430923,0.21380625696431332,-0.8648017990347168,-0.9093322619528557,0.3534225061871952,-0.1923454696447564,0.7013924043650397,0.11318522623268512,-0.9579854962221517,-0.7231205409072157,0.7790916256214124,0.6097717757466148,0.6757214133259417,-0.3347051423859362,-0.8878874511330959,0.17447760892153696,-0.7878947858584866,-0.2336355104018639,-0.21833540110119834,0.2938626564920125,0.8478079616076734,0.9403656181390004,0.28023272405891986,0.5696727104483957,0.8196354122434399,0.37721814817219196,0.4055830975376477,-0.28657603278105354,-0.644804659904429,-0.08108819164235803,-0.6665270864858801,0.6073991968486461,0.601270510380993,0.5572220717443319,-0.5675106995344652,-0.740248507214567,-0.6555480633337776,-0.713001275195039,-0.34780820729692086,0.5771106274948361,0.38736259058394684,-0.8777934443873835,-0.3542616512628438,-0.46369728949953726,0.5551492365491346,0.7713574627583706,0.17287656440312565,0.5437224304785147,-0.520133988861745,-0.27940025893649606,-0.1528511941066709,0.6641622674831791,0.5536620688606431,-0.7100818795360466,0.5896687754483285,-0.638327725583801,-0.283723091372775,0.5951773914576497,-0.8327238096589974,0.07237283404702662,-0.848173797591119,0.3075608270497951,0.2960728116208644,0.4396672320498378,-0.6659318182053375,0.5798241895491991,-0.07785751185740475,-0.15784035542280184,0.39268666988296813,0.5922813595064058,-0.14923324729650977,0.0581397853242691,0.2989065735579146,-0.2118117904556931,-0.2381863797608148,-0.8514208303261331,0.9754517952680679,-0.9422937788092248,-0.3116980334976959,-0.42728848786767204,0.19818302314105443,-0.06693060461980499,0.5040962723616105,0.07019867677778495,0.5831523650220413,0.9544861798311205,-0.1751019164457018,0.1510547275923084,0.35875713530357567,-0.28747123425484195,0.9855887074427159,0.7311302537516406,-0.2485625322199585,0.9034838582884883,0.28140168769525453,0.6518878233812169,0.28960025921859317,-0.7691921007602511,0.9031079788572122,-0.1433188141714367,0.06464768394493473,-0.7067913797580352,-0.9926016609116065,0.04142194635514312,-0.9909302175290526,-0.19937890450277052,-0.3209122849369969,-0.6395660420673277,-0.7563069051092642,0.4381388569646505,0.6442243707647212,0.7648405390332235,-0.9515890834523391,0.49389644357027335,-0.0033096335816070834,-0.759159999759496,0.2540353695747334,-0.0849191957651805,0.1167037015104974,-0.33769342926099416,-0.7984185975292872,0.17640040649807576,0.14437327476499373,0.34439389856909114,-0.38913818913785,0.3571584719437267,0.9772765995641829,-0.9450174864257667,-0.44423086408044127,0.8933778122630672,-0.511201545692696,-0.11862645913262242,-1.1416301986850397,0.5418789990384434,0.27369880392320006,-0.7563626466467757,-0.1920840261459227,-1.0606351142082004,-0.10832008311862419,0.6966105885745408,-0.37621006131396273,0.6912329218759694,0.7678758720241946,-0.8916930399589993,0.6074870019553438,0.3596977189390748,-0.7690792344447075,-0.5301132843878632,0.8315254963419418,0.8002440876807644,-0.7080194021156268,0.7626270921392371,-0.9844516217178231,-0.48645777703719845,0.005722517455157549,-0.45265174772767464,0.9338662191603916,-0.8334584234929194,0.6021813629877388,-0.3692231748267092,-0.3556638632191841,-0.778672713754876,-0.11712610253798185,0.6327931604234189,0.7784382481843343,-0.3525925569969321,-0.17730299944890193,-0.525256824943817,0.7226654622708537,0.28436695862010514,0.6084441166762392,-0.46077415109269304,0.575456385430242,-0.030945717391512702,-0.3057087542433873,0.7930991702304174,0.5013724646632554,0.19548273746904887,0.7375707589915593,0.5142685719829946,0.5042718808536113,-0.9174918939655229,-0.5949358070115253,-0.5614745602255186,-0.5725738667819468,0.48716479249706407,-0.030234114573304917,-1.0498780056421535,-0.21917608860510424,0.17914659237922248,0.09469869576309731,0.47595077057740287,-0.25054868847295075,0.048726689125477285,-1.0725592429498707,-0.13362951474631893,-0.6381942137634045,-0.30223732567266737,0.47402423927266146,-0.1363132745867732,-0.14633474081898665,0.3081182179261985,-0.13725336334395927,0.9066359019564684,-0.8446254908781736,0.33388217450898205,0.46496246191283414,-0.4926034437060167,0.6141745352503138,0.29399524243064007,0.14819664620295855,-0.9747228393817241,-0.15464936263460452,-0.32357526535546105,-0.35251552995261737,0.32311656284895723,0.07387821658679328,0.3861879408746342,-0.33867518165373145,-0.03560880649646326,-0.9553051010417491,-0.6052423892866645,0.6010656488670861,0.006771168644869457,-1.1342336438082106,-0.8241789809365039,0.8401971503843069,-0.4423455987163162,0.1063199489774747,0.9017052740890484,0.028147715424080098,-0.4333529447891961,0.02331442165807462,0.04424421093877705,-0.10546304255084432,-0.27517346184754116,-0.46978268807591506,-0.005942740629191658,0.8016147641321902,-0.021139964463016112,0.817601176505326,-0.9933985118479172,0.6910474623315745,-0.3707483524577786,0.1438782857260395,0.7002538327279658,0.4726048312031547,0.5720922562969095,0.07516012869885882,-0.6253906673720375,0.19447090354915145,-0.4362678362833261,0.6300661667632879,0.47765032357516707,-0.15638491988261013,-0.06378401904612337,-0.3058337440872912,-0.8385049146619741,-0.7607800147767361,-0.5478335027388622,0.6438339260478139,-0.19275934290662974,-0.4240723493387786,0.670505081681596,-0.5178358601947491,-0.93151874944516,-0.11499420063059938,0.5756306390847206,-0.4513609029582309,0.27138452368305876,-0.48897897562870796,0.5459303537455534,0.6087860452391581,1.101896728830084,0.7342212295532682,-0.2571441374304452,-0.8830435205104163,0.06025160064984646,0.5554888580112461,0.5361553468702855,-0.048103194709041064,0.8055668228491883,0.7794464081355514,-0.4170695935620983,0.5109349529468067,0.6992179757822425,-0.8908248461552367,0.030031106164806195,0.5001751016941195,-0.36812691963254146,-0.31440253740601837,0.32983707734659407,-0.3470068770689275,-0.15453441372636803,0.024936685438121116,0.8813740374518404,-0.447166176639465,-0.8691827933374519,0.41928899070548437,-0.5664057463368779,-0.7017465285328057,-0.05774762024368015,-0.28640255819377575,-0.8578822815763478,-1.1206919306720249,0.24637130346750152,-0.6046337390373114,0.5580846700331028,-1.0324830300663044,0.8947894221988486,0.3289691068221007,0.7215464999346644,0.8996794416783922,0.11205407241432536,-0.8500653590076993,-0.5454380919562544,-0.7048698091695398,0.42077949700473294,0.4257333044655858,0.8313194601989424,0.1192630581205968,-0.823738853303518,0.9692699442990637,0.2769613001974242,-0.20199627901155248,-0.6470210242042438,0.5536190110775064,0.9709875384669203,0.05563315069351261,0.3975154000791155,0.4841424861222772,0.7761049450598082,-0.13702584782401286,-0.9711932373254966,-0.8913275450194655,0.32627414941008126,0.5857139394623412,0.3173022734355625,0.48655782048205937,0.6711942182945132,-0.7941777701952336,-0.5764698952040247,0.25193857488137444,0.833976820185934,0.5658212273794623,-0.01620647053012836,-0.6243626003710842,0.2802719974531217,0.08923139779366991,0.21215090924617946,0.5418347202482071,-0.6867142693192404,-0.6464133671402966,-0.5043013415572142,-0.6630370791246334,-0.2785210812426021,-0.11701157168427954,0.18655442740392478,-0.4545701362368125,-0.8112942991990619,-0.8260786205759019,-0.9406259187516849,0.2265408314108117,0.47255419356316425,-1.0610626598857604,0.03155228132202309,0.9963942335594762,-0.30237736529195547,0.6131594142650336,-0.2861579598636735,0.7075406330649928,0.853708266558866,0.4502611726983625,0.5478545483886399,-0.7608384283751393,0.45569150793303154,-0.12887584073561636,-0.8526840042901637,-0.9258701236323569,-0.0900662040367362,-1.038959156112261,-0.7461471469441929,0.9218277216652446,-0.6554891259430073,-0.06224511918005211,0.46950397321919773,-0.6308545061354772,-0.7132417945550933,0.1936105070661725,0.005229119069965685,-0.6893549975907575,-0.19129234244665416,0.18859495430367004,-0.7839629943926911,0.971167729446132,-0.37106053903985725,-0.4984340720046072,0.14840452245016378,0.8623026346351639,0.3425022804793529,-0.03352538994607057,-0.7608889357364936,0.26226575859624845,0.2200705909525838,-0.38099670344196934,-0.6150845618591876,-0.25955398885963965,-0.9290241473455767,0.4717024760884726,-0.49137536332048876,-0.20316245179820727,0.7914039153982958,-1.1263040138989984,0.6854285265910176,0.3786957400308867,-0.531219107698165,-0.6241815566937405,-1.026607665847747,0.6441525081138765,0.06472327283780022,-0.6592762659574634,0.24808554375170752,-0.062208716846128394,-0.042960949733264135,-0.07814481960078676,0.7094985321300872,0.6635081800877162,-0.09962139357536694,-0.8487143753892564,0.5771109263232888,0.8620803040850032,0.5873044789889276,0.9509835547297143,0.70917668677659,0.557279252128753,-0.3995787703376309,0.6074365992241728,-0.310996543792974,0.8041332388060478,-0.9657009207595635,-0.9920531162346061,-0.20472726002575478,-0.6425542002314814,-0.5834903458376928,-0.3188615869945013,-0.301205638261465,0.5467687505492795,-0.39839872670350307,-0.11934613230487737,-0.9783586952127976,-0.516841527151674,0.5595430481362461,0.11023122212322733,0.6543357859840047,0.9824176554576615,-0.8217649443915938,0.8297073106958157,0.5230050188188009,-0.28600933662732664,-0.5728039869614876,0.021364995932156832,-0.8837386377374757,-0.43017240950076385,0.6739512104299852,-0.698752867077752,0.4250370966317836,-0.41034565702031023,-0.09453928136029358,-0.8980286165552193,-0.14918944815055052,-1.095365953066057,-0.23951002494344087,-0.4343519534836878,0.458810531707904,-0.25433885141077284,0.04861599510670561,-0.9334583493586389,0.35619689387921794,-0.17483973097803682,0.44524911657745514,0.08265006202945338,-0.6669270547794149,0.7151594256526616,-0.19292348225078618,0.6471963466977224,-0.9368474250031682,0.6858460920178293,-0.2443515771271268,0.5519636705786389,-0.04736926862725525,0.9261972178308223,0.4119216056630994,-0.08185010686208617,-0.03496915265555155,-0.9010719813461477,0.6437220152341159,0.09772599028516979,0.17537023231300108,-1.0938015661056515,-0.01975288064787316,0.7381874893551722,-0.046622203675058586,0.36664852502750156,-1.1110917201358352,-0.3658388221138835,0.11741358214399883,-0.1432981457768603,0.09665759300344826,0.5517179007074072,-0.5032215281007888,-0.9888204043598917,-0.6794157871563739,0.29586392788435134,0.686466836778411,0.5884690535044788,-0.5320351300181406,0.6893012848779326,0.9529243048411833,0.37242005823313884,0.5433637497497971,0.32536308551277937,0.6173544429862834,0.671947546011271,-0.9231725305687071,-0.5153673721863016,-0.5795334486787452,0.3504054909837444,-0.5245447994099314,-0.058422457584514184,-0.9468086041045312,-0.7193661584576485,0.5780709912227162,0.4773403155615679,0.8042101661673656,-0.49821760564021256,0.6341035855735938,0.4793940401004997,-0.8373856660888459,0.46455472180863655,0.6978487142092815,0.602062837544321,-0.5717094371125087,0.7292217314284852,0.21829428176020038,0.3531195648245108,0.6118285431081433,-0.7230448764060743,-0.293746456288285,0.8552737005304984,-0.067485508026515,-0.5900975671450323,0.25139305458020605,-0.60477684310705,0.842077066628183,-0.5500713981646066,-0.976337080495823,0.4561237627133864,-0.36592719729472073,-0.552135933621359,0.23264239442831458,0.32801553086200186,0.5632485642565588,-0.23313180157125607,-0.5923315338583803,0.3326965944379491,0.35837238759997114,0.5922099185574792,-0.6260402814355968,0.31659746130195754,-0.5944542811938456,0.7104627744969769,0.9314949240909793,-0.02199886312717959,-0.6636266661332557,0.6821319953203543,0.7680749770262343,-0.5723752263722872,0.13460006253701265,-0.04120158763021383,-0.14181894117170565,0.43393202447350915,0.5860145840224533,-0.4464083516593085,-0.5418942170607367,-0.7649235017081731,-0.6296518944130753,-0.6368968992792363,-0.4133257576554513,-0.7517584064026703,-0.8819598768113125,0.7846534918149374,-0.2872723765841125,-0.048870342988523226,0.9521846066811724,0.85410600377588,0.7241852061270946,-0.9398669941202829,0.9573534457172026,0.8073054276440814,-0.8456138214960318,-0.7762689734490554,-0.8500014288135334,-0.48364568029211635,-0.21212266398855978,0.3168958349300266,0.5537535723951855,0.3767891626666871,0.5204748872635853,-0.9990342907800398,0.7900422499807132,0.6269393956783349,-0.06185653127000008,-0.22816432541130235,0.5163659505094552,0.5232453562512841,-0.14432603695564342,-0.27378435881572916,-0.8439536069699264,-0.19611427337112108,0.824460706093134,0.7063063242908194,0.23393659400661918,0.5985102777375366,0.12322465437276663,0.9252077256155689,0.6322749437896829,-0.41083204852724586,-0.8884389501438947,-0.6586524505486562,-0.32807936044221325,-0.644646438245088,-0.7713601544275549,0.3239581783877867,0.3030851963123747,0.2926880500935408,-0.01273068265511978,-0.06498264500144207,-0.03703229129645076,0.7721396252835538,-0.2676252922519926,0.14433530863075486,-0.3729179781284606,-0.055896092108730006,-0.9306109106532506,-0.018037136125132955,0.6565001244609725,-0.37721567136529294,-0.7382287356207075,0.09984723656987064,0.44009084259808934,0.11200443072622962,0.7143171874552847,0.7225796786905814,0.3277756149309381,0.21718268494785042,0.9266367611498456,-0.5693488845037554,-0.8176580504546666,0.7571203543336463,0.39623115117589747,-0.30145044448371094,-0.6683400705616268,-0.08634149161567913,-0.7208957602445519,0.57821388189918,0.039979786796046836,0.3369041465041695,0.2721507416710452,0.29707147609874635,-0.9047290290368221,0.23699185276946472,-0.694388637402151,-0.194502257850806,-0.6825241987899181,0.7295702485220175,0.31273163036617585,0.9398614401971325,0.8811779889988717,0.06921043161075925,0.9935443097888794,-0.21653142365469225,0.8894693539113985,0.05461130617259924,-0.9969773618590059,0.8112971607823733,0.22847763257287707,-0.5108198363235246,-0.8810112020141083,0.33085874964936346,0.7877094719730635,0.8714698419344822,-0.3668839363460577,-0.3889339956721283,0.8875446329581467,0.5181659048010436,-0.8808935206600721,0.19535823337427272,-0.7800101986060196,-0.8969323268206144,0.6571810157272634,-0.9247229994408045,-0.6434054939972816,0.06483777761627554,-0.6989806567722703,0.3143448205010187,0.674643930608636,0.2539071665296597,-0.7770371444984898,0.5905804970478852,0.41715138350805514,-0.1300108595288163,-0.9710123854615271,-0.8466103627010744,0.18831916643097324,-0.5776062757778513,-0.5501350992024859,0.05423795530466143,0.5549922240356202,0.5952801547749529,0.6530139933060362,-0.7368809008153013,-0.9660184306793095,0.6766387349239048,-0.42072842916644504,-0.9312674763596409,0.16420181259221753,-0.7072805065813211,-0.5239752300563036,0.7037467215462082,-0.9753664412733367,-0.7487940958130743,0.45229826535168166,0.520142591130069,0.41438119709120214,0.4455160531845377,0.5318843907846236,-0.6903679950296819,-0.5984170040843766,0.9928015125126266,0.48001407034008636,0.8748479475134321,0.9113896592534501,-0.9937873192381659,-0.3708800857618879,0.7405288774046495,0.9583561916824177,-0.22577507712247397,0.6394390803499219,0.08456317200594814,0.869144878644438,0.4880574002459614,0.33883384890177165,-0.8697296316371038,0.08796767099876801,0.12064990469163943,-0.42881873159425715,0.4786420976219222,0.9716245588402648,-0.4225840384618329,-0.6716671800496476,0.1579443304921475,0.3578878824198246,0.8190284317153267,-0.6511866940505553,0.5294181247411462,
7:-30.233217363999994:0.3112109408279853,0.12713322182391273,-0.45826211289513386,-0.46990583060679936,0.1398508058904362,0.4975919146462253,0.590053659948456,0.47582555871418863,0.8417441196434292,0.6366345563155713,-0.1358078750165861,-0.2491534808138447,0.9426214254477403,0.7885233091332571,0.34555580004169517,-0.3727985013018438,0.9852376398249623,0.9853157004355573,-0.6229228875065789,-0.04040351621291194,0.3795737369618286,-0.7906944103028168,0.9430474879908433,0.30491014413105155,-0.7248498997121153,-0.5163420904610942,0.586079014092064,2.0314709945679077E-4,-0.1694867311797752,-0.571103607180476,0.8216115130321779,0.19879799091251926,-0.2587156782108766,0.8873557293010388,0.677955441490939,0.4597055740022158,0.43698693633999763,0.8446631724457027,0.8199395845689857,-0.35612249592197276,0.9682001103741422,-0.9332321589978458,-0.3931893147751895,0.5914659260676787,0.2794090765868156,-0.37701134764882505,-0.6098901998706976,0.33747681423383113,-0.7007434754319453,-0.21999452477404557,0.3748287883829533,0.46890390902803847,0.0787233159259988,-0.3713295069749878,-0.5527715395063728,-0.36536346776732453,0.06909690964620574,-0.755028915455398,-0.4847228161913901,0.19013402998043105,-0.4445864477327115,-0.811572952195706,-0.8872513260977495,-0.5079338080137323,-0.7526115799506967,0.7056596751891192,0.28559332549939614,-0.5461807640664814,-0.9213244467240512,0.13382231233779363,-0.8907218012995697,-0.3690274592678667,0.3766290697356948,-0.31196464586794714,-0.4216332774265169,-0.6734476926310182,-0.26143750279129446,0.06892225503812438,0.0646888024194503,0.9890727976284357,0.18683491088115,-0.8592044336698146,0.05802920898156838,0.5220786231848265,-0.5260833717439701,-0.6920047995263399,-0.5166595043810187,0.03210442935631663,0.7699192030219528,0.15633550335426838,-0.46893445592755345,-0.9873283443827091,-0.6111006458186022,0.42856834843304464,0.5857771762184952,0.9343105234365484,0.6133550554893132,0.3431228777112375,-0.06654540178655856,0.2199735072772593,0.8456717387486815,0.8851534466097501,0.16988899940840246,-0.37594611811308665,-0.04151488989857965,-0.5864876520438871,-0.18812926198176472,0.11662172519609149,0.7828642104910748,-0.3710458440004998,-0.43419005261804733,0.4873490583387885,0.1186373016823159,0.5761610756486255,-0.799693405470828,0.025945917146819535,-0.05783169570040178,-0.8211332004507168,0.4182669202890011,0.42882886285646293,-0.44738616018018346,-0.3103047458135084,-0.8796138686125454,0.3719670252571466,-0.40313328728245695,-1.0340411045463769,-0.5448377326818216,-0.8918722445773196,0.057517606806987295,0.590491879539753,0.7314981920796116,-0.9931346640661954,0.6928846231315867,-0.7413589472698141,-0.9523548636876868,-0.9385841528021822,0.45404644891414225,0.27102777098507636,-0.840994577642646,0.8835503336903705,0.8999454661577262,0.02813407792836209,-0.16140602140685933,0.7668475272897648,0.3365156314086637,0.807477186809293,0.9491382839263739,-0.8078513582590572,-0.8839181181108153,0.3859323376721924,-0.5598334825045489,-0.5285398063926015,-0.5366841843829456,-0.5808276827386272,0.8873161295155276,0.42108257813824584,-0.25332547877856804,-0.9684122205503366,0.010614123207901177,-0.5977798932998122,0.18292437225362396,0.5552334786677026,-0.12698321531557802,0.11066534359353478,-0.8887774819132499,0.5717478370869788,-0.5318249315643954,0.9315300475833732,-0.17063284999810246,0.9832424115533616,0.19832875147670603,-0.32809731133524234,0.541740241977928,0.8565119982429046,-0.9525295860564938,0.1898156454169602,-0.7662077353545003,-0.6500669066869454,0.741352201324942,-1.056992240498673,-0.7570905055710744,0.5428728686662583,0.6396800653604631,-0.521274636487227,0.376572417246541,0.2941002816931377,-0.09224355839321483,-0.4423249637711396,-0.7190485020871892,0.22894993960244076,-0.32895858866855204,-0.9377212184856474,0.5005551224872615,0.7116519525153644,0.15887227809118712,-0.6586421526852932,0.8946530541487709,-0.6830071366291819,0.6828153633323634,-0.4273362926919252,-0.8457448109794601,-0.9516494105087111,0.6510972015578325,-0.5122659659271755,0.4398400098996123,-0.455638537522908,-0.5863583024171504,-0.5265177026311296,-0.16049820398687356,-0.7876956486766133,-0.7607771922244098,0.05323497625802213,-0.7396841867076955,-0.7529305057466004,-0.49539821753085483,0.2926390302870788,-0.9743821829668377,-0.49899158304699404,-0.23513424032033284,-0.4646759730438912,-0.7929468489721453,0.5641937456673737,0.15429145302856928,0.291928404756024,-0.6738820516623678,0.8816286997909464,0.16096598776167093,0.8953691433555636,-0.2703411594246083,-0.31916533632241195,0.8336302073502454,0.9695285289281775,0.8550718367061098,-0.7956622276338327,-0.8520763115785545,-0.3218505960082988,0.0736094736659937,0.8001769708433684,0.20546058469721473,0.2611343073378052,0.5125450055082347,0.8608987510430867,-0.992366652470996,-1.0204584283685085,0.7381126460060814,-0.40037770211015833,0.5477071183897859,-0.9967610836404364,0.786073148336411,0.7725466476646519,0.9431983837007999,-0.30949642055603177,0.902151708377111,-0.682868315031981,-0.3607416738234151,0.37298096619034654,-0.9140424871901042,-0.7590984286315937,-0.3749678921034222,-0.9374276890464632,-0.5697726730005146,0.44574914111586955,0.6213872389256226,-0.4331416615276924,0.22975475863785566,-0.9515335357692308,0.13842644446266555,-0.07249051693008607,-0.812448971800346,0.18789367168527152,0.008582161992961534,0.0385943386220097,-0.04799116355068822,0.0660774575120793,-0.09643095190613381,0.6161369556631201,-0.16720388624922125,0.5295963204506821,-0.11627242155203923,0.4172117270217159,0.16444606889842722,0.25528080508271095,-0.8131027859364829,0.5614651520470364,0.31043548189323594,0.26422425778951397,0.03300807843505735,0.8372780740213864,0.5529352101182229,-0.27055378119379386,-0.7262133467755988,0.9616037434664624,0.32577109202014104,-1.0523311404105855,0.12485161548677445,-0.6062544486299355,-0.5741509523283905,-0.46189258655297244,0.03649309119565244,0.35521927172718104,-0.3504309567621316,-0.4749980677338451,0.5675484160526953,-0.963243680528018,0.4110043216198813,0.8940671572967344,-0.6937923328239547,-0.019776231005635813,-0.9126909310567626,-0.32985609506828256,-0.49803345391205656,-0.2679276105016161,-0.4074763926615589,-0.029827915322778294,0.6252792543503625,0.5074118702430235,-0.8449272305185982,-0.4103144616647479,-0.9343251768889789,-0.2524331001284853,0.12880023501271176,0.17188023969483857,-1.0920109336227086,0.20127120774163706,0.5347027650976066,0.48340337644832143,-0.8557136698551022,0.43663110287406454,-1.0936937650748297,0.3815100521193414,-0.6578294867084699,0.6103031479207222,0.3113132381502244,-0.3973161312473608,0.5482552914539303,0.6655295507111043,-0.1432308046815592,0.8120604111194009,0.9104379751504663,0.9120371749936335,-0.8761601850018786,0.8223869508062756,0.2682210656881325,0.6572080438202113,-0.2921058819046614,0.4133491846176755,0.007836778488663158,-0.6904496769455701,-0.9927885505456133,0.284205431553072,-0.3083007711853083,0.6639264863349974,0.2061867456032755,0.6701083274800406,0.8094541246250045,-0.6004437653456923,-0.46328132694541907,-0.7737241788484014,0.7912892199441984,0.22164477871000254,-0.9046608026310029,-0.5972797341999012,-0.1770452686214976,0.8609410490525602,0.9639963422980884,-0.19804224885110194,0.41644045291446913,0.03598945735085497,-0.9676195475869641,0.6371664938384083,-0.7158961785929331,-0.7246979591023055,-0.1763375818815717,-0.6044847707584649,0.13718617556862275,0.42964486646564404,-0.02554775403229412,-1.1080254557059015,-0.305438052163196,-0.9793787872364129,-1.0220477824634506,-0.6583126964288271,-0.156419565433756,0.44293075844117014,-0.5163847933617646,0.42902906878162284,0.17563463992737335,-0.8359904422823307,-0.19388615253237637,0.9312424174334444,-0.9739803219016613,0.7671517753721058,0.8038981916378676,0.5146138250429135,-0.31259541006822056,0.23178898389255104,-0.787035607013997,0.6311106749939436,-1.0748551585258395,0.5244697960250451,-0.5611160433056618,0.5552387317063958,0.0431810348574091,-0.5986452411375441,-0.19535441139770998,0.607106119007368,-0.9842537355042562,0.15936787200484848,0.10716615027512466,-0.29861663472175026,-0.5433055532225315,0.4563391239480092,0.5928151357004943,0.6281911394885308,0.9741974173389445,0.25155470004733005,-0.4136168302606748,-0.8931957443990803,-0.7695888052904633,0.17938562363948285,-0.6064242313684793,0.8881410739047844,-0.43584802488187824,0.3189912576622593,-0.5234945289119648,0.7596621404770181,-0.1017606872575051,0.6624316192379605,-0.9357936372182957,0.07341611480589778,-0.8099571273268744,-0.6056871589697856,-0.34085730247260554,0.4461191323288971,-1.0220200008281917,0.07661789240080762,-1.013861835597881,0.5245996778930813,0.7375254581994388,0.8715731343992871,-0.8164957003210542,-0.8661399978432242,-0.6467987640414691,0.2538660584198588,-0.7547427752037068,0.8763091881780507,-0.3030362244657034,0.431369951699735,0.686652084800494,-0.7652653595478807,-0.1705766045885997,0.5620358408720139,-0.5437093933503613,-0.4974134869996098,0.17960867280003473,0.6418425967180561,0.5273928158186808,-1.0358717619992641,0.1179758471489364,0.09489069631939438,0.20978781491066897,0.5292751013326509,-0.09239394161686826,-0.08051230003293768,-0.7380381837031464,-0.1912568684764828,-0.5922271480542965,-0.2037513573309563,0.38205214190085385,-0.4482337717074712,-0.6005045808347244,-0.4863433777600887,0.050005365150288875,-0.025797547868103576,0.7471506193970545,0.9390733220995576,-0.7416850979677376,0.5047302340104978,0.5475912063812305,-0.3707810038509949,-0.1068537379945127,0.24862919587260557,-0.2322126251254662,0.5538428034333971,0.31958825212391323,-0.7372426449585229,0.5383249886569272,-0.1809581954136965,-0.04030291696158852,-0.3779411312189469,0.34220372565686696,0.14382723537520425,-1.0079800580033333,0.8739959457104842,0.3338579099763566,-0.9742743376964457,0.5550884973735806,-0.8419086161680093,0.8277812101449167,0.32963427956757746,-0.306380578941382,-0.8968870017257421,0.7991956570408612,-0.9351514984433105,-0.12775668934946466,0.7705129269979267,-0.6939384065635104,-0.44573737152521753,0.8227689664924378,0.14037681536153776,0.23391375856548985,0.8579867342155819,0.18313849188582523,-0.4028833009089444,0.5471034705105642,0.8884212302325597,-0.2390223363471706,-0.2579957110274943,0.03552841026623493,0.8978478468714114,-0.7177023988273371,0.29836486329377304,0.6032432637593276,0.25752451360491735,0.9213291451446671,0.574147659165326,-0.7988389811547618,-0.6552877891729165,0.5000952273943468,-0.36548255790727463,0.2613197275136361,0.24332717090495737,0.6144151036484793,-0.5512301736884928,-0.8560504535974653,0.28049587402246356,-0.5309394318531645,0.772648370849859,-0.7990578812985006,-0.7773180055698904,0.07983412824174886,-0.0387592667595359,-0.7693503307852965,-0.621227112483244,-0.01432280295266759,0.7927286799699699,-0.8877643984420224,0.2670354025637425,-0.851054450641866,-0.2001676847270342,0.7563037332300936,0.07166040713031924,0.2659943476902794,-0.5463902019928312,-0.6009236082681697,0.7024363741100292,-0.594789600056753,-0.5165920373930362,-0.19888133395319443,-0.5313861303757006,-0.10987862492261113,0.9690337854628104,0.8461887805870119,0.08837017585763807,-0.8144456320985861,-0.9238881825783447,-0.7687107745897621,0.7711755842176906,0.5946942508046449,-0.25911895455184975,0.29644895197510474,-0.14299609912563271,-0.98864622329479,0.19000766167095262,-0.744283440339259,-0.8871760899517304,-0.590126755315597,-0.6199420295814614,0.7389705318434725,0.07199751031192436,-0.7450553395974434,-0.14611501673558502,0.7326629864964486,0.7285915599206193,-0.30221431965885054,-0.17539517805069868,-0.24327810733179006,-0.6619691413222721,0.6293416635889788,0.7234182372835534,0.6113157104827884,0.8652309284535773,-0.97949107819033,-0.6032074480037892,-0.04993582912261328,0.9082997573926395,0.034506653663201776,-1.067860881582989,-0.4801338911350114,-0.953806113633711,0.6183225866218286,0.789270533103745,0.19796219251754543,-0.44483137025069946,0.16703469242183566,0.3558420016975512,-0.8002596875643574,0.16441297199123628,0.3279785076981731,0.2734228790916533,0.5709095489314872,-0.7756069463628125,0.8142977499643017,0.7452363197288794,-0.5246608931550654,-0.1191311909899988,-0.4680383762831959,0.19689548813421065,-0.13125404601706436,-0.2280283246117092,0.9777189147691536,0.25027530230058737,-0.7242949601131753,-0.2337831353006663,0.9352867212524969,0.3845880129153803,0.2526554551443986,-0.21090579793493427,-0.10922838926125818,-0.25354109664781277,0.22718634808277646,-0.44484321906632274,0.3896759159650012,0.30512130004735105,-0.37135940866457284,-0.35507771484471157,-0.19718538626653223,-0.2570120528751561,-0.9767731798949315,-0.8356723650369017,0.4370336986710199,0.3815969871400371,0.3257289394367937,-0.6286993998766672,-0.8918565081160148,-0.8205745671633664,0.22643912588432946,-0.6055984636399174,-0.9650892463807565,0.9736152344490072,-0.9053708768352751,-0.6784758224041338,0.17418287292294593,0.8099111290497375,-0.26243948340555856,0.22465891977771618,-0.4980643459888753,0.14408686808689022,-0.41748043863253037,0.13475400318695677,0.47888442133961,0.24817523355860924,0.6367852626666022,-0.9538655716737526,0.14465539952864923,0.4387205029169629,0.16088505056937896,-0.5804135284069045,-0.36441737010026887,0.7585270591039779,0.946020608728652,-0.767180780796497,-0.3695126872758012,0.9006933798088887,-0.8275743588451545,0.9378574952386511,0.4109046712398903,-0.6635008354069349,0.6432230295495173,-0.17572746149436066,-0.8261316839697875,-0.9915113198136178,-0.7765345869782018,-0.8450896317447386,-0.11385948615982473,-0.756027417800637,-0.30934241194562606,-0.5093416038767211,-0.22299872279591962,0.5347464994671315,0.20460838465295164,-0.5070384488775145,-0.8272007321621888,0.15830138907970873,0.4156058886263319,0.48618438408935677,0.18553541292832884,-0.5601059604630931,-0.05837621668924409,-0.01273609122129793,0.9134492856006398,0.8051697931174098,-0.7662513938099274,-0.5682019735262271,-0.5674445786882609,-0.43621451324633376,0.20203011727365167,-0.5671291679580533,0.24612523024207836,0.957446305658628,-0.5624996790932272,-0.2462930924665685,-0.052067739877421616,-0.8936163453622368,-0.364602138805815,-0.8631903069913917,-0.9002278241534105,0.47491599182301597,0.43501043175935816,-0.06241344817672382,-0.6254795361664438,0.6673871353084146,0.6227301408050238,-0.4886289765838154,-0.7625983842336332,-0.7430979113601965,-0.022842153913249286,0.9847013496557444,0.07181187654065946,-0.5003428205399516,0.8139503981591718,0.25681689748063063,-0.3486862263082098,-0.403489437412175,-0.6974715379565619,-0.09757085196785263,-0.26440927630838473,0.6780813039486442,0.8209765696628016,0.5432994469995365,0.06524822316575751,-0.29831276748133584,-0.3415115860959722,0.12352535110501607,0.7925781158023801,0.6364310516763313,-0.7036022021617196,-0.6664138518304553,0.43048860112141074,0.9785833715840416,-0.12543506196942567,-0.18755531328366443,-0.5548195116178867,-0.1161728000062412,-0.9847969578213951,0.3711322462077149,-0.9161721086767258,-0.8425573337442722,0.8853130001865221,0.5897190182639491,0.5955776442058869,0.7329018378999805,-0.34799513690418016,-0.0016460438635285124,0.8758051871374614,0.28633674300009365,0.683292690233964,0.7672084641900229,0.678718469631283,0.20020993677412513,0.10677204821633414,-0.14090498449899616,0.5343104894588961,0.21419157395950839,0.6525802825837143,-0.821690955277475,-0.38073043328673983,0.7908518743464101,-0.8367328770820572,-0.2131395935500352,0.030531292844636182,0.47686908082437873,0.48203977320396474,-0.5908032871324564,
6:-14.243759537112236:-0.07573933935510402,0.9548070702140823,-0.149950596818345,-0.6586504400855218,0.2553481783094038,-0.0666554566900206,-0.44481284949743594,0.5420642632735075,0.27728784771795323,-0.990981739106213,0.7219654323930131,0.982397739116464,-0.4580969309604703,0.33946535233532066,0.45375795233461913,-0.8708683949728675,-0.06519664296694216,-0.178496432395854,-0.3117634079381528,0.24061565902845383,-0.5239006238015806,-0.6283157589350872,-0.7540868940406542,-0.8948536308607256,0.4743303131495915,0.5177753135872436,-0.49219743745372346,0.388890279910995,-0.8828393038847278,0.980923549832464,0.25205462159095426,0.633452127599966,-0.6343928631441066,0.16457166362396386,0.9938521124963537,-0.5392338035238001,0.36425790522375984,0.7650361748199106,-0.4501703596909478,-0.8769330357329639,-0.5118477037600724,0.07997804394342997,-0.5122830545719818,-0.8217266493543646,0.6176895295766354,0.014827991149786633,-0.3761331653001697,0.7762006450509134,-0.7338614140634964,-0.7264463104509937,0.795778243563088,0.8085879027879905,0.7800279670716157,0.7689906728377409,0.763681287828595,0.006012778742631619,0.9908897871481737,-0.10072461769447671,-0.7153006580537536,0.9573387600206882,0.4175449083294258,-0.9892393631393559,0.1550624888530316,-0.017579252451545048,-0.5986885398386478,0.1041121584920752,-0.669700967661399,0.806378099043839,0.40223349146321397,-0.36088098497995896,0.11025947956808875,0.06377516310348552,-0.907429794744752,0.15503870052037244,-0.18464455199513272,0.8037879526378368,-0.14531011831931856,-0.6527081194345291,-0.6177597804616957,0.3721983044175243,-0.17667569967941704,0.22730441411380925,-0.12829244611683355,-0.6859558012470852,0.7083202085832221,0.041538141016077335,0.008454451762682141,0.27044644956917746,-0.708151257449935,0.7367858644118134,0.5619166392479298,0.23600166060733493,-0.28506006987657906,-0.06725130545480873,0.6292246512532186,-0.0019605300749879462,-0.5486754718406422,0.5991955773075309,-0.3042006220355832,-0.9033771194438122,0.21230251601622666,-0.06606460246580446,-0.27377815523007937,-0.7755230103846437,0.9345843103023986,-0.7010456162883268,-0.5228683047175873,-0.3718252214866785,0.47371666405632884,-0.5037395217478626,0.7263166219465762,0.7774868106484938,0.6588109930607842,-0.8492996192414364,-0.8239782772542951,-0.6630860221209331,-0.03972148025031252,0.5166249301269918,-0.5838503535500383,0.3039333556215449,0.180186818671781,0.635945745458225,-0.4781097053034683,-0.9292943728537104,-0.7043474251076886,0.449220542488959,0.6125213952819379,-0.8787449686268562,0.857688604301858,0.12195038063094436,-0.01990185545245588,0.09371558644962019,0.2841057749237618,0.25432359866935156,-0.4658311886608488,0.017257792063771402,0.47579463241015796,0.37745940023582564,0.8356598136113529,0.675882191288634,0.7919080248654624,-0.6831152634579343,-0.17971006179692808,0.256305461308394,0.1579432476501623,0.6725220459886317,-0.4052973701130448,0.7050032377921421,-0.18750733668732605,-0.03220417278092976,0.6406167075970858,0.5476619625580179,-0.4630368981365431,0.00200589352467046,-0.4624041709985145,-0.672862979732769,0.5025162348003571,0.6492223132529525,-0.18855229769939005,-0.7562799257285578,-0.13484964404743882,0.1727255647744885,0.4943526260527967,-0.8631782337008072,-0.25976325932181266,-0.0038739905894340843,0.5849340209248987,-0.498214442810265,-0.1557960877046538,0.1842127119630086,0.17395841634626807,0.8847453003572374,0.33405003545902556,0.04951644577659655,-0.6123111192266482,-0.30251874897950476,-0.7872037654657119,-0.16688978886275596,0.09185998689973791,-0.7327783423864727,0.2821314414017215,0.3355978679263874,0.06630545051671806,-0.17239526940619232,-0.4278703367719739,-0.6596499308339612,0.748314771765689,0.8057781832656027,0.26003090038053006,-0.5956941453085146,0.5037479095472646,-0.816357151001875,0.9316504175972041,-0.9776937201843348,-0.6497012137929558,-0.8246530610928474,0.8225782556911898,-0.5894144380366729,-0.38880419779057723,0.9809243803979575,-0.6169771652902852,-0.9322511413369992,-0.47576051372012973,0.26125189913220886,0.4407327809560215,0.5041209598084838,0.5569012368174862,0.22592044353106563,0.7741400789651085,0.7206489636412851,-0.3310352804533822,-0.791640687396112,-0.8591547978080861,0.4510065842305133,0.841436713930204,0.20215479340446063,0.8815751304463079,-0.4498034935237171,0.19609737383918285,0.6452860022589033,-0.3889891174811145,0.8953463818391315,-0.6392183399781394,0.646238072651006,0.7652410510692997,-0.5264171700387039,0.99115631506397,-0.6979865262284513,-0.12143071434591124,0.16879174135635003,-0.7083450217476972,-0.9087574775115986,-0.3067366745145436,-0.961851460523527,-1.1129521480863271,-0.5711008731099829,-0.7275529678851801,0.6500450061146135,-0.5944145993410764,-0.0782097776266002,0.5421576218323353,0.2847494989221888,-0.16546715030995965,-0.18247044427093703,0.8522597809335136,0.20853079769158744,-0.6054995213583672,0.299073235937478,0.22365300131634686,-0.5543635453256597,0.27002372184849693,-0.7787557938311988,-0.6022940722517208,-0.5354941325377912,0.41012859821901065,0.7045910792828466,0.6915615707163241,-0.016382221045485517,0.7324035998274192,-0.2182193744152238,0.8433780819641312,0.3540966501534696,-1.0859607536203868,-0.6978904207272396,0.09071519167454815,0.3701005360344504,-0.4928771570272336,0.18787542990077383,-0.13588720009260136,0.3538154044752595,-0.20675591651750247,-0.32063564582178333,0.8759567854697465,-0.9446525136521503,-0.4734851636943127,0.7203697249024777,0.19446930335706517,0.23142784420007095,0.40167260910086733,-0.8390848684181943,-0.16597679095205134,-0.5010751043514354,-0.06645573795686106,0.5733159784543722,-0.031911243154107656,-0.40192805799175413,0.015616499726645127,0.7624405087411348,-0.42674203756123696,0.6280700104666815,-0.1122473275132134,-0.4910497257927414,-0.8408680762861322,0.2649207564538534,0.0781041029517021,0.3612610815743921,0.017683266589930288,-0.8707467478405984,0.6808425181504987,-0.09039233227561648,-0.26756391634178683,0.9961253499768098,0.42311377456018473,-0.9182676049749466,0.30018709381588166,0.26986447222183496,0.5716810715834483,-0.2687487654653324,0.9443049014282208,-0.2040866398123189,0.3810282002089583,0.6050493553943999,0.4770872783129604,0.7792361398483763,0.22446805967517924,-0.7016787855403258,-0.47219017917224265,0.8398413058492887,0.474669401115801,0.04044074737857496,-0.6921118900125233,0.12238227213259019,-0.09004902614367684,0.27546635671084035,0.4673927090457896,0.26961127885898484,-0.0374660730760849,0.7661068645696306,0.3669916584018901,-0.13103431143630903,-0.5132047072698279,0.04221652882136851,-0.6657244726127238,-0.35980499712531,-0.7322750083975424,-0.02352439635880874,-0.5822223902354938,0.33948348659632877,-0.32287473508390657,-0.8811883012117337,0.30934001363850255,0.9549420141299895,-0.33926849897517075,0.05531738075826196,-0.7518882348952626,0.81082311482233,0.3286542914782189,-0.024515507177761946,-0.809976977011313,-0.17937224993049358,0.4450425094160867,-0.6928264651566903,0.4606714540371205,-0.15932379937702495,0.13226886876014024,-0.58353800483699,-0.2857211670920286,-0.6368322466088038,-0.5348333577491983,0.9812065128835825,0.8632519834256744,0.6734523937905651,-0.21959538712792198,0.9965233032895751,-0.10369719038508096,0.33456426300877684,-0.3427114977021022,0.6420425591358404,0.815935776368955,0.07338770057227299,0.8504990734517307,0.37492879455333533,0.14689934359939272,-0.699249932285454,0.849518931764046,-0.10065694806830926,0.07413187844834038,0.4959014012144388,0.12311576072122112,-1.1479000493069238,-0.16703117252481545,-1.0428459794485114,-0.5864962631814015,0.4268563386479847,-0.4245051313036577,0.4155878099724564,0.2619573787999775,-0.2765156450934366,-0.4061329180339683,0.11673557193528233,0.6328494148761687,0.4679556868982253,-0.1634941616651462,-0.5938091331622187,0.5331725893118845,-0.458930230573955,0.518452541447997,0.32002624284963466,-0.7778293851939267,0.518601532592289,-0.2304927846975873,0.34773182365300587,0.2780772623869931,-0.5108844085887554,-0.9376857671372668,-0.27900020562459305,-0.019515492071711073,-0.855161893799141,-0.012354541453552085,-0.17327873751857037,-0.14241691004262208,-0.7509285149161918,0.9783352853009529,0.37741446014337016,0.33079892594183485,-0.7677034022715167,0.5288255719760683,0.7715349692026172,0.3447967605847805,0.5395870398673421,-0.02064046190189673,0.6644037089672216,-0.5267757935650857,0.9189964516557194,0.5072195263207128,0.8530591743453481,-0.7263956706570645,-0.38412799214376886,0.3949324546857766,0.6362564760366057,-0.8232681019863453,-0.681078567211398,-0.5269382303279231,0.7411785953059323,0.06827283860487043,0.7659074828326342,-0.06744493886945964,-0.4508978774953651,0.29182250985090524,0.6450919838138419,-0.5608106925748096,0.7847728218431683,0.27134174502120423,0.518096252860883,-0.31555683945083524,-0.3456150977242634,0.1941708447071642,-0.9358123380258707,-0.5357298775533763,-0.6313176605454383,-0.05598404275089984,0.8965493949567908,-0.4239994991753365,0.42090197391476813,-0.19255205688565047,-0.9718861796453111,0.7070251355116959,0.3488590514689783,-0.1887571336487126,-0.620359582028939,-0.6842799302864175,-0.3085841944952813,0.7176078553818684,-0.6669976556780932,0.8815852149782399,-0.08047745491371343,0.02659697302047193,-0.8271238560904264,-0.4215788608337663,-0.5680512548224046,-0.7425860785665622,0.208007277268665,0.6767916283860345,-0.2855544679660338,0.20363818171052117,-0.6047932148067866,0.720417534025682,-0.025432071369386095,-0.4152751577668565,-0.27827955068565974,-0.023532970523490914,0.8300084415374476,0.46328548392592184,0.2295932214447528,-0.9072348193534179,0.7453361727463329,-0.484103820458486,-0.4798468506106981,0.79408524114908,-0.058442006749558774,-0.9360354699063334,-0.5410938685446397,-0.6350616641343084,0.5315409647926937,0.521943508225593,0.4257563318175525,0.38939009705085065,0.8486393098591125,-0.1542162665890286,0.8643245343243677,0.9536429715027445,-0.4335425006673333,0.08157253163136156,-0.3174639353902742,-0.6986957649220602,0.8314570092908377,0.4516073590989251,0.9213835288269868,-0.7079294730734867,-0.2200965487528051,-0.5422481240260879,0.13424773440792107,-0.311639660146459,-0.4666290249749254,-0.14177144917334933,-0.5853655061465176,0.6458512983403267,-0.10893725743615865,-0.5922772717661502,-0.886985167061673,0.7808674882942624,-0.8407257861450584,-1.0524606653605688,-0.16994392494984223,-0.6670259970326722,-0.9480056261569386,0.6062325432432687,0.24148874549114582,0.8576707975429202,0.5588199816589107,0.28631257081212436,0.7439125206804945,-0.20082937312327503,-0.2756245720539901,0.47127821832152256,-0.08647115009317363,0.4544775169449957,0.56846175884098,0.9511932314042131,-0.9332481311621084,-0.9582318019363135,-0.7270853396469761,0.2867509677889659,-0.6739416810172868,-0.9333026772880162,-0.502844097150704,-0.2048627785291256,0.30482798479293455,0.06033118396479237,-0.959787684916793,0.3646801706422156,-0.22911430474782626,0.21829293039465889,-0.2943891287365263,0.8238297693388176,0.15405859472671427,0.052108934582886665,0.7953996442702456,0.7595496479873731,0.16863892555702234,0.8841374506158848,0.8138717333663338,0.8810511142752778,0.14082697632554714,0.40133015234140623,0.5950051928052208,0.014381135418876452,-0.7138755128480501,0.25382706975081004,-0.9297360628633085,0.3813771863189313,-0.38897319736805525,0.2923242956790878,-0.762403708337808,-0.3401973606311118,-0.09449539826366464,-0.7189841047008692,-0.6426082454193244,-0.4990514971317993,-0.34830346616108443,0.6556129626968281,-0.5468847733225228,-0.7247342628682858,0.599777415764302,-0.8767262856605228,-0.5340229658408137,0.18913645582607133,-0.6721238666222735,0.35863960365455166,0.3269953581619238,-0.6884453815132221,-0.133287464711342,0.2666154527214496,0.44956991227601667,-0.4370509649352793,-0.9106230177715329,0.43251246434296053,0.22492272545871594,0.27205877933639466,0.519839667646452,-0.5253294272305493,-0.03299489476920495,0.21163517526781808,-0.3481004565176871,-0.6217119335303596,0.9628913352598393,0.5673508776311534,-0.04632097025939072,-0.8168294768276888,0.38301673934055885,-0.22890432861826757,0.19946420501373982,-0.6049747612731073,0.014074929116659973,0.9135602414383018,-0.5791586834749117,0.90091835437059,0.5886552033008778,-0.018711628661271178,0.29259910028850455,0.3830372066454593,0.6750810445131047,-0.9619698661712887,-0.857732550426588,0.24020514097203438,0.7453003176446925,-0.7793719468274508,-0.9476066058255632,0.10086915615225017,0.7561218969887931,-0.7354004819149789,0.24145856782325018,0.317620068257948,-0.8437755278362409,-0.6652045060095494,-0.7093429852418845,-0.9895817176098006,-0.8543004339628818,-0.22089390376763351,-0.21126047091151254,-0.8515214017919751,-0.7177385190417491,-0.23022247106016674,0.5788240047243717,0.8920416847407342,-0.34352027125762263,-0.7752618871263065,-0.3900786599758994,-0.40445566711299513,0.023569156187231755,0.9015372311904193,-0.3291918873916786,-0.8786811466725322,-0.40994628268205247,0.1636238476145625,0.6739750586011385,0.09375932407171032,-0.8474562152517428,0.6502659623300676,0.5566498519450022,0.3286510209613969,0.023079652299081405,0.5394219975258067,0.3605598341711658,0.30398413495634913,0.8067400861091893,-0.9795368109300228,0.3170334747342534,-0.4640517533312838,-0.1761815386936122,-0.6869402862378499,0.37900865360830704,0.37912695205749425,0.9336305526036033,0.26512193021279773,-0.0067039206455668954,0.6587595341935594,-0.7819532612460955,0.28194713081010037,-0.3972588188904777,0.6372306827803798,0.6754485847432559,0.8480796169289029,0.5258496848938986,0.5549832037086618,0.2371302223652811,-0.2436511884893308,-0.43389835851980096,0.6752558690354808,-0.36885605765809104,0.004383410474512498,0.2564827034264845,0.09728198206792846,0.7613995264742756,0.522848135469458,0.8702225941276712,0.51136087682721,0.05600909529035487,0.9019529720966348,0.887673165468617,-0.17685858806400456,-0.3171523595474164,-0.23020809649273977,-0.6288343933819869,-0.3719495688767809,-0.1953204825971108,-0.7000693941603673,-0.3293143863352283,0.985991712931921,-0.5977168007968393,0.1169159945788619,-0.39438950182083754,0.451655351567934,-0.962827059039129,0.7602302333572439,-0.45085100840518766,0.3082050638081757,0.4196729321079735,-0.3897311985266349,0.38302921760529784,-0.6258081251731781,-0.7687995421709625,0.644322028749856,-0.10017200507278885,0.07001592650481683,-0.1459933765702933,-0.8565913675170715,0.5574075489792099,0.8128611192832484,-0.6486669390365634,0.29076963625499785,-0.9221325242715834,-0.7502235635893375,0.7725398477186112,0.7001071716883741,0.779255261988754,0.5121183345088404,0.539435671660786,0.39247737172053887,-0.4905225418948813,0.048179774065769704,-0.6364655924153311,0.9995842309989365,0.7107485690921167,0.5209749532571241,-0.6798229808753461,0.9254109829201835,0.6493179624705628,0.6386933799869052,0.1740268211734465,0.6431718258566196,0.06450855643534867,0.9988184386423007,-0.4541281210137398,0.13259300918534334,0.9455785462326136,-0.6027297409525618,0.039908709199418135,-0.8051535489619401,0.19615063895725893,0.39239573588228654,0.07767725665427729,-0.48076413205591106,0.727969552723542,0.5442100520962642,-0.14918700394597798,-0.857262217895135,-0.4875894550413951,0.05824171030881587,-0.4566525390962984,-0.743928682652642,-0.8682092536256121,-0.5941799892058209,-0.22716277636155036,0.1869244412649794,0.45261563490802265,-0.09915339820916635,0.06092887930674676,-0.16958166237013747,-0.8145296170817644,0.18379496100685633,0.06779557153593285,-0.20116050138954078,0.3013413751755507,
