3:-17.28016629353785:-0.2365207008815462,0.10914306702257148,0.12330898190948592,-0.6361024229250891,0.22121177974591966,0.9669474935372053,0.5083519769589724,0.9618391081423923,0.6407665540626974,0.24476797127706162,-0.011216617253053895,0.09751377480432577,-0.06436890738541169,-0.14578644503314012,0.29332266572287824,0.03945851042777937,-0.7670981503301186,-0.7788178790074558,0.5707603545238944,-0.27062312087575613,0.9264773672056066,0.9199752161246839,0.18026972558734555,0.837645235946191,-0.5243171266563786,-0.1165739017572971,-0.4421305937498321,-0.2390480292662347,0.988206581234413,0.8026278247347769,0.3668614588925767,-0.5850867243806417,0.41724206236143635,-0.6135115453940336,0.08733536195546114,-0.8625982585072518,-0.19375247673808632,-0.4795190612223953,-0.04040592547880134,0.7937118677726921,0.4307486470517686,0.04528681921423558,0.767860875697683,-0.7375479074351756,-0.0848742891289483,-0.12735323590384684,0.3414923826185464,-0.11753736259633848,0.4433456020096578,0.4537156492413044,-0.17316386506099402,0.15037689636816587,0.036105295030854245,0.2516717322871185,0.8353423550778125,-0.009019274612665384,-0.46711509664296735,0.7803316421369413,0.34242244097628216,0.2514824515853952,-0.6040935860586878,0.03197378692816768,0.8890189478796877,0.7283414339064717,0.7440223545566461,0.6655540324419248,0.06359635333265932,0.9943590388802054,0.12350611004196918,-0.8243525060523169,-0.5224320560165551,-0.45282324526843853,-0.5270427414510326,0.6218306141107665,-0.23337929996098822,-0.41951769221355467,-0.6414889990499746,0.3771990237099756,-0.8280787158670259,-0.10097872750751455,-0.7116682840490305,0.369996873745953,0.6550516067117931,0.07337758281388074,-0.9231046425499918,-0.0612137934481618,-0.06912934195472006,0.7631005159485353,0.493311056126628,0.015348024759157551,-0.2513688142667476,-0.7188013618796183,0.32027839164072336,-0.6696872098300078,0.09689727000517169,0.44309473028340973,-0.41888198803241383,0.5729078454173927,0.7333014932382874,0.5057332692551044,-0.7119436631091768,0.5623945822157862,-0.627333818719509,0.5007609318502427,0.2886467241652703,-0.4822839841485523,0.13990556185230735,-0.5696730227948688,-0.5327518476498947,0.1697308848824942,-0.3425726552926543,-0.43652058557842355,-0.17951492394480906,-0.346609681212415,0.16886983809575648,-0.8976071100673515,0.3864940059808771,0.00840741097086804,-0.6713899631360166,-0.4216368047157521,0.5578848245668389,0.3809792679129624,0.19238197880090344,1.2170751253854335,1.1939740904622795,0.651705513930613,0.7396515437742576,0.6990676953131303,0.4242529078198194,0.7076829144505253,-0.4151828450514053,0.5437574978021789,0.06510374112951726,-0.9897218319032846,-1.0104940162931844,0.4292487720182531,0.7502266168197247,-0.635805554902234,0.7487103745182827,-0.03964468306443393,-0.33705448023819096,0.7490841930453578,0.16924793482298042,-0.7777751703111383,0.4170997284618312,-0.4831113662796282,1.2312800271013626,1.2813597099269838,1.1767496719918247,0.8327960257794069,0.9596188326184332,1.2149358213521535,0.4373476021100517,0.990231614798544,-0.565039656490203,0.9864095444694841,0.16948040911557716,0.13359541614354456,-1.1785974268208232,-0.4981614995470988,-0.18831310518196112,-0.2601635497062247,-1.8624078333683063,-1.350377976900673,-0.9039355159634845,-0.2962183647218562,-0.019816845293912123,0.33865056020289996,0.19119504168990376,-0.8025083952666777,0.45943864486095976,-0.7039149462936999,0.2707281310314054,0.8542391094145064,-0.3090801977831579,0.7812913971850289,0.8321591486604876,0.5429255845013874,-0.16103136430408627,0.6897951041918255,1.4704447172801989,0.38074940002338675,0.3272803700540229,1.2019036315472245,1.2331010011455537,0.25378469890628985,0.8491249945701929,-1.2808178486252049,0.31987048572220544,-1.2164790574792221,-0.9832897183055782,-2.040318901308795,-0.15219502652701444,-0.2543957588269871,-0.10198023080245838,-0.43470612781264234,-0.6699779095800145,-0.8236210689751843,0.6517078307482241,-0.32434666788625377,-0.11871452583019941,1.0850121922533538,-0.29279179628511476,0.6380927931784119,0.15138387648671206,0.4497781510679655,0.24361275216832415,0.6543691804698429,-0.14411486434821075,0.6295046212816287,1.3738050378247906,1.354115960756014,-0.023142246882910982,0.47755546128804877,-0.4660756596581278,-0.04358490068714688,0.24010250484556317,0.2415586401860789,-0.17369853710969038,-1.2632778823276556,-1.9065426129141065,-0.08370083720164546,-0.6397760804002124,0.4586735106813652,0.6712628953781832,-0.7281110632249107,-0.41260820088019845,-0.6436086687087025,-0.026110210327973064,1.4148797873053789,1.0481498453758622,-0.7445077310986352,-0.8670524874877757,0.261151125456267,0.3770110247491198,-1.432761928607337,0.47106149707044914,0.4715922691228413,-0.23130025058925896,0.4521223899387649,0.6778083584993982,0.11344316661813399,0.395996301760309,0.8598401549883483,0.607917104556161,-0.04159441405249661,-1.3800564740855121,-2.4619735537903003,-0.8551860542817528,0.1349865553045298,0.37718550065070566,-0.039222292950254686,-0.6472978754386495,0.23389101389193473,-0.2653353494408369,0.8731242355299232,0.04411817498397354,0.7796082161264029,0.1442356593234324,0.4358684608325927,-0.3076956440692655,-1.1736443871530846,-1.904432882069119,-1.8509069992665774,-2.462569335939458,-0.7339458504837509,0.08030556679321244,0.4316497710111,0.4103961033605422,0.6889923253091326,0.18711495143331766,0.9934861925175833,1.9226254539979881,-0.012056561678151606,0.32676220719046595,-0.6787837963500543,0.31041150511300997,0.11990328019907572,-0.32987423071085403,0.2931851976981617,-0.10150124727001389,-0.5203275198593242,-0.6505198595485976,0.6751486479233564,0.7947677764098209,0.5685624575923417,-1.0151284498565538,-1.633294139240036,-1.7536954412225871,-2.2732359585086606,-2.6930497352505434,-3.857050442540471,-2.3133561732846766,0.14327492469648348,1.417985861057879,1.6220471019532534,1.0159241802093033,1.3469039705485595,1.2279063916500244,0.6819413408329882,0.5430680992420293,-0.11531299289997955,0.706463888699629,-0.5843164674309455,0.15047016876426964,-0.07880897398173807,-0.3385788379046406,-0.8443165651900033,0.661461247634609,0.060796403936733356,-0.08407197651755521,0.1667400516457096,-0.6589059154464236,-0.6348423968651375,-1.4481847080435555,-2.4824610510544813,-2.9411836186925804,-2.2631786601554538,-3.0255820237386524,-0.8090998885703778,0.22837725250975108,1.4746986694195015,0.8920371424311181,1.637891421489505,1.8520520394118305,1.5016936953040791,1.2261841353693554,0.044616047322395165,0.05181323512468192,0.17619849971825358,0.25644520812723914,0.019841699193660127,-0.4564578510266086,0.7174159315224576,0.12672812023808314,0.3016817009426001,0.42350271512689486,0.9488650759053644,0.367489646016528,-0.32935166131879706,-0.7976426130949308,-0.21651856343924178,-1.383935579286183,-1.3111243580156564,-1.9870685788770366,-0.9123055688087209,-1.4842690582597708,-0.014103920618020844,0.4619574301917272,1.4032678550056976,1.3730963767546356,1.84401366800283,0.09037063337994478,0.7465340233195218,0.349582522692752,-0.5383828456225639,-0.6105608271384556,-0.3015152492870544,-0.7245773019917238,-0.7459246322589621,0.5878617645999493,-0.28222389203352327,-0.9713564200454101,-0.7125232911488466,-0.6858696441257371,0.9722251296288478,-0.6577575446844922,0.18704142864543222,-1.3640709039178276,-0.6556731079604788,-0.1521495077713088,-1.6238148098383884,-0.6282603157533498,-1.0457011498059816,0.030423095684147975,0.5144163905386335,0.9597165662324691,1.077217276608945,1.9024746775139858,0.0330079870534451,0.5780564516112607,0.6586650675221059,-0.23124093296389167,-0.9160267241419376,-1.3167860671137301,0.03645195535899079,-1.4321737479879453,-0.3797904818886883,0.6147954166776382,0.9675342525446983,-0.11577168929980292,0.8428092484679256,0.4978344077580231,-0.17526944973080621,0.6963974279257855,-0.02211707892121247,-1.1253600287330057,0.2898152731453301,-1.3800567463011317,-0.5044680044362445,-0.09471929979417831,-0.5894915113663743,-1.214159516729491,-1.0879141365971505,1.7248069885779516,1.13765644550505,1.055464192702172,0.7220652335338407,0.31130190723784773,1.0833699652973179,-0.29023473501401237,0.14089644068367285,0.1494573429037515,-0.6795745065781956,-0.5813058257552135,0.27918300620316844,-0.2731446277397649,0.01776924080620378,0.32657310625717517,0.14811922967143368,-0.940240554724995,0.44047783520680134,0.7370486383492021,0.7658107929770509,0.078409057023131,-0.4992334718654198,-1.5724300297196465,-1.0825919596752236,-1.2992496634741966,-0.451844365180965,-1.5858571501057734,-0.2746508138814939,1.208439306916728,1.205146824728783,1.8731107959213713,-0.6298593496898687,-0.4694587477012513,-0.7925312348706618,0.9860411214136957,0.3574525676761732,0.5569386162221496,1.2298371153530685,1.197803961302894,-0.36375745612328436,-0.35820120682179235,-0.7883221283273578,0.5602435882209509,0.32905648700609297,0.1850560550146886,-0.8113196168722836,0.9855870684747267,-0.0270795397760056,0.7890323159215463,-0.7944541872959162,-1.1204259435977422,-1.7153196144552896,-1.6823935573898254,-1.0195601776305938,-1.017656164201154,-1.554459720124502,-0.5106781149178848,0.5647844507634876,-0.1892669994737983,0.13461066556559173,-0.5513473806048159,0.6403456924788765,0.912516028252916,0.03501314216258353,1.7336686718155923,1.061745370559807,1.6110031654208998,-0.47145865260245434,-0.3847584263983718,-0.3726611507735442,0.9529911364184658,0.6920801376030326,0.08082592336177385,0.8283060668178707,-0.7214133535891479,0.10535520289322546,1.237611494488505,-0.858763813770152,-0.31336500122226885,-1.5778416944764146,-1.1811599377026316,-1.727994410771003,-3.725941180302256,-3.1059371331499395,-3.7421322511195543,-3.6046007162334406,-3.1333297754676717,-0.5017257136199704,0.7105992231496304,0.5797118781583197,0.3438337544515774,1.7268942739888526,0.7379932290587695,1.0722572031958115,1.1478385301337912,-0.05802945837658941,-1.0390573404102768,0.2275562155744134,-0.23536388810591827,0.6250586459525309,0.1305901413922351,0.5700723364480417,0.400467850580912,1.8269647502342488,1.8828719617368284,0.21855167708409595,0.6581700871545332,-1.610053331118901,-2.2277691356263825,-2.7565202843029346,-3.1603960946901526,-3.697661655909818,-2.798060165623301,-3.4775936845890554,-3.192953354948614,-2.199059200060846,-0.08552552414051352,0.44394676940886185,1.1509162612143538,0.010749467342549097,1.6224695370626805,0.9041149857521041,0.8182639920569158,-0.22457129362242978,-1.246509314554568,8.551418216014063E-4,-0.7253908154667217,0.674599371144714,-0.5002746007430412,-0.6002543741343433,1.1940639485121147,1.079910424706722,1.9298871662211132,0.11879589535980431,-0.5214567090795178,0.49533277639606443,0.2731051565648058,-0.5337884280470913,-0.8232827423774233,-0.37990140999272576,-1.1574618447223632,-1.5610801108341577,-1.5178040483596926,-0.6564804075603208,0.1429031159515708,0.8674775539326974,-0.012801346241436985,0.9334807676436256,1.0347779298868953,0.7147393148977678,-1.3243528373667754,-1.0327186168552283,0.2763370949508704,0.36385085820348695,0.849963734362638,-0.9117223633517547,-0.17367219232576714,-0.5034278717481037,-0.037799854457009854,0.9812689892023113,1.3194404110324758,0.9602544971413275,-0.07590060771299059,0.4421307211212076,-0.7242500484040639,0.8040598991246665,0.2853812665418581,-0.1385431934033341,-0.03515412387449272,-1.080908648762112,-0.10687913041183779,-0.03827576040306624,-1.0426294091961454,0.3412555599002137,0.5371675634903996,0.09212598373355874,-0.025789051673281934,0.4489674061449584,-0.46723489817063746,-1.5839019648908879,-1.4921430987123423,-0.41514746579969,0.8376229015729387,-0.9302384776636459,-0.2645179047992863,0.8614021324669331,0.200676931699827,1.5135432872742978,1.5342646975209915,1.132742087154129,-0.014276853907879248,0.11830223199809493,0.6980408872539753,-0.05012675400797383,-0.01605115140395869,-0.32269129040409256,-0.3068530734633552,0.32732923341640885,-0.36665974383931627,-0.3334459991099058,0.19195875315146724,0.1824516042140805,-0.008841187029043596,0.16149215769581068,-0.2539284525242619,0.27035036914177946,-0.8886848132790098,-0.8423499526832567,-0.7915672242711937,-0.45110757770910326,-0.7361891927792263,-0.8495124958751883,0.7059255380925515,0.10109227827426215,0.5972202093063073,-0.12561050377092123,1.2327338742827296,0.67474290262395,1.3496522039849603,1.0841375609300614,-1.0212680572291357,-0.16753901258163262,0.5105336360405545,-0.0456927186568645,0.5251952470758158,-0.3756003120533391,-0.04002611342850281,-0.1130044527459475,-0.3139113216835882,0.8956218023226045,0.127685902715049,-0.20382174186023405,0.7362513275353885,-0.9386800428969015,-1.129466117827091,-0.7767213038124464,-0.19690189844081674,-0.9049088810975942,-0.8959969502909637,0.4140215044255473,-0.7033834785533206,0.3570637117653708,-0.513533607253458,0.8796164707076668,0.3117990903061118,0.6107375263030489,1.277704068420849,0.8474186457893261,0.984161827563088,1.1678119753149871,0.5413627353677981,0.4921536035755871,0.03762946968059242,1.2432320651153785,0.3857652338698467,-0.6904412131469686,-0.8926670842221518,-0.005044201886107986,0.9109064363685733,-0.05256860729020415,-1.2281369578570396,-0.44782808924641043,-0.17533969450195358,-0.49074312311312684,-0.29640675007744577,0.010210063180461896,-0.5992327100761834,-0.1623851551413853,-0.09327183775285142,0.8147945097826552,-0.456881578565843,0.6045210929534742,0.3657272188200118,0.20106878817535534,0.30381063942473513,1.2222687003948818,1.8619209832348933,-0.12224487249187341,0.9861483596894933,0.4579983415737688,-0.029227512446475992,0.6846679689800271,0.03239589697034023,0.37691526096284694,-0.6377840506395853,0.6617056308732093,-0.25772398819008335,-0.41518217736371205,-0.46313927453633297,-1.1777000426174649,-0.4411263386058531,-0.05153808465610979,-0.316948625273058,-0.9518022526442792,0.1733979569641485,0.7279778214270467,-0.9038921094593835,0.852272979256925,-0.2544460499122871,-0.8841268975426878,-0.018094871645997247,0.904824630001667,-0.27604266472023553,-0.06822873386112369,0.2720510817435479,-0.5390132254735415,0.8766411374517404,1.0107838577901527,0.7615203361189857,0.12821824416876168,-0.26699820455008216,0.5284889884073602,0.274791102765713,0.6909518452780196,-0.6793120184393847,-1.2032803599597692,0.4627378889894619,0.18470118058225748,0.5792013321592496,-0.2577210570888473,-0.2101820233356865,-0.9871673643915206,-0.41588444771938216,-0.8718444472859082,-0.9657448691461705,-0.30830373943429357,0.7494384083935639,-0.8007268951029434,0.12567446476469807,0.597854161657479,0.28910030753805044,0.2512535900904031,0.37596864808258157,-0.6595054154113581,-0.5600643392449095,-0.1310469809858934,0.34495876725553537,0.2330992243558574,-0.07194799806388455,0.13803112908269102,0.6243687615176579,-1.1913878269089786,0.8893658902969035,0.5644568960167994,0.41829195791041685,0.655172610185299,0.38148625526989055,0.534214023435714,-0.19938782654507053,0.22928948246775782,-0.4797415419891864,-0.8394142103041597,-0.12561133571551553,-0.5869522766544695,0.9412684992413367,-0.9142460731599118,-0.47119827273501996,-0.5887991461916027,0.4386411227919512,0.04453067252983387,-0.21420367487948874,0.1927188212444988,0.5593742272139235,-0.5136806941510462,0.08399180435247855,-0.40874041340754114,0.12227448865461094,0.27143079166149336,-0.35494576928342064,0.789156673119209,-0.9910324856770382,0.876560450875642,0.14209146165631859,0.06365177201636096,-0.9843017430572034,-0.5391412514902797,-0.6245639334864375,-0.7002874343445591,-5.347599307241602E-4,0.5467562717487717,
2:-21.713134120628844:0.5607255152359039,-0.052196847541056135,0.06495343844692147,0.14795119048996908,0.45016561896562357,0.3214445031290676,0.20254459768509436,-0.24998116974982842,-0.6437237545095731,0.4899283864973891,-0.3147958289023618,-0.7797682564189692,0.8187250583081698,-0.3679486723844091,-0.010876238584795117,0.04058639227481493,-0.6450515607636365,-0.41702736939842167,0.5430036572884454,-0.5311207591326321,-0.3270260158502367,0.8805329368320065,-0.9572675056603401,-0.965575542303323,0.6344199266367774,0.034300049971347946,0.3330468895393244,0.036436619808823956,-0.681436440348959,0.14215825482678834,0.49319568959186255,-0.2861605165955099,0.438759343836314,-0.4797261214453195,0.5702726954542208,0.45252610065339105,0.5753696357770162,0.36577156658635823,-0.47721397907046886,0.9034080233397332,-0.8306105572128695,-0.386357058828433,0.31890515987774815,0.126000448659464,-0.5690544600193708,-0.6882066352168968,-0.718995859396103,0.7400449143387187,0.1121362470779016,-0.9882098778258238,0.4205940318420055,0.3572947497452703,-0.5505653611302126,0.459923526295241,-0.34866121897611846,-0.2863164622051968,0.3247275535816492,0.8558505243366743,0.05067494716649484,0.7349615267058666,-0.3404890515015405,0.3361393627246402,0.9427076388950711,0.48940068279757876,0.7691714917669922,-0.2701968893071496,0.8039783610128477,-0.08858645072829145,-0.34166871371374735,0.5049371384916739,-0.9840772064156421,-3.3370915345954023E-4,-0.5949656714548897,0.38460322979684586,-0.05909946761000262,-0.2613521313837108,0.45398579242071374,-0.7196016326516983,-0.5693588489745476,-0.9536235496563988,-0.6644521186276158,0.4408931664622793,0.20647231640332153,-0.2513760058540051,0.021904468102911245,0.5341626135930604,0.12088880726707496,-0.35140576882993374,-0.07275810742190916,-0.4194485118218805,0.4025776136166054,1.0082600106832758,1.144566496876141,0.0726655899004745,1.2383344102906984,0.31286091368010926,-0.38569315672043636,-0.10290723876452745,-0.5375927847238744,0.24963651074378132,-0.33158602107586294,-1.3296204712465938,-0.658476137371776,-0.8501383704705581,0.11268013395654665,0.2198057175850416,0.05317457640352579,-0.6142406330470245,-0.6801096108215366,-0.3963987773115462,0.07198018697858048,0.48803962338984297,0.5012259140447797,-0.24489770078023299,-0.3293304956730732,0.8992958065624348,-0.05196433187979457,-0.9189602583665349,0.6710197288130033,0.5744950808050757,0.16201123747677582,1.2600253793448317,0.5796481036016449,1.3279125511982013,0.4001637874900833,1.0168764170547135,0.09767355471817511,0.8753921273600254,0.6572663909016466,1.016324233775198,0.705007026385537,-0.5004756495498016,-0.4700424412259344,-0.7269454065803276,-1.0351532658585314,-0.8426998172533574,-0.16342485237125193,0.1591516486500834,-0.6502681126685302,-0.24258585979269412,0.7878730629553625,0.490809768705438,-0.9735330631441844,-0.42383990412050193,-0.17721454026954167,0.3268185932544271,0.8796248991082322,0.6091691510620136,0.4562734948509641,1.062522783721663,0.8476294389445559,1.7585529932178603,0.6152492278372846,1.1261455986895879,0.9821332071736774,1.4873500726235607,1.4301080008970228,0.40040195757760777,-0.09550423723144698,-0.2280162561387151,-0.26548357527841315,-0.42835310830656836,0.15810557750108445,-1.1846915796903232,0.1357375467554927,0.3112670807192737,-0.9257575619843337,0.06963544363349573,0.6359223313037423,0.4965080899524598,0.5474155907079935,0.07927233607239062,0.8487038553051177,0.27188011930348305,-0.45691500556412523,-0.5133498309032054,-0.4378641610510948,-0.002850596645300041,0.9417308464420514,0.6580830997834398,0.6185041454477276,0.42374070739720315,0.34595835391227264,0.026610585965955197,1.3243592697846192,0.3884246508567451,0.6990831025953052,0.3390749010276339,-0.2138508519356992,0.3268874967415517,-0.716624914776627,0.06409192041997536,-0.08496036006091853,-0.3375189282780438,0.2994445312046534,-0.20771161528334062,-0.921291053970577,-0.8452012851751586,-0.1466261010333951,0.1651924071398615,-0.4241650387479794,-0.5187894371037327,-0.4273450427021997,0.21709194098675844,0.8773411877854974,0.9029197807404851,-0.1851721274001,1.0621502209276208,0.8520845768699424,-0.22206803571176997,0.4911282641864714,-0.5937258176148347,-0.8083304324098358,0.138527444280976,-0.3390463857115727,-0.8585289084404639,-0.4978295049310947,0.24269291289734415,-0.7922198440356407,-0.8608007078388825,-0.7868277332666677,0.5076168153484705,-0.9925770940859922,-0.28703986366909856,-0.7436237179664381,0.019204684191485417,0.3084307000581432,0.5759699501972809,0.45573192117685507,0.6522447909036218,0.6415975835134801,-0.3288978557585826,-0.12303840750269063,0.21266105630054405,0.6106694806749537,0.5342032607473222,0.9111877179257108,1.2411948596600595,0.6667988487226953,0.32930207946990814,0.527675755964677,-0.5941559624741748,-0.7808556088289511,0.3534674454762941,-0.21233263269084007,-1.174926945390803,-0.33026798239330185,-0.6014003844437279,-0.9900101695396332,0.14345298280402743,-0.8941731306129445,0.3993088770882436,0.505168643926242,-0.1005588290939105,0.5470575641741506,-0.8165594148697761,0.8790584797627891,0.7526464488072206,-0.43022555744996765,-0.7640765430760733,0.3793396856873812,-0.15600957357555306,0.5088638312517632,-0.08955109605412025,-0.33793994589369336,-0.7564158063353814,0.6012032822039829,-0.13638632035458065,0.048336207487861084,0.888326737648788,0.24249558275530114,-0.48329151026124806,-0.011436904329415444,-0.8854801268127628,0.3011260081194995,0.4731990188537411,-1.0994092195546339,0.30679336556137027,0.734817816483769,0.3480971181534754,0.3434158128657412,0.6524530026127783,0.23547976413109867,-0.648225319071414,-0.4206747725206174,-1.1150200347485961,0.3113308141994961,-0.9685216249316646,-1.0007463561783068,-0.6548285005973343,-0.24184149577349498,-1.0094825123394844,-0.6649992464976145,-2.0786270651797376,-0.9389539019326529,-0.002323850434410396,-0.43671559740415156,0.607470660241568,0.24482753592680856,0.24071617326346395,-0.7352487050090458,0.27925995450868657,-1.4517218595123418,0.02929164215763769,-0.2338606519764128,0.24931262624528575,-0.06636151007119435,0.28161568663637215,0.8270502105106282,-0.249300299412302,-0.19309294759802467,0.14303982180483782,-0.9352214148314678,-1.3121452947303684,-1.020853096386698,-1.6362895943334785,-1.4003589262107172,-2.5152249854252333,-1.6703444958283986,-1.3763598690358994,-2.1797401411887503,-2.037034048236293,-1.8917343841404783,-2.2254410530534465,-0.5044394926377103,0.4863771374294068,-0.30410110407040414,0.2757667395739039,0.09527818871333416,0.13647204390031425,-0.6114700019931418,-0.6098743800264422,0.4398613927089942,-0.06210888076962584,0.4764452342849725,0.9359621084215348,-0.22711518769948066,-0.5875164948027002,-0.24780193035592718,0.8466440120597188,-0.6828248469200303,-0.9813929506127453,-2.1497290018311985,-2.832789715745287,-3.069815856606274,-1.7937104188124668,-2.2653182987826592,-2.6038028876138393,-2.526704880215483,-2.0567957936171455,-3.4398024335818516,-0.7307966858430546,-1.1523087162417482,-0.7984422544668602,0.029590993614169236,0.2852549150359167,0.5664832730446291,-1.171618368919112,-0.10267407359794355,-0.6328304136947454,-0.22083276734989038,0.13108899710333427,0.48902955806827236,0.38903725882701246,-0.4392264096599118,-0.46016194893719503,0.831207009731181,-0.09232449819604292,0.33767208539689764,-1.996016190454226,-2.183197856765176,-3.3591229054537406,-3.1332589192836573,-2.211056036289608,-2.4952546620831777,-2.3613493934554177,-1.7584167600890934,-1.911288149047669,-0.35693975937799316,-0.9762501911821443,-1.4347896093707047,0.08020327458862354,-0.5811090956981744,-0.8131906036337161,-0.5609954185727116,-0.5452492728708072,-0.8202409392874408,-1.976295053640059,-1.0448206416712815,0.875809406365971,-0.07404804265204325,0.3634704565088187,0.6261655670580552,0.4506357430430928,-0.16634293974442776,0.0937590717036169,-0.22891972682143807,-1.9177049773899713,-1.38858161140865,-1.2073554846587848,-1.6985365258097058,-0.4824252850939258,-0.04064683183736341,0.712227267821411,0.8554544263466014,0.06335077187019575,-0.4022997934821482,-0.24333702647403838,-0.53062927480098,-1.464258704664459,0.12226442943741407,0.18127891409494665,-0.3396398795573681,-1.9776288639472739,-1.9060042369515897,-1.0074918942682707,-1.2368966300963713,-0.7248531535223278,0.41073573253844525,0.9897104365622637,-0.6575462573767368,0.5103890424045409,-0.6548675972234539,-0.19903689180164863,-0.07914867529486692,-1.1528155651126204,-0.013894584483410938,-0.4565694381265739,0.8970289606353363,0.17333319922239007,0.6598104525771413,1.3394117796343281,0.9620643437896751,1.8549001288692748,0.5841736778898208,-0.4855636558927406,0.06860132714234526,-0.7140979147216895,-0.4245819646618247,-0.7104143163024755,-1.206127809145341,-1.2109044359245347,-0.19739563353834386,-1.0106311255957872,-0.03155925424269677,0.825431898359566,0.48889999237563425,0.3501894611987906,0.767912411963576,-0.15101426830940562,0.48920295868801045,-0.74454193114429,-0.5167777112972997,0.12122249148272977,0.2702533621313945,1.0939091610521183,0.5371672808680404,1.0787849885842329,0.9473058322131661,0.1977595939457047,0.9702100828296932,0.5131300327700553,1.2531571642043662,0.3923426195481381,0.4983587114644622,0.23373260960257716,-1.3923761782542332,-0.29142099301727675,0.18762601858215824,-0.5145427048263722,-0.03209229266169436,-0.08708262069196433,0.8096068792506572,0.49871982435476286,0.7848494175273162,0.43431149035271444,-0.3050953118281421,-0.4903700853537148,-0.4369180395513069,-0.688044531945107,0.28153362108504004,1.2527647061983578,0.5309511725144204,0.47031375189524127,1.4172533139186383,-0.24587817136611184,0.1306647662939587,0.5377098236907958,1.4368255236076872,1.6117160951163882,0.5935642925766295,1.003700609752659,0.5502563136849422,0.9714340640653386,0.20738197682164605,-0.6978348250410172,-0.5107533364132036,0.38132545752765973,-0.13575490523361128,0.7771224073897723,0.5532042986483396,0.4155881399373677,-0.32120190082327404,-0.6370610295063358,0.5894303353226166,-0.3715963525433747,0.24770644407401074,0.27461515416904164,1.3472739357445307,1.549517880808431,0.6167540437172355,1.1350082815254532,0.9689956052461076,0.8359201983377959,0.7321295667957775,0.6657754961897494,1.7997081866645184,1.0460341770664543,1.0686417287770489,0.5109890671993077,0.4622192533516706,0.6165851856491854,0.35729153525169827,-0.04443146247388141,0.06275226772710452,0.310536785038546,0.45812367027827655,1.488698081329067,1.5614178278734396,0.11849713781181828,0.5528044278460128,0.734948832864075,0.3469868687631926,0.8485633204897315,0.2735194519705129,0.08363971981501563,0.7122629763183702,1.1088900154806207,0.4135995491736703,1.9210487539057495,0.30613489168188024,0.5747062189746082,1.2839097062185032,0.7570764958360943,1.2547722402391366,0.7388497027966142,0.9791794156133586,0.4837451096518545,0.7633842547708606,0.36706023269841126,0.10307067529010296,-0.2602347804480776,0.33453489891208643,1.2582119251618384,0.5873980451562496,1.6821996682039957,0.7180443171339917,0.8595255430916472,-0.7076330394895232,-0.13232319183143174,-0.6838297799950557,-0.825641997075939,-0.7171424866840646,0.3184166362422104,0.9379280498754351,0.6762652224567467,1.3892223134160921,1.4075027126776312,0.7282143669662834,1.413291379550125,0.4436101247940357,1.533780121064221,-0.5549166008702747,0.3904147324430068,-0.7337653970721982,0.3215332066866526,-0.33050825485965957,-0.4428527398421609,0.29818363985134844,1.193797762557606,-0.03941913295902709,0.24780300766073127,0.8137394648078287,2.0127824081559966,0.4669762920310288,1.1846846380624052,-0.8712362944372317,-0.11444414712099657,-0.24609223905238933,0.8073788419145839,0.807363414084829,0.33590283718831476,-0.09882630889107437,0.9313231302960744,-0.188807885906984,-0.2020873396076597,0.8392559207451054,1.0284442911156875,0.11916255379288358,0.7122007150276538,0.13959956612167404,-0.6257264633506636,-0.22654163848698922,0.026199389945179726,-0.5777076376120552,-0.5214358596503834,0.8321427617832272,0.9932313771740024,0.6997451192223744,1.3054291576713961,1.0695925382739784,1.893634848015324,1.198232869130694,0.1912715761498324,0.0329675134460924,0.21961507492822596,0.7776717469185002,0.314749694813973,0.2646150533056532,0.4608955000547569,0.1541976219472399,0.486632506599701,0.1790984404506298,0.761978635599503,-0.013858151195084439,0.0016774044260479497,0.8874826338322233,-0.08714397242790842,0.4947750577403069,-0.7744060541248877,-0.18256356198747914,-0.7960492667588073,-0.4982203558462684,0.09321343543888276,0.961703012534037,0.33682487805855327,1.7396841411084334,1.1736616550433019,1.3601076769580798,0.4345500100142857,-0.30246656266170313,0.7020684048341946,0.5785170304889655,-0.992392225636308,0.9664028091803283,-0.4439836002932318,-0.403396486792804,-0.6842973374128952,0.563706545732368,-0.8367876169289129,-0.5039943994032015,-0.003471920225800717,-0.847093659625961,-0.6611210992939192,-1.5581214784019985,-0.23027462060293383,-0.28390924834434605,-0.3747601206385137,-0.562999015225479,-0.797750915497516,-1.0153574266705148,0.4592021707444208,-0.38728172521953547,-0.23119519819244355,-0.16710914002392468,-0.3252090235140202,1.0826040225832356,-0.12275729492028983,0.5017965505233792,0.16791542052126154,0.9467819897182985,0.08926322647027463,0.038579263900540894,0.7943912897443304,0.5278139132364441,-0.4126551012754102,0.39530688626432375,-0.7015765528789036,-1.1401895326602387,-0.5452492965790001,-0.563345888485044,-1.6034779926525318,-0.9349954102294463,-1.196322944603612,-1.623124634302972,-1.417222113184458,-0.9952405688795749,-0.49705481903937543,-0.0550731884764712,-1.1162514396179444,0.15301879679304703,-0.2105876354171691,0.5433620676216955,-0.056637237729636185,0.08658734860842017,-0.0054985732403793845,0.8748551669591219,0.1981134420337635,-0.5903424367564881,0.7591799565014994,-0.5019322932436074,0.9906798876130796,0.3845272389590697,-0.9974747712468837,-0.9912034197136711,0.11216511983528826,-0.42020256167504605,-0.373611498933731,-0.05994083131213346,-0.06948248583797058,-1.5412835635952125,-0.12124881008061048,-0.38217356164612937,-0.5938061441534026,0.19435162957798927,-0.7949238901769428,-0.20827940389773178,0.40318596813608926,-0.7274082968328001,0.4742693703911766,0.8306960593492162,-0.4728300709269305,-0.3282518280770265,-0.918369204337564,-0.3844871406078632,0.49749033989759844,0.5444078675861563,-0.05530159047170491,0.7889543868816682,-0.42647907220842285,-0.15405411008953052,0.9316456918922759,-0.035720040856838726,-0.4310766799286243,-0.8830146953975159,-0.9857811833602762,0.8527677614923004,-0.8226731395968784,-0.6024046668738282,-0.6814339274386055,-0.6066660090903863,-0.572219298709504,0.20534969905771136,-0.7187205655609583,-0.9447492769040161,-0.7590419977483388,-1.0216078845678411,-0.7629730564642832,0.028926948922125835,0.3138658166567515,0.7716520946423042,0.2785777429829149,0.3530258016092355,-0.6164524347582876,-0.4360580634167348,0.8021173291997503,0.3384723174027173,0.9596714814509677,-0.31889848260916764,-0.21018133441607367,0.44714949171303925,0.5793546703629447,0.16540222580050065,-0.13125067723225683,0.7890697219241701,0.502918929291611,0.39441139728149066,-0.6820266687163585,-0.7280095902182884,0.49685577331270553,0.48592299686093504,0.4140970172770841,-0.1439627576558333,-0.5059351828337456,0.7382630941324204,-0.45217191168795784,0.36288646947216247,-0.27045494914821877,0.2820273240765055,0.35384585067649726,-0.4469433010184036,-0.8004339609450803,0.34648804814613143,0.7377863714327872,
1:-89.13808659443875:0.2836762748942303,0.663932544367682,-0.42254310125226446,-0.4143292533763909,0.8649296765368262,0.3097116083027045,0.25772142065249315,-0.6360394506925,0.7934806595677497,0.557670320514017,0.17739383551016696,0.11792214795723588,-0.9059964792124275,0.6188594473544642,0.642347742995456,0.4994337412953376,0.5939624517740645,-0.5520561673394149,-0.9080948983216752,0.04661600532499377,0.7969367200799311,0.029777766072843326,0.697851469150516,-0.5660407832389391,0.34643987458451786,0.3329061804714819,-0.680277392355987,-0.8133523153234186,0.5751675736028077,0.9293196122502774,0.027117657181214838,0.5195424535998012,-0.7306272726415006,-0.06981735615967732,0.690808060007007,0.517924874714992,-0.7746654226027693,0.8500430236614072,0.24773567256721318,-0.25403482552983847,-0.5656341008530394,0.2880975386412703,0.20546922175213067,-0.38040528197133316,-0.18793546274306616,-0.10228033850749782,-0.6689433898364606,0.832030690938778,-0.7733928870894959,-0.9541785043165062,-0.7740481172131906,-0.18584972013242518,-0.5739937928636041,0.6785593993255477,-0.5859637201918237,-0.4318733007728144,-0.3096985438438242,-0.37147131469235783,-0.2266468168129976,0.33926855741729045,-0.29743332535506983,-0.8052288504441637,0.6837353358434932,-0.4160891517472276,-0.031965458657024874,-0.8672575387970636,0.2752509051944198,-0.3327819088192478,-0.5994845836989027,-0.1871128680123551,0.49449649686049096,-0.6372544406079946,0.8376029607927999,0.45429734839241004,0.6439300779601099,0.8932785420920042,-0.786040722816303,0.08277914543368317,0.9468498592395692,-0.5100373394997029,0.3240519733357327,0.6488747141658209,0.565058551219936,0.25741462858158193,-0.6774257229537943,0.5231572766693933,0.14234835561173376,0.39228755400200743,0.1808370282058265,0.17729052660583955,0.744028607272865,-0.7863714572643992,-0.3140367814756093,-1.1319236607168464,-0.7446784023271658,-1.0905474468652292,0.08209484496854497,-1.315419733094258,0.2877414214639307,-1.3482219700731382,-0.49647621160085603,-0.4077146643774578,0.15983014379610283,0.6204564936035533,-0.13910938224302338,-0.8327973266359465,0.4960217024852003,-0.34250075556813636,-0.3939777315551873,-0.3747490027249276,0.21227580069424068,-0.5674082585931524,-0.827668974293543,0.060187870023218126,0.5390092594991385,0.1888246739737954,-0.48714705756305154,-0.1668530980479527,-0.13214280541914178,0.12488920898012172,-0.7903437778621691,-0.9735893568040618,-0.7775874363999806,-0.12573651840686664,-0.051660466311097726,0.2874111815101784,-0.14052292685936454,-0.06559338347237559,-0.3266232270726415,-0.8006610120135056,0.9392278673574148,0.6461205364898959,0.9951957276922313,1.6397588107152918,1.4969333382442898,0.17711245564321074,0.5328467125632219,-0.19637175755764413,0.2618718244409164,-0.2913565117776549,-0.49320006296268626,-0.011192269001028876,-0.6038194886532666,0.9701498911752512,-0.11610832974825758,0.24652974020620444,-0.5707201646302491,-0.15453838044077706,-0.836309624646935,-1.8418026168639516,-2.2253496506943833,-0.7723076045948949,1.303445520523276,0.9853799824117445,-0.03553431722966671,-1.1574340014618176,-0.12718941012423488,-0.6216947497085901,-0.5987453861963328,0.6481444499663446,2.0911356983491998,1.399434918251562,1.7667551822451666,0.9047180002488722,-0.5046572324401976,0.7474155821882859,0.8142120016616023,0.680235601836729,0.7813545765401892,0.1493112693503389,-0.27571610409296377,0.70896216604996,-0.19251065973012374,-0.6858418523479716,-0.26585328677934855,-1.3441396957446947,-1.9610046521489197,-1.509062452751186,-3.0412046757947913,-1.611200988460396,1.0865665519326153,-0.40589327578393886,-0.6384754437562596,-1.6550587388467153,-2.0508025963921526,-2.4504338400594614,0.019384371861859973,1.4396809292483648,1.5077341766078927,0.35522753157234505,0.5085163687573391,0.22836710460931722,-0.5453931534004693,-1.177957112103088,0.6454004440558174,0.8203832750562777,0.3500191713440065,0.09442473581641743,-0.9325317983563312,-0.7553182320526789,0.696278275111609,-0.8965063295361916,-0.6395555317538227,-2.117983577416405,-1.6160087298962302,-3.113212780830047,-1.9259312212756383,-1.3193373510995663,0.559423851553947,-0.6229833870069901,-1.4890213497587668,-2.0332748574807815,-2.3590146359900195,-1.254044587968175,-1.209250200234239,0.9285069525340288,0.14819349119344227,0.4408643901170555,-0.7590439301108572,-1.4325017067290375,-1.5395179035969957,-0.15462887465808917,0.3228709186111118,-0.769485671116653,0.30299739227469563,0.22878321289230388,-0.6659714628548888,0.5405748626805852,0.13060395633529187,0.43608391691223936,-1.586930004098498,-1.2576592191825904,-1.8788662126578808,-1.1899777167702619,-2.992642865279017,-2.7921681204920863,-1.5955548493450515,0.7742904359146424,0.636080311275282,-0.8371295027768532,-0.5670573657450951,-0.3295622118682678,0.5621558752677317,-0.5394783422948531,-0.9721140201503574,-0.2001034825625897,-0.7472006833318446,-1.8999383604706432,0.03915665067149351,-0.8138095364662432,0.25044817354119125,-0.028185387858291895,-0.8337286738816169,-0.6348196786397249,-0.6726617004625836,0.7528179687039703,-0.6677426802785519,-0.9605322780352381,-1.1815599658109037,-0.5304311444096007,-0.23333043353832686,-2.2313136577907238,-2.12373769877938,-2.183941402080383,-1.2504367735879607,0.5551571363737323,1.714623709964627,2.6393354122189794,2.1331410086188627,1.2688298786163257,-0.26503785137502006,-0.530139432159515,-0.43781960260177927,-2.0154674867112607,-1.1710254868773806,-0.5391727885343057,-0.37707438387378445,-0.18465393124557009,0.9564874935729389,-0.6892534571618724,-0.41691735630114435,-0.0033972371090101286,-0.1588647418747244,-0.5196257352605368,-0.17769345362626815,-0.3421996963090522,-0.663402881759824,-1.3591003018483736,-0.6032245314270278,-1.8970067279119764,-1.4176504692735936,-2.4356398701744757,-1.474915803752457,0.9386663992511467,4.112576865268938,4.494558488086101,3.021842263254111,0.09179256288029754,-1.5506545595131958,-0.7525446349877887,-1.7752653974742063,-1.103936765706801,-1.3482907578206802,-0.3361525527900434,0.18549534734567313,0.6620974118893332,0.4358365482854484,0.06957219967645362,0.16937324982964963,-0.8290516480370939,-0.08723672510860912,0.7781762418853896,-0.34924521490356303,-0.7526235516215745,0.13888567354608838,-1.3190451622792094,0.02171323634601171,-0.6016090522594023,-0.614072489583311,-1.222038975326645,-2.4993098816482564,1.1633641998063273,6.795897949266824,7.617112744772193,2.492469294544378,-0.7530249473269612,-1.6161661551238218,-1.446052123796412,-0.9197709798254651,-1.3295698517049133,-0.5319352934853109,0.4768643943550565,-0.49488945559652064,0.38890549533733476,-0.010349823741916238,-0.6240405776547427,0.49502921750590057,-0.36927349002965976,-0.7561064070909983,0.5102773995660657,0.6907304142646808,0.2006375270283079,0.7340910142547629,0.38643887832230783,-0.43521890401809127,-0.5771847546259126,-2.061062811961889,-2.6419083558805556,-2.24298265940763,1.7759565047967003,8.558029634090923,7.0867897056269475,0.30986574150514756,-1.2469364838847066,-0.329600299479189,-1.3841716768034604,-1.2292776605293025,0.6234688353216963,-1.2260692517557041,-0.7401043666076098,0.1719523454036625,0.003926505863759,0.98143078004929,-0.7672849962451672,-0.4099636279710631,0.8429163816294978,-0.09831798874043862,0.054854353237107426,-0.6148983149080552,0.28658535269572116,-0.29177977253492837,-0.04627723716250582,-0.21612144145745155,-1.6963951591444164,-2.4182645400014606,-1.9687588662257702,-2.2008760198137978,1.542206374147485,12.247436921965424,6.931959667905162,-0.9983158111348343,-0.9958883963602483,-1.2927038810723788,-0.8690273443732031,-0.8751945493455903,-0.3507819067276371,-1.3508155564457813,0.17380827509189595,0.06072734595912209,-0.30100168161376195,0.8108830434017239,0.37423490843678,0.5094223157400963,0.6945623901475735,0.20441773666703933,-0.46718484498340745,-0.3817627094490826,-0.6324276858741968,-0.8969506690100663,-1.0721303579607977,-1.1703224239741585,-0.19453932818118252,-2.2483614760163566,-2.940163982106647,-2.046105852484972,5.576394657093089,13.25881990244412,3.530520771650157,-1.379735799248525,-2.4174216774271957,-1.4050019073987565,-1.6503691199123145,-0.5370066552832001,-1.146800504879259,-0.09240775566947844,-0.7024423189981895,-0.006169734919221591,-0.07001439382127816,-0.5968841516381053,-0.9039066191499123,0.3131250503425991,-0.03243128178614829,-0.8259124997170295,-0.17918560431458389,-0.3723603687423738,-0.7498612145733277,0.43674941796125905,0.3820732741877167,0.3706476657914173,-0.120394573894764,-2.2158580557636753,-2.1031915807364094,-1.0417429264646811,6.458328264333042,11.910115382920099,2.5789976724249923,-1.9926423834464289,-2.144765142049263,-1.4181246309085802,-0.6808701468040436,0.13273370050474564,-0.4584703570533792,-1.1514857987316265,-0.311537468184478,-0.7845775718689688,0.9537314931622449,-0.3124177606054503,0.8166628240247094,0.32669403154294785,-0.7684515735081279,-0.8965359286863807,0.45754183327838754,-0.18473705627770537,0.0779142215303975,0.509227399002858,0.06179524053621248,-1.687485354240488,-1.3810159336868335,-1.7141289529640478,-2.709823933415503,0.16999114675253188,6.679988422900072,9.035338251180137,0.11496219314311397,-3.0538503582185452,-2.6170429361361927,-1.2679098529679962,-0.4432090949842501,-0.9655578903782065,-0.04977549062606181,0.4189959852501923,-0.5853871213375442,-0.02335173481860309,0.5417724044934409,-0.005123537497044411,-0.5496646699065862,-0.25400559158040714,-0.49352717472212365,0.6432682124291186,0.5074645874714339,-0.871875491222815,-1.1852514432191208,-0.5453496147564748,-1.1354046592871474,-1.0680163608236082,-2.0290299813166417,-2.263846676758079,-1.1103068468080866,0.9548008430387689,4.722512502315621,5.6951767436548515,0.5448322951302139,-3.3955520275117834,-2.5098990856896832,-2.3579551070971694,-1.602898941670604,-0.8927714086126616,0.26887779768876696,-1.478961042450126,-0.8734077049632455,-0.49658838265551586,-0.7198365334628904,-0.5753192718785735,0.1277722257272308,0.5338525149443185,-0.0527427585973592,-0.6535883143522583,-0.20372177960887808,0.8639794085289322,-1.0132828229555393,-0.8779803659476444,-0.3519726506375688,-0.31336633725192226,-1.1938945090003983,-0.6208764688682202,0.3751176232372287,2.541733613158592,3.669049888457806,3.706248295488825,-1.0702635282187714,-1.914449182423889,-0.8597020955147885,-1.8644430920183683,-1.21198538295322,-0.25936394510856964,-0.43067108993159353,-0.40720302371751343,-0.15391900530747657,-1.1482220833770487,-0.5238503003557019,-0.8564776413099902,0.5384572328593749,-0.8711556848758244,-0.1096900255525229,0.8490395726087088,0.8355748171114457,-0.11771004567096921,-0.9043442818959625,-0.832722833313485,-0.7348434426207296,-2.047206674065455,-0.974819944561947,-0.4393910316057922,1.4277894008590248,0.6300656509873908,1.6191285009565122,1.920698934717253,-0.3446934872065812,-0.9577620056066224,-0.9504481637513984,-2.218169553106965,-0.4223639512253517,-1.5696590518218727,-1.5365733013033445,-1.9598111781034802,-1.2708772115521891,0.33479174891756214,0.303254547064322,-0.43279016465833786,0.949265049300846,0.7461956974877362,0.8774621317110797,-0.23554969014972355,-0.2908125369827078,-0.21129046542468988,-1.4710709329367855,-1.7287949283525832,-1.2486214082636007,-0.01556391442476647,-1.3432480020818642,0.5231689655157087,0.070150063508842,0.8431373492697798,-0.24638134491944716,-0.07668822256514929,1.1880064806672113,-0.3869606319176535,-1.5883161425758754,-1.7183122913701379,-2.106253006136906,-1.8100738282948337,-1.025032232685552,-1.3063861410302733,-0.7620356989211022,0.21970318570363093,0.4803083714563571,-0.032703267098339366,-0.7885117592004409,0.9980279215514467,0.7355861919203778,1.0092951609541683,-0.2355017041741346,-0.9787124930764625,-0.6557139473789669,0.0800869039491098,-0.3367571698295577,-0.21953264690104146,-0.4380000522367884,-1.2980706081790534,0.4342461103510067,-1.579954726924349,-0.5676506022183689,-0.8448244225825317,0.6257788234271162,1.4957115035182307,-0.6263237556526798,-1.7224517243105266,-0.9558110951177325,-1.4315853638627984,-2.0258657984830197,-1.2698697760769013,-0.6267873330574033,-0.33013509075730374,0.10260940583606605,-0.30529248153020755,-0.018551001057053762,-0.8050515273977505,0.440602307839688,-0.5567711481724652,0.4309327822274907,-0.5030722080255594,0.24822201638038516,1.403554427598744,0.40185757402237177,0.9973289215639753,0.053207373562466166,-1.181306492682058,-1.6583781309252275,-2.5554394778811007,-1.8836730221660882,0.4688188783672201,2.0697055792628625,3.20726980262541,1.9690366452219061,-1.524159681685847,-0.7711308253525718,-1.6484890247594748,-0.8146733947867684,-1.151963323922953,0.41242494289192505,-1.046422087011887,0.6630610658034175,0.48625716723875295,0.07402439710609787,0.013251599637948086,-0.6675385453242402,-0.9967910615942223,-0.7094501614184678,0.2836624372323548,0.03307889343620654,1.5993111053956492,2.035531413820251,0.6955499074512521,0.5084267914155758,-0.5738678620264162,-1.0687926179235,-1.5684364781678357,-1.3787880521400135,0.7161896598687132,2.4392801863964526,2.4511595158031074,2.795993358763578,-0.7869264543838741,-0.47017476859069035,0.33630840134634266,-0.13339984272986255,0.5765886366038359,0.4616530097321807,-0.8660338395666513,0.8468200575599605,0.8505412715072589,-0.49780031972279737,-0.7782399994497564,-0.7269145324694002,0.7324231183413119,0.5013735187939199,-0.6854115467997627,-0.10840621667775424,1.2741361631097246,0.8076436189460633,-0.29837219415600336,-0.7725116652303584,-1.2395557397427195,-1.7830348632642736,-1.2045723374955368,-1.4081745821363043,-1.989340764818557,-1.2034883245575363,1.1504706670364742,1.1303791683332145,0.4150915563099909,0.7361974054556157,-0.5748047331169306,-0.7014302669506256,0.12825869722701733,0.45461306918011063,-0.13137339532640174,-0.11087387644607324,-0.6212134924328059,0.3493373339956556,0.8596037907204661,-0.4478653451447212,-0.29286964634900303,0.21997210462889863,0.3562169777620196,-0.7924151996960914,0.7133548416361417,-0.13503841845537048,0.4186568623319488,-0.7535981197409292,-1.1966616589438874,-1.3759513011097761,-0.5873223449978141,-1.9047840320442786,-1.21541764078702,-1.5641373816578281,-0.4831316862425109,0.5153825541754123,-0.852496412948183,-0.12065114542478743,0.5720503084478535,0.8271169490825303,-0.0844997385591786,-0.4401162825580567,-0.02896384863992921,-0.1869712934752208,0.8914394980131659,-0.20220005077080327,-0.35900137984833136,-0.25413567480996924,-0.9294668938211446,0.2683031713187316,-0.279557940841235,-0.7970104761885722,-0.9485157137764177,-0.20977462485623263,-0.2569803588300445,-0.9821215656185682,-0.24005562498070107,0.8543462722289786,-0.7127557849600585,-0.4615024847887693,-0.3229271788924545,-1.2504360611357082,-0.10968830474762778,-0.9402374010442855,0.3409612570726604,-0.17219423498984462,0.5798171863441989,-0.695156002547044,-0.21330005243753283,-0.7345722057351795,0.7491144488467785,0.4534940290209726,0.2957589723769729,0.7500966154865707,-0.5646491863597862,-0.6777784355852834,0.7270582997007498,0.4446812877438113,-0.15750470646788303,0.7743744741507131,0.12130596450884672,0.4794683464810368,-0.06807384463946418,-0.8975229500946982,0.30167011975438734,-0.39010564605098985,-0.7875132265958537,0.4026028136625596,-0.5468282334081157,0.6863832126266411,-0.5548061069355256,-0.504016725929601,0.08185823126954174,-0.30604428360548136,-0.3537968876848535,-0.29227404448895583,-0.8215449985509915,-0.1978856667966693,0.3439041684198212,0.900411959083439,-0.37332294151790024,-0.1418344366438069,
0:-40.376455565208566:-0.04798529819534636,-0.8133258591587795,-0.20122651872544983,-0.7410075168028256,-0.5475875181790102,-0.4150170741927659,-0.4940091282051855,-0.6038637442561383,-0.33860593579372966,0.7011958126299602,-0.28717014153534093,-0.04393160629055237,0.356072055225187,0.7880578378564196,0.7043782534586354,0.4438342041094359,-0.5030342572956568,0.3425032625464317,-0.6614320753001364,0.8960644721418309,-0.5344465335607034,-0.9432987145523801,0.4582614338373916,0.9672567989850245,0.8797299396781408,-0.11232763369324905,-0.7067375475857278,-0.8378759775584446,-0.3230719434255407,-0.548653855069555,0.5000155165486908,-0.489299096439642,-0.851196697544264,0.33169858634504634,0.8871522164553156,-0.9760828318808001,-0.0819793713087189,-0.9071287691710211,0.5879311235980046,0.12089664619071343,-0.5331025792410992,-0.20802930932296199,-0.5339907747119759,-0.11503853070187606,0.7587081884743745,0.6122620971912008,-0.12113793006672924,0.4848370194203802,0.7385327862710916,0.8721259359016017,-0.426345637978816,0.38680557950167116,0.054063505641129384,-0.8892921858630447,-0.5470772860630195,0.08855057315191539,-0.7924993128783857,0.21271055783882287,0.2234829836541512,-0.9722961531994928,-0.46308119597524633,0.6064720920411728,-0.47104778790129054,-0.00384793217722891,-0.12018126442830439,-0.6931542461459305,-1.0812590241941868,0.035250550858328476,-0.33001840278665906,0.34265648223346173,-0.7536521579734079,0.16370862086867188,0.2507548779440267,-0.9474883921168558,0.5081459008051382,0.20390499716015748,-0.8724967486907318,0.572880563455023,0.648920781887472,0.18132766696964453,-0.8325709198093779,-0.82832990254347,-0.7358801004310989,0.6620538742634494,0.8266457743844324,-0.3045966189371063,0.8274728935254205,0.8181583828198397,-0.777425347570399,0.4013579310240115,0.48984827545062726,-0.8116372992021167,0.24086093990455962,0.4254931261057387,0.17045625375319146,-0.3690454821342434,-0.4684279391101181,-0.5686708721182674,-0.10574614167309414,0.0340497449005601,-0.6565622749561459,-0.6010506423317736,-0.4609511688278738,-0.24294492899362125,-0.9301371693944933,-0.7921715095230151,0.3107694011494735,-0.5278509923455464,-0.9380522853083372,-0.35539908957545663,0.33764406758931986,0.027002142072900748,-0.21419487322162922,0.8423664320222808,-0.6113900107209598,0.7461826220215566,-0.23766224194465752,0.7871107267670893,0.21186979179357135,-0.890839085384135,-0.2772712218562761,-0.8487728935848821,-1.0254768773110172,0.1898342920221999,-0.9056529274013349,0.2785834206583428,0.7623813298189875,-0.48918843722809124,-0.011366922881227948,-0.1817104828764202,-1.3270603633120033,0.035977444380806946,0.2771995604274001,0.20173625933972633,-0.98393477796072,-0.6205083423886216,0.49847889335168155,-0.944653394390368,0.2886422164084104,0.13109004950794767,0.32207235945199675,0.07371128899697998,0.6993187325773693,-0.5321264978938912,-0.44566740130171856,-1.1906262406634391,-1.3290006411911188,-1.2503829249330638,-0.22421896697615512,-1.680410916794733,-0.8331654521319353,-0.8488838806514056,0.24111934876073784,0.4825023101038324,0.3913315076184301,0.7306994194228771,0.7317600059898374,1.5298799710826796,0.77420012789549,0.7646463096625804,-0.6236516722644329,0.6455995274681291,-0.23374939236999254,-0.04785505146556803,-0.4783844643105331,-0.3119543507346349,0.9343207312398608,-0.4391559566649464,-0.4999212482222972,-0.9627688676548422,0.5070418318534361,-0.5615766658419942,-0.6412591297600839,0.40409817386030794,0.2583975968645927,-0.8398026516793105,-0.34830898507816116,-1.1145496944427142,0.161665939188926,-0.06538164466360652,-0.5219462181486255,0.6487501526375988,0.5857869192343442,0.7639318785776104,1.890358397861452,0.856546413123337,-0.01444403721872164,0.9622677519248829,-0.04237355494816509,-0.19748088768568248,-0.2614727578944176,0.4254479046790603,-0.5286632559783662,0.3321249489583931,0.02166058289957569,-0.29208750564748065,-0.8936364795534362,0.23013802044642329,-0.4267039920817174,-0.4626087790239622,-0.2408365157454132,0.2509042082734022,-0.46144455557965885,-1.5509110187577662,-0.6667228418140616,0.2380013302762324,-0.43816095798267646,0.35548740061006256,0.6840229762916537,-0.5000895401150687,0.1566824580879142,-0.004880979477931803,1.404007630379047,1.8830846500993867,2.1452863759139578,0.6115161640994622,0.5518218470414644,-0.05772949341992021,0.5283252552822302,-0.27325894427885195,-0.4546125356332849,-1.147462707541496,-0.509905181159092,-0.8073798563862217,-0.8069086007496638,0.13136863753159767,-0.6132872868819474,-0.08113707777180433,0.3278116710996851,-0.2611782852916186,-0.30475339350114666,-0.7587306908911949,-1.4830258300901704,0.0680510297216753,-0.01761854839217623,-0.18326769942671964,0.12343718731419386,-0.18377604101737463,0.45637562775387697,1.0882958824701463,1.9204876967907485,1.5726813148551053,0.914699252129004,0.8982824893188742,0.6531636551804078,-0.3016249607123184,0.18529523991124755,0.5160758792035492,-0.38577591073475126,-0.706589999197849,-1.164775992185143,-0.3706617691449853,-0.5753793500658388,0.9310674691759342,-0.6577971908012692,-0.22082049162619757,-0.2906115972074999,0.1397503173063974,-0.716134951520606,-0.5609071696874164,-0.4436172155212232,0.34592773128269755,0.7592530692037227,0.519764581473392,-0.07371719369559707,0.6147021188398293,-0.1728057869780644,-0.4128337214824224,0.8569895241817244,1.0959835576060377,2.169149745798908,1.4966341544806097,-0.4162106304874226,1.3922943712786802,0.38225937301603286,1.2110664228985935,-0.40073814730653123,0.2366808382076353,-0.5868719564028752,-0.2740820808650831,0.1245666836051172,0.07862261174132794,0.4533719249756445,-1.0353999535770428,-1.2486373068722638,0.3534348593225521,0.5536557159694253,-0.8367848854961176,-0.411956582275589,0.2868328856890469,-0.2489908086352512,0.4747316314736,-0.8922568566942197,-0.15532796455551134,-0.6974542121024659,-0.4675036813529293,-0.6349148785549417,0.9226759735776646,2.0016995278885688,1.993180671268688,1.097856766789984,1.609322635963818,1.2544643062718046,2.2696607639866055,-0.4529074660493029,0.16619346684064149,0.023078440317747632,-0.28939413041669854,-0.14735604954863674,-0.30710578040074765,-0.36907294009793334,-1.112200673733074,-0.6444602862140102,-0.08358049569804686,-0.4436870642730638,0.7873975855577092,-0.19887515548036083,0.1188106349950619,-0.028860890516215792,0.7320853743276657,0.29573443724367104,-0.2911457638444648,-2.0042716795123074,-2.34809842759958,-3.0000871943422895,-1.011184838301958,0.9078774543507191,1.3898776490268654,1.9141670104202275,0.2433175341329344,1.426456393231721,1.241804759541105,-0.4288942302268026,-1.1205943371691074,-0.624213994733592,0.04718813315800863,0.4597135400255845,-0.6119203215768217,0.7067426745360629,0.46381996506620227,-0.10002113998896896,0.7916018299360172,-0.19939905536135483,0.897254965231617,-0.20598365062735718,0.39553132247055944,-0.12452525685808297,1.5011378590101954,0.7143330581033125,-1.4502169332827366,-3.2788870287019676,-3.1206227333769267,-2.7599313913916386,-1.2021980406768182,0.3553827333615133,1.7186077749989457,-0.26952013060379226,0.7077497430684468,2.105965361098387,2.1365444586115583,0.768629435096538,-1.0819440266277298,-0.42989340352067307,-0.4865388269464468,-0.12389914059009732,0.26577277318539744,-0.5289487699657672,-0.8102936611320385,-0.8968644103141586,1.1371294908381264,0.7480807123263137,0.8113639976440408,-0.20323189656959473,0.9379990727034645,0.965978081249073,0.009202192358566744,-1.2762771128732768,-1.5726954035702319,-2.3732465405922616,-3.533168275553703,-3.5615964734183696,-1.6533096840028552,-0.5914467699558806,-0.5987416281920344,0.20767324889836658,0.7464490754561602,1.4612375859173534,1.7169111322720625,1.299645287352021,-0.27770952009774164,0.8987764830970192,-0.24444328685501865,-0.6176092681711801,0.7082948400927846,0.2466089401272784,-0.07524239179122051,-1.051958233819087,1.0247258866522628,1.8349020615742007,1.0368915676664872,0.773108744872916,0.3693830983143651,2.921468852254516,0.4496205479399236,-0.30549679417270387,-1.8408313496056024,-2.816988076262356,-3.428524429903296,-2.5122163887988593,-0.5602189631359005,0.695641918526459,-0.02167467839057453,-0.05627026205383857,0.351462291302105,0.3200009848584481,2.199160351911014,0.8876168638545204,-0.44644487853318526,0.7916682897009676,0.7911474927743866,-0.20645318456428036,0.18329400001013824,-0.36405662100693803,-0.2519545301883882,0.03057628490797886,1.3110748219785051,1.1122452164577434,0.7342889104644739,0.8693720304044313,2.526931352827406,1.723754391356921,1.1412890685576838,-2.4173924150296275,-2.569369872397402,-3.093867425579499,-2.8039188016909957,-2.8049685998536735,-1.693618044418786,0.16070250033261102,-0.07034330676629189,0.07842628966916658,-0.3043901281235474,0.42948656568526533,1.1464936450968852,0.7386188790514305,-0.8340875079457327,-0.03632285866555889,-0.9559264044445387,-0.14365682035363034,-0.4777868697348239,-0.9890114493943918,0.7485021335840008,-0.054631628537441065,0.29792813827785064,1.1273378800327514,1.6013042441771341,1.1217923634986753,2.374815362819548,1.63355592404535,-0.6727945621063472,-1.957785406521238,-3.1812993913006373,-1.9897000991006624,-2.852153545104609,-2.022977598134483,-0.026090918474763976,-0.30340819125186785,-1.3806120771756207,0.6679309284646097,-0.049537573967390114,1.4838926278884395,0.6037312921835027,1.136948790767611,-1.1283712587966754,0.5413169530403013,0.2831199597235355,0.21673631026771378,-0.9071324290905216,0.24910797599312268,-0.6278811877015837,0.06638166471647254,1.3532501479529442,1.4956804280041593,1.285876092623679,2.067376392848586,1.2880540494434414,1.3875226014451727,-0.7622184202213911,-3.042639242643058,-2.281920879436301,-3.348522114744406,-1.997221301094634,-1.5259357335614376,0.7170945240314381,0.5325089409807279,-0.26138620112213695,0.4736993623319128,-0.2374387993423523,1.101212300143123,0.04383949539340001,0.7700460107006483,-0.5385294912937586,-0.13679616742725811,0.31615952649706336,-0.4420530445820863,-0.08793109994603925,-0.5196326195772788,0.25811751715879944,-0.3729137575681119,1.3232339250245817,1.1943858395527502,-0.20441125620882017,1.203314651616066,2.2347762114112935,1.7964560331593697,-0.8431935292475442,-1.840855035237514,-1.9021127596566831,-2.2841695255976626,-1.8590822271828042,-0.4809709657537179,-0.11717467382054918,0.140114746688452,-0.4934421484284382,-0.5981024002858202,0.43151058991437574,0.26574334144899703,-1.0208724295681446,-0.4757053788573588,0.6393234817572409,0.9586604008255382,0.45723954341141254,-0.058338895093380305,-0.928687546564156,0.655597965073935,-0.12910331669556793,0.3764177545128316,-0.001007829782013674,0.6069551710565543,0.5193095993535032,0.9534932948543009,1.9828390730512828,2.657424722894615,0.11011020499471288,-0.596351367853671,-1.6566883526255176,-0.5322098725526178,-0.34484843929900105,-0.5044730556089233,-0.8779439484436417,-0.6830384356585263,0.022204233740711198,-0.3178486167917725,-0.705162571660949,0.1736631907076304,0.6346656539484014,0.24476701373797302,-0.1203351815406126,0.08151407617695895,0.6365440892055103,0.003900579329458864,-0.14313946241713618,-0.2014467857243724,-0.23788245999112892,-1.0835197807630883,-0.641766864223031,0.25088876948782635,-0.17817861990469047,1.0362223179386731,0.30129379932201283,2.8323247028255087,1.5792947187697082,0.7160826190677102,-0.8540061167047326,0.045980369062694516,-1.1560490329746422,-1.3522320174779765,0.011001746306501423,-0.43721469558645765,-1.6451739257785334,-1.5007078321436396,-0.30535520189759663,-0.8341732814920865,-1.267048095209616,0.6485259984215548,0.5593877966176815,-0.22594963610046467,0.5663275622936595,-0.5362460435292733,0.6430243729013967,-0.4212918260062057,-0.8257287366949574,0.004188887903371094,0.12007123088246466,0.5585543534707711,-0.07460641350391897,0.45256669848949355,1.1135415943074056,1.8908650774996854,1.8083367260033674,1.0455613741837844,0.3730498602446433,0.04351981289946552,-1.0669147506033203,0.00796842478584895,0.13433206709962336,-0.9779490257757072,-0.8782108932767816,-0.11142685024973041,-1.3875379571571238,0.22961234227900784,0.31400659790459395,0.5539527216257202,-0.698260307727502,0.15636623750724596,0.602048488438113,0.397299938048417,-0.9777037411585693,0.25904912552866294,0.7969565553948499,-0.7914368245143533,-0.48079677294270107,-0.12984345966525615,0.8708542701538702,1.055620363814567,-0.06343908454775532,1.5448543603376155,1.5957928207988585,1.7927086023278973,1.6220810215359889,0.40813953906739237,1.7234530480202974,-0.023619531200694925,0.3241420305503531,0.020980060015682124,-0.7727089508592608,-0.37066168615412626,-0.6983728979216,-1.1436216534590404,-0.4941110377433318,-0.7329749146863004,0.2977143517994059,-0.9698774939568225,0.8554974744003938,-0.08930560827746681,0.707881867110643,-0.8226056665375339,-0.8853136143694746,0.710419235276338,-0.9537348071042023,-0.02942074393508761,-1.0061911717287275,0.17742367742111712,0.8390470016651635,2.0565193054477784,0.43810577015958163,2.0699854304991505,1.2975562317807587,1.250219053772799,0.7963491694958444,0.450381194085044,-0.5021692981314687,-1.2257418938645854,-0.36785655912089804,-1.2064572309088695,0.11733804260906122,-0.5081537920742122,0.8024718424919239,0.7503462089898595,0.6140361844784176,0.4849304096866633,-0.2802562414161949,-0.7844651757434198,0.5046322536897305,0.30893498314297285,-0.580251121375112,0.979582911540357,-0.5292077241905384,0.3514028718246247,0.015269783974410691,0.005104007372263311,-0.09141727874994536,-1.0245419781067957,-0.3034048498954961,-0.4282213200659049,-0.4799608635019089,-1.034233498239955,-0.857482667653916,-0.22336999805125593,-1.5107980189690144,-1.1890388448424247,-0.26161163273417287,-0.4836365772673589,0.003148037357111692,0.7099851796765134,0.2604294111552657,-0.7547983390780985,0.5369746693360495,-0.5470576591720875,-0.7432794993813172,-0.3337450517717413,-0.9091118737514305,0.058478348012353874,0.02169720570176688,-0.8980085675584667,0.37785042994543583,-0.0157469141911367,-1.2844861109796575,-0.017178945776674226,-1.1011495117938073,-1.9177215428757697,-1.4902923559117267,-1.3572990951886859,-1.5377705904064722,-1.7127364126288585,-0.050254458210266785,-0.4480010550440595,-1.1040403683021616,-1.0475448108879257,-0.7858810772908218,0.39660266636167796,-0.5821127609961501,0.2625732715669331,-0.39319941944928044,0.1439912319052952,0.721326633077636,-0.48475095546430724,0.8768410060688181,-0.936556057353513,0.48903699003229995,0.38962434940705015,-0.1474473465843235,0.9295682883353333,0.5354078351370745,0.16152764075444992,0.6785791204585236,0.3822436913724372,-0.30788146832081714,0.5041529626611629,0.2685491706648241,-1.159405399194448,-0.43042886531616875,-0.1804525122235792,-0.8516396410464808,-0.33932104295549587,-0.6324953493900513,0.6394692533592878,-0.2660282015148103,0.679056740794244,0.8259485210389718,0.09221245915376823,0.04113304118222518,0.7074476518954194,-0.18643379649979086,-0.713319997434094,0.406045807060863,-0.5413753573677462,0.9246237373644719,0.48896988042608247,-0.9971573007365182,0.3465384231185411,0.9200281969755146,-0.8500903736368574,0.781758366996183,-0.41299771395630924,-0.23805474269817414,-0.217694796452368,0.3105158792467604,-0.33799025140776234,0.29587464478857256,-0.5550821063190319,-0.925079361906345,-1.0254252257847591,-0.37513040501319617,0.10867513980058872,0.12026322154666497,-0.30651089487408456,0.5867329917506963,0.7252075988399227,-0.9135023296731614,-0.8705020070906182,0.8723364826547939,0.8718079800554837,0.9891931443214694,
7:-47.65494784704773:-0.2995852891178734,0.8562036881037685,0.16411202803388014,-0.5189948008604737,-0.6512890792215995,0.9436913504417672,-0.79904147172285,-0.1367234680171212,0.7018908034915046,-0.21518043656903774,-0.48758128998939987,-0.5241188236140337,0.9342574773291423,0.5484441972841156,0.6677982751929745,0.8710558926720027,0.9480488762396138,0.47127843436557737,0.7906854310130247,-0.1775176076695173,0.9485827215480729,-0.5067779051047623,-0.41281281244067514,0.44978783282002843,-0.8867176371254819,0.08717422563971011,0.6708362833899719,-0.028969467864040643,0.8407298221746915,0.8598050755905322,-0.504490278458678,0.8051552026398956,-0.3305942087573144,-0.13109414972154054,-0.032535760749834,0.5217939327578672,-0.6282066659587577,0.284574591571205,-0.6201392509428895,-0.7763216382407288,-0.04196312065697178,-0.98436406189314,-0.3020854042414135,-0.6527326316863414,0.3642199518175172,0.22926767413942747,-0.5799252610255297,0.5805069681666382,-0.5450050819496786,0.311492659479871,0.25040037449266916,0.6205521370790796,0.6322727894154754,0.7459169726829817,0.6395685186264519,0.8351263092351922,-0.17172135066875516,0.6360774554001143,-0.1132869504736067,0.53789072594848,-0.05780846711314336,-0.8514018179672569,-0.05844017700165887,0.5540414898122484,0.8911852755103601,0.027339441564042173,-0.6939107620702171,0.02626590728754859,-0.6413386280722634,-0.49160845959954713,0.5068760568613904,-6.390253142505697E-4,0.0521079301208224,-0.5391135960373785,-0.5032009899969734,-0.7767203858796339,0.8241032400266938,-0.6163755267651777,0.032354465557106936,-0.17667366926274075,-0.6372429765442391,0.00978012150549512,0.6020183056290707,-0.9805177818700901,-0.6746231988866553,-0.30032127438691547,-0.2209205380226995,-0.09510229230398348,0.7658156829056673,0.5488878794214862,0.02653287467569426,-0.5518447877644431,-0.5058283800168033,0.1926324993963237,-0.08084936566586384,-0.6617152535500743,0.5836547324603344,-0.38019543608184014,0.499957389446768,-0.7642279548890532,-0.9808963150636526,-0.6642586493439447,-0.8552393713758857,-0.653866703122321,-0.7252468441108325,-0.04319752308701326,-0.6006064539281848,-0.7632547829243351,-0.3432968588519147,0.15336767553828135,-0.9706320123996692,0.44404423204040344,-0.7180363686812152,-0.6713653989437056,0.8289079833861979,-0.8654174619902598,-0.7340975825981187,-0.17158361296165692,0.09475686878977221,-0.43394295929701077,-0.36878728690909196,0.4164868242944989,-1.108576634961004,-1.211361787986926,0.28111174358836066,-0.885132492165705,-1.357219575927217,-1.3152484788115517,0.32304979093839925,0.21938323398055432,-0.5542402861393804,0.8328387493845212,-0.28630490021819394,-0.44754814594469844,-0.5907079421258691,-0.1317457671680966,0.8962273270379296,0.11864820126597304,0.010551493280973994,0.7700686562830787,-0.23219123756738247,0.5194692384284172,-0.5440963531380524,0.24038149911167755,0.45737698873032867,-0.4932157258664613,-0.07427247603924914,-0.27340744646718423,-0.3077757355427234,-1.0714275079090312,-0.3051534764894035,-2.610917059434377,-2.2000581632856067,-1.2711171448699545,-1.5467828137851718,-1.595525190346009,-1.3964442524708982,-1.7771636128613766,-1.3318891465852924,-1.3962936088214275,-0.22024493398349215,-0.6625749638000302,-0.267406524884498,-0.5626226989055119,-0.9012287310352299,0.5616958494104582,0.844200579605379,-0.8517712683918678,0.8004858574701028,-0.3370275305893223,-0.0632280465319738,0.46695233037690237,0.3390022415544203,-0.5210156487980276,-0.6979922750451547,-0.24753568975044296,0.7293606258828876,0.03212265371327278,-0.4923193997305466,-1.1234535947815563,0.13843526058995068,-1.7308031703745355,-1.647008539122326,-1.9395219276924192,-0.6801754398617427,-0.33348417632337524,-0.9920665378449353,-0.7989221782699347,-0.34875049981004574,0.21469202261682027,-0.05941089707858823,0.28143592597615946,-0.6078539240434814,-0.5267852773287287,-0.6672953075626559,0.9688786571155372,0.9324927930148174,-0.651324240604685,-0.0893281869183666,0.9435794651695731,-0.5472286094154232,0.8502655412909847,0.7088652204635013,0.7077928655428796,1.1924893787620021,2.0817080041179885,2.9686444307650848,1.6295444838445536,1.0717912238865133,0.04325763862535579,-0.6928182768806691,-0.47139976623726304,-0.05047989490128862,0.6031409048213542,-0.13894953752166633,0.8815197312050221,0.7209973153749959,0.5635926729672115,-0.05012613707521442,-0.8996910455620976,0.6978022122288181,-0.9351220245768508,-0.2749296623576088,0.712287886416219,0.3276569956024004,0.30791252757296755,0.8186729372648709,0.7245526211989067,1.2814739619220177,0.5943957804375971,1.0941777175905891,1.847308509535999,2.657848518900685,2.0488960485447505,2.704953875900311,2.2268789132838656,1.0867675136327037,1.4100432012735675,1.4964516966433445,1.6510292041824821,2.44629787116005,2.406969764413287,2.0656973253477577,0.32283383790722675,0.4180915286747589,0.9394242806778639,-0.41843170933876955,0.654194314819002,0.4532386433912011,-0.05447973241116307,0.2457979203702509,0.020047831879164847,-0.1833886413786153,0.39465054455454923,0.6155775543143851,0.37028884596240874,0.9828372364561623,0.42087802690436055,0.4105041743267289,1.507919567649478,1.8726477503955152,1.0654889604967148,0.9921746807944676,2.006480497793868,1.4649412371900619,0.4953463608415779,2.2685869658961755,2.5963311328850733,3.0838520015894217,2.6747147907184377,2.7105121688017086,1.0398148610395823,1.514041086924136,0.4982236373950359,1.1764380478978653,-0.7380864609672283,0.42463028808675285,-0.8567525963374584,0.028025215097047567,0.33833228326865034,0.4475246712333209,0.8734691812765359,0.613643797413028,1.071978696753529,1.0521531046970685,0.6123073427951211,0.4030499451571259,0.2164176911480635,-0.6592823238493709,-0.021232279991305506,1.4097224943607143,1.8612031963560092,2.1982079232699525,3.404868603639213,3.0832523643415692,3.6135681885147974,4.2507773855909345,3.4422608597423543,2.9525025680974673,1.709778242701429,1.2691328470248486,0.10099444479403075,1.2832860978315506,0.038611360318244074,-0.6894346018229663,0.33583904419793564,0.2546902216037263,-0.17272711907185462,-0.23826201031114247,-0.5573500506342012,0.9214820140421395,0.4455856321611397,1.1090148546046164,0.038455033010527266,0.8135218467760572,-0.5860623605264107,0.010805246714543094,0.6478515537280178,-0.3828498111292738,1.0714324623439502,1.2666800954497408,-0.13598158953466377,0.711609006573673,1.1289458130622623,2.846622840803136,3.0165189587042636,1.585034486829763,0.821439348773417,0.4759284955521243,1.319429901131422,-0.9228001970221525,0.008543575114756698,-0.7325013014387205,-0.19334170974336398,0.9540977907874366,0.9263103216734403,0.783220124430512,0.7966605052248392,0.38848648943304753,1.3924196754029234,0.841547719641726,0.861233510012851,-0.13082644510423472,-0.3558711303815161,-0.9045229653211542,-0.5526183259216554,-0.8802157694562017,-1.8903906028343314,-1.5912846242021472,-4.368899383682872,-2.6966852575959437,-0.7040368504027315,1.0861474971943779,2.156345574603758,1.2961459329868907,-0.8778821222244426,-0.07079628874428218,0.07734708075482277,-0.8653353660511566,-1.213465374787328,-0.4316921253239213,-0.9561940579406228,-0.91063935280533,-0.3818375857084769,-0.6817840739168335,-0.3870262274271794,0.254833559876034,0.21201947619522918,0.6413067046065944,-1.0423526529471785,-0.6296391243332774,-0.8356569748381427,-0.9957952072508635,-0.3871045784342946,-2.412111331584311,-3.8607941298214135,-5.710118900941866,-6.844494112820039,-4.518489251895818,-1.221383990867191,0.46494298634898085,0.6358320027270217,-0.46960280165505247,-0.2571775636719282,0.16388528301236507,-0.3955148750667301,-0.9289919094192896,0.22208986451350218,-0.8282002914992377,0.05108614545040048,-0.7131840948793291,0.47965279728119925,-0.1433637241801482,-0.4667573126594924,0.6328969462177437,1.3214820189772596,0.8008765652755582,-0.3156194757003093,-0.4688409758471894,-0.45760772340823047,-1.6370174096394174,-1.710164064493014,-2.334255453171228,-3.673724682441179,-5.150460959356737,-4.470226206260504,-2.5574347856424913,-0.24676076698916094,1.055989162167302,-0.04395683526471227,0.7177209699785875,1.0770781205405828,0.8691453072723416,0.41807655932641047,0.9838227325481335,0.5319870859069902,0.17071630605559324,0.8560723028436464,0.9021209766815707,0.7300223394576972,-0.39229191971951555,0.68287369734915,0.26716691424560846,-0.6309417506269724,-0.386485938343641,-0.19325003944934493,-1.5207033245778145,-1.10988973291736,-0.8091886735026378,-2.754244733956336,-1.6157728697720268,-4.2414223360348915,-3.425595032824051,-4.389342689764243,-0.9435643725664286,1.0684206200842712,1.7041573234690195,2.2260505080355455,2.365266659560702,2.175088290511604,1.3174212366420222,1.8981049117906912,-0.33361770719600586,-0.9596055235538813,0.48712968689623165,0.00564556816311008,-0.521170343441499,-0.17476743468039818,0.5813976884680004,0.7082257205649636,0.7638811287398577,0.01711974146094393,0.6073631874506982,-0.43349624189052394,0.12820554375267978,-1.8132179624688798,-3.0483283835589803,-2.0930769989051377,-3.6844938312564284,-3.679051843560512,-2.1883199049652995,-2.150876032377957,-0.03287032659892667,2.1897390552438587,0.25312462155436655,2.21772192877212,2.5441465817024156,2.3340039949474303,0.28977748173924595,-0.20221531736398268,-0.3536490889392606,-1.1192984749940393,-0.6206731564981033,-0.8398304461715506,0.5005338640184231,0.6754750664981439,-0.6627824411481964,-0.5037871378517792,-0.06908531135718103,0.4074864522197476,-0.20671023958173193,-1.1603488011850167,0.07128323135976634,-0.466114490979711,-1.909613441161609,-2.2096709378211354,-2.5506512987569887,-3.0100369080900116,-1.7270038093580495,0.35690285957101375,2.0504576141331636,1.3542737567917282,-0.3405657777578926,0.18858318609274669,1.6512516017464844,0.5531615435675039,0.37966721805633946,-0.9158019056738161,0.1705770495433494,-0.4604069311660702,-0.6792552822680541,-0.5427404310309096,-0.5721994817510159,0.275044693893569,0.728862700625462,0.4079959663068278,0.760934679076755,-0.04721029959873443,-0.031247864664756785,-0.6698415182089065,-1.2893871239978891,-1.8797721574659243,-2.099904263884578,-2.2312558114230754,-1.5166088556891508,-2.343246137517123,-1.396628394289297,2.2312715527877316,2.190602296135462,1.6247997143880404,-0.1358653298494156,0.9648207664827642,-0.5066879481661075,-0.25078915027893217,-1.8747690304447675,-2.2861624913248035,-1.6955970969899212,-0.28885322321506174,-0.08503763850580114,-0.09135392544677046,0.906413993769134,-0.5657750179883525,0.4837407249641468,0.7885064219729021,-0.48615317817579495,0.4903642733093225,-1.3705280718377697,-1.2219284603394767,-0.8167602735077852,-1.869210851032971,-1.0824402518429421,-1.7697290930917924,-1.116262206334693,-2.0457781080146296,0.8899618503694708,1.586988792777544,1.6044858745968262,0.21162531808632756,-0.10424042506943305,-0.41085165833630954,-1.3958356055810646,-2.3179904205095965,-1.7415405815344993,-1.6716662000014115,-0.8034637391527628,0.001459555824631063,-0.34918936159756514,0.5046143239028209,-0.4129449482703648,-0.609269721414739,-0.16183664859682856,-0.8450938977769349,-0.7074455932939275,-0.6216698686808827,0.24251329728956902,-0.6871952697287511,-0.7919433906478577,-2.4656271868569313,-1.8274745557168601,-2.8977810946454436,-2.053323602727656,0.027449026775724188,-0.1324351920361014,1.0490360179563223,-0.031926123336350275,0.6937858194979646,-1.9600533914880824,-1.6499857549571686,-1.764958572666151,-1.6904189344121505,-2.039006948304649,-2.6619353415719575,-0.7008864925090954,-0.7602852311724881,0.3397270304473359,-0.9304625777437188,-0.6660769521648482,-0.6464251741830268,-0.9253864571941138,-0.31032823512616486,0.841615211720525,-0.959198917105039,-0.5853537413535335,-0.05540697639547848,-1.4177028472138902,-3.1118919438712673,-2.1768387681452332,-1.0751296626540838,0.2761327469276014,0.24892117487698104,-1.0398973590019085,-0.8206916785608958,0.04770452209825438,-1.3558092583501933,-0.35739164776876686,-1.5122119162639995,-1.8737704847570766,-0.9854137385414687,-2.1659665288633034,-0.6108261949229187,-1.8707975788595224,-0.06935306539042785,-0.13153467798195928,0.7332196384289367,0.40643612485126374,-0.5047652840526797,0.7653689053324367,-0.029976969892571797,0.9488078895366747,-0.7021005072089884,0.32127230405618323,-0.09379088399541925,-1.3347934693886458,-1.8168491074905246,-1.4427902483638604,0.09627779776037688,-0.493349812102755,0.08631029180855775,-1.3187314517908815,-0.052578034226655114,0.5956226803293423,-0.5888564671051936,-0.8911867018964058,-1.1013375466655966,-2.259922975679785,-0.732865559806106,-1.8629423388979651,-0.6972268038601478,-0.7340775975439058,0.22777372751290084,-0.4503262658363546,0.041811313090102685,-0.07317999480660883,0.5582785329871827,0.537405388373585,-0.9976639738075843,-0.02399536254774093,-0.8309790353026498,-0.8023326717706619,-0.8805545948743333,-0.05745353872445523,-0.552574248927298,-0.18337832473373522,0.4783407384803041,0.3920429550125422,-0.2156172581077186,-0.3512403572375234,0.9166907793277781,-0.0740507138651875,0.847611776452969,1.076164252822722,0.04074990464749803,-0.8080961368064724,-0.392079442102138,-1.287898206402971,-1.0150245333982697,-0.70451087312745,-0.6389885106129756,0.784404701780615,0.8148615585248352,-0.6641061657828995,0.08053375003642405,0.2915343207081196,0.31010437044017003,0.8062141709819366,-0.9975235907548111,-0.8776587465922026,1.1604468398933587,1.4651097909772401,1.64845087705706,1.0231573992211198,1.398156020279893,0.3206626362843304,1.3656140368912728,0.1331737965528165,0.35244397354240675,0.6877370593508241,0.7818495385868012,0.4369028460595836,0.9968453955528698,0.27323871476066014,-0.0685342939829623,-1.0081086310345468,-0.27894139305935833,0.18257811606425287,-0.6990580847393241,-0.2276983748150895,-0.2421019225154946,-0.6293855709293459,0.26830008439729025,-0.5650540925927843,0.7877590163882129,-0.6450088564367118,0.767284921066291,0.8953251764739162,0.5034302848690729,1.2642871244518898,0.7607121524940766,1.407165626499756,2.0503097760821314,1.35816975677136,1.9702243538071242,0.9944965462994102,1.8708575637176579,2.1480356463724837,2.531759621620147,2.2487084274734794,0.49674909258212524,0.6415167726256119,-0.3865026000684042,0.4471382557193446,0.2251576089990572,-0.6959160408072502,-0.7917898272177133,-0.9472049364341879,0.25348886151563504,0.9404206262051147,-0.24003353439392794,0.04482316487877891,-0.1430881065573688,0.9864901960012398,-0.47730117078901935,0.3163686118855251,1.2198797258328393,-0.5784278955518082,-0.38358632878488463,1.3385751964926231,-0.3018546154122802,1.376019522889484,0.3011878561724511,1.1076681157610264,0.4331446032115349,0.5206951381165847,1.2677521316666096,1.8608585624546863,0.10974846949239747,0.059542187010921975,0.9821821779310534,-0.8220852830580632,-0.3009250463084642,0.9726028945811689,-0.70848820287863,-0.06676362593368128,0.7653901092405924,0.6106708056201544,0.9227946724641796,-0.07829429025592072,0.8050885895019297,-0.4974783810710455,0.2615685364225433,-0.24288575578482077,-0.30428433309859176,-0.21517881621494495,-0.20602751340983913,-0.3589151129194011,-0.2820395567985927,-0.09934206492886453,0.3103540294888205,-0.2645899836397439,0.5245509923145777,1.0660312404101022,-0.03016355080479837,0.6172639640724698,-0.04481110855789561,0.987637299532727,0.8055572380890353,-0.8210562192753877,0.5760502039052017,0.43932406490502574,-0.599274732667797,-0.6833996760299974,0.7122275765707802,0.47405982657553203,-0.08647837247736856,
6:-13.198924827585468:-0.06938582783751301,0.6564537361363632,-0.9536724662754175,0.06947271961974644,-0.520896987627947,-0.1615225860452585,0.1466891886804118,0.14186369677542832,0.5917688406503434,0.44510295586785276,-0.2585403828357613,0.5352072516928688,0.06519748283812568,0.6822549535538307,-0.7134812189502081,0.37851003167696956,0.32022549710783665,0.1612495030525103,-0.772510858434124,0.6792577975435654,0.48301227959564286,0.8310787074463128,0.4120654789759741,0.057790189234582456,-0.6310615438874927,0.9428084793031666,0.08623226571533094,0.5407975926910946,0.026862524229640528,-0.6318264072252164,-0.1757180168961059,0.9362181731743775,0.7141576311407176,-0.052033078394561574,0.8616910345945056,0.8215780314199301,0.698343554102226,0.7118391235186842,-0.2684518807284027,-0.4999163732263027,-0.8809933370540969,0.7896269364505519,-0.1506295728443436,-0.5864585115486444,-0.7058681635332814,0.6253848541541098,0.7477863043741827,0.4484435851337189,-0.6822141626964848,0.7087366488890096,0.03170715131475726,0.33133588058087293,0.5715673592295569,0.454261006422475,-0.19376852522296395,0.8818142700481841,0.860071571183973,0.08808477309613516,-0.6763036980523413,0.2763176034489,0.2810279367041585,0.4418960270244156,0.9029090535347893,-0.3268975018410156,-0.3463364329165563,0.4081125321138722,0.7927757059515709,0.5586123690050054,-0.6457495207391626,-0.5240875672489538,0.5839729193423134,0.9974387235443426,0.7454860414426279,-0.7537531180416268,0.016807058295821856,0.6034732191838458,-0.9626619190503727,-0.8841697792546391,0.5903616980584807,-0.5031400189114278,-0.620804236846679,-0.5785062885128831,-0.7550210413452754,-0.23041808428531318,-0.7415924174563737,0.2551097376616984,0.5756609974310714,-0.9417214694334523,-0.13044169023791632,-0.11433488868123214,0.5244769026281538,0.704076031141784,-0.9825166310433382,-0.7329647242570727,0.3084333937993459,-0.32118206987846015,0.3324385763360629,0.4648534129200595,0.45968095266996917,-0.03600634719259714,0.0907239900834337,0.9918451242559873,-0.7196774538391708,-0.605581558101429,-0.19937959021860172,-0.9614015822353696,-0.24475350767437168,0.11892456702780131,-0.17411658810547204,0.3873038499437221,0.09578198486557858,0.7540987980219607,0.795286299274321,0.30099939325479275,-0.7547728639218326,0.09544868892980922,-0.6474201706806381,-0.7188685450174723,0.6744445261770666,-0.18684804913701208,0.8396009355964861,-0.3658902273464014,0.5080941892684568,0.9341867670221768,-0.05992398416180218,0.9285357319750493,0.4759252939884648,0.1084344074703587,-0.9955763466053362,0.25866282842903343,-0.22331591075283588,0.7285769671384108,0.8421363726520215,-0.11020460274066698,0.8926891950372761,0.636735328541474,0.0057879821828289105,0.2728379612060785,0.3971721318561973,0.9975305261731379,0.4040701235401758,0.9419892427744436,0.020169037486426542,-0.7774726210944467,0.8663741275216312,0.5415811646319924,-0.8597872734909515,-0.9032850946390891,0.6991436895700669,-0.5126835601117954,0.8922081594804547,-0.6167910092913095,-0.25695306895606596,-0.7254879464563659,-0.8996606976616909,0.008835809996597912,0.44013710468074363,0.14296484563263284,0.3587841857737838,-1.020510016546873,0.8889370473053178,-0.767295253852205,-0.500602988778917,-0.45272153917235386,-0.04755341490815332,-0.5203858796446691,-0.6927083748218308,0.13945868230501246,0.39000587840806666,0.11929943665700526,-0.8316186908208975,-0.12119110470523467,0.433561497101105,-0.97116996447752,0.47896778438467724,0.576568507889317,-0.5714224766743707,-0.6877379952934685,0.43686964231107356,0.4343544322259678,0.48824120307766294,-0.21779940707358944,0.2855842588185233,0.4837626856180378,-0.7889954258264078,0.8461938290514318,0.5635642898238286,-0.987480643236736,-0.10049326158784544,0.35371917359941935,-0.9686175446285692,-0.38880143330033357,-0.9718803008233717,0.20933171537378475,0.0018703942241159316,0.5307298764874233,-0.2365836725457671,-0.9215922622120251,-0.07477412971024587,-0.456649321341869,-0.324509348780433,-0.539212992288481,-0.2542583366453602,0.09827471253482022,-0.21788232964784596,0.6519556865229091,-0.7384033899526499,0.5019044596936219,0.916644694080224,-0.8639149896753352,-0.6663933526881625,-0.5426312370965735,0.30188636750780223,-1.0120163507856397,0.5555785994517569,0.6158329221792246,0.42224755920604257,0.5129579104922083,-0.5613209692666283,-0.8877656824371083,-0.3106233129833278,0.33968449232693104,0.36101579146605106,0.6529834899895679,-0.5939542909624252,-0.1944598378375299,0.8662869152334522,0.2012627759036645,0.6860088284330527,-0.14443692304416206,0.8849820048299457,-0.02973416244022472,-0.7222207757533822,0.19738017887511616,-0.6566747437507906,-0.6681743845123629,0.2679378503010015,0.21531274484258636,-0.9516274532129182,0.9217720986473674,-0.9368249032408597,-0.3043653149942663,-0.6748951584891965,-0.7457035756503869,-0.8929852261565195,0.2934522393474609,-0.10443665834558295,0.14641774653338882,0.9565376253499386,0.7966481848942237,0.47917781357909855,0.30070136548287013,0.35785275061747795,0.45583986645524033,0.10263156058494921,-0.13111250559172627,0.8863978903906827,-0.37494255481073613,0.7144266795257364,0.9044945710085647,-0.034500426395138326,-0.5892179240737878,-0.8685740839088137,0.03189694988458478,0.7206707961788755,0.7960121525632294,0.4173259191090633,-0.36258782954187174,-0.25973249756471856,-0.9289953461696365,0.16289011583764196,-0.28169111450479617,-0.589716823312499,-0.07835290908078801,0.3710355453871903,-0.4472834431797495,-0.4339793364150574,-0.3442583014665006,0.589294070452619,-0.45011239365618955,-0.5255662074891532,-0.4888094571202315,0.004802939289046444,-0.836706638178499,-0.7611931274507995,0.7348941970850117,-0.007654913514501213,-0.583485843829856,-0.4180662781306986,-0.052716334495689195,-0.03421324114428918,-0.9270605370444879,0.5475631222691262,0.2407504533442609,0.09894107915765539,-0.3580500840244939,-0.6472796444340011,0.42915529794180185,0.35165876752308656,-0.15330568971939024,0.8639101892399202,-0.4370292948248834,-0.9481097818572862,0.4138133141154984,-0.3778943299445828,-0.8172595924431065,0.7362536563892614,-0.32774637846542204,-0.14434988420215766,-0.8033143571820024,0.21844656294675513,-0.9476927725795833,-0.8271860319596701,-0.5897365398554767,0.8575822392603653,0.3583591816316179,0.37392637736923157,-0.24471790572264077,-0.6634631439881438,0.39246400361499745,-0.6231879374913619,-0.640465818732843,-0.7943739319142241,-0.9839822150214078,0.773612098012814,-0.5519246301259292,0.9192087471252582,-0.9249053010137047,0.8980675107685585,-0.17242905545671627,0.4596865254145145,-0.8890804950776546,0.589126260175101,0.6905747518047861,0.46647442919507204,0.9760491717902408,0.7839234017924244,0.16325102875918537,0.9785696565725926,0.5121426419036718,-1.0033869531197819,0.3462980311858738,-0.26680828485174,0.5028354139136927,-0.7164522986805337,0.08690342590078709,0.6869357554648193,-0.6980509788369745,0.8333707908954934,-0.4658948735916088,-0.09719807718963934,0.7328927808658655,-0.6228019366171774,-0.31578239592173807,-0.8834816404090097,0.5504837680879748,0.5862857889517437,0.5902726401949854,-0.31709122227554665,0.48989719467012843,0.6828300116572302,0.44249494337737655,0.9195095139981126,0.06444360016327104,-0.5639453903624382,0.6099437579929748,0.1610981026529588,0.021693243648877387,0.4563629480100574,-0.9836862154234315,0.7810265053568394,0.6323605664314195,0.02101965965430508,0.8263527289382165,0.2916611203956132,6.291727353762278E-4,-0.8286355124080893,0.11692006531301087,-0.5538447467611995,0.40175184238446976,-0.1772080591850919,-0.30266645802921605,0.8667154081685204,-0.7586257264935579,-0.15105699487011362,-0.9542254124765187,0.3887147478773253,0.24925468842792806,0.09562169242427021,-0.12696181392670297,-0.9857468581750423,-0.8003701853587945,0.3453117023537523,-0.12703409830165382,0.12953503862143198,-0.9613067554028145,0.10043011476557329,-0.24872118834385695,0.4972392477647211,-0.8273231731511999,-0.4768965812447623,-0.4506899871918752,0.4073815946501095,-0.998977151682577,-0.21881722581517368,0.08316464327122608,-0.5021246210995003,0.7612500713612159,-0.8872824248574585,0.32306176596276404,-0.9638375702157042,-0.9476992977538297,0.16767449172685972,-0.5782099813752248,0.9428312294890647,0.6256183005053864,0.16992581306307475,-0.8749302446153122,-0.0835481175016925,-0.6544123040844043,0.4909229046420482,-0.9505525704500585,0.2411587139219199,0.15135365689714853,0.39183950812046736,0.3234716488069467,-0.9985842888670815,0.7221183703028845,0.014600639808066316,0.3237296956012476,0.5225820401634336,-0.06552575744164907,-0.20678354368481636,0.06992518428153313,-0.22688617023688928,0.17373431944549325,-0.6271337605947473,-0.36111535709360004,-0.30304405814735347,0.8062010696878791,-0.616388828870933,-0.9517391004992016,0.2591919789111387,-0.8608831471926292,0.24088675159279355,0.3204123379764662,-0.3441312119972441,0.03470963851384033,-0.019998710531093256,-0.5474321700774206,-0.12865735527497918,0.022791948599922993,-0.14185401025459168,0.9063607979356656,0.3832496330983292,0.8284517032216759,0.3660726537322407,-0.639919908842338,-0.1574172872675746,-0.568362677813681,0.7948146579937744,0.25726651008798723,-0.2295121356780795,-0.9240982755956859,-0.09578294620382206,0.48338372190452256,-0.8988045724477536,-0.0522521600082254,0.895787195650938,-0.45244179443065446,-0.4078310397649539,0.8950530022616657,-0.07618409553466844,0.08451349360517973,0.6305873249262882,-0.5367436210013768,0.5623196638202248,-0.3893978680947432,0.9962192288925306,-0.7363354106244072,0.1041375117037774,-0.08419759068738607,-0.8399476803136271,0.7299316224977869,-0.7431389902902684,-0.7652161732952142,-0.31440850428825173,0.6346722091564305,-0.17290713090088117,0.7098991024265018,0.5415392158020954,0.07532583970283316,-0.572421031828426,-0.5306808998098762,-0.44392668153734477,0.43502894609010573,-0.0753849794178787,0.38635067811990076,-0.3802369195826821,-0.24978860646169643,0.9381353838861569,-0.37017852589945344,0.7925841944467235,-0.8321229854287766,0.6812423606598761,-0.8740076636704849,0.7430499804970727,0.37510363939118396,0.4788956552294693,-0.06082978647107147,-0.48970858462543004,0.33267380843313016,0.6653850840615301,-0.09671612538684304,-0.3063760567286971,-0.33518030579378455,-0.6839508202216777,0.7867627471269641,0.4495573313820759,0.05619376258040342,-0.4670884913028303,0.1491469297802405,0.9007394666517627,0.8226400837802602,-0.9420902501888649,-0.6552073946673681,0.45198821184911153,-0.41683634899151484,0.5623746337437571,-0.8067052490697657,0.5528399677278804,-0.7298073171885706,0.4145140583528282,-0.9984389651039716,0.8743062456461199,-0.10667780878889943,-0.08474007585939684,0.7434275050856488,-0.8706645836198942,-0.5936472647763653,-0.007792071121645066,-0.3882235187316244,-0.8119356594143275,-0.8470628994522461,-0.705179168188196,-0.3852897838290744,-0.0181048692348231,0.18457901623740397,-0.8404799748329801,0.4636100388627248,0.1684703188700757,-0.4306884098860139,-0.3246250000008214,-0.07480575891340939,0.6275306913736969,-0.4259728988561126,-0.4357481725643867,-0.2224760135876242,-0.12410316731759226,0.598709563714509,0.49649348790529557,-0.980500755790404,0.9156037146681344,-0.5260428774171837,0.7125171969812911,0.268682425883527,0.892136017104809,-0.6969033490501042,-0.30437732753346547,-0.2294292314665031,-0.3573939911930545,-0.8474424067393707,-0.3783841810889875,-0.7703289911960979,-0.007798996036823668,-0.8731698850531794,-0.28347715646498445,0.30323831291661774,0.9323185035460594,-0.12171101083067264,0.29018605348376203,0.7622130153963185,0.0664664432819959,0.2438741180283676,0.20603113521452354,-0.9926437706026866,-0.347085509005815,-0.9929092784314685,0.6388135348485782,-0.5752230974568555,0.5692758688594923,-0.8099601895899253,0.45357938421657856,-0.026653568362959283,-0.2428311872145659,0.6336856201766466,0.7903233594461097,0.07188490532363329,-0.6024001617405602,-0.365411038363722,-0.40859801179315597,-0.7520747610264169,-0.9880497899900468,-0.9013854635260302,0.7253189402746066,-0.9250268522414635,0.13098151789303436,0.39981263028046893,-0.7270291618162036,0.8697964077626288,-0.9757075472986168,-0.6626595241392655,0.5710442533755656,-0.5498436838990478,0.24891418856617148,0.9050847847572661,-0.42066261784707315,0.5181390521206557,-0.8254884630092686,-0.0755500268408045,-0.36526610606333104,0.11882072093159887,-0.39213117749830384,-0.949029258441806,-0.18088130143068007,-0.11998969368683492,0.7803673824646313,0.4368783718079437,0.5883256635061281,0.384483988595147,0.8949055348068271,-0.7536325653802134,0.42651166466486357,0.7991608256738358,-0.5656149451210732,-1.0335726474294997,0.6063063051769974,0.7690024174154136,0.006197130470235285,0.8957110000083739,0.8576692533366695,0.9768856550716306,0.11404332438154904,-0.5968280253540186,0.6896717946986344,-0.1951326995075804,-0.7183774751009319,-0.08263381329389763,0.38108592575743516,-0.5941119155490879,-0.45538079354879957,-0.25366777134240553,-0.21465246487874726,-0.17415600818700008,-0.39015194039299417,-0.02720248317679578,-0.3169150931747939,0.894253611011477,-0.3362791843497462,0.5508293585328136,0.44372730926656756,-0.2803717776657518,0.7930816947140464,0.03082589616179866,-0.6138363077682036,-0.2331233915347,-0.5003335927426997,0.18501876387349536,0.3065877342456501,-0.3417349863134057,0.5303318486548616,-0.45574346228991236,0.5593904343144727,0.07400138332901407,-0.09785237921059944,-0.5810738598483832,-0.5025427573658855,-0.13701323011643116,0.8892329665277572,-0.4086056995625303,-0.8597836869407746,0.5650084396303795,0.10284891206768174,0.8363728654676825,0.8980823439991702,0.25738373191364183,0.9215644853287102,-1.0026174728926436,0.36773954979164314,-0.17453147005253433,-0.39833312304045626,0.10212415285607845,0.09166517492566563,-0.0689708621778007,-0.6537804253453081,-0.9593661380109423,-0.9427713459080879,0.29359266939350825,0.9345545219273745,0.8554972026628722,-0.24949144846317473,-0.801269210626846,0.6781406076426193,0.9663443184986894,-0.8080314279789096,0.19209221945139307,-0.9151217112277169,-0.4468662307864279,-0.5241816812913918,-0.46972041045183294,0.4251440583146111,0.8699512343412775,0.7775078782807019,-0.4382198500321047,-0.1458714396066925,-0.20508206494474712,0.7799907622047652,0.8412639687255418,-0.4000887951486619,-0.5420289134652225,-0.6229136309161071,-0.16961828459851178,-0.4405855091934833,-0.9591900435505046,0.7989265976981386,-0.03962298958538901,0.8144510499059674,-0.09936366728576407,0.8786426488000294,-0.44781672569498365,-0.9168704879035896,-0.9343151517048331,-0.9096359563216524,0.6372620705701757,0.924239914608451,-0.1577227475969553,-0.8033939085168021,0.07282155181325019,0.6325904808320459,-0.21572967099079896,0.8696775060305552,0.5118271674780026,0.1948231793310077,0.5984021896165316,-0.5103148623328612,-0.2333040809578967,0.4189590891422404,0.6920912756125521,0.471702665485313,0.8966090344977368,0.4084786923238268,-0.9791982796547662,-0.06179317292586828,-0.048295325280354406,0.9196991475858971,0.6479508598582133,-0.6723208828991201,-0.2761485480333574,0.8238759964375164,0.005466320102800459,-0.3816155885892132,0.08165410906845122,0.888973140041213,-0.773354871103504,-0.7531713455970329,0.5088295305987675,-0.5970321734917162,0.12046148713504078,0.5131389922960177,0.31836409655701575,-0.22040072544767395,-0.6337521686020574,0.2910613414669181,0.6809504996923853,-0.7808653228928736,-0.6700395292623518,0.19818868933974587,0.08472035005814396,-0.2591363272298379,-0.46210358322935124,-0.9677315002822444,-0.865758239961222,0.4606745965843859,0.29121585326471866,
