3:-14.0506769827358:-0.46637307389024674,0.9720639427651561,-0.007293384492441657,-0.332793228728431,0.43402626235679875,0.7923901231078998,0.8411389807527261,0.8949530656078071,-0.009606038794766514,-0.8386237982529816,-0.7014280309478131,0.33089730081286284,0.9165598024170841,-0.25990655244366867,0.7870796627296566,-0.9885365093192789,0.9004578836001382,0.954624092527999,-0.8965115262239576,0.9025800776932655,-0.6819890345771344,0.3736576430268017,-0.41048060201331604,-0.7956327691175404,0.09984185028684012,0.36820178914214297,-0.8641822482233705,0.9649464423908556,0.40834189484009964,0.37548957038586894,0.36978431823225555,-0.474350435951542,-0.004479112093276767,-0.5573184924686946,-0.5037365627617217,-0.17032822767376826,-0.36255044028563177,-0.10802436089338607,0.6917835683061859,0.9484762725332891,0.878999042750412,0.9271088086145939,0.6968241740614909,-0.6850424560512772,-0.5270398909664483,-0.20657899207896652,-0.6898732110108071,-0.8998085717051364,-0.6393830466247373,-0.2969261969321179,0.8480437471334861,0.9284046286919436,0.8158678956555709,0.161183377330407,0.3338908590895695,0.7009983455667561,-0.5363576445709088,0.5470250403076238,0.1509946796606561,0.6802958122133483,0.2827809600701924,-0.14651154507748834,0.2200984435217421,-0.8151021016441332,0.41722217698089453,0.33754795209815097,-0.6292362265699843,-0.7436882697255212,0.6437541146335989,0.5011305851146911,-0.48940759874459716,0.4786310136153616,-0.3261127931961601,-0.719280876839308,-0.575604314541646,-0.22613987941941568,0.2083482823023504,0.7878853894543497,-0.2709757274057819,0.42083585918371724,0.2841772228006298,0.4212521395458168,-0.11612984177511754,-0.15021263926844797,-0.5629503938604312,-0.6428963450920504,0.34404403220052926,-0.21895811743646618,-0.11305061357599226,0.5507752232427222,0.16886124238083833,-0.7939945045481952,-0.4126081031194863,-0.7871132903534477,-0.7746734582291781,-0.6182053942106269,-0.18111587287253744,-0.5730032816987451,0.7303948399916402,0.506242659554746,0.6135691336133382,0.8978447297755259,0.4568416754359033,0.2686115351499921,0.4340604158778013,-0.8872552430978933,0.8008624183330758,-0.11853234020577263,0.47015710395169935,0.6798451262929003,0.20421409696644674,0.48889197918133065,-0.09662430830152147,0.9582939957925121,0.5927966777190692,-0.8216623730830533,-0.9429888860284098,0.9815301051124372,0.7028276007533558,0.20551907807686498,0.002692288944143975,-0.22920186558348957,0.25558594201086116,0.2994831823183419,-0.6817458674531117,-0.25854931345585547,-0.8345095656966154,0.016154554304600884,0.8577138318978329,-0.8251481072742496,0.011218694853751127,0.25974395415489526,-0.8180055109851363,0.3489088537587887,0.371129954506766,-0.6588154026919921,-0.461817798382655,-0.942051599075498,0.8576774982242757,-0.16435403335404697,0.8191076063152314,0.6941429518360824,-0.6292751815606814,-0.40717126782063245,0.46156778867255294,-0.6433668963179423,-0.9135379935146112,0.10948999080249493,-0.42141194823696265,-0.052210691852487,0.31566246223187244,-0.2710922345296489,0.9542539088379145,-0.7613947372787462,-0.4975267308977142,0.7215106036077408,-0.7088344254220094,-0.5102705192360866,-0.4485993313067274,-0.9362847040514791,0.311206286030139,0.44301234217761365,-0.5473754007942584,-0.9209859684563192,-0.839317487451564,-0.5147832615523102,-0.3696143177039585,-0.895425576910048,-0.2859670504525984,-0.09313557370102685,0.5929550499550402,0.44551783414463786,-0.24393611986035663,0.8167992268696681,0.2216776943349622,-0.3158378096018671,-0.26018670350795486,0.6422095319098938,0.8860309935518408,0.7286666605754725,-0.7064828916279717,-0.8021304841846535,-0.5659381159643827,-0.3291731469010809,-0.3299296872118479,-0.8109681472556483,0.49756123989331824,0.16891005077671628,0.026861316957350802,-0.11817097347989708,0.4810987464206484,0.36088092449060594,-0.41278890785227107,0.3871509257803964,-0.015501054001241183,-0.016569547660983792,0.4541187347905133,0.1337948933470607,-0.6915802141942547,0.25705665370152975,0.4047153531325837,-0.832657673654217,0.438649660067884,0.20074730937398508,0.9234538862254779,-0.23746766046224105,0.46628405484858954,-0.20033370958007382,-0.8693870568222735,0.15877473281143667,-0.8599528699293839,-0.252618804291578,-0.2058738007900548,0.42985269801850823,-0.205322852995656,-1.001853049854794,0.36082014473193624,0.6942431038124894,0.7968999064796586,-0.6290468852749947,-0.6704316646448378,-0.8286823488542486,0.5496898935349306,0.5449102853043571,0.08754438018070029,0.9110749405169425,0.6271839744465857,-0.5970119392757985,0.08924442244180605,0.9763064827233734,0.22713227626133867,-0.024389225567344748,0.6567450241208218,0.250893254956089,-0.6270340552584249,0.8958167343119349,0.9130899043297434,-0.4544692893293588,-0.5012637641763803,-0.04709325431404761,0.18466085416513814,-0.5572629596867141,-0.5385919413856802,0.7592090400027408,-0.8339399545788168,0.882509913209739,0.7230904909445817,0.5585425059770622,0.8461908706497778,0.4903521893550823,-0.31220388134286425,-0.829109655291545,-0.9388176225753329,-0.1809598219678757,0.7204565720032332,0.10384308023886839,-0.8110180605506174,0.042637987529234256,0.578721547940706,0.6269701078991655,0.7788166854454087,-0.04238123739086056,0.7748353954172706,-0.23658415899681803,0.6758967173134444,0.2941242796698581,0.5585482644190712,-0.19838032162287583,-0.4735157360569553,0.49107573914464825,-0.21167470007000783,-0.413197717265261,-0.3940681324354683,0.305282927015988,0.6798788534564183,0.7722205487731254,0.08851470208627031,-0.5583155871021501,0.7216510991761315,0.5132948265091228,-0.942291151629838,-0.4928555119325341,0.5992085017478874,-0.2770047442766019,0.8822643691643844,-0.8745600754719903,-0.7939940510085222,-0.9961550824101343,0.31440365079377974,-0.7247296441123121,-0.38734222331291207,-0.1566350287866856,0.12437857103745266,-0.7601131892600046,-0.7387991074171543,-0.2114491520620168,-0.38708163836954196,0.08887321032510641,-0.7907115233037244,-0.05975147557861477,0.18971649154003614,0.4908138549472683,0.4721356098056628,0.27739350282500047,0.8104700141441182,-0.051586744260791365,-0.8367602207813261,-0.34953169289170183,-0.14608158331916163,0.2276936000630496,0.43449539611221516,-0.4639148100940601,0.3386095432005802,0.5808648499549992,0.7173901134762216,0.3486592103323019,0.048419802302366206,-0.2222898407543229,0.4769392874532283,-1.0489055348821459,-0.1274159356331459,-0.31585706068021835,0.9989663140838396,0.5163073822455203,0.06486673030591142,0.27903493683045505,0.32453755887251884,-0.7277695807628397,-0.1614629993584704,0.9203777160427878,-0.6497785164729355,-0.4724909352787583,-0.4250894853481083,-0.709199469982484,0.20795881841630656,-0.5798061724380759,-0.06129298082870116,-0.11436054516421457,0.42647320421834706,-0.3735881523399289,-0.46553309624956934,-0.346529740123684,-0.9817756878650797,-0.9963125793987788,-0.9270619629757768,0.3276065938696164,0.7343175746504673,0.0302586155587411,0.036425034650628005,-0.8225542718056141,0.9790458451977324,-0.0060928201922452185,0.5055864110912043,0.4174997611344519,0.8389506717146291,0.22010822613219358,-1.0022495329411274,0.08277599294212576,0.6596169383557785,0.3281573448931949,0.2479294724398404,-0.15936179835718714,0.8809126983688403,-0.57973793333435,-0.8454216377893417,0.778053926882022,-0.33944060335949344,-0.13689581272481385,0.4475132551317744,0.1460256026161153,0.23846072863483622,-0.3281544254591752,-0.80322712501817,-0.6601667068244215,0.5579782192856978,-0.43607250457344776,0.8975606219677065,-0.4630743075359731,-0.8807286179491651,0.024903236343954388,-0.6463450723280125,-0.9431919047451709,-0.9677005663724643,-0.5586520548531586,0.7228629502002569,-0.1684552805031809,0.30370802088954013,0.48424472208588,0.6888043813506617,-0.5939613822431434,0.5278068550777129,-0.6352374902157665,-0.6605806044036107,-0.9496643334876773,-0.9911130030999473,-0.8848853612015557,-0.6237452961822655,0.12964393487210568,-0.8789363827230909,0.502228730951378,0.15004633511016838,-0.6588439694595337,-0.3270345206137932,0.19902268666766965,-0.16692130519379766,-0.16059865762991427,-0.9810476583865168,-0.048452879522353734,-0.8635643452359525,0.03387596340556354,0.9083695876551001,-0.7142248348072204,-0.8764708538203757,-0.19066442501358435,-0.20538845561200858,-0.05365282749290138,-0.42934528820792606,-0.8630065978921565,-0.16285360344074273,0.3690346308410155,0.8456805910877154,-0.5628197926565137,-0.05890799265209273,-0.5957490670743147,-0.7560097667246737,0.38966017345985093,0.4499807157277074,-0.5397869323180455,0.4822767599321278,-0.7818532312955913,0.33402880441925936,-0.8417799009663604,0.8067459987432021,-0.35759145682394206,0.770972842581067,0.05332591329288686,-0.5532584644922253,0.4741960480072976,-0.24559870551471485,0.7372354763027009,0.3595294689370743,0.2523482075386124,-0.9004676539135933,0.3651419416386243,-0.8435351380447481,-0.5867259388379206,0.2620878398247195,-0.6915191547711097,0.9019884025355115,0.08489090645694586,0.10335472191932124,-0.9201156163157558,-0.847319090153557,-0.5356002142001961,-0.41998106630371557,0.9335979915801396,0.12349113255140659,-0.12319905141327338,0.03602993587734969,-0.17750244199802498,-0.17247523455853017,0.6587169400395918,0.8028709463981064,-0.22156972851739345,-0.05158309049591325,-0.19460068250981108,0.7987558952347521,0.6109701823209606,0.3902213572066134,0.41816599443908153,-0.36029758654411254,0.32421317459080723,-0.16416960111889575,-0.7655156649381007,0.5794294941060324,-0.34379036030755383,0.057607537531033426,0.1676046777966813,0.7057490058075493,-0.7751353066371325,-0.8823549300774934,-0.056731869985142395,-0.4522545402750712,0.90437492712843,-0.8589959566744154,0.6302569195393458,0.10370202108500276,-0.6822601184891299,-0.6697840229445664,-1.035781664428176,-0.3928789457986647,-0.5870418316370695,-0.5911514343451453,0.28509400661723655,0.860377739005599,0.6763124441703837,-0.2584952457688041,-0.6441812361457283,-0.9625703684476212,-0.2626002584599086,0.29558801002953444,-0.5793649995648369,-0.6201261345086507,-0.8482566691167965,-0.5869397270121628,0.6135657387535017,0.12730915098154827,0.2764733268403751,0.645300302193656,0.9599824798629482,-0.9232940215951286,0.4539298195855021,0.7351076092757597,0.4124471422126051,0.4510322444138549,-0.9868742433054755,-0.8293896213592382,0.2985864506815882,-0.368204265769106,0.13073264413761587,0.24446199000754412,0.07446266332018169,-0.24475826981170215,-0.4630889599210792,0.11197066832880838,0.11620904759188612,0.9051838375301252,0.6629044052977034,-0.31075968801036497,0.41237765871537974,-0.4721760264427202,0.28778929611632176,-0.009397391782870468,-0.45148732943081993,0.7047829896232642,-0.7944616648312107,0.7216246823418235,0.07632803242236146,-0.46530156365690745,-0.6049466448272185,-0.8050330891123105,-0.6759817936718904,-0.30004092775127233,0.6585595895247327,0.830408264753852,-0.9565979719358104,0.880853576126978,0.5282764804080691,0.7814176917330227,0.8617438628855992,0.3475872192705689,0.04834450795099082,0.9847525598990883,-0.9298665491532676,-0.059500227781125035,0.2998636783468751,0.5450396590158059,-0.3292533838648963,-0.9393705699567518,-0.07565987240270121,0.4361457118621659,-0.9581397871440577,-0.5848031044813963,-0.17123033128225162,0.05312409003603419,-0.6322508523657265,-0.2277796460882618,-0.7835607110075375,0.004363290232587132,0.5830095053262618,0.8452674960958033,0.11521775062171521,-0.4880379641110769,0.11968852917770477,-0.026303904334215568,0.08837411165982334,-0.35530592164951313,-0.3663769958864013,0.5251113525666448,0.3060900656974733,-0.6917517587346383,-0.6846674600716016,-0.9338808066434637,-1.000000590639281,-0.1725603052456749,-0.6888855671568864,0.6163293647679737,-0.650866729115555,0.2696035138875421,0.4072966301222025,0.09427295653432988,-0.3773577721144918,-0.33304914850977535,0.1405376762503756,0.7142234991471844,0.005348147160147822,-0.4848930214445652,0.5299533638526179,-0.7768062491488555,0.818415652606101,-0.06131313451607344,0.3217100891979543,0.2415508186071734,-0.10168198179132236,-0.5183787185106083,0.9848623701194683,0.6325062333487428,0.7953972168037095,0.02550600099140125,0.27809135532423923,-0.9757973251249877,0.43796581578297034,0.8021335992634206,0.6236626975101189,0.28558444598915117,-0.19923280811721344,-0.8864639407988499,-0.337034453858084,0.9512113550575404,-0.18610476264932385,-0.530846455381034,-0.13635211577068979,-0.07689431989402622,-0.31551551530238314,0.7257124584523511,-0.5392555728798252,-0.8184586424241644,0.9077500712561978,-0.6835254463687854,-0.9989696938080053,0.9216858198948665,-0.7539455084546496,-0.23597914040573378,-0.9440371574984953,0.10048212491201233,-1.0013805181456052,-0.45553489495460636,-0.4806097996513009,-0.8626576647490116,-0.8305725735019277,0.9619325199439084,0.7725023125916001,0.7776285701942762,0.8555348222175587,-0.2696494122962616,0.7974183805070729,0.44733083325490647,-0.04950717591910403,0.09375362059355756,-0.3635463519629397,-0.021948230125397473,0.20937165617373463,-0.8291739055124664,0.7574477096238825,-0.8776214692049615,-0.7208258932129857,-0.30290905452408523,-0.04574939244995631,-0.50087122625202,-0.32136039533452315,-0.012085835075472999,0.2886435561071875,0.20147582818474372,-0.34476615032869307,-0.36880110565002533,-0.9976098541369274,0.05184090002738958,0.2379352287274532,0.8959444848347456,0.3062549234859434,0.9717132056995,0.15130342661398388,0.286212365509078,0.2160197560701449,-0.8985782572257934,0.7976473722807375,-0.5350749447107334,-0.7455141957810592,-0.18463681899875442,-0.2494644200460916,0.9805215229049892,-0.2440794683692603,0.8403966632058355,-0.842155674916667,0.09898304889986966,0.5398657855827234,0.7919495246058036,-0.430311998960308,0.6892314199779376,0.20480648009811642,0.7155826111025422,-0.33497204599142133,0.10066692398969604,0.010593061877405344,0.3321698449118259,-0.42604739531057634,0.3265797164718512,0.5570480670089399,0.294656688413541,0.681532752196067,-0.9647934759189134,-0.8414711928234304,0.4632955692747738,-0.9043234486938179,-0.8266874906946066,0.8892125227064892,-0.8476324450997684,-0.6603060401462508,0.08711899498575626,0.4331191371775107,-0.5707998173833169,-0.7693580529044644,-0.5818666663718988,0.16143222879813154,-0.7661711531388152,0.2365600758138185,-0.3547315278915809,-0.8161857763401656,0.8267069676194143,-0.8134790956593031,0.19651274439933225,0.2655585739919134,0.9307186519789356,0.39632895045497885,-0.8116452670697986,0.3073386466360974,-0.07824793170335556,0.33979150414328796,0.58018563448667,-0.017925547183549995,-0.6304195821802119,-0.013871968362550677,0.3463624588182045,0.4920713863909633,0.4595671353787525,0.46700997836404196,-0.4950912320575131,0.8814513148006085,-0.5927377014606767,0.3729469057043235,0.3756365611431211,-0.549070072263471,0.1644326991980023,-0.781237116656723,-0.7458796217594758,-0.1828715677112668,0.5578422458734158,-0.1800683535317291,-0.12326857435024023,-0.0516811168424601,-0.9480096940342538,0.2163561948243527,-0.5248162033186028,-0.9055317201179537,-0.45757219442295116,-0.4701041693812149,-0.9828743819019115,0.9947695429439158,-0.34987362586352555,-0.18028739087946177,-0.6871965173996084,-0.0986150103758459,0.4732479884658621,-0.7770436330388255,-0.9334470284144732,-0.9352983449180603,0.4758828100165086,-0.9981776833622745,-0.3351363867962922,-0.8572693169559896,-0.3981887120535183,0.05902165172912617,0.5195469285494266,0.6745015460306608,0.685921209870615,-0.6799271061792398,0.12005427489183511,0.2371026588742497,-0.47136308054026754,-0.9550740703802295,-0.39667170669054697,0.1858523276866031,0.3636951118472611,0.4790604008235748,
2:-21.84312711904078:0.8702671394602453,0.872657081804165,0.8920145431270181,0.9064823480336539,-0.11941444774759447,-0.1450349506606805,-0.7671356645039165,0.6244179873975135,-0.22219784164775302,-0.18216462479136664,-0.6309601978949166,0.9451026365771218,-0.44086675095117184,-0.9491495965489444,0.7501738607848287,0.8224359870935716,-0.7832328425970567,-0.40481244135512506,0.03414381621403062,-0.6957730441077021,-0.27426859259741465,-0.1340915016168911,-0.462370551961667,-0.8595307157849792,0.973694568141696,0.36739142141422665,0.5632644333837298,0.5211588764374753,0.9185453814015265,-0.4423540175393874,-0.23859333690069384,0.0670040866619428,-0.2929709960690656,0.8805086367667019,-0.2119402279677925,-0.9343165647072944,0.7552276436841373,0.26598104268540024,-0.5611353834588978,-0.8776747137184228,0.784864336006417,-0.07444861571754573,-0.9087769109624058,0.8613737302839957,-0.8308051633664864,-0.5286814486239514,-0.6585008055314809,0.493580269207738,0.7008270084740593,-0.3492499429374886,-0.5684679910744885,-0.23382086383851963,0.7208823222635832,-0.3794153514367975,0.27887492873520925,-0.9480598276491683,-0.9743800156125388,-0.8722096840545137,-0.6013750845457704,0.8096634258750536,0.5413106424342458,-0.8977529958871506,0.28225758135577816,0.9390049195816771,1.015328637431585,-0.58761590163888,-0.522583807276847,0.046710841352805135,0.19412715085290913,-0.2523929345850335,0.19230012437086577,-0.23957585719718233,-0.8568711495380493,0.19658998097700264,-1.0284478101046157,-0.8098432907413599,-0.6931777049866126,0.6545523437389638,0.4256003078754053,-0.32901575582324705,0.8063330968796258,-0.9648301483577308,0.731886851349532,-0.6500817419494243,-0.5325861996231496,-0.9535497433213194,-0.4810759492041541,0.45764324994721295,-0.9854637974735522,0.19953632921548556,0.6816917095102764,-0.25055017744184727,-0.48029652855769994,-0.03890958868343402,0.18097878194674544,0.928853950178332,0.6859429012065825,0.1520898051794593,0.022126929912865034,-0.2519570887462481,-0.5351376077104966,-0.32927592217621704,-0.9424019618990266,-9.589216245199939E-4,0.08569839675249268,-0.3459591492632724,-0.7940193011583617,-0.2869971105665515,0.32133129262787324,-0.594498783603308,-0.8413546749549726,0.27304034634880825,-0.20676985975663964,-0.3554740677539288,-0.7658924649559984,-0.28803204427896706,-0.9842567009300544,-0.6634940874403624,-0.33547031039625963,0.6053359942442891,0.6909356640401475,1.9921278336160217,1.1671416280004019,0.3299914379266491,0.9279087513001164,1.3221950265083195,-0.39844868145252926,-0.35747620998410395,0.6798525803707587,-0.025992142354802156,-0.3549211170527957,-0.562834134701821,-0.9878351469094891,-1.2811130255977274,-1.204706647267563,-0.7674942647334566,-0.6449667681903904,-0.8625079331491851,-0.7030244690250214,0.4886458855765452,0.5260516504823318,-0.4578005977687032,-0.8803136548091306,0.11624905080744337,-0.9178977673935088,0.1950042804023755,-0.08942490992589522,0.03257668886611923,0.2117628442350874,-0.20843768193305404,0.9942364990787134,0.49646674296772436,1.0067169927823159,0.734893354280511,1.3947530862126636,1.2217992675437732,1.717662588853062,1.098342973642655,0.8298955727051317,-0.4224538433078813,0.5656422165881605,0.08579753952161434,-0.25392602143772947,-1.094073467081009,-0.027231520818792026,-0.10935461567933892,-0.5184201622525055,-0.8289454201226433,-0.028264194261060638,0.27919690482010434,-0.03077331983598109,0.5757719954727851,-0.07649105496163086,0.6863220966067662,1.0415075623545675,-0.3188906939915138,0.2972617493866176,1.0602934394517265,-0.2635708477360473,0.7705063153049774,-0.49997928219145393,0.7302999924300878,0.8989847140562828,-0.2706864120990274,0.4635526591686386,-0.6374044362919997,-0.34755759944462156,-0.34805128693704895,-0.07127657539232228,-1.063189387705396,-0.6196149932916403,0.020155126794800065,0.5172294054559756,0.5033228833450192,0.5408540830048867,-0.9723650612548846,0.9834805869155182,-0.25835379152888455,0.5805824613397605,0.82592276238162,-0.3585050270493133,-0.7852731995912999,0.43018311670193216,0.47749691324009697,-0.24203510568508646,0.05917310527074741,0.792632488845959,-0.161151807171357,0.634168224736483,0.03461472175703572,-0.3864991783669406,0.043656700905527555,0.20526046930145014,-0.0982652727832319,0.47398400846994715,-0.282454236703855,-0.468706882693802,-0.3371034100848445,0.10393680404587641,-0.543624044393611,-0.11489633058837512,-0.7085374210557374,0.011145383312487933,-0.859850319548947,-0.6497987074762107,-0.6682713637969628,-0.07057419240662677,-0.8045552045290714,0.25200941002505384,-0.05342232423014206,-0.8332029994250196,0.28712288967945915,-0.07627494544454803,0.010917913847342088,1.1689079892459133,-0.13612666452446176,0.3801716864399095,1.088410475163534,0.18641611723318283,-0.16238277434081877,0.05166241150001381,0.04449355226343178,-0.1682861774890151,-0.5328379115784742,0.13034745923122606,-0.5623561828580309,-0.0692043011743641,-0.9978674854482517,-0.6188991639723896,-0.45623298928929973,-0.351516225593572,-0.7185021406009162,0.9872253166406721,-0.8118528514821353,-0.9401237610277924,-0.6806995642898174,-0.6414604331990901,0.7936033074547773,-0.13246107562085033,0.662330858009573,0.6621242327920472,0.029619376021742118,0.32551780047875245,1.0137617557427794,-0.10888054654393968,-0.7222947855064878,1.1252539412488909,-0.01532486425893279,0.07790082810635875,0.5895371323528373,0.5196339861015965,-0.08372489263771155,-0.17164603238538406,-1.0300449930059645,0.4038148346011412,-1.0807809429402695,0.299772880327181,-0.7214845540290109,-0.8854981431019833,0.41829103224687353,-0.6950287763401348,0.05563135976222965,0.14045113219833924,-0.45873095962788124,0.5737147087376357,0.6413317128040484,-0.15879106534386622,-1.178663099672084,0.12636609138799454,-1.0531679146024555,-0.22692014037919653,-1.8792725132029757,-1.1298456523144977,-1.0173982076486037,-1.088610305046623,0.2599566738170659,-0.22175066209345906,0.5271228692257045,0.11552312793798797,-0.3354684317722885,-0.11494625967867472,-0.4016949711441993,-0.7726659710520949,-0.6594688944120508,0.6042378159524336,-0.3429863272240342,0.8466719555556115,0.9112420777143592,-0.9839419632966668,-0.8561816120027941,0.7288483080481629,-0.6639987973322911,-0.667799400217981,-0.6566892065814944,-1.5614219968108207,-2.4784096214322155,-1.1480302269536433,-2.369651228448633,-2.433573212968936,-2.4652340504918926,-1.8293811100734927,-2.955309900067143,-2.5292072001895223,-1.6287314818659766,0.3757859428716266,-0.5678888485245522,0.4953661329994148,-0.22067913094883404,0.05320590590886289,-0.5266525160306034,-0.22101281897820005,-0.8060440191860485,0.34668035119272245,-0.566871542462639,-0.468615497209708,-0.5917111242652846,0.2135381764427046,0.8373094134135214,0.33248132931223773,-0.5029415208506272,-0.40588094534197183,-1.887778485696386,-2.31846537524065,-2.5229493155723257,-3.8707700069870064,-3.5722733156868816,-2.045364362666592,-2.8821551411622752,-2.9407029385046757,-1.811243916656458,-2.658151076574157,-1.506723979499202,-0.9943548432627898,-0.526180098827654,-1.2025849679804737,1.0716478049445004,-0.23648384130794683,0.5855059869222112,-1.3860148140051216,-0.23532107923015577,-0.8007304163476227,-0.3396799100055431,0.07207569770744814,0.3722779401500065,0.8127282341627002,0.2974217110492459,-0.9684180693953717,-0.5635594458640432,-0.1998002511632931,-1.42920352952209,-2.132881314419211,-3.2329360629836477,-2.6301787703174084,-1.5956146783756955,-1.881328606883158,-0.5329683101941975,-0.8349817843911113,-0.8912143175957293,-0.3383420217259045,-1.4354379380109406,-1.2354389756745687,-0.2844638811752526,-0.8622867052774876,-0.12065394803670416,-0.7358370278067274,-0.2679048167747643,-1.1380126433162336,-1.191276160792175,-0.23236130640224528,0.8480940937984754,-0.19586139659394286,0.2265239865350058,0.39636896136370714,0.9263596654502261,0.5531627469486542,-0.002481181021655259,-0.16668412004738567,-1.579796432394685,-2.4731637482922277,-1.0658564127651349,-0.4433178020498042,0.0990943057975402,1.0175744989088933,0.8980622561937616,0.5848383910422317,0.38723455065243845,-0.2780910124355037,-0.540264468698426,-0.823216244377069,-0.3780799355873281,0.33717129881030533,-0.6820958933330477,-0.22097594177080532,-1.2214702236520611,-1.7121633316074163,-1.8522914288929608,0.26743864605763873,-0.6473890712197692,-0.5799034629536243,-0.6909063315115946,0.13761504589315,-0.736162065180873,0.9709384535627366,-0.6955503426652385,-0.5634394302622416,-0.2048013806104146,0.25831911513163647,0.3627831991473551,0.36304007545069256,0.7648499322225033,-0.2100332162833247,0.19800232724927047,1.0911642879771324,0.3904903975245022,0.39358646980542916,-1.2038069738389638,0.17330669719349234,-0.797454659569549,-0.5989816844787131,-1.073167779010255,-0.8145728430512824,-1.4200501545697002,-0.8305526152461953,-0.9825552917650553,-0.7227606490556371,0.12313946150693268,0.7465486757945722,-0.6150914222928244,-0.20238101989226243,-0.3269872039061762,-0.7638938911970548,0.51675144500806,-0.4583312163442848,-0.15089261289026423,1.059728664004041,0.42999537574592384,1.1217869232622322,0.30292283042314444,1.2568165743590771,-0.23794082732241162,1.169124636207976,1.4949493367991282,0.5856278683595452,0.44839020849362143,0.10023389747325696,-0.17869706906678975,-0.8711459169916745,-0.3040642644840986,-0.30145666146964434,-0.7607448890201121,0.4339160492865145,0.2877709695899738,0.9629556373765498,1.4936134683200137,-0.45500969923861234,-0.11779526237504925,-0.19575960323086727,0.22457133108632465,0.6997349821796479,-0.8075558729569254,0.007619182858251394,1.660892542444016,2.1365615839133847,0.5835490740724204,0.1959242416830049,1.0695820632057047,0.6357311206857129,0.8734745653020426,0.8328305707611176,0.8950981420044766,0.6921233092472057,0.4141764299981761,0.6056039760902172,1.2637951426265337,0.17553775084742962,-1.00200031815831,-0.26819559215481587,0.6960361080644409,-0.13308794788162379,0.9217681181096835,-0.002571824719009413,0.4577505995316565,0.49302128243833154,0.9772540724445961,0.11567641599615333,0.39650731339505835,0.6555863248455398,-0.540118054481033,0.635085043086942,1.2665589902832575,0.4346215006029172,0.725640828254044,1.472704266324839,0.16789953980822991,1.4572997666901415,0.11446278481196033,1.8470467763131655,1.1975929963708785,1.3219940738343379,1.247292519534451,0.4442598803871777,0.28837955645504487,-0.29495288214058385,0.14383951279854168,0.43421294413294287,0.49114732531452726,0.40940951894847133,2.311868639599139,0.9279482909217215,1.9702493760627857,1.0909773059710792,-0.40039482659736786,-0.0424237942167636,0.6144018130335227,-0.4996024577711598,0.38135511083037715,0.9890018827488949,-0.0018947630077777438,1.0848422321205031,1.278526458922478,1.0915258314177423,1.0989325736305282,0.5659069090976157,0.779911865589611,2.102707399500194,0.7382194634187053,1.5042741911446016,0.11259459477389973,-0.5748183962256354,0.8712001741895538,-0.06543388695756945,-0.0927139879340512,-0.14316853587559303,0.040688324727082725,0.5468030961421088,1.3737221393406271,1.8937572609505573,1.006543587551267,-0.14118908439031475,-0.29569780014958646,-0.4055229182439273,-0.7760608593721943,0.11618746258869715,-0.15339091537907276,1.5884699706597265,0.2458769510043917,0.554900008954298,0.10898875041479543,0.20441804620270318,1.167553852265531,0.8015968541411219,1.0955712846095682,0.428965357807407,-0.25391570028868193,0.05918481120585674,-0.4238596286195362,0.0033559784438090094,-0.31647394515268895,0.28577121484635815,0.622191037929707,0.4718305853032146,0.9120642118178712,0.09132451002058228,2.4631491123778164,0.5498265777925243,-0.40787485829672,0.38517377086177906,0.4546684974632668,-0.9439098870556424,0.28676285344474256,0.43756957231585936,-0.09575220107100575,-0.17290793255789838,0.37939890540662513,0.5987417925916019,0.3252813930740233,0.5420131112834133,0.33886063825548984,0.19052061623817368,-0.007684994705683021,0.42400131469266006,-0.6052479740804946,-0.6391212079561104,0.049664556838596434,-0.652908384139309,0.2581117426628007,0.2096469181759666,0.26751028217709827,0.611429128871978,1.215264020486678,1.4452374445753986,0.6512819206426638,1.5060471484511668,-0.30660892169465237,-0.5000239967185559,0.9903388973983022,-0.8135043415682935,-0.46079524362880986,0.86679257768047,-0.3410003140697994,-0.23409456613170973,0.9856270817535245,-0.3876225244762214,1.1687290876737515,0.02593890172494372,0.8316773148785611,0.841469434978999,0.2959120610294205,0.602096873950857,-0.17795604425615438,0.27664327279623235,-0.3878667410738317,-0.7296751007136166,-0.26164497106733886,0.8531104725386122,0.25065163585780126,0.5737365113893127,0.6144598818696718,1.5142552660029336,0.19880834795943828,-0.013564294333788862,-0.8859921155632557,0.9312557647964134,0.6102385572923693,-0.4814818181948155,0.013919427063282086,0.37803310861716466,0.3148786261821615,-0.3583696224499338,0.449593459952713,0.5240582194082674,-0.9943644942010745,0.0698996386225726,-0.47032383194061,-0.6337508780360833,-0.3954583467926651,-0.30678305296802627,-0.6713216380402285,-0.2771378322112137,-0.35586981828668085,-0.3006996659774373,-0.4971784043368282,0.3062589836938111,0.4331972170149721,1.0623797380748428,0.018829247336603575,-0.06573224212453732,0.852377702242814,-0.356358939267837,-0.7982767351231171,0.5323563330077503,-0.49179396959671573,-0.701505039966386,-0.8512443138749444,0.2759997933841985,0.7488142169511658,0.3399686571336338,-0.11277033670901479,-1.8450342424405877,-1.5912270432141493,-0.1327494292502646,-1.0707476646393828,-1.0470198372211865,-1.2376293530294307,-1.304662149385457,0.1816991111543361,-0.608002651422527,0.056061329971501477,-0.8787597148386317,0.30134501307318134,0.41374200386944376,0.6412670508937336,-0.26224744294950386,0.7050774019766755,0.7801887825615544,0.4893595761387099,0.7636268373326087,0.3225762673773381,-0.2518273904818578,-0.671213653763796,0.496052474909938,-0.2539869551699723,-0.6867011846989903,0.47420404073284095,-0.42809900001473106,-0.4556666742191004,-0.2677594889241524,-0.40032228554682775,0.02475262499642572,-1.0234140423628522,-1.4640089322631433,-0.7094592764976556,0.16804024602021111,-0.9934180718128519,-0.9498762509210282,-0.3568463130564403,-0.9399317244341149,-1.2887985978945489,-1.3281751397951456,-0.47207293551319474,-0.26719217730454536,0.4441376100059573,-0.11133622270630841,-1.0346369488117773,0.5733671157868525,0.9735296601763829,0.02754766938134405,0.7837047460666933,0.8305878997078777,-0.1493664683398006,-4.6451171577777117E-4,0.6523911827324895,0.18168849485247446,0.14572234458756486,-0.5220625536529154,-0.7046782969968476,0.3668064725433636,0.6970997393170284,-0.46823638787465915,-0.10730774908383307,0.1407431971613096,-0.25417406442996876,-0.7341588076353093,-0.8302977684415294,0.23405669766890855,-0.9236020668129824,-0.9350330603538918,-0.3981871238758075,0.37393979630019675,0.3109458685283472,0.36984890283352895,-0.4237469995008417,0.19293766708625673,-0.10435625197478361,0.8231393143110868,-0.8907845520730457,0.7313772007588524,-0.4814963815473301,-0.7104636351342624,0.5187220411206772,-0.06297381180459172,-0.023856408173433253,-0.6141051404301144,-0.7696493126390873,0.5832211269482191,0.17634853031691872,0.9458524117612904,-0.910738607371775,-0.9882466708302121,-0.3582232328055077,0.2136469781867086,0.8008231318121171,-0.7658684659214929,-0.7495020526492256,-0.7371128427599244,-0.14529371366064042,0.518418758965658,-0.9668686402583597,-0.6532226087751828,-0.7273876467014848,-0.04146680710413597,0.2312707981012896,-0.07221252648350918,0.8264236308874897,
1:-12.9446722786386:-0.5289250107621948,-0.4599669026846147,0.46764455708193875,0.7150751162982514,0.7655003407702805,-0.9892599688758099,0.42055189538031246,-0.5647895480921461,-0.751665153666961,0.7734488433426401,-0.2981277470687953,-0.3860857935545061,-0.5570980125767953,0.6356073857295541,0.6259025114143737,0.9380930217607824,-0.34666302843667585,-0.39241382768589816,-0.02075919598859599,-0.4451210299292352,-0.694168375512408,0.19559146453691967,0.5096192702821607,-0.31403360378328005,0.031176182467210767,-0.7495340229904921,-0.1458157105622644,-0.630722419509667,0.07874684044591507,-0.8807364365139962,0.36163075146355106,0.3219148840173758,-0.041271725248678504,0.043751558952335845,-0.024512111121669955,-0.22812773814955656,0.8285019301677785,-0.24024148492374464,-0.6287553206591758,0.7719950949326242,0.07077027243932224,-0.9264478986867916,-0.12210692051899562,0.988192830459977,0.755128810014055,0.8261959922615911,0.36485894050012857,0.24492443269850595,-0.7685622154443799,0.10410229854131815,-0.7618200606495856,0.21449192006135176,-0.02751371956401738,-0.18624096419519054,-0.03481876812513107,-0.44730635063999435,0.9650818010224564,-0.18911945074678793,-0.8652100174179629,0.5119043188559456,0.4428398077066787,-0.3410077590862992,0.9610202570779067,0.6036636642225474,0.5605870808333371,0.7897277519231626,-0.6499489318712953,-0.7636271993969569,-0.2705654018316304,-0.6531178027791232,0.17671023443513678,0.41971104024017847,0.7632154422361547,0.3185300056048825,0.25406763580974556,0.6059033626970721,0.7311242555947614,0.6962827984390324,-0.3697676131468629,-0.4710167017958017,0.4680354913324355,0.3480269954427664,0.30933841265932194,-0.4932884168407823,-0.9368823885087425,0.05024750767796715,-0.7309055021217082,-0.9141726022215031,-0.6709978562058198,0.6983089763047878,0.7351640952449628,0.1398231629993636,0.24790577803470773,0.09783129097773548,0.07303234685117838,-0.4305465870174776,-0.302252026698548,-0.06243506723619607,-0.6290922622150452,-0.3903069769295403,-0.6195648645640547,-0.44607344699158663,0.8125946974100605,0.41289597019093066,-0.1938516983786329,0.9196431592825972,0.2771696341329294,-0.9436021300076023,0.4315788970273186,0.9236888165086035,0.2526742289023482,0.4138365765911389,0.6067248404975072,0.4569900945621692,0.11394093624318086,-0.5670215981012618,0.8539866392406661,-0.9218733109256109,-0.9099521445539076,-0.7211525562997083,-0.8150540217732304,-0.8944804417802973,0.8347311203335602,-0.4717656124097341,-0.34911809684459477,-0.13903698429711786,0.4090264732930875,-0.8511204703834384,0.15298639206286332,-0.468594330950316,0.7167318135681552,0.3261558097867109,-0.4092525427020827,0.49792921880368374,-0.021005106062695518,-0.5162539392883916,0.9705518100831354,0.4825260703054693,0.40090781036663703,0.41112214747674614,0.6971896639748814,-0.09668568575176062,0.07880425578630892,-0.921835778435278,-0.4917085246885193,-0.30126003497954174,0.5683046172730087,-0.8445772051696631,0.6739886085397392,-0.1841620519382164,-0.7024440621903147,-0.3285351775030109,0.9223472510687688,-0.050654236117110556,-0.5349361040862437,-0.07142915623254543,0.538881818315523,-0.18451450953737988,-1.0172694718878525,0.0034631332843778452,-0.8038619214006971,0.6483068824219054,-0.1677993997799121,0.8950034984265125,0.041204135319068955,0.09656998394404849,-0.2959572358133985,-0.5686855898210846,-0.9223230951228225,-0.4174218887151429,-0.498058287356849,-0.10015566975491871,-0.29075552098623325,-0.17781428335114344,-0.8126631311906698,-0.7622150729567,-0.9644309188120376,0.8863861308293632,-0.38240261269963655,-0.7170125574165161,0.09083948207340455,0.6053678746025598,0.7964011403680736,-0.0036720910782351334,0.3296075060079464,-0.9521699972759106,-0.626800221330872,-0.356083161093214,-0.541533944185373,-0.33797848824483434,0.6949468207530751,-0.15598223541986284,-0.6666563512794816,-0.8421472301693222,-0.8685892918739113,0.31820639780309407,0.6772792283508666,0.026053952926526344,0.44728335309679645,-0.01810074306061646,0.24538977496516032,0.02510829795166144,0.7799935211433073,0.09638554094695195,-0.9180226498299182,-0.7326143021036327,0.6244246553720642,-0.3538795987686086,0.9214139098094161,-0.7173770068716586,0.8324079095320125,0.8079055796186576,0.7345213010802538,0.641273129948327,0.10770884096979846,0.47025368097453707,0.214776138705591,0.5386997685336498,0.9491324106879873,-0.7207562475330803,0.8242496779453349,-0.26801419848736685,0.11071611211007122,0.006912498353884508,-0.8319994932057919,-0.4119153971063802,-0.23046446260494746,-0.7676654113063021,0.7015327436038655,0.17990673420505363,0.6955466745014647,0.190152741274488,0.6867678848455582,-0.3432272345532507,0.20560964970415072,-0.39562936619135886,0.44395525442284245,0.3411814795775256,-0.2688307792101436,0.19324173816928933,-0.7046131457463082,0.10015798338492857,-0.5408709310185689,0.2929860581928498,0.3773109138813451,-0.578568526535848,-0.18145279544535078,-0.03779098675890318,2.3953218759692506E-4,0.7558434081747951,-0.11248357449697761,-0.3367101239876603,0.6471605300059405,-0.8203996506180151,0.0629156848468857,0.8581084259658491,-0.6757899506824185,0.08509654974651348,-0.9541731640173193,0.4761617840413276,0.017875981526615205,-0.3629117455963935,-0.9412059615681383,0.21386047833656402,-0.08191032175746793,-0.36169371245934057,-0.5212605056227182,0.3036753889260833,0.5211534302926356,0.19256344382483126,-0.32744428860910263,0.19486383972337704,-0.670014734569926,0.25508738474180537,0.784031987982589,-0.43369627159499285,-0.5132646234831509,0.8950739849193046,0.11196109087702644,-0.5322522168917784,0.6143494741616443,0.977231876666422,-0.42817453174424286,0.47913438412976006,-0.8841272734023761,-0.9061109807596311,0.6591041132900219,-0.5252087719185152,0.4514636223019254,-0.6001103662525323,0.08087431968426562,0.06948629767069273,-0.8567851168514222,0.18379210168929982,-1.0095741851524527,-0.06215555330559414,0.621120489662871,0.18860473460082705,-0.7161490636553848,0.8402676224061152,0.580615159185032,-0.8558073779625776,-0.19671574501298908,-0.47586015964311407,0.7594906628165801,0.6977592813690424,-0.7024969259241034,0.20720232379796144,0.6562017437167901,0.470018146849926,0.7921615985143112,-0.27430838101386384,-0.5562853505992034,0.41929510053853136,-0.40652504426197406,-0.9608159757701418,-0.7497505675280309,-0.36083753931157725,0.6584112269776382,-0.152689116303843,-0.1769794487540721,0.6315108931549436,0.29748130685063556,-1.0219963657260922,-0.22919970835225195,0.16377458068088782,-0.31789493985377637,-0.5608270867127503,0.6946603753463828,0.8253837727496,-0.631658356930806,-0.953603998747238,0.7299014446411443,-0.8074990642514139,0.3216888274628123,0.0049498149752621266,-0.3161020044585554,-0.4720257937063808,0.32985381914626616,0.3680013309898572,0.2841260739201589,0.09754542727874387,-0.5504976931322805,-0.7863636957709553,-0.25976947915480014,-0.34479016022057934,0.8751168462363033,-0.297376207163096,0.23011865129744796,0.0544161870339886,-0.3512981473195701,-0.16559685630135207,0.6717998356495822,-0.7189195710395804,-0.09408809436306993,0.8526922816755118,-0.5130495020316508,0.9521708457629048,-0.24021007968581623,0.7126405390232061,0.3026765946876611,-0.7254063104501642,0.8520216984634308,0.37174741855252486,0.1874466554712193,-0.8134499156081295,-0.39139026989720416,-0.41996294884194946,-0.8678960779014298,-0.6663835768314017,-0.037832976669630126,-0.03356880752642768,0.6501274762566438,-0.09963156490557865,0.3099107934969252,0.8077854889965924,0.7589576076205667,0.8424420186640643,-0.4038625737119561,0.054029947335559866,-0.6496355237101296,0.8055396275068424,0.23034304062521652,0.05833940576023895,-0.544969746569072,-0.12674981826661375,-0.570623393066153,0.7993574035679697,-0.5009457272693248,0.10977174725310286,-0.5197148003309668,-0.6975955048373362,0.7774346527966711,0.5382769692360458,-0.7682631050463203,-0.6786573837058745,0.681652243316978,0.45065939955364465,-0.14212820197240814,0.6379097192015148,-0.24815926307638725,-0.9964922588605694,-0.4055991529918057,0.5919064916944894,0.7959555869187361,0.6324384914819806,-0.1982350560713326,-1.0391542021239495,0.09375175951515982,-0.030212216986423564,-1.0313397142851457,0.9044756657659236,0.07627492739658223,0.47049443491079446,-0.7796997794799372,-0.08600656522001351,0.41991951722350274,-0.6430488895251839,-0.5633969809844791,0.37070555094545404,0.279080369778408,0.5076622713458253,-0.7966959001881375,0.8583858329911337,0.7402372907521637,0.8911615868661189,-0.285087837182197,0.9385865218253584,-0.21481295420861501,0.7687378343308143,-0.6379462895717933,-0.8197476852265848,-0.5556153908337292,0.28848276737528894,-0.9460605874415399,-0.2891847470518547,-0.5660261925819371,8.860509495497773E-5,0.09623605776059622,-0.7637512026057618,0.8563101916692399,0.03340069145042317,0.16133347570226986,-0.4002592949465751,-0.8068881037131311,-0.7288380362709407,-0.9700967265996348,-0.3085006109915142,-0.17494077115271756,0.35766230016964135,0.801792995785135,-0.8269684652038376,0.30752114715266243,0.5991206432667255,0.5384891133700087,-0.1492314190410228,0.12279459692796507,0.04120313002131675,-0.6938429216854487,-0.7507442882395656,-0.7294240311765703,-0.8813837152936873,-0.7948736652564571,0.04353993358669697,0.8157967465652449,0.43355498712645973,-0.02421721223101285,-0.4734961656462289,0.9200323599245124,0.19066763229217887,-0.3690390787922318,0.4056660184785755,-0.8969738787147848,0.6951645043082924,-0.5756549624957418,-0.7776941048076775,-0.2372835867818308,0.5358244384622752,-0.3252172406908595,-0.5901732642618295,-0.5758718206588266,-0.3227325747554484,-0.48823550215844636,0.8347835506957543,0.8234625083920369,0.7900897794557984,0.10013320955284062,-0.8017758515637546,-0.831834465402625,-0.07070100955039559,0.9018512987820078,-0.5318523259017706,-0.8488513006230177,0.46562572681352504,0.4135023323341914,-0.9147555838840433,-0.03134175518348498,-0.12264075646520212,0.07655975733851085,0.34958428915968937,-0.6470558150196669,-0.41700765462764167,0.011655668416063922,-0.8321927073128133,-0.2520808685180405,-0.08454119500372724,-0.31389873409754715,0.6784154274184685,-0.6898281152204844,-0.5883177222976768,-0.7510234747221357,-0.030283005744098115,-0.11880527696990735,0.8312140612130139,0.086563562217602,-0.21872323377048314,-0.5535852597378879,0.32212609793173985,-0.7558937012805969,-0.3723165484301364,-0.7722425229039442,-0.10441350686055689,0.45297082831151164,-0.3849377900545594,-0.6932982987847939,-0.24388913572962706,-0.021762037226190658,-0.14252280069474657,-0.6631157740705174,0.02093983056115049,-0.5227810496079425,0.22910572791076103,-0.8580575935624323,0.621963434782853,-0.802734224768977,-0.7951694535720473,-0.6887549123644412,0.9128999829348785,0.7984613322330768,-0.9815923702216184,-0.11258126246107746,-0.44590486140455043,-0.9869009015673047,-0.9358228149370035,-0.9071672701603333,-0.8738988276346701,-0.9659139033685106,-0.15494997341309022,-0.2095710707836955,0.715329748294769,-1.0066602207100428,0.5791494253965853,-0.9247800461082921,0.7284841322860445,0.5097028223061717,0.20590561548485928,0.8877594481182409,-0.27871178218067005,0.683143145888559,0.10564568278702895,0.7594238326351119,-0.5433070923185856,-0.19707160800416912,-0.5785625844452434,0.43724843002735747,0.9719105868909603,-0.48160545698528157,0.8004078573285868,0.7079653839284903,-1.0198436392104544,0.24967066845112657,0.531031935021658,-0.8662928746657739,0.39691776977485066,0.5683766963982043,-0.9312771389837524,0.4939103760379372,-0.6726019896504035,-0.4847936359656687,0.3610791230271465,0.3888473003943379,0.03711087837477705,-0.7947125222734003,0.9139864551675314,0.849067155573406,0.6612891413765144,-0.2955695974418505,0.011214481213727668,0.1345619626990863,-0.5594730578004382,0.06543031975607995,-0.3203605503479941,-0.26877235229401863,-0.799004802630956,-0.17804693071989566,-0.8796870804822083,0.6336505928934564,0.44087631106938185,-2.7688389459467445E-4,-0.9311454592792409,-1.0118117892920582,-0.9470989974491074,0.1398990234041322,-0.12163394676226198,-0.7367720104335636,-0.8928000205484047,0.2344325503500568,0.2727114569424713,0.6630752427268568,0.013445702974639644,-0.02013176714388537,-0.14201456906546014,-0.7441508670344705,0.9247459954940336,-0.24524193390989157,0.0064498929664222665,0.7793741191604999,0.19655932010079513,-0.49353872278448,-0.8530078615233189,-0.7016839341387029,-0.3494289330954927,-0.3468102267725616,0.3737836320356093,-0.44687843846936454,-0.19972799602431446,-0.6447359391196406,0.8567507291920221,0.7917536282941372,0.93391557459445,-0.793423956575021,0.4273382908590192,-0.9081760705754184,-0.3266542939204847,-0.9610824020546611,0.368315215997708,-0.7720446403917014,0.8326855561640075,-0.7914874516315339,-0.2576207981299694,0.560520485567584,-0.12424779685732522,-0.6737256933312018,0.6788002435187138,-0.5980291116594572,-0.22390491115216427,-0.9857899808360482,-0.011848017355577372,0.6396187571041847,-0.4766538582027904,-0.9381035367067256,0.09071059533611281,-0.5035651908734938,0.11623810695206241,0.5612252529394424,0.46354788599477137,0.4388700374613356,-0.3740585123676867,0.10678261484047401,0.2843787312036318,0.11281630044432076,0.3572280539991479,0.4573426124465907,-0.2719195902807228,0.4673411198894042,-0.4272445118605908,0.08222716262930826,0.1860749593257452,0.8018712505860963,-0.44606701217262645,0.6431999193941281,-0.8831030170153289,-0.2655563254596285,-0.8955920131718127,0.9122826447949615,0.15743406680263722,0.944540392395879,0.2505146369114227,0.335114443375665,-0.08488490050179827,-0.6209344270991689,0.21243129256383222,0.624783602351166,-0.5481197872460638,0.4500807530741539,0.0018291227378373594,0.04978970713221588,-0.17889785691869603,0.7295338067906653,0.7351510116406633,0.1811416628716231,-0.7549185462515032,-0.8427791563206211,-0.44052419276717036,-0.09655586440103216,-0.05060262893593457,0.09491165731002515,0.6278083324225308,-0.5080800422753764,-0.7701842462765578,-0.5108960902579258,-0.5175229297280421,-0.787943579732257,-0.9531859567776693,-0.8469562841558101,-0.9685345625192544,0.7399747324600972,0.07505389681382194,-0.5398975871283882,-0.7753309370817081,-0.7792017940315412,0.762556984377253,-0.5418710284751297,-0.5341534024203141,-0.5731451831195776,0.022924067963369862,0.39524522992123795,0.08257767576718567,-0.2728605000416262,0.9890367217695641,0.6716364661728932,0.10800646312353551,0.03098759017516814,0.8543989635658543,-0.40472415031910774,-0.6223573364397502,0.6406391762762068,0.2527183531762056,0.01845117519284689,-0.471814624324133,0.03302734526135587,0.8367222753708757,-0.10021448087556606,0.8575811327856975,0.9957366163710684,-0.22353958224436438,0.1666462492757139,0.21377330042411374,0.2530176828851646,0.7406654457462789,0.8593198519643681,-0.9169526279352788,0.74302580357108,0.5937274865840582,-0.5263762475009391,0.8729324063665973,0.04564276160251642,-0.4808513501472637,0.6633157042419858,0.020920872534513385,-0.8891489383799145,-0.42903974348219065,-0.9832580948065147,-0.9985758533601816,0.39956432533720454,0.7588816290346048,0.4983908805609334,0.5752313141443897,-0.1739003744979739,0.6880214544884604,-0.6811878096404091,-0.3170707620535495,0.476975122044589,-0.49676027995689964,-0.5024200202097416,0.28057767828238295,-0.016946973268056727,0.4289036529566652,0.18708014331313175,-0.8928459427520288,-0.366049466626059,-0.4516010621680043,0.9450524186387721,0.8847769835916302,-0.15068295439471183,0.6337604672684436,-0.42466604616079956,-0.22523149866855185,-0.5405674703284427,-0.18569827890935214,0.9003900371227143,0.04737925024441503,-0.6020301919254853,0.6641380744854186,
0:-26.779985266149616:-0.23387092688793287,-0.21838160280931707,-0.8417062721952053,-0.39244902658418424,0.2816441233569138,-0.19807895867324143,0.6480297243281741,-0.8657795221598996,0.5581722739067456,0.5856143094618429,-0.17382806355663805,0.09110424754146251,0.6721113853768952,-0.7993137493480733,0.17333904012103662,0.5594909243900432,-0.26597492806099177,-0.9871365721507837,0.47718578205019146,-0.9500606443640807,-0.8628519606694398,-0.1724674977271048,0.943021826512485,0.19059727723150743,-0.198676553293458,-0.14231376023572362,-0.36940781651718635,-0.3923472157405312,0.4512515448862553,0.1314614580483049,0.42482524942348165,0.8507630121569345,-0.24105540932081682,-0.9904927031165907,-0.30435040349675524,0.6791947620109502,-0.21620147750744417,0.8515318469270732,0.5616144471144245,0.7993823366431168,-0.4402405607806098,0.5533014718215286,-0.7547384952029367,0.2358548856526113,-0.09288391335304194,0.6677345004088486,-0.610378037822338,0.9061504386261279,-0.4106846243554619,0.1363167026682382,-0.5906180786852178,-0.2933523067026753,0.7843856091807309,-0.7360889344949717,0.9506998418870176,-0.587669687113265,0.5130804150374604,0.5184096531256304,-0.6352931376039115,0.06348201666564582,0.14084041813214762,0.9654627715237201,-0.27273566091812607,0.09212577183798398,-0.6605494132216481,-0.3469166362221107,0.32805739913408394,0.5125903882613416,-0.029260887624067557,0.4423831730079607,0.14574259246282337,-0.20588044285311394,-0.19427180851572923,0.34023614184895,0.2551531963200017,-0.27408996613648756,-0.5979562342556807,-0.18587362943217675,-0.3680448892348347,-0.039843714620094596,-0.2672986643689897,-0.2665500433485258,0.08316656898691499,-0.5534512990947251,0.23950955807603225,0.5258155624820238,-0.7632605820424547,0.295501909813097,-0.7508795899702632,0.27803943772884016,-0.5331346399157512,-0.5665650766940747,-0.7480573100876956,-0.0739443112444478,-0.2300022995554405,0.189252599149322,0.411546987906218,-1.241921005224104,-0.35341633404557643,0.38433223709115094,-1.0829228166195535,-0.8863993544144532,0.06026386790281963,-1.3397907408532113,0.14148607927797566,-0.6194501438065833,-0.88434557638259,-0.4105447678046987,0.8590478644739854,-0.19982234706435212,0.48876625761145354,0.5124022224204594,0.439543154909241,-0.13346608213218025,0.3876960078393088,0.30830194726365845,0.12303262492126733,0.006439666364123115,0.2918895896084891,0.2560997723082877,-0.22414536745198177,0.19269509038693072,-0.18589870061439376,-0.5180185146207178,-0.6527998107562275,-0.26307509370489074,-0.7637508161417115,0.06882659220779389,0.4253180207278192,-0.6493639239639204,-0.0031441519779940442,-0.7083115883376186,-1.1215313199423869,-1.2116211419718481,0.38961342257045445,-0.9296703850431768,-0.0869702392349428,-0.06774112761623297,0.05591675008348298,-0.0991163870115579,0.4886613987033579,-0.5917172683820919,-0.03504854899285203,-0.7908740700995812,-0.9179019120372147,-0.4020108192996521,0.33998538640862697,-1.0679317877665016,0.23342154921687264,-1.1541310328183365,0.1829078166719995,-0.3345669553091485,0.6050989222683455,0.14323861399354637,1.0539209341177336,0.8955438846519738,0.41205156854982633,0.5509702148359938,1.4621802400702524,0.06265430960679867,0.3650297177221934,0.5280643941240369,0.3341500415485665,-0.13912596037110941,-1.0068665308668827,-0.06614862890327207,-0.9133177257323448,-0.5556473445490737,-0.5654096824275323,0.1751952757637532,0.1773630685318371,0.7839199726972991,0.3992071183575366,-0.8845298295531542,-0.8414409585783785,-0.7577835416765414,-0.28732780670522484,-0.5099007859727528,0.16356135306512506,-0.16585624716641353,0.5835801090110387,-0.46109635713405966,-0.47894798797716737,1.619568452724879,0.313038579985268,0.588579257632552,0.7309635517419947,0.593610087866524,0.09969389453907478,-0.0668210382172871,-0.160302314554021,0.07097345962184218,0.020828573134299724,-0.32666477588705095,-0.7025544244397912,0.4271727062681246,0.014732946198214246,-0.07366946064464565,-0.8472917775885939,0.11178954635913615,0.5876542728114212,-0.23175652160399915,-0.683007297434426,-0.902573714399563,-0.4537201875949682,-0.7330992148245014,0.8306401836796595,-0.7341572626518448,0.5808360754540065,0.4305442466666961,-0.07328132239731679,0.1354013340778842,0.6821517420097084,1.2706727173307533,1.2179199922917214,0.9870019266358755,-0.35218832747689266,-0.06644826268756761,0.7106512856826566,-0.16161149351830767,-0.6719318667789743,0.4296592620707504,-0.7521973539806595,0.7282674427878374,-0.39746568394159776,-0.6564472859069201,0.7612460710025173,0.7204801028959854,-0.27120069804103974,-0.3343558644311375,0.37294451533995726,-0.9622133166838477,-0.5383063114779271,-0.708711005951674,-0.7590268349743212,-0.29269554638931966,0.45284617190555476,0.6825957235781717,-0.2957545817469963,0.9366435175794224,1.3697603900252242,2.1590820570332565,0.7925287293198983,0.25859973347865467,0.7746003685263201,0.2952669672426636,0.2781822304631232,-0.6917446735052245,-0.600568195054245,-1.1459353991330914,-0.6227975911760315,-0.011328263348819164,-0.046431733493032826,-0.5258948555220532,0.7958208001006009,0.4173119406471814,0.3460861689811137,0.3277333479577265,-0.2860755560133772,0.4742050552562364,-0.04845586802125917,0.3438011722553326,0.25234173938232446,0.26137692466080426,-0.6888152066166662,0.2947253467577143,0.733447456921722,0.1711577198777026,0.7321388158062261,0.27668777967516606,0.7613558810278056,1.370736663642702,0.1408428618654914,0.06717793879185914,0.725621251792777,1.1281851123791828,-0.8162971438751212,-1.0117551678458212,-0.4205417327034156,0.4491087014662828,-0.8368457318533892,0.9190240921480407,0.6011128940881924,0.35427734194642463,0.11223532515631182,-0.10769532833034338,-0.47259690295726875,-0.33665262342393315,0.2893582686428505,-0.6813063755977146,-0.14926599729385362,0.5789193460434615,-0.3977740248434712,-0.3913526460673975,-0.8413840141127022,-0.44015580241811836,0.1546875038559124,0.7863992802665117,1.9428005342115378,1.6996237183364251,0.7953226425541816,1.1401023940250066,1.1759173201602757,1.686376114439178,1.074670231095868,0.637601534996253,0.5601074497042972,0.5986519329596608,0.4758163961960076,-0.8398521347098804,-0.4684540346703758,0.313170115443562,-0.468870736557705,0.9497796356363526,0.8064257979692759,-0.6796477683053379,0.15387222804389994,0.14895294208031082,0.07828582535864549,0.23032199099748943,0.5995532622318261,-0.7852061046825317,-0.5902030135987505,-2.053568400331135,-2.391235443197422,-1.229521065213331,0.9900356535668986,0.30639998300763926,1.06126803581094,0.16188189480523413,1.5135058032213937,1.1980806202660066,-0.47479990271958733,-1.0574506717893002,0.8304870280800433,-0.15059408419298415,-0.4970720453480165,-0.3251623256045268,0.9137819187576873,-0.5519359811041359,-0.7754171135039686,-0.6993546861076564,0.14089293840484596,0.6899807856616587,-0.5622158735358003,0.17065090423378418,0.7106471805639204,0.44531350544650994,1.0335995866883247,-1.1461291515808487,-1.4928225319109563,-2.7416834434669104,-2.7558207232863903,-0.3290901295467099,0.18105572858881344,-0.518289110209208,0.732162734159545,0.2921358575676408,0.83385704808763,0.837463954205641,-0.2517080971320496,0.2397758179826087,-0.2266110033441925,0.3796837413279575,0.008387885064501832,0.9386374915838416,-0.31872663444774335,0.8130191893599751,-0.8626682946576288,0.800241324299673,0.09984122643797506,0.8398336319624419,0.7857469667412623,-0.49535921109702713,0.8079270997168315,0.42516570663132225,-0.274827700951374,-2.0351950736814577,-2.108695965705822,-2.2934982301772338,-2.820170850202003,-0.47478568352095996,-0.5426696913919822,0.6504290812281377,0.09713667162569495,0.6116396331814599,0.3100690593393073,1.6124021881609127,0.7522133560533948,0.5842678752787159,0.8135639002632878,0.953585252483409,0.713197305937387,0.730361710761624,0.5024618997570388,-0.3782573673808663,-0.40219690515884926,1.3553353568677895,1.1109833723047868,0.9321491232730192,0.36955846302390055,1.1947447397788513,2.0223470579134735,0.03571886395997169,-0.7628339085361245,-0.809208002854498,-2.6600845272859823,-2.6379432029267957,-0.7722130574520758,-1.4456384436128629,0.27635407007338375,-0.5519946015641461,-0.4881247803956715,0.26805306229216236,1.194158623674686,0.9792795123644668,0.868289941423813,0.30856599465149415,-0.789376426367326,0.8779169581709432,-0.45168155378679814,0.10831010637411255,0.23340054779556982,0.16030381897022716,0.6472667196805791,0.1390130730535046,0.4316812409741606,0.5645657009758754,1.170508923494296,1.11126191389183,2.2593027997623514,-0.36224570541759266,-0.8901459433803702,-3.120233664540506,-1.607598294580911,-2.1573968473677785,-0.7764535663549729,-1.1833908048099546,-0.576910154612588,-0.05943459998778611,-0.32999880797442516,-0.003988620290521381,0.46616797950911254,1.468876863448188,-0.09737033933744209,-0.4812761857705833,0.35479759184357074,0.4264627116418306,-0.5487864440040181,-0.6723299783194628,0.45988513725124397,0.4339965108912732,-0.1801576614317045,0.9337885500125381,0.7607856466614515,0.7465747808813905,0.8571149227977445,1.97907489006562,0.6760471437270862,-0.6455878002638464,-1.576391666130237,-3.1031468793898997,-2.9274306596900597,-1.2863204429003208,-2.2631562844293636,0.20959853043502957,0.16413145528061776,-1.057695585924916,0.6707351043175344,0.2936520047643437,-0.5805715154923704,0.8986020320231157,-0.03585918602497827,0.09609615578260629,-0.6288532599746975,0.2552378298804422,-0.8450223338204703,-0.9952116785040925,0.2357057488074219,0.5461041791366716,0.8207578192798897,0.4592355785342475,1.095947094659745,1.1145317454469885,0.665139875708824,1.2842290672604815,1.7754553724944695,-0.6436646468191062,-1.7897053085749848,-2.2477776950939363,-2.2974257067348707,-1.2384128490339175,-0.3220691974824395,0.3571314720065868,0.46870459128353625,0.5255842125812964,0.8109855283510919,-0.24155330799390537,0.6745471736290458,0.4742547244424667,-0.15283192484340324,-0.6485381922740813,0.9081612033783869,0.7325814489970407,-0.5400055973379716,0.19933767972011815,0.5206070480535259,-0.5297120866272271,-0.37478502567201705,0.07143422385042952,1.1880293490778124,0.7389793992538018,0.4155387918252883,1.4518985459649236,0.9242064307206409,-0.7349760408958833,-1.1108980785393507,-2.336247484660667,-1.006550184782777,-1.3895043202682396,-0.4630544015402386,0.4719430029766424,-0.5025996336407954,-0.7238992057975,-0.26004130697515254,-0.04012134108008727,-0.07853900519129643,-0.21778101542101144,-0.8819339011498641,-0.8201460918676117,0.049097303859445315,0.6971002274327953,0.20655942368961222,0.5827065979138082,-0.4479558327552738,-0.7829382974850512,-0.7171818922537012,0.7161805122979639,-0.32509149516922264,0.6398417203389769,0.6076194370367334,1.5323572811136101,1.2520737446920487,0.9316068396737543,0.4053016568358953,-1.3543968639621604,-0.5922817586148669,0.28927616536873346,-0.8989736182440241,0.3100517339185224,-0.5035054266325896,-0.2454289965588772,-1.094104453970116,0.446289597246359,-0.6969660762392825,-0.2714704471491214,-0.08527505124131074,-0.7783241310802835,-0.22189660197546118,-0.07235713555145187,-0.4170676653300063,0.5209936686952856,-0.9552164200142859,-0.16622113807333416,0.0945814576439612,-0.6993719774410917,0.8633359185421616,-0.7349580199519504,0.5412692647931305,0.9704350893751503,1.0449075321655965,1.4726912894254325,0.6967315534498206,-0.8514438394198146,-0.9039949287160984,-0.9900994360389009,-0.4212619494588208,-0.8183110343882364,0.36062528571297675,-0.5165439024496814,-0.43736357171712903,-0.5778447687776709,0.5656378847393992,0.04477065976139013,-0.7694096650525101,0.9535772790364481,0.1698934098516272,0.5801566560834838,-0.493207419455979,0.7803758232704298,0.33042638048729756,-0.19352766356375214,-0.48161588788623844,0.7439875223801695,0.1536466067122018,0.38227963619053806,-0.27885772877728465,1.4878494467558814,1.9528837802596453,0.7564400601290756,0.5588485615156608,0.41862177748889967,-0.49462233259140004,0.6746172165035097,-0.3782107901168282,-0.7901888418050917,-0.3212778607668348,-1.425394648397323,-0.23394910135871466,-0.3945750558899721,-0.047824536744668376,-0.5229327612237238,-0.31138765798108886,0.05163852311516324,0.22014687160254606,-0.011892547962207874,0.6090916659852423,0.6183799733896254,-0.47454121481376393,-0.39658146908662933,0.4952815681164211,0.1323650857882616,0.03184203031488565,-0.09452116863146066,0.04029893422181055,0.6214468109819711,0.5766270894104315,0.3347083454663652,1.2749392385392877,1.6635123937002378,0.17848674097454967,0.5053623575887207,-0.03135891729156827,0.17709213916944497,-0.3341110927776937,-0.3367080267473558,0.1642803758160866,-1.06989037698099,-0.874701390704431,0.04641547848602491,-0.14432179087843786,-0.8915781043350582,0.5391183175058545,0.5664819557621904,-0.17219148123508954,-0.7335481731839144,-0.6747204075905989,-0.05540338624517187,-0.6039146008112014,-0.3759666159192008,-0.6291354260841548,0.05351901299103574,0.547608768350677,0.7044231387575544,1.200586257609489,1.7625662306242238,0.6554638706951842,0.6703360737563786,1.5659994523912966,0.9260302609847114,0.8509796998461444,0.2848610821606913,0.1427004495061579,-1.4058026742690464,-0.2794971882437172,-0.6056574291621192,-0.8911058836698752,0.012096937018200247,0.42796342159971307,-0.12878057639560958,0.28770876715443894,0.08323441973369605,0.7851311831039391,-0.7553884929647148,0.7057690206267044,-0.6009544072892977,0.9955212067886213,-0.45438733252654756,0.9570954100904298,0.1946443252677178,-0.30981980624795963,-1.0368154229316937,0.7222564683655667,-0.6154081594600599,0.13182935879458416,-0.7621977630697397,-0.7901180771578651,-0.9526821893465913,-0.6889920006240373,-1.2336986520684583,-0.24963578790691077,0.1292665703391341,-1.336941922211724,-0.10150443668452364,0.20143877979178398,-0.8790427569617018,-0.34183475521876105,-0.40120380768631647,0.06219013756022407,-0.725306027791585,-0.02489655328816731,0.5644458299798258,-0.7268959559543046,-0.298289377264533,0.10165840924427984,0.5945300360065536,0.19934578755047846,-1.2394485832373496,-0.10011100591710165,-0.8075020584979774,-1.3327198077750555,-1.1388940730783763,-0.44845044663628103,-1.6117193072496219,-0.2696795234488612,-0.1314233615569394,0.21290096768625474,-1.166523887194848,0.06307914635640628,0.03003756085597038,0.037045287470228214,-0.4736664698685339,0.6218546380972436,0.2774419680967188,-0.2649788198739848,0.8339749773875162,-0.6989293593530663,-0.3178718480407712,0.3297904807644385,0.6855099624805407,0.18235098510033576,0.20177886595250202,0.05853033248716514,-0.521780714131303,0.03991718761928323,0.4339648288743972,-0.20556619623648195,0.453965561262349,-0.09113373827969397,-0.9034649877534463,-0.6950438159031183,-0.5270975876131357,-1.237666887114233,0.5473211968492893,-0.6007023853577041,-0.6276187761667903,0.48210407718580994,0.5044973845306222,-0.6677811106582459,0.3087868269663821,0.6982732765397209,0.052152547201492525,-0.18690931344126302,-0.5920468269949579,0.3597301973509246,0.6744880554569184,-0.039466744690858535,0.08359257587472269,0.6908521949867663,-0.030065566435329982,-0.796651227483146,-0.1538304989342194,0.9146108139723224,0.35296586942487274,0.18549788530874164,0.431044250524076,-0.4300901331372077,0.8575442063230427,0.010382780096790207,0.17319533022810332,-0.08491892658791785,-0.022289575685977666,0.8206864357558808,-0.8515769060481211,-0.4427051251899789,0.09167953637117979,-0.0576115819196512,0.3100883918291594,-0.9417943643956151,0.44795526303191374,-0.9857270168096706,0.42659035699399883,-0.3423448675098413,0.8977532574880585,
7:-36.876522029187825:-0.007219727301234435,-0.09042414809183996,-0.4222359567979781,0.6965831020234181,-0.19885858381403398,0.4460163271694564,0.4115138326944474,0.9411097719281649,-0.26002622721006663,0.38387548515870473,0.918346233423611,-0.1519125422172687,-0.735215861308983,-0.8317781476216257,0.4312747176616165,0.7595195992455293,-0.07128959655399636,-0.9167536050306428,-0.9590955469217126,0.08918387486347057,0.9971877907808466,0.21290721752947284,0.588139796419989,0.7632546449497728,-0.4190189902099748,0.8465908189044096,0.626826443869086,0.5362700469919919,-0.43574540025449515,0.6616386513431938,0.731633084207109,0.37073821751756175,0.1297445893217466,0.1806021488411275,0.958118381110759,0.390941144700998,-0.4790224337189307,0.9795892269083059,0.006056717469448146,-0.9437541473245719,0.8319176636196384,0.9152152352232048,-0.3062071850889331,-0.8536765102784648,0.07688864527815259,-0.7594286129607134,0.7205615823475203,-0.08762643888478475,0.5716750859582364,-0.10128140020951044,0.37470089509818605,0.3133684318948052,-0.264280980807875,-0.49436654436358696,-0.15830000296358748,-0.34369110070195497,0.843063081222722,-0.41582442240410233,-0.930149420644262,-0.8625328792701248,0.9414806163170731,0.4543523405469208,0.772986551351964,0.8067816767556085,-0.7993260710305695,0.8568715884458612,0.06755067848662809,-0.724021451421441,-0.7375876830372788,0.848951595643168,0.55667337316524,0.25115288450007717,0.9684124431208428,-0.03425170437779268,-0.8894520931823732,0.016997282862363024,0.2745875354816317,-0.8907380689612473,0.3608320043408301,0.97779684394455,-0.5047870054247812,-0.12242414348043673,0.8300765630434406,-0.31998038411697904,-0.7118111952754498,0.059626190520850386,0.8194582343909256,0.05440724364045657,-0.2572265283848104,0.9584709564913662,0.2257645459454257,0.2423269993646665,0.6217579509691364,-0.16269739543145326,-0.19522042645506887,0.6644127557389309,0.3920042703243072,0.16452514536040844,-0.40659823494728037,-0.4489135193755648,0.25262002784931864,0.7382674269177963,-0.6664151921118309,-0.7130047254255092,-0.9739594645607549,-0.5508487156438376,0.1260537422615603,-0.7157333346782878,-0.3532021467440306,-0.44915938691162904,0.3493570106928696,-0.4043808388483363,0.3612473198158139,-0.7368701583377855,-0.6266179780127163,-0.5245899900098425,-0.9988534184854134,0.6070847577819949,-0.3066489833812603,-0.2869600508517635,0.062232582089097876,-0.1344277558517278,0.42660016372830545,-0.5356464590875891,-0.31139107133153526,0.15962472175726977,-0.38750158184235545,-1.0156740014775956,0.08602690394419671,-0.9377545475664392,-0.1981833707907992,-0.8770912381534363,0.44621291520321643,-0.4889220835888109,-0.11906461177873087,-1.0024647310341204,-1.0190710735466713,-0.5130297845794091,-0.6068744126120421,-0.7155490754174487,-0.4855963930721048,-0.9133356916924602,0.24513371440599216,0.4550517250624807,0.001263068388701895,0.3443107043286959,-0.8119431322682974,0.7096373715145509,-0.966804150579833,-0.4273603019336576,-0.202959579179829,-1.3885654749804288,-2.276005489563017,-1.1764060715495448,-1.0787815554110103,-2.3078942080256626,-0.8448237577312875,-0.9099356873774848,-0.9894762635800077,-0.07888063396869116,-0.6594179874366244,0.606093140229562,-0.4593007122404817,0.6053395979555375,-0.7298923071878136,-0.7516373464307912,-0.6463505839877424,0.08435897182044522,-0.29232797601497884,0.8680952568309777,0.14009724022670997,-0.20298528838123,-0.7002493858203155,-0.1836034371449124,0.9735920404825883,-0.5084072201005546,-0.1633245184220792,0.4742820983420844,0.3585169228335925,-0.2574223286333558,-1.7575769159427161,-1.9176001105721645,-0.8384323306680126,-0.24618643332050466,-0.7661465592477807,-0.07974312642493382,0.011594650773558705,-0.9449940366866943,-1.2895685063759486,-0.026588634845667262,-0.834328713789022,0.563332461116364,-0.1296258133513523,-0.9919282792329134,0.7486135066839943,0.2826937990726867,-0.7551554619035429,-0.7322045783567794,-0.13726451512979418,1.030354940655884,-0.639088099064655,0.5602550299212535,0.3277249916958044,1.1201867974215376,0.6140091563515973,1.0635741708478603,1.044632772985345,1.9863472087147456,0.19558582245181916,0.7250316221875136,-0.8465229917117535,-0.15375116389289156,0.20589462619247717,0.7535720737578544,0.529602307162435,0.5427690735881024,1.4210674940509738,-0.05324952377668255,0.5664563793993701,0.04787844985307065,-0.877986731470836,0.7807109692321293,0.592983860793079,-0.5052476310232595,0.6174510474610481,-0.8277218018083723,1.1609952633801928,0.28636604714239017,0.23104224699404463,0.7267605920113841,1.581021477140245,1.4854450957473297,2.2200052124618797,2.542927365865367,2.292752225187743,0.954932390755506,0.9073486768584926,0.4853927287299305,1.0463187217168803,0.6419361025675021,1.61364640297994,1.660890491513813,1.466825134372074,2.527649920956504E-4,-0.13919931303816696,0.43438189364101965,0.3818289095777809,0.18168763993472842,-1.2683187602656338,0.5715736750709182,-0.19485675926277626,-0.8258352926130732,-0.8480865370914856,-0.2770115544199696,1.2378430590664071,-0.29687450312396774,0.46785559048101205,0.46840591421095057,0.8010516682258587,1.0818002081245903,0.650076833689909,1.2608385829003872,1.802621927284003,1.5825549702280572,0.688954721364973,1.1807096871825646,1.6743465189263043,1.9839091612696766,2.076445397020338,2.4044439527655452,1.9950349401011254,1.9135890176750905,1.1134495513350064,0.7463368929071408,0.45675937856795085,-0.7994802267315366,-0.07336315151141808,-0.1768985586978063,-0.23842714457974995,-0.6732035006675118,0.4145974360010386,-0.4864107009371046,1.3419032523791041,0.8722310586038546,1.6019892018692539,0.13647382151055162,0.9509257527090618,0.217686251442116,-0.03152771817024477,-0.24136489265993938,1.2361431217962506,1.2318874653830831,2.0921350429365253,2.3204767231779266,1.1075695199556361,2.6884168652931617,3.193495531156135,2.425106438996969,1.431825744752541,0.684182787446306,0.6789907549055353,-0.3252933323967953,0.2809841691880706,0.35140441096218367,0.4481562738530531,0.15427724986676708,-0.21878516174069093,-0.26739308213513685,0.1192460817669028,0.31986936464916266,-0.2004411676655857,-0.2711177790876053,1.5473080929504106,0.1532757265686611,0.7848268424061352,-0.09073851104802784,0.20489674855491258,0.8326614215825047,0.46683285075965714,1.3956612145464853,1.0757521522847036,1.334551052966049,0.08960499984728514,1.8498618461284015,1.3929520193726213,1.7110463236792328,2.7510733899640814,0.6350927884321138,0.5215880381819085,-0.6209888966512136,-0.2559171653951244,-0.6111383518068215,-0.9174558806403172,0.4420512425294076,0.38646937918270746,0.20014849969685147,0.4197235112878855,-0.5503648202705665,0.17605945833815095,0.4119830599036484,1.1687245240027102,-0.1892535394524095,0.06458053555952985,-0.4885406443755061,-0.29187634762526043,-0.7034374360383526,-1.3633599599835415,-1.4098963998142222,-1.5610668265376983,-2.665379629917215,-3.054350691511099,-0.6839054852983851,1.4642459830900916,1.1303166847222825,-0.4964324710511011,0.0011279766177768459,0.0041361881566164705,0.14496900105764862,-0.35009054158342245,-0.041015550233633964,-0.6571040696737364,0.4423283230971561,-0.06628764257108144,0.3934645208414804,-0.17389939059460957,0.25445659665692055,1.1616973312832375,1.24478498742194,0.7762100784213589,-0.688511868574394,-1.0294066608821544,-0.7576839367393309,-0.6201945076398052,-1.6255928298904445,-0.9298827055087617,-2.6973490270767564,-3.645749792882096,-4.5742104138984825,-3.7627863739534506,-0.68265889925183,0.4676144188284203,-0.5014364943637067,-0.3628720616856994,-0.24563579953911813,0.4767008947439595,-0.7978258079435838,-0.4067025549377565,-1.269397220520906,0.4835451495800447,0.6835641928990271,0.15709412392970096,0.8764025622352082,0.551025853035368,0.2658361163162195,-0.8263784820320484,-0.018606865847070227,0.40334819436714303,-0.6384596149524615,-0.41537656677593343,-1.318020132968816,-1.1229392971501553,-0.9130930051611589,-1.5052282599250182,-2.357066262364781,-4.349162051205839,-3.1307587622536377,-1.5272659151571497,0.38986459657142236,0.3216736200015843,1.141324023743068,0.7627680289820878,1.559840769819354,0.4465849306813167,1.0431557253275494,0.07434935913168281,-0.22250945743153447,0.17734265236537264,-0.02231826314244879,0.7049956140100738,0.7047075338698447,0.7883019753849438,-0.7943321375598212,0.5344581655213234,-0.6954355050546907,-0.6879590767942487,0.2449494806076747,-0.035961220084567105,-1.459460424303259,-1.3304409932159384,-1.3812140238901167,-2.593934177476545,-2.1491354864129666,-3.332612816062031,-2.4937393120991858,-0.7560370785617108,0.01953466427141811,1.5116630400892137,0.3676616304606879,1.1127096457942562,1.3228223473019358,1.395898862867177,1.061009818746056,0.5600684544423403,-0.23523912556170518,-0.7504362938418302,0.512723802928375,0.06603709483603976,-0.7219953571735634,0.35701212704407975,-0.1659395404380905,0.030564036898197214,0.8140372933344713,0.275878006604635,-0.1585622860410862,-0.3513459965063501,-1.2702722463665455,-0.6348899794055843,-1.9252353393030253,-2.1438023693760506,-1.9658211959680263,-2.7505695922236324,-0.5542765647885094,0.009042942161421597,1.4306373496219846,1.2539880764091698,1.687867102764312,1.3941384038988869,2.8818679554719644,0.6779011830386019,-0.14372719730327607,-0.5162733555808158,-0.5736167374400406,-0.6597422095052403,0.8318801640199324,-0.7361584581377469,-0.7621880245740914,0.02007840790468629,-0.7307948043764816,-0.11258725572505665,0.9276126164153923,0.6174452591542473,0.16079425414231618,-1.2213283098128895,-0.8632278116961197,-1.43610903724957,-0.5021548945950591,-2.0529780509017006,-1.3105511421275966,-2.1646119995882867,0.7668366374517872,1.4019412367533253,1.3329998346435958,0.3684071951062193,-0.07134106929548466,0.9094665118773091,0.1054839893482321,-0.7677680064687737,-1.3861219229566974,0.10233721594163706,-0.391721913224778,-0.42744941248894297,0.7762491094806162,0.4907860249087641,0.9571768387079338,0.5358171566946257,-0.8694705051850505,-0.6588092985027595,-0.37294735965402254,-0.06012311035453491,-0.7360113795618848,-0.13803197380383606,-0.7890039960834393,-0.38346700940428174,-1.487612194166689,-1.3649457498870963,-1.740693857378137,-1.206606792539138,0.9943450133132851,1.6250997349558567,1.0313739151094474,-0.8411239268003722,0.5425133066019672,-0.33558925334798717,-0.3290510993753661,-1.3398760363729663,-0.23748308169101268,-0.9216532413563233,-1.0082612992260982,-0.8330163420040633,0.14997073467027958,0.7893407802468505,-0.38520603340410253,-0.8185633816145774,-0.23270171119071245,-0.6587479701497477,-0.30313893407427195,-0.6182215482809685,-0.3280838063403875,-1.868260578240658,-1.1143803453479992,-1.5948856631916322,-1.2295283130010726,-1.395227926511646,-0.583262200402437,1.0564769781035785,1.0376097401933864,1.899260604902799,-0.39761995843663556,0.41450650095041336,-0.8131655809341974,-0.7582272986147164,-2.0754090521939976,-1.0351790410588473,-1.9944056239731445,-1.0449438986515394,-1.3219711777547642,-0.36716879472984276,-0.07048089922248957,0.8526400368140411,0.9812305427122933,0.37762700368630764,0.40479207662146643,0.14820694639317206,-0.3428816568781533,-1.2247150737309331,-0.5396235867139869,-0.5746025724430033,-1.4829021087844236,-1.3795715936112551,-2.2237384450104662,-0.3977407301123622,-0.6540589669751617,1.3067963391014568,0.6254240702686732,0.1676508065967723,0.5425618883855298,-1.1100659458405973,-1.8953517641537874,-1.2812055465526613,-1.4085176931261425,-1.265519496952427,-1.43605614181322,-0.15389810038825757,-0.7644637223382504,0.19780621944322838,-0.20853743377205056,-0.4695962300969333,-0.13285195079411963,0.12737080048142402,0.11592497297135686,-0.862675168823182,-0.07964458898590215,-0.4424618156710505,-0.5041786721472835,-0.6911428177485944,-1.5047993824245118,-2.073153512828115,-1.4120985677997577,0.4360660864739734,0.1721973475043474,-0.07223985747842486,0.24342966425825477,-1.1672150918578048,-0.0016256747716952194,-0.38265268112229767,-0.7461557548549201,-1.5013230732967673,-1.9975237633827525,-1.03426452913718,-0.214501137250923,-0.3618433797023116,-0.7863948297477995,-0.5341202637322916,0.6251197963992569,0.31557606241121294,-0.30682328060993247,-0.04650872997663026,-0.45874399981539316,0.4158064269132219,-0.06059300857444153,0.08992671478193534,-1.4770096572585243,-0.5658103310112333,-0.5511161070782401,0.17917873882632446,-0.4089309337120905,-0.6546358389169232,-1.1643282630028917,-0.22144370775252376,0.3674760902830875,-0.23885771518271817,-0.36733565694939996,-0.9380576566377515,-0.8794652978944612,-0.9297586823560086,-1.323469389190193,-1.5604257667461294,-1.1756470288352945,-0.039270775997771123,0.16712394886558007,-0.8540119109705565,0.5687948126576515,0.6321327159780236,0.8383641562817983,-0.3806336379379407,0.5723614074494268,-0.8733263026461718,0.8157732079759407,0.2687909612032866,-0.8393490271143965,0.47360114153301996,0.44787847616635984,-0.16154301600922938,0.8624108444654045,-0.1688181806851974,0.37802075842849725,-0.9192429604341126,-0.6124073991583087,0.03885722386821379,-0.2642187873349124,-0.9604105844795433,-1.2857291606897818,-0.3890344064140619,-1.1785721182555104,-0.46526249858573443,-0.9842872071270247,-0.852114320646696,-0.4205335090817032,0.09354957252757201,0.16675075291501923,0.14263017598191333,-0.6911154026773936,-0.6353686120805291,-0.3959952708161718,-0.3275204810974313,-0.3414397604265691,-0.17241710561450357,0.8070393189250857,0.42595341011736226,0.24727106789256417,1.4112630572361862,0.2654547900159614,1.0551556669815294,0.6778554244048903,1.5376174777815212,0.9110892815882812,-0.00726849866396215,0.7191869936207916,1.6506926992087334,1.2826095255018444,-0.7177338243505527,0.3096130829221366,-1.3467236828380644,-0.039623551542456906,-0.7850765250330518,-1.1455372681973832,0.8562653844090319,0.8415234476137152,-0.14750745938700582,-0.15903793288762635,-0.6797722822474437,-0.23587962329149614,0.6150277364283904,-0.3922473137010532,-0.20626111586240214,1.2208331303132647,1.09133768250648,1.8151535084021493,1.6826254157766087,1.8016569101944435,0.4174255501043895,1.898016822264548,0.8985095836538497,0.738531412990726,2.155736962959943,1.9436606975245483,0.5170735597980133,1.1486735845498435,0.46577318445300053,-0.279433288840923,-0.4590063068277071,0.4718200081610127,0.7457897472181784,0.4688787604350845,0.9258679803301096,-0.1537283791468213,0.016801182206808814,0.8117254257978572,-0.9380346847764751,0.28245803008438664,0.08761198039450546,0.5761888331344733,0.8642417040791452,-0.5782722430316999,0.2917787280673046,-0.04055339893008937,0.27832870565481166,1.1473657384222578,0.23536665838029971,0.8230582633835425,0.07917929872798514,1.281058036512889,0.5823981248393935,0.6343970409212579,0.8928550109615748,0.5302834130158199,0.9625881136086372,0.40934178115749786,-0.16995324491057942,0.09167575201303158,-0.9142155519439826,0.6007391084874886,0.5812982634981002,-0.7794690699474385,-0.1377167797630079,0.2789790419793887,-0.27534357791034836,-0.2172709873976988,-0.2563223286412841,0.036448823022092514,-0.42363503039065986,0.8713455390046094,0.7414319886311915,-0.3758681848116815,-0.004158914475771236,-0.39683470810722493,0.4473742690027775,-0.3066268853429299,0.21091941948958617,-0.5578130877246286,-0.08406600041040177,0.5324782697591671,0.6436800050122414,0.2467162895307679,0.21065172791965278,0.5822350803739266,-0.2333801701091768,-0.6354738934176178,0.3851326115525095,-0.606761722551876,-0.1596279145872872,-0.4466155634889333,0.38131828915102517,-0.8943609852637477,
6:-29.43863248292614:-0.864253470686074,-0.5354447871070973,0.8071593914678903,-0.04785281941003161,0.948363729458793,-0.5201896161676189,-0.08843076599648936,0.2980275549357594,0.683396921677019,0.15665224816684442,0.6845751122209065,0.23975117002491642,-0.5083437734373835,-0.9060262299947653,-0.29539709759422017,-0.9766567233120339,-0.047890556439552645,-0.4851492731770177,0.6743161625308465,0.9839053645680484,-0.21788160591601957,-0.39224774370069104,-0.18957881905497143,0.2525790716321519,-0.4960640574883488,-0.0700992537358851,0.4839101187991215,-0.12246371030267089,-0.10811961119402835,-0.6548896898027239,0.02852534944433649,-0.7422619870425355,0.7884473760396253,-0.031727707307198774,0.5514034260649089,0.9679384329362577,0.7563536338388004,0.8763463647056188,-0.6467032058125309,0.6964339327244101,-0.5394724015181875,-0.5684306676911761,0.7374443488946809,0.7299699389272003,-0.637400187405201,-0.03442665885545286,-0.30631586932742494,0.19368503926094127,-0.11406760590309607,0.08444995126255467,-0.8674143420848254,0.5886075761045926,0.259115691871896,0.1920194294541493,-0.226274798017297,-0.23994192585017693,-0.3576055721962066,0.9542381721341249,0.7326642518097639,0.9751860585180372,-0.48526739528696966,0.45488319106981234,-0.5430360642628882,0.9215740854476974,-0.32926571070179794,-0.2583880010951083,1.0284429438276461,1.1338115009109724,1.383590049489411,0.43905164049864626,1.2630029871968211,0.860112463914744,0.5404641258173654,0.2151493531732789,0.25554399045589865,0.9763740585533294,-0.027100196877242543,-0.12669563900345712,-0.12723435027480776,0.9418703529175143,-0.7955684563718185,0.6252965734354377,-0.5277285019910114,0.8502410600054968,-0.858885012088987,-0.9717416107162564,-0.6166757672672295,-0.6108845830450478,0.6425568925259156,-0.9080992355438003,0.010873510430026876,0.8386895102538531,0.5036342592785976,-0.06511301365641102,-0.7413356500026399,0.11169367820634504,0.6570233952548606,-0.28251878901156824,0.9995283353859475,1.0861421988655162,1.797304891239027,2.0609052319303403,1.7133336258898135,1.9955356584290613,0.7768189941724274,2.0479040073761103,-0.13530580515682658,1.0762531137179,-0.8453534952165043,0.6171762264024988,-0.7508846431485824,-0.47031442495819653,-0.39789122965054946,-0.9723205390351368,-0.31238632715373854,-0.9977406498088197,-0.9957218042128358,0.23678582159032505,-0.760620979115297,-0.01381852658919187,0.07106109979357776,-0.8299339231745089,-0.4026539704431735,-1.3762897609154134,0.12722348279514012,-0.005880107182145934,-0.35391052561304326,0.37291380036272814,-0.3421221655477863,1.466495021432823,0.13100879174006963,1.5713828287880516,1.1221281010742594,1.5040206796658324,-0.07026351692754342,1.1245418784771417,0.15781355442623637,-0.6311142054110247,0.9521166865112096,0.9203816207637021,-0.6573245612224388,0.8376782708198456,-0.46809926697141474,0.2026652586172418,0.49235805681798506,-0.7670771952477546,-0.8764507228248772,-1.049937710669202,-0.7756837597470942,0.334749314288096,-0.2078335021456229,-0.6598840048419268,-0.2476343366530107,-0.8849341381843021,-1.2086237760830931,-0.5550272227649651,-1.012190147010127,0.019892117349523248,1.2061750401746976,0.9866947920928459,0.09825582950013124,0.1194355603313558,0.6186158327597321,0.6186951580442048,-1.1397948984044068,-0.5574524621328846,0.10015811382615943,0.016942627525994156,0.3114208353648247,0.207679500681543,0.47846384935156944,0.7120297081551862,-0.6121023161278935,-0.3754659171097518,-0.5424216426741039,0.5224466407803723,-0.37627365960769815,-0.049573673178810986,-0.9784735480082278,-1.2217873614072992,-0.020875853020988915,-0.20569392737102243,-1.4029593929822355,-1.6706463365432198,-0.38770911508618233,0.6798166189307235,-0.9485917337049733,-1.2030581368178428,-1.657788361096482,-0.7606916163392593,-1.3992421085513764,-0.7580225044330782,-0.9020963140960652,-0.528693883012458,-0.8565610220999506,0.8728266306160936,-0.14635591524770436,-0.3666576802166973,-0.4950672724413064,0.6115576490454961,-0.3993193538479168,-1.101073002476777,-1.1702510241185182,-0.0889431057931988,-1.0604760732162715,-0.05522079873894626,-0.6418341469352763,-0.44603950767459943,-0.33189110604787475,-0.7448517310944537,-1.2666496189218848,-0.7282335530791368,-0.36451335933243456,-0.3735700843820895,-1.508245612451449,-1.898167044656481,-2.0711162021184855,-2.162419085877968,-1.565592774631456,-1.4067280911701396,-0.1291907688929134,-0.5448316434918978,0.2577401506945863,-0.8978844790428152,0.7010385464056823,-0.9653465473969604,-0.8088816741415703,0.5769766027740397,0.5860755925645008,-0.8047829201231915,-1.4378574553975187,-0.7273815594279696,0.1955349732762549,0.18633964211291154,-1.1291009843458515,-0.8377306682700137,-0.31540583354749485,-0.7740082648526319,-0.6582707535961689,-0.6654223723739239,-0.8556636197529505,-3.034873656064264,-2.435638186698779,-2.4102770150779738,-3.0031765386599627,-2.603302815598687,-1.6897567678545724,-0.6339249881374082,-1.1538400165574079,-1.101712323853565,-0.34115916040842625,0.5313735275875356,0.49497166587046104,-0.5782838378225174,0.17260721570310494,-0.8229803886047096,0.017980121255985776,0.06427966183839587,0.4169599419296527,0.7827157423483574,-0.5043107744956089,-0.2545488238866065,0.1986645786316874,-0.8759885946125274,-0.9713754632988509,-0.7946429375397221,0.48329183054836533,-1.5950750700314813,-2.248564996787521,-3.313722131824478,-2.8451232786129093,-1.9487591322702176,-2.6408030329181624,-2.6269933051053584,-1.6190585573147216,-0.7183351847125613,-1.5488426829929631,-1.01907041608474,0.7456417877292337,0.07633794607908949,-0.8376254021768251,-0.2347853355984677,0.06922462068723287,-0.027283114326731337,-0.6672255240471041,-0.7443989578767993,-0.7563719987039678,1.0889840415696945,-0.3065110142927654,0.21570108735530813,-0.3238471875331887,0.030912258122914725,0.4043775341004782,-0.4754151334972324,-0.6604414097423166,-1.6726306012615524,-2.257826583896147,-1.1639516449752396,-1.9145960037866225,0.009095388516868514,-0.8599271132544934,-0.20816466164999978,-0.5663458034682765,-1.7073123893725037,0.40683577756338646,-0.4310217719666557,0.5778814720825595,-0.13079383596823213,0.16053749507071421,0.5014248321826309,-0.5147322134446242,0.7270779290467966,-0.5666417438599255,-0.8126738598202645,0.18216761865238865,0.8756640069619925,0.7721556241887058,-0.05418141737622819,-0.37285426484716244,0.04761397466981645,1.1775749811603282,0.44693071792706196,0.21269264978574157,-1.2611002916484644,-1.1206742503125606,-0.42384888169807805,4.419964555652562E-4,-0.10302114809211434,0.16673154518183986,-0.6957078066832107,-0.039667297294544206,-0.2772658105947246,-0.6080352714575125,-0.48680060486860055,-0.805145385277297,0.975564408379401,-0.008126831021237397,0.5020305446368633,-0.4117208585496031,-0.3238029782904121,-0.03989290186888925,0.27006506840475764,0.5167356940747523,0.2274349071785028,0.5290473299276853,0.6346231043407888,0.9718641180045587,2.0835497752773744,0.9476240601253391,0.07671370032179273,-1.0139077501375058,-0.05093415565946402,-0.5606835323474305,0.7566220660759597,-0.4827360293040427,-0.027264632755980144,-0.21146220158136456,0.8512938448086385,1.796020768583101,1.9698312150972264,0.9746457833847448,0.4734991237277744,-0.6826410911249156,-0.5656287629679907,-0.5380237446052293,-0.07308986740764015,0.035340935925035684,0.5821922357999124,0.5397979628906336,-1.1198340354995502,0.7306744979213432,0.236366029991987,0.6777554254522106,1.1510834645721255,1.241997013360204,1.44561961633049,1.4984297934990332,0.6303330143132956,-0.003946443654738311,0.6936425589083376,0.6206902268974398,1.2155482707791012,-0.3548729418679475,0.053627570054126224,0.7942773720149295,0.2859906756971777,1.363799560067209,1.1814899288463887,1.310280166643388,-0.843911824794634,-0.8449497544459487,0.6797995138656233,-0.08592863635333757,-0.846596114905027,0.5435360428196618,0.8817547857620175,-0.8242151700222903,-0.15545034794253534,0.9408610743758862,0.6453797585190298,0.33148819033788396,0.4209579681353036,1.0016864485261532,1.5287396483360158,0.2751890895189252,-0.5307368448074032,-0.5160028807386212,1.2734485875805919,0.21933339815698136,0.4066087862722252,-0.6328431821422659,0.27889922858291194,0.9760870451832858,1.2684719004899874,0.4795971703315321,1.9213590228167405,0.7222589430933444,0.4842184743089609,0.8126672499239376,0.6423936676839538,0.1202091380756133,-0.06146667408222645,-0.666324677370107,0.4782316253617131,0.4350747814859803,0.4046658913159737,-0.07417668980247556,-0.2133730153622458,0.9253965689225978,0.35761466957428467,0.9749817682850236,2.130358681193005,0.32964429576056103,0.09539079628675276,0.37739004935769904,0.21117136122458438,0.9050589922050218,0.6784225014749663,-0.36866028856239075,0.4904256967610313,-0.12463293757635008,0.5171685610094451,0.31873297104980436,1.4230492128450134,-0.19125270777773823,-0.3473085558903762,-0.757665310166383,-0.4016238381172489,0.6443342321780757,-0.8790266175736928,0.01211734935605835,0.7285130426827624,-0.9604470809404659,-1.0782467037316175,0.31092528056139346,0.4992506322884857,0.48557398731799684,1.2578611004318132,0.42211681265687667,1.773074166506993,0.9222276284625444,0.44212784811598294,0.7253696847915282,0.40370879382675345,0.6970312814776637,0.049667268501440896,-0.8921254614416276,0.5975142661236962,0.07882537563957714,0.06051557848843477,0.9554110643564192,0.06380696799455633,-0.16357947348243107,0.7125772947197945,-0.1989226849156041,0.5211103466091427,0.31461641380305205,-0.49249554610601753,-0.930290062276383,0.4832087112754611,0.06218292211304119,-0.4141224238201854,-0.02267669920669901,-0.06966646620186707,0.1182622487782006,0.17762470573789202,1.3585725572155813,1.8191292995180979,0.31968330798099903,0.12905843913831294,0.4085201092945389,0.12938083446150786,-1.358902457483012,0.22787019051540408,0.7849674676239268,0.35627426777954324,0.2844597989910916,0.8428289874378652,-0.11505247919856054,0.004344712944071495,0.4710147670568701,-1.039823956164227,0.09040372502039551,0.6786688956236052,-0.04780066144076234,-0.8859699241054196,0.37202033146586966,-0.6800712657701175,0.2479268311391205,-0.7302066220302115,-0.3284368811318042,-0.5456939003427517,0.5493832757918582,0.5843959645503,1.3952260178966307,2.806903683935682,1.8502450585443146,1.7099152232220782,0.10399352824246885,-0.5112379761541017,1.1816516462071065,0.9773566701359879,0.8279333655293025,-0.005431276109664406,-0.13171680633573934,0.0998115691824135,-0.13158938180111177,0.3101606168558772,-0.7982368186990227,-0.8018705721836789,-0.7108140323788306,-1.0114060896305,-0.29921089176656507,0.6441767254473874,0.6904253584663034,0.2891901739904808,-0.5798130037334157,-0.873918816341474,-1.6846650881160783,-0.5412208587595243,0.2621498626229513,0.6501216952023682,1.6382430979676692,1.906697260147393,1.836758185933837,0.592121758390794,1.1681157967974065,1.1011212341279868,0.5611402773035502,0.2530394497927576,0.62283749398665,0.500528857333181,0.3413485738104991,-0.7526600834200389,-0.22654827519573212,-1.5521979116876952,-0.6029605462960563,-0.1755016035470761,0.146921895850644,-0.7607295212817667,0.18626970821070143,-0.011148242429076947,0.17586149960895325,-0.6875207939352651,0.5213049534579073,-1.15973093212111,-1.7080963664505064,-0.41204109878985135,-1.4660792697660423,-0.34880148870018757,1.8284337074747403,0.6728632033643793,2.6504620632752367,1.4059738919289582,1.2020387454108779,2.01303623989295,1.5901210967398813,0.9075039438160559,0.6665716641965409,0.4888128834907733,0.08032027726714738,0.030703714663105862,-1.3301624920428974,0.12691772826650463,0.3695903246616259,0.4993658278682947,-0.3851949031675567,0.458852063052833,0.3077972288486182,-0.3819616902531025,0.6300161450963117,0.11141579404562489,-0.03438867986964137,-0.744502205327294,-0.8466295204916128,-0.720837654987684,-1.5551026860179096,0.4526907612887727,0.29432254996864654,1.0319201170763816,1.5542993280085593,3.2365418393011747,2.2229261391339796,1.9664260407612844,0.8818019706884884,1.6637022468139004,0.8887252371329429,-0.7745938399127621,-0.7372719691895707,-1.5215660451927462,-0.3761885054375497,-0.4608269999996314,-0.5978385096804368,-0.3249056349749369,-0.2720581135132233,-0.9302374258630081,-0.2784079256843387,0.011491244024804503,-0.575971124053349,-0.22837758221305313,-0.6560411143336218,-0.29128794383540013,-0.250243041461946,-0.5829236721264789,-1.8462549289175163,-1.4213752066573166,-0.6874326811016104,-0.6418040065069187,0.09610727500441896,-0.14797559293136062,0.6621841983525966,-0.13239956239166792,-0.38092110629945186,-0.41431103465548796,-0.01909462915160206,-0.4512174602297206,-1.2148102918959613,-1.180235453744443,-0.2860465529054256,0.613997822254711,-0.22949240397478032,-0.19554354861060322,-0.2341159193376147,0.682832994882611,0.02591227755657277,-0.2620985348585616,-0.4077669275772169,-0.777061681298741,-0.3438734633734215,-0.9069337822346468,0.06108239543045389,-0.18869790669368403,-0.7273825890642271,-1.5099222495052014,-1.1610836606920683,-1.1648906274233843,-1.979467904185099,-1.8564144163108391,-1.7845688224852558,-0.8944943823504311,-1.4802037302090634,-0.12179234851837274,-1.21384404588708,-0.5843731794017025,0.09444073319408612,0.058586199914278186,0.18664966018999196,0.2355315425991454,0.2338866145835414,-0.6756834136785255,-0.8214531918154673,-0.5470497348883767,-0.7095422294555345,0.44246586031560464,0.8354405381146164,-0.6824379489932915,-0.4669855902769139,-0.4361252685537416,0.7687244235579451,-0.3801761183140355,0.49127401708649016,-0.9286770110529966,0.5931490258900107,-0.27500705459727504,0.16086665280653942,-0.27259595169598605,-0.04614972027555226,-0.7033500642388135,-1.195950624917983,-0.1063884542762382,-0.42338012886226,0.048654245213397396,-0.911432426640026,-0.7723853659591693,0.5053591962235887,-0.9779081611561022,0.39762255730422824,0.2594162864021207,-0.7263554212275722,-0.5258444875550028,-0.10427892902732316,0.8407100249282742,0.18273184218885988,-0.5196899674286501,-0.3490878786625689,0.34638908182504746,0.9326040339095524,-0.19851036701593397,0.39674422160393563,0.24355195387935985,0.27151649227098634,0.3180738428215039,-0.10897894380454907,-0.44182949874412386,0.5475396619484382,0.3730611858853094,0.7950558109153184,-0.5000025738960806,-0.12400082317890421,0.036362152946995595,-0.5130171987050254,0.9097748059652947,-0.18161060559398015,0.44489596542056564,0.3562378975699373,0.8742697224769633,0.21946639328307307,0.44118235521224936,-0.3424358388025932,-0.158209150175735,0.7179871796039499,0.04683711443759672,0.3211225170331994,0.5437382128917811,0.6852928929683957,0.0417427444950888,-0.8973576547266318,0.11281771573324995,-0.8530479752682789,-0.2484152256629288,0.24208837501848063,-0.4334585301085552,-0.35514539674637985,0.7288329195719774,0.965854865377348,-0.0998816693702291,0.5168369874263836,0.7127407121794294,-0.8210668595314293,0.8503300613923975,0.4141764738605376,-0.22696767909392823,-0.9998867204414322,0.8295279782593585,0.7975046193304223,-0.0743864155306706,0.9095690911373582,-0.862599930857677,0.13299629939928437,0.4281328799821107,0.2190190451409209,0.6929876623574436,0.6550700906897949,-0.879990632919058,-0.5925673682611221,-0.4627546390587822,0.5492557911656685,0.8550027625933568,-0.7864201730768954,0.23087224539660536,0.6515196573428761,0.14014858953700138,-0.3132490093324706,-0.6395327822964176,-0.03147919178688668,-0.8146000602543846,0.886781185768842,0.7642997223223311,0.5218957839117453,-0.02396262025113138,0.9384679732783723,-0.20306755462500758,0.674647909310838,-0.43726249179367804,
