3:-20.814587983116304:-0.6119801636047286,0.18388932319298146,-0.47883003076392994,0.5169395877423415,-0.18849843712692427,0.0781077789484308,-0.5740233443797447,-0.3048067233725835,0.49511633798502586,-0.6286755538396109,0.7045667564145093,-0.7435492007482047,-0.510171793556934,-0.7622736897038306,-0.7369190245006386,0.2543406178850768,0.9814187658858313,-0.34834764046320443,0.14278678613714813,-0.4450471939575833,0.7839652539606152,0.8824167705344204,-0.40025267197074377,-0.4713911658663259,-0.719016600300606,-0.9856120818372676,0.48960626349073966,-0.12248747388322534,0.49056477162374024,-0.08671840115661755,0.8144847951220946,0.48996861944147074,0.9327927058118941,0.26470677632422257,-0.17781334165516927,-0.8018169830135966,0.5421737017991941,0.5785791756683003,-0.8563859510055902,0.36548677031662447,-0.005226105497300779,-0.6169031826310846,0.1124966917203046,-0.6598455330850143,0.5092040287150664,0.22454941592490282,0.6322425542326628,-0.013184475195272341,-0.5674510113472672,-0.4556884025130816,-0.26208064584632546,-0.25721511732689306,-0.26320911864165053,0.021948080384156743,-0.6529189655306471,0.9454679969618076,-0.071771103610206,0.5534378762786079,0.6013554551251437,0.5383231562848085,0.8118505572713037,0.6761007762318767,0.6714127696074342,0.6866919457185404,-0.9454377502082018,-0.04311775715079749,0.93053036998904,0.3202694653263372,0.5550077079560981,-0.3614322251975134,-0.9970400225730518,0.1610169376018313,-0.7649030158085925,0.5550192447116554,-0.7130920239836069,-0.5229771758844798,-0.7628921160665626,0.7562865729855215,-0.3280573597267213,-0.7375461382993684,-0.39170524819061553,-0.2079800811147372,0.15087179991875233,0.5620599155846282,-0.797173447491625,0.08185607138751361,-0.5913045844158101,-0.6023421185627028,0.7240883863492801,0.15170258119820898,0.7445599713932551,-0.7799425108379276,0.5359680370739082,-0.3971038846770708,0.44008859430469666,0.31912183066959604,1.4556280680677938,0.43377175623717495,0.43261905189211297,-0.6127726378069829,0.5995553406946598,1.1185508822990844,-0.35453345624936183,-0.22223070977877332,-0.33663326174536085,-0.9845499294097351,-0.46489256790195377,-0.635113371217491,-0.17046622651846155,0.45459136512865106,0.2434525064434565,0.04880637593386927,0.21899629699043022,0.1391535021056458,0.33554847895516754,-0.2557775799620752,-0.2559509434106718,0.5396017420461713,-0.908954346325848,-0.1475528519491491,0.17839904299392736,0.2277146583629784,0.8156611398951739,0.12283739229554323,1.41422840689597,1.1476807512445153,-0.07216932294367295,1.1277243024980188,0.7728820343929849,0.39942830628646125,0.3501211935800027,0.6623845645728963,-0.2805586832926686,-0.1860083488638996,-0.7316854455785793,0.21655389899538388,-0.7261524534454852,-0.8783491215350927,-0.9342792908461116,0.6004229922806152,0.24611390085310725,-0.8476570955974045,-0.8175474581206221,-0.5034722682022655,0.5844837691830619,0.8762748895304154,0.6260749097089682,0.8784867207224489,1.4983637221883879,1.271992857909464,0.9076395451249645,0.6041647994303513,0.5029896320241652,0.933433917264544,0.6396866763303973,0.1148691101055992,-7.176723080347118E-4,-0.6286304777152063,-0.4682983529477174,-0.5982208813220595,-0.32473676682114627,-0.9245919171720679,-1.0218274839913917,-1.1482240121183755,0.015527205822775845,-0.5383429605594297,0.17995867026467882,0.11507935808361851,-0.8221243059124366,0.7508776182595553,0.5681677506653474,0.7958353160781758,0.7847985479655102,0.6380938818688741,-0.45238862789240963,-0.1749102481649957,0.9775385654629979,-0.07554773941238918,0.6837148486182332,0.6963504413565784,0.3818284857901594,0.8970323168722677,0.5337293940133765,0.4371337801469595,1.0970745928566896,0.7421627640834707,0.2647668439868527,-1.2068336234172776,0.19812716993944315,-1.830110881494215,-1.6178911562153884,-1.1610000471064075,-0.2446108555620886,-0.45452129806436997,0.7214904062330962,0.863205677167822,-0.4759382383657203,-0.5257319410100154,0.5526958302560503,-0.5206280528462025,0.31770566712613224,1.263499488653318,0.34716179634628974,-0.7797899376417503,-0.11471307014975106,0.509451898856648,0.23025611475751356,-0.17462690217775362,0.5373754631707892,1.1703863843442925,0.671244221537103,1.1348039774469558,0.30510342228323245,1.0371877592796146,0.06543402280959368,0.09552182428293474,0.9384217031799367,-0.1716087958951896,-1.0136150166611186,-2.565062767756828,-0.5838699505004029,0.4433258743685476,-0.5400080802410998,-0.2459334619261744,-0.5540591011760212,-0.4331642007661569,-0.36111427013316805,0.47116495174088374,1.2743460457423867,-0.05987320062007801,-0.10958775076934467,0.36647714328757924,-0.17806247839644979,-0.49442453684998017,-0.3113105245199464,0.169641715266852,0.07566452619792095,0.40452078004485803,0.7363214819053929,0.7231471650770488,0.7622658087309114,-0.09673005482976292,0.10082950049169397,0.2544334404581533,0.6020250136126022,0.515542749678594,-0.3532050463680895,-2.0493909928332723,-0.6252845722720601,0.09233915799563658,0.8977096602512584,0.19562837701705083,-0.03876654091476548,0.20082620474472865,0.4321256061914486,-0.5601319893796822,0.3700352269855241,0.4861352542476251,-0.504978759971018,0.36497902782184577,-0.8740647167655516,-0.7083258830310756,-1.0669137722780444,-2.423009124269373,-2.566330963963979,-1.0271279601113708,1.3662711700242836,0.5478347344205199,1.380916654356016,0.6402896859248277,0.12765694859243626,0.7578935533145794,1.2517884285130043,-0.5370404763363659,-0.944061269089248,-1.398800118259575,-0.14700883540498105,-0.8421050889167941,0.6273331889102182,-0.7828632172105139,-0.8034999303935813,-0.650692868806067,-0.62450735942917,1.3123210661474451,0.536918040635957,-0.4149894122152688,-0.5826326970215249,-0.5120372653895705,-2.8202512650680673,-2.547210726688871,-3.2333368661297435,-3.476683886047335,-1.0245405177192912,0.5632336078411021,1.5658310708181011,0.9125576062126609,1.1849490164825258,1.2256210912201793,1.4582469105470386,0.5097900113406815,1.5903073757862278,0.4048906644593797,-0.042847900769690445,-1.4845861473750626,0.34149800101403627,-0.02003844809367882,0.5123194364749136,-0.36494762235941314,-0.7457214004551235,0.5125781066373885,-0.8804107302569132,-0.052423937799483365,-0.47784886787684244,0.07540733305138479,-1.04648898314338,-2.134487814727571,-3.181657803493195,-1.9264139751395486,-1.82696425810446,-0.6946215778907932,0.02183957947799675,0.8358873536255905,2.2377114561622204,2.193357808818701,1.032155304696876,1.7672739060775928,0.9132908819232761,1.0520770873929335,-0.382169277909749,-1.0374645163471727,-0.6582669150894749,-0.5247446695398473,-0.8717301750247327,-0.5440078154746983,-0.23084957015713464,0.5919086364183869,0.8892439713001903,0.26893077477311217,-0.7367429328479129,-0.6915704896601806,-0.21461797818428352,-0.96949540494509,-1.0371554538786327,-1.2113565178173342,-1.4330044240258146,-1.6886859334788162,-1.3704203188151558,0.509664957408972,0.9557408300019344,0.8665387404699797,2.25621746693072,1.7549001033044065,1.2988878178985073,0.6458349723178411,0.24618506719615507,-0.2217047375206114,-1.0784125963874198,-1.7692120205330741,-0.18585464601339924,-1.0976413257138462,-0.0751442865650213,0.8771228087042883,0.4254161366425534,0.7839362594893658,-0.24788108534757944,-0.06801953921905798,0.2967404926337401,0.33016195275663446,-1.0113744153120585,-0.3134008441787174,-1.6552080719126507,-0.7357893201786201,-1.789326964308279,0.2518013021166525,-0.8872437267660221,-0.34058525203159395,1.0905322581393753,1.5563286821704971,0.9353532122780962,0.3629611345603659,1.5582427132256274,-0.36116192240887035,-0.12798705960206283,-1.6472751770467478,-1.2609168613828678,-0.7090108594202599,-0.1988843179299397,-0.23120000131733817,-1.0038493555582595,0.7260117865012484,-0.3298309049447807,-0.8874852224877873,-0.5379833473817679,0.9692899625820045,0.56690150109187,0.6435403677935563,-0.9997781238578314,-0.9880536698902488,-1.158748999480491,-1.6256180814675918,-0.14502588580797468,-1.3443313751469723,-1.4961320711177695,-0.35225179303744586,0.5890096461492654,1.3175614830918614,0.7806559749377783,0.8581162584176855,-0.05371317852945227,0.2591479083191189,-0.5878216576083976,0.3671987052427317,0.04280332024953422,0.3578314583425925,-0.27448348547147805,-0.8044160837455543,0.7170985264371652,0.01962264728039556,0.5084119205798787,-0.6105887749853647,-0.7926496405131842,-0.9869447705777199,1.0294280728124219,0.9683349002652331,-0.2887696550686547,0.31595718404188333,-0.7944468668343699,-1.709390554226376,-1.319018487432661,-0.778294265473492,-0.3531150214427764,-0.3132445735391285,0.28557666737984977,1.9415885372233335,0.8676411204659835,0.1833125115095445,-1.0771801564814563,-0.18733103126910003,0.4191733121307033,0.49778737685504654,1.068548730856134,0.6355364681327521,0.03354917158032416,0.4003129184703679,-0.3585033037296752,-0.579680673371014,0.25787319024550137,0.92255203772915,0.9523957134554923,-0.9265493050809867,-0.2902658111535309,1.2215817743719972,-0.4503706375850327,-0.8628174445031941,-0.6707320827836434,-0.7560069146351874,-1.2105412689154418,-1.5284952288004663,-1.6911404238718108,-0.7418346479581486,-0.6088401404352058,0.15432637171293878,0.9798747815588397,-0.11641278698609021,-0.05477723017173376,0.4095595562050888,1.593983962250196,1.061865575261874,1.329481519013932,1.1631176488496826,0.6850236372721241,0.3469557336531218,-0.35467347207308186,-0.07230132395056076,0.6599987045804521,-0.2917442830189751,-0.3589516594819282,-0.025861507176207273,0.5130103399448633,1.605733761646486,1.380455098317955,-0.1740733405592177,-1.4566190885246495,-1.1166680632105803,-2.738483536191441,-2.88578580542122,-3.3868211114704385,-3.8495458904664916,-2.90354862924636,-2.5742025874241916,-2.8196710658578894,-1.5004701702986285,0.520202334426853,0.9499989213352279,0.33342837409094717,1.8330486962523882,1.0480642757601129,1.0558496858556505,2.0613033958091007,-0.13049497593793946,-0.53428532963955,-0.9704589977437773,-0.2189444316560378,0.990260194212044,-0.9587311110609549,-0.27888144735510784,-0.5617804949399517,0.5581677262693947,0.14860101221028127,-0.15168071613257428,-0.7480417410159356,-0.8432859573146905,-0.9851958119152239,-2.943338892327383,-2.8515433214302632,-4.023626040166812,-3.7951563035682194,-3.885520663842356,-3.1876043646728993,-1.0774726632672351,1.2879644603534002,1.3928311170170464,0.12468937641524767,0.8688824441468846,0.04933626079293528,1.1398427751141174,0.0928788013171937,-0.27798315352334774,-1.4425807777844584,-0.051306997396692464,-0.35372549679456033,-0.3682538577694477,0.06316346783513674,0.5627922332801778,0.612016713279388,1.7872822433930808,0.24753041619214772,0.6827314696279462,0.22671512136771219,0.22661925956598292,-0.22362239316783894,-0.5550835090459458,-1.0550800887035292,-1.826616012332946,-0.5507515063880639,-2.796224711150972,-0.8533980756030712,-0.8987848663446577,-0.4118818716500269,0.4519489293773259,1.5665074504730787,0.6251368043903085,0.5697427478872005,0.42519280426619055,-0.9641424899085146,-0.6047110268948315,-0.2458509253823259,-0.6451851137919083,0.5579618729949642,-0.3037820735364169,-0.48940302180591444,-0.2321781057865725,0.8202398457296394,1.1770633393499963,1.404453822707802,0.3386446436608187,-0.39061699043206227,-0.23364740378889112,0.05977279938298292,0.4026069463961433,0.44492423646675194,0.8861106220692099,0.5003669467726196,-0.988754844393352,-0.6741298715410465,-0.21772124296793194,-0.7562980051762414,0.37155917313114084,-0.01551037119483045,0.6163951058446908,0.030423025734942332,0.9138583030208943,-1.408094579153864,-0.8430887406246999,-0.07188380836828775,0.6805630119577409,-0.34097550267039,-0.6983871288652972,-0.7093039400914743,0.5508317744392854,-0.5541983319021946,1.0169836315092502,1.1215133843665004,0.7635337502858528,0.8543180713379748,0.46923327678316706,0.18460815053233606,-0.3205223407605831,-0.716662372674113,0.5873234805594079,-0.2959549175868356,0.49542505987588514,0.2554014160566571,-0.01923096415580658,-0.3420606229034423,0.900888000884742,0.02311997938720104,0.3058035773940611,-6.626022803361953E-4,-1.1035748854459102,-0.9077504760761387,-1.720318565053271,-0.44901878614449064,-0.008799007199860969,0.6321980633480526,0.58443083963721,-0.8924541839971875,0.40047549069407246,0.12193098314671368,0.20012092419524444,1.37017507931726,1.9783385970719531,1.1213828646197912,-0.35339144837806,-0.8591486467145013,-0.22968868767662187,1.1270028309915365,-0.08914973907507892,-0.4400806944305427,0.8117374329556353,-0.44921476158388823,-0.1662057053097943,-0.6106581568115287,-0.27756046388821154,0.6247592964641009,-0.027613200370695458,0.012464190865828713,-0.07836849095554019,0.09239304633109383,0.04890861114161186,-1.2069228814356927,-0.6885104182868416,0.4248444661792435,-0.017324335159529813,-0.3941625619970093,0.5656237505124864,0.8998453412019264,1.1300542120663852,0.2283289796522926,1.0777821031388934,0.5557112528008602,0.538393233495344,1.279909162261086,0.3853325495123628,0.9739783165582281,0.3978406938982354,0.584672307786734,1.059428916533703,0.5271387480251198,0.13936750860812333,-0.17940771595798544,0.49422182232451817,1.0527541628346624,-0.009562376588360979,0.2624523228678309,-1.284591106986141,-0.5916662790299918,0.03335145623997533,-0.04212568582710531,-0.18787477689445087,-0.4864916970457652,0.9103635343789895,-0.1928173861590068,-0.6018577969821683,-0.8819989226760223,-0.5827347801472178,0.10029834139526074,1.7454446854758698,0.950238901165991,1.8332631069089034,0.6198634430980802,1.2488324843294023,0.6607602908656829,0.4187979746230702,0.773906101422546,-0.22112121422767383,-0.023708777352776236,-0.2964513426810148,0.09201256663804232,0.40634259651715926,-1.5089621768006145,-0.34999820716460617,-1.12028718507513,-0.010073307957970245,0.5561459509814197,-0.19176596192395037,-0.10340920349105245,-0.2805843118078499,-0.9900429283446933,-0.8995512570220325,0.4962607257230742,0.09269000804261229,-0.8158625571181445,0.03706321676481908,-0.09951352334519283,0.9654062501189439,-0.018654366408030202,-0.4303860260816447,0.8653612117231504,-0.11039863282638536,0.5544785041903822,0.5949477616894969,1.1272450850814868,0.5503095225501099,1.0195830543809805,0.09167004957478271,-0.5573004761136695,0.14149672717122447,-0.17316031087685965,0.05188899703190982,0.1875720197429295,0.40272315946112747,0.3629016989230111,-0.08536338417770259,0.842390903302102,-0.9541238845096353,0.6136422155033974,0.5587148687669177,-0.03408734004113123,0.9821201020214891,0.9205004489533459,-0.24931349302917738,-0.6800513329759694,0.9589140357255196,-0.017773202418173168,0.5450551735550329,-0.4674061150114104,-1.072946696601452,-0.3321437702241224,-0.3872907385615225,0.5240011256716516,0.2886741631250505,0.5730580887632367,-0.05005518308469941,-0.5028227739435708,0.006994122481140334,-0.26638134517053097,-0.03279367834231274,-0.7234257616553118,-0.5148637282053489,0.2125714688507008,0.9976447183116284,-0.6191624388363846,-0.40641597040010247,0.44359007884953483,-0.8071153410112097,0.21975788854171396,-0.8641966366213596,-0.29041022962714513,0.34442183876479726,-0.29355824356624804,-0.6822154809120164,0.8189207878234033,0.09374314719509773,-0.5452608313142336,0.35800886121575726,-0.19995155855449695,0.9155553247011163,-0.9720474665021439,0.9845913809763561,0.42671141884579533,-0.8152826024632108,0.4073702438773294,-0.9848041161884572,0.5594827103042959,0.9719011381618899,0.13519687074227696,0.714392948814806,0.30145949980391573,-0.1364412368025416,-0.18847339070101898,0.5320297103178167,-0.3058972255039889,-0.27227279487049705,
2:-21.925170491137123:-0.4584584437316248,0.8770128214209028,0.46392700801270514,-0.11857583114544767,-0.9632263802370007,-0.9149721324799049,0.8577751897705448,-0.004449895799692127,-0.7861289428534284,-0.8106910245723375,-0.8646792562506107,-0.5993431019817126,-0.29055576998203525,0.3665911441398616,-0.3848825988538786,-0.17711332794583717,-0.27084733331952116,0.6168429930498596,0.4969166082597807,-0.4080184048049873,-0.30984648499954237,0.852809082840162,0.9878944855190084,0.458036089631517,0.6970843743105071,0.1796438619547014,-0.2194547756938119,0.5055405895594316,0.38558570802534864,0.552327541696152,0.0020612517417730736,0.15011489172751125,-0.6787390894079024,-0.6801763062856823,-0.7223938095519127,0.4591863493919631,0.8770162522397479,0.6878945600470378,-0.20695674507428294,-0.035071290037612425,-0.6163698158272087,-0.9656896416866076,-0.6849652384181593,-0.6998328528767207,0.2158863770898234,-0.004883706432675855,-0.3463459697679164,-0.5946673133352199,-0.06812800054300899,-0.3593966058777673,-0.3245227683966104,-0.8101041975329938,-0.2893491346610564,-0.025480099107691556,0.9326682853957178,-0.5103051934488272,0.2791872579682966,0.3681212315313218,-0.23914290769463098,0.756774116729926,0.8557737751430268,-0.2940678516688818,-0.8918173465380245,0.7286547355022217,0.07323974401160753,0.3222531447513533,0.15562466998577779,0.3740305449831826,0.5007545312632575,-0.4334224289458731,0.4614678253820612,-1.0433373331376217,-0.8148312024949569,-0.38480309811240204,-0.3235452923326089,-0.6071536316229963,-0.7720639962234157,0.6050620263584402,0.8277314737578229,-0.11800317382066289,0.22746735559123635,-0.11020160504393474,-0.020779711735157358,-0.5843009286912795,-0.146771445959345,0.06406194097538465,-0.4804849216902868,-0.43540532565341705,0.23289188915674022,0.8394316539988745,0.9619477602225613,0.04648490792996147,0.6385104130886914,1.2886364066457507,0.548803987421839,1.052106804236958,-0.31216755844514,0.8710709249026994,0.06823735114881832,-0.9383685021834353,-0.34447537217799357,-0.9252366800280325,-1.4253442452735114,-0.38167684816739916,-1.1992309673421477,-0.6754293864021189,-0.8842789247982341,-0.08199701738993555,0.10784074119241523,0.4581168014253721,-0.17780876751731445,0.12748471021677488,0.4850752103844149,-0.07434351338560144,0.3544494735597425,0.3648873191802708,0.2118587404574232,-0.3747363850196133,0.060081068535510186,0.32886709469360487,1.311885639818141,1.411891716199366,1.3992643372990161,0.8419953369208244,0.3567398716189522,1.7023674158137068,-0.23644850686697347,0.28557177971257297,0.7087950133579696,0.6071594744793672,0.307840155584162,-0.7601940390791333,0.11342435746073397,-0.23750633944813676,-0.5802621143334173,-0.8760713179462074,0.7442212887090468,-0.8963255037913704,0.20420824204582447,0.21384900894821193,-0.7249057529845608,-0.1700276216730694,-0.8867148288835687,0.7128843906610624,-0.39934122784625253,-0.16600525985961595,0.9479671684394344,0.24139397720572414,0.5321055837671477,0.46858493564483317,0.6468500832737721,1.7134195977107232,1.4141732813647525,1.2194254902084587,1.7581983231877483,1.112125423147653,0.9107759230770336,1.2273267335066833,0.7569218006206492,0.1585841834703062,-0.7383472572850853,-0.14538129304901853,-0.056808504136818934,-0.6551299651642585,-0.03082866751134765,-0.4689555344574655,-0.17658471684163027,-0.8452272405134943,0.08468219513411612,0.21573933739160195,-0.7066204519205983,0.6537397413617386,-0.05370026838076874,0.8534304751282755,-0.10594551155337069,-0.2505451116419793,0.13817768509866943,0.5834239559059401,0.17304923248368356,0.47474422726329363,-0.4317863654529959,0.5363582402293018,-0.12609520733578122,1.125441051788032,0.4512754808732098,0.15280632080953105,-0.669659030435267,0.08110328821992369,0.11956097924576088,0.21856616823308866,-0.8164413804954062,-0.43111103827433994,-0.5816447713849149,-0.32434645504823617,0.862170069111877,-0.7120542120483132,-0.14599599276491965,-0.5173485330473084,0.09927893134550266,-0.7926853746993957,0.38070496473145443,0.640063038638973,0.04357003305100165,0.07295301292892595,0.2807532712374845,0.34485154834086074,0.06167615168979604,0.9288965532807169,-0.01671344367950494,0.7643394509362265,-0.38843484328002775,-0.24245590213853,-0.9559765124430595,0.47719855359712504,-0.48250136319977965,-0.0650087350128757,-1.167592686611266,-0.3709082772518815,-0.15751086841402057,-1.221721920619184,0.36676538054989277,0.566226537947267,-0.8273088107005057,-0.6314824375228352,0.9664716114716212,-0.048417762538042544,-0.28664901506821683,-0.48070767804025677,-0.3191010380691106,-0.8581736234066216,0.34280036250318074,-0.043104322155284286,-0.045144754262390056,0.5864935071479915,0.47062790591645515,1.00164165865479,0.47991628159789845,1.1514959347859015,0.09766634694475979,-0.3729973501915831,0.028792746330858397,-0.6465241836086334,0.1809798761493274,-0.2672686058335763,0.03796447356136917,-0.7688856717756879,-0.5602398967207196,-0.5085050808838095,-0.339807444963977,-0.40913917219888135,0.34304437881893723,0.12611304585671884,-0.5866806564519761,-0.9214661457060572,-0.1290431486573046,-0.6568240211491003,-0.6347818672056427,0.687683910234362,0.8142776356043305,-0.019618348540214697,0.019731071151445175,0.6148157713018503,1.0649122680755174,-0.6323693087359267,-0.5087835916467802,-0.4459814713572549,0.7197241086826635,0.3443561068235704,0.6996794568552112,0.5620431354684663,0.01186005658180474,0.3583087174505649,-0.32884081220408246,-0.5718531094265132,-0.5073361717173287,-0.8226049478486065,-0.3753578309514859,0.8023833709804254,-0.8707129259585804,0.3283197965644219,0.9354595852011958,0.14448418335816535,0.7418611805216014,-0.23259155022106842,0.2763840494259192,0.10594413986577232,0.13388878124565087,-0.57020849364381,-0.9681870189334275,-0.2307144823461196,-1.0491578815148233,-0.510242620302554,-1.0174506185092207,-1.01501101523902,-0.031296874793916685,-0.8599868020980682,-0.062024423897554325,0.4547653688643939,-0.24037203612462896,-0.9798740850443207,0.15322107967422943,-0.6158866556207953,0.25761408013422693,-0.4603033113076785,0.5727764913441873,-0.26969330915994255,0.5962490765159226,0.6897230050174632,-0.818864806648875,0.9916017166255077,-0.7287625908297847,-0.0996887027915182,-0.6216244009820815,-1.1092954364146996,-1.217835686168857,-1.347126197008039,-1.849889350952017,-3.3835229457454052,-1.8520045595661718,-2.9838864813128443,-2.972468181655581,-2.928886032635015,-2.6514263441479433,-1.4683674642130036,-0.7223925853286037,-0.11772879356367673,0.6167321352248022,0.765571985892324,-0.31762855597302136,-0.7235256208542912,-0.09635825581987523,-1.5222775430092579,0.731702562246199,-0.10367149899613223,-1.0196390941284046,-0.9427652665381797,-0.7832935969475183,0.9185260736061508,0.9689774109435668,-0.11756519137398719,-0.03158681392860594,-1.9490626539573424,-3.7270775896381476,-3.887287349902416,-3.062887290598595,-4.348879411114745,-3.864364344808356,-3.2933373386039246,-3.022777712744896,-3.515566616990647,-2.173846872293171,-1.1130343882843654,-0.6475609882324744,-1.3518753708007136,-0.8248576494877367,-0.023202525872650422,-0.5717084201422258,0.1650140735776751,-1.8589801975788085,-0.2179925493880414,-0.5993064055079004,-0.5875751230484445,-0.3130278504607609,0.6600850344728565,0.4642436963074583,-0.0122758555497558,-0.9813374685603787,-0.2137724708026829,-0.9952727418576031,-2.2769113174013693,-2.7355948420349945,-3.8255371226962653,-2.8007722691534482,-2.325153825677622,-1.1433293875586978,-0.07995931948154654,-1.0728223832812516,-0.7461356024533545,-1.6176619365216875,-1.0690859337780831,-0.4801587277969794,-1.1370716755303447,-0.369577787688101,-0.19689304024114698,-0.9792135515126648,-0.7576230116231513,-1.6841158888056647,-1.5547544757751137,-0.5334833425700393,-0.15178797940714464,-0.33955977312985053,-0.5619815608321512,-0.6865759939496792,0.3292894990319122,0.36715271508550384,-0.901837951431358,-0.40275165610330355,-1.5805778608012444,-2.0151200309166803,-1.3837804193374654,-0.3801029792796408,-0.38839911243312614,0.11538135226156608,0.6155357965755773,0.5533983118844678,0.8739138990091266,-0.41238689213948526,-0.9203581445122431,-0.6161337136796966,-0.5258935806545532,-0.2313356943866893,-0.20816578336858282,-0.5480590619586388,-0.7551734699929262,-0.9325795328358746,-1.6585342538018382,-0.07654521372540248,0.5872346443612093,-0.06803160033717852,0.5816211303726052,-0.7334446933089402,-0.6882033296840803,-0.8007019492863489,-0.9655792661370475,-1.1789428586793538,0.11834815616940396,0.34172705368124173,0.5629991124687379,0.299431433317185,1.443275534234137,-0.36751485585424254,1.07653388352284,0.48233028016841334,0.9980635732492058,0.30119722108269925,-0.09377623554691346,-0.35240232141029787,0.4558310632841201,-1.0977998165180716,-0.7446617876704876,-1.0945277327530418,-1.0872998500242494,-1.5101689322765401,-0.504960402157805,-0.49261219115019206,0.6222945985828662,-0.5541387520126845,0.6374088422906423,-0.4756160993651122,-0.6498016913442864,-0.8916028929659342,0.6039287017903767,1.1027988427589817,0.07600431039814975,2.1462950531840845,0.5049134083647493,0.5006448420589937,0.38122148566806846,0.6224071762643888,0.3031831876678053,0.8445049320216949,1.5387508518352009,-0.442902680763661,0.5900507598034724,0.6207729328329797,-0.26091678174823785,-0.444121922297698,-0.8240012711271759,-1.3598511623398826,-0.28056441412779587,0.33087437814713666,0.19302968368856813,0.34188607908639734,0.34398661839062,1.090225002042482,-0.6944752976811279,-0.5933338114353326,-0.7985551829200848,-0.26967507462314416,0.15032147329042894,1.3880826592626434,1.3083674713324265,1.079524796870454,0.7631400320188223,0.1606392344641523,0.4074896742706479,0.9055825129349672,-0.16288415317978844,1.5705934323668973,1.3373142206339719,0.324965442148253,0.9368476148680831,0.8127842860301832,0.5043270529606253,-0.061973303494583604,0.29201323687631975,-0.2168438296159048,0.8758151944485074,0.23022914205241438,0.9436197207927276,1.3095787593698334,1.357042223692002,-0.3330931378297173,-0.8765536179541409,-0.07468530616468608,-0.8011720648014453,0.5379895889152412,-0.45402660433417685,0.6161273103288492,0.7465163578235741,1.4526031887294553,1.3932598581842126,0.8720981310992179,0.765952213195186,1.1030374993855299,0.25297289924245453,1.2799943450853402,1.5195963957554284,1.192662251915935,0.4987785128686719,1.6745676214786545,0.01363680791687982,0.40340161922531,-0.31232041209260314,-0.17172683282838896,1.2195535411582612,1.0224056273648692,1.609937391428285,1.7294929920010262,0.4310812491595133,0.7532601842975879,-0.01697542950150586,-0.8107427905876744,-0.2398278350600336,-0.9237786133572947,-0.42569652159015003,0.8856135257285876,0.036154540526597376,1.4064394263162268,0.14292337733254903,0.8611927318942388,1.1053240728481044,1.5958257211890956,1.0238306134450936,1.2343932957910928,0.904665954470085,1.7168343503493793,0.14687992518244133,-0.26024673750102056,0.2852742422930549,-0.5589379406137143,-0.2762700942088414,-0.41805225261243334,-0.2733824871045096,0.3106913487141786,1.7063601557738268,1.6053215575202036,1.4540032837981798,-0.85103115075315,-0.7837324879985814,-0.8810224865422727,0.27002775499448944,-0.0655907473535122,0.21257760675039145,0.6189906918072865,0.3831713377753868,1.2056461538721437,1.0905275650942374,1.2607904071623905,0.08406193176731216,0.7600277545728007,0.984880073133851,0.9654120368721311,-0.021368154243216045,0.09739903536546943,0.6852963908628135,0.5062835820943833,-0.5003200032069434,0.4222714137758203,0.4269490822203138,0.6063871298810577,0.20656564081461798,2.0948968002876067,2.289353994720373,2.008819193004048,-0.06080957288714506,0.7558215687301207,-0.1470830588792075,-0.814994288673575,0.8221695302885045,-0.0160608999063307,0.4632818217607775,0.2093636477414721,0.46247267077130666,0.49053902589623943,0.5179166476354199,-0.389033854186331,0.46385097150081217,0.548374426507177,-0.13994938001281643,0.23247180608891474,-0.8221046118322717,-0.9260586930760415,-0.6986664127894642,-0.2822974368467494,0.23040456610969035,-0.09893152817376429,0.4861782222829803,0.3273086111955258,0.8802204234435127,1.6135094099607972,0.590031328615279,1.6434278661790636,0.895205319240039,-0.7387823222611407,0.6373239538551299,0.5585893396347126,0.21841698151859648,0.3631072090935992,-0.681550864430911,1.2362689123977222,0.10692683221543174,-0.04012276699041797,0.603374967860573,0.3079371728647674,1.3540716655020382,0.46944752325993583,1.060625014604687,0.08029207698701328,0.7090610488837805,-0.5956500186000669,-0.7117627871474307,-0.4793532144781839,-0.2872003815072493,1.0326872347489697,0.628647917222373,0.4168768192746519,0.9766818724427325,0.5671985484937496,0.5641992757724221,-0.11944210129603326,0.0534645198876624,-0.589691693858655,0.6453605407091644,-0.826227293955432,-0.7627605030643598,-0.26687421232485226,0.5095347563087284,0.49577095357417394,-0.823404006665706,-0.4615900511655096,-0.40082007381470625,0.017702462299583572,-0.929038864759345,-0.7006703838206148,-0.49560844977159296,-0.3462361959848192,-1.1958967305184578,0.2111766509545194,-0.5848733662994661,-1.3498477476093316,-0.2370545190974054,0.2658989663646789,1.2725825628822542,1.385442774716381,1.073563877867383,0.2422531515593049,-0.16564510676123825,0.02654049380270291,0.0768828165288929,0.8411537135101472,-0.5956964393404962,0.7493817113670385,0.8349227262158223,-0.4924992464741401,-0.4791207332600809,-0.322430339024613,0.02315180223662344,-1.319415504665154,-0.4984406707620611,-1.2746994474477535,-1.2557730256345403,-1.5664750625626878,-0.34360159521683703,-1.6023835738712173,-1.2078013837044836,-0.9190805559421982,-1.011373748679458,-0.36542030380643986,-0.41173825653257795,-0.8615788957433572,-0.8481733212514696,0.07110630531688401,0.04097660220503998,0.8010362507848074,0.49719725546343724,-0.5888454510593454,0.06726530687744561,-0.5429470914138824,0.8223748258503987,0.8055001276680052,0.5079718382308016,0.9268430022366753,-0.8326240133954323,0.29466545838956754,0.7505035445986398,-0.0862222669752432,-0.08488970777400716,-1.1862633066542394,-1.857508934517742,-1.2150389285291723,-0.2406678527166772,-0.8997921128811829,-0.06381751205357457,-0.8562140736939233,-1.5934451852414975,-0.16298559709051827,-1.0610119908534195,-1.300871435015534,-0.06457988201181826,-0.968019362902565,0.47969332943048315,-0.4834470157987248,0.5058228559406567,-0.30776980044118213,0.9056571496585906,-0.9465282532047792,0.7038829136932723,0.1326968904033503,0.5488690772058258,0.7719016236962477,-0.3806374725985543,0.6945970845566016,-0.006228367194054381,-0.48730754460147097,-0.6961893325634975,0.3695719738333484,-0.6300835402125666,0.5236915052569655,-0.4848031851412779,0.661249679530164,-0.2321782186098477,-0.5908028814486164,0.8085834604581686,-0.6045160409108736,-0.37596728927659556,0.5879659894089889,0.284166235047855,0.47992921087223384,-0.6623321887476623,-0.499227473934369,0.4934135089311325,0.3153568992375008,0.4978803169851133,-0.07573407329187831,-0.9668680551021893,-0.9660504755655768,-0.6376948985391904,0.8944811561163151,-0.6710960148344487,0.7759080206156982,0.6421343873742318,-0.3547802095402436,-0.5210143143395028,0.1646959460030803,0.24751157578236274,-0.5229082265531452,0.3238356098023494,0.35669679252186753,0.3763579720737397,-0.8973927351218742,-0.19705966940175498,0.7811622755297142,-0.8354943854262356,-0.8920434764137231,-0.9099922376854903,0.09092647696045773,0.943735102282374,0.9200345352360564,0.8596551441620148,0.08425526804532413,0.025832946006354884,-0.43331583665756734,-0.4417104141481547,
1:-79.81428892338818:0.539666248641884,-0.890870039701815,0.041112123672118805,0.5302567389247552,-0.36946271400496555,0.2466222389152526,-0.27427163614669237,-0.41226051716915624,0.3140920712294748,-0.7388129351223447,-0.4365332592988902,-0.5726178493103817,0.572558267533835,-0.9397903707821234,-0.384781985709044,0.5844932672492014,0.857178301340981,0.8000415814799293,-0.5195890090147806,0.30934299315111113,0.7221823902835416,0.7982582885374814,-0.1624057368340368,-0.4061684445565461,-0.7283710142355713,0.7394512939159377,-0.7435863706687575,0.46511247074862205,-0.9602194131418318,0.25078903534296715,0.4416890899547814,-0.1734957612321142,0.39638322531099646,0.3474063803426888,0.5722512068465617,-0.16889602953634236,-0.39857925162993224,0.7269126442363634,0.4482951342479524,0.5218254937117917,0.20986203846264026,-0.5118652757060977,0.8942566040733498,0.45710615082706996,0.843446494206388,0.34015117246858245,-0.31596271332047354,0.3841929065453075,-0.4878589111128862,0.16464835339069173,-0.25976079313489864,0.0924524714336199,0.06378237911774787,0.5828819232480558,0.7685877680405644,-0.8249489171036091,-0.20890504826542644,0.6887841439983242,-0.9237761436193355,-0.32240296500563814,-0.2455357212501843,-0.6787669029465034,-0.5821092585909774,0.14247639954835734,0.7156788479914211,0.8222856616824873,-0.28675185460526315,0.9256749140502194,0.7576248138103631,0.24773162822235098,0.7746774895985779,-0.7634723699397115,0.47629648148333936,-0.8861817753715311,0.7933545890600768,0.983346574872437,0.2901633581548755,0.49143352566292725,0.8575089842644675,-0.28042806006396254,-0.9951729275336347,0.9305040938499696,-0.6646862681278365,0.8739821529679688,-0.3803817844924027,-0.2401270875595034,-0.1114238755345851,-0.04437013879557817,0.9259959416802607,-0.437768273753251,0.5863269155284532,0.23026520174808554,-0.4565384513149313,-0.5202299540054139,-1.0826613163462078,-0.5077869686764073,0.10392399757027419,-0.9245231777294808,-0.47165733557096523,0.19041063095563804,-0.9110403700778352,-0.9436833007236598,-0.9671549027270313,0.08550254869837837,-0.13512337975104746,0.2350750439481902,0.09349082035413343,-0.817843847917192,0.7080575297968595,-0.07584480981621183,0.4845892850059051,0.41093337259039364,-0.2976425234521811,-0.8399378770772497,-0.11009244609108153,0.029220936486430392,0.724149828718244,-0.4918657613350996,-0.031360134768477196,-0.967305976393914,-0.8917251715104163,-0.4638190256240748,-0.3854150546222394,0.3413563338191603,1.360803312920038,1.2850797437213675,-0.23193321412504891,0.6179371640076624,-0.8988264849161596,0.5464503621714052,-0.44218563423819934,1.172044285805032,1.8691794711542271,1.6033478971277086,1.0515178392987485,-0.4267495343653949,-1.080437387305928,-0.40949546956586835,0.0010659150124484418,-0.022373464908733383,-0.898380480835915,-0.5163664163849215,0.28795890837218074,-0.003488884214674138,-0.75481516948962,-0.02296592730836624,-1.2726351358742372,-1.517530250356482,-1.3846617935284355,-2.0517534616558475,-1.9473282528040072,-1.301392439587843,1.6095165702719516,1.240482123530434,0.25292351817143544,-0.6391527021310298,0.16107159785362324,-0.5597393944193538,-0.03013919474533834,1.314780661090291,1.858198216669971,1.2840345114432663,0.6973114824233327,-0.6092998013305695,-0.03411847422416656,0.45384475886669867,0.11097567254235141,-0.09709978367738177,0.5261518829954521,-0.7117203629720812,-0.3054905044335417,-0.6845872187433806,0.9638770045141735,-0.21151369236869774,-0.5432107132262092,-0.4098096259532988,-0.829974700018596,-3.0907964369007677,-2.0011146603332697,-1.922268888430705,-0.20946353908798496,0.7301855950768826,-1.1434163273756477,-1.328017901697492,-1.7606806815476659,-1.6040335051208587,-1.022918658325548,0.9440370732320287,2.1951931171611383,1.5879921549111098,-0.47917436871063146,-0.2788037884144825,-0.21019834143746496,-0.26141576224804614,-0.23830373982851064,-0.13209940893550315,-0.5891418340188098,0.1538195846829994,-0.9995771054323416,0.5773560988073111,-0.8001946120361888,-0.24911847805162626,-0.3651432260291314,-2.1423675359963035,-1.4195283394710472,-2.324210158030644,-2.9422465022151596,-1.3354131757371843,-0.14080756567808309,0.7260545909537942,-1.4303716614829554,-0.6498491048943807,-1.9202398815071016,-0.48253807315390107,0.37903519131866276,0.9856885324918074,0.3288782151436143,0.2295113883133046,-1.0327850671216623,-0.5171848471260702,-0.8336218031307631,-0.39419119302208505,-0.6445299869591317,-0.10236718813045362,-0.2474719977345954,0.5679199066465135,0.8464536648765689,1.2362472226289329E-4,-1.053889384983886,-0.29963100914904645,-0.7848414467913724,-0.12183920990435021,-0.597251243095115,-2.265302189349622,-2.6325134242618513,-1.9674174525321813,-1.459760853152896,-0.06760347847292138,0.8229640795075036,0.08699136178824127,0.03175731615572677,0.03707288200842805,0.2807224952847829,-0.47389831649509745,-0.9301577172617043,-0.2970088465156646,-1.136837620987306,-0.6419802297912319,-1.5326011019955577,-0.3625504421304527,-0.10296071027740959,0.4055668340008652,0.42222218000136563,-0.019801779036647194,0.9822234225099387,-0.7181349489455747,-0.04112777145314428,0.41764442847339794,-0.6504170585023346,-0.7599328833901234,-1.719776652559265,-2.252622142249115,-1.8131208222656026,-2.535021338780768,-1.5551011794644733,0.5463198779579118,2.2462306507743195,1.8803454362828438,1.564047921227419,1.3394205454461476,-0.3174616163765024,-0.07380800374112607,-1.1930097887362592,-0.8934815272310952,-2.399627284143971,-1.315603091165197,0.34964995499258583,0.41643453144246856,0.941873540767712,-0.9830823218667202,-0.10434051500204333,0.9772978011252061,0.01229831633670447,-0.5680757864407893,0.40407289717363093,0.7048812201867855,-0.9346190250334558,-0.1859446473730404,-1.04881868107038,-1.4571911017762302,-1.3694020304294814,-2.8292106155737287,-0.4686543497863126,1.7194307326563925,4.618307152319441,4.348688701370695,2.814142754351498,0.790607259979058,-1.0816163544027653,-1.007502282084891,-1.8129147730077984,-1.7536021690343322,-0.8695579377616098,0.0328650984432604,-0.2044184518928911,-0.10406679080652786,-0.22188323354262374,0.6761542396357101,-0.4988470119667605,0.6291763124748601,0.24814190140663414,0.7235088095426321,0.5827560747754361,0.3263932169864207,-0.19628226675906724,0.4061458577776916,-0.7816978783912449,-1.507129856865551,-0.321495001614675,-1.6625489414541685,-1.3948381601887356,0.41371442667006797,6.599586277417467,6.176328318578601,2.9451942727953986,0.06412301297609099,-0.41460312722330295,-0.20509426240844567,-0.36613860128589354,-1.1494021067120226,-0.39004785141663545,-0.34594613730259843,0.031917448537754765,-0.1632493046190497,0.558809420922395,0.8276598433886957,-0.6196531215884535,-0.5116310036386267,-0.5032932471354138,0.9418277615567194,0.8785563593453285,0.43237386509030956,0.3970309016209788,-1.167297974320479,-0.3840730657047005,-0.794228402072019,-1.699730567453836,-2.7624625885117666,-2.216358885296799,1.5256230211963888,7.925347941622984,7.125530920971467,0.3603491838436977,-1.4277236873239778,-0.3515610476275213,-0.6435908450132812,-1.460589890922046,-0.7381010296961582,0.21079679552379926,0.30616197156700226,-0.4060613087768882,0.38585110816665225,-0.45432348788614485,-0.8241051696593981,-0.6097903604336868,-0.985929540536415,-0.31430205714098064,-0.3259631964524442,-0.005486670393807866,0.7201348306505091,-0.4426647879997868,-0.06737831772295179,0.383779852410824,-1.726216606996444,-0.9731701191839782,-1.5735008480562445,-3.0565160515230025,2.697497075843867,11.472951710485281,5.5665714459124915,-1.04589346891564,-1.7329199385882077,-0.8925676364042412,-0.9302252497760434,-1.1769538211883206,-0.5393608807387712,0.6700719647904702,-0.7161517024722596,0.6253088367794427,-0.9117369337439805,-0.4778248317042148,-0.3410740737895619,-0.8545602718108061,0.2172380433422898,-0.7725443416124518,0.6651885678623057,-0.992922639856902,-1.051373517303301,-1.0493822036216016,-1.0436441225512951,-1.2783321552068798,-0.3578621500870162,-2.28521413162003,-2.4995900092854546,-1.0102596917921693,3.859388471751829,12.02601228979579,4.512582513721876,-1.8414246501311702,-1.8978955280737118,-1.0082617023574545,-1.3478219416036794,-1.0883385336222005,-0.4383083197200292,0.3936823114170818,0.2982961699301317,0.6905790511238683,-0.4155018533315459,-0.8270858234339913,0.8553913144530505,-0.6913540892085883,-0.38614731644705214,-0.03878573614761197,0.780119558980447,0.3431455091791637,-0.12713783667262887,0.031125456132173223,-0.8412939290056812,-0.34008325419330543,-1.3387697255826725,-2.434682055311688,-2.8729394462530085,-0.7126091840023114,6.281590864416704,11.53891462114343,1.1763229104558643,-1.9215439931995117,-1.1564571325335293,-0.7599572809822126,-0.8251849568814474,-0.5370140286098516,-0.792229260440959,-0.6220824647321028,0.296623174186387,-0.9773457214845017,-0.23030700068593163,-0.23566907299989986,0.061794433043981696,0.08136538056322751,-0.5864847329153112,0.3901866132031253,-0.556261080635509,0.36601667054893056,-0.18189446412458066,0.5116426024714932,-0.6997434240490152,0.0020288133121646296,-1.1418394781178618,-1.6031525398354287,-2.5464228356320406,0.4300525188835252,6.328123106977139,7.891506889770432,1.1672894112061982,-2.9629541029876667,-2.777847895350524,-1.38674523495611,-0.9640049159947961,-0.7562642834810488,-0.4159829086731593,-0.0455703011399736,-0.3507188661427165,-0.5585333764686545,0.33302633755556155,-0.6189709484822582,-0.26819510931665896,0.6321872577763554,-0.9066536919007729,0.7525378716147876,-0.4758706453134865,-0.9553871043445067,-0.2922334151472293,0.3298165612559243,-1.2836591790718794,-1.2699325082102777,-1.863691188569093,-0.970118631503839,-1.0227493241036252,1.9383503595898108,4.502566146663071,4.681015125198443,-0.8881953607654619,-2.679110492846976,-2.3543342615610197,-1.8226754576457083,-1.3354420834765128,-0.2778859450436144,-1.0753304337996796,-0.9856355418913071,0.2332192793986722,-0.27909500205806576,-0.3802348722142335,-0.003965185977765719,0.8620969636612482,0.9189513330218809,-0.8171901349286772,0.20066540019622894,-0.9222170871352217,-0.17737098988142833,-1.1928608536783472,-0.995781560068203,-0.2620006983780094,-1.9308675076065953,-0.6893371453613144,-0.4057586843860799,0.8646581213506153,2.0962122185580108,3.7380356851147196,2.833374351880752,-1.0428672926944627,-0.839252256701873,-2.032380879654142,-1.3486728494336107,-1.3854542853350673,-0.33827141675631106,-1.4973956685416965,-0.10110924581825705,-0.39891340106706596,-0.7434549334164553,0.2649523103636151,0.46786223019254924,0.23940883654074674,-0.979804259392031,-0.8035873982074604,0.06636499310828586,-0.6270107319440644,0.511149139958752,-0.8141523199778619,-0.8502522218871198,-0.6646967777172742,-2.082013717763109,-1.4747784049293544,-1.0621135863847926,0.7594243600503462,1.3107606545438504,1.7466989113122176,1.7997092277709743,0.10565655461688246,-1.042263245497979,-1.8854438712021315,-0.6501814484337591,-2.198889085606384,-0.9248444657095265,-1.1462120048270457,-0.66322279149808,-0.7627264100858592,-0.5262843454315262,0.42813196455946734,0.7825132927748477,-0.7709608316857932,0.6867294498255383,0.20005556984816253,-0.18367694550612368,-0.3286445401246855,0.01624834850720655,0.05349707596548902,-2.1775788992706238,-1.4841705643879735,-1.0504401448252805,-0.0588952056235817,0.027598998190668574,1.1676708739056558,-0.692800435218495,0.6590813218378976,0.40059172736921694,0.7131722742426266,-0.9882619711701978,-0.5139329781682253,-0.9727491780963025,-2.240106541300144,-1.0809555351782907,-0.7480117754927019,-1.2287185768905247,-0.9306967986773133,0.15137368831490616,-0.7787161520158634,-0.6539535639954406,0.9969868949844626,-0.642589941838825,0.48314741443220605,-0.13715500725297836,0.3943122582678289,-0.2617439781223641,0.009070339971638513,0.636453732236722,0.22624544164938895,-0.3201917767856969,0.11236659784036311,0.3800615420893621,-1.0404252784231727,-1.15149739442324,-1.6229819721830065,0.34850640384136417,0.8644525129092749,0.9338951690087057,0.6687345336780366,-1.4521782871293882,-2.3897808618500966,-1.6597278129548734,-1.3228175343082702,-1.116784689808401,-0.3123903141994761,-0.1578353988803062,-0.29870888973591003,-0.4819344358280007,0.6889830202983256,0.35390866724160996,0.2324128386795398,-0.1304069330316617,0.02070036249295558,-0.8877825447266121,1.0295022708546238,-0.17132737919471513,0.8561766893480709,0.11377514604130887,0.06646426257842142,-0.6589656929635865,-1.2210389613167365,-1.7452233888181723,-1.579980734195716,0.13558176219054915,1.5041567890169,2.273585533631461,0.7625766286726242,-0.1396776434640217,-1.0216078839956715,-0.07552009294981914,-0.20976807297984243,-0.8221768798788635,0.464925966774126,-0.31430295020489657,-0.5621357120900523,-0.010612688910908906,-0.8206298946038677,0.3774483044397856,-0.035340208518881644,0.7247731297462581,-0.6649785496436333,0.6279467058331566,0.9284741059172044,1.5898338789491355,2.1183078053450033,0.04907868130667993,0.7387606765444859,-1.6921814563391735,-0.8068546208712848,-0.49226246860723333,-1.1441079526531266,0.8377180433538403,1.184366514656525,3.2062483662999806,2.3895739761246206,0.9454594987849861,-0.48387201307899663,-0.7895905673559442,-0.4808420914951138,0.2561748937891604,0.12013056375546696,0.35040633891912837,-0.3803516100095456,0.05226318937335279,-0.48120621747426373,0.7762045791710204,-0.2254028491906157,0.5976331638534321,-0.9520524583533106,0.12797056098466364,-0.24514653573665238,-0.07382275192235933,0.5715343162353136,0.08575690168149863,-0.4924395784011438,-0.5658083242396149,-0.8142540501233163,-0.7721326395572476,-2.1713628949676544,-1.0384160800121736,-0.8415840459941725,0.3458248293266499,-1.0236218058860376,0.7304550257292287,-0.8746314504470835,0.9086182583154564,0.3042321146828905,-0.20139970981984126,-0.8744326400781212,0.11568377659555934,-0.5987426786172722,0.7923836277792189,0.1602754489043381,0.3352608181394514,0.19012158609995655,0.884113517293815,-0.23744729368841647,-0.2637496193042341,0.28141811769383857,-0.9154910027868967,-0.9005462768895875,-0.7663802183021494,-0.6447772221997143,-0.2446360025387516,-1.0789207700597068,-0.9706496030748369,-0.2927973591531917,-1.0059736996884865,-0.7922055662312661,-1.0135275724745008,-0.7051489413903609,-0.984118635993407,-0.822218481396226,-1.016897314882324,0.17826635067906477,-0.2813165508976722,0.5727699232045431,0.38874990267553816,-0.9549238312832304,-0.20800673678386694,0.44013540716703936,0.5617126920470443,0.6013217093003969,0.1436706286741991,-0.8328854913263148,-0.22013696981116432,0.25874696688359733,0.7652966846797526,-0.21987902462313016,0.710935009279808,0.22233861468908836,-0.9345496806203412,-0.17428742133157155,-0.5036075809551604,-0.8232949801708426,0.08708716397049229,-0.6799590161793829,0.9352555980936368,-0.04456302674047842,0.8370884041354179,0.7757105554214347,0.12753920791770662,-0.9454100807956825,-0.7463286711505006,-0.13846599656188413,-0.4312464939370919,0.7358768209565638,0.6088992520688838,-0.38137451666170796,-0.40427909303080956,-0.159224971527951,-0.7883631435603908,0.7039803676554859,0.6964921011198973,0.5489687410470281,-0.540399833387302,-0.39173351378347154,-0.4227760903991366,-0.25750450080444914,-0.30980641687587135,0.006242099094179754,0.4014915300144808,-0.695899816937226,-0.2029262422169568,0.8854825625693856,0.21800458705104475,-0.42761211907866625,0.9477823452059504,0.19077529607250285,-0.3448566744483518,-0.7776381243811594,0.8695364964715596,0.05163677285804136,0.6222269599029426,0.9539423241073577,0.8524198590301071,-0.9470358042257994,
0:-39.436575952793824:-0.668266713665219,-0.8330572602601365,-0.7606830895268382,0.2917384074496143,0.3583426413862345,-0.01793784928487785,-0.5710836143774485,-0.36152978388339685,0.5276701814564326,0.2523265545569706,-0.2693659060121283,-0.7474981993633483,0.32763452090529627,0.8572625352758699,0.5566144709271886,0.7059182317310689,-0.9207300159057801,0.7854010569955201,-0.35970918305861654,-0.6509097853556669,0.24635998528458858,-0.317938840977084,-0.7457617659096445,0.26299168939526396,-0.2626944306769958,0.7038977951776653,0.9556923413310872,-0.5583472185746936,0.5166728519183845,0.6680686634973656,0.4906542886664287,-0.39235955724595395,0.2364415927310728,-0.29542358124220525,0.6613313549586427,0.3109097219492662,0.030420998726578115,0.3679531817329031,0.17788078036603436,-0.18673264884298563,0.3088057205272573,0.7960888087453518,-0.02488219091938729,-0.49980307763441845,0.3412483184226239,0.40513123037799614,0.26904843703979336,0.7922524864851654,-0.6485655848386742,0.11441152903704609,0.21080767275280057,0.6428706608322587,0.8750044609928429,0.5428570872986436,0.9593856495500006,0.09939869889116504,-0.6845834264573327,0.3459571736927123,-0.10065741247574089,-0.11810745628998262,0.6935131444884932,0.8878154242707788,-0.509420869829258,0.10319631626980164,-0.33135184782045873,-0.6035535835219634,0.14839006462849585,0.062073743121726324,-0.8332036542221758,-0.052144002882985346,0.23423620671874434,0.6253431437416078,0.22401586526608072,-0.6788935833343868,0.5639943765334264,0.516347981884992,0.4540257122120898,0.6508953328859084,-0.8260068407994459,-0.1326230631286658,0.05736362285673077,-0.32054693277602253,-0.6718814278461755,-0.9444519136175369,-0.9124562288571658,-0.6857465819702133,0.5245617409652645,0.3602765307331616,0.6533492494474538,0.5215924555315916,-0.6932212299944284,-0.057721716358347636,-0.1925043145512128,0.595412040151712,-0.3567959773532569,-0.07356374129847175,-0.7998014650046068,-0.18282812984932237,-0.29026572575571774,-1.1674380683854007,-0.6588543473583218,-0.1715524839761276,-1.2720184415213136,-0.43048666211948583,-0.5711854911682634,0.5522684854760717,0.2600343948081867,0.7886744304345893,0.7605989742050948,-0.996326188368854,-0.18158179289822907,0.6271553141854898,0.43282450378365733,-0.7248679766487038,-0.6940152614959703,-0.05450993178041145,-0.6495546570304213,-0.48515966987568815,-0.6086127331982684,0.388848092755479,-1.1982318839267923,-1.3617207788338248,-0.06712147702736666,-0.25713779205312015,0.5633179260918918,-0.36476502667319105,-0.15075368061970792,0.13277551939916526,0.21675434340294966,-0.8970695380604086,-0.30478088343369514,-0.19428569938232712,-0.28072096648135,-1.3835863757003555,-0.6774782855707482,0.48849182436231164,-0.1768826260126852,0.07763172285797404,-0.07018402241895763,0.5548742820692489,-0.2693114162214503,0.8296686074119457,-0.17160324191245718,-0.3844192844372011,-0.1606135644305871,-0.8017191326283533,-0.8963211365436755,-0.9135360020587504,0.14277033930793293,-0.8328144455705597,-1.3907101652545164,-0.8324272661875713,0.24258513446332403,-0.19991360299144512,0.9767624506984403,1.6491887240117244,0.8022848968980901,0.783695760466021,0.8222035038283511,0.07076005251884955,-0.5078842646242593,0.12161967395675986,-0.7068138338262465,-0.9425334202851239,0.10813018254991796,-0.1648224128742389,-0.9596687672298088,0.1791309356480078,0.9606569114768757,-0.44808475731981307,-0.6451584870016531,-0.557254666357306,0.6654844091917925,-0.6631783417706009,-0.7286265885108578,-0.07922080476139809,-0.5194807561733744,-0.1398223049944794,-0.2534349884928544,0.23837198259058445,-1.2305883678873162,1.1032603202222024,-0.36660279970910753,0.4624795559691189,0.5787084829883162,1.7178279817980477,0.8575690231544093,0.6757628362365595,-0.1596235372836513,0.8823042665615606,0.8146619932479733,-0.45458540983101703,-0.518623828578985,-0.19320283194490778,-0.3345337943005935,-0.653933606913476,-0.2349007796572984,-0.13631502677379687,0.8859610136521123,0.12162691647926696,0.7272684462372005,-0.7750323774786294,-0.39156338386357953,-1.0774804954234265,-1.2093685859759988,-0.8378012798646524,-0.713472451642084,-0.02937688216469824,0.26061774737168786,0.2188350690093233,0.6068983560635526,0.48508010210735325,2.0439387996801193,1.2831281222727164,1.0195459104681004,1.3596381942153346,1.0105750656272883,-0.34654386834539763,0.7429095652714728,-0.0077601091129332455,-0.8586909989342401,0.09055955054878446,-0.16602134402170327,0.14985962288185914,-0.016738283419943316,0.8429590164343993,-0.03825487097574148,-0.26022551699716384,0.15610313257794314,-0.8532568771077162,-0.28221045198592226,0.025447796433755585,-0.6918523229837317,-0.25266894453447164,0.09494671029309706,-0.21632751198688754,-0.03629415259242562,0.5860488711835754,-0.4523283836578945,1.3179349731767163,1.0647804199537707,0.9649608830689794,1.3756984217123265,1.7207559625067443,0.08803858735744331,-0.7564212667616126,0.4551485170126975,-0.04094165484331184,-0.3953209706535527,-0.7294509098124962,-0.41415950882118086,0.09142909416320055,0.5905849791058948,0.12833554688054485,0.5577405882158862,0.44580564851800947,-1.0462490029244782,0.5041118064058345,-0.7071375233875563,-1.0847931788188563,-0.32920042475334593,0.19593161842938966,-0.7443480976656826,-0.6978465823432736,0.6563137954224011,-0.3808999896228503,0.47289905091743906,0.9026401391161719,1.4123029271198348,1.4454659897270348,0.9845248734643385,1.50166158223505,0.36755895909569064,0.32005591003539124,0.782622065378994,1.3818553572153984,-0.21046488377283556,-0.6638969565115547,-0.32278461391118046,-0.5470294269838292,-0.8800877562794052,0.0752843770418507,0.25979993637965865,-0.8151598911395064,-0.35490018856384903,-0.3051267582919809,-0.7743711211271884,0.037012775174171536,0.555417274175271,0.45051708455687267,0.39882360243205006,0.8642405620718215,-0.31688503649204286,-0.38126456247665624,-0.3884873908629178,-0.5856972895098488,-1.558446306124586,0.6799605915754122,1.920008873365025,1.9748625967477407,1.4398122866063592,1.405122019709861,1.9261838429596778,0.47605412659965934,0.6560394068083321,-1.038948134829059,-0.9612737718523556,0.5647934093085202,0.22126381881477564,0.1691162687076502,0.1629301954722107,-0.2035239382342131,-0.11058450146246007,-0.09771323151407635,0.5692469713667159,1.2500052142913214,0.25333001061414034,-0.4242228938635758,0.27815915004052083,0.04016082059085719,0.7062411277177575,-0.8577154238972999,-1.692116569105361,-2.01597264812029,-1.8452886699020465,-0.7785377042077046,0.45158170979300716,1.2520123799004166,0.6305455609567315,0.4586771252837301,0.9815183914143871,1.1151054246820882,-0.15695998164224556,-0.07465100417826354,0.8667778873081976,-0.45069645937681935,-0.9655656557241143,-0.38691560868574043,-0.023076462456905623,-0.3653460747995774,-0.9203945808529946,-0.05398520326915405,1.045557870464869,-0.345046846238627,-0.596810787325159,-0.5857554023890459,0.1671141869015154,1.7016123804483743,0.09007869126179084,-0.5208698681913336,-2.3628992816824144,-2.585364565192581,-2.6588863846377357,-2.5565599561340386,0.07118743471470992,0.5163565500534122,0.16310918424874826,0.307119149290256,1.6022697174516447,1.5552448675068329,0.5894793123158774,0.5570070447037179,0.3190955822292158,0.1902960640507492,0.5037458452682724,-0.20779187015027825,0.8910898382417801,0.8688153178025488,0.4984942921978185,1.1361279190156814,0.33009847622992994,0.5244431614511864,0.9700529445120979,0.5125334242217423,0.8391011290607786,1.379982503478328,-0.6939323232678664,-2.029049732170528,-3.0406364773503163,-3.4392208962467787,-2.250241015456722,-1.2566403749582635,0.0036009577149807184,-0.14873999588040396,-0.30821781989937697,0.4114319969742342,1.0146731058626848,1.504013835254589,1.1380400284620815,-0.7501456692172697,-0.39453494477928175,-0.5203395913348593,-0.3431318008713254,-0.05816683919024224,0.42643036212122293,-0.3921369428678363,0.3019060137759821,0.5718439078562405,1.9976575883547336,1.4289483262983083,1.0109694020625954,0.9543991052103146,1.068668982878227,0.8233840397059701,-1.726302738477852,-1.816942582584503,-3.100217039838234,-2.002826129501706,-2.023518296538831,-1.131286141970482,-0.27445418497969265,-0.22472403882775432,0.3190996637279625,0.29733927684035,0.5852688072424604,1.7109799785202777,1.013620439018518,-0.6151878534027698,0.3149939258343866,0.17609341193243022,0.19969673888595377,-0.876390944282111,0.6958603035897477,0.49014959753586906,-0.18222373481533338,0.9980274687054532,1.2521423537108691,0.6530049974473274,1.6671098633008752,2.1807478741148656,2.2045919273048007,0.7508496311013918,-2.6443704453819925,-2.345715718811543,-2.207665465187577,-2.769275712133819,-2.310031014109363,-0.7685276164524162,-0.6046202980991864,-0.5860955582077553,0.055176550699052994,-0.5827292966370565,0.5109633813436109,1.652604476530008,0.7000325981491726,0.5852967554223796,-0.4804626081771724,0.8851763000737193,-0.4531450283635678,-0.8601985094529065,-0.1344553016686413,-0.6258171452932983,0.26921908190500204,0.4143312351354694,1.6296123045697368,0.7126839890278183,1.2962337125289167,1.5182816141971782,0.6467474560443496,-0.6570212813351181,-2.031708237800325,-2.408997136617174,-2.7070890944495414,-2.3578967949884393,-1.7213944839660837,-0.6607039194464899,1.1198401451323836,-0.386826754828643,0.7520377656604356,0.3852576994047295,0.2379097089440743,0.35536575197286924,0.6460814702691114,0.14402748523084036,-0.5772611337174041,0.1558721392829096,-0.3875315393449159,0.5711708989745179,-0.9742440846982776,0.6665192228841434,-0.38442668807380426,1.3120458707770417,1.1261846122242738,1.3292705643153029,1.5736685423176688,2.581123066955697,0.7558469376276479,-0.12142975496326071,-3.3606266689548696,-3.134446243535449,-1.6679906634129902,-1.883207002427844,-0.9868741553758993,0.09142977453403532,-0.37848844077834437,0.8149927962858047,0.6505829436683207,-0.3317580587268423,0.8931347753552972,0.30729518818672596,-0.19799098914820934,-0.1367449895063839,-0.2792613440945533,0.027952002444437334,0.32843380731864813,-0.4112788247882329,-0.5347795254992107,-0.4119116773886081,-0.2037140969276752,0.24812443866468537,1.5232035318402055,-0.4001627982494647,0.702279952159505,2.0882803452742933,1.2158937415387725,-0.33757228068762324,-2.2445825318378385,-1.299264543106779,-1.7903187071145632,-1.1437928288705286,0.9862415560902291,0.052293046427119266,-0.8027258438888695,-0.20655055564901853,-0.5181611036402505,0.18039899758112474,-1.0327143436928887,-0.29535663877843826,-0.6979595719097698,-0.7047348581014733,-0.18146853456088677,0.3418196819068434,0.9374849984883704,0.6007685515206829,0.656873347031137,-0.23167430390943733,-1.0537686121482577,0.6230106597228697,1.0637043104861112,0.9243561192609213,1.5245825900874994,1.138955398727542,1.9615383940037003,-0.013272322646502344,-0.7120348308140348,-0.22446911158603017,-1.5488711841756544,-0.9514453409569259,-0.414926692313549,0.1911647528447246,-0.5966778777769818,0.0826715419937516,-0.478274447794376,0.22796659611689343,0.5588177997666607,0.37768667465426936,-0.19491409440368662,0.5452428366580783,0.3664235280982793,-0.06337294511834275,0.6259378291221933,-0.8586273410512694,-0.10138410719716466,-0.7570091193390146,-0.36945870174616585,-0.4798301795672138,0.086735547353413,-0.23246276645267153,-0.3262682157691165,0.8729671484932272,1.9731802861163086,2.319145534358888,1.0197240127585097,-0.17582881149779184,-1.7560839331439424,-0.15019947650469173,-1.9202529664671326,-0.6251774448912666,-0.6940404486391986,-1.5732866762462303,-0.5052354855607176,0.599591018789908,-1.1528175127630234,-1.1882424445388284,-0.1309887448980233,0.6064489429212863,-0.8202828221920405,0.614588425784872,-0.9839296427387401,0.6895243099843481,0.46227349854133387,-1.049358436080618,-0.2266066341574842,-0.018997433307441764,0.6269614014891616,-0.2542172654265895,0.8642046883204091,1.1987212762346218,0.9481079182196667,2.5802855214202816,1.0080932748891542,-0.3015539331485753,-0.36816071020493374,0.11020059488847854,-0.09950338829972252,-0.10075786339970605,-0.25214122583580806,-1.0254097957265318,-1.0010393707666723,0.32907968994051356,-0.760303518824518,0.22754462406666523,-0.633980076492863,0.3855547208944172,0.06024175461111609,0.4387756034883805,0.4306763197871444,0.32920568005403567,-0.20293651380465125,-0.602919944819889,0.5127955783436374,0.2780035221663467,0.7505691092385838,0.4323905021235293,0.8546728234828381,0.9644703436282317,1.9248011974313497,0.8051856337072675,0.715887760678263,1.586078481989199,0.5016590837215835,0.5359938818936922,0.2869631008520439,0.13431417967660148,-0.9373317636409698,0.11646389893458792,-1.3014194471302252,0.33240734622712653,0.08127198026544026,-0.7969640269708628,-0.8870710103552961,0.16237618395906103,-0.9740416548323539,0.5586934271261743,-0.3275935199301525,-0.6814367283368044,-0.20442544437269528,0.7690727984182535,-0.37963934609938577,-0.06274304812652458,0.5596857265441164,-0.5149904550572882,0.7779932838316226,0.12419790720274379,1.312361810815207,1.0356063408586509,1.4405666874001393,2.1822940504167767,1.2731400823770807,0.437344675458509,0.09280951901648478,-0.33788798676835113,-0.43194738121534226,-0.3551704935956055,-1.3602686183292056,-0.6880835034315399,-0.388289522578994,0.562509168573069,-1.038926777709435,0.4558995654655327,-0.8091248145673378,0.3223539668114408,-0.6719097985623026,-0.26773234599296925,0.2872606540708133,0.905186356180298,0.2518915994622339,-0.3118547501994709,-1.0017896687817291,0.2081662814873152,-0.086302066769369,0.1927260494358266,-0.495418257934323,-0.07855236386487241,-0.36644064272269544,-0.8839803015209182,0.3727624079607997,-0.03771631323914895,-1.1016452882006558,-1.0733778990464709,-1.1019374658094185,-0.5130451999800953,0.34622634471598535,-0.26376406296196825,0.603900510767716,-0.5594155782569292,0.2611457325584322,0.08891011260061196,0.021098079817512216,0.9355338216859854,-0.6866912937012049,-0.6257846986893396,-0.8568448377161333,-0.8845495570412386,0.7760431268799936,-0.2876506203886631,0.07823886638404433,-0.5367210160562474,-0.23849552551744727,-0.40914634396818833,-0.08631821904533883,-1.1416195752931846,-1.8006408112951016,-0.7898380407452948,-0.7324141777434636,-0.9063569109045195,-0.07282199505412092,0.09222688692157882,0.04752341721640734,0.5434571766113451,-0.4885443407376249,0.6778434239486973,0.25797604353000825,-0.3573749976954977,0.22154992826448905,-0.2345971076870923,0.5908107477799245,0.36834711415735155,0.5150690326601146,0.1284975611532908,-0.8810025822642558,-0.27555095835703236,0.267011125252736,0.6483365866700047,-0.786274873630565,-0.8050881563446611,0.7039167458783903,-0.010796034830363501,-0.6379628793949355,-0.37843770611681854,-0.7075525620541266,-0.8452355516004033,0.41528745731242717,-0.8189831375180794,-1.2066430559187333,0.2250375149517103,-0.5046877131529031,0.5454784364113006,-0.2565131046540908,0.1741059171911175,-0.9965965180472127,0.18951372007763018,-0.8400759867270033,-0.32059652263214855,-0.24214799807525522,-0.41377742292671105,-0.02949424631028985,-0.17525412212156644,0.6586976259635977,0.8160380702514256,-0.9681645339557636,0.40537746502482697,0.9370750719069946,-0.6424400204981076,0.5969492179141349,0.21852639573867808,-0.10770887271715372,0.6064687117022228,-0.21008869166619215,0.05647833078552127,-0.5623926027921878,-0.2748163418140811,-0.7112897385267136,0.3777661350007578,-0.46244927547912973,0.4496177439741701,0.5211943205547648,-0.9183049988084339,-0.7600946754719616,-0.15679364995786252,0.3820409178364004,-0.005301614302029467,0.856664570804929,0.496824831781832,
7:-29.870713626368644:-0.2096797260948342,-0.17164324048422874,0.8614471184138315,0.796382340001264,-0.4481600550666698,-0.9930407063170927,-0.12029723795676839,-0.16208819962216747,0.4650488211673254,0.23933440600721112,-0.2698017511963313,-0.11592818366722346,-0.528638208659169,-0.5497106766184675,-0.8601952235807407,-0.8778244935141531,0.1317854118590971,0.662952296707912,-0.03357314137298517,0.017587333865303645,0.8068603535166397,0.9209814703376771,-0.7394240284580678,0.7822736167849207,0.7193882601137565,0.82983999884925,0.13846931492451642,-0.4416024732826167,-0.3905243076403848,0.624424844697465,0.3881019679930109,0.9752218592859128,0.2558826769356493,0.9379153989389724,-0.17455723693676686,-0.2136029982730735,0.2638548654537693,0.7694715140201175,0.06582325096726509,0.4037800457845926,0.2083218814523579,0.595002063101624,-0.32145034720459464,0.33637186324710044,-0.494856865901549,-0.15054787295198385,-0.811975286419733,-0.2864391719293851,-0.9389499504517897,-0.17335999442250558,-0.6931415511715243,0.5026115442946654,-0.5836579655156977,0.30537340802207646,-0.028087895779773664,-0.7734094787300301,-0.31586926706014085,0.062453500849698695,-0.1926014116664282,0.5446962092420773,-0.65434565338036,-0.9578679740048599,-0.6244665599422433,-0.5227727842135794,0.9241596579441292,-0.2442800234897974,0.2303904377112549,-0.40968679580670203,-0.8002561027001307,-0.6377320127155547,-0.8291238875177027,-0.6543962693472579,-0.1175109167723531,-0.44476404983516926,0.0034640561440652507,-0.48097027115914964,-0.8633453575128024,-0.2805893360238807,0.9957936167801038,-0.7404044995525509,0.22253251306826716,0.447181965139344,-0.9467453711229235,-0.2643754773786464,0.7818697446689935,0.8539460761504438,0.7588953149843629,-0.7913659954478167,0.07965847486826542,-0.8993290919975437,-0.6562136519557696,0.10364614139280494,0.48023842666179234,-0.16157779099642705,-0.3897001534422471,0.04881608904667778,-0.15913596283668027,0.6759701832204867,0.2857312294860686,-0.40572983639862326,0.4235129701229242,-0.34129817766632503,-0.6726055775783119,-0.42451094784697513,-0.931666644521048,0.636145021807999,0.723733580418107,0.612624878983196,-0.7659368389947386,-0.4888077764605619,-0.9183413505598975,0.4997666175960749,-0.4654114153729527,-0.38767934748950356,0.2150636234622665,-0.4152504032860093,0.3702988680626262,-0.695204191809442,-0.4077703232462305,-0.016090027496668033,-0.13743658042534745,-0.3945001668084188,0.6968873569582664,-0.8597670288242166,-0.36691273211779474,-0.49115138825498683,-1.279131530518915,-0.7424146250187741,0.3048821102574589,0.5261088872783877,-0.905558438293301,-0.5895262688947248,-0.9715413264487999,-0.2486021983126677,0.5323347971551468,0.4062104764916108,-0.527294123938289,0.03248335271462068,-0.3011389227693606,-0.480834080050194,-0.3813783373608808,-0.48341069878198506,-0.1877472701450566,-0.12656724758583282,0.5093075592241388,-1.0188256984597448,-0.5269314206622361,-0.9816319276291469,-0.5275582881589923,-1.0414868937579265,-0.5075446287576862,-2.0759301444345453,-0.44914360851503865,-1.3493675675179637,-2.0544136383596303,-1.224104157584726,-1.1206244825538618,-1.4310586109356838,-0.87176011164449,0.02256378952606094,0.15874457704330633,-1.3344214082408556,-1.1646335894675097,0.3778786746711996,0.09460900599583798,0.5045425213141186,-0.7683115419607754,0.4664252274368754,0.09441700134216191,-0.8300596436076227,0.6648090728753269,-0.5154632447668319,0.321139150010106,0.8839338760912008,0.3776895479672041,-0.6388470181979271,-0.523999975574663,0.4809945910854308,-0.13005028848964645,-0.5635888984233177,-0.9085553988590566,-0.8196590386374668,-0.6806207252675379,-1.124172288145673,-0.28333131787444427,0.11672768865160417,-0.8628970306088846,-0.7912471601348539,0.20409926617322469,0.49483793687719957,-0.5878297421039306,0.2572254242798841,-0.9357955104716216,-0.36521715344265093,0.5589690051798735,-0.31594894284187913,0.22893980540220513,-0.05726652076563499,-0.44756401457000594,1.141432348929531,0.9967189134083333,0.016782255435253912,0.12713487675397847,0.2491001114775442,1.5023541089067607,1.9883520114467568,1.5150427419458785,1.066834860583846,0.14471877438768094,0.8061900616403179,-0.28395275167222783,-0.971608593486991,0.4065229843165916,0.7680948100515104,0.4624651055724586,0.5468923872398765,0.44865102016680103,0.3427463846244871,-0.07834216001345251,0.3930484837734425,-0.5879897303540247,-0.8969452756531014,0.6075085860980641,-0.7437073661472174,0.5633825180495317,-0.8449219493551268,0.5806808253799557,-0.06833853016782632,-0.026426773903723777,1.1197962411421478,0.21513100610306118,1.4097096642002351,1.6296343690041941,1.1760718341101937,1.787228860331617,1.616002473265183,0.8510447533975379,-0.33907445759752985,0.9592637793454489,1.3659227580444506,1.8794216183924948,1.3059923199694008,1.3103268026099677,1.0071752219835732,0.1120345652064,0.029589991102854485,0.21402924065157888,0.3001566581599241,-0.39863760148811295,-0.20797346856435667,-0.14973530393113782,-0.4022351175779909,-0.6074403143373229,0.2799229445087808,1.2223785586700635,0.2734317613835455,0.4307905579766007,1.3170486352707116,0.7770684017927927,-0.11965097582889897,1.0485621689291649,0.39458484828286683,1.099861383913807,0.8565053299952503,1.5951212637814438,0.8323481989598557,1.6289678861294363,1.0611790924607898,1.7478357667619733,1.5347974871276966,1.7583795531571278,0.4993816692544896,0.9261061596192084,0.7985007080001708,0.7527506472562141,0.7772016363781121,0.2985662501988669,0.482985088965738,-0.8987733032702063,-0.1038421028570394,-0.04510767268278112,0.8556166180191065,1.000536520449166,1.3048492131032803,0.42454957218004663,1.1999903484036776,0.744182408736784,0.7839717625757413,0.8817097839312428,-0.22656573780859895,0.9359286737535512,1.4723405839191792,1.13771795553424,1.8728473766444569,2.0103791902615415,2.7099668934767407,2.435152740797934,2.548824662901529,1.734673701345348,1.3352489486051695,0.5763198428588117,0.013270528635024897,0.09827897870781184,-0.7960972475020371,0.3895152281057972,-0.6560812277682777,-0.19500168528020798,0.36926387216162115,-0.6032281422205286,-0.08793707343448944,-0.6029327605647223,-0.26658167420897544,0.888450292110478,0.7231101498986487,0.49558300915078357,-0.24621206978832488,-0.7514267005368175,0.32471542611315296,0.24564750568400226,0.3207832594643736,0.951319118284193,0.45953956917341765,-0.0675193880479104,1.1605322683973536,3.2496173779223483,1.230411810242204,1.3259271150087766,1.7147256632068353,-0.03132825038402903,0.6448013118679535,-0.6741001631088244,-1.4026229291780936,-0.07226103998155461,0.6925693003239014,0.7760711243595171,0.9991176834041555,0.007606250204671399,-0.6731169402901785,0.8285822835202109,1.521681174506006,1.5583064836590417,0.14421413675609876,-0.7280672498795129,-0.011325873367895072,-0.6642170053091925,0.036336080954413756,-0.3114506025514761,-0.6211703055357407,-2.100540832680141,-2.316157699874967,-2.921454693774402,-0.016971515139467992,1.8281818823571994,1.7566645718291358,-0.05960676250183116,-0.6274396891551041,-0.03465368343353015,-0.17158276711269158,0.41822803659110214,-0.4653848552342187,0.13401478964685803,0.557357441386952,-1.0260776174073474,-0.8909769920148631,0.9552885701530164,0.20249727161853617,-0.15320791226613403,1.1633967171246355,-0.0467569154845865,-0.9448492145431762,-1.2186675127509987,-0.7335204830932472,-0.7326424843010607,-1.2473652698026871,-1.0596319577975266,-3.1790821361420796,-4.319636122376994,-4.895904976359618,-2.990444852259323,-0.5256288472051498,-0.17415010023641841,-0.19656331812135672,-0.40318329129651853,-0.27455837143073003,-0.0546392558693208,0.38138414980246677,0.09128333805357107,-0.4871201765912849,0.5483120614580312,0.6106921839200993,0.6554965894167634,-0.30993983543385095,0.5324227577136099,0.5253977587453399,0.6192271285638441,-0.06390859444423894,0.9275960507352563,-0.8989800164834515,-0.7955501709810474,-0.34181345390318235,-1.2305142180803395,-1.3873583413618862,-1.719192521064837,-2.387215873287449,-3.199139947333677,-4.08522092371775,-1.8158703380483534,0.5525001604789302,0.7133776019372863,0.8509960978848453,1.076845846386118,0.16083152983387786,-0.07259819168616005,-0.5075038234061979,0.7692496281870176,-0.8047849805437838,-0.6302985044404296,0.6818403244668175,0.5092911728267729,-0.19984293827560706,0.13944685324027647,-0.8269085630675553,-0.4072591099375783,-0.32304663444840503,-0.3486799735389578,-1.0651249266646823,-0.4571456505918409,-1.6906357521661035,-1.8419710317419455,-1.8094841136546136,-2.380695870548165,-2.1932287846699814,-2.489169582551695,-2.730310923946312,0.7219549392778929,0.09986764660341182,1.2534845546129743,0.29023261510689713,1.3177694906072495,2.3458515142118754,1.7570376508987933,0.3970211574720318,-0.28365390328411094,0.862239449749548,0.31456977442949063,0.4781054089177088,-0.5456566177476437,-0.14861240073953705,0.863345769043799,0.938680582510915,0.05836608334483122,0.862767154307721,-0.6938546529570123,-0.13903530356729066,0.4319335399057664,-1.0027801268477783,-0.3958322611519957,-1.794683590804131,-1.3153423902774048,-1.9784996225403924,-1.9935643085867876,-0.6770077973076882,-0.44721086199999505,1.2509750476745964,0.3652293118788162,1.832778657419809,0.736601917502988,1.8216883673084319,0.32941334616042717,0.6350104063915868,-0.5346165066614794,0.3097591912203447,0.5514620132490935,0.5925346724743256,0.577581507397394,-0.6088174349778998,0.6302347181872936,-0.20187025827901195,0.08796416020971544,0.1355515833033426,-0.6767525251119288,-0.9555833417608716,-0.40677038338074284,-1.5252866507794152,-1.3281450147210654,-0.6024694452823213,-2.548676003147185,-2.658950121228918,-0.4671396509857138,0.12340827865765465,1.8222802615493991,0.7416520937240677,0.5634241782886655,0.9346409703921452,0.41174322780411676,0.39338368532184304,0.4308999065299966,-0.841969274411021,-1.2242546719745837,-0.7195178716297752,0.7869496092721641,0.19385524727205417,-0.09565648271443708,-0.7840013240393309,-0.2893943986309162,-0.6343712871793409,-0.4499179666871201,0.6070752869265142,0.11565374059648717,-1.3499724956048484,-0.12891246325120856,-0.0636846542571799,-0.4872062200555767,-1.1180448891203976,-2.2003101229013713,-1.6048597491181755,-1.0607488576272668,2.02126267642533,1.7979141083018244,0.07712037238116015,-0.8838981312564282,0.1134729231555561,0.6683233655424484,-0.3507100369568302,-0.6638990973186379,-1.8722504909140774,-1.1971169047378472,-0.5236595321295305,0.24854004564844787,0.7048209536345789,-0.8953385950049413,-0.6695401440604427,0.8471759527108083,-0.6046425298023201,-0.35664998466669207,-0.35820684464304375,-0.46561360542271796,-0.584758788517509,-1.1957333286733023,-1.2171462175433974,-2.088369696350671,-1.212218614053394,-0.6457721665568452,-1.7314050484602688,0.7959347730098356,1.0463677746119973,1.4775546763409446,-0.35919283180082046,-0.5471001335570577,-1.4457142723943632,-1.1969718646356804,-1.569144942512135,-0.7308665696793298,-2.2323388173336385,-1.2838367931396386,-0.5797000781799522,0.3616995261347044,0.846307325989106,-0.09360323313298027,-0.6229443175283185,0.5301590575332757,-0.40819434907829016,-0.8323422452917398,0.7291200034435511,0.2758971160087131,-0.3265391587708459,-0.9495206327449,-2.059116839095112,-2.413984190041334,-1.2996959031927584,-0.09312509523821462,-0.5307484286279786,0.5503749603327898,1.2392351442455107,0.49417195774980277,-0.26282003060404213,-0.2530337979159908,-0.846304573487166,-1.0863161155966348,-1.7638978180328289,-2.367707341438082,-1.129102201689831,-1.63149898586116,-1.5903822142178892,-0.2671003338849889,-0.395806686310472,0.3982541680319692,0.7088931468883658,-0.2569193246179641,0.8249368689223417,-0.5626114940286177,0.5024725506200663,-1.001925681111487,-1.332808343161702,-1.5736830098243004,-1.8596826288547625,-0.6544992298076632,-0.29091215530852116,-0.555580314000711,-0.3490104595183265,-0.48623026108970624,-0.6250236589882628,7.257034195276411E-4,-0.12600864286006916,-1.240570134548858,-1.346630334774877,-0.9833920915810048,-1.83821879992391,-1.6021732856319704,-0.416759971482319,0.03946464991480127,0.2724570812996513,-0.1679257380856822,-0.892208906526299,0.7083277964032105,-0.7343670163669396,0.9400830952240188,-0.9195757813181861,0.3464000606514885,0.5905080934503281,-1.2448925686669217,-1.0347725347956298,-1.368503829042514,-0.6038842697498877,-1.0636567707652511,-1.0203917569807865,-0.09331854022666354,-0.37101168800432693,-0.6846829023249875,-1.2098697317207214,-0.33145854978869094,-0.8660374250560977,-0.5846167607267826,-0.5973311599663824,-0.9382362839527044,-1.0581226185521944,-1.4085429373055165,-0.46677727409733455,-1.4700653868344777,-0.9170967895341883,0.45365132038919953,-0.7778015275384157,0.7086572375461256,-0.16413946070755503,-0.1224412137735802,-0.7723411318682236,-0.40183416430337987,-0.8269578531004141,0.743138068955609,1.0763477086437376,-0.5953971757919567,0.48786678157499563,1.1668568583447325,0.1738806822301492,0.3334192646564374,-0.0019483312271758686,-0.20142742861853893,0.007398986082045485,-0.752207268619965,0.246763279131391,-0.19051161260843344,-0.43798955893093644,-0.536157282686387,-1.285818689148123,-0.5930996763842727,-0.397546103838495,0.24380754434536608,0.18010952780925246,-0.8874007602462016,-0.5682966139938493,0.3145494842870991,-0.8493191602958425,0.6697407525609351,-0.20704943141659737,-0.09856253930263431,-0.13598148053838124,0.7512580725040368,1.455747688855515,0.17476070646202155,0.6653125248870556,0.12961095328912992,0.3935801856505036,-0.34988107452684764,0.5703794958285133,0.6813340561624193,1.6291709007484398,1.064167414661558,0.7355851514278108,1.3433859237391312,0.4960596624944682,0.7126213734026533,-0.20701095889146745,-0.5596580249581727,-1.2526738660878427,0.4596573735478265,-0.5754704550811144,-0.47017486105714684,-0.7810729358179419,-0.1459743008936585,-0.44787076346842647,0.7282672205215939,0.5243048915084498,-0.34222099947916507,0.5647687360888156,-0.562233590863532,0.25723699108398373,0.25654678429142813,1.5417518969659467,0.5178118779209395,1.4498465253250639,1.5529508954615663,1.4642714683161204,1.1098461254266916,0.802003299987979,1.021128398999697,2.1767651517168654,1.1879364610152612,1.0226162534834544,-0.16240690776169367,-1.2480086273512874,0.08589798987682673,0.2768372340522007,-0.5892790802725115,-0.914065127313895,-0.8880834237738279,0.0018256854869953007,-0.4500001412588237,0.7163174352311832,-0.4289890784072614,-0.4536304778321705,-0.5951992791014811,-0.7100736601161496,0.15434793937361146,-0.5277498523914415,-0.7973975550549747,0.4843481670396705,0.4176587760031083,0.5582827426069361,-0.6587964566306587,-0.2660235341359041,0.2625649137365928,-0.04629403222151149,1.2098291588758816,1.377913200262296,1.0749621917475671,0.21288220502953362,0.5428572538732419,0.3086607839308256,-0.8732103332093886,-0.3532695839869697,-0.1164638476896602,-0.9664076098134466,0.2690908700192486,-0.9338269061675157,0.23452126257924633,0.08506202098373072,-0.26258330517272066,0.3598792247265563,0.12861778902515852,-0.07978291725229214,-0.2968972478692043,-0.6546953201124776,0.13777724570560348,0.41610031811483694,-0.22915951300721285,-0.40429280031235926,0.5704877479659074,-0.17135523649791648,0.13400110929362763,1.0635973774744325,0.5058765221713519,0.9185174337407938,1.1223834096122918,1.0061513541779137,-0.35836435157171376,0.13543674920347257,-0.4989293935827071,-0.16031332179508267,-0.8691950271082947,-0.3391232579039953,0.08740449138450623,-0.9700903997849699,0.6202290891127078,-0.7289285039686741,
6:-12.522582205860438:0.5694768273407291,-0.3208505811695075,0.5574982099182806,0.46418470778203313,-0.27202965565229964,0.9811198197466504,0.4847093468613821,0.01581297536257731,-0.8613262850083965,-0.8581800121192589,0.621914407623559,0.7516469536076951,0.10013914610290187,-0.4747955077273218,0.7851015714556726,0.4738481015065248,-0.34857306296447876,0.1047916107305833,-0.8153539280340605,-0.36837672082634243,-0.21836182694313022,0.6493354965495086,0.31583424930438553,-0.05739507347241957,0.7834276281682131,0.8037338017062727,-0.7466343203914929,-0.38347159516344287,-0.27209880542434695,-0.23139975783009636,0.4368092610295824,0.9698413348268948,0.7733809341870775,-0.4063485278363696,0.051579013146481244,0.0656362706433919,0.820076275324283,0.9786603961742425,0.1907083135845719,0.42207978487084624,-0.11564157304912857,0.9144538806070253,0.12107260362559674,-0.20302912146988633,0.48252181187436366,-0.509041015308116,-0.8079772284965776,0.6120337872234451,0.3309387197089501,0.8017166004637145,-0.8109372852046467,0.6319562833034295,-0.34621727901994137,-0.08633471281328098,-0.7588434095200218,-0.7775940426342305,0.5828121296658846,0.6784282315424477,-0.1643267252013547,-0.3025863636990864,-0.7575228981442911,-0.6854153744248762,-0.10437360298019904,0.06150652351156859,-0.6185741093706792,0.5563832420129486,0.4261909060583699,0.8031437022235625,-0.293322171704431,0.5407038441629135,-0.20654197923778309,-0.742797371817111,-0.6012698995046819,-0.5949696784258256,-0.6600567677355672,-0.31924426865524147,-0.1479395229737104,-0.40679222331959475,-0.11007828832409107,-0.07303819033850033,0.8894446950603698,0.855153095093793,-0.957144272265871,0.5285580707600064,-0.405601683899131,-0.07454161141557725,-0.3860554386907818,0.9383304816701784,0.2437664140508797,0.9304501077815,0.9108145550610931,-0.5298643685702644,-0.3645842919839244,-0.08174239429123115,0.8065814548807199,-0.22288220530206773,0.8123154501533859,-0.9665259567329049,0.43794974142081183,-0.5353095541128277,-0.1371732989419381,-0.35514133942721027,-0.4616528727815985,0.08276915302029535,-0.20841786023193717,-0.28851636077073933,0.6313731033818482,-0.683513845248431,0.4894585929242242,0.5065440628045955,0.0039050371705760334,-0.9029837379401264,-0.10348128195108508,-0.09922235113858904,0.5512063767834483,0.2923015474995368,0.6602981664289054,0.2783087001984354,-0.9519017774641886,0.2712673437133696,0.1289405590697381,-0.4760361038599815,-0.7005098847626543,-0.06515639476722915,-0.4476335967447917,0.5035692352366198,0.8450337270193978,-0.5864182169779564,-0.4338813863561849,-0.6046167360150314,-0.40833091071392713,-0.5029858300427621,-0.37035909158395386,-0.37094312882345903,-0.7674885929199453,0.7614126501087787,-0.2315484064719264,-0.20312278856249164,0.7418370451616758,0.09292341267168826,0.3637034912009487,0.051883839240644436,0.3985217212406723,0.2023322969844846,0.2602268328619294,-0.13779763218633995,-0.7113432655894538,0.2273402753954503,0.721814138096359,-0.8711738858742732,-0.09444351040714995,0.9339451576692553,-0.045006143312770044,0.6407175160507543,0.705142102782575,-0.7696357307449336,-0.20897554391281845,-0.5384949463537766,0.1847974843076753,-0.02161425874207103,-0.11418377488213721,0.8368417467954723,-0.6597841660703931,0.49552591664031764,-0.7721236684765153,-0.23542355257324324,-0.20764371864842757,0.06090796911643595,-0.7251180652172087,-0.6567213927119123,0.9842047978590711,-0.512635193743085,-0.6877230005638763,0.07728756766891973,0.39579879985651095,-0.6022983458026713,0.9597720322174343,-0.15460974992667625,-0.18223704466976487,-0.30572873965131275,-0.22844264795715685,0.23996745815222315,-0.8799425248634177,-0.09206425181108278,-0.36274966556981475,-0.2939032926920447,0.13388357052239935,0.6543992857310528,-0.10812087740250947,-0.035757204705526034,0.6468663593046218,-0.8823854547809051,-0.3622774831978278,0.4479286390049335,0.5165592661971676,0.2093050228154786,0.3838357875766145,0.6389986909483741,-0.7157589279543948,0.5877657460513365,0.6011784426649527,-0.9441841579245647,-0.11604212469324951,-0.8279166930905697,-0.29731386421516165,-0.22571120171022988,0.920398271463831,0.08117678594013837,-0.5941776216468714,-0.11267731555417851,-0.2209052780930137,-0.618653624380093,-0.30130277577078796,0.3561487668081836,0.5216581934497172,0.8174084125882669,0.727840424322534,-0.7378979605163776,-0.9366980491245545,-0.9271175130891788,-0.9548364169552086,-0.5462605557590734,0.9170083951430061,0.4267662086256078,0.8177028151591119,0.8400318221336,-0.7395569531294603,0.9193701425579774,0.3195952489386121,-0.1355781931478785,-0.39543555374888356,0.43017163694702604,-0.020458984442595297,0.43849491829541176,0.3013002274535607,-0.3246202979298496,-0.15565738218757594,-0.013205272261250959,0.5712748445450285,0.561864248971392,-0.09400007011154685,0.2648634575337719,-0.4860343520455115,-0.043541509764438054,0.7235284808792587,-0.35360365927137727,0.046022852676535456,-0.04100412085766453,0.4439388737126767,0.6101626166889492,0.2687288892117269,-0.6484785294451664,-0.7263149087669,-0.2634849553080322,0.5996531566433192,-0.536238371205391,0.5882570503899507,0.5029607329787377,-0.27764878820716493,0.5262648437911013,0.32370130356119653,0.304932928652422,-0.4798300167031831,-0.7430431682160836,-0.04893503684794608,0.49610502911327564,-0.7164942107828486,-0.6670054401297602,-0.8281983859022439,0.7487332551510631,-0.860739189791693,0.2431389887807055,-0.6829874350170773,0.8544989341380475,-0.20335152958558628,-0.34998485562258796,0.26792921930271957,-0.34839386812075346,0.21627878238232962,-0.15326587567132224,-0.5295566595447478,0.5990809964095585,0.2547805897501225,0.23778780746883957,-0.27030590932580717,-0.20705692760529248,0.7578796214590592,0.12387725852134228,0.7059732315240291,0.3866548544373133,-0.9115976369265029,0.15093425461560117,-0.931738442841275,-0.7722494859395359,0.40730228485254333,0.6974654771781772,-0.42809721129497036,-0.17094941323719923,-0.18122773055707248,0.06913037234881009,-1.0391592444663054,-0.8006640267306306,-0.7447569806872959,0.5487039456652045,0.6737824490433371,-0.7513457312265052,0.06045894241628941,-0.7938863664390279,-0.2655119379832055,0.535628108675081,0.8935691351943402,0.8710250878569288,-0.483179438117585,0.7683338910836307,-0.5549853842092107,-0.12145105581192094,0.8710822277430148,0.7977516411360134,0.9316260601975266,-0.19835819372616217,-0.08293302210797224,-0.5633314645247977,1.005155724064433,-0.20115180563421367,-0.31599586918765654,0.7554114233694433,-0.096150589992794,-0.613711213387728,-0.26951717807302167,0.7485562638072968,0.11215145463624802,-0.25590183568723207,0.9627840153788746,0.15422491716403575,0.6126385018553313,-0.6778499280692285,0.9632047697065498,0.5793100342034105,-0.9964644382583744,0.9825317104546335,-0.964216422778082,0.7590929764167504,-0.8611470859611303,0.07671243035882734,0.2887921052243888,0.8957242292558777,-0.7650544028606132,0.6115769024491795,-0.15909557742104044,0.012438091745209982,0.40195935774589414,0.3491644192355088,-0.3480638852332336,-0.4557407339694787,-0.5069744901649276,-0.984709310031424,0.1298955350302745,0.6161109093536413,-0.5819978758126294,-0.939141010102875,-0.8501536878384925,0.49100691096500376,-0.03694723530773306,-0.10497598552231575,0.0049805910263919315,0.35044131374598464,0.48173033414776345,-0.5777891863849272,0.5813658290725081,-0.44636649629740505,0.4755164318788673,-0.8129746043192524,0.5013585621110856,-1.0211271141308913,0.31504224175389156,-0.5936052496535414,-0.24196265033631814,-0.8659909008384028,-0.8418222934616129,-0.9131591413251562,-0.9409368263155555,0.2736124369278289,0.18627734175960534,0.30494620948883594,-0.23190789220603256,0.8247409660915737,0.21613145470671785,0.21708270711264369,-0.07434498989677901,-0.5090081666337003,-0.02179876658070926,-0.4565268932162614,-0.2667739522827105,-0.050527136011285,-0.9446545323928919,-0.1591268754459392,0.4251105778792078,0.8948304564232181,-0.44405397368776034,0.3789304632594023,0.24841103232541703,0.8130688830178157,0.4980439786481703,-0.5885768720147427,-0.04746521872485116,0.618923525073166,-0.8621652312699284,-0.7075594360473406,-0.21849606084538012,0.1458258019522372,0.8955856008157321,0.32689122404762067,-0.9338477816975356,-0.31730969840363044,0.0683300013610668,-0.5282712609754291,-0.1869606238435086,-0.8310225492528888,0.2441871167027723,-0.6004259814515158,0.7649145709982992,0.49017502830158627,0.8344244250891233,0.2992530684396063,-0.12196387372698721,0.3297659507875774,0.8701014532608966,-0.2348820574598641,-0.031973727445958756,0.07506004322737483,0.7919538263766855,-0.801261091852737,0.7587047693990454,-0.11714365609612885,0.27592865889964596,-0.01248422140798168,-0.4612235878832552,0.5243411046285852,-0.3590217996208858,0.15629140372008643,-0.07119610915244565,-0.9051689789526624,-0.9393137267322392,-0.6941406026153993,0.4096146485441109,-0.4484506821701987,0.49115753619352903,-0.5723864520981805,0.8855907720819635,0.371590216688022,0.6904613960298513,0.8566984027796996,0.46043795976749285,0.05069568813076343,-0.871904928178039,-1.0390097638670934,-0.6172381148750566,0.5729203774824171,-0.6176065470038059,-1.0941417982856105,0.2317305908240025,0.6918232342113865,0.5844517671571795,-0.39274033345022663,-0.7247855739312206,0.535341629935417,0.11563684521942573,0.6329773588257418,0.21157667775833655,-0.6820411878043028,-0.07051421870535292,-0.5521205282236609,0.07797601872686866,0.14014141105544073,-0.6928169004175594,-0.6970665031317496,0.7916263032840187,-0.9857182556363788,0.9847467971968649,-0.7692688943977317,0.3449779357894627,-0.6310530287612788,0.24980488061008516,-0.7223959221887797,0.9020889971754723,-0.09949348989656734,0.6558134248494726,-0.907534837916035,0.8793468638696886,-0.9610563927861161,0.23926977560912863,0.38733686625515007,0.43201005788791036,0.10150130668563648,0.553201814789621,-0.40959323193343544,0.134785560858526,-0.9386414472723537,-0.09421990766602055,0.9198515517781626,-0.6370258341955246,0.2913789229851127,0.1536641670015794,-0.7801772543806405,0.7468293624363422,-0.6491429311845347,0.43790675725238204,0.7534081548484468,0.48026162538209144,0.696262765929126,-0.26499058847848717,-0.7036345805701918,0.6930824605357647,0.6301351750507835,-0.027238250456259768,0.9870977873845143,0.5061420597421306,-0.9606631612893539,0.7461312968287982,0.14649729776866605,0.38273145758314736,0.11470641866364427,0.4241948748718833,0.0035076557965294927,0.5327398048035997,0.4672364208363277,-0.38936645308987056,-0.4560664841666319,-0.20475946495318714,0.1356869118998466,-0.6637533384020947,-0.5317600404251837,0.17434452435439263,0.8626964959636948,0.6371521976767544,0.8093456657252326,-0.6759785953188527,0.9264949872796835,0.05915782882050823,0.7081218377046774,0.23325662786207396,-0.5139819687706012,0.15677347442305656,-0.15190640852443146,-0.8775834318072883,0.6696122531545581,-0.08094126068846857,-0.9194337632832779,-0.5291969072781334,0.9305549486355134,0.05652266101867075,-0.08288575600277898,-0.6227018446035227,0.58388284452289,0.22462708581440063,-0.11806390095986839,-0.4818438165809269,-0.4663953244838315,0.6677799177387191,-0.9726462139896076,-0.9338957992041432,0.39427186081180643,-0.17965885691850575,-0.012481121094327101,0.6874433417677792,-0.815896700112163,-0.5828400037920689,-0.5908162591589718,0.9431182532330292,0.34771955080141786,1.0051472365042513,0.6054925747498845,-0.3311730297257238,-0.4422279360575273,-0.29650132100968485,-0.3278360800758317,-0.518426470848041,-0.5596091872220488,-0.9588131921008334,-0.3236302701278491,-0.949228325774868,0.32772649128112513,0.6495351117246492,-0.18098116759890853,0.40764100657277946,-0.6166086639482559,0.06939581587263303,0.769589090521206,0.3909247284701386,0.35339240153533236,0.15602900113840693,0.04165748217058485,-0.9474401717669556,-0.4052974057500406,-0.0478362841421227,-0.745072024097452,-0.3569771602921428,-0.29282758283581023,0.5894431389241228,-0.615979701517309,-0.1880850853000201,-0.11786851772863954,0.19597663224750417,0.7054780583007604,0.43800231952386076,0.21760401083850409,-0.5482762614087477,-0.3282941766431193,0.7497916570695585,0.043416577245622694,-0.6970298472922921,0.510933697870187,0.09282190275619574,-0.6547382110268305,0.33144475476993046,0.1520711551478613,0.4186653210275615,-0.7798318408047819,-0.24373632482664123,0.6137369481003067,-0.8341098059592961,0.9981340056388818,-0.4974770883992498,0.5374589092833719,-0.03464058912962656,0.5744125996887948,-0.2130351587052536,-0.1216151589761539,0.7859236278970271,-0.7820661468070411,-0.7789946067251976,0.2509469147530876,-0.6830536497789157,0.7899128157051776,0.023721625774651135,0.7683706524437709,-0.6984790270770745,-0.01731677894564604,0.4162163023827455,-0.9513604471175807,0.2813482146888007,0.7373372592792896,-0.38319185308098974,-0.5069364823259603,-0.9483018916893908,-0.4605650725207455,0.11395854203200957,0.4568058707953942,-0.9234454047524232,-0.9815886789421083,-0.017470333837701454,-0.42947275897334714,0.5405814722518864,0.9063031933238443,-0.6604958366578237,0.6166090295328239,0.4058612812283437,-0.1926143961855534,-0.14589086171199617,-0.2038294288571192,-0.1579895625358121,-0.680650589449083,0.5276792311391381,0.5681161285122862,0.016526823122860475,-0.051446900217728575,0.7064829606401786,-0.1493196999289332,0.44843166549303654,0.984397513095416,-0.849470927054,-0.9108027108532304,0.866264413550597,-0.23916265502673228,-0.4507460518602388,0.6146854528485776,-0.5446317144420862,0.8453559535051712,-0.38224004656023347,-0.14640379716227317,-0.728878565632904,0.6532760182222016,0.5133652622393323,-0.3234266283329561,0.15701977161570765,-0.04296228529471414,0.4976054650726398,-0.5677075931826252,-0.8759022121318774,0.17656017071428248,-0.025216372721726686,-0.5349754447576633,-0.513853341264376,-0.3651495359014149,0.17214824218476635,-0.6911151805359192,0.8785430024291971,0.5659373781036164,-0.21658968620623564,-0.47500624706996364,-0.38487799069078177,0.4177199495010626,-0.4206415897137586,0.6733428446879215,-0.8761480311688079,0.6222942595139644,0.5183525195484069,-0.26633791167339693,-0.6955977200975788,0.7311870818010477,-0.812097563895047,0.1822370576517315,0.3199660394387573,0.40351421290340883,0.9794414282283903,0.9961110278109095,-0.78120268133972,-0.44402425674198204,0.6899333759972037,-0.15438993442446702,-0.8431251716901267,0.6877110561070517,-0.337454156571466,0.6833201242492317,-0.5108008895963155,0.9117475493014503,-0.16139736255328307,0.5593846912248976,0.42921381902295064,0.2004294821560948,-0.1060633500540229,0.7948858952846346,-0.7531241002701315,0.07361861414544277,0.05807316561872179,-0.5602676581567064,-0.17944560649801447,-0.3380144196624616,-0.12649095226334425,-0.8989235991355621,-0.7992183482463359,0.060501055435924656,0.5555807797225372,-0.5065553421164866,-0.507754492224548,0.542381068332291,-0.2905046749751759,0.07383119667370355,-0.29001618336043566,0.8282584982397967,0.8493265178919901,0.6490454379878631,0.72517900910067,0.13320390146319414,-0.2131182383333503,0.9446381411666174,0.879919810543446,-0.5184156945238463,0.8231904653950977,-0.22173761875571318,0.7590824064732866,0.6320744841299273,-0.22654641159859482,0.7008342550772448,-0.16349913000660893,0.4624690543625941,-0.5794878850204446,-0.2445511293068076,0.9429199686014685,0.43632035409149017,-0.5194895945543518,0.3468593619311964,0.8018978832217964,-0.8455484128760075,-0.24944148873424368,0.12359328838434035,0.24113733734505163,-0.06671340459060615,-0.2500414760279608,-0.7546806919827298,0.11056232078799555,0.8539270847071925,0.8716884665728437,0.4413005863394437,
