3:-32.57885114729658:-0.5932036135184469,0.8735626622546089,0.8802473641218129,-0.36721223743122744,-0.13136902147927332,-0.2531479182564922,-0.5371008649241282,0.29119927713930394,0.44566256757115097,-0.08117158360691601,-0.6684727609681853,0.8210737220056299,0.653366301862909,0.544864461299538,0.7060132443625099,-0.7249816707827597,0.5422129755259426,0.8208977312516268,-0.9677543371787185,0.7289243966434775,-0.7261645265100354,-0.657977603347365,0.5044122411806577,0.06630744087003482,0.2613982594613855,-0.937224974003557,0.1020880145777876,0.6921299561054541,0.38326494932549116,-0.40474019798809335,0.9685950853788194,-0.2625515044810425,-0.7580524569604303,0.18477339767330658,-0.6737471939413238,-0.9240097917057654,-0.7842859311062337,-0.8813941649347118,-0.1942235925591812,0.046030773468922356,0.13811995638906943,0.5522093482138004,0.06122256521707227,0.15571062535459518,-0.15887997545093968,-0.22205744317413706,0.848521865221429,0.24719278044617704,-0.48969123529968206,0.8151137162403641,0.3647786273151179,0.6048303014075587,0.826226423522874,-0.1339396533391919,-0.42284245615519,0.31477746491027236,0.20356018735377135,0.6615219029991768,0.5143208557823915,-0.1817550517400568,0.09045855340669107,-0.9904268630169052,0.05001581523910107,0.04786324618064367,0.25307026470408495,-0.03410791322777105,-0.4263620695589477,0.7908691587650257,-0.7566861011639104,-0.00954824415326001,0.20191945286120547,0.05796129897833819,-0.15042664988710386,-0.07706296031620273,-0.8169123257060616,0.8117746317864138,0.2097825531965784,0.11537572050620813,0.60060041912253,0.982347975733749,0.4467212189842722,0.347749949452423,-0.7293246002837113,-0.37805463854340804,-0.6194940798632436,0.13954868914751084,-0.45179087447641186,0.2933753226947848,0.4204542928623077,-0.4986664267252007,0.6083376084918712,-0.6821633663754385,-0.817964155515562,-0.3883300006624807,-0.4165866618351201,0.09283090204938654,1.2042215827494525,0.6582381531293515,1.239006629987735,1.317107549702607,-0.5309863756123573,-0.25201728023527914,0.21383970913298952,0.6049111211587429,0.5301915137007619,-0.4602738393104073,0.7374314139654904,0.023271859829968475,-0.36907972931851757,-0.6141338851035791,-0.10846091549894221,0.9770162251475918,-0.9523347648174953,0.76881489082389,-0.03833840193719842,-0.9470782040025153,-0.7837123730756073,0.7927349752561145,-0.5386364462415565,0.4375765403246796,0.2873859611444277,1.1253144420720553,0.44748168927603815,0.5461640727455549,1.6278045038773947,1.4199335775126405,0.2436070077421526,1.7177599817471199,0.3558696669617155,-0.4468004804818147,0.6536335567855337,0.3240803294270579,-0.33983058300451596,-1.0165358027265243,0.3639365719919215,-0.8849916829516192,-0.17312650424696668,-0.9218021023709233,-0.38399336602997364,0.3489247652039036,-0.4314944124772282,0.5117822842682993,-0.7284956244439638,0.3168401116264335,0.6022564085101096,1.3887724943453983,1.0941065677191846,0.6938748764565824,0.33461324256844893,0.9354282746126887,0.9777893601844884,1.3233214536363966,0.30793407578553883,0.5288897572232046,1.1448223861737492,0.11632473615983865,0.1966520891244865,0.1985873022257957,-0.14675357757135446,-0.09425795488053951,-1.4559657854979136,-1.3218040505528015,-1.3661413734242436,-1.1728576672107738,0.09153882525265752,0.49979632047811845,-0.33497652083935486,0.013488593376404855,-0.2919107050220586,0.23357048073383252,0.0887615182603242,-0.7408838655919378,1.3616385120237484,0.791121524756086,0.03860781587723259,0.26094253020623687,1.2876232489741295,-0.12706340606633018,1.0653511723248739,0.7543662397511824,1.378909632623395,0.9710784056198364,0.7929577960714744,1.6024334465577361,1.242939236741877,0.5759424774178155,-0.6890119350572754,-1.5002577569681654,0.2232079802755591,-0.8189142589729884,-2.3759798148480624,-1.0777352660150765,-0.04021956697139554,0.3046990817879036,-0.15637834519518792,0.7007326168378165,-0.6227628855134408,0.0677309351301661,0.27900967940181276,0.7573100798195668,0.1679076631794939,1.062545489703603,0.38257465146362646,0.24943936958886953,0.23710373808268095,0.5335551883304186,0.8215354879702786,-0.5135196448328306,0.5116891053832713,0.03927307625257045,1.5157289225516346,2.0732227537599766,0.6407314915260318,1.1013712201674326,0.18463176974387377,-0.22411725589764403,1.1962126558179471,-0.29904078674671786,-0.4919413298126761,-2.569604031018881,-1.3080524945172054,0.6075808669025952,0.7958106613239212,-0.09627838486350934,0.7970046602163174,-0.38085859345673867,-0.05849765311934974,-0.4514144131284336,1.9365159799205953,1.751373826481067,0.6212162435330646,0.10338778000436492,-0.608120069950551,-0.7647508590453165,0.9506664219219995,-0.05405286567730123,-0.022980892139210864,-0.4903730212267616,0.9504364137930925,0.5774132027112382,0.5458812590973421,0.354753347855855,0.6101800828571906,0.7161547023314875,1.1288932627048798,-0.41088901663189153,-0.7405421170616538,-2.3528103101438873,-0.6332326735466914,0.4597755582874801,-0.16079464951668396,-0.9258174100296036,0.9567020755123111,0.2658519677688306,0.5529311827445174,-0.4439030526421669,0.6909678808534593,-0.04940784249439168,-0.914215730317518,-0.07816947321535289,-1.0327487774489559,-1.9683128702174044,-1.486761521951746,-3.451108803572111,-2.4855117172359913,-1.024662455792377,0.8311807591961768,2.1289756616437625,1.6779655929018145,0.2489974995209981,0.1823161004974888,0.044244729902128015,0.5096607774316232,1.1450237118100453,-0.3221416185895324,-1.6050388468799461,-0.5879632957016018,0.26697687739776255,0.0648902357263702,-0.8725374309477825,0.4515767768990697,0.09779071115110274,0.08859168904156825,-0.3384708480371934,0.2304034237935561,-0.038141933445318923,-0.09705356385390243,-1.2006107692611512,-2.8061472455019465,-3.9124474826490045,-3.964030782598173,-3.954946114758564,-1.8397223922744599,-0.5855916876149293,2.113100409175443,1.9749434472899472,0.9417325105701959,2.6389629899214206,1.1436283768246336,0.6378878936660565,1.600476526109516,0.8453805218640652,-1.1303620200522644,-0.677287961307399,-0.26339115871306074,0.717651350033793,0.11702754169822696,-0.9358657877481346,0.1866711534394958,-0.8027282546696592,-0.20003080530912198,0.254995480279838,-0.5829365794644444,-0.5758141449828962,-2.0958327710489355,-2.504175264555218,-2.116269926817498,-2.5283717455266608,-2.395166183683055,-1.5159699936744955,-0.05163303270322078,1.4061522225065048,2.316913377922907,1.42356593838105,1.5156506106739642,1.3085963495712163,1.3406258347380635,1.4068001507446575,0.403555235434439,-1.40721233394618,-1.1292410682297596,-1.1601871313025647,-0.964228100723394,0.2064251859882143,-0.7426663271292536,0.5878266369189928,0.02125664316234377,0.007456969189478161,-0.87682846213463,0.3006031538562098,0.2596594429441648,-1.049821702432445,-1.2587870914430561,-2.5488925009676793,-2.1478732744585862,-1.8135191437700031,-1.9608854897684465,0.0011096265664219426,0.994683639103144,2.5715926686488273,2.0900719270891166,2.641761919609201,1.2385466490597072,0.7268810133320014,1.1383069271295492,-0.28115967822822546,-1.8399006373489575,-1.2164503772401833,-1.4970402783866363,-0.33853814828555606,-0.3735956583536366,0.23840642037892307,-0.8139289059823884,0.35862501254266693,0.20363682641346306,0.28690935453458294,-0.9819362512794325,0.15766052114854018,-1.0290934414926771,-1.460158619177442,-0.496210504463516,-0.46985197061386563,-2.218563489672562,-0.8534083329078853,-0.37413231389254475,0.565425500548832,2.1556034844708427,2.2744540690047885,2.9481770056986276,0.2071414969544615,0.7864893850552717,0.4848827191869026,-0.5180965996007159,-1.182134786361802,-1.082110443907438,-0.23484138738915844,-0.41329733673463476,-0.5114781656173178,-0.36113612010055934,0.6634389633967048,0.7910129297957733,0.9686423318972762,-0.590996637928013,-0.8670660813268394,-0.940054859658373,0.7260250300345554,0.39468020134079884,-1.1940118099314727,-0.17635063769877055,-0.7647051578653508,-1.9435476211766407,-0.5842700424166747,-1.24540021106875,-0.46563489009205866,1.363364607689635,0.7139196349933119,2.2484343881310447,-0.04175178421301782,-0.36417584223713334,0.17499529774361794,0.02675860836035549,-0.15112684122349052,0.01712481397849133,0.18649969374516406,-0.9945644118762746,-0.3700903629329484,-0.008900226847781335,-0.9441186267206472,-0.278161734779632,-0.13882868355881803,0.3434160056010228,0.6421195281426783,-0.6603640744792828,0.9732680344490452,-1.0449291727221626,-0.918712064810971,-0.49088663367658775,-1.9753982748826984,-0.8272388311721696,-0.7634281279204139,-0.39188592369620406,-0.7390434052552789,1.4797576868123408,1.2177618343638623,2.0251678329770444,1.3722077074826153,-0.9205840388726523,0.8269663617720877,0.8335453815623566,0.22674138463781962,0.7565535615625409,0.9486915650960935,0.8127968497126752,-0.5651856505319487,0.8403629361681928,0.7245566326217987,-0.4014094354538336,0.23697172038975833,-0.785124800319061,-0.46747512472534036,0.6733945423515509,0.5727194698224432,0.14180716101010604,0.20352385621064079,-0.38438907334871625,-1.0685816491993185,-1.1336758946612218,-2.8627644014222655,-1.3627184880240417,-0.869431768942883,-0.6664704023715101,-0.1425567982174217,-0.28365561386818455,0.14930357203216027,-0.0413166881617395,0.8088571645044493,1.2334691737869026,1.161143710426603,1.0873123001031102,1.5857922408602378,0.7361035432395608,-0.25045686567849285,-0.6333447263905333,-0.8861088776695349,-0.08169234774639018,-0.49879645349854107,0.8978381190226608,-0.37259821542949806,-0.011643881499034916,0.4144735414269945,1.045427255865547,0.05639699515751207,-0.27519370452805525,-2.67492516282437,-2.144242699835184,-3.8091937431788847,-4.944816314925714,-3.8275080821479954,-3.2906894282040637,-1.9330631438176513,-2.688313881905349,-0.4226199510977313,0.7746450548254665,1.2192174684439676,0.7271704737342222,1.4567688850534601,0.47878420974439023,2.0442643412859685,1.2033516275808114,-0.15489049812956424,-1.2716367555072374,-0.2137261650576566,0.6797659574630388,-0.9983716511744364,-0.6695739439145474,-0.4379567421040355,-0.5639049775574454,1.5129623778973984,0.17534727307061437,0.32512446878009066,0.11073608800743874,-1.6919330045426841,-2.397567084970033,-3.439873561274208,-3.491671013013809,-3.6685980276525982,-4.682182697576031,-3.539824821843218,-3.5247167871477565,-1.0773163185205352,0.43714580479380416,0.5659083368746554,1.2633030828142,0.8389976124893469,1.2074846096446006,1.070797766439484,0.5134385169481079,0.2447312496688324,0.06497287060812189,-1.1332645667708283,0.5610762359344789,-0.30651521323675796,0.5839596263015849,0.2423608856214231,0.9795789136458264,0.9324474202203955,1.6933246086255633,-0.01707574571652031,-1.0394747709494345,-0.012679999584501604,-1.309324271147038,-0.4896409661646857,-1.9136659229515363,-1.5148345427396817,-2.3343257094649674,-2.324787799357484,-2.364155457864354,-0.580298994269422,-0.17319259668451037,0.6881373894366997,0.3027700210445244,-0.19381764267098622,0.5911334474420563,0.8500492472914579,-1.1447709720257937,-1.0966592926115102,-0.4067228521084688,0.5813187600823775,-0.34631910820688766,-0.06118222216310389,0.1323457454101289,0.8672666246624963,0.23408487683368778,1.9199575699582758,2.0702536498161472,1.9157507051972964,1.1752962838226417,-0.4701827217579119,1.0096442522549103,0.27159280658247303,0.5167633518508603,0.19558539085093932,-0.3154779029722495,-1.7137070708338824,0.5394103362189061,-0.5285757797321022,0.02673238760514579,-0.9588125762705682,0.9606650965481472,1.2345324828770357,1.1814382858710248,0.5220834718993344,-0.677114653138658,-1.4360497673692252,-0.5920906719495781,-0.5176923336550525,0.6822615421231981,-0.09240566626681018,0.12423882920155321,0.35231167120916873,0.18973450328515978,0.3364631607689555,1.4524083699766959,1.9571441064729849,0.8530129111541144,0.09218410851560195,-0.5593812137985434,0.2696563712861536,-0.6716095747212422,-0.5842137033035965,0.507071959861204,0.8561731367005219,-0.4002449895756243,-0.5112810098659901,0.6138834302202759,-0.43152358967187576,1.209813931031484,-0.05058737251763928,1.032407292087962,-0.7907578890949041,-1.0606941374634988,-1.6557309762889376,-0.26406481502670615,-0.6292930037213916,-0.4782025140415319,-0.004336611370436394,0.92377920696345,0.5297333366213534,-0.15769427400534078,1.3257295739152024,2.0158581391105734,2.314252392448244,1.718199542941224,0.7995260226516858,-0.8918558241515399,0.3762931776868389,0.8676606032950016,0.77192832908967,0.1196866921063623,0.12565983361675734,1.0390435943746221,-0.4806722790467602,-0.14725207210620792,1.3669366833900918,0.9137958746008895,-0.16376496749377298,-0.5107283538435765,-1.574249182205555,-0.982658061566952,-1.236149969828233,-0.6593447302088697,-0.9789130579104001,-0.9647286024699385,0.3083731644577119,-0.16388916721185187,0.8202265817846159,0.19187763227886911,-0.402021153038485,1.7374444730017797,0.9588928584885973,1.0340076631149686,1.8053266675697903,0.8867602807561037,0.4247427090775818,1.0655997563758874,0.4332116337311649,0.5676185922006687,1.5262552018627684,-0.29024545829258086,-0.03177172602463031,0.11282451950895171,0.7959993952944502,-0.1167081470224907,-0.031956679498348524,0.11937628914077843,0.08419674303660055,-0.6667857121979901,-0.09903151480919127,0.8546016988770877,-0.005489606739163223,0.889888089765391,0.5826260549924533,0.7717663184347925,0.8744782895956085,0.25110066129037445,0.34681542524365055,-0.30897839780389913,0.31660949322296184,1.3549981014001304,2.28152766776369,1.3770643394871893,2.294962693663828,1.0284296279009284,0.9269281680842679,0.9507181590337012,0.8150898726950039,-0.011510720325411165,-0.23940386074109457,-0.02007174096678982,0.049520285656978476,-0.3340678230100764,0.32695688003174567,-0.43003213086832154,0.43164724596202475,-0.3888753309033973,0.4672675940974315,-0.465969252696645,0.21562146965795392,0.5782592982452597,0.9279246047825853,-0.37060061745706596,0.7229922139756115,0.621791504534281,0.4304200949878461,1.0350838756132734,0.46275024788818403,-0.6153200694579457,1.0348348104536227,0.9470836829153977,0.2813664360088202,1.256499940470291,0.4154719193418065,0.19455732708450688,0.4225830168620072,0.2105730895580844,0.9785108912945676,0.6878390226831719,-0.4703296302735819,0.01809064999948493,0.04793393678342873,-0.7567169211826329,-0.2973839419803111,0.601142532725167,-0.6568134445877913,0.7491329965071508,0.12915509586468477,0.8295151723543059,-0.5342124512547581,-0.6107643482337535,-0.06226725427266877,0.7731890966862254,-0.8509059249030536,-0.651376829803935,0.2187400063713529,0.005584725539322126,-0.7606418534339444,0.38390913763107715,-0.17976919757759088,-0.25057367709630435,0.7304828178241455,-0.06956601087110392,-0.6173422471965325,-0.3818449317864646,-0.5537040613482984,0.6167679952572136,-0.44933197870697067,-0.4155607270746546,0.280586858365232,0.757951107498818,0.33991398944174445,0.1354508079815623,-0.14842730933249895,0.7663788029839285,0.48768876338222955,0.910555255761927,-0.669097685283851,0.31000279970377,-0.4241309474422279,-0.616916509406132,0.035831607762962125,-0.9604628045380021,0.883393102978919,0.21226015613217739,0.8054042252473078,0.940786421851133,-0.11645570747674418,0.36511128385886565,-0.020756747515819282,0.7544695845846834,0.707251808775192,-0.9332135306444983,-0.01424226088034157,0.2852787311143964,-0.9306501163372363,-0.40236925295308656,0.4768062819261654,-0.5703757275813338,-0.45949415901351703,-0.5133092120167783,-0.16581374846986052,-0.43237808310297465,0.4831362065182341,0.45148793651479857,0.5698705114303981,
2:-13.829089003125176:0.46829674519728237,0.9102807156452424,0.7265241714283905,0.2534947811699899,0.462780998884035,0.55342626087191,0.09189027333227218,-0.33786652846148146,0.4152336939880992,-0.43285819878369414,0.09132971750064134,-0.14647226430428373,-0.9535766742094786,0.613498635285266,0.9630883567083447,-0.11344480670028627,0.9977472190451508,0.9955692902301705,-0.06415563435213834,0.0763818804619778,-0.9105075365853312,-0.40611041375874546,0.9133146126552816,0.012510528168722113,0.36410924592624183,-0.7311070061845579,0.6985375808551817,-0.5189823358099794,-0.30464867587020095,-0.006859556173074655,-0.6696470774440155,-0.10908713807682058,0.9120558760011844,0.2199901388667314,0.45715315971034454,-0.07694273969044331,0.6612353399278568,-0.9922281019832407,0.8380727635670863,0.5544420219399777,-0.40690745379334936,-0.6416646743011835,0.047438794704029875,-0.6717964265916163,0.7869679765069787,-0.38085374428074914,0.25846788348508987,-0.04255603836147938,-0.4708835417437485,-0.4331043116706171,-0.5099145411764971,0.2631409994224747,-0.8997796252426471,-0.4103507743496506,0.3108159803154289,0.759885956422107,0.7530038602518938,-0.37963995867904266,-0.9171463220592538,-0.0724151756363212,0.32613519098997795,0.2885656774550888,0.8054068549848665,-0.9172051057108851,0.49683007811652724,0.2510223330587118,-0.3572796737471942,-0.8861273533541218,-0.07740340356782291,-0.3794492519997865,0.6633019698030015,-1.1929029121189765,0.1676217400572261,-0.6474041685799957,-0.10580168225181676,0.41990513191398904,0.022014668900727712,-0.7611150345036276,0.11417387455999467,0.35514397515250873,0.2166711159297819,0.5351585123442048,0.43308726422636323,0.5312145840227602,0.4720449841094232,0.3688407875629447,0.30219862976239875,-0.8246007482855434,0.02328439161055088,-0.27804390607869045,0.8532816494122462,-0.12554454934743633,0.09031954246911592,0.7209518002465587,0.12599825028938427,0.45339683473993403,-0.5195165637197804,0.6444261046876602,0.24884530684053188,-0.7197960871847555,-0.5274108897817272,0.39302622081515104,-1.2274905758181605,-0.8559010750370519,-0.2159913825782005,-0.6319587666463761,-0.7976059563002993,0.6389903197496256,-0.6497490218403499,-0.19952052230684889,0.7394308830117664,-0.07248225472439151,0.38869780509977425,-0.3986701899372414,0.48777075365661066,-0.934723348489982,-0.6688578366739307,-0.08140940185264686,0.6421673750244059,-0.5086223095160275,0.7753491978696017,-0.2775247075516538,0.7532367575223021,1.3492294905324889,0.6800340805397396,0.275913725712314,0.14452128356016308,1.1970819704076092,0.8241714983126277,0.053064534912613585,0.52093632077863,0.4964170684612118,-1.004003392804613,0.771250421678685,-1.0688244218629077,0.7866295386123645,-0.5985308806788527,-0.3259296924511879,-0.9459775141030101,0.4284440157795316,-0.6352605275805405,0.21563806246499762,0.11176654879674183,-0.11385820287538236,-0.6627054477268796,0.8128908531111454,-0.6987929138753828,0.9760007556415191,0.13264449975757633,0.2956082680905454,-0.010409650899434299,1.5670899282293285,-0.15755908979092584,0.8418975893093463,0.4109801797508358,1.0277648868778357,0.7474085206706302,0.26825309132017827,-0.18228923017287188,-0.0950076103424124,-1.1262282877139245,0.3858985380880071,-0.38627563388103575,0.1282319440084776,-0.7265850652274783,0.5084561648981855,-0.4737099176871898,-0.8115236232299677,0.8392240253893528,0.6114126303264328,-0.8089470199584333,0.1317107705209669,-0.7714892405497641,0.5289329187018756,-0.13349693551723824,0.009074548586602114,1.341884537095224,0.5534536393245347,0.8815442670738705,0.43012445201476296,0.21942193013328246,0.5761289521813329,0.6980721338338405,0.5076482549320418,-0.06598653285433836,0.8337003579354179,1.2815035772492192,-0.47926887820021524,-0.361651863417724,-0.23449792614943898,-1.0018071735288776,-0.17615947565156084,-0.4527894721415153,-0.9900524793507439,0.6752865491612455,0.9320998435595769,0.20661898395034584,-0.4515256695667102,-0.12103814824761548,-0.6279905331235542,-0.3512771687085586,-0.8117002414502622,-0.09778068398355451,0.6227973450583157,0.12748002292031815,-0.07409773649077757,0.18423826317676706,1.182236621859398,-0.20469746813421452,-0.3131525980201628,-0.11114406185740391,0.3167482080553886,-0.37559203179569844,-0.39019900516679384,-0.5993859327261192,0.45643587447448086,-0.9441298156647933,0.5121194291229925,0.5811592240908002,-0.6948442142420215,-1.0950884953175577,0.01206711364217608,-0.6375827742427634,-0.1674040606483707,-0.11156754317000342,0.15862366407237843,-0.9510466349760607,0.6078674828418374,0.7602147980533628,0.8611353830744851,-0.366045162428717,0.6749292390240916,-0.49570977882506045,0.8568325881370936,0.32694712283183913,0.09981596812495372,0.504522189751809,0.06307090124562631,0.7988767391719319,0.892493526586613,0.6725313009885409,0.3567289634563639,-0.6088487511286915,0.9013707958276049,-0.5251094946196315,0.4092820891212223,0.06377287510092838,-0.48442255330652284,0.1780117998642032,0.6708098732110477,0.3393647111672947,0.16271160354658096,0.4251747769012136,0.14819942181081946,-0.6665368107602055,0.5674085275448362,-0.29121881782517334,-0.7699681663690474,0.6518265693829334,-0.9735952617618813,-0.8759389436050697,0.020948852382154173,-0.34370317318589194,-0.37288367668399536,-0.07382564116957982,-0.23324239335563293,-0.8640932885932338,0.08813521277135869,0.4131756433888996,0.48513320124278303,0.18187681813669065,0.0706531198044036,-0.7680484602296955,0.42738075106123047,-0.47361921554702413,-1.217601086100672,0.21598596994384817,-0.9451735585771887,0.5180146574349328,-0.9489426430764333,-0.6372366756233694,0.1915973245239802,0.7241759304619073,0.4245062345078462,-0.5303059387468385,0.07907689868844041,0.09166625604343984,-1.6006708927441438,-0.906893894493062,-0.8163583902803841,0.15311108987289493,-1.6509939005105168,-1.0997925502967876,-1.3289648147742286,-0.2473654836655351,-1.1868140344990836,-0.023960258869043467,0.49545290323630325,1.1755380712499637,-0.3668801780282894,-0.48912542718129837,-0.4277520286431774,0.36825630413602845,0.014942283145581846,0.4624553110624548,-0.5094098978493995,-0.2596282670311581,0.43496968067883435,-0.15775541635943824,-0.33371767654493706,-0.20635460360349725,0.7012890393646323,-0.6213197967143431,-1.2139287050017191,-0.7813480307594,-0.9203435971940976,-2.0829203510007535,-0.37553120311537186,-0.6148818966802605,-1.4733332128668828,-1.1130584951243063,-1.811968637506088,-1.0238028469538052,-1.4435437892869138,-0.158128897746408,-0.7256485586359236,-0.48178620549450357,0.876701134513717,0.31455496610923406,-0.13218565389129935,-0.5614749632986079,-0.5112485032162469,-0.35909234617103614,0.29345238445138216,0.7408156277954483,0.2244506429496988,-0.37602551922835836,0.2177987411648203,-0.5834418718893196,-0.2423874400675128,0.5480650305806328,-0.22033280275299938,-0.8762086114238681,-2.606799368281727,-2.2355977105789164,-2.641198979459812,-2.475713044309686,-1.079429984096874,-1.8616374869056955,-1.3007193270931938,-1.4245101516797503,-0.7682867236847526,-0.4717139953106979,-0.8942545131236024,-0.43979140737381595,-0.23326879618962734,-0.43798455998171,-0.13240836173204265,-1.478106802118129,-0.3785207884685743,0.3549326021779379,0.7441059362335026,-0.6557492050616889,0.8134531877561795,0.7871620313763269,-0.8313903558484195,0.47991608694276927,-0.7186004346505911,-0.957492890106182,-1.0684987786798223,-0.9323769696388949,-0.9991310607115419,-0.9693023905394189,-0.8715368271902473,-1.20477519596024,-1.1040157384433709,-1.3647777906933156,-0.5351870462103312,-0.233731635668415,-0.6345689228081866,-0.28130906297016584,0.05595352026458728,0.5110125475421444,-0.012034895064574743,0.12087084171800545,-0.702712806117141,-0.29132783909552484,-0.5828470350947258,-1.0153158061055219,-0.6318007386724849,-0.25259133242202364,0.38232396582450917,0.5429477341589691,0.49751800505357957,-0.8286547608062302,0.4449752838150061,0.3764750229748602,-1.7633731112484563,-1.2928559649650717,-0.4897632283587696,-1.1279011942913717,-0.0030467320071149565,-0.14997974437551503,-0.23249860110176165,-0.3710946179138645,-0.20602100882255825,-0.5912648591672613,-0.6343711569778896,-0.07237204884023271,-0.7617041090052706,-0.6812366910620686,-1.0891205302613167,-1.1903789207755924,-0.3168815963973991,-0.1399457198068656,-0.53088047490848,-0.28530165599057744,-0.35580211389079425,-0.019319513521970148,0.9203220268767448,0.483954328815186,-0.9831914367745261,0.16771769227760736,0.46612955456743066,-0.6521151585473938,0.34411279102779957,-0.25110246412639453,-0.8564030175407497,0.8674260181352704,0.4189226089885041,0.8562123170604631,0.815386389129959,1.0162031442778932,1.0517043102315755,-0.30462335809253704,-0.43268127111821475,-0.18538500613719258,-0.8155944003293144,-0.05212480836045026,-0.19001230210383305,-0.3214400133616846,-1.3023928670599518,-1.5864187279474977,-1.4431521661396802,-0.2212781339709123,0.5872242879675379,1.0544605275818322,0.6139490986004099,-0.8344882925939008,-0.5378728134106823,0.3423159638664417,0.22213559816155923,-0.3443922739912112,-0.2474651940740928,0.24928789093133938,0.5328611725308751,-0.3456397509815581,-0.10118993846506243,0.690192210129613,0.6400663704591929,-0.020894085209374035,0.2368751853007864,0.5576808206125999,1.4829894255910596,-0.02932686060891182,-0.48163934778896894,0.3395495625569407,-0.29249160834895144,-1.3626611922378902,-0.3744767619158998,0.2795692693126141,0.13983171403947267,0.4256523843633931,1.2084589441361073,0.14594662552813273,-0.9612676392688686,-0.8264749482624691,0.485531036542147,-0.6906102617877806,-0.6259765809161127,0.9682338550210774,0.33488494360577575,0.5264999393419173,1.1835178158255253,0.6765320207687444,0.9638669664920194,0.851587482146233,0.4938683848955555,0.09148338536033612,1.3659446379616567,-0.1064603051038351,0.13140752245716386,0.7156168478232094,0.8542612118353469,-0.8113236317582958,-0.19762037987823758,-0.8961117894970226,0.5620307584403438,-0.7403057186929952,0.5751042367143678,0.21023637416745908,1.0033077521486176,0.5226577492445363,-0.31711661522684303,0.7812192585782078,0.005004548492055464,-0.9841032463853637,-0.47907389520765004,0.1826111130767533,1.130782243628862,1.47492027848321,0.4738493901152086,0.5649365055216253,0.018977052382663437,0.2906854102733628,0.754944603683518,0.9962530495802006,1.1324351205431702,0.5188151560011809,0.7911244026160179,0.972413461029192,-0.5811329744712496,0.4992881120555262,-0.041299669295792776,-0.10397524010147347,1.0057996452684974,0.37960297835570556,0.8493790506554991,-0.10301236061878988,1.1344201094336295,-0.03732531824118657,-0.13839925325723326,-0.06824009142509652,-0.9858598290463858,-0.27416977911995255,0.47223621749436845,-0.3944039112185193,1.4238766253000432,1.2058251752561793,0.432874505609991,0.7963831466762465,0.3404670204159359,1.2528881817868232,0.7078065685520858,1.1883405024476048,0.3294266022274191,0.08971427519137064,0.6749841529749065,-0.7633995733282748,0.5928910415213557,-0.08340629257688877,-0.32497883273192163,0.4892378709418181,0.6738645593284758,0.8528128696291449,1.80114627944195,1.0938470849243163,1.441283506311508,-0.21357921792837087,-0.3293170252934435,0.6060156844536442,-0.20624871488995355,0.6051010359886307,0.6484468049694159,0.17234271848288035,0.3972712871134037,0.4107650285871694,0.34907849237904326,0.8269190306104627,0.9954180775707219,0.909336395093034,-0.24329790071310664,0.042015017167300606,0.7976028448390976,-0.6136924094841878,0.2679586515767476,0.15360513859188296,0.19936863562720922,-0.49313322146586636,0.09583895350133317,0.6010723990892486,0.8718712992845169,0.6113807481071122,1.4120525401925417,0.3846993278509011,-0.44638001023133067,0.7345169970631724,0.4342691403141356,0.6444926296388347,-0.5064252415007044,-0.024833544255533226,0.3584282170699837,0.07603338022894972,-0.18754132830743875,-0.22456882233104014,0.939909558349168,0.9568990909806709,-0.3115778198958238,-0.3126704814992674,0.09868615151476542,0.2969713592846666,0.37278182419953454,-1.334985136889403,0.15953099905080254,-0.6423023133095065,0.25082907409695276,-0.13075476062430616,1.3154366128213992,-0.24374755277586244,1.0055560812827926,1.2027907126237625,0.8458858525207963,0.2500523039595535,0.3812636879898286,0.6784056037649918,0.8968682650336464,-0.21026296961163055,-0.7490285520678879,0.7125532986301454,-0.2400397997969389,1.0428241110812964,0.2355007382896657,-0.46556689703393084,0.1915640478623171,-0.543931648060382,1.0461988346300355,-0.1993060920251327,0.9892267888296894,-1.253355878294882,0.17231758588561222,-0.4343837795173119,-1.1844416981575996,-0.05285491940645718,0.22632123367498402,0.14155769975821705,0.969283002728774,-0.005924994285852836,0.051576971849963585,1.2755652068647438,0.3360014329700376,-0.7129652801472312,-0.3171313983563096,0.7854838235983538,-0.028294398477749463,-0.8997309713588604,0.47041223149278566,0.1448709417067348,0.7171355077267955,-0.2605476858023696,-0.839522384853106,-0.21742662708174698,-0.6554690663424962,0.002335116888909324,-0.4284696579853079,0.011116935857856388,-0.18612646371765104,-1.7394054207864482,-0.5611404925280589,-0.9066223585762488,-0.6819642335138931,-0.5825717180430363,-0.9066828343975041,0.804444974323192,-0.300612210093903,1.1939031338607708,0.35102467148937266,0.198719885731974,0.3611516381965681,0.5506753866401594,0.7645715358022666,0.6876320914519157,-0.1977070759796682,-0.04062593322331742,-0.6444881059126588,-0.8200347700858214,-0.9629811797234903,0.5035462295160256,0.17397553939765587,-0.7123821622414828,-0.9566263234754004,-0.09495664402287926,-1.417152750466964,-1.182815554124224,-0.9081061630517974,-0.5438400416129285,0.1209271896832471,-0.21328101183065612,-0.5303668260205029,-0.8815609063864721,0.6203233157811571,-0.4211977610145575,0.4229000911825021,0.7550755428421788,-0.3116756485118793,0.6730506834543185,0.8788313579135922,0.5025261940181247,-0.2651763736533332,-0.740684621777925,-0.6517930210498122,0.6618461102599913,0.7158458835603303,-0.03722600596827067,0.11307651071542414,-0.9239676412304011,0.37807364310303065,-1.0336741600099613,-0.43274748600599394,-0.024700246795579386,0.16748013600289594,-0.6844870390271226,0.2339181980111465,0.4245800951477341,0.06579026276539816,0.37402419682305327,-0.5431317583471732,-0.6515268721679627,-0.9137891846692107,0.8025055992285545,-0.242324644186344,0.4378369141285324,-0.5317087199317082,0.6830154284865413,-0.6344341385531499,-0.4763327922444547,0.9147029935005522,0.43571300417627246,0.24005343312877225,-0.990959054654259,-0.09315279824593459,0.9769328815777671,-0.8871797128871877,-0.7491132036772303,-0.4454789575278083,0.5804468021052467,-0.6755936618180403,-0.012352322476985929,0.6455758853401146,-0.938616580960418,0.463785122625246,-0.37616391233021046,0.07182494938297483,0.5125770538453949,0.08564235353338172,0.8137031826809592,-0.3565879410825913,-0.8316514821464829,0.08516835822647503,-0.7120464690713819,-0.5149045991883672,-0.44526841396715167,0.423237114069325,0.645470435944035,0.889441428578238,-0.9427388603879987,-0.6055076615397261,0.47736436055410425,-0.024128740953949013,0.4570223889820002,0.4043569017543074,-0.8730516690551813,-0.02168454320275517,-0.9931935499267657,0.6602400650934569,-0.6495998958926071,0.8116088884986326,-0.5630361428959436,0.22910402244860348,-0.5298267835539304,0.7876540901260181,0.6195287169153524,-0.10503405039042797,-0.11952271264808975,0.5960373161713349,0.3870459824346067,-0.8437801838650076,-0.4423742448676373,0.9024807482311649,0.08216449283268867,-0.12135714008259336,-0.14114010354044848,0.7090123251683305,-0.5178752065021068,0.8123637213895445,
1:-17.95049370418536:-0.14440366140496197,-0.31355827105872214,0.7401525981019346,-0.8286331005332499,0.3270177448413789,0.24041062354982579,-0.31864847898402515,-0.604430320553814,0.021999022640202703,-0.9483482028731212,0.44694025726858033,-0.11291557268836994,-0.28990287810183035,-0.5008917790829582,0.12001453049028442,0.2913277903263128,-0.3908185823152064,-0.4458974899097563,0.6588427966474235,-0.13385618582246517,-0.8227827798578762,0.7587129124724876,-0.855535022598287,-0.7920047481458536,0.2871921385373244,-0.7211641284512553,-0.9333839555022558,-0.887436040330652,-0.3981041987773919,0.5678838595350251,-0.04605738211546839,0.977779963250708,-0.4780941435525501,-0.37566550364697204,0.6173735250210857,0.26081558201963984,-0.050727302707434196,-0.9138882493348583,-0.4491060559316563,0.4165949899448149,-0.7089641278295307,-0.5229544025096325,0.6218650143796487,-0.526113091987393,0.6208463348292748,-0.1945770263424243,-0.9165803841868395,0.9460621914182927,-0.27639071002913,0.41190661733349004,0.15435809854816485,-0.8728844713644922,-0.1327974450500764,-0.5261332865988442,-0.0626445696497282,-0.010436473637908339,-0.42303383052779053,-0.10456639282408231,0.2841846357692872,0.8793501148653313,0.4327999298153502,0.4473461433826083,-0.6329501741532163,0.9939029522303434,-0.034654266622784424,-0.032063551588171035,0.17801425112421093,0.2330025448890595,0.09687255842894972,0.19635766124634507,-0.04609999516211713,0.4281408924489673,0.2541219990540254,-0.6185784695442688,0.6119196824717132,0.1845566404181639,0.2745139491466108,-0.8058035993741177,-0.3182913683306858,0.6111641568715246,-0.4662487369551076,-0.33025357950746037,0.9322907490587782,0.0670887508628728,-0.6579959961731472,0.9132028221268398,-0.08207326413328607,-0.2804459346222118,-0.41250591800289077,0.12758717046789933,0.004668396688999754,0.18637318809480938,-0.14955857083416063,0.15559194104613816,-0.9101607839937923,0.827313972921721,-0.23302552071892008,-0.8252169644390321,0.18955428212151668,-0.6478732433724689,-0.7082538638012198,0.445449835263503,0.3447654066102695,0.32902910315985817,0.6896399016264114,0.08261196378904109,-0.11574756786430672,0.905950253734217,0.5810833118781249,-0.29155807111657994,-0.01668546722298392,0.597963927671844,0.17216771723953328,-0.46140631328557413,0.6698354492302838,-0.6524428690104599,0.9198033214978725,-0.03418653977540215,-0.04519257261163114,0.23082223449615968,-0.6860568048257946,0.025946329415452545,-0.39825796859792295,0.16016582334592155,0.2210308850366217,-0.6999096083420715,0.2295251332302851,-0.2668372304979512,-0.8568315529133391,-0.5034250381132084,-0.31890609013506654,-0.0619649112016448,0.6353398039521676,0.6030318930840777,-0.8427967178335418,0.9783910976460801,0.7494712486745577,0.30865309092238463,0.07407882250418732,0.42596321773456336,-0.280198048729172,0.9803225837297007,-0.8599785636696078,-0.651945751151298,0.28377359137938596,-0.09430101980006332,-0.01203212540938016,0.4969586169110782,-0.7485170730888726,0.4404632020702345,-0.01579356998513337,-0.23290569901294364,0.7931710481927824,0.23843224739166632,-0.8681081934601268,0.9308805361266417,-0.3621313676148212,-0.7500381858010904,0.748029379713785,0.883674209858383,-0.6732236533938255,-0.6362115150574148,-1.0099883603320199,0.6763831714441109,-0.9954821825133386,0.04677753307430109,-0.3421046522784402,0.8150147355036673,-0.03120583483705852,-0.7768479385660707,-0.34930136512149507,0.35927302935903616,0.949779976821053,-0.4453737794448339,0.8245130881156655,0.6253774488217622,0.6160091145092237,-0.06462792808274717,0.7937462845335329,-0.49929592184507987,0.834331839093023,-0.9312213854251254,0.1898414992293829,-0.017192300536925994,-0.618309819319064,0.26468476860534124,-0.7746277087789467,0.026509522756387516,0.47999680595281086,0.2919450332454719,0.6831050964075179,0.9411305552168596,0.4900206094493661,0.3695444751456917,-0.6417478678516289,-0.5457737009702126,0.7527065759506186,-0.024293635768224894,0.29975017180293534,-0.03328982291358624,0.7639010892377511,-0.0697001882105453,-0.9664025737404857,0.5347245192321247,-0.11501717824200905,0.6643592834892179,-0.7173208094607271,0.40165206230419015,-0.6516657775013932,0.5068771427714732,-0.7654528775471858,-0.9465950213788179,-1.0002294839957286,-0.05496621974989121,0.5357903871371287,-0.6992423627500539,0.7478248149474002,-0.5073528884989188,-0.2997912193542615,0.761391414551687,-0.6983471401530614,0.019707409465094097,0.7314328216883531,-0.04712002400367713,0.040969762000044534,0.5000116165737145,0.8071662749875208,0.5761987232061462,-0.1049447791266005,-0.9029077906926216,-0.4815729367907468,0.8277077009274323,0.3985415920695642,-0.5053184023805027,0.3902849902623352,-0.862957240247104,0.655710542248045,-0.9187073715921932,0.03182643497298738,0.08906580027868623,-0.5432965766537194,0.2709024613266588,0.4098658106784686,0.7106658062965203,-0.761329704132396,-0.3670345035742647,0.9745757614334799,0.5062376428168993,-0.45643462207271995,-0.046188895044801864,0.08359407608133718,-0.5069400079466442,0.31656209616915004,-0.7505780028252582,0.35570863684673454,-0.12150327421964216,-0.4022799903134433,0.15619522575696906,0.8010091944875607,0.5875958105811483,0.7335211745191099,-0.1458238545045547,-0.7078545457389236,-0.5530076164951997,-0.1630656895849806,-0.2021314166562047,-0.09389840526534188,0.9029291968128467,-0.41306959137206006,0.7394035329364556,-0.025550541742383488,-0.016926926791660062,-0.9522938200167526,-0.45186944811320134,-0.9939697784773212,0.14906992644241718,-0.8811609026481245,0.21539368153848998,-0.26491607129702416,-0.6514077980603511,-0.32476129006863297,0.4525904240397659,-0.6599541631108902,-0.5279089543560177,0.9573482716190763,0.169843938856441,-0.047825710008345304,-0.44254663824400015,0.24735730279741988,0.6362792987427718,-0.5316117701856742,0.9124806695378512,-0.5238807339763224,-0.5371832648897229,0.8408148790741927,0.7678743019083368,0.077996406507479,-0.3598060888239723,-0.39481812401009053,-0.06368478870580097,0.5332577850409194,-0.4201121676027211,0.17550007686194813,-0.05231036764635685,-0.11080554707759552,-0.7004792166891507,0.7126330473030543,0.70749079601148,0.770523062919621,-0.38122595002974247,0.8389985610556365,-0.5062972963708312,0.453865951640926,0.8589888158809182,-0.29837638802200456,0.8164173324065285,-0.17537629864133428,0.8797725137933591,-0.3344476576988679,0.4186913931809395,0.8013384146311998,0.9490667758393243,0.8154222628121021,0.12785443086561316,-0.8294397906284995,0.11690925094019122,0.5710377003396659,0.6339363592965346,0.16371803875216986,-0.5025090687240944,0.05172122123757099,-0.2565163375092149,0.20333919498374367,0.3043427737576472,0.6254733966161087,-0.348877879609277,0.4103010791316245,-0.3961216927742994,-0.28658227198276864,-0.4057987546552284,0.022875498790876487,0.06214076374919462,-0.5248726676767067,-0.3208293987385615,-0.728202648399089,0.7660740815105193,-0.8614924337500194,-0.5231619325942206,-0.5266458492219146,0.5470449280967851,0.5282007079744787,0.2086537845600855,-0.3725036430779286,0.867015132136975,0.615389400425434,-0.7661132311495981,0.4243078095996921,0.12172322417771465,0.061885252519365004,-0.6266765506604448,-0.6425651931741705,0.6123557790513663,0.4443133620899052,0.24681140624643927,-0.5199904811788513,-0.9741831832510551,-0.49238185224362047,0.38188546843679516,-0.26635217102561515,0.3907882125726528,-0.37133068883100756,0.22898076831804742,-0.36445344476898617,0.9096062762897498,0.16282282247139543,-0.18489652764966213,-0.9998323672093159,0.9732337184534803,0.2925585869633213,0.0993861805416015,-0.8266744087341037,0.4948041788584126,-0.24122417716680097,-0.7402082655581292,-0.19012551254476937,-0.2762806411270256,-0.04156403238526268,0.5712865039175781,0.2900566266944763,0.9791274044306132,0.05249236903324,-0.4983645188234143,0.9240461528644623,-0.1515549725312436,-0.20482869380188967,-0.9140562422692524,0.38642630758369745,0.316735161729104,-0.12524780694777696,0.3968738017556007,-0.5243988034417703,0.4074608100724939,-0.6050514971579156,-0.5619128728619363,-0.6592688700246807,0.2890713238136941,-0.5296197971460921,-0.8058475321135076,-0.465042704892664,0.6609562734933779,-0.6095807840436215,-0.3777511413588735,0.6455879439839959,-0.6616722446244486,0.2739843710582851,0.4771429246580498,0.7402739318985423,-0.27242550880585853,0.7765312792569921,0.4036581271813702,0.761170955912104,0.5506005284954489,-0.7397423728756075,0.48564209792063917,-0.09907681435083242,0.8076024289030238,-0.7687208987249743,0.07060990163714939,0.5131821522870785,0.281071877378768,-0.8605761537443223,-0.6762864798005133,0.5456511125670706,-0.9086710284683116,-0.354158105460552,-1.0097375755757836,0.18558153598352234,0.47907930449243996,0.5380018816706353,-0.9170450054922751,0.249218942879254,0.6993285774925724,-0.6356929588600065,0.21363664388630987,0.2601654126066437,0.26252224617219366,-0.37131739073393355,-0.5571213694770666,-0.458692319264284,-0.3726510554753972,0.6436674590860255,-0.8722614180417666,-0.8455890293072936,0.30201864026854425,0.36017967982885035,0.33129543813319423,0.20006628358995077,-0.7942751882356968,-0.8194777860726322,0.7578338201562915,0.498247574809033,0.6950092862769042,-0.721714151905817,0.9083071685304367,0.0810481590879496,0.03843854247954039,-1.0557321660088081,-0.6522514854562658,-0.24574463244888345,-0.36733666043896407,-0.07512101397230528,-0.9744013699891498,0.6828078069279763,-0.6741241201527202,0.7069767045246058,0.8576866330701559,-0.7297038466436305,-0.8198318675494668,0.7079312081124031,-0.4756858894104028,-0.1285806477670648,-0.14610897456853497,0.23079208471317886,-0.06602686221690655,-0.05351429612905959,0.8913535839601006,0.892068516429033,0.3459084416618065,0.7554488108318356,-0.9505771976900615,-0.7689603673794703,0.37189936178154887,-0.31956276157023644,0.5677302935474415,0.5027522520618093,-0.05189552387226212,-0.5369867660642876,-0.8528123940852862,0.4071312726849714,-0.9338338110456457,-0.8094943686277869,-0.8049388193371807,0.09864709275662555,-0.6063759905293205,-0.36421342136475093,0.049865782001195395,-0.411051075078331,-0.6305529117617575,-0.757056939251903,-0.20652226513068503,0.7663089467280131,-0.15581377896696716,0.5894099929504524,0.4312968274794544,0.027283172359041204,0.8209691930867135,-0.36757004540757654,0.5222787704175922,0.69411855394555,0.19638279822152266,-0.1081408228652022,0.6891477552077349,-0.38994887266763484,0.008272479153672707,0.6765220738888729,0.49055163576111077,-0.12625239027280796,0.7736434134733235,-0.011058399211133286,-0.12228378576264624,-0.2792819768898016,0.5897928655826609,-0.6383930650252283,0.33079424774642435,-0.6981198581324113,0.8614194538598593,-0.7085139713727503,-0.6187645844296936,0.7640717779792086,-0.2829316624453625,-0.5665297120879218,-0.12575155205571267,-0.03660660791210004,0.5218155578435666,-0.7424830009596354,-0.6062708160141878,-0.7886691646963668,0.6867180400271891,-0.3343923087082102,-0.7692112764711865,-0.6716094977900721,-0.5008305786184438,0.6074084817128326,0.8829257238999159,-0.7615833214262501,0.23635435333855956,0.046916065541535726,0.2129430832448203,0.8069162936494529,0.5241269283846791,-0.30042425166014786,0.17718805184902403,0.7569466309633753,0.9415457952392182,-0.5312174150523372,-0.24655169294325308,0.10051060581743436,0.6882782906167636,-0.8303975014747246,-0.9920032764243732,-0.26428669369309316,0.4540151818036423,0.9730316493070998,-0.33919162684239684,-0.37571601740571964,-0.2242967675054599,-0.22949994133352064,-0.4160967198970937,-0.6836775048961821,0.4306847346335103,0.6322017547937583,-0.9976452864587022,-0.5375058226766979,0.2710330085912625,-0.16904393287203215,-0.9121027579744254,-0.787033046764307,-0.44729985282861784,-0.5631266409355328,-0.42778086093832696,0.41618990211096374,0.6780051626355078,0.684872072895805,0.30279354335569164,-0.14277619521059493,-0.8470152128361301,-0.2889204319550723,0.03568685892622896,-0.7427900949354379,0.4988473436505098,-0.9247781348433769,0.41953296540721263,0.6435237323273458,0.9212618407369381,-0.7588115355458408,-0.7525050965304274,0.09008742075071267,0.4940615871411586,-0.7097515448431275,0.34148963935710636,0.5117877425378533,0.17339691854244674,-0.008527867524265752,0.42721465676116854,0.3627249657911022,0.8684735869378797,0.35372468377317634,0.1776279662687751,-0.31488333549847086,-0.8736108751659405,-0.20015151900643643,0.6073747182126211,-0.4863714943996897,-0.12716556219187555,0.433915974348349,-0.5714729671212817,-0.7193916425649295,-0.7967234330451415,-0.9973083976091872,0.595606102793324,-0.5956033423095218,-0.3898949379644733,0.26711064870357626,0.7528012614781711,0.057712572519794225,-0.9514584653114487,-0.7441146234927405,-0.15907719339716941,0.1348167688907255,0.3115279817876406,0.44057539233032006,0.9904303220351169,-0.5045357721505771,0.6842204672931635,0.8102876111155701,-0.48344519635216865,0.28355650853192815,-0.21028225338360007,-0.3075196015524973,0.9240128374082678,-0.4781182512580241,0.8062363835174498,-0.6058066133392911,0.3546718558115619,-0.2975542370516314,-0.0505043678990235,0.2937722511654444,0.8496132418689957,0.8671962087864994,0.7404898858886446,0.7945938100398935,-0.5162011926811148,0.2840588075154384,-0.09345888322078008,-0.823019906542565,-0.2924539983888955,-0.4092444701633544,0.5935293524772104,0.8811891202394222,0.015171678695406128,0.9001056765847986,0.5099207871052394,-0.9267180074270405,-0.4355380362650747,-0.8220547708088636,0.27917989248772646,-0.7264759734426788,0.3473025200254665,-0.12768515597916189,0.9101723089005542,0.8067940691011075,0.945097495488726,-0.7801037313401118,0.3985176182786385,0.8800500899679927,0.15919339626898762,0.7892068247969685,-0.07397896327950315,-0.08707055701887331,-0.29175318577213916,0.4636316686477023,0.7540568512151902,-0.6816856818066583,0.6028694586205742,-0.8503544533944872,0.37997945328666954,-0.34763034477221155,0.44117282897943705,0.03491819003478435,-0.6514974285656205,-0.8879659432057383,0.33280203565161703,-0.8173602754870977,-0.05711967996350953,0.2093077570130409,-0.41015995690452745,-0.0828889098909904,-0.7256631549507748,0.17380810546002687,0.26682566351978787,0.7052673529853798,-0.14025817993729087,-0.15613069921541833,0.1916164098099136,-0.2651212430417395,0.5587817192972135,0.4233445564123072,-0.3363535859312181,0.8037076917743369,0.8605234373853953,0.170534320142785,0.6692354598366149,0.34882428257078374,-0.3827790890448721,0.7485961443163132,0.8349129615647654,0.8317929763154057,0.6748950964278513,-0.09974733734554708,0.22735422267528071,0.05075937321782753,0.08335508083415366,0.6745093366800569,0.36957481467759346,0.33421450285009024,0.7281021800921375,0.2665597299165646,-0.5217303801350033,-0.38650480921562597,-0.6313661199616145,-0.9528182299615243,-0.5668820407239871,-0.08688494301178237,0.25669054388113827,-0.1342191013918301,-0.958700946682805,0.5179616638196675,-0.678447044858061,-0.5531773906883836,0.68350558866115,0.24529897623357294,0.9435612808132112,-0.946166896084093,-0.7930152356252811,-0.9280632469083874,-0.2081689425962716,0.7539933821860985,0.84791502250668,-0.22455950987431184,0.9256863610803143,-0.40640693302604675,-0.34837167487592535,0.8289753198729694,-0.47345589535859717,-0.9948938494927854,0.31320883196978794,0.056626983977064886,0.8117842705952566,0.00509638259216625,0.4816669523793946,0.2697368534307825,-0.5398846860476705,-0.9005643421945472,-0.6794977130099022,-0.14747866338007615,-0.7206695464321532,-0.5047059101936646,0.6865088690719502,-0.6535191720969868,0.050067077634904075,-0.8004816355679234,0.6739886333942469,-0.504704213356951,-0.4281415723233619,
0:-16.12146169962242:-0.1410438119939239,0.9729425769368307,0.7599996061591376,-0.6433221159230325,0.5742513484264866,-0.5110770538699165,-0.8471949920906723,-0.3551579866851837,-0.4947161861542879,0.666549541593128,0.936371299916352,0.25119602011070574,-0.6780746513025226,0.165941158525451,0.9775739492690755,0.36432355691738305,-0.8143555481621048,-0.501224316459447,-0.11203348232667532,-0.5760129727480898,-0.5739715174915814,-0.16537716638650046,-0.22407719510626078,-0.5460459603266974,0.3995052535224819,-0.631113549256741,-0.3125220867046181,-0.22041548869342265,0.7332059018116444,0.09250483850756885,0.7327570846435638,-0.16541577589433065,-0.8020732234224336,0.11019876574370023,0.09214367519362847,0.47422184706243126,0.3076617501478417,-0.7268049424655669,0.10610345519832315,-0.7623014305839456,0.4092013211227779,0.8239976187011361,-0.5251438789342114,0.34024588237749676,0.5037919495639794,-0.005022452929185272,0.22885370472438926,-0.17405874577012684,0.33386948999401317,0.05888663087259487,0.5781925118888414,0.2750318263137109,-0.6285592961050672,-0.8007475149608887,0.009135442584429665,-0.26485731355864295,0.26061471236360756,-0.25070394768162796,-0.9322321792338296,0.1333779744773061,0.9953798468737587,0.8429474266700678,0.15594239216265496,-0.6730732171454143,-0.34531806265226306,0.3275758820254578,-0.6391519596253302,0.1614713775128057,-0.13080108969878157,-0.09287270388625674,0.855017370849247,-0.5596013141903395,0.36747908703461774,0.9091224125870623,0.6973804266685262,-0.4808740310433304,-0.08539074213164664,0.8982799061318714,0.13209787967727704,-0.564155506358866,-0.2608313536308907,-0.9311346541780314,-0.9808079460071466,0.90612707975207,-0.7805661316056085,0.4691863215244916,-0.40145362007065655,-0.6921291629319052,0.8846582195856092,0.8057116649877434,0.3416990737842707,0.8704800883273718,0.14265003386364636,0.3824107713852318,0.8517727512187135,0.6678208857587301,-0.8949586514653828,0.6297382733518232,0.5890332867143783,-0.22508847203807075,0.8015066516856596,-0.6035410218881369,0.21581451505749064,-0.09757066364443695,-0.26215823893507073,-0.768190131533714,0.44335727360698823,0.15271054790660346,0.8557708513647121,-0.48716890059821044,0.18849138175618152,-0.7095681056265446,-0.7589486848062041,-0.7412432497647876,0.7183655620438066,-0.02309913998895685,-0.18370299716377814,-0.5577084344771296,-0.20163799789328424,0.17628223878856256,-0.14096329046502795,0.27130618395615586,0.5861980738920313,-0.7893330861354804,0.8871072910590512,0.7959786770146088,0.05641971143303563,-0.5396449742431886,0.9467328413357611,0.17489786792074832,0.7436364703574638,0.93780566526485,-0.7333160346962467,0.5713532617403793,-0.5189909791132866,0.35140731130867425,0.16435738505491762,-0.8868463819210902,0.6854192487572083,-0.10596882790058124,-0.3579981207630445,-0.9631274548940196,-0.35245112152379016,0.7833201972306091,-0.23414302916925334,-0.23907602836270764,-0.6320431511774333,-0.5744347573600593,0.6962718182854736,-0.2518353747125235,0.6372110242924361,0.8061226971874985,-0.17109637340627493,-0.014882795248590793,-0.3532698162316994,0.5600432812822749,-0.4039055476400255,0.8559720339483867,0.6517056637377409,-0.975679524979405,-0.04404989511220718,0.43619824370952276,0.8458840340390853,-0.7985580083045105,0.813863069071784,0.7220591294003078,-0.33809285534246003,-0.9439781732338475,0.7883047617034544,0.7194487365160844,-0.5411704210388711,-0.8996543544854184,-0.7249118825001354,0.7917971274687706,-0.40521919907365145,0.8276733526728791,0.31008612860560036,-0.516137586356527,-0.775414633180417,-0.5133317895874344,0.3849681779808847,0.03910554380002624,-0.3704440139844274,0.0996502937159413,0.34277645314446736,-0.8586353086440854,-0.5517725216408578,-0.6566461731723315,-0.971286127967939,0.46409973585275466,0.036597839378601796,-0.4394928411288185,0.28654404617228174,-0.14012207202403273,-0.27195581276290054,0.41443811122110213,0.11682369593019926,0.26911466379111504,-0.44128743382472857,-0.01359186676175467,-0.7258171280213594,-0.696015325467305,-0.9406464105069781,0.7431780539127621,-0.341648734261127,0.3223085989876226,-0.48441028294951366,0.594951670901787,-0.5542926888520192,-0.9974416872327564,0.06926758363515541,0.3765544060139117,-0.652290377561338,-0.12618711480214218,-0.8604128004820347,-0.360390368766258,-0.47762478528160796,-0.7607997616487422,0.802899613770674,-0.3320558909177654,-0.11548049761559613,0.4780884159199064,0.598390643597005,0.45638106567748266,0.35435990508464776,0.7031251011604677,-0.10495761674901982,-0.5214722715663074,-0.9752021905444354,-0.32766666195890315,0.28651941055242064,0.4702711194941801,-0.8442495971870371,0.017758779450129148,0.8162225652499584,0.8334877912727837,0.18084635876717273,-0.07797410057640336,0.4696417426406804,0.7653460063082371,-0.6130983885567176,-0.9706557523466112,0.5814389500330226,0.07630472652395513,-1.0490905594273725,-0.5240210893564554,-0.2594432531423017,0.45866960944935314,-0.7862729604452884,0.8347895590069221,0.34035250909400006,-0.4411050708860297,0.578704262644587,-0.07799493842007538,-0.579254936111999,0.5896321075087545,0.12916710819027613,-0.8866047800704826,0.5441992607107072,-0.30763595888011697,-0.8248672215152052,0.9069405980924008,0.1337197432492151,-0.7806133881274576,-0.4390818141273604,-0.9415438229043833,0.4386168491640043,-0.6279953726675737,-0.8415683314346831,-0.16340034608093734,0.5650470656204268,-0.8684646740457392,0.2462790249027843,-0.8784484068628089,0.21551189107365867,-0.893197217201991,-0.21781535177402792,0.9739792360401713,0.7897376386930045,0.5774147796142698,-0.443110239367453,-0.7219428790465025,0.2909781628137323,0.8322412940655415,-0.09062994062233545,0.8693663892903012,-0.4002021405575083,-0.6302618543816231,0.9065078175589412,-0.9357504390480865,0.4699485574722862,0.47090190394525355,0.8014782206399437,-0.7041500245543464,0.1507993775255114,-0.9262813078060227,-0.07890878072120706,-0.4285008261076297,-0.34519920624554284,-0.4328977974180516,-0.9943955251324397,-0.40278886954767956,-0.8285887930890464,-0.8028627272782084,-0.5045552210568917,-0.7683087079124608,-0.4791086295304621,-0.623499971224787,-0.7255973835557463,-0.9529996187649037,0.9056881375763086,0.773060939997364,-0.9331484358055154,0.3463303767343752,-0.02718475544236225,-0.1658349896628771,-0.062305594375027834,-0.9721513759060133,-0.6777605186944653,0.15661090140540374,-0.7176104504598404,0.8788263017350845,-0.09668870310213883,-0.2193752168759806,0.6658510824326234,0.07417891637305721,-0.13460245233030588,-0.24981425908654267,0.2649733680813195,-0.2176018453650457,0.76126949398264,0.32261338174253934,-0.8143477617579535,0.31115485166121154,-0.7314399705562751,0.22295814334704825,0.7351236085658832,-0.6023494826041095,-0.7681596405721657,-0.10138850305489838,-0.8384985222661611,-0.9017003433762519,-0.6614555186329729,0.9748234536581278,0.6236804867806326,-0.5030968519444521,-0.9128588842533392,0.5246546811342468,-0.8129154466488686,-0.9693061322303019,-0.10607027876359036,0.39644860366378637,0.2746844760674532,0.5214827360502298,0.2925475620878414,0.5817830638617192,-0.30913117058054324,-0.6562085250649347,0.2540118915913139,0.1757673173871866,-0.6484734266460995,-0.22421615229502967,0.8959071468181465,-0.32564547186195447,-0.03471026299875953,-0.926308963832123,0.8493525761547444,-0.860500180445803,0.3886602342518269,0.3791566170434591,-0.4459064131419182,0.788211280869655,0.5456811107184294,-0.7775264598460986,-0.44309397969118985,-1.0080699516448832,-0.09439983723354979,-0.13601787428216433,-0.10354344384806011,0.3235866990985207,0.8269427700682934,0.18598267913562216,-0.2892854972019155,-0.2178335316826456,0.29645625112216123,-0.6551790448014038,-0.263616735212563,0.8451588274262579,0.01550113912148523,-0.6970707570583206,-0.11213110494805002,-0.503705068035602,-0.3042212024964972,0.8082273054519369,-0.13797199065919064,0.6344351209864246,0.3526113719439853,0.19730188114421823,0.31275527201818554,-0.013922809208070621,-0.0847256633756287,0.33201358494072714,0.013034635245655495,-0.3613370930700813,-0.4958065948200685,0.8924451271353028,-0.4290145700167625,0.005539895027469113,0.6014253161498392,0.6671107386501078,-0.4745478486717519,0.0834786320590666,-0.8228968209537065,-0.6342290702183364,-0.12685380241623587,-0.22043921513047862,-0.991255717435102,-0.28021348948778946,0.9213015116350398,0.22975672549131784,-0.5744616282005013,0.4859541884597956,-0.8004494897725851,0.6834926084687666,0.607996198765814,-0.9519828194974521,-0.4282336093727917,0.15902944211880707,-0.55836570531168,0.5969843457975827,0.49392821461570485,0.01426191849741466,0.7021825157346607,0.39348979919627636,0.06773139895341282,0.8619789872527067,-0.2469999428491043,0.31680846934382895,0.6515527429287997,0.5145707908269386,0.48960654906345186,0.7804192096378424,-0.5834797096041137,0.8809564468374078,0.16670329659569422,0.7249964996519753,0.32313860113820453,0.3051373280693742,-0.5150068147458631,0.24940979886321807,-0.09113112429376082,-0.5778667802969825,-0.5108112387644533,0.04317608316978993,-0.016397020636043303,-0.864941047486595,0.7622821240554504,-0.17802509987028628,0.47489241461944737,-0.7301783260313484,0.8348676719841779,0.279272614885575,-0.3267865622042984,0.798579548520967,-0.17638480800696774,0.4448167913839989,-0.17321422744746484,-0.9355545371224804,-0.7111872553170533,-0.05789385954065777,0.4051110791513711,0.344712701414145,0.5605607020031502,-0.7289962901822119,0.17503970266698585,-0.937423009550721,-0.6782172255820138,0.11492836432334219,0.7930638490972479,0.45710996327004577,-0.9435400231568957,0.6022619508432776,-0.318240978507311,0.32995736597760605,-0.7002315323067861,0.7646425533008889,0.15650743598852743,0.5882960793611126,-0.19172115511680662,0.5524936315029569,0.22536578893504777,-0.9120962944005243,0.7980472266466837,0.24414778146186,0.06461462587560687,-0.876722755882953,-0.19562282543066448,-0.5785715012484616,-0.535790006094407,0.9309760876319978,-0.5697207866778411,0.632863018240208,0.4577850377425645,-0.3114945622983537,0.5221962082225243,0.22054489495336002,0.20305685391825054,0.005567158038010285,-0.6585889732711501,0.3032739020906765,0.558507643334542,0.5666126832515487,0.4635838348486267,-0.7561216482304441,-0.8715813999613067,-0.1699265906182123,0.2591807709988269,0.4629156879161933,0.29644049073482076,0.6291818885367284,-0.3146124064999896,-0.3849596509211665,-0.821820744537274,0.4209245387084091,0.17152876088520752,0.18993887178312155,-0.24429629086397306,0.6139284933766261,0.9645544808663749,0.14996698144128365,0.9509583056825067,-0.08374875762799626,-0.9398145632906867,0.572246738682217,0.922284781424331,0.6025697286414818,-0.4139479360406017,0.9491077939783231,-0.05078531286858261,0.2532577952333301,0.6778845959131738,-0.4287716499541249,-0.3535044892042546,-0.4571145820665981,-0.2013486908474396,-0.5167510798292807,-0.3315792674826569,0.8253639533042646,0.7507940189999467,0.020605954632486174,-0.30350330766262384,0.20005947931225088,-0.2546102696749588,0.5018073114212895,-0.30579002915083053,0.2642992593430262,-0.7583712151207919,-0.5211414599195984,0.6130099195507629,0.3639439633954011,0.9318561141895638,-0.9133943033153343,0.9067307821637038,-0.5722373186623595,0.7294316559574352,0.33455791259424716,0.8901670545535011,0.6429554018664583,0.06661707987011972,-0.9336519057615654,-0.8517846790568552,0.3360515678003925,0.4708231786907076,0.27177375441187124,-0.4192480932045848,-0.24998648279311073,0.4505331340184494,0.29975904415363563,-0.26483819181740026,-0.4808659080635204,0.21592918796571253,-0.30678107078896805,-0.27768703712678533,-0.2919037766091548,0.8470325807723887,-0.33081054966897894,0.8621230594909602,0.5958298757119673,0.686848826955871,-0.15303334843164357,-0.8475327444153075,-0.5677400916582257,-0.2863982691637529,-0.12312177908767731,-0.8832374589715282,0.12667503050061527,-0.5457818678114035,0.6153158809164305,-0.1496591940619873,-0.5494239137036059,-0.36348173924740107,-0.06357352864414818,-0.01244602772037142,-0.35050415438339944,0.03104606048201641,0.5516706414189231,0.02147315047694537,-0.2647043259191548,0.09220172742184056,-0.770906246404926,0.04103229824118953,-0.7716915926079145,0.5880811487697424,0.036451733832913745,0.5829266374198944,-0.6064874038584934,-0.5909596394345148,-0.20299168982100405,-0.8398678139824163,0.2929503445386961,-0.18889988894730925,-0.4198711762399481,-0.6113667940240689,0.062321426119293054,-0.18285771723660801,-0.11492702787291456,0.16938132362619668,0.22246478787905064,0.15989426250514924,0.514321984800784,-0.7940232233507154,-0.5871415614322516,-0.11336961128107842,0.7228149011594523,-0.536041693525205,0.27290454830911853,0.45363018658438575,-0.30786795496178065,0.3644358210456078,-0.027475053901441213,-0.3308642888320917,0.013177273910716906,0.6840811564011863,0.3115197545195516,-0.5724907702881776,-0.410367154380187,0.3505257924445705,-0.897393755776458,0.8850135304598493,0.6999764530988467,-0.32953904283284485,0.20678313377438992,-0.15222683848693863,0.7105954191196199,0.5252946863578523,-0.4309834634126482,0.8746220814760951,-0.9224501899200561,-0.7891509719995138,-0.2569866574467418,-0.7772888893234057,-0.15385710236713593,0.3958099967911454,0.9104692723415451,-0.8188111895612755,0.8447785915846244,-0.2818842012384306,-0.8589197041440738,-0.5940871194871219,0.6739912805250613,0.9365227315343683,0.36698916772352885,-0.5452729774083609,0.9907811630864596,0.35778011662174014,-0.2079259375338524,0.6947965625586415,0.644357924250711,0.3083054833382513,0.9548252101874117,0.24569378021923383,-0.8097254933258885,-0.11206149565385914,0.5441794719401438,-0.3651118405912742,0.5134724167419292,0.9739383335378591,0.30903324480489514,0.2656244037034743,-0.8358126390935943,0.207825935194193,-0.3390284041973733,0.9992134760974136,0.9402847262881162,0.006368464198080389,0.495940633565006,0.6909973986767477,0.9929989609542563,-0.9092720669080365,0.676157024984213,-0.04754982210844938,-0.8930877276897744,0.3863200548241923,-0.44378772994375626,-0.889293699373793,-0.46681982651400605,-0.15451036502788415,-0.3885221989074294,0.34646181789902386,-0.27639749108199574,0.9352533004879608,0.4356104697433022,0.8347416424466397,-0.6759118379166693,-0.015922443789508002,0.77077480052088,-0.23237699140815155,-0.3606894315134504,0.973534854211539,0.6099175840234647,-0.9631856337180666,-0.09497976389286311,-0.7323402905260235,-0.4440861958079041,0.5378241023701283,-0.216147250189817,0.5445951826044854,-0.9992783376929733,0.3168050634081807,0.7615243329753929,-0.23490048112669726,0.01813471739215999,-0.046992467469678625,0.390148166311245,-0.6197956369882702,0.8697862801698762,0.4566742477935214,-0.788633491502116,0.20299256764645557,-0.5639855401497322,0.3932560500604574,0.5226536825475194,0.3634670578513049,-0.006720968809281525,-0.27784319478886305,-0.8550701085357685,-0.41465420823668414,0.0902881845274976,-0.6270282889717094,0.7138621262402413,-0.3104672026451508,-0.08994965092531633,-0.3755176213216213,-0.8627107728080721,-0.40919548271687534,-0.49495193491222156,0.9525732731565166,0.5902373748643863,0.46736208404820423,0.5167097715048339,-0.6925250155186933,0.5323789844078374,-0.32779095085955134,0.622049833162035,0.006691359170231775,-0.4207183586070751,0.9834974766456646,0.8278959626879905,0.722265541990026,-0.5602797777969438,-0.5828612260689463,-0.047268764889580005,-0.5343864642645703,-0.6279426520845662,-0.6449944935483576,-0.8392838913652607,-0.3697104945562811,0.02913696215826526,-0.9382150621018167,0.2503427726980585,-0.8684374040962632,-0.6947217492820266,0.798307515408621,0.5505671235404781,
7:-40.27714166189907:-0.06491057905866948,0.40965959230519133,-0.4335811519004973,0.15781059373936457,-0.6625113277893864,-0.21639813999970658,0.9643452871565128,-0.9407454116872402,0.973268042135925,-0.42360434591188767,0.5831238211355587,-0.4390588599694176,-0.9465654252458069,-0.7495490573863459,-0.04467494707425379,-0.8155947060351585,-0.6827542744844661,-0.7917902091672204,-0.20514693852495092,-0.7057355174810511,0.2525659032492207,0.9166472494523199,0.6672421230574614,-0.6853639985637292,0.7225278639613757,-0.16456816058750556,-0.5876411008977296,-0.8946769906625074,-0.6232653950175624,0.14465624455814763,-0.5786225752822518,0.9751256299497073,-0.9993732706072049,-0.31593576982071503,0.5515352787269538,0.38189903867112107,-0.9554683132111786,-0.25578445260598265,-0.5436803368439126,-0.24625522669354963,-0.025698471093615387,-0.6089526883489574,-0.5846267321176384,-0.9370108229729315,-0.201663367675172,-0.1411965023055275,0.36755001219061295,-0.20563308835475755,0.15118281108218287,-0.7876773993007513,0.7821908348397285,-0.22890724507436427,0.6517817475034249,0.9581873237599996,-0.7521675210122454,0.9372738530675562,-0.09515765128615494,0.5752560892441358,-0.7858006425762036,0.6423748382323223,-0.5233058923961971,-0.9613873168324865,-0.8075272930470341,-0.766781284513678,-0.5476274906371628,0.326984257495113,0.8987622560781791,0.8300136603380367,0.7685708751857158,0.6321876020214602,-0.6665008957581463,0.057704061705696606,0.41753410598518576,0.5302461051229707,-0.45163958946285826,-0.8339173138327614,0.829696696809781,-0.27290823166020806,-0.9331158691399604,-0.44793070023560494,0.26855343281986466,-0.8417334694107161,0.23747062638237004,0.9321607290765681,0.9088274251747528,-0.8000322303689311,-0.3632950040049614,0.6178548846668126,-0.5804235996009695,-0.4597717198260506,-0.34983067348809926,0.24591314288490998,-0.673916339583677,-0.1393126593602641,0.7312757294602286,0.13296848990188154,-0.7926828452042269,0.8089493223178823,-0.4758030264336634,0.050241340140637296,0.15119068553598694,0.6573545051460166,0.2564797664402433,-1.006395486875524,0.046833791055084166,0.8877842652824305,-0.785275344131227,0.2015337982524955,0.5673087542152763,0.5647754891543564,0.20090730695560666,-0.3047701205082456,-0.37590085964722597,-0.6300225695806867,-0.11264442787934037,0.27252495704716817,0.8814758202713466,-0.5600075940714063,0.7366942953104739,-0.9577541950436333,-1.0184940740006811,-0.7392237225644657,-1.0958232398124839,-0.7840196548377909,-0.8334351592474605,-1.121340397233734,-0.24685962261292163,-0.3579288618941719,-0.9373261430774804,-0.8641489505453617,-0.38489322807872317,0.18993341287494614,0.33926611875611934,0.4952651647324966,0.7192229407891729,-0.5845353289400408,0.61826585684375,0.9352151289406794,-0.9981356720028518,0.29029833557381,0.6854920035543168,-0.6929395280262087,0.5306591307225764,0.4456138727914101,0.9787432672361187,-0.1416810672039955,0.0012557126239776469,-0.785349393432127,-0.6376261028488114,-0.2248303008311097,-1.7356300693680142,-0.682720837428284,-1.5795024194366114,-2.1107207712007834,-2.5987898305743506,-1.7895137318455574,-1.7008294466712335,-0.959877432549873,-0.5728820291323174,-1.3160677634435152,-1.4641054466259837,0.14198025525642438,-0.34904355413662097,-0.16252529947690547,0.7793986011024137,-0.2393880097916179,0.05247165698543452,0.7825209423018479,0.7269248582598207,-0.6797976072676895,-0.0483053748632442,0.5628079959875136,0.02958856063928516,-0.8177478973227097,-0.6628395764786454,0.0383795793801799,0.07308090767866014,0.48356797951076946,0.14519311192115456,-0.3365911846031567,-1.0196531938944775,-2.326748845508554,-1.4121862690063067,-0.5885356417988319,-0.9284339422668074,-0.16902439349674567,0.40273086544897296,-1.2531912026811218,-0.3978409086715683,0.07318465850520849,-0.2663594774132504,-0.49403960789509577,-0.4089787813889687,-0.7693324923571232,-0.29607463541705026,0.8373193687289809,0.6524716514637217,-0.6619594538447003,-0.681408480484348,0.5377043667642835,-0.29621984837977866,0.041244701676551185,1.1374604728854918,1.0542048049161847,1.2626826597395784,0.9719121578563646,1.4301479460487483,2.3235681663293213,1.0243179323027582,-0.9451244203934099,-1.051024971999235,-0.38953297439674367,0.4164661001862852,0.6305982661915547,0.21785940857469138,0.2952160799896231,0.56712135573579,0.8252701013675706,-0.018821056240602832,0.5290623231021181,0.46505986375575686,-0.7927505190865637,0.3154551092943323,-0.09065160002602574,-0.6480526855838816,0.6505570856604923,0.695107360885896,1.3972354089825996,1.411547956638491,0.42398988922751585,1.9207697352688706,1.308515063442537,2.2108957494796293,2.1156019797623404,2.323157398535296,2.0436274429853967,0.7778254620384278,1.2771815892611866,0.9996631429285477,1.0882397660243246,0.7893192515667848,2.905141991202618,1.7277622236358479,1.441044651378874,0.7179055975344261,-0.8242292739895926,0.9352191173174101,0.211779755846397,-0.1045510802591695,-1.1354201251353648,-0.49529293640316346,-0.6225380390350298,-0.00427370437945049,-0.7635364729689619,1.3648097802918393,-0.0899255172372921,1.8583409552343124,1.5594598428139113,1.288520825399232,0.5047078355842982,0.7952045029204846,1.1177752951364996,0.846457890584861,1.560821639989996,1.4265625322077928,1.4145251122868423,1.3138567131370207,2.5226067360021527,2.693405355046277,2.2934519638255293,1.3901585432818726,1.480837966167384,0.43808947602272136,1.101055162861982,0.789596846997464,0.8304202251497762,-0.38925842791651366,-0.262907284995564,0.37121212735553943,0.4927102148945851,-0.5272445058278301,-0.7185678945634036,0.6848014495674968,-0.210160004792281,0.8634346994110583,1.688456811572126,-0.26130470552934726,0.5084310609589068,0.7659858783143245,-0.14628095459864068,1.3596981386366107,1.2793395414004527,1.9097824309365388,3.493310389158909,1.8012127271538887,2.8444564630784703,3.7929702045907936,2.8560209865152095,2.243514096943991,2.5585644701814627,0.21209110660371763,-0.030623111671094914,-0.5131866762469918,0.3178819839692152,-0.6232222644760276,-0.2739565742862011,0.9756945940212992,0.19956929114671731,-0.5253466454925878,0.144802732018296,0.9009332466174732,0.5719685558761697,1.2837698117946528,1.4080594269679918,1.304011801978789,0.12288219940508587,-0.6572134613148113,-0.026976255934708416,-0.31304691067936224,1.227208812638759,0.7963526431414933,0.39495011328687013,0.44086065575547134,1.9125169708427963,3.5282456041418477,2.4341547846411977,1.8674135552745752,1.284829874859355,1.29370020240642,0.4295366090266238,0.061639291736094386,0.04221841163153078,-0.49145130334601056,-0.1696398843931649,-0.7595091799857944,-0.21762425145211328,-0.7495405298917849,1.0536772463238986,0.5900725979369816,-0.11971451765852709,0.5459594888162412,-0.20291951417308096,0.22870830892789218,-0.8145728271524382,0.2113776169152687,-0.46904914991542884,-0.7605845125062192,-1.021074054731472,-3.0437135387802883,-3.422155243898451,-3.23885284790087,-0.007148861404104828,0.8014047944864492,0.9596089832665157,-0.11130808795310079,-0.693086319744142,0.6872348704014212,0.2118727540859729,0.7381395101409854,-0.7678464072870054,-0.012922921088027282,-0.5509688290021643,0.011635836957992167,0.8544951075348151,0.7019985842746779,0.9943207580022142,0.06196881914506994,1.4262416450601647,1.3836259004815086,-0.8691729246106841,-1.3766260447191094,-0.9152367176141456,-0.32356928143028935,-0.9331647209063403,-1.968232753479935,-2.3947873776009434,-5.844811781386683,-5.286878586774543,-4.875498490410452,-1.3993991313900724,0.27339092034542817,0.571550198234022,-0.7203511335365657,-0.30472940241376173,0.07103422381668095,-0.3824732468653093,-0.4540150692119936,-0.9408603280962374,-0.24660217219001918,-0.8276957409932258,0.804504174962683,-0.5296088294811073,-0.007604324807016116,-0.900089937200653,-0.011731355733569551,-0.7488919758241444,0.9149985716336649,-0.676533855266703,-0.5843314027577013,-0.5058721786475894,-2.2908847946413005,-0.8764129766684222,-2.3390023496811545,-2.7693193662487183,-4.498617670918015,-4.044724918886583,-1.539830626882936,1.2576667402321742,0.5933521799683238,0.4210107187544568,-0.4733766575578432,1.1564451800460267,2.249799855164008,1.8858426000225588,-0.18005697993684952,-0.9917372914296679,0.7167907676582848,-0.7945599401309589,-0.03675533794500154,0.08881441132966006,-0.8153049990994383,-0.34716539520772505,0.7175845068828327,0.7097225076071781,-0.7854876093657598,0.05166785056096238,-0.3291722473366961,-0.27714926218303454,-2.6989728992893904,-1.5347805690600884,-2.0881545818722884,-3.981841063431274,-3.69969395275,-3.359291145897634,-0.955613629012589,0.6068060934236531,1.159324971560192,1.9115399885951128,2.556752801551795,2.103576260182586,1.2924047757979857,0.8173634690838977,-0.35208157229423603,-0.35823678206629594,-0.7582013920693058,-0.7099586974574134,-0.7033298537952637,0.7483681729226306,-0.636170316064049,7.937947057596658E-4,-0.5017475385310552,-0.391212129812755,0.5166141688978163,-0.32504673332986084,-1.8167675356973336,-1.2593619700794685,-1.030368614068205,-2.525219786774916,-1.772583423294425,-2.814878053550437,-2.8726386442031258,-0.6659480701363946,-0.2350800460416554,1.779195256135687,1.4553767873126395,0.9763055287105451,1.2599543743896429,1.5434252692999089,1.5068389283691017,-0.2505324227676875,-0.7674348249590478,-0.8193235080129438,-0.12310312812019732,-0.7536822158168817,0.20647365655640507,-0.8600058679070466,-0.09477179454480522,0.8042217588523777,0.42149454215960275,0.38426952480528626,-0.5160238773441481,-0.16120212127868228,-0.5772372786283958,-0.5696868036168934,-2.028520820451024,-2.2534531372321265,-2.925571341236996,-3.2287302486065097,-0.9493399326991436,-0.6586399081368385,1.8627746950511506,1.0917485498933883,0.764985006056087,0.37545429878065995,0.4894929376467794,1.696111279593769,-1.2934077281033451,0.31179190200611245,-0.19549573088322308,-0.2944660351605378,-0.8233674620372761,-0.6134438668246679,-0.4597190679523374,0.27033397048408075,-0.5233667166139274,-0.7849228797976743,0.547185623482118,0.09979968437617773,-0.15412106935395778,-0.9335506173857808,-1.7264316155315813,-0.9000636801305265,-1.083846276489661,-1.710096516607837,-1.4062507536357822,-1.963633624854701,-1.007132554538397,2.3536281960862944,1.2607766553779078,0.5693095110730295,0.13173371839137027,0.508061725017454,0.7007045505760234,-1.3552598098176782,-0.7813033191245717,-1.644828664826057,-1.056139745314632,0.5112062489014085,0.2020726612301492,0.4145196187346573,0.9080626220665947,0.10729818524297408,-0.48364119421281004,0.07547278363683184,0.49974994719512966,0.010192805760135908,-0.7458015613853065,-0.5096374895231308,-1.1382505972704287,-0.4462218279056937,-1.4113874655615108,-2.340706179355054,-1.2065282198679792,-0.9172011055149171,0.5882960091462185,1.3936339357259981,1.6061562706984067,0.2529361630107347,-1.1422344707505492,-0.9143995973740063,-1.8488929485076313,-1.1487598062973388,-2.082296759716246,-2.7026333936854714,-2.267806918105119,-0.6296539740503019,0.43238886489688194,-0.835202343035936,0.17991320669395358,-0.016161034000929136,0.5766876202008429,0.12156443189784104,0.20874545942761225,0.04790877725991196,-0.407561386886251,-1.4221534905304762,-1.7008002291689872,-2.5872132326325743,-2.3904372514447405,-2.084287058425922,-1.5491190150118044,-0.09420214878866932,0.3704934135899508,0.6443551007779351,-0.17362735249868763,-0.4980404155708876,-0.3959370672064543,-1.4089617164674184,-0.9185576269471433,-1.8104959196217012,-1.1975126850489903,-2.164041809353809,-1.774477364854512,-0.3560819718474783,0.41008642428593706,-0.5909268669795538,-0.2767548256572802,-0.39164991585085596,-0.9792975863037662,-0.02981706044415524,-0.8346239951606946,-0.739824896680722,0.2830743278135787,-0.5393666596255104,-2.1525495995126027,-1.677979632066661,-1.8210281965726403,-0.7308077922028721,0.3512383560234965,-0.666675702215923,0.024662362903454197,0.02319483349416783,-0.4134592736467077,0.036804665045936616,-1.1926637428685372,-0.14227328044521378,-1.9842962425711461,-1.669766581611764,-1.7294032520206053,-1.0521014863784564,-0.6475418040723824,-0.3807089177088254,-0.11157407669700355,0.433808813484114,0.8795960326530724,0.2897123762834062,-0.054398335240608685,0.006691709284988396,-0.13095924492940272,-0.9406066240810499,-0.8240443504643644,-0.062488787613961344,-0.32139294359694687,-1.6053831564708103,-1.1896042916810456,0.1842163276939483,0.5867843397158615,-0.2548299996761513,0.19203185397482886,0.23524027125367328,-0.4986232459753428,-0.43545312772017597,-0.5485332314486366,-0.6726781267216454,-1.7189928079924677,-0.8245274759343119,-1.7159652528873703,-0.9649802991963334,-0.01635891186984738,-0.10576191062940113,-0.8512741457963009,-0.9691878038002564,-0.05903750769513397,0.43236774886280327,-0.31868800015372734,-0.5094982285609884,-0.050766983340563045,-0.38827688770963525,-0.41815190814531217,1.019739414852153,-0.18866295174869044,-0.14713691426233289,0.9168556095470206,0.3434203610884992,-0.3123656518521888,-0.9675193466619355,-0.6753587236214421,-0.21538213181069724,1.305699395416058,-0.5391266264704802,0.5627305911304079,-1.0720897869206738,-1.100921778870394,-1.330193547074777,-1.2629780730020035,-1.50133891543918,-1.1131188995005454,0.44725185628676956,0.21146593984613218,0.06965571831167279,-0.43355863620870916,0.49155197288081776,-0.3929147321128419,0.9101644000524718,0.3675904075882517,-0.017765773995131365,-0.7470577055467141,-0.4456435089368199,0.32042543328426115,0.5821423116142322,0.38347598318794085,0.8733791403859679,0.8605952252542847,0.6217291963322341,1.3560834972645581,0.4762520067615131,0.6626371130253863,1.334999576823187,0.6067624438636164,1.1259821816215865,0.3092012168044865,0.3948994703247662,-0.11313417663590045,-0.12704328924812378,0.038812447812314604,0.12708414056013956,-0.9665801447024313,0.6102448495459336,0.3798850656141508,0.40106983836196974,-0.7028999464819292,0.13623895783144158,0.9587829131697153,0.869252933212252,0.4879608808261087,0.35116906981030127,1.329909521976198,0.3887936762233077,1.6109265228310214,1.4745878750918515,1.8368820466906146,1.0862582066061164,1.3786465492643494,1.1763860053205875,2.178267400210478,1.8380368779415672,1.4903589875582188,1.63954518179175,0.8663696028938697,-0.9002485187527068,-0.49108711782040726,-0.3606620641139354,-0.5383450270851041,0.27563890680322073,0.7297484541630622,0.5963911498835078,0.957846787355545,0.9957695609486816,-0.4598276706682405,-0.9246391972597532,-0.6799604063125275,0.5887903689941637,0.9699268212049909,0.04891602649553406,-0.7562524898531692,-0.16433389434214987,-0.1773513841791571,0.8067642720268199,-0.10072216800588708,1.446303876739592,-0.4350344259929747,0.16515693616884983,0.9716545044685828,1.568958681592078,1.5174255363152402,1.0441851136590476,0.8932988615236538,0.9637950847633091,-0.07040319789260428,-0.2628404799063589,-0.8917143800902648,0.7292618324372286,0.36013222577243037,-0.6038013757230605,0.6856084180577842,0.1481385119128411,0.49157108958675444,-0.6162029312745965,0.023327914267988303,0.10855764381342148,0.13943224668909002,-0.3445340322269193,-0.4904724660728722,0.16701930960490655,0.2917975414540129,-0.9382109043331373,1.0125958203806644,1.043562316868402,0.926502925499218,0.9183932242925233,-0.004459348616847989,0.2010150752610163,-0.08475813993814356,1.3960187516688887,0.27708161045445323,-0.410218773481645,-0.5183463395228121,-0.18114401574755007,0.5079466837474634,0.4856177209592131,-0.7492175832215193,-0.22863993990237153,-0.5518662701870602,0.22320615663586119,
6:-13.476459159177214:-0.5884741545593393,-0.05335957001719205,0.5687945859732222,-0.9902491112616125,-0.5900173618027513,-0.6242946340574127,0.8292860038070187,-0.23511703146826668,-0.9149711269969234,0.8108771342586865,0.2318698331597704,0.13561739448937704,0.15948650239815143,-0.37190041077555624,-0.31352032430740806,0.820110671426884,-0.4183844794957128,-0.4453215577487235,-0.8653160921050622,0.3199560216484685,0.5484600799720842,0.760754267965865,-0.7999720780255208,-0.023896065566755942,-0.8911761744363889,-0.3355464332077278,-0.208794928669763,0.2950294089855443,-0.725596576796725,0.9773909915632109,-0.7600946759539038,0.19045164966850736,0.07737325701870018,-0.9574151060007584,-0.2787947141469237,-0.8024486075885137,0.3349800528611096,0.35474056377078944,-0.3171206255125881,0.4607731050152852,-0.9835271693004098,0.3032443957012427,-0.198975875062437,-0.6470610935663678,-0.9450392031195114,0.641106705157538,-0.4170861982666058,0.9525349639375911,0.20653588388573071,-0.041531859981593505,-0.8459975029170328,-0.7122962528266709,0.13133974112221147,-0.4727867116879354,0.9945278679629295,0.24954867500985412,0.25586549290272953,-0.7164458848075939,-0.5678413483546518,0.38408016244808413,0.17324396115612672,-0.5715765325194889,-0.44932600578482274,-0.6087851756336263,-0.6521248187361588,0.1508467684844597,-0.15934252236983615,-0.9090990787566068,-0.2868863030641811,-0.6826064478119024,0.39680453453076375,-0.1392839893475411,-0.6143751172802239,-0.37867544264870423,0.7569257373095835,-0.8951358975841802,0.16571550673252383,0.6459408080385531,0.5818854038004377,-0.8128295345786205,-0.24138352273576094,-0.4195444870570346,0.29392550112484117,0.43588198641698805,-0.28823384833427257,0.8961512377709766,-0.48963747320200357,0.329013357341828,-0.03663139713528049,0.21531742697967687,0.6653907770543118,0.7717740845745162,0.5823745597579814,0.7981625958412161,-0.44741980538892,-0.5031075413762658,0.7952750540880164,0.6075225608650794,-0.30636994447944416,-0.9455780526926593,0.7212885909634218,-0.24539112193776927,-0.581845180868403,-0.4132075609133636,0.35142812600350715,0.25264371620951764,-0.6747318297596971,-0.31765493540944206,-0.6998443298362297,0.5145640716335239,-0.6010604662704415,0.8866356439223806,-0.4473566128957309,-0.23752083051591416,-0.5096915379903266,0.2563632659091689,0.06735169792844452,0.6223171526869157,0.061811861194586586,-0.7970312243087706,0.43308055140795587,-0.41691871711667866,0.17450391918705943,0.27542072294434283,-1.026098812088311,0.6491172990115347,0.46269735180365024,0.04601447169258069,0.8649428057566366,-0.03567379072873344,-0.9662896577763327,0.7074994313743109,-0.7579266983345583,0.10219097026995869,0.9101464053889159,0.4492800334421541,0.24334250664504628,0.07600666826350037,0.4590283045569803,0.8395666491437189,0.8092200813872297,0.9310486230819401,0.025166322039357612,0.7565436565130848,-0.015736813457404755,0.3081518305842862,0.2936718644172282,-0.6842938788696635,-0.9911511465279781,0.046498510959185835,-0.05514103883936246,0.7157699485799469,-0.5676013695493318,0.8657648485516839,-0.7803805014521019,0.7411457426365611,0.03735636910178353,-1.0175972373749738,-0.40264479409971127,0.6965293039117264,0.027071888631533193,0.12288127980525336,0.49619512955758077,0.1919318792345389,-0.8505693037901675,0.652592901858727,-0.06153447456122245,-0.48187841590228636,-0.8552470822754064,-0.9137820711765617,0.3296020252321277,0.6780576041230764,-0.5138824773202865,0.9317333493291091,-0.46613812125224896,-0.46295650675856115,0.7288589112211211,0.7953053647105126,-0.07660068260432366,0.6951974048088599,-0.16640396318766618,0.2106004798058243,0.86267272138252,0.08802945037584235,-0.5290355580954644,-0.7790886123100002,-0.2632510177313448,-0.5361401600682782,-0.1395484184913177,-0.30325071455781694,0.919125561388383,0.6208351754007215,-0.10875541469559659,-0.08879362269911255,-0.06841736194302801,-0.07333939303718243,0.06490017893317734,0.9717678891074992,0.13115706479200823,-0.3211920477160722,0.9828469001983138,-0.37714693294741014,-0.6774295398405241,-0.9848892232541642,0.9100149080099492,0.8845595201888489,0.3266801549234736,-0.817793639158645,-0.5309100653779915,0.5677804667386437,-0.8559435078298004,-0.7072810102589464,0.6321773541080752,0.721687297481689,-0.02794578124278855,0.4499430331388872,0.6408036676900482,0.4712617254601968,0.04531441450971706,-0.6270769419385339,-0.6053960953488637,-0.9053999995599301,0.9815866052921414,-0.5905348323404418,-0.5394534654840031,0.14305321693211764,-0.7205561527970943,0.856865725284872,-0.3506186180499042,-0.1834071088599096,-0.11561638703929661,-0.3148004700114789,0.06866041109693255,-0.9394349356646005,-0.505168618466694,-0.6806837445058028,0.6005047769422376,0.3068538742253946,-0.8005815341578821,0.7056097195661702,-0.7845040092938004,-1.0345540527732004,0.0068321827382553735,0.8306598274522533,-0.5958760856519816,0.6980878040141258,-0.792781750095744,0.45797080628077375,0.8040078199248938,-0.6429058277035844,-0.12109855886362769,0.4039333470285876,0.6912863081252322,0.5752582395798176,0.872226894444815,-0.11821404006058928,-0.4937678280409466,-0.6829188856802255,-0.06097139096360509,-0.7993373823407949,0.35800959215972805,-0.4528067690617043,-0.9722514048516613,0.918279720372091,0.39855982928205547,-0.7896302834074638,0.7140614610822557,-0.9215390966982765,-0.9883497637906409,-0.5428205114490869,0.20999951783120027,0.04747762821851705,-0.3191242134549515,0.08890273252782993,0.7296319975279153,0.4334839380851492,0.43744016959854315,0.483326156168907,-0.9766353014375274,-0.31123245165947194,-0.32296593936740403,-0.06932622616987189,-0.32652471993448884,-0.7713060751710736,-0.30335489151088996,0.03733599355594659,0.7528580259945311,-0.5096937328467999,-0.4766351238946355,-0.34391312407295443,0.74132241404872,-0.15497069209601894,0.7788612773709037,-0.9590208333948593,0.04262736521538553,0.09731500698319284,0.8908942355016816,-0.22798945744925606,0.921203493664762,0.5337148401155033,-0.3658676083596928,0.1566951406244825,0.8730907140896816,-0.8007117619627533,0.03725814576109356,0.4842866410534584,0.7213120090108754,0.4831423762041084,0.41249635664361,-0.2491964128834015,-0.798012869948657,-0.5108257550012988,-0.010420657281343377,0.6539153605601989,0.22177179742247133,-0.7537528141358717,-0.7452966249625362,-0.38970676560384043,-0.9557921829429299,0.37314645059323504,-0.8327724521623491,-0.2843544795176846,0.08058208488539546,-0.17969811864365803,-0.6978685772443973,-0.8522130025768961,-0.34216284116695034,-0.8502661617483239,-0.2883032697765921,0.7865379850607328,-0.6388171672696161,0.43060670605530754,-0.36734950469430405,0.9056454341609875,0.26941529645080087,0.9978732263840201,0.9540039867216137,0.4894990143141768,0.1602034050292314,0.2844070081571642,-0.044179252989954954,0.3855332002803553,-0.44057301128775855,-0.5241055052131915,0.5960405614734252,-0.12302157308780595,-0.950270915416828,-0.7599770199563619,0.7599708414908675,-0.15649148986605513,-0.34699902066905125,-0.40945373671742824,0.26196906302175227,-0.4701689141711798,-0.9751679029097124,0.8984336499009526,0.5429669731826761,0.5970977380443051,-0.762279593909436,-0.7148987128033174,0.8774367195589743,-0.8010206966303707,-0.15754627344152428,-0.5290472460293785,0.2504701702853983,0.14121122939503963,-0.1486572303878539,-0.9463301675009637,0.4220230741196459,-0.9245682617957555,0.25740631712970535,-0.7933358274991459,0.8308331602159214,-0.4046685609598358,-0.48128664040092656,0.9008171774233102,0.3167888472590401,-0.5152308006825165,0.7947468701168446,0.5076200019800405,0.35212839578061816,0.7471856683729008,0.5149361597324621,0.450197677289139,-0.6431124102747063,0.23915765006508696,0.6451294771921036,0.09198849240416758,-0.13004598092718841,0.23752239151594984,-0.9441920538140405,-0.6609923907282704,-0.7999948997492521,0.24384088196719653,0.8990059077124559,0.9246880826502234,0.6187071885308103,0.5223582655160101,0.8603058607541216,-0.05089767892834837,-0.8457724401618784,0.5602844630024159,-0.1797027300109882,0.7159736222907896,-0.03821562805243343,-0.7754364247042833,-0.2803872710979422,0.5050391845723157,0.39394401558606823,-0.0033063983709419745,-0.9094611107853412,0.72380748762277,-0.3018965153362826,0.8788089900274775,-0.279728783711442,-0.551032733289649,0.3124489140163459,-0.06524381019541076,-0.3855193060024766,-0.9971347710807963,-0.9890166777040266,0.24855613582837985,-0.06308775656709685,0.9887728412955433,-0.049229802893309346,-0.9371767753212358,0.23710033229753247,-0.43940539698259634,-0.5033074414103698,-0.5366909267053525,0.10006374856611387,-0.2105048627407572,0.7903203891175518,-0.34307731161705507,0.20932613793659074,-0.9279434549784769,0.2441496289863151,0.6258745059965752,-0.9409547066173531,-0.9752530554149469,-0.6624386278252925,0.8835259621220773,-0.44492750327767433,-0.4927397477568335,0.672034391271574,-0.968333310383609,0.6889644076240622,0.6395631195646228,0.3311262295580055,0.6493398720184412,0.9774494030200982,-0.3901603730315446,-0.48235579962912173,-0.6449566879236022,0.6445756765030938,0.38400979665384655,-1.0118453924646813,-0.96873874536243,-0.209756739459831,0.8779548922768892,-0.3451351579348274,-0.04050663316256716,0.2124626206528792,-0.3104170925294336,0.8866898089558409,-0.06159111002652394,-0.6934554834214164,0.1253977852897296,-0.8628834594833156,0.48242340563603575,0.8351423407629424,-0.5369236917471518,-0.11961655351314149,0.3887748397831653,0.5742909960085916,-0.30522807578374367,-0.3195730789007336,0.8529182496756139,-0.10377126949018672,-0.11497288315037518,-0.6135880350339006,-0.7812353100030484,0.7389413793674434,0.4716773746129059,-0.7773900036726993,0.8187615154065353,0.24612486522365354,0.13294114675467228,-0.6798557795189627,0.4071709820791392,-0.8847966365663389,-0.7909084375621812,0.8963413907466721,0.3876318030370967,0.4245501590975897,-0.9064155840509358,-0.30726828975137443,-0.5271238190338353,-0.8075230945927725,0.8337097361525515,0.43308456095889747,0.5751726730782218,0.7921146742315937,-0.9412543390211835,-0.5164890943277216,-0.45488693671026315,-0.1141441543274354,0.0845228514200312,-0.7855498520307478,-0.5917959762231546,0.7235069125110509,-0.20322387960115704,-1.0220453882929497,0.9151693245580577,-0.5627883306546494,-0.2949604043916381,-0.8861701779438923,0.8941575136454448,0.6384346928252134,-0.09093229294649384,0.10467251467638444,-0.4801144049239567,-0.591330345202632,-0.15760148465450777,-0.7068329035414891,0.31775892509799253,-0.08701847138997605,0.11557437578014604,0.12935480445342637,0.20441860378428134,-0.9133051719689472,-0.5144475325172309,0.44429163440045505,-0.7274493547352284,0.8355935444523305,0.7143475310744288,0.052951525111284405,0.5195487314899467,-0.24583615039140727,-0.8509702504186866,0.8041560932267386,0.4698600621096729,0.22020259532813097,-0.5098771476371737,-0.7508380892340375,-0.3035640636233246,-0.24110698630853375,-0.26248826431928274,0.17926054924324472,-0.45743343561783156,-0.2018966648664021,-0.4985010896447818,0.4001452150698346,0.5946217951962885,-0.06070612004432805,0.0024824167087139307,-0.8201973545256184,-0.6995637933432369,-0.25583894004645374,0.5594795721985191,0.14054509383766223,-0.8909482419959874,0.3849469597158016,-0.04231722712529374,0.12163434332328156,-0.34658652849396726,-0.5754139838523192,-0.5846576473509095,-0.9084367150253957,-0.39168587920795467,0.8895150455853216,-0.5519037160597969,0.3303511905780174,0.5440178836779213,-0.14561344192735254,-0.14673443876726533,-0.14901540749617975,0.5264066299961339,-0.8055192844774967,-0.29410395682787815,-0.24288274442688654,0.1306899750526414,-0.5821978408004082,0.3485235600914943,-0.8683214164328446,0.006663293857666619,-0.6695416205490522,0.44414760679047405,-0.461706302259586,-0.38608420011195405,0.8768121432890057,0.4692747981711559,0.9898444962148204,0.0679385179853763,0.2381109385430935,0.8761019037869531,0.3988444890972898,0.2004197334509763,0.6131803740510423,-0.8152236307203787,-0.8130608226177495,0.9356201976772024,0.5103030633701855,-0.30338917923440206,-0.8430249791178209,0.7720210318188752,-0.5379225139157666,0.7945429999656716,0.6120279858119511,0.776215029211383,0.6147605270901737,-0.7793089016888579,-0.6270195108436419,-0.8375243905260359,-0.7031136037645189,-0.23099091008397044,-0.3643445314931324,0.8147056412156729,0.6032496160994278,0.9054733395058003,0.8826594401190543,0.07434447819945274,-0.7424112654551747,0.41575445135271805,0.8459120153472707,0.2317902313506062,-0.2915113012712264,-0.8587946146610758,-0.2910015245755861,0.09648814422182765,-0.5420886228649661,0.2068417061006754,-0.617307378372525,-0.018769565476964536,-0.8615237724542983,0.4306831320858494,0.7560108170427607,0.05939217530268436,0.936754471719098,-0.37476325871345456,-0.4017969216605177,-0.33172961128784834,-0.0568388819173563,-0.6854523534861234,-0.35692047923114956,0.6600273726762569,-0.4114002128737168,-0.74881584405917,0.9156426669033738,0.23062852563315642,-0.44055166470891566,0.930259364103286,0.7133567459826141,-0.06827402649084917,-1.0109506831716164,-0.5572406162457805,0.4221719462163465,0.9251381971729354,0.46749615412771434,-0.10720233485430335,-0.1275717140295715,0.636343801837873,-0.15983250519044404,0.7850514759258267,-0.02405595829044467,0.530003807927171,-0.09532103231115259,-0.6269278161396602,-0.8495685154162997,0.15277186521017705,0.9564448677377342,0.6516335700474718,-0.008344793572742537,0.2881918646760584,-0.30176131255132216,-0.2547501877384179,-0.34636169076703033,-0.7327939355180159,0.45276627973088635,-0.16493632896877483,-0.896793282643483,-0.7961812653379433,-0.9120840732095864,0.5155074785543131,-0.6087594839557887,-0.49517400850235005,0.2194318656251538,-0.17145292791619843,-0.9355307779277207,0.8769143301768393,-0.3021783015792916,0.9271008216005681,0.6111951660384783,-0.45053973589117885,0.9331363759231373,-0.575669666150862,0.9001607050882128,-0.7704477834780581,0.1608041929171729,-0.4278661426910775,0.033447180881292615,-0.4544646992687027,0.08715011876053524,-0.7245332946109636,-0.09437885535986498,0.450819729196614,-0.3278418193168711,0.6904101026143207,0.6272651847094809,-0.47620474465189666,-0.5235635286544259,-0.4919361854783407,-0.4018970280959539,0.7125507020847843,0.21194246896062535,-0.46355455065007856,0.4628709163503691,-0.9558007836694739,-0.7392165254386873,0.07536911075727297,-0.555933896084696,0.09383106447185573,-0.16049982239164814,-0.24407549944185167,0.6133854183711177,-0.407082281938997,0.21507232886628813,0.017013961235324615,-0.4424248260425774,-0.5364346108798033,-0.08034289116343496,0.189682926248981,0.5802810268121956,-0.22982819144071417,0.26460137707954695,0.2858022801778698,0.10033522799588257,-0.3883786688896406,-0.37957238148020594,-0.9840335959921556,0.2246718570422341,-0.18805225366874134,-0.09211868993012462,-0.6934477267226572,-0.3899963255033471,0.4185051874328563,-0.4638343705112931,-0.35751936779035876,-0.3247288927089623,0.48078070600999245,-0.3717854593639998,0.9311056942262333,0.9839627698227176,0.3537800933897489,0.7881073685017079,-0.7351904479117173,-0.8069781801841456,-0.13300826753479766,0.8957722618749651,0.9533835206030723,0.3431355233621066,-0.9111531464628757,0.453230809436814,-0.4955752600534534,-0.5321884350482261,0.13866671554542068,0.8616800159737952,0.8488663992907965,0.5057451563222661,0.5188867765934999,0.673959104086587,-0.9595296706003036,-0.6759954725384568,0.7795505298944303,-0.6543167068237926,-0.09775588928188256,-0.7057651405128311,-0.02270771580929234,-0.7006855001026474,0.6493842170982026,0.3113466309981816,-0.6460813524344042,-0.7810459120538069,-0.6125118497801665,
