3:-8.708797132726877:0.47955760208054343,0.5313130100630477,0.9103732454079927,-0.6724512828903577,0.7581826232578055,-0.4150826197136006,0.2128325659469188,-0.6410170154322083,0.5075564210926218,-0.34556178321879827,-0.3043607565590172,-0.5163877674432631,-0.5858308861752333,0.44785513569789287,0.5502906091049216,0.423538165661987,0.14679972228300975,-0.9683229395670367,0.10087835478912721,-0.23916343863378176,0.2945195922802808,-0.5151003682659849,-0.523734464577509,-0.8353756940398955,0.3760246827823559,0.645059366952861,0.718980007990242,0.46647926446438115,0.7082002904806644,-0.29256862933777783,0.5220466627110509,-0.8061075485961653,-0.06841437997812272,-0.5361915009770879,-0.5490020142762682,0.10307395845977292,-0.18732680486189585,-0.6948087232826777,-0.013183206318839022,0.4965734176587472,0.5777424357223498,0.7631069014780145,0.016581571753404883,-0.33218256434756066,0.4801923457828473,-0.672832153968759,0.5020996285729312,0.6838067996859823,0.5631064345108011,-0.4481294225071922,0.972829770184161,-0.10114392468066788,0.6510405346971682,0.05352449930052239,0.21791114487351693,0.0864005556304499,-0.5101945011296662,0.8985947994331309,0.09313073515146963,0.8825340648482133,0.6502627585404144,0.0976292200486195,-0.28782213762723474,-0.6459163827491268,0.32193204912651774,0.444333779660895,-0.5424508037734377,-0.06433382192313457,-0.5555310560575858,0.7772496577223488,-0.7750164474315735,0.7121559399114912,0.7363493767037774,0.8711549830165142,-0.8947808886565722,0.176897326368925,-0.6847429807192769,0.7939748525333218,-0.680789837142883,0.6247065453964951,0.7068201943298376,0.760179636316676,-0.39196080724429705,0.7012116809043547,0.9258297254541643,0.7599288386263925,0.569126516624928,-0.22686209197254942,-0.945181591087935,0.19312802644239713,0.3940146899705629,-0.22836051715859043,-0.742641296378723,-0.3891581135305018,0.37851494617547576,-0.5603806067195459,-0.4843781181433356,-0.888556832910123,-0.8011368447233032,0.9197741284995284,-0.6251077899588511,-0.567321058833332,-0.47454399854486146,-0.9661639132081434,-0.27598743532396924,-0.5016031657041695,0.5405060013933144,0.5267090379713374,-0.38325006795845884,-0.17625417816660138,-0.43402536615278303,0.6829446252407008,0.34004599241814226,0.10365926440017233,-0.6543863726883179,-0.67457884295224,-0.1681374054999174,-0.9169625831390634,0.6069980681243228,0.9636119958088551,-0.6203343642919784,0.3675517092381632,0.9892353775414277,0.037910623520902506,-0.28024875722500947,0.6403791003756755,-0.3422058337727226,0.4468737332726714,-0.5152183080354661,0.8121965666280064,0.6395122483184841,0.199502528118466,-0.27616583589751686,-0.8872372564588256,0.31002075194227063,0.23980043941601814,0.3692440960978199,-0.21324554276295654,0.14956517093694757,-0.7278502339588093,0.12262444477166823,0.49898330887176656,0.04909320655361675,-0.8481047940464079,-0.7586630131284833,0.7241173242559928,0.5452547053755936,0.45878393871307777,0.4970507318206359,-0.7217515334592608,0.26588710443249175,-0.2904939876768869,0.18077305437480387,0.7044187108723088,-0.9029843422516414,0.9717287962771599,-0.2872854809794624,-0.9501489606660454,-0.5608030764637173,-0.4822015942617252,0.7241100211747465,0.18790065403083175,0.6736343403418138,0.4948717492943585,-0.3845750408886801,0.3661806899534459,-0.5376203361631468,-0.44797426433299553,0.9111975968003589,-0.06400891735114696,0.012487780794945223,0.39157196034524694,0.012248944222144712,0.06027654190397431,-0.8490536949373519,0.41558203583084097,0.9846807392260312,0.3760419855544903,-0.7376482894458141,0.34907743795666196,0.4089210881404913,-0.13989084753689035,-0.9254819666378912,-0.8956648272535128,-0.8336093468890055,0.8939532456462499,-0.5989486040357717,-0.05583968142691927,-0.15107339923600926,-0.9746712252063743,0.4479693298044399,-0.6404531055750724,-0.6945778788211899,-0.6826184123157639,-0.8277034406192154,-0.3876369767600296,0.6252067291751905,-0.5164892401071561,0.5527156107197482,-0.3456700529063882,0.5024173330313382,0.872322446392951,1.0019277648904452,0.23078807955825656,0.8633963308480584,-0.5469112542487516,0.5588317198618288,-0.5252853535134374,0.789220452569655,0.39597017115021976,0.02680205480911728,-0.8530106760254967,0.2359172500802496,0.42826791824641897,-0.7820774127582355,-0.1879664991633151,0.353476382728295,-0.9898957925690691,-0.922707139464752,0.505713282300025,-0.8602556936646053,-0.5323865053681237,-0.03798223824554889,0.2931323188754089,0.25459104237904695,0.27112147016872007,-0.8086686930974333,0.06048578336203564,0.5035673208083825,-0.11142366884210077,0.5301646158976036,0.26727399298463633,-0.8245461016535225,0.28400414148831404,-0.465970487001574,0.5648508213741684,0.7087417585767105,0.16420534297020087,-0.468983011897967,-0.550354921679759,-0.9211100391025109,0.5117911612096017,0.27377211953161995,0.30455990488912854,0.2787860309696074,-0.9083729486216091,-0.6145220992859722,0.6440195694406863,0.02194608769873196,0.19079866396384407,0.9053421623064499,-0.9208093439968511,0.3761477788006331,-0.28646200774378006,0.6990003791379483,0.5194146582693367,-0.4484807190113863,0.2401461551814476,-0.06597275527568185,-0.6909550571357929,-0.722626445309105,-0.12252279205968947,-0.2716566554181883,0.10631565549760652,0.5979238195300557,-0.27332586525384467,-0.5148994200837353,-0.7862917981228498,-0.20216558199131365,0.3470224453078093,0.12968418134834434,-0.9694534222319628,-0.4333494593912933,-0.16014940451408394,-0.595906578849928,-0.3559718172168309,0.6460642671127828,-0.9419042447061707,-0.6334494610244888,0.08671750113498604,0.13065605955360363,-0.3291769438186084,-0.7501826364862005,-0.054365613631727656,0.38534551233436404,0.6904419542552869,-0.6567099822851263,-0.7807552738642756,0.5689123681128281,-0.8501726335875738,0.07321498068515553,0.6362807223604201,0.4180177133569879,-0.5795887681483541,0.931539521374878,-0.0996517945100096,-0.6721951714130463,-0.3858707984951006,-0.047072876934467635,-0.4657030015653655,0.7572708718520658,0.01930562004879408,-0.1881752658279287,0.7460301791629665,-0.01390236461641865,-0.9507689043337105,0.3112700915333765,-0.3613657390685272,0.8411236347308204,-0.7990545163965431,-0.9172421235712095,-0.05559358102639522,0.790874478372134,-0.23931075345921457,-0.2278490027331333,-0.9792840730277289,0.6985452271463013,0.06762203964726064,0.8811568676827619,-0.06776814647371862,-0.8898823300098607,-0.2739442869727836,-0.2399454504239161,0.3749005013691499,-0.2704787990926751,0.7191310543238573,0.17538099273088947,0.7463644593252197,-0.24406251211535793,0.800379953106001,-0.43784112340479203,0.005453591105158005,-0.2158950940582386,0.5474112590579171,-0.10430227747373383,-0.3295984585019867,-0.41271908693863174,0.7114538868042949,-0.13626155992217187,-0.212836955033411,0.3986100549434638,0.7725159052024904,-0.48656697717160946,-0.20992570274805078,-0.8703910247850463,0.6637812678293927,-0.9385853894974794,0.05400789984144714,0.7744964943890095,0.23658947515096265,-0.009836726975716739,0.710409227840816,0.7910979254659665,0.2709773883415833,0.7489296899863037,-0.48643469300176523,-0.7209858785367076,-0.27775377240971166,0.6119639642781377,0.4198454963347136,-0.8777572786772222,-0.6339203005194216,-0.13292211480163446,-0.8607715176872803,-0.126287380553348,0.6550194403703848,-0.6273681566290928,0.5659023429355219,0.19638435443863334,-0.2774903699101552,0.87499589897236,-0.19856671466040776,0.08773027841631581,0.05344578216276278,-0.43033442292593765,-0.1248580008402485,0.7454140588583806,0.1850428377547517,0.9695771348713157,-1.0285303451622634,-0.718417832553825,0.18423955778547899,-0.13458418824676133,-0.001303861667063502,0.8901453928672934,-0.7139889852336806,-0.5939496625445778,0.31813644982836337,-0.10617541312826304,0.2685921188190865,0.6618626532876851,0.7288698610246541,-0.9612175997936392,0.43889672075568886,0.4131988236581165,-0.3612713423286592,0.5316068503312006,0.8005850101283576,0.017528164902854443,-0.23062406230487026,-0.5290549922925745,-0.4126939494534034,0.2488461784329487,0.9428784474111196,-0.7403436668208891,-0.6303990642889399,-0.5584840153582153,0.06153765140170024,-0.9895057639927081,-0.8595406425728086,0.9265823286035382,-0.6733073636520357,0.6559238833951451,0.5034391110307841,-0.993771706995991,0.36600285769953034,-0.6510618358938663,-0.15762634763993766,0.1289629036506895,0.44882642766116876,-0.7512276817474739,-0.06863514357607432,0.569231961731667,0.7144926502857307,-0.4875925088345001,0.32343208034813586,-0.9156023020880182,0.813801876139227,-1.027388130145341,-1.0192668667615976,-0.27158079782878874,-0.8083833523377615,0.47609052980476224,-0.891384549104411,-0.6940249063623145,-0.06742302299801353,-0.3989754895714702,0.5979444125177201,0.33094713440391565,0.1309772891836125,0.11810581784757698,0.29262179353604134,-0.3049659715767999,-0.20343960926119473,-0.03634368251005638,-0.8230825205435465,-0.4659503195238256,-0.7790946981421882,0.806423674086211,0.848491530165312,-0.9443251455748758,0.9479410879029825,-0.024119288094097243,-0.39226141916286594,-0.188603418217179,-0.6254483729227808,0.06978278972228455,-0.2454457401300282,0.4827872965452236,-0.7300973297330059,-0.13863304981969238,-1.000635100948588,-0.038919365061307394,0.827815790259021,-0.3940695930339865,-0.27488049741142895,-0.8603488286374286,-0.1254690928742916,0.3654378501521658,-0.20874946459332133,-0.6490173021519201,-0.16114835954482806,-0.34712227617593794,-0.4295460551027144,0.9168614783467435,0.22773776243072666,-0.9246674497945544,0.3925116453291232,0.11776533870460294,-0.7163411727486374,0.9347500412343189,0.2970959805465932,0.5912271441304718,-0.4674560904728215,0.9370444683977889,0.5405954436372151,0.7239153009736,-0.5623352542076646,-0.048097464119212,0.15960720484320426,0.747061122422602,0.2149753344929362,-0.3761645972864059,-0.13321332527887184,0.5307970510756556,0.6709550685187216,0.19375644064953743,-0.3083869599736447,0.2814242917696361,0.8764403092854834,0.7894877070279578,-0.5471052247624437,-0.02300600518904127,-0.33300853523772617,-0.41858267703885765,0.7884788989913344,-0.6572957299054627,0.46695248332149975,-0.6462452543239066,-0.37317350513301967,-0.3500847960997547,0.7398968696765945,-0.07108618311338519,0.019761866018924833,0.2595788102420815,-0.8773544052127232,-0.31334077740323796,0.2905480758194669,0.4780747197837378,-0.9001791876375885,0.582459000343049,0.661186672558257,-0.5018039642987301,-0.03817428726160208,0.02924216403696816,-0.722656974661348,0.14510561393039487,-0.38942663958478135,0.621826151990918,-0.13672171252633128,0.4546634295583707,-0.38834323249796965,-0.20005693489118404,-0.17124059667691685,-0.14089524409298085,0.38702648248077726,0.6041413974478789,0.28431694372633676,-0.4367413076413568,-0.6772231148223814,-0.7394338506059431,0.06026620920810861,-0.6538163950580667,0.40164323805044894,-0.7704611673157955,-0.4523664964812713,0.04188201499486048,0.3867064082193742,-0.8896838394787033,-0.7169139154884233,0.11180325416529385,-0.9044999687448481,-0.9343025022673698,-0.9441098156883878,-0.6797120099426185,-0.5733356431791021,0.5131003593375623,-0.8424937955434276,-0.5485480969246995,-0.07907520942246796,0.7713514940883097,-0.8146904982343879,-0.31531373572981614,-0.46616933153338197,0.13707036022282254,0.6447700068089136,0.5356800897093358,0.716743633237697,0.22401745900071748,-0.9010419205035867,-0.635836538000588,0.4225168806722576,-0.7417889341597972,0.12630455684245703,-0.7631279491842429,-1.0471996445278522,0.12853404298421447,-0.2201341069157118,0.08819996692386677,-0.935361160166486,-0.9427023500491081,-0.18974709893573763,-0.6020315128022341,-0.7114213471025305,0.9253593902157954,-0.8521568215330134,0.30205716136776395,-0.4221820133873231,-0.9885876421746753,-0.9124179375267102,-0.5334930055325515,0.1697978455845607,0.02902784127003817,-0.3787757216389891,-0.9007960111312553,-0.7836810487806242,0.7924826421731891,-0.8027950008899047,-0.06174764246699365,-0.32656023506965803,-0.4042160721983986,0.05021384307266574,-0.7462509035548244,-0.028930535661058392,0.5887808927792125,0.850919258995004,-0.8404077602458123,-0.9643381665193658,-0.05644343110083176,0.48381177308545903,-0.5671947467059123,-0.21015418272912448,-0.7215642631678973,0.5883804929268268,0.46158483232136766,0.44887304508761905,-0.8090238117330868,-0.010713619126084139,-0.47952154537587727,0.7752925923271096,-0.08236155648546736,0.6361122155363824,-0.5826785995826992,0.17324324688458406,-0.02639629027604453,0.16538711441897042,0.6586942773990339,-0.5852435240673156,-0.00749455158997268,0.9782933614010402,-0.7433061232514904,-0.643144268868801,0.8597616349512743,-0.9470379577663182,-1.0064268700910168,-0.0774209640745334,-0.2393862153198198,0.9857654255973196,0.4594872145896872,-0.5003242804043585,0.6932119359659583,-0.17889131153091287,0.4139383456736394,0.2678168681295625,0.7578757832982361,0.06012432810751167,0.4315624312827,0.43510709554263916,0.35699887490952537,-0.23753312613497976,0.07280967154461991,0.5259876875663877,-0.9270586002839524,-0.8187071483078503,-0.2969389518019966,0.7769256777213562,-0.40214246046747193,-0.8977733780083667,-0.8360646003811862,0.4142152570995533,0.6590637679148794,0.7967966354420272,0.4791607623926826,0.6075854135457541,-0.5286805435549923,-0.3284656159922719,0.10817142476273019,0.38078907795748007,-0.8010588663726935,0.4851252072990486,-0.16462418078125296,0.6393176376902847,-0.9417125654726486,-0.2609896894974606,0.5180573900911255,0.13827618595106742,-0.19130074517247728,-0.20150063156409778,-0.2983552857108959,0.6069380803039568,-0.34129392276879905,-0.6768189286840145,-0.7756061675262368,-0.07999023149952972,-0.8328582392792344,-0.10851008514018838,-0.8589008579815428,-0.05983153085905191,0.9131352737393703,0.9356103933623311,-0.8936464502100663,0.6612426256770301,-0.8334755437040716,-0.9144139611808019,0.25176690505331306,-0.015448189541677447,-0.7478865038579048,0.4668947169838959,-0.836681107713522,0.04053293190441121,-0.41286968516990763,-0.8268151138297317,0.18952877188409312,-0.5406352044132555,0.37236597283926826,0.9256158546428345,-0.07169733886703489,0.14900996941996086,-0.4471433520575682,-0.22835063555019605,-0.7420821977982052,0.9569717266330687,0.6528237878820715,-0.09869357738755466,0.9115708233662706,0.5243213753853495,-0.3746756824539459,0.29029204291183575,0.8381943253253596,-0.2852351034776273,-0.32692395169399524,-0.11736642265285645,-0.5444101601316476,0.13557493061675574,0.3525667684494099,0.732370437877603,0.3240159025161358,-0.8326827907935321,0.7568469292938838,-0.8569917347382452,-0.3537402480031604,-0.22834998910941356,-0.067352736013637,-0.2980404162654593,-0.5389631739138026,-0.34792593402005345,0.39865806044756585,-0.21367191369120714,-5.5524135871491784E-5,-0.05962202076780156,-0.3292916876494638,-0.2873068703770808,0.3232961780057219,-0.3686596313441098,-0.7587818686327383,-0.7443680735924572,0.621056936582262,-0.3287271105079891,-0.974932603623343,-0.725003295210962,0.4707490244058202,-0.9087644966286914,-0.8169717456505665,-0.6678257004156634,-0.3363254593903313,0.5285930879247445,0.021173378020608258,-0.9648817095037279,0.47057958545736667,-0.9893416244181155,-0.33995917322440994,-0.5885312688152676,0.09095311401883395,-0.5480167077239504,-0.42620167589014085,0.09533899359472633,0.25342583340931785,0.05053594631205699,-0.7443539029370667,-0.4986174699953285,0.10921473755762853,0.2996181035279499,0.6835399732943135,-0.9598784463193082,0.6110383844904117,-0.8566434803532003,0.42507397804370145,0.5629640849480718,-0.8731185808913633,0.5782777737073146,0.0185643464454488,0.708926481429244,-0.8938024927838917,-0.0634703869162958,
2:-37.32197788205161:-0.7779105450133585,-0.13728825796007849,-0.1592670587892704,-0.8853477307629778,0.17557915094115684,0.39357644391715074,0.4631818845093174,-0.5611197975484195,0.9184423891159019,-0.6934216956390562,0.15126531337040405,-0.33888897986257493,0.5764949968754202,0.594165173291061,-0.7439899504359647,-0.41564921582227743,-0.94187773324291,-0.48907160938835803,-0.20068921565838016,0.0265437853010857,-0.9215368399906299,0.9003618908195956,-0.8379097629624781,-0.35738590990980756,-0.2254376980275472,-0.5508483914535203,0.640678672781603,-0.44885728037235784,-0.3245341477059327,0.8678356985247999,0.7808978900020889,0.5428416396980014,0.1603792772215827,-0.24355899993130117,0.17472475055820227,0.06399811933913332,-0.7802797302155902,0.4857363708435617,-0.5224333701015501,-0.6391159258098219,-0.6768378746839582,-0.19568271414226954,-0.17892824954159686,-0.6270098465925444,0.6015465933862115,0.07238749460912858,0.8717533280844256,0.793367197864127,0.5447491821821308,0.291802051695312,0.08543760722348169,0.05874419470661723,-0.5597306043271122,0.790188638160932,0.6841417555086293,-0.6056787883359482,-0.23179137394435667,-0.5076015278881232,0.2748646731481852,0.8034853693133497,-0.04640855984792876,0.07834681655846945,-0.25973099320104764,0.47275712850507234,-0.23087501048540607,-0.04679905566627624,0.5947737773300406,0.9657007380731326,0.8390664332097476,-0.0944273248985832,-0.1473204735840388,-0.07471467826370956,-0.15252242310659228,-0.12744664539903952,-0.802755548781534,0.507128650438057,0.3433773261541209,0.5151107117465441,-0.5174504974457819,0.8025509349805829,-0.2958087050093706,-0.009846098928196975,0.4282584954331543,0.12454214316075807,-0.7974810326191644,-0.14457881175477216,-0.6031263122911947,0.7793293354286994,-0.9455458093635186,0.6457153511081599,0.7032940885742266,-0.22207070823376313,0.7842225610081994,1.1022309199010443,1.1054525427840707,0.9601224267380905,0.6566174561705741,0.8925807293076615,-0.30964758777206464,0.23566344571971937,-0.20803149761705222,-2.077129091523198,-0.3637327131813737,-1.6861326471886726,-1.1460612054120458,-0.9421860906476873,-0.21067525063027773,0.44914809562958447,-0.0970784155348515,-0.49111501718528816,-0.06238180793225604,0.8961504612907476,-0.12763811195901376,0.9668060844383018,0.6028148450113995,-0.2890181878777451,-0.6706000911748508,0.3974648271146802,0.8570880268162906,0.8426516452383923,1.1996174906314485,1.9263868820455863,1.8393269515751975,1.7285612808631825,1.4363152678893845,2.170393229874213,0.5383658721866679,1.4514782084950528,2.7100560474378548,0.4147412819975068,0.6907553449316924,-0.9583734822486007,-0.20865942215930822,-0.7069308043693853,-1.7211748412648922,-0.8010899197448796,-0.6602649872778947,0.7000208385292057,-0.8637086601187388,0.8785082085248643,-0.06488657666950948,0.7912427539197548,0.16573925534308495,0.9324698514492038,0.6326518879428726,0.35581119089133817,-0.3299050989038702,0.1075304411867612,0.9336288470050667,1.8358779190111159,1.8277763332517758,2.0687236239830993,0.6659537400079864,2.1464807784996047,2.3505648480536854,1.541493767305103,2.5734280209213836,1.0339628474056233,0.565782140430898,1.0915181532987723,-0.1344797631266817,-1.1821948448367476,-0.09024704354994172,-0.8798716893898829,0.08776367347364192,0.4698166734389016,0.5581634264479086,-0.19869678784915187,0.9690779508227549,0.15764429488153572,0.8528839950934968,-0.6122519498914853,0.6316730391956923,-0.5971481254688096,1.2120171158378676,1.2028452510214427,-0.07628337832507517,0.5818430907815719,-0.13418149155546819,0.9496878802278084,-0.38283109757539985,0.1701773835473301,0.9666165681182474,0.1676718061605378,1.2640200903019803,0.6578179612743583,0.5696430401670324,-0.9316615448731025,-0.7270576729282872,-0.7775473929518497,-0.9750466308304996,0.22197151052525835,-0.6069552153601434,-0.36906633180198,0.3446158682012167,-0.2368941117506007,0.9016302487822941,-0.6180286700540965,0.28095332259839,-0.4267618214123253,0.5411149313858102,-0.617658454437131,0.4748281094804086,0.0530090623628767,0.9639861188728466,0.7290717684203969,0.9008855003850716,1.675297690251722,0.8211453972023008,0.38318797761369006,0.47345761264829606,-0.15825941189986134,-0.4323619856672294,-0.7748910567066312,0.0720929179984335,-0.15704495557284295,-0.0998326477486114,0.2867201578117996,0.16851578355905633,-1.1377209409247813,-1.0372333026050993,-1.0137243205278044,-0.03382338361340239,0.899393663973185,0.13687510086278598,-0.39183665130017686,0.41745144641965826,0.6963667866997998,-0.19020478693284448,0.0010007665285949009,-0.12749098758559482,-0.03629407780947415,1.0731202868997218,0.013888331484147762,1.554749878074762,0.2721606915285619,0.3690942670999482,-0.07562508868919014,1.653852694731384,0.4067478614966525,0.4104575708613319,-0.18858490504367345,-0.5494429182175352,-0.4780048798985606,-0.090644950430114,-1.1816943688600043,0.13703667481856327,-0.5610981274031227,-0.8944587194138249,0.46733346551477,-0.7233164680468169,-0.6952587967461216,0.2433605840095145,0.6634972102884154,-0.4318223881756293,0.6440499151273027,0.10820118900989245,1.1686900730007241,0.4208109118471381,-0.12365778180473616,-0.3426650043698061,-0.6280213878853799,1.107670331851615,-0.7349947314304358,-0.5703336586390957,-0.6652808554831242,-0.9835075065804608,-0.3898603107696779,0.9729880910589308,1.0660766218502977,-0.5050197153317847,-0.815576285629845,-0.7248131639511719,-0.3747266428312153,-0.3674061840687408,-0.5828926558837482,0.09405780565720068,-0.3549087689019217,-0.8440984390508527,0.46237291041761985,-0.31848128326039604,-0.11845516518899675,-0.531184892965341,-0.18527728439909738,-0.25702751250106914,-0.26707174986014043,-0.9058555397949998,-1.8775560238744113,-0.9207037779424125,-1.2464210945058867,-0.6802896031281782,-1.3100158956800374,-2.378613684875685,-2.1061199671612627,-1.3676085513842442,-0.5035909095333014,0.1273924165578359,1.0822939447285183,0.3224280589740797,0.8610531785963983,-0.41990489794807795,-0.14768487662359647,-0.6119668916010054,-0.5238411750721773,-0.138422871817644,0.5859545288497643,-0.7580153884659011,-0.952994719836829,-0.6428492434769082,-0.780902613415252,0.005656731908155258,0.7977131600799677,0.4554408298016866,-1.59665234203107,-2.6531764632027075,-3.7944118538811558,-2.924726062074293,-2.9090920324369356,-3.5628741837166786,-3.6511511325878563,-3.1571185179651216,-4.503977909502191,-3.7201896440433835,-1.8389955163020981,-0.36327857464093866,0.2572033475803823,0.032199684778696364,0.5626607786717709,0.39228336933999497,-0.7791343228612796,-1.2396918983694558,-1.2670694972083285,-0.20729020477591797,-0.31337403622008525,0.14114392839542375,0.32458078446925354,0.28141282274499324,0.1643192433081946,-0.3770539515811718,0.8692591063997119,-1.0906915852138943,-1.987976483546679,-4.041001836756795,-4.007805516939114,-4.468930564676798,-4.464455385126563,-4.347501892790085,-3.8461414838135086,-3.833509016458587,-4.362579425622118,-2.9501451080062275,-3.0018183680527954,-1.4111582099540976,-1.2544678472389559,0.2484350502648929,-0.19824685161509453,-0.2595939692647327,0.01332653376697645,-2.642468264793731,-2.178410014250058,-0.32676919687376965,-0.24328471877111316,0.32441074295919403,-0.9463916598351408,0.2993994475759663,0.6934881118840143,-0.325991877979904,-0.5018472370453952,0.04791607842352654,-2.6292062398460816,-3.8042957690607926,-3.3641199005480256,-4.438791577344553,-3.1295726885070425,-2.863960858881987,-1.0934588191162935,-1.7787424776429537,-1.7826683604791966,-2.1982856413363896,-1.2974380825271545,-2.1992086686404053,-1.2780343032306207,-0.6970708907417908,0.5944818381977084,-0.5354999851687157,-0.8414873871345155,-2.1856012655058006,-2.4184490382043533,-0.21177554401374096,0.1769997376974636,-0.1770850569026886,-0.5421199630523735,0.7185627268728749,-0.968469275144706,0.47117780059653963,-0.7731276371986534,-0.4587770740223787,-2.5442742039680435,-2.730922984117273,-1.9161543847171065,-1.5687505541587277,0.4890818942712638,-0.019497069155022893,1.1123308952956346,0.7094305307051011,1.0515807602843084,0.16732548132808311,-1.1223274996027952,-1.2396784588992837,-1.0165106143429183,-1.3470718959094803,-0.9512846477719297,-1.1306223750488695,-2.2440954493351692,-2.4083774400368454,-1.6445105597163758,-0.7352506659226276,1.0138561740240266,0.2653389975909873,0.2095174934345511,0.7248453705879521,-0.20226222116385342,0.4965839551994544,-0.8288104191425787,-0.7060922658450587,0.04126968086637949,0.02676286470858806,0.35305911504696574,0.9466077970033081,1.3235337413987878,0.7563433421896297,0.25919186476011313,0.8821588253418735,2.3491017808619277,1.35957848084541,0.003247214406183682,-0.15361005344736076,-1.6790179783678187,-0.16373593641262352,-0.9597734822625708,-2.535469228961169,-2.58022382859587,-1.2298709182641852,-0.8010121542244516,-0.41831346160048977,-0.38362025470925604,-0.2566657802647416,-0.444852760519658,-0.28145321954397917,0.2144416571071214,-0.42541825836940456,0.7140812783186337,-0.46155172585515614,0.42032948324013997,2.1923785590996214,0.6738023708959588,1.1790483258858586,0.6655554914976524,1.4849462512594223,1.2763093914196841,1.1365788944349362,1.9825737855532148,1.0469316197255205,0.7873235954003351,0.48156997874882224,0.40361204070142787,0.08113193367406402,-1.1657600088811355,-0.7655928723821379,-0.4514346633975333,-0.38794366646495265,-0.1312646654632907,0.6298865434239077,1.830710804711148,0.2025060240505049,0.6340440851742007,-0.8664178686084931,-0.45223435930994654,-0.8666227276008089,0.44698639780055643,0.012031760578339958,2.0497523211698843,1.865659388921259,0.20497634024445835,1.2995532277521764,0.8274114164157998,0.0989245523019777,1.7403900842993876,0.7890120652213191,1.5859537328786322,1.7663162464517106,1.0161011079181337,1.7962259087186978,0.7928971722036999,-0.5694885642950521,-0.7240464584482662,-0.5150122206507833,0.3976653118711894,0.42453996765227014,1.5565099397313713,2.09839825471797,1.5679990605573495,0.7382483401253054,0.14252590372612212,-0.07706621960063788,0.9723052874955058,-0.3175879270977434,0.21686887937924137,1.6101530576195482,0.7259941197204592,1.8384752054588325,2.2879235040824955,2.0319375507120254,2.054846697870186,1.4819866001755455,1.6023219505425048,2.8005312853154525,2.7080710328564255,1.904575746105214,1.7247454263769153,1.0033987119661094,0.4584353701540516,0.4889849870577054,-0.032309193820048064,0.3883704277244647,1.3088470458419217,1.8938939446431764,1.6706576810416918,1.4848590281682243,1.9374142524238704,0.9841343806323253,0.8204454899315681,-0.30026271346059596,-0.31413187683492194,-0.46267587880334127,0.07673126760506545,1.218499180346651,0.037158256669691345,1.0577180005850337,2.1046638940783073,1.481961124731375,0.6904224457156356,2.159548073373748,2.0080206262766342,2.8732458693247196,1.8610426312091706,0.9049234539588499,0.6569836247161043,-0.025976365729150682,1.2114547846352248,-1.1170309762336248,-0.10989498869319245,-0.11502834000371638,0.5703270911071492,1.625836569081353,2.764565069072359,2.7657344047424113,0.8130166816845826,1.0246183683346382,0.32465459316676964,0.5175857023785133,0.5381100205679972,0.7728696509167491,-0.06934889109538281,0.7479627431237703,1.2488688762172337,-0.11182359025190557,1.4367949727563407,0.2097055186541546,1.3763702038997607,0.12055538744597215,2.2997022844640127,0.773832417977741,-0.0765365858823198,-0.15139254272419841,0.6751260233254884,-0.2858755878277609,-0.5089212845043333,1.1029240742754656,1.8218438477078367,0.9277718440020074,0.404647460886565,2.410243903106997,1.873576330037033,2.3238384466700306,0.8226315776611726,0.13715667553804023,-0.7183495115160871,0.45525989383774207,0.48375591516932015,-0.02168344326799925,0.1614987982879363,0.3425614353858735,0.4014532593189558,0.3812761162533237,0.30418464208238855,0.6768646460813464,1.478169255466645,-0.37680046989162447,0.41510298016735053,0.5186870851906938,-0.10470906254878883,-1.4561837861027216,-0.7963673426528964,-0.6083282946608504,0.7268896174907651,-0.5172082821436508,1.122929115778372,1.783988930929403,1.6607091104835223,2.1675656704914164,1.832606440757247,1.9053339726311431,0.8199405890820307,0.9252385680426768,-0.07532842888130142,-0.4597216768511632,-0.059564784051625394,-0.2158774006165556,-0.15583110895057586,0.49093119946591696,1.4799298476563159,0.24407743476175683,0.7972036829799535,0.0268528268041629,0.709385783218336,0.7585713465737943,1.4324563083804855,0.41337057594732235,-0.7460291864594413,-0.5975470538498727,-0.42029703528263457,-1.2473873871733345,0.10350531678020532,1.4705992159949992,1.081187082485548,0.9434996856059633,1.9106264354895506,1.3095728252692205,0.03608816256253347,-0.4958163466637281,0.7566398512526343,0.14343405783337457,-0.3633376916717719,-0.8977660427261174,0.5732514138077223,-0.9148120010451349,-0.6311751047873001,0.46562177868501575,-0.3055033470979449,-0.31442125918156244,-0.4954311146983194,-0.8048162188092916,-1.0784438675839831,-0.9881598765842463,-1.1830958782895453,-1.4590094823355106,-0.9570584598748182,-0.9663544526708342,-0.6051477955090997,-1.7620056352591804,-0.937024073646171,0.923011614506541,1.5162112772132603,0.5384022737839058,-0.1381235713641287,1.1809394945986103,0.21508510536706543,0.5844870351688547,0.9019440966024485,-0.24048706674552714,-0.5806837011445727,-0.6089137444114194,-0.8344840951003851,0.39076752819782706,0.355054073562541,-0.640958029904209,0.2853163522800901,-0.7118179526552041,-2.04021527641516,-1.6580813217689838,-1.5219153810151085,-1.2780383839415912,-1.9803571564509543,-0.5584842994950152,-1.6021439766768337,-0.9674174486004038,-0.9003898712420302,-1.3005578078349718,0.07779187842635066,-1.0345344002451369,-0.955898632908125,0.5326823672177271,0.336594451118367,-0.8108304870296582,0.4753303642814306,-0.09321599635982654,0.8523951919761241,0.27028807210560646,-0.4657481569428923,-0.7728135918351311,0.05674715719575385,-0.6756514216210086,0.4022743074151821,-1.0636911150916086,-0.3581048681394388,0.10618385566494662,0.22202904564321294,-0.5401925406680449,-1.870547169557265,-0.7882634029937667,-1.6672993640666773,0.03514997579418989,-1.3175187457873518,0.07108975908841013,-1.1035927151556297,-1.2286596624832167,-0.6991847446075636,-0.7594876909928261,-1.1318084319793653,0.0899239283707187,0.16698787571997784,0.6156737038807745,0.602537307040268,0.21196270254243244,-0.06809232233940025,0.4420723849577307,-0.9107055623328661,-0.43104267912080085,0.13884456521811006,-0.4721073383891907,-0.1332508733804861,0.4111861870583931,0.09622374966448735,-0.6779714992576322,-0.233931115376315,0.7040027897690178,0.6584240422079408,-0.8903004994053895,-0.846601499245565,-0.12334599099296929,-0.24241649676594973,0.07800869386142151,-0.4401431532603484,-0.4030218707742871,-1.0932076381833034,0.22410311269569258,-0.9572348164163546,-0.7346635927080926,-0.237484790175485,0.9044362497575502,0.9325750229035611,0.19335703850707509,0.2354165460558686,0.6094869515646189,0.3328679346309662,0.1907996779150809,0.598610689788801,0.6194146844665824,-0.07475619684366652,0.07060799420289876,-0.47999203497840137,-0.8738588598644538,-0.6714838167490519,-0.7373018228894384,0.5599737718274598,0.7465840654420864,0.33513778397002497,-0.43340557000984,0.4993001812018694,-0.9067805976862584,0.5528963478198848,-0.8542707436279713,0.024203271934804184,-0.8329013073601312,0.6705214375844334,0.24430264714576364,-0.9690105223791898,-0.8313542307983377,0.1067842543648514,0.9141146986899114,0.5101686594152404,0.534156492078798,0.15618973360712007,
1:-103.56220734497904:-0.36411899263362857,-0.8839623058413331,0.7680654631246706,-0.07869681478395463,-0.24373792557645757,0.8842911306439813,-0.6447948864869641,0.8802324604239526,0.2870063996071299,-0.5763131747402166,0.13692383441706224,-0.8002013612022247,0.5540161540398079,-0.9444499700707827,-0.2210049821261264,0.9091147503297523,-0.6493973432165727,0.3674282581604664,0.6441278108569108,0.9295884542074437,0.08723875674409776,-0.8216613991689063,-0.9485727255375556,-0.5884575927704185,-0.2394655354303814,-0.2656132908369522,-0.5241637718261052,0.12142750019849768,0.7510189838419254,0.6721716908951854,0.8973362623175778,-0.06244942273185061,0.8128265678069069,0.4065323865028716,-0.980548502829512,0.03763023816802779,-0.21560009255169055,0.030830445512033632,-0.6011359304530459,-0.8006164919465578,-0.47215878380552023,0.5621069210402194,-0.3346808693838883,-0.20777030819544184,0.39639579273115066,-0.5799106694492903,-0.06255931881221138,-0.5508411299083561,-0.8736536320366671,0.3981667793991761,-0.6272806469022425,0.36494980045805003,-0.5108586845741909,0.06609196746047696,-0.7835471519596371,0.891322417401591,0.22103817140208815,-0.46169221065186683,-0.7186333532078482,-0.04563782434004815,0.8473797376085817,-0.15156024726019224,0.8411639325247212,0.16895525482591084,0.8107216413991496,-0.23072428122216465,-0.9836743425123032,-0.2465447930344034,-0.8865541779228377,-0.9607057003472744,-0.4016867094063328,-0.2700757306722012,-0.08390742814803964,0.41278996002377605,-0.09348317012002313,-0.011760412894947876,0.4418470096156626,0.41064836840706226,0.7508466515982753,-0.7565752248946919,0.6990605783226863,-0.4292133977962428,-0.877115841166215,-0.9962102356109308,0.15937650120052993,-0.7955350659663527,-0.19213316938289404,0.2115799293198184,0.04399952256116091,0.11571767157733771,-0.6767688454722777,0.8886040483046167,0.05947149726837601,-0.9771934605998762,-1.138985312370877,-0.22605693991583425,-1.3166415200032036,-0.18088920738553935,-0.23671689282642944,0.2960508983269335,-0.6273014853086739,-1.4715447252578495,-0.2264648389504802,0.31230284009904274,0.6017658452671266,-0.8952893667006865,0.5239481285566531,0.18292803433985455,0.10864081204894752,-0.5404946328677425,-0.11352152705877688,0.7669621343383581,0.892826123377791,0.49572380920871173,0.6443599324823821,0.3344460282663666,-0.5381731354685829,0.39635781118840985,0.11845212965336033,-0.3315999752284981,-1.582210508162414,-0.6521514814363243,-1.483502156195654,0.12256342314713373,1.3394108705820658,0.44720969013419504,-0.5325423932141846,0.005959004037717812,0.10334071102347649,0.10652264731013107,0.7381236949712741,0.023004326663750088,1.5453074785794576,1.9569546064213272,0.8960477003298756,-0.1407112073165055,0.6207212950756416,-0.7832279085803072,0.5303059212997071,0.7047744043064956,-0.11125127168596127,0.7259434117585977,0.017058674819695484,0.11179361191179281,-0.7449387598788558,0.3410606430909138,-1.0833401756328493,-0.478810004871072,-1.3106722861841689,-2.586919981617479,-2.0864993250299615,0.3010495373481122,0.6951526412914347,1.573283614139123,0.05374822981420662,-0.7182884160306078,-0.9577152039969429,-0.6254541733070027,-0.5669792429731193,1.4197457797605735,2.8720783442364026,3.554128859857468,1.2649068775147012,0.9303021865191368,-0.2578125650510544,-0.18803758239997137,0.566056441409486,0.2723323359429196,-0.6630061440964898,-0.36465413555874604,0.9999101682309721,0.7283832841527668,0.7368635810752076,0.754429098151272,-0.9765489089181021,-0.5740004268104056,-0.8638933594555838,-3.1662181604954864,-2.3492114161794038,-2.287226291166953,-0.2189394507506331,0.25897512579966003,-1.4208623588927158,-1.8551674158294182,-1.2375584527610208,-1.4915832845606993,-0.7935859947800983,1.7489581582390252,1.2926124634244172,1.7060021265723897,-0.24164873974175582,-1.0479508177785652,-0.9534666962252113,-1.2974954433770967,-0.18483290655207626,-0.0820643898528497,0.6889497794404601,0.08578601900097259,-0.4662470187382033,-0.7822248703896726,0.12550872106974575,-0.2508615283393946,-0.6173812248363547,-2.0159005136544197,-1.6950688327987293,-3.0466351591919274,-3.081869356774814,-2.4582918829058293,-1.5373035834101065,0.6000181718638147,-1.7408029252355586,-2.0215969547206316,-2.3845278209765497,-1.0112610623836518,-1.0903413987526684,1.308278326921378,0.9130349649460422,0.16684222573545768,-0.5117006300246905,-0.20222577300827663,-1.0924538066599927,-0.42091344081675586,0.44480283876147164,-0.31171647811973563,-0.8153287420828546,0.9816637240637072,-0.2210338617602917,0.32188729379327247,-0.08857143872529535,-0.09182388855456243,-0.561184396916205,-0.9462652160107846,-2.666929615592436,-2.6433881985084726,-2.447499012121248,-3.797189247603247,-1.6277763349165844,-0.5485364275247478,0.6613633802472623,-0.4810450411838379,-0.3102458274121741,-0.12042414934666615,1.7836422878267963,0.3841520993053512,-1.0078571000826897,-0.2165369921145328,-1.4080498231551113,-1.3199070810027103,-0.9553818900633076,-0.5321375086597168,0.27193274587654953,-0.9879179843458701,-0.18495475702367095,0.5762244558572085,-0.5212249268000659,-0.831883666003868,0.37087248966979713,-0.8967546988884554,-0.12988771860263124,-1.4631753250582262,-0.773233059912361,-1.6854902877565183,-2.2087756540372427,-2.725014161343946,-2.292607056469385,0.9700277930521295,3.1046347784807278,2.0328635728112068,2.699336117774132,1.0345639863139058,0.9114630045765472,-1.7636347959876286,-1.7878576856105592,-1.5420851110877167,-1.586815031654639,-1.7909534939574694,-0.5689357037078497,-0.32684021693161186,0.9480947103335872,-0.52184773130002,0.26947003408562,0.12775839533912597,-0.730899940880228,0.3853882219392878,-0.9273312263222645,0.4699674398819533,-0.3588343078093894,-0.48571570479528126,-1.0972152104422876,-1.576189399115687,-2.173359442239236,-1.4019000953538736,-1.879481387938226,0.638797111889407,5.593826678137569,6.154476003014158,2.986370884048776,0.6092481342207756,-1.181629998519542,-1.118043456937967,-0.5144400714231818,-1.581522827105721,-0.7207030489318806,-0.481555587671753,-1.2380716179492393,-0.1514471613652673,-0.5404983301505798,-0.4010017087384243,0.21053980845240883,-0.9235785016256526,-0.18152089383066178,0.08796841608963048,0.46555917365188276,0.19008810908255042,0.5603224839199658,-0.6641054931322835,-1.2455978384365989,-0.2552075074484523,-1.7311088813461546,-2.7211115410569975,-2.6423775871631796,0.33400347743360165,8.13582029729364,8.054802247903778,3.5088129921345876,-1.2779236555369309,-1.4609660395298318,-0.9903094928695323,-1.7470334239701117,-0.5129195007582179,0.495296919527069,-0.7510788424499495,0.24777965927580467,-0.31185153157137574,0.8199132110050983,0.5127771451046834,-0.3042579204444369,-0.9405604731342465,-0.6836694589554738,0.23051113808023027,-0.8854597265276404,-0.02960723277925829,-0.9413138217820876,-0.36163806604081844,-0.6595553439409132,-0.4603730910708929,-2.2969860811621174,-2.1527011956380626,-2.2287728632992585,1.7457674281418312,10.281241882227242,9.347306899446753,1.1516490592101825,-2.1924978766351937,-0.9776574837349785,-1.4706944764915442,-0.8557186399185404,-0.08523345013761605,0.5618901195817761,-0.2600939539204755,-0.25373166812476733,0.06276052918617112,-0.9572644726600896,-0.4131162741847134,0.7321906089802289,-0.7181207871927077,-0.8499190331642709,0.25580776864868854,-0.04682507952306155,-0.806830697488,0.7325788016755314,-0.7268461553809703,-1.5399598527284581,-1.6149121107145132,-1.1904711982229503,-3.2009814615005316,-2.9900293233544537,3.301460140298412,13.25537600579213,6.773894947200017,0.19453840161849575,-1.9353843647448246,-2.0471571097791506,-1.9609741199672979,-0.5424197687212338,0.23186666893736796,-0.5241061174195203,0.10424175088762704,0.1247435366066664,-0.5578215183434543,0.5844946761937283,0.005345212582501979,0.803932547304145,0.9894069302233917,-0.37855866645931036,-0.9559804326749868,0.5950551161132785,-0.15739528206835607,-0.5714887574312453,-0.5589178657842746,-0.30616524517359,-0.7651561993807116,-2.1344116159296465,-3.506512364619252,-1.821136339451158,5.452590063981582,14.759740675984002,4.553812243777389,-2.2127191488454434,-2.7637376764495274,-1.4018236788752751,-1.2827388184928568,-1.2716105485639957,-0.740390947277181,-0.4238238714774708,-0.3883827995708133,-0.44994805565880364,-0.120336505267671,-0.29176917418725645,0.5676032253209173,-0.24761579466751482,-0.06255385296625504,0.24928977256666954,0.29258084570663423,-0.8233768937940037,-0.9129060751715592,-1.2846642673067883,-0.9296881410295182,-1.662796067067007,-0.6254246359910486,-2.651219283219444,-1.7596727112804633,-1.751421483142766,7.7199948393100115,12.059969718503805,2.222601598528903,-2.9368686115353873,-2.7535830863409343,-1.1677635741193588,-0.8396978797297625,-1.5294425943183472,0.11590763948614922,0.2590925413689308,0.014165656329236215,-0.3431224868109759,0.534985536294821,0.6656997962335143,-0.023786876800674227,-0.3810350876040991,-0.8644713210407315,0.5914836136538585,-0.8554249277213851,0.3989513263546445,0.2629265066227227,-0.7657306683068498,0.1101437818306172,-1.991074307958223,-1.262240067685539,-2.77913351554546,-1.7596031095730804,-0.4535260480871733,8.269399255551168,9.539402263257124,1.2782307117221898,-3.5398759935381308,-2.939731435947433,-2.0461682530971763,-1.289823158558094,-1.2606040057984813,-0.5351359962234733,-0.4729992287133656,0.4559002554021355,-0.5640858396881421,0.5052540088230054,0.011954523249828123,0.16637654615012162,0.975014609834284,0.20272492699320874,-0.40933748973736367,0.03461743549201019,-0.8628563793744175,-0.14116879544190786,0.04421085903158701,-0.5798455186629438,-0.6722030074357932,-1.6665645167728675,-2.12684475713198,-1.3914736398647516,2.4986410448565963,6.744280570566288,5.870428233996963,-0.2723154040144788,-1.9509334622348444,-2.1047430250411745,-2.5375379869269143,-1.7625041263493022,-1.6126220711047825,4.573456897571145E-4,0.3890391110340761,-0.6765563552947655,-0.10957217075904795,0.25974326297395395,-0.8847707035721318,-0.30688170870433273,0.8675961495646793,-0.9439856442678621,0.2074779425275903,0.7808908382463292,-0.47517813764300054,-0.7924805069064493,-1.0659708311761515,-1.2765604135065685,-1.707287546774823,-0.9757893194694073,-0.7760712967718247,0.3731522417845559,1.8249990214440421,4.340569286386628,3.0687129809873492,-0.3563054004801084,-3.144043709875568,-2.6113357877269463,-1.389964138465627,-2.0049256007661858,-1.706493108311933,-1.7401045957084018,-0.8216855962023939,-0.5737322590030078,-1.4446862834163765,0.13765242038121853,0.853174210164544,0.8423243259406921,0.8007994556992257,0.21010116082975006,-0.4465977279174797,-0.9975003686985292,-0.6776359995238065,-0.8854361329024115,-1.2551485229020223,-2.7296415160245027,-1.8791108670136036,-1.3250182488800317,0.391950970286872,1.3963924150694138,1.4305042656409541,2.251364062025921,1.6444089460978917,-0.7706262563928269,-0.47497496234526965,-0.7739788007711762,-2.518796180366134,-2.288444672385277,-0.6008369517319861,-1.4954093026369935,-0.29405706080869365,-1.679892159270099,0.4402249927708541,0.5548362246708692,0.12389132463351778,0.9695699261482205,0.15067880688591395,-0.28868196914790434,0.8575365034696073,-0.21443012373818518,-0.44641324869625576,-0.5477996353313388,-0.5314670287689782,-0.9110531441693127,-1.5188631017407535,-1.1524712631366087,-0.7468612017512007,-0.4558669644139479,0.32754855279235073,-0.9410222050587023,-0.1511930252017494,-0.009606430633515331,-0.2643034844058555,-0.721473850697749,-1.9224176686270196,-1.8928461964230936,-1.7982948518461432,-2.321076040183684,-1.5541912138711722,-0.004129043245499006,-0.9666718962831464,0.8064784876791082,-0.022447593372224853,-0.40334484930304815,-0.9220273805492655,-0.34009690538338,0.5115725577255331,-0.8371678422148296,-0.09184427474455685,-0.6250401291189623,-0.8601443225808143,0.5131194969663706,0.21649640964991138,0.4262099294127711,-0.44641581874178116,-0.46097860178641314,-2.0508509262183403,-1.3546848560477533,0.08696308304059004,2.0743534746636034,0.6162365854715774,-0.4637043329455498,-0.5934611327007017,-2.460444691167989,-1.6799244391172208,-1.9976307186744044,-0.41402417628920607,-0.06442859533318278,-0.5024313292957394,0.5658277214562654,-0.09938025233047569,0.0076759631189204924,-0.6437321017567361,-0.6059243813573707,0.6708244662927726,-0.8754518713481478,-0.7843244166706844,1.2905044579286942,0.816196035888049,1.323637544448379,0.3158094329209749,0.10990779567935736,-1.6958733459025168,-1.6974600269324216,-2.145260072648848,-2.077080700412381,-0.18026354741098555,2.5376259879432794,2.48977750044316,1.7512919387539838,-0.5184762233362776,-0.16915297707613514,-0.8208809258859708,-1.7498608187111828,0.1406132124259095,-0.8674319093425809,0.5777817249427826,-0.662538784313949,-0.8938877142615332,-0.5123866212946258,-0.42571020839247287,-0.2840241082790833,0.5866656488608192,0.15548635841113465,-0.11519262365355736,0.9426612135051828,2.565477101080737,2.37804028819398,0.5496056759457818,0.19072547632457867,-1.2055478440114595,-0.9961545066593445,-1.410832619232955,-0.7343656710193222,0.7091750355045415,1.9933592930123045,3.330964852533825,1.9319141546335694,0.016845314342323,0.372142048158138,-1.0798364444155049,-0.8212653726193269,0.7214544548609328,0.31722446655410114,-0.9983328789736587,-0.5238341893379602,-0.10100179194751521,-0.06570255525522883,0.8995100381046786,-0.9663239433324253,0.1260067993595937,0.6217243751490475,-0.8104804989242244,-0.04645937660513754,0.5148670628203663,0.4375387062780743,0.3403894156935152,-1.5895429434165103,-2.360451184991823,-1.136609361967249,-0.9099942180101533,-1.6504066230065875,-0.4511535055518735,-1.2859567283671194,-0.1559795981441082,0.29914696877567715,0.6835553784901973,0.959514294675108,0.21149220819670314,0.5661180872797663,-0.7260592804248123,-0.5141749360411714,-0.3854189468193706,-0.5295221067202288,0.2345400538179222,0.3494905643148396,-0.9937144443915709,-0.024890900029391316,-0.9211953655813339,0.6692055205464873,-0.6392827079739628,0.7208486760554207,-0.2268949173906253,-0.13217431145265712,-0.2872560607715807,0.23857260787357285,-1.1382008570526205,-1.8064412901790754,-0.8527021383706523,-1.422417959283566,-1.0309041670824763,-0.8358858194453982,0.1649908197771908,-0.9028611624960674,-0.009600367403208888,-0.35998440695981115,-0.28446783897949823,-0.7055421583763479,-0.5033180177764996,-0.8344618594158253,-0.2571693592629313,0.393360307390614,0.7941506805041285,0.6781647995446789,0.8752525177947375,-0.1010963476994644,-0.3806106229982553,0.7011091086171655,-0.35414977305873596,0.9737780749556082,0.9108207828701989,0.9381989582052599,0.647191956629922,-0.06645186564297441,0.5420625309881835,0.07361347682972239,-0.9055794470945108,0.7663769025225415,0.29035630433967385,0.2786561360668785,0.7010438903702133,0.4933324197634825,0.20180450934365654,0.9010989148196903,0.6306261698831658,0.09617960301007934,0.8936795005582677,0.8201482824156165,-0.9227235515933774,-0.44217880823399924,-0.29318061402710205,0.6152725144743547,-0.038281454635394674,0.7837534317892689,0.6099165070814851,0.7815174402377945,0.4990075920463723,0.9575310258162072,0.4426965201761534,-0.9529415049182539,-0.19655753456190425,0.9010309570229916,-0.30730436373937753,-0.7435912357724206,-0.17468128637068095,-0.059437317950232285,0.24863474733626667,-0.0898908289364151,0.4489008872794776,-0.46189613163585297,-0.7767798293102582,-0.25765956428521974,0.04636053668902318,0.1699265462474872,0.5426444671090538,-0.7308196642079616,-0.8750679081931634,-0.42582688573543925,0.5328761678229594,-0.6627758515107876,
0:-39.06098385927228:-0.11833532116994183,-0.872134696325825,0.9834530963316179,0.9893311925909136,-0.2879889461197329,0.24415932629158466,0.1431733654779368,0.2630819999594407,0.11716453013661021,0.13433538885077723,0.9810258171423942,-0.3037383265316087,-0.717768500174052,0.9272385075127759,0.6766156509393152,-0.08925796544268921,-0.4954960992221824,-0.9965784795142612,-0.6683055171686827,-0.23572046008682368,0.7720518105139467,-0.18058021358779786,-0.46239595971669556,-0.5383782288246248,0.7380621250045092,-0.6042682490722013,0.7187449214740633,-0.22570313624992644,0.33439314162023104,0.3140257791163623,0.5629233164976697,-0.21019930618178218,0.2307038361114946,-0.8273921944018685,0.7185684645047636,-0.12933678894239634,-0.3790903523400445,0.36520232284861076,0.12045282628197182,0.5765611382642429,-0.5925535883838353,-0.22308141265631062,0.7996063049359807,0.18401746423074958,0.7474800651192816,-0.47015623715230265,-0.15955780166305333,-0.8525195714881019,-0.8383208024820552,-0.7272152698056489,-0.7351817616179468,-0.6689300992167235,-0.11565182355604153,0.658566217898972,-0.940700273167441,-0.8065982132525982,0.03067486292878141,-0.34777931484225455,-0.7001207974530874,-0.7775386267664471,-0.7383182600620328,0.08729135319445314,-0.610027767124414,0.8709732260080263,-0.9046561959795155,-0.6432189131971718,-0.36864134294594303,0.7729457300141357,-0.32430273034139295,0.39179369018712396,-0.021802297129820316,-0.40148399833191706,-1.1612542231264296,-0.6190440637505205,-1.0953027067594725,0.2939679099070285,-0.5666724771484536,0.48226072080909227,-0.6805999309420445,-0.20452707051276145,0.45292464101920576,-0.23133292993765903,0.3673147668442738,-0.2844822650907608,0.5457935458714309,-0.9911229685595264,0.25948329381560264,0.16598165310922403,0.6089705578591246,0.9603830093343613,-0.3039282115474542,-0.4798167671193541,-0.1610784160131555,0.6925165904815092,0.14655308927075542,0.03310740392573846,-1.1431063832930335,0.25449589306606324,0.3383832801013772,-0.5551264444309811,-0.9381730612492736,-1.026304650955017,-0.5023352395213695,-1.2259246088093663,-0.8519773663119652,-0.33422392770850773,-0.8623788529164269,0.554510685253562,-0.7823693987762207,0.3886695042118458,-0.4617444711382699,0.19650646881887202,-0.9361341003404382,-0.8071850690446822,-0.7692282266753567,-0.5703912095809552,0.509823621614606,0.3884156651565021,0.6825786592072135,-0.6357683557820663,0.10604381120820228,-1.0689214384706578,-1.7187326312854827,-5.793149669952421E-4,-0.4021020305103094,-0.3291031705566197,-0.04075565052967033,0.4089553808917898,-0.7271663184040676,-0.21195373807525988,0.044903119703549474,-1.4789423211967545,-1.0094392911801935,0.2632447895111252,-1.2929002951333308,0.46270783080876665,-0.48971336641129604,0.7381863076553193,-0.6287364954181961,0.31994917801624867,0.07527904375981032,0.7510924749545007,-0.22213009185782034,0.47458254749906836,-0.1370512237444948,-1.235280000133152,0.331260472694685,-1.219104611856969,-0.5169512870492814,-0.43413161117259613,0.29427613687838206,-0.8098890770010245,0.1361529727685073,0.5391137480518954,1.1911059876765637,0.6817662060956619,1.394101151796887,1.1474645051527879,1.6915080649353758,-0.33647355967949216,0.40043468533847076,-1.008391006249738,0.4484836151540563,-1.206851369454593,-0.05530379275021762,0.1993313972818858,0.22692438728768652,-0.4806289890480342,-0.9458665251858875,-0.521120357534419,-0.8206793436022995,0.7532823247759078,0.08899466403235139,0.3510645213256109,-0.008853305020012409,-1.0052460480442713,-1.7753563231122937,-1.5935555763389273,-0.5300702808805097,0.3088863838651063,-0.22406591770968526,-0.7093828050449076,0.8512231455806063,0.9713093061534279,1.2754554573761419,1.5915300237685068,1.3096837838294388,0.46706035776050586,0.810371988402561,0.7789663948122648,-0.5250194174443805,0.6859336060660727,-1.3238118903788492,0.39475262591215227,-0.5593290586348022,0.6226342711632334,0.016264565992088365,-0.32764656178565604,-0.4815849876853827,0.5362052802718008,0.06127662971034387,-0.8827576271656011,-1.2236114849061197,-0.5460363638250856,-0.2514302335149507,0.2758843205853348,-0.10150601066826634,0.12099680759076473,-0.8673166776543019,0.3397687569288107,0.6528019699299866,0.6083899547025203,1.2422835785248822,2.360029717952832,1.4198916268170494,1.080767614995679,0.1507812647150339,-0.3663241821898304,0.6482534091646271,-0.4023697298504448,-0.36457923368833806,-0.8683594393710985,-0.10097611210161421,-0.2883773994238933,0.19630804471784474,-0.3678787843540859,0.438260818889945,0.4685533849554714,-0.17575816799658878,-1.3779015114788287,-1.0051455702541194,-1.4446243896069633,-0.4082413887926489,0.09795640974580404,-0.1437140531146894,0.3906894433877568,0.5797313351623995,-0.3037291580954502,1.3387531228015617,0.1077624067022842,2.252703348040249,1.2980735493970983,2.2793338070569944,0.33196288110805244,0.2971665903290391,0.001847131323319153,0.22044634281806721,-0.6587837302324127,-0.11105804460959143,-0.639918765136878,-0.42010724358372564,0.768425698093111,0.607661973461697,-0.9093047686916466,-0.5440316808734533,0.1368694555195582,0.10850481137121086,-1.2595123437030495,-0.5492553128308134,-0.02328976593437149,-0.4942308446522279,-0.5386693176529688,0.20975236074590997,0.1616947442998082,1.2792414267960153,-0.007456768721811265,0.2965062885403962,0.21521938919702635,0.24587540752869338,2.3115425128264584,1.830908293995298,2.4801737426946606,1.1027339797593096,0.5947674557589634,0.5444265288082314,1.663509555948787,0.22883504304790264,-1.011872806177648,0.28166385346442957,-0.6779313879868919,0.9620967736868437,-0.9089425630345039,0.5036173445471875,0.2596029127930062,0.3621007620630311,-0.27703979178927857,-0.3412170426835506,0.23097060400665875,0.5123927245697288,0.12214411650682543,-0.04491711142154356,0.22764251525230286,0.15915334645517712,-0.89335031985672,-0.15054569325378317,-1.0037870385306875,-0.6078425477772812,-0.23867746645006607,2.106771197966836,0.6801741313310756,0.753130106748939,1.753023268169853,1.696833220702348,1.2623290347224512,0.6674398035871614,-1.2941163697402427,-0.46897958913964105,-0.19311268722089975,-0.6738599327655445,-0.6156308155245201,0.9192568485478931,-0.09522674113370956,-0.2519065963876124,0.12031128878757422,-0.11239211358479517,-0.3016211231657224,-0.4029314792273746,0.2542356782503514,0.8560294387700244,0.24592229200738824,-0.935981847139343,-0.6960839201489541,-2.5913982531833417,-2.4292503488356494,-3.334927209001459,-0.28908149110927767,1.769282229908242,2.329689965484186,0.7557510144355734,1.6877599190472106,1.5473012627879483,2.400475928523671,0.7301432848643766,0.1649518755817999,-0.6844041791676001,-0.4623144434743336,0.979272712358455,0.6434226881018298,0.4162380147291545,-0.6445131893826005,0.11025663294165827,0.5987709468220866,1.3320331064976045,0.7146507823499022,1.1079364257965094,-0.7252413779736564,0.5001922248832781,1.8926998836272357,1.0867917544612682,-1.6945706386027317,-3.198937044985619,-4.179680828752629,-4.589364242023569,-1.1393560023534899,-0.17307838724719146,0.4241718775427366,0.22866023140694827,0.5286263397528266,2.0333053516716526,1.2297186974262189,1.141655180031708,0.2836414177917265,-0.7320456641508782,0.300622706549091,-0.785652780205236,0.7043306605724782,-0.7303231579519934,0.6656805994833661,-1.113356070711968,0.7568576048956094,0.8682813655964553,0.4944238131078573,1.2228570579936897,0.6586336198789767,1.682566211628783,1.0087672941032977,-0.33915908014877133,-2.9133752807553384,-2.817918527092345,-4.127134711672089,-3.8898699671783263,-1.996796186510524,0.12029852809885391,0.3742523253432083,-0.9450428874818394,1.0975553388155672,2.0532322463899493,1.6353838394214806,0.49150442030915653,-0.18029886828680272,0.8096031407760801,0.8960655146412121,-0.7164602974284114,-0.34765854068092994,-0.9864143095967249,0.5629340776661743,0.44510520157257755,1.6699420668939708,0.08743881165619431,2.2980723603914575,0.9378382689712478,1.2318829511486338,2.2586834710450385,1.040252222156219,-2.007123009435541,-2.4761138952382975,-2.8569395588446027,-3.9736243197728656,-2.3797950495053746,-1.6018574430450023,-0.11819642604887731,-0.2410422070705372,-0.9235026704653284,1.416444577705463,0.8929477780448701,0.4312711809457442,1.1281036112580167,-0.6364422713884534,-0.06487952532472807,0.9634886551886939,-0.6564672601479971,-0.13958928153922937,0.8756594347682386,-0.5962182212129998,-1.1958041095519496,1.0808995705131492,1.2203849800647348,0.6742128868274644,1.2265184318756401,1.7174433024185645,2.9808787745005207,-0.04418847709149108,-1.7510498906737717,-3.3553270529972243,-3.3585677309674424,-4.445354263837968,-1.7658919776111115,-1.7461982513670427,-1.2755973220897714,0.5245810490680654,0.5921024256938093,0.4029716325592229,0.6761109979488078,1.809154273626681,1.4013456585270525,0.10450972353802483,0.5873927771870184,0.9104468039124624,-0.9084810413343867,0.06289837692682587,-0.7537026641521664,0.4399296616378094,-0.4480988525659564,1.6338300742594534,1.9614132467716638,0.5708204776689846,2.258939281965436,2.3723603032592893,1.2326813536626042,0.07538133091323895,-2.0101273549877687,-3.816126332865893,-3.815129073537919,-2.266688796609053,-1.930402229589703,-1.3235347460214046,1.1529001078456833,-0.7137660388185242,0.10576330017999487,-0.44076609303706366,1.0849450554579183,1.6226098058044527,-0.013882548066863653,-0.8607868616827632,0.5068984605933374,-0.2080321096562634,-0.19099435422442124,-0.7802517711242271,0.24903941639221802,-0.7407230522078914,-0.16573583157192084,0.43654245556136717,2.091821658804717,1.4311740158246355,1.3725477150642014,1.795466623913479,1.8746339893261053,-0.8309599937129629,-2.6670654485711354,-3.4005844772710114,-3.066592308133895,-2.0146191018179653,-0.7383002392389899,0.20912302258858578,-0.6944258031169834,0.39750299466359384,0.24150891468370397,0.3455034961162695,0.2287677703986203,0.9750230434332997,-0.746333254061807,-1.188330765321906,0.915962419008545,0.6428880255023143,0.7432900194284089,0.2739101436053665,-0.27429429203615435,-0.7454646320331567,0.5389842798540022,1.6779211206861833,0.4500523966598821,0.4084541673186922,1.795636969636973,2.623640720284859,1.0996572363032606,-0.5369171946798532,-2.91777230357423,-2.400243604600073,-2.126370774622637,-1.550670649761101,-0.3634114285847113,-0.6885469214978777,0.13552890315203672,-1.1707341834416252,-1.2777335183152243,-0.08282254180196172,0.4780872403244933,-0.164792252513967,0.18789381593857196,-0.21858684932534897,-0.30874845591343564,-0.9586112799437817,0.1568676994850664,-0.05097285129746051,0.10799257967256029,-0.04984292385308596,-0.26999815835382407,0.2802273624888683,1.6375671072331033,0.9690594714925412,0.26417924947636784,3.363396347748231,1.8698401704040544,1.0580779901345576,-1.0117706386535865,-0.4042185663161358,-1.4684829977048854,-0.9830263579677934,-7.903231261138959E-4,-1.6805343319690578,-0.4403612966687486,0.12238391928785984,0.13644176570763375,-0.1302885943463146,-1.1701970372849673,0.4120722482427587,-0.5505287204216679,-0.33400491596594734,0.6321925751739528,0.2157151699229788,0.9629250074070164,0.46195765476031553,0.606712799629442,-0.5105269188412951,0.2905708090957295,0.24758137499036456,0.8220530002058951,-0.04589678419137213,1.1511504849218306,1.6190509141372884,2.51464568514359,2.2854736409318814,1.2375482117866128,-1.3150284240001275,-0.8998974646920945,-0.2857191673825221,-1.4650653903322606,-0.7734991236614401,-0.586518708230469,-1.0540557260863104,-0.3234551951319415,-0.024918652643835304,-0.9549480202227649,-0.7081063234726774,-1.0393558414703692,0.020316719606775915,-0.2508713850213036,-0.987965931142546,0.6404582974519197,0.4408429714190814,-0.24576183040740618,-0.9240614633679851,0.4046248346257631,-0.008616749063532606,0.766394114677015,0.042189464912122394,0.4906827017936651,1.4668812624543632,2.595533196775303,1.8823518212528172,0.36424785678850025,-0.5209559790856811,-1.2063096318622004,-1.348581837573628,-0.27461353588501447,0.15158950561590032,-0.44085882947822985,-0.4770531414009353,-1.6470418755392968,-0.39988221039794963,-0.40047198023701647,0.4962765125654959,-0.9162690962716267,0.0887437042679863,0.8228095639791906,0.1795588181246131,-0.9145464959948069,-0.5570529096180061,-0.20538774624005984,0.7524096160524084,0.29587574893479834,0.5885621776349856,0.6622881275743066,1.4350545573827669,1.4785620160784898,1.2715464111317312,1.0943899884709878,2.4108158571388536,2.070506856107647,2.5045626314547538,0.5713631453708655,0.3459277143350436,-0.17765287909759794,0.7531188612779645,-0.7791428846234641,-1.5495068398303755,-0.28059421978264587,-0.0977891154764004,-0.7322125118653617,-0.26063193850186395,-0.9166462518501614,0.1339288285731407,-0.5332120071025164,-0.8074211848659577,0.20494881185539282,-0.74249192450961,0.7111230675978203,0.45038240481021585,0.22386996913580356,0.5625700373850431,0.02778693215017859,0.19815535512029417,1.0734549839167418,0.91564617304302,1.2782679857362447,1.3266773131230338,1.4348763016046868,2.132734043071232,1.8575400501219719,0.8228636681343983,1.0205470452476615,-0.4098845865876005,0.22291566869328353,-1.1735852304877863,-0.5022169900982397,0.35712546332723744,-0.21981202975407108,-0.3484544174343625,-0.08129902835588662,-0.1463598345684144,-0.4998091630401646,-0.24058880227133717,-0.6013041437646907,-0.342638403769717,0.5804725722413253,-0.5047814626561412,0.6949291101617007,0.639828734412578,0.718282495625618,-0.9295458825641909,-0.9074158806877756,-0.14552630996953922,0.8784264377769003,-0.16720675041566707,-0.43713211338012375,-0.9413730041583549,-0.7541692209449938,-0.7947157207266677,-1.5593665810933974,-0.1121560933559495,-0.2843427565423705,-0.8207663330019509,-1.1639216309008829,0.05814381307603975,0.6471894443745578,-0.7950963731361255,0.4701733236278556,0.37306393556101314,-0.9172996885597706,0.6658959781945835,-0.40147626989913454,0.42910680774476817,0.020127945044024636,-0.73506160596251,-0.3440380127516284,0.3521066048664502,-0.3505983682000594,0.18456400314331797,-1.4982664002494643,-1.8905844770843432,-0.3573684311071711,-1.2481012904775706,-0.855673688481292,-1.343364494933987,-0.6189293546672676,-1.200527244255157,-0.631559906864144,-0.9941029847655423,-1.0707167658280543,-0.8840367902095039,-0.7148315135567168,0.057741671411946124,-0.5290393363572063,0.22599052199634914,-0.14942481298283114,0.07075940234550693,-0.27234823399053476,-0.20214412900610657,-0.7515982750946493,-0.6348948145142741,0.9955323515323675,-0.14627754476083846,-0.9245436094857256,-0.40290085884505017,0.03249305557129606,-0.6731615883738027,-0.2003525225770876,-0.3086036959223056,-0.5705384085592461,-0.32140102517628616,0.2142963557963572,-0.40070160828388285,0.1720238046725126,-1.5663755677875726,-0.6907149055096932,0.23951011045690984,0.5268132265097865,-0.6184626354148164,-0.11126242473437305,-0.802067422122444,0.3986062851326761,-0.9023636536168048,-0.7280577840108882,0.7518983823132328,0.13006581986488497,-0.9282926932963818,0.5085866280942148,-0.5583852513587726,0.6779261162034413,-0.5050234180149398,0.7624128204894022,-0.321909796916549,-0.4837946524455156,-0.9525540075763484,-0.25607141292963576,-0.46656104158412287,-0.8251832741907765,-0.8923209127630475,-0.329010793165418,0.8849763561404406,0.28145863180698244,-0.03848405781562156,-0.3634365535784849,0.15045848575449008,-0.784159181699087,0.5388199480152586,0.019050503332273754,-0.524370122544278,-0.5923162295352582,-0.1931490077502373,0.9049352103699784,-0.731725930056879,-0.40182650522905394,0.5746762285045377,
7:-57.655708807374126:-0.3547317589459986,0.7768404380097345,-0.5001935617670721,-0.768145539409189,0.8354332315345694,0.867280099179055,-0.61875137444944,-0.45279839723974713,-0.8067622966962646,0.9129011656273418,-0.05476904542015815,-0.08639364734044364,0.08416092535075936,-0.3761342893395594,-0.7106014431799386,-0.6292235313061143,-0.8760112800501423,-0.7892574342121832,-0.37754503328853084,-0.7001856913027789,0.7102710789588358,0.5943368262455309,-0.6648783053355443,-0.593739997353721,0.7069571498534073,0.8329209474230628,0.44610796175028167,0.10354989101269263,0.23612608869992102,0.9595554573070404,0.9365780720002856,0.7444610407696879,0.352997345367422,-0.23992232079685635,0.9651221482220831,-0.6077462230829443,0.015170855602862096,0.6727276463093687,0.24624897037738247,-0.6201365387121074,0.2043118647925478,0.953271744056239,0.9789377136346866,0.7746349511078682,-0.6817386200891248,0.5248732009437549,0.6277988902536231,-0.9522672657581825,-0.9761805225440532,0.5198523757026414,-0.4120878420923284,0.7415004471192118,-0.35478722145973207,0.42086673896924887,0.3054228987296306,0.734684754934327,-0.13947559652611763,-0.07806581144311986,0.7794962184817293,-0.17542159124620715,0.9881299662803598,-0.8448875711564267,0.5372416956191982,0.7767786969067078,-0.5325515935263959,0.7665372078072604,-0.8482626993481878,-0.262607900029927,0.2730806181685594,-0.5240851628613896,0.16430694075713506,-0.0408031772567439,0.9486895440413166,-0.7835453681054257,0.8756836722750663,0.16228040789911827,0.7066877386435948,0.7276106562136211,0.8867808757887768,0.5315749038122991,-0.3878303643875532,-0.43908943682529844,-0.5017796484039565,-0.6524722439043649,-0.7458381486576695,-0.14048387758739156,0.11884745251308715,0.5530413871678952,0.5046307926265382,0.9850702559173051,0.6869467205808066,-0.8356591000162389,-0.03615097469119176,0.08853093880799975,0.7596982694219977,-0.5577014184906199,0.5877493253990088,0.060935391254998694,0.5028870096241683,-0.18052208498813013,-0.7104834050345742,-1.1088999964877007,-0.2611293275595854,-0.6201769583174592,-0.8679884303062824,0.11297995287311927,0.41278604485513665,0.07008880075649154,0.987451260463061,0.4696146197226343,0.038828537702720656,0.9297225580559512,0.09987923137720278,0.6603789942270222,0.31195226660509445,0.15184190898900407,0.9387827494236491,0.8287767463389774,-0.4300778729759019,0.8151720551022683,-0.9830305472636777,-0.6087595001928948,-0.03139579166747355,-0.4723385400344477,0.14625983962290726,-1.1853721388726448,-1.2118280613643655,-0.44055394868826575,-0.2416939474672495,-0.7088064723801358,0.4078744069575202,-0.2653642733522271,0.5843435726719226,-0.3880821742072575,0.11282795220161498,-0.866597039941846,-0.6660448721203699,-0.31439089607175974,-0.8393008932467694,0.18030420659419422,-0.7217599506684533,-0.17285610032827559,0.25116618800654666,0.33248252436067044,-0.9519896445555344,0.5692032654932991,0.4462174697534735,0.09655021725082445,-1.7086997927633922,-0.75221842160674,-1.3619704711765739,-0.9692319186529076,-1.0385546635293665,-2.6070491278618495,-3.091679352358039,-1.4293484277313617,-1.8568481088165139,-0.847505413867518,-1.0563967235813831,-1.9401392779811688,-1.4945440560968084,-0.10326544422067511,-0.3026707056609607,-0.38219309573093163,0.6556846627328113,0.7337708249390041,-0.9035743124108674,-0.8801027599903941,-0.8292671923778601,0.6361872289381405,-0.1166720784202722,-0.808410061393821,-0.19243773136907946,0.4572322056783378,-0.5929295476864174,0.5720042963962206,-0.16624806084050103,-0.12230117495649408,-0.20360338218793433,-0.8442807167214152,-0.45001673342388987,-2.4726160790591076,-0.9800289081681554,-2.408880548944824,-1.9133975502672513,0.09359966491440026,-1.3007147491773972,-0.7760906647166034,-0.38211144645632655,-0.23284845294124054,0.7689133734948878,-0.6289200310513803,-0.2878948374759237,0.07974028891119796,-0.5289716622420197,-0.5913892585887764,-0.024748998910765582,-0.9711676890783497,-0.4027461429359667,0.14670915361755718,0.8047289921465517,0.46143739317770704,1.5952033111742145,0.4450302266235466,0.43055110596283724,2.5476390556330637,1.804036380589285,1.643951747280095,1.0884621567509025,-0.046817085130815374,0.07971965808745397,-1.304878462169178,-0.8635841876575207,0.7791114999755987,-0.14335631847950212,0.3775895027621532,0.6289803336433686,0.6146824404635222,-0.639395804088858,0.259013225704406,-0.31577461792132494,-0.9030813892913305,0.6257296792394035,0.7829465805131578,-0.816693234996734,0.3922683672834076,0.9659551857068931,0.3281295181180009,0.9636640766410169,0.9771683255214122,1.5601955430380818,2.1943117764020528,2.347508122697423,3.4642694191324876,3.038501356167441,2.8350003830026522,1.6767455338275492,1.570557099518303,0.6316926187601433,2.710092416513196,1.5091452277246804,3.006367060686808,2.150021639590805,0.67942628215607,0.32093950020736833,1.0737944423450654,0.1021297502750568,0.9028680538961774,-0.17260375319281535,-0.43497868690369534,0.6472766445502255,0.5171609604528563,-0.6422346675084719,0.3451640556149172,1.3652948957877504,1.0963050578389877,0.8084595311110927,1.3595901977635765,1.2723897256648242,1.3956515859842242,1.411534563163429,1.9483474059652106,1.052727797927282,1.562272414619346,1.6142349858440819,2.2804228956411294,2.5667256476878113,2.943511917417618,3.3485355623630135,2.43305397513262,3.1417801690926974,1.9909873474000777,1.1860158382634316,1.0375159367707185,0.39715776696351635,-0.31555973287061456,-0.5864838457997904,-0.31253207085726714,-0.2228808609803902,-0.503715280638489,-0.5765322198938818,0.8350326713693816,-0.2700105686007438,0.20105259061304315,1.1395622472928106,1.3125304673784728,0.5276790910353314,0.9459359948822031,-0.32541934980540704,0.8270294152794239,1.8286035267087488,2.3747684726023723,2.9896687192130815,2.4366012465087485,2.6225252863528388,3.283673231298117,5.353567108015387,4.542998220577108,3.4305024002751305,1.234737870767659,1.1757699670729065,0.20659122232724536,1.1971996960518236,-0.5923050617232869,-0.5234635070099992,-0.9085561303213177,-0.7176106189260553,0.3567213332679161,-0.8727194291052671,-0.5921392730943825,0.45320047177935985,0.8752616828523445,1.487450966333197,1.194442770288609,-0.30791824426931175,-0.6164973617735314,-0.5712406090985851,-0.47843691444506137,0.9376541808366445,1.2744723614478957,1.0784033959473085,0.9840950289776511,1.120884196603748,2.034813387847263,4.108122314838051,3.810604426687846,2.731334154973834,0.2591991293075701,0.7848863097408334,0.0316809052938553,-0.519890172896523,0.3496546587504403,0.07671216415366905,-0.12947657229850065,0.6590578962391513,0.20782438827349597,0.6644956736986849,-0.9059696973174369,-0.6465200207654448,0.6079503728792163,1.1095070024949114,0.2181031454871957,-0.44723944935022425,0.2737506650623498,-1.2043081982278117,-1.449105314043237,-0.9842654339063539,-1.3788056436257436,-2.360771659002667,-4.693548964181565,-4.276585263578197,-1.9749684421534204,1.800355823389524,1.5792607372923582,0.7762461627727232,-0.4049018623304789,0.7972992140297651,-0.8734525739057588,-0.7496849460557975,-0.11278430410640951,-0.19632649237962418,0.281990431281546,-0.5820274864628875,0.6909606790640055,-0.4321307453241958,0.4386748236488727,-0.33547257878778236,0.3557139375709561,0.9590382488262461,-0.6054351384639682,-1.8333680707278066,-1.7257609342295734,-0.6250297462827845,-0.7652323550055582,-2.2758865661071606,-2.691664305332034,-6.436953840389285,-6.030104625392556,-4.7089354206126535,-1.714900314099214,1.0179438165093964,1.4471865211741781,-0.2341432486007606,0.42273993289586537,0.4214292412180557,-0.9377668574792377,-0.8951740311674117,-0.6794070591213035,-0.018309889520128006,0.08485273451094678,-0.7997803933316188,-0.4349839560847122,0.8408728587825083,0.3649864883060494,-0.05067683188980791,0.12672313792769466,0.10942037126556621,0.36462731085049366,-0.5823557020469747,-0.8937225796253122,-2.0518452815477777,-2.62262442142467,-3.401587949862233,-4.96003239698724,-5.696595592189343,-6.1980023916339935,-2.527720483905209,-0.38538378138670015,1.6727588809596825,2.0119251281173987,0.4172927369400961,1.6407457280422542,1.688965454600318,1.159867837766777,0.029137302757932547,0.43226989538730154,-0.3972444696719387,-0.9139259069221685,-0.07750548427995008,0.6260523990901223,0.2155134631226116,-0.8769815825175538,0.6315019955266182,1.0071415801302728,0.28374816934929176,-1.1235877991018042,-0.41197734631073407,-1.058611658458616,-2.4133524255949728,-1.59383739843133,-3.421686221481866,-4.606611000264529,-3.801668085386133,-2.95820966673251,-1.850132994131026,0.5238455832431979,1.9650088569958442,1.9858011861076823,1.7405472203777046,2.277847795701783,1.7435361622981458,0.5200731355250747,-1.005601507404105,0.08005388206744316,-0.06828055458462044,0.0662116472620632,0.3647091961541656,0.575566060695085,-0.8757123824889399,0.9593542356363766,-0.8851881973117764,-0.6081072980327277,0.5859995384673465,-0.4136105862075587,-1.6107175176938864,-0.7027882723426518,-2.8918492881261324,-2.8644865617716606,-3.3471178844769796,-2.6597695076217325,-2.304466114234367,-1.7453569990386788,0.025178679635492713,1.8557409720679998,1.4292545504844718,2.3471497172738225,2.8767649603932037,2.3104530774602843,0.5191268949883354,0.23599881536053646,-1.2022622972126098,-0.3136318861355923,0.022249919569613877,-0.8004533577602929,-0.9522523248315213,0.44593088096693534,0.6024182222471803,0.36822748932316524,-0.11677213743687394,-0.15227173865383806,-1.2753522396403425,-0.26083582098591457,-1.40663597963659,-1.3406454626594642,-1.5530314961770868,-2.573562696299642,-2.8064301553684667,-2.9368029896407175,-2.372909866171538,-0.6219577530592177,1.8475098603987958,2.5618630812836587,0.21463918841219579,0.8618255616846666,1.39686180722777,0.9229526720997827,-0.9927354214702826,-1.6463995666020481,-0.8522139741533876,-0.2606701168117248,-0.9172718089641756,-0.11801120653102255,0.9618678219423243,-0.6267526893333281,-0.8750270060437648,0.6768617279932452,-0.8010992145847735,0.5017266167554939,0.2401309051891614,-1.5371782956859037,-1.326363614854421,-0.4241492258801779,-1.7557563919760182,-1.6137169803148201,-1.826445743331931,-1.4307481731052039,-0.6133341346649228,2.1371927277097047,3.265900680596147,0.2737636341489795,-0.2781846898735795,0.25082524962888186,-0.10964822391381804,-1.065668240200887,-1.5892590984555757,-1.943852036286962,-0.6036865002414493,-0.08798272351571701,-1.1932229968986379,-0.20801351622096154,-0.8878971598487077,-0.12303905562805251,-0.1521779841999933,0.4032927001393088,-0.570786760648109,-0.9320591732474783,-0.4532137632552989,-1.2895334486121837,-2.4861875640714293,-1.3270510021291844,-1.373963057077256,-2.8237719651725737,-2.0357739777634656,-1.458022682754438,1.414808954777884,2.1684713956693678,1.6605981748256318,1.2005316235845227,-0.9065044567417293,-1.0840854497482637,-1.7955486409122963,-3.358072591078008,-3.201365624477587,-3.046178174325865,-0.797190624725163,-1.2486080349733513,0.5825238117983093,-0.7763025254525783,-0.7456377481562314,0.36225356915708185,0.6233880805611833,-0.37642873915175395,0.5914251159852683,0.3770102447402451,-0.4596106773639086,-1.435132748217026,-1.081221929448709,-1.6179660389138961,-3.2834484877120933,-2.1750232571436188,-1.383174535010666,-0.7626538471455797,0.7438938484355566,1.9040795679954443,-0.08594339542637908,0.6550522756772706,-0.5472430283311971,-1.6606277526693183,-1.502684786582523,-2.0633251294498773,-2.67344890290608,-1.9495185557277328,-0.6176711110068911,-0.069453421837027,-0.6224013493729982,0.5566467611524818,-0.8390606238893706,0.30535073632140247,-0.015029995148329036,0.24842542320035907,0.3548868809883874,0.715759019926924,-0.8598396221199028,-0.39058181264381797,-2.108521032036318,-1.1550374397082699,-2.710722430073972,-0.4753687124034866,0.438754196369558,-0.5208761951279599,-0.2508130621719744,0.5765505770804185,0.20138062571213464,-1.218209033292449,-0.8235652220780386,-2.0830995812604214,-1.689382182660387,-2.4768316946406466,-2.1267803930944256,-0.49697336480205556,-0.20592717779327352,-1.068045552586967,-1.1467534600819957,0.551259273513507,0.41992960773268495,0.5135309263769827,-0.8157838514202582,0.44973616192374277,0.09859731610031086,-0.9365521927586667,-0.10344536208872214,-1.3747778922175242,-1.1158930472302395,-0.49261005532577795,0.0016752045362083893,-0.8705277414708091,0.44333875250882754,0.3022056973617809,-1.4729708884696855,-0.43447170974920735,-1.2629088758860108,0.5591084840359011,-0.6114859415278824,-0.5651446752102316,-1.335642934362143,-0.7168501438518322,-1.496895344307382,-1.854347028765307,-0.19085318225997963,-0.23202351431828172,-0.36603267853347127,0.09289890201482714,-0.8826553219995551,0.9707609885298198,-0.06272319149397143,0.24856762438897517,0.5810523986740675,-0.0638588119311562,-0.5387178500612874,0.3163941849977165,-0.20767753441616552,0.6220964979248879,0.7243409586916008,0.24014130935265413,1.0384497344598451,-0.0072062800173817556,-0.5531525692735941,-0.7909845517123989,0.8678929201587294,1.2128932083862074,0.45767623373793387,-1.2360911244021113,-0.2892167094158709,-1.8636188585197422,-1.3220279164743165,-0.5901276948776875,-0.07906620672277899,0.2054207010792454,0.22301244083063854,-0.5637139787512842,-0.19626833571154403,0.086524315585085,-0.3232744822172995,-0.0072158471626322385,-0.1874257302961531,0.2775831802861094,-0.41973430719516797,-0.47389159032252404,0.21679809261730892,1.4899837603740587,1.5838843167332386,1.3524147734171343,1.0886281207342567,0.8251008362426997,0.9953614810133349,-0.020302261297921863,0.5335323739854293,0.568099905182807,1.278507112325414,1.0039970645880918,0.23118188969251532,-0.5665697396512485,-1.076497254608073,-0.35028872436968944,0.6550799971391063,-0.9909238434305673,0.7962670425208408,-0.6534900335340126,0.8667398957132146,-0.3404519528614669,-0.9905161760082908,-0.14903780995186233,-0.7223792751952814,0.39909045348902733,0.5226284486549567,0.7960137377399314,1.3591381452607705,1.7167141024500026,2.3842339687136587,3.4049688531256614,1.330999242122322,2.1709569644755398,1.682386153071052,1.5060837975943584,2.8553768106297763,3.1060107780821204,1.9816559613821176,0.41665259836372065,0.8640427402222409,0.3032607012789126,-1.3282345765789347,0.2567543589092891,-0.3432645005589066,0.021828008788155603,0.6688138740330939,0.7346925764122268,0.851873450730021,-0.4502235670219643,-0.34904851820201155,0.394827969549177,-0.8190044472515592,-0.06994585511543616,0.5648016363859228,0.42710453112969743,0.8708992969977758,1.105732588049569,0.20633886264647142,0.12788104405834463,1.454720454288292,0.8472678575779437,0.21762457114079917,1.4915703096456177,0.6527417101248914,0.8550530627581583,1.9532941799530457,0.5193369068905783,0.2900709247798031,-0.6979800693481589,-0.0974675068430702,0.5536222870004697,0.6706656453615162,0.8792234415313466,-0.8054767017747492,0.434228735056168,0.37510820472162365,0.9210782582054085,-0.6346890179751277,0.6356385195326515,0.6863344165671268,-0.6178707085951243,-0.5800653322551685,0.746895043673837,-0.08861839692189977,-0.3380135497735573,-0.3186326948853206,0.7838763941548536,0.4742285391493583,-0.25925314656067117,-0.5029114401302823,-0.07518668809512236,-0.17265714121414297,0.1256924197740876,0.9503067249648842,0.3055702265954733,0.6040773315214323,-0.6661159374083585,0.5068835413353585,0.3609306090282255,-0.5215201348034114,-0.452658159477043,-0.8196645100760291,-0.6099249560403868,-0.9372926444473335,0.9738167252103196,
6:-58.17156312300339:0.8823511831795143,0.7343420761946287,0.6735229871461221,0.35898435822643426,-0.6389078170207596,-0.13444026277444454,0.9145158317528084,-0.2574702034101397,-0.4299933398043936,-0.479405446205428,0.03939268949865937,-0.8388464172946024,-0.619910535436964,0.14575034688809343,-0.3950821123071682,0.2977346015814839,0.4939943999533276,-0.44907301262055377,-0.6488928210306715,-0.7721920472791035,-0.08459900062003389,0.6401940984668577,0.8893518295754175,-0.8549723925821089,0.17994655330657428,0.7278000795144106,0.9075048123151022,-0.2095040363017231,-0.6050131455570973,0.37176355685379936,0.9830540917711572,-0.5646128980121605,-0.19554384173052203,-0.7982003819902656,-0.7673587297809854,-0.41518893726209577,0.7204040244318187,-0.33105151179795744,-0.9159890307481788,0.968872035149465,1.0739697014411163,0.6048199690755989,0.3303798050949823,-0.6969418613500615,-0.8316898529487421,-0.3569310427569047,-0.1167028629789362,-0.1450687336210052,-0.286478186237487,-0.6395714982718236,0.20027474837266057,-0.5747546297859061,0.4047189877207291,-0.027857292080086138,-0.34465474355176196,-0.7074780148929032,0.7714515965912174,0.8274253133587186,-0.0576498635337932,0.7155022600363283,-0.9215222879392133,-0.6238123014331719,0.5656588340919845,0.30304096607328385,0.7545475883824359,-0.04896790981848967,0.5099775856990225,0.867153932176397,1.6160680668841592,1.290667635318197,1.1282959444254645,2.1307744173976344,1.55037578004504,1.2079478120030764,0.9371067281857839,0.0670957190847812,0.7379328463818797,1.3172887834618876,0.10452240566165664,0.16245740334439765,-0.5748226156499113,-0.6281739087583614,-0.7502539173584097,0.19095922338087257,0.768661332535018,-0.5859102802254901,0.7308134635786594,0.19584518722133173,-0.6417439362101838,0.8220045022597172,-0.1522451121700074,-0.20498967665920512,0.521723405561984,0.49894608991455186,0.7063539839845754,-0.5921576848203375,0.029424610754482255,1.3190572714223654,1.779370810490606,1.6965761142094264,1.422260945768568,2.218200114413837,3.1430743022368213,2.1264038313968707,2.495081047995818,3.0045161822911886,0.9698274637085338,-0.15774195354601028,0.7801506021414513,0.1780182941967631,-0.04136850882624051,0.9769484565652939,0.9391570524763466,0.5003732094964146,0.4378435014807734,-0.09536167050404998,0.566743926684631,0.8772699041711047,-1.144862077375738,0.17411867852471338,-0.5936905793332007,-0.6416269912266555,-0.9050482910622157,-1.1148303799601829,-1.6469941175603917,-0.4702422893512627,0.3703493836638212,-0.7916287735068135,0.4913259784698542,1.5248749995208757,1.5693444155221923,3.230243562239691,2.672097126218025,1.965247043477884,-0.12327813086441504,0.09633206793049708,0.4709419317499169,-0.278834971861131,-0.41262650703858295,0.0485336638307826,-0.02159244304947161,-0.8027830170952046,0.6332779295114251,0.4862578092930385,-0.9481505485120175,-0.8001165233945005,-1.0910095747595807,-0.8868356283869896,-0.2432938474710123,-0.8943748304756767,-0.31902988137414223,-0.6740723185984412,-1.621252259096739,-1.2395961223866236,-1.4759228435948004,-2.8022585429585254,-0.7618250615013609,0.6390009438712065,0.2899838307622614,1.7143331503978954,0.5794968027639844,0.4724341031384128,-0.4161270626354614,-0.8484938580757285,-0.4208566022361767,-0.6029472823316369,-0.17336084772192586,0.8052737513879938,0.9903191095046389,-0.9335378814782873,0.8540484451976256,-0.8838447359760683,0.03979670401024288,-0.3101506001776184,0.1916694077257484,-0.6163754375359727,-0.8501174063873083,-0.6170256734365489,-1.1543204170210428,-1.9356534305037334,-0.8030688091870158,-0.9772983497760301,-1.0041184242083443,-1.4689124194624166,-1.889455183762343,-0.3959222424553387,-0.6915424200001739,-1.2436412027115689,-1.9973429836420584,-2.311795647431519,-2.4115475351937192,-2.0477346182671203,-0.6752137998801523,-0.8765864133796838,0.6271991962978265,-0.8316801688003773,-0.6853096201876325,-0.5872530275513463,-0.424613945761519,0.3158947469679137,-1.1828848408292751,-0.399440444511181,-1.4377455225215745,-0.05562103899692105,-1.1240642525318594,-0.454448694356698,-0.9758076547273496,-1.0133798605769475,-0.8621903106582114,-2.215329677480439,-2.1870874422991755,-0.6980216239305659,-0.1322222987992592,-1.710357557935284,-3.1052669384761113,-2.745349670238298,-4.034609369448948,-1.991911603485904,-3.1368131820405916,-1.881836522386706,-1.803711865391352,-0.9324992295590934,0.7262337203531485,0.5516115169167563,0.6169903743130698,-0.33278897963068066,-0.966198395934571,-0.4132681565884191,-0.5548081530716967,-0.20733487701168188,-0.17939478793796312,0.1367230499237675,-0.07935041982416012,0.02927409932022678,-1.222109308504054,-0.7204986678530784,-0.7979199590597031,-1.8490308756632525,-2.163636167002114,-1.4243003645276022,-2.601442833686013,-3.548785852423791,-4.869655701378728,-3.84058705014503,-4.0644677930357975,-2.916971313581628,-3.4095178344667763,-1.6223694410087928,-2.4670228768686266,-0.8504645058018788,0.42981784247010363,0.5472399647496459,-0.8150208988173964,-0.993745344863213,-0.7824533730061611,-0.013510265443134146,-1.5228629678429684,-0.613440631824394,0.27290310249166805,-0.8378362164205705,-0.1405268496407311,-0.62231624990167,-0.06919393335542387,-0.6919474420439022,-1.5549723074736788,-0.1406777216812313,-0.8708997759711598,-2.065166828748772,-4.4108690614519395,-4.435709830605724,-4.779163514140185,-3.2802337519276628,-3.0184381106481175,-2.566077610580579,-3.1602157763513876,-1.7902895301215125,-1.5284246398910184,-1.4322878068576916,0.4855073937116146,-0.6884476679993946,-0.19166989462522865,0.670870161195976,-0.9271746852526567,0.30547885978107964,-0.5387015337300408,-0.7000647513689651,0.6016210759902141,-0.19542600656412323,1.200943498615937,-0.44577307825428025,-1.1669491852220617,-1.0958325470147303,0.08790930388340139,-0.15946232960451232,-0.9379214740943574,-2.4248021799354484,-2.775045428050102,-3.576953900932293,-1.8202015816398303,-1.230776352006632,-1.482319992754063,-2.0639762780939286,-0.9465585036612523,-0.6468749769455632,-0.5882231954997764,-1.107848337149285,-0.3525562096103252,-0.4896421810065964,-0.763444315199683,0.4618243617580936,0.2883683812267995,-0.2430296251640192,-0.1910650070281319,-0.831298873802999,-0.0735686905367491,1.7753410649874952,0.9501527697012465,0.5536701224786784,0.41319452972181037,1.5247133160064226,1.6083362507011618,1.6324509705526045,0.08572627072267267,-1.4984685235094872,-1.7930259419970296,-0.8407698878583482,-0.820257109253135,-0.03689204384356447,0.14530106776626764,-0.07766488751037619,0.3901904692526777,-0.4427048579190525,-0.0035581085375863703,-0.14200727375150707,-0.4664058864523796,-0.3211972550948618,-0.9828250589244745,-0.4167605518624798,-0.4643714874293136,0.13094318312448963,0.4600406602412681,-0.13740166402704343,0.6273096632938321,1.1377717207901985,1.4872820254331474,-0.18173738344652327,1.4820009314484759,1.2630660722232898,2.543137658507072,0.2570819758007819,-1.3924472351976342,-1.5084909275662277,-0.03378814950494717,1.210080200091581,0.9601309482372962,-0.1294294075271759,0.8021458346175981,1.4462483819720577,2.2783741189612634,1.2402334645210213,0.42243968740416,0.5583304708036616,0.8137550022333034,-0.8526343948036224,0.5102071920925328,-0.6081157514985235,-0.5141085156296186,-0.36938060255024807,-0.34736480679075793,0.4466849550772557,0.7053219821434261,1.1623221597545546,0.5767702064994412,1.7548575119998207,1.2266588809370673,2.5592304338993617,2.2622573993497497,0.8374724656968325,-0.313995792525452,1.4034741214125113,2.2290730306527005,0.37543394910342714,-0.9794706861746226,-0.5060454674998988,1.3954075166863242,0.7820411351407206,2.0874398564177556,2.720089293486176,0.6272237678287472,0.8019620027675033,0.7932864460685755,0.8143387156095199,-0.943288056386355,-0.31824696157657073,-0.6783893578451471,-0.4302586199760296,-0.8095101855743781,-0.6898572663135081,0.5914944474182744,0.6510742767826807,0.4063408088656492,1.1042763869705778,2.0006065752716427,3.3511714680314952,1.1247894074305949,-0.7773823065795301,0.1635664821781825,1.9384840709488964,1.6500912122707934,1.3581710780858018,0.7649087009073268,-0.9492297900528907,1.8302075500259614,1.1904080792789415,1.6323795626222504,2.287487717528365,1.7122059599190014,0.4658153272267609,0.4048037517393375,-0.25154291446389154,-0.35176087684015966,0.8932757316790889,0.40978086344723497,-0.6012356759778938,-0.5705704744996214,-2.229143161087654,0.6608240012738361,1.5325005873566973,0.94628469330823,1.6219293640737769,1.9633327567247492,2.830876722766779,0.11983539740438948,0.3073302120479937,1.561240603417952,1.3792328404472638,0.45826706373314646,0.09272061096272775,0.12318934708892484,-0.4691937744931651,0.9589304955297555,1.0864893267282436,0.6140066263158672,1.6500082760251038,1.3416659966381757,1.5290619094986535,-0.06662093943748414,-0.1679790166597506,-0.9993079779430165,0.08376803601216243,-0.32353601165754264,-0.5937425417487664,-0.2476461039235504,-0.5204011193142996,-0.6466726466020856,0.918418535919035,-0.05529255382312252,0.6062980907932689,2.4136649115243216,2.51405604979385,-0.14313137402166037,0.1855713780442558,1.7021435547564763,0.34192134655395157,0.4816867313468539,-0.681974090195949,1.0572122156422166,0.8228069509318322,0.21292705764727574,0.7640810642833221,0.0018678962275668395,1.2800929260810956,0.6025442155814233,-0.20960589260025794,-0.7415455402397303,-0.2656254425270562,0.6802479702142987,0.6304959278862879,0.39898108087920264,0.6306407928844331,-0.5027965865937868,-0.41898864917440926,-0.43715778175568065,0.665484633952017,1.3223860240691512,0.6784459716256345,3.039986798039847,4.310694995543202,1.2662711974756033,0.42038643187261854,0.2851098749321564,0.20037209124476515,-1.1492397780366754,-0.03515670899163812,0.38052970651247425,0.5690602625956811,-0.1955568054663935,1.2087961499624686,-0.5283212931410124,0.3796470539700828,0.4725362074885582,0.020145965818299943,0.16347216456472835,-0.5002654124044248,0.8606205834461826,0.45999509015808476,-0.5332201247661656,0.47305182586051686,-1.323957140278613,-1.082549871564074,-1.940425244834955,-1.1596172157917122,-0.05552923945213576,0.932784343700536,3.3247855582253156,3.596577966207998,3.7833601946309368,1.8616708621924616,0.23901986961474153,-0.7117064292039416,0.33194357746979963,2.3836861244428453,1.5154503252589615,0.6016830131929843,0.6779575708496495,-0.45250787483728244,-0.7016841192195246,-1.4251463834759739,-0.4155993103719219,0.20623895892171995,-1.3300667517390647,0.10636764946026485,0.41008956786313266,-0.8929495275844823,-0.31243347263455745,-1.1707514493631284,-0.4682891535472719,-1.426690886590456,-2.236767813239554,-0.6690401504018227,-0.05156206226058015,1.2696521449874771,2.024641370488476,4.167014195654888,3.5959405119762398,1.1053656175342423,1.1019575025534707,1.7668777973076897,1.6981855045926841,1.9038320607608192,0.0842326268589713,0.8675586886189853,-0.08030132228684793,0.09133494771545014,-0.19161565557009103,-1.5767500614726304,-0.8489757656566579,-0.24111642970520658,0.4698997673899843,0.09127818158554285,0.3133633709697645,0.10400783909594111,-0.5731342669364902,0.2739006105752276,-0.9169158198982148,-1.551694016852053,-1.2673433172880681,-1.4068159193983223,-0.7919121288475416,0.28759527224657094,3.288697894283666,2.710517152899567,3.4402160607407977,3.4617734283112442,2.980106741603946,3.85521095768585,2.209255033289994,2.6061781194444804,1.3944957038257177,0.5071036574145766,-0.5638198339269983,-1.015664362057699,-0.8280816572059138,-2.1017893275820563,-0.906721972446657,-0.373065403729356,0.14042742953765625,0.6361190696441184,-0.07251829037140012,0.08585407188574742,-0.2275459208083988,-0.7909100725154747,-0.1933130030451587,-0.7786235239178086,-2.163013131913828,-1.2704064117985028,-2.586161990906479,-1.133167310895697,0.3686510052385537,2.6302141193025483,2.862926451671802,5.050324856390217,4.238524598628019,3.037351582419753,2.4666983228689876,1.3647321996076032,0.2862345805606488,-1.1165980633636157,-1.8116101056500917,-1.0403444509247297,-2.2498969438231224,-1.413994237989472,0.45692256295873757,-0.25792964335186364,-0.0347439413330064,0.8631935533250317,-0.747395110556855,-0.43123107845386244,-0.5002040546579697,-0.2558449730469663,0.6914027027002129,0.12375714282958303,-1.2148603145754981,-0.81108675570133,-1.6867585554592377,-1.4105883243830517,-2.017544372029925,-2.0446404421663087,-1.1960960062007127,-0.2341269896466393,0.10853977891708837,0.4839327528334389,-0.021090640287865746,-0.5205032460014746,-1.9478520548365248,-0.7685247319680988,-1.0543040476584298,-0.7287887774126026,-0.0016103031952925115,-0.2170318487262631,-0.21206704529468084,0.9624760143086646,-0.7789777455502538,-0.4898435381222297,-0.7323222507920291,0.6196165190932448,0.39168249405948147,0.27064732979141054,0.28610042263857915,0.23578488226914832,-0.09389942369521877,-0.32133259731399577,-1.415403703979208,-1.9576957723733384,-0.806209172668373,-3.0583258386096177,-1.9168913463715498,-3.411947854954414,-4.023133411592231,-2.682270431178658,-2.0826845429261023,-1.2675048104247555,-0.4174430897793786,-1.3325680040362828,-1.2375344943901034,0.47326384655550785,-0.7185720962611988,-0.5843363961391712,-0.16841591130738795,-0.7238091616571116,0.844806427174109,-0.16403135605991293,0.4375967661695688,-0.4188896534032742,-0.07182433425734769,-0.8952185710943805,-0.31338761650648905,0.26152435852715034,0.7244427117053506,0.505371278215009,-1.1943096292026352,0.10580759622416137,-0.6514296403822497,-0.6063116662890348,-0.6265858696300813,-1.6715193838449116,-0.8330144331962517,-1.2916344007826732,-0.20729984393063144,0.2005247378301479,-0.39749532131780085,-0.006771583674476117,0.6183178406490331,-0.4179973440469386,0.7401996545230802,-0.05937020289168394,0.8126777398874625,0.5398717425444157,0.546321879896831,-0.29336609933826474,0.7426491045210497,0.6521514874223615,-0.9871376633588882,-0.008001435916856295,-0.3547445593066134,0.8325293323504979,0.3350800946649733,0.7707355239028318,0.0020871700629824788,-0.10169423757593474,0.4268296011661282,-0.48495895168026826,-0.16522015585910887,0.5311695049245152,-0.9569528423451149,0.12031358422427492,-0.13491936326790224,0.39785336631881774,-0.9488770285290207,0.7946484802179317,-0.9593838119668183,-0.07503466079047756,0.9107388481045927,-0.15963252272707532,-0.9301775145277708,0.0474823204838975,0.6103565810621872,0.4631948379635664,-0.9873663588698676,0.44510509599648906,-0.7604661145008502,0.9834587764873683,0.5571103586828495,0.24793043718728436,0.34940698230428535,0.2432611212888409,-0.636338937907094,0.8669658647914747,0.6235888671207119,-0.22099310344373568,0.23326787376875735,0.09101046786066727,-0.646920507925548,0.5076188846267631,-0.4273750960280938,-0.12578234648071349,-0.022450814530213893,0.6494755548660901,-0.6265507278526388,0.298744949639113,-0.8932959907995918,-0.7073227255992426,0.4978288447989867,-0.7285822941614621,0.2514987039477661,0.22226395463719095,0.9672139343921355,0.6515457276363019,-0.771223786071364,0.5594247570995734,0.6897616915012867,-0.9355229858708445,-0.2310560523050081,-0.016267615497724663,0.5770806093762071,0.4331613371812429,0.27225818352278575,-0.025304439898664068,0.8664080565584331,-0.42898408593830606,-0.3314535462039337,-0.1529505413338866,0.044897194589127755,-0.7178451827097639,0.4027181186306069,-0.9896396861405764,-0.42998952109007194,0.0850089345521735,0.7602337675486306,0.2222911999759123,0.6988250126273039,0.18513670463739218,-0.7278989131143856,0.7708940115437743,
