3:-57.62320041716407:-0.530713730096984,-0.30890943193876663,-0.2972100255189951,0.8533756983419492,-0.9199991659852682,0.10746019535150952,0.09719189249740046,0.6024217476417302,0.655098691038094,0.9530094071623336,-0.2916516592268774,-0.5516549010841021,-0.0956040817714261,-0.014476371019311207,-0.7358881198384746,-0.30926496545192217,-0.7028245654943455,-0.015025235631011657,-0.8687126828857339,0.1674544640361626,0.5012539364090469,-0.7580662160766649,0.3097838020061203,0.045063005178834104,-0.7647868537108204,-0.8715870240690258,0.1024128923767782,-0.7946278537810221,0.8131527023950307,-0.7600311930054526,-0.8062082734712199,-0.10237257192748594,0.5851515566215963,-0.40015127599499256,-0.9231107164568899,0.8590152197422302,0.4629513854930959,-0.0195808661370975,-0.9666689425264438,0.20189524677175968,0.7692045055536189,0.5240641813444059,0.20365627602396966,-1.0217633065564382,-0.2926864590312481,-0.46480168100453906,0.676299711496356,-0.07855513193251987,-0.6561358431441815,-0.43301735343794195,-0.02085697050376686,-0.6425492003401707,0.7579709251353732,-0.2591582221804254,-0.12490209666375018,0.20567291137713495,0.2586957199374802,0.6136384409471136,0.9431257992577289,0.6698716999929946,0.2480273835661992,-0.15346506146677094,-0.9341600106301314,0.2713745748047523,-0.3212806236207932,0.4359620555951287,0.673688196932731,0.6281906150452491,-0.9316487262417559,0.2839061067424547,0.27429859939416357,0.28822764527090156,-0.0737341200091976,0.6857324791545805,0.7719632856073001,-0.6666047107103085,0.6163424577063275,-0.5307953420127721,0.1488632522940644,-0.7196960014976762,-0.7862379565872868,0.9414079106644297,-0.4135449021635762,0.8348893309707495,-0.0605612084405851,0.16851449348451286,0.5639114353835493,-0.24734765273370019,-0.8113171877323463,0.024949070313065487,1.0069186794831317,-0.8866821377432966,-0.8804175802558085,0.09879546227523944,1.0785520623355909,1.4714338349319485,-0.048948279348239074,1.3564382054295843,0.39485440699199,0.5325538992863765,0.937540456590924,1.1853874572512417,0.8951995356428144,0.8990173078143476,0.4437795813994497,-0.30681669742989154,-0.2682897572214292,-0.6860683400099443,-0.6067698774779505,-0.5670793297388266,-0.7671896089732775,-0.648854617088509,-0.4906642196461153,0.8756070606456752,-0.2978582598173184,-0.3280806317379301,0.47306459942005774,0.7506875166430944,-0.656638515095094,0.4066415432176551,1.8428644079431618,1.2062912608475849,2.3178969648542918,2.083830577618566,1.9920102539680655,2.3313093882453106,1.3844925883678614,1.4597192171214695,1.6389753260982014,-0.12525652051656372,0.5289034400681929,0.8172103559420009,-0.6799496983605094,-1.4162764789327735,-0.7684006464817452,-1.3977141652561875,-0.5740176334420751,-0.322826784547443,0.8913988802246522,0.24075894028111855,0.3333313468202659,0.789941877599079,0.6578345075746185,-0.6846025210390253,0.8870261485290643,0.4118084620611908,1.7472773695412271,0.6133107497899981,0.8053127366960259,2.0277704044512364,0.6234149535784552,1.6308872217037875,1.8148960282246218,1.6318742599244076,-0.2916985989528212,0.7022303403622601,1.8301747832103388,-1.16109674352471,-0.9635605507683552,-1.4119680048488654,-2.6303007723947625,-3.2813846687591854,-3.407516341693073,-2.212975424575073,0.4575570153998964,-0.0175556941616077,0.22857585816247528,0.23211393103105735,0.0814732671359979,0.9838426309109036,-0.2016127081265627,-0.47015647667457344,1.449477837672998,1.2546726332443594,0.26935186333266853,0.9763246308728019,1.6257604675832849,0.6949332575849677,0.40789791072499143,0.7614380831796841,1.113433341112036,2.6833949581399166,1.6328497886279103,1.3458708998988793,0.7838092066876134,1.3785695360237769,-0.8545016485522727,-0.9852437853424109,-0.20900908319921307,-0.8610477808630811,-3.241882062681473,-3.0134650215081114,-1.1328158009910347,-0.9641246243070839,-0.575985215919604,-0.04539430379509072,-0.12553917827967537,-0.9069133772801206,0.6348273371064869,0.812136154055247,1.9189771544789946,2.0607287264570004,0.08929423713291097,-0.3561405041520345,0.38429166898754363,-0.0435551654490223,-0.37202199792080387,0.40423873244199693,-0.0929401371245129,1.1406954819345108,2.1050191607047664,1.7149240293102943,2.7000280989275542,1.028957183340628,0.0990483356275416,0.004539644158199569,0.8993660050526914,-0.437100524959132,-2.144575861004093,-3.1611033320753776,-0.8950956364824592,-1.120972768360314,-0.605436855013358,0.97810561973601,-0.07264610645418987,0.22387601089639622,0.33821817103489343,1.056155966108671,2.004769954202912,1.7711203974791476,0.4870436564780288,-0.12437899979607059,0.6482352009795708,-0.9632207718834602,0.4843988272634707,-0.05975725497778646,-0.490720913406352,0.9818087162735634,1.274184033497462,1.011816510377642,0.34577972975713966,0.5130696837357706,0.9678426494196029,0.3725630345401859,1.1331808212086707,0.9513152670301636,-1.2160264148333582,-2.654621622459487,-1.99544030108397,0.2387519799259166,-0.8181001054201436,0.7470666616161528,0.8745025834840733,-1.0096068060794299,0.8804909125145421,-0.760940525469353,1.324442718605948,-0.476262346454916,-0.2878897654148645,0.2602513567649182,-2.572933123558927,-3.577203075175166,-3.5602080547881907,-5.27509242161583,-4.546961924205726,-2.4070501721629833,0.9050250609617035,2.394380423672815,1.05079373559896,1.1614087284879924,-0.2623410378367578,0.8198883510115365,1.3869329186397188,1.3243282025476766,-1.6148556387922852,-2.5915545467608907,-0.7465392146565814,-0.7225003734661486,0.2688507424325506,0.65314866975102,0.6324619856874676,-0.7439726990196887,-0.012877915063379923,0.5508186183992118,-0.10585270913641799,0.6977856299486767,-1.73200987072925,-2.413781489283567,-4.658020266242026,-5.463505925597798,-7.040295349264763,-7.056836188753803,-3.2154127108215036,0.1822553380346087,3.1750602026422454,2.754921732353781,2.658658203024156,2.087258322483436,3.268470321982628,0.6110096919789814,2.0234702302010397,1.4367672561404023,-1.0423869646685586,-1.2205346365141698,-0.10133164462625704,-0.46266009131324654,-0.46893375357835526,-0.8628715610236697,0.7693133528266518,-0.6754615418798015,0.8825764407472393,0.018294995502964637,-1.2110500632134045,-0.5196355219893883,-1.9649839662966515,-3.4669724512053803,-4.158842089508294,-5.722508346253913,-4.219548090734018,-2.595058002371292,-0.7205893375339937,1.6482346634241332,1.8944548472539124,3.007213214129823,3.22196745307809,2.5479405212738078,3.205099946724732,1.6942249677005758,0.49888841254794236,-1.2685426598244918,-1.7330772007078372,0.28164649872779335,-0.5698196568213327,0.22449847650999508,-0.4698430154412032,0.3156156007901482,-0.10281125225099519,-0.46903522858668933,-0.5134476184572855,-0.867766963413824,-0.04788615328384206,-0.8612649914508947,-2.855199885640779,-3.0896734750855015,-3.3601859862975014,-3.762659056287596,-1.4049864222622774,0.01327495413863613,1.872756250804135,1.1962922372209515,2.8345335316767333,2.7068259214890076,2.1720786070699316,0.6299278895636794,1.365462484708911,-1.1840634042662206,-2.2269244097461645,-1.8977551811983384,-1.2456299746635744,-0.4177168347228349,-0.18877675580064723,0.7257183057156505,0.48904301846212794,-0.8432269886238053,0.5914866005073258,0.6429034262035465,-0.48079560953161393,0.3577660202399872,-1.224681176047057,-0.9591919602270443,-1.3662176181096903,-2.544707965925753,-1.6218192888195044,-2.478092923033088,-2.1239802153315956,0.2110187610242275,2.9215580182432874,3.1704057755153188,3.1688642737658386,1.5874596543924477,1.0483780727067606,0.9079676781525007,-0.4143447372036497,-0.43484132354057087,-2.2931927197135495,-1.0467035031414111,-1.5984568926525107,-0.031107930773477725,-0.6563786142172263,-0.7954517934685281,0.8199460720218505,0.7005323408760864,0.7639310152704437,-0.3077564018100173,-1.0302024170391053,-0.31608610410077,-1.3862696905432186,-1.03183069623018,-1.0688062923365949,-1.5537734202251021,-2.1549516276960943,-1.684640605561636,-2.180661253453465,-0.38059327338878596,2.3471012046759143,1.8981530526948118,1.9676136654455083,0.3025159697791338,-0.20270322804052507,0.8669240769091685,-0.03881341498189271,-0.16975513409818482,-0.02579372466649571,-0.17997581208628774,-1.3651774988285215,-0.5565083674161887,-0.0649440394181137,0.9278050244590612,0.5366685998636986,-0.7680608899932192,0.27798688032602337,0.5530413120366968,-0.06125238614731768,1.1745651688868324,0.24419875515503806,-0.376865107815054,-2.062902989660461,-1.9558747218158832,-3.1686456125880222,-1.5233569932948008,-1.5884143985246504,-0.5644825625910137,1.1274506297728122,3.159934688784141,2.7472123453436015,0.3833803855184466,-1.6076970884187685,-0.021498318318413027,1.3468217237289564,1.136049991019832,2.240328940936137,2.0572543929075366,1.0209507971486609,-0.7469865372098727,-0.03305623560329015,-0.12983742121176586,-0.8854065975745905,-0.3535390559931082,0.8939733483092549,0.40784035702541366,-0.20321809053113546,0.5045171565666522,0.6919839270463641,-0.07765342297402728,-1.7490497168302306,-2.7407387746066547,-2.5871360203834586,-4.009535879819202,-3.059768816901194,-2.165232472526255,-0.8939228450562309,-1.2344082421832159,0.44831478582129486,0.5368394193902492,0.2413910233160187,0.7469763595597756,1.5815685025136696,2.5009424227575496,1.417021928628016,2.5171167843597595,0.5068344705930152,0.3180823308306528,-0.034045693948516795,0.0476295778639106,-0.5134287619164569,-0.445963685293445,0.36754552908278426,0.8479813741014588,1.08057073832873,1.1880269512856563,0.3267378869388886,1.5574612338564344,-1.4885297084771067,-1.3185473665011724,-4.2760357034110665,-5.702973159383627,-5.72938800265305,-5.223301885768157,-6.343754853068459,-4.7450759083194844,-4.559100241973824,-1.3149455820428257,-0.017910773595837585,1.9723018368903227,0.138069196285871,1.618853109941304,2.039351737381653,2.1842580524782136,0.7433433725787676,0.7981720215541616,-1.0981254108187273,-0.5261672417978706,0.26599986970669065,0.8693834626117188,-0.30096313385074636,-0.08871682457634383,-0.2974099293216009,1.6886348261107953,1.82818312193862,1.6345966749746514,-1.5023183005648155,-2.037356838663667,-2.7401514864260124,-5.802102186369781,-5.465852622427439,-6.906357311155868,-6.171269766089678,-6.778507264120479,-5.167654893991261,-2.0789883033796115,1.8303078684879326,0.9767238861081795,1.076420807450114,1.8629724356705446,1.4127270760702224,1.1482467548552595,1.110163657882173,-0.13801587034157767,-1.1248416901411493,0.3545413442564426,0.22068607266563622,-0.20289633867421708,0.1425212247672023,-0.10555468553407124,1.2944509516059939,2.305628374049236,1.8617960507765527,1.353128096866407,-0.5907103739421935,-0.11064588816217363,-1.82750049918898,-2.0447186478123207,-2.717698988733151,-2.8879636734859515,-2.8776308296551316,-3.902979181768996,-4.286807138493133,-1.7649902280901864,0.8247862073689858,0.3803634831135832,1.6277259877594672,1.3950739480862475,1.242848995400126,-0.12246424980566556,-0.10644965479796925,-2.3015309526481595,-2.0329512524490903,-0.014990635333670623,-0.9462455136147234,0.2253744239665229,-0.36785112514415164,0.23271937154690736,1.3730903108917265,2.024508912788536,2.555662851245736,1.4551876790523706,1.4386298968568543,-0.5702489527250444,0.531581029776486,-0.6232871292778654,-0.21596829175048263,0.40207025278081393,-0.9378771423356717,-2.7021073336642436,-1.6799290988162796,-0.4700137592379295,-0.988480765034324,0.7123564528434502,-0.04712598812228526,0.3853713340870054,0.8959068871454068,-0.5923179783603971,-0.41389108765540694,-1.548425832527627,-1.1097255520139968,0.2594421823791023,-0.3191157108980556,-0.43534103655394585,0.7699044776809848,-0.6589909126965775,0.05894791229636478,0.8746007177174646,2.8852518622537224,2.7279106752440705,1.3104385456221612,2.0808268969324626,0.8836082349430985,-0.29259168448557127,0.8932842451229535,-0.47443800479807274,1.1821868881631323,1.5854893491670428,0.49071631466789134,-0.8714693272542504,-0.716538317999084,0.3186681186238562,1.141545619647902,1.7232993298209038,0.6534877934621062,-1.744603550780106,-2.087721187458736,-2.457868295579751,-0.6978738001280115,-0.8542912539514217,0.17867725163946596,0.05464908707904881,0.4424305929166836,0.15584068228589784,-0.36231862128987435,0.8821158329048437,1.8157318934907631,2.671804316304525,1.8545327101670201,0.8358803489886732,-0.6831565353717792,0.17016100901291212,1.2120674159141047,1.6018128453260714,0.683351036984638,0.31232862648684057,0.015272613456816395,0.4406351970133016,-0.20722441590533808,1.073939913077769,0.016870861436573896,1.5186018222994921,-0.1227220118517293,-0.7614759883811146,-0.8136137856467957,-0.5665242152808365,0.2990796725377499,0.5046256847195233,0.7475252915333537,0.42618957874675845,0.49615530156031507,0.12237929476347476,-0.08708113528000994,0.5459339208079891,2.3803100268615167,1.708569266610101,2.258203574849986,2.712486126951174,1.5331000332543256,1.4263547516549628,1.3433928464587694,0.8203292245864391,1.4246860280858993,1.284627029287383,1.6034832357834072,-0.19257443976605212,-0.4824897667292962,-0.30627203743821596,1.3744050785667166,0.1734233790764533,-1.1569713150086027,-1.0892243860840425,-0.992623655534709,0.1312493903961569,-0.35620229735448633,-0.5078252906786758,-0.31125958831584954,0.7389358608799665,-0.3013436348337586,0.5925554997757052,0.4992019881331612,0.6880380251653664,0.2475088013131449,2.1360279584655446,2.106743445279181,1.4398792807751146,2.8993693479301466,2.06756421062435,2.070023981483682,1.079928027623096,1.139413053174645,1.9322166056090282,-0.2999088971384203,-0.7961284870064419,0.1497271132819724,0.004660046072754822,-0.4686838109381151,-0.7359220087592733,-1.0037790696972535,-0.867450370728023,0.2772516153940935,-0.9066055868368933,0.8237532668914496,-0.7989826429368632,-0.9530558389039074,0.888324575558705,-0.5494386817531802,-0.17465271170257446,-0.1439218195125902,1.0064246433933473,-0.11181741715121503,0.09006488409605992,0.6869700985116324,1.5001917797520958,0.1802557150686342,0.5787995888092021,1.5350979715304571,0.6780169430535762,1.8190351827630489,0.6748547449426098,0.5958797363454508,1.0750975191468362,-0.14623714024457804,-1.2228806597217723,-0.5327223807277889,-0.11878828883565175,-1.2909165410075534,0.6414426059945115,0.6092731171236471,-0.15728903603849867,-0.2418024478978212,0.4065404658454599,-0.7551515279259908,-0.9155606758100203,-0.6138937432466736,-0.9355456279357057,0.4031183872957371,0.519857824645028,0.9849634765330526,0.37923814050733734,-0.48249955611311823,0.25993661254300715,0.44698357501715535,-0.9121181355352636,0.015429126042038976,-0.4940756505864691,-0.10735965908506336,-1.0446535049492873,0.43773856086806545,-0.3633958895288525,0.3651891901175219,0.4467248595587945,0.05721359089575839,0.22859732355890286,-0.15501244572525938,0.04323886885937763,0.04191276658509352,-0.7139365646949812,-0.6053104665550251,0.33163727193388226,-0.38067106657024974,0.21940801272927835,0.11180373572048685,-0.28675248887537985,-0.35023958757532614,-0.1833280816526648,0.5970780938098652,0.8223588766377459,-0.37075036350993806,0.528888802310335,0.017104851889745937,-0.37647455515732653,-0.7224147524619524,0.9567664441166327,-0.6325245480124534,-0.3736603707371194,-0.14694396081101835,-0.31463909772201437,-0.531784146495711,0.7940585187180346,-0.42279577206646973,0.16266206145069717,-0.2919866533385194,0.599268069118152,-0.4448651725762974,-0.4448490184751204,0.09401243186216757,-0.580902383736096,0.9960043771364022,-0.3517152961705181,
2:-51.10098658639529:-0.6109152341945256,-0.40020901418406396,0.9849037614565974,-0.9403842792308506,-0.6456742653799392,0.35552013827511764,-0.3343526386450537,0.9947863658464666,-0.16117175837213837,-0.3992871404306546,0.9566186546815687,-0.6702185172352122,0.9953080603216525,-0.7346697134428497,0.623906276005371,0.3671408351938825,0.24280166995119767,-0.15042248461672458,-0.29696946081271824,-0.5168373062150946,-0.20183016542360277,-0.7474249211925328,-0.7825242018838483,-0.6750088834846577,0.2863359301955286,-0.5642241439842073,0.6258427587986535,0.9135719471807711,0.4952422951329416,0.7552596379401582,-0.27127305157984893,0.8156273451863287,-0.9377955289715931,-0.529273355654859,0.518240947783135,-0.5053506250241683,0.12285219935894624,0.6533545932977153,-0.23746347731518602,-0.006429681783886804,0.08024115497693202,0.6716818578793204,-1.0167677011343537,0.3139230014935285,-0.6588596597969087,-0.17596507135666326,0.1625242060492461,0.022633520269965568,-0.8738466633064481,0.33736389999703253,-0.3764528155088567,0.5822265996980953,0.6449583272169228,-0.5951276269950798,0.6788163030954322,0.6241882648441657,-0.316678311987614,0.9650565738271712,0.35481924589899494,0.5339983682658913,-0.8032275056342725,-0.5891432477067405,-0.46677369286324905,-0.2740027891962528,0.7058025253647394,0.28653004418536304,-0.26287600816652856,0.09226029359229025,0.2495052293091699,0.14783794083430563,-0.9938338522369536,0.20047644513160487,-0.19759233079517952,-1.3188140315750072,-0.9442794628711624,-0.6572141728718406,-0.5185746641618396,-0.12565752428293597,0.1780076067945524,-0.017403036604675074,0.19792818162305517,-0.43282305552687333,0.8735777809231455,-0.0030735224354254687,0.4298801073018965,0.23004995068068812,0.7398970987126773,-0.6470218013812812,0.6097144082571667,0.21713264359387535,0.6993710106412484,0.296613718099054,1.3162672131339987,0.27448571226821744,1.7233612344710327,0.5358286525441455,0.6362053680692366,1.8793984112621285,0.13643455793956583,-0.9551733778213009,0.04687919928368112,-1.7475481669316506,-1.3202186505662887,-1.5788059530794087,-1.3678935296280015,-0.5901968294854374,0.21112256969882648,-0.6823743291546224,0.8684945770785033,0.08831772798879996,-0.8312976069050074,0.5739541056417019,-0.542267153364264,0.27851190956819094,-0.539572169359208,-0.12406861126025494,-0.7037606121273908,-0.026978788125482798,-0.6801644215197825,0.8716553196739693,1.0884390540417281,1.6338026010470779,2.5648195064627544,1.9594915338062453,2.102297675936414,1.5495611671202114,0.7072531189390296,1.0761675086489542,2.179086973293455,1.148702677589891,-0.1962793680557522,0.36738412219297506,-0.029431078077844248,-0.9006082732096655,-0.16666680158569233,0.33316446476332134,-0.049277291658145206,0.27205990527803176,-0.9870906210685902,0.2758924595557312,-0.5334634273014631,-0.8048363861221364,0.8224092512392434,0.19870998555690325,0.5558114370027358,-0.2789301369003738,1.2920427867512851,0.6614632740139551,1.1488105069511367,0.10560353152580382,2.3040288228417256,1.2012244835681007,1.8126568774983303,2.1187133609494246,2.9179535951240436,2.240249494336924,2.106645843367697,1.0784072802388922,0.25058086417083125,0.42760176638616115,-0.04983673916567305,-1.0176250223942147,-1.6246659523829374,-1.2661750822012383,-1.1306231945540834,-0.26873004691591373,-0.303958233249256,0.9437881085263035,0.8443619802696254,0.3871209531786011,-0.2988019415443603,0.5185114187147475,0.09955207163879673,-0.4666277147131631,-0.5771878711175084,0.638962618065043,0.3756664135495037,-0.24829772986226648,0.32371492041644656,0.8161450769563727,0.9676541984227672,0.8385786561932573,1.175361127643328,1.1986459379183079,-0.17694776092318568,1.1243025443594161,-0.5150999588394676,-0.29462054205358057,-0.4690675617825159,-1.1580632164514284,-0.8877154355482082,-1.3883391134896548,-1.0489389224362458,0.060145234747781356,-0.5868901361993388,0.2974389947515863,0.19417901067377155,-0.7075619631689386,0.5636969130546885,-0.7882419710445353,-1.0048243419964376,-0.12457231273915415,1.2355897278437307,0.25021002078249927,0.8886340638103145,1.2857722256989574,0.7246246584700403,0.7237906939931313,0.5295932001533711,0.4080812805123953,0.2018107047088314,0.5447488780678484,0.37553328175928047,-0.9249491599616837,-0.08295022447970314,-1.3246058250281931,-0.20465311120220683,-0.8029033174430276,-0.550151471738132,-0.2350641743649735,-0.5502560973615735,0.22848164439243412,0.6297221925303934,0.9763570350462195,0.104876534043791,0.786855811508243,0.005740370311624185,-0.1513070394148269,-0.9284308557194149,1.181647109168898,-0.7445735762291128,-0.6630566736638025,0.47787596200541954,0.3002915787973229,1.6028002747645815,0.638883922713861,0.8997575691228864,0.3124940426467147,1.866374463194692,1.8917139779738898,0.10928023002431764,1.0315094744412725,-0.7896678433741855,-0.07412396174025418,-0.1892724872206074,-0.014580177628966608,-0.6602502189239348,-0.8730246308110307,-1.2430198128060495,0.29982418259052496,-0.8672418749799394,-0.416412518664468,-0.8703187593367487,-0.786880717222254,0.05837264214694891,-0.69918965149258,0.631956717933054,1.4193377072763624,-0.4392687347377943,-0.6542991487890978,-1.4332409461246196,-0.2736403728354788,-0.27284122314975323,1.0594921962397628,-0.2513040964047896,-0.8155817167712341,0.7042984124231318,1.257704767835736,1.0194284014587471,0.9852672484234422,0.5116387899639285,-0.5134190118948939,-0.6074430169502063,-0.977278257163729,-0.29915527274107656,-0.4995133659409597,-0.67375783699955,0.390034804685672,0.36772790572523556,-0.8875202409921332,-0.5945981471297392,-0.5393198207961071,0.8935025546194957,0.6889915857255507,-0.8476169389714068,-0.6859556709605215,-0.8178511184329909,-0.5955762734988502,-0.3071419896899261,-1.8894903937328258,-0.8060168293169933,-2.21692512767387,-2.0041303248968787,-3.8948274152223767,-1.447608877942781,-1.7041080592911664,0.20816627981745364,0.521041839198564,1.7116336632833795,0.6946256055847206,-0.9762217236355966,-0.24859581950075693,-1.3972734201175356,-0.952481802231163,-0.3342793347837219,0.6581904305502275,-0.1622909811982162,-0.5723817872034536,-0.24558763246395457,-0.772695995812374,0.7471243293218935,0.2011401493937951,-0.8485299941700475,-1.7014717392476733,-1.709261948779511,-2.954313504103742,-3.369191930621024,-3.9147109465488446,-2.916075262914949,-3.8799373798931014,-5.002514617154512,-4.210137672354186,-4.703598337130722,-2.6499293270360598,0.06530697250778648,-0.5292153544410166,-0.38631694614616713,0.3656662679143382,-0.3382346854883317,-0.5266459454069843,-0.0059079957290852775,-1.582598899846949,-0.7427037683816476,0.03794088980907525,0.4651397384587474,-0.1400066461035815,0.45663561738658587,0.03995522648403047,-0.5845871493068724,0.6773643005234627,0.2774059757597927,-3.181431670964581,-3.592391746119821,-4.415375145024836,-3.571208541943687,-4.2629377802195885,-5.565257808030687,-5.152600960514707,-4.682239641848176,-4.128050403285606,-3.400391049718787,-2.208342986956548,-1.2815387799674895,-1.1240060615611633,0.04080587150722137,0.6307299614056141,-0.2218861078425102,-0.608090415673849,-1.118242329992571,-1.8726451025221693,-1.06962769845381,0.5211012508263602,0.7048081012737368,-0.02665916875659709,0.16227553664438985,-0.7601895021090174,0.21780159332557456,-0.7675379098679934,0.34378384172345067,-3.016386222913902,-3.711467765982893,-4.772906434517731,-5.4962869976011275,-5.442986884929877,-4.296883867519194,-2.8060475508746783,-2.7742111653752897,-2.013311667698279,-1.214312324639006,-2.4349177575759766,-1.899463834050352,-1.0095340510859583,-0.7300847199762422,0.08521228080935384,-1.0978127846508374,-1.0047791027919066,-2.808902598075623,-2.3343747059985813,-0.3740278418397494,0.3357092790138077,0.007379244015850143,0.9462811448299859,-0.36339189631006863,-0.40089139332816226,-0.7293386312160938,0.7997167563122582,-1.0775563911679475,-2.5817645707816417,-3.1863403009631366,-2.7042991611053715,-1.872900991677489,-0.16796246031312148,0.3730067834195386,0.6014989870801388,0.5139547769079821,-0.03613325991318079,-0.2597513774552144,-1.6801155842788553,-1.9310322475431743,-0.9185786089862109,-0.6565746351584338,-0.5125261811686984,-1.296566628618624,-1.691332310921961,-2.1143772016556057,-1.2439433666847808,-0.8214238068266927,-0.7711134155154491,-0.6734413355447276,0.83876289950739,-0.813615491854439,0.2282427383608066,-0.3009026370214265,-1.0384770028481483,-0.614548813625896,-1.0290689446474086,-0.5887958562191453,0.5768160187376602,0.20896887132915312,0.40755599256798253,1.766681550156797,1.5959229975823066,0.9640691673944488,2.927153492731647,0.48964767645181695,-0.11733580652092458,-1.552032827220097,-0.6670219805724176,-0.4666520140558269,-2.5022009758275723,-2.1180141977891846,-2.506933101070634,-1.961280334018908,-2.107784779898251,-1.1852456676696639,0.30361970851646075,-0.46269768014978796,0.3313604360018105,0.7130973738997438,0.17122891896196918,-0.7242122876290854,0.33399298967028307,-0.2674573686412657,1.0533336319038076,1.8704409649522349,1.0517142891402664,0.7925030329697559,1.7918049592218113,1.9325977338972724,0.7717025942837608,2.026995138629416,3.3262777082949273,0.6788031671260569,0.9455533156541124,0.5784321621704075,-0.18259253878002105,-0.28374513804830387,-1.4100593768040959,-0.6300338683624588,-1.1595719067004997,0.6224315853260282,-0.5229913069845924,0.8573884193032484,0.703821094848528,-0.37239758699771863,1.057757698661272,-0.628434537062742,0.16033150238603885,0.3120635352444835,-0.12874093992229474,1.5585194851687034,2.5532718994772416,2.23237038702679,1.2912925176723613,1.2003271425335527,0.560592245104309,0.5289864479723286,1.1348977380287613,1.3943845702600162,2.015294913081319,2.3890901737272965,1.1282338815469233,0.8919447942548884,1.472906401671579,-0.45759929520029685,-0.7644145971617627,-0.02036282877814128,0.25855776841451383,1.7864807133678613,1.954494731865915,1.010406065899191,1.9846919506269447,0.5062962296815182,0.81409430076953,-0.2170060256242024,0.046815094359692624,-0.8469553764147156,0.5643753098568219,1.2869468489723566,1.0582497637510724,1.992380300389125,1.5805331860473986,1.9770145312311647,0.9403749597272083,2.1536843259300524,1.6343933051730197,3.1719119086730667,3.442541036642273,1.452109079333387,1.3318497625586725,1.9071972013194827,0.8868064518620177,0.035818694859357424,1.0284243405073878,-0.4845441538468303,0.6889796506394481,1.1328176974227855,2.696573072103941,1.520635087983529,2.217712071040976,0.7967814772615256,-0.27286847229497235,-0.34012857862406864,0.7762989364255242,-0.8508562903750959,0.6915528592603888,0.716315577389859,2.162639941504706,1.8305523564064654,1.7265219784558659,0.7873842402444592,2.64750420476373,1.8064420838452904,3.4923097004610923,3.0346808311944806,2.127023605565302,0.93045335629489,0.29827888178352674,0.9421061418669234,0.2777391412051557,0.0679664496325431,-0.3011393600922075,-0.0899385976493324,1.3641613917253688,1.0898290438301435,1.8558718592222554,3.036581976049432,2.2926110194126226,0.16469011870570321,0.9535470626534333,-0.4542327634132395,0.5741811070265125,-0.6710220735275958,-0.5595346106263255,1.3802139115068575,0.4691517311814169,1.7522933537871177,1.9768589727918573,2.190302900176009,1.3989519694299513,0.18248627834641803,1.036008599123462,0.4374400889290916,-0.19387841724686838,-0.29128561215740767,0.11343500095300194,0.5594315567545053,0.22659513127463,1.4644637140132202,0.4283347190069851,0.37319851755629746,0.9048291933343482,3.3137554534085267,2.270084839661896,1.9444314638853697,0.5995804814409917,0.838799879183162,0.1733331737973888,-0.8437031375119763,-0.757073091769567,-0.5187872335062976,0.29174613940665134,1.1074040413910893,0.08324850581051128,0.804929445428583,1.2844125700456654,1.4515289624905243,1.2872886706328222,0.786223414795282,-0.12296681152365904,0.28942309269752264,-0.5974680940783258,-1.1620529362505883,-0.7152632078764773,-0.4402715283621935,-0.08372088323826177,1.1316585997195285,0.3045825381438963,2.007095018208104,1.9756429109326843,2.8467922103162833,2.821255062164541,0.6454456561868125,0.35243393228591446,0.1398981580875483,-0.8624099492853983,0.528225098234854,0.14684395919167567,0.1610655317338177,0.07930856578565963,0.793618980567343,1.073637251551654,-0.54876378794758,0.5427917428219649,0.7030338599159613,1.9117605840796557,0.877196603316655,1.4207645637822806,-1.1370138446151674,-1.6453104029820311,-0.3130686044280677,-0.993721452263326,-1.256140443858618,0.49999340331275105,0.4052122833327464,2.0903601745850517,2.0669034791284817,1.3096978376425132,1.4599501055162942,0.7014805224056188,1.5296211698295459,1.15204092002307,-0.15647933131037292,-0.12011450569512117,-0.15811985037907839,0.5712943689732095,0.6091395456923455,0.35718685767597674,0.5618615799119716,-0.20339261337081313,-0.6410318272571222,-0.7967488136575163,-1.1290674065325979,-1.0956670414628842,-2.1146411550073747,-0.37142788162050483,-1.0886305713348376,-1.5829836473243353,-1.082258825607106,-2.098767572895816,-1.2846457148939192,-0.309898935410013,-0.5335867448040843,-0.5182746067099533,0.5441150821840265,1.1982953048175002,1.4086847871593546,0.19453016256394148,-0.6479892412752387,0.9067362782178682,0.38089535479346753,-0.08661927068619324,-0.6222441555107836,-0.3078765640532837,-0.4057422701756389,-1.0207718431685027,0.07299830321414887,-1.5348328918842344,-0.3573465781716762,-1.2993762596004912,-2.0926747694717434,-1.6048131435326656,-1.658151590458181,-1.911872865106611,-1.6924120657731199,-0.8022539957787785,-1.2839290608813538,-1.0596379568599066,-1.4578883386877275,-1.6682346594789874,-0.9243832285657638,-0.0561705465495517,-1.059961921714195,-0.8753090608140675,0.5039307980538883,0.8870651805170575,-0.5384230856796358,0.009164696443954514,-0.3834683629705062,-0.14798255001418292,0.6013809346670276,-0.6225890274364958,-0.7185812819480412,0.06327806487637631,0.4872181867380272,0.4607171610744479,-0.6802619275045972,-0.09847275684548286,-0.9584059600244038,-1.912174586977685,-0.7797164310394115,-1.723090350372335,0.08272738530370018,-1.7082321932943323,-1.0060545756780328,-0.24261102178935545,0.24434308300213523,0.06681522015986298,0.2018404604405919,0.3719924483900253,-0.977682671855005,-0.005063199099532445,-0.915235502246836,-0.0922915964883446,-0.6075430602508622,-0.4726346518965749,-0.7511363404283216,0.8724510378845047,0.8412383698785417,0.46748111173826956,-0.31419210415417,-0.40410033268079965,0.2977253899189075,0.2693066252802218,-1.0144111768226327,-0.6614142212099429,0.1907192579293955,0.12309878960036819,-0.10402847059004798,0.41666741571123955,-0.7787785075825534,-1.0299142240557282,-0.626456536616201,-0.936719248589322,-0.8721778412055132,0.6409888902523504,-0.5977347871615774,-0.45324437088174446,0.18970761126269092,-0.5365160532299671,0.29177337802666925,-0.2477678825211464,-0.8531851284920594,0.07378934939589663,-0.27318537205535387,-0.6527336874361089,-0.5672795035637619,0.0404334088509557,0.03689341697654003,-0.5294137737999549,-0.11090149696450366,0.8274697999856666,-0.19729092518871047,0.1691499411576509,0.5332020582988206,0.061927980111527454,-0.6870954388908089,0.6407146256453063,0.16410944950895448,-0.6679891021789146,-0.5761572774900992,0.2534914006449261,-0.6256583721066054,-0.8566693990596704,0.33222821239045214,0.4809292209383442,-0.7061064035470934,-0.1885858649325012,0.3541451801686872,-0.03476349725507542,-0.6128141930737125,-0.5713267077405868,0.5129417795433029,0.5268547382534652,
1:-147.0717854218272:-0.6638809412530033,0.17335698731111915,-0.48929275066504685,-0.7020441988574178,-0.7464610119342014,0.07823698808697577,-0.8588089661538729,-0.3065606828600991,0.7574406719729205,-0.8952098741568113,0.7764698646454224,0.5874997708289456,-0.010646246456110564,0.8029232054427426,0.0640673872117623,0.38473594895208696,0.3410324497008783,-0.07356916479801723,-0.6634664881101231,-0.8719441597315938,-0.18976097529470382,-0.02891830063297518,-0.013102340885177588,-0.5439318847820331,-0.17638398343487305,0.5040889528967611,0.8817976231831133,-0.0333662410672817,0.47690351441761014,0.7181307068945726,-0.7989827824655866,0.959783624020907,0.7853359701636831,-0.8862097758592038,-0.4840062161690364,-0.9648393289356905,0.24213113554665733,-0.7525109751353682,-0.5938153202843431,-0.9164013434241232,-0.24943834452244534,0.07768824009570097,-0.5401668850161006,-0.16198485041350594,-0.17511559371087299,0.6003279294243237,0.12641093673339546,0.3493429759689973,-0.14966880916110661,0.1852542241101355,-0.4710626133096976,-0.5336362242609576,0.13922555781146695,0.30831699757050934,-0.8535498375051525,0.790357386019233,0.5542705501067773,0.2200603458462218,-0.006343274468492144,-0.6445108456669226,-0.4703133147345002,0.4994695039395878,0.851653261579232,-0.1971949866596111,-0.5294859695309576,0.3928059157717472,0.016825916206260352,0.816909030706582,0.7858051313106998,-0.47053889787182124,0.8894321943770144,0.9314999354091092,0.8396638498389677,-0.8967861376825415,0.06851560024568867,-0.5639356933849446,0.5652587018245735,0.6650738885786293,-0.21216979421905177,-0.1730576971615978,-0.8389960252026111,0.6852925535827993,-0.7942951122329287,0.3894379358984297,-0.8127165044265676,0.14541990207280375,-0.3429472607708066,-0.04707945973727612,0.9128404646501234,0.4034321316115318,-0.7393808807057575,-0.08214983695006356,0.4339009066078547,0.01425499273656371,-0.2512913423279212,-1.6517312217355973,-0.9023478937155952,-0.9851196902351749,-0.9706987622269975,-1.2599529078105538,-0.9121685592763272,-1.6837949518055981,-0.3029651414935315,-1.2109541406939788,0.04109011450284804,0.3540169725426678,-0.6056949324484439,0.530352171172641,-0.007461871225332251,-0.6171577453803611,0.44558455363056787,-0.13032957309098858,0.17292722383781278,-0.8977983357261639,-0.4123559334926177,0.539526233592606,-0.7688498420101126,-0.9241683547039532,0.46021950542641477,-1.360703914972138,-1.6162290959576304,-2.1924009076956326,-1.2865933468982467,-0.6367104615970374,-0.3428323000527549,0.9492722234731382,0.19598699470037248,-0.6503171959790396,-1.0952186677093423,0.6749726617740385,1.0965339211048093,1.8346637135642572,2.6582213221896875,3.054278726944282,1.2150504695310125,0.7858592044463252,-0.5557121074111566,0.14807470008856843,0.85791606669597,-0.5654627043720764,0.03173443225465089,-0.44131730156338556,-0.5844919618192995,-0.1884458005281011,-0.5431666965522666,0.6441845358968991,-0.8225140894647872,-1.1904510336310998,-0.6976349178020502,-2.228353521119145,-2.7868291038509203,-1.4688745504626008,0.19281756545128356,2.378264597339413,0.9363458813201164,-2.2092263441426687,-1.5918889808087524,-0.8573654191314429,0.9375357444402419,1.5403782726832862,4.920070383402486,3.8474893457718022,1.95550121548196,0.8693902015492238,-0.8584023578817506,8.307263371697346E-4,0.8021937753921639,0.2678100472057021,0.7662583981934861,-0.2014033854171271,-0.8385788943602219,0.7115458725893362,-0.606757024417165,-0.3493239492442946,-1.7465650642079684,-0.6732898865444082,-3.212248052717052,-3.553186811673066,-4.507905285099955,-2.4057984712654705,0.6418457103917818,1.7689699249797717,0.27944252126416363,-2.5403325195916344,-4.179606928507145,-1.553063899691787,-0.46817270024488833,1.919704595049807,1.6047219328101752,0.7136969737575006,-0.5404892578731638,-0.5564202579745384,0.04549728081374501,0.3229403638173818,-0.42653273798913954,-0.12725530927840778,-0.15155494993523902,0.8886578819531809,0.6091048107029644,-0.2203802200556244,-0.7216324159863737,-0.5781269039887266,-0.9844075320576074,-1.9445752292677407,-2.0952929663380435,-2.985808927978152,-5.186200210525548,-3.1964487387308043,-0.09763006877507244,1.6352852653754055,-0.6334155935175336,-1.9774828932800257,-1.642677452783343,-1.8250104542055892,0.570261490742748,1.604782175538631,-0.288674482796492,-0.677141049074548,-1.4327188188417803,-0.6439101168060756,-1.1593557147166826,-0.012460568353091124,-0.6566500496383458,-0.17868572006909864,-0.030466164486633623,0.8077918059487006,0.8545456856900334,-0.858983294467636,0.6027521384728874,-1.056745304188866,0.191672958669305,-2.744730917832907,-2.6741876060859395,-2.685541354462869,-4.262288018864777,-4.658428244356309,-2.612837423228256,0.9787743903892757,1.643051498687427,0.1367141358887798,-0.623153706063206,1.007647242097507,0.3875272225244623,0.2722623856381473,-0.5276557742027984,-0.39651069387764354,-2.676634331780336,-2.5219204228543375,-0.4560018822884178,-0.838374271089975,-0.25848542483281933,-0.567902652016691,-0.9588027994843389,0.07297101824753344,-0.268324780663243,0.12495260354281461,0.24669316491767349,-0.8374446987912958,-0.45143481593183044,-2.14754047267067,-1.6091248530901396,-3.1703751097582202,-3.0756721667892415,-3.3943232702669444,-2.560141440289426,0.20016879608775012,4.9074521220303415,4.1561858952765816,2.9917949283009335,2.7190330486385133,0.5197887899424967,-1.3502989148902582,-1.7968168838327119,-2.024963750216873,-2.7344046679351064,-0.5473247818188868,-0.6268033717244113,0.5675774058706928,-0.23878150316719882,0.2134495679347607,-0.6707960672071545,-0.3874284908711811,0.9862790930318135,0.679119563824304,0.9452219748829167,0.24967305314884866,-1.18632345397093,-0.1543625241412558,-1.4787047533813267,-0.9864261250598367,-3.1000421075582496,-4.001617032456608,-3.1330495534808893,2.1392152019605755,9.029841580081301,9.230562111505641,5.478389669728982,0.9985066473660029,-1.7469896702711638,-2.48862208991509,-2.9343618702893552,-2.7480581696325688,-0.7627285369648411,-0.3084292296829519,-1.463624555234187,-0.07541213119901562,0.07085040124533974,-0.6964060878629749,-0.5690279054336311,-0.4477702308461037,0.6824132638929432,0.9698534383676922,-0.9411094307040736,0.5185465052056423,-0.7803326668961316,-0.6417843061914646,-0.658227320323593,-0.6487158557245719,-1.8751626691993295,-3.1677974913804956,-2.787947558600303,1.323602011276122,11.099908404944962,12.950892215945013,3.551206637896415,-1.6201447230806172,-1.6229323168828398,-1.9847167005341673,-0.9725930744479789,-0.7091806962124864,-1.0938795426355934,-0.3018815264738666,0.7120993254396512,-0.2444266122755171,-0.8028932525134778,0.7247751711262396,0.07595398154449029,-0.13080659577138704,-0.6262140705047354,0.7578261580648142,-0.7340836603971793,0.021336295426624675,0.6275861886230294,-0.4320748252923937,-0.3297879661509401,-1.7842243826081614,-3.125544968475083,-3.4829493481259544,-3.7549147057479093,2.858160721896012,15.09582909734574,13.13204965211469,1.4822653478338434,-2.550619413341574,-2.2281159625466045,-1.0853464847870535,-0.5109300182096811,-0.4427039263684635,-0.6429061716316891,0.35232695068587083,-1.010792554871301,-0.45652901186779193,-0.9673553042012993,0.5637983274170013,0.43287409998005544,-0.19329839231959722,-0.9408840251566564,0.04340226665183209,-0.02692474386795967,-0.32119833687543187,0.38643347974536546,-1.5188068499965137,-0.7845834362897245,-0.7900193935321106,-3.086138312897858,-3.636615697913211,-3.9894476874523686,5.196031424669845,19.131062268154313,11.431391212777166,-1.8694739380622083,-2.8297939824030256,-1.865281596803987,-2.509437507966938,-0.41273976319409894,-0.7359986915463077,0.26769015667078966,0.5388457600731601,0.494308040667563,0.6868967019109156,0.22418258041436923,0.6590886334073824,-0.24958053448477746,0.9385485840058474,-0.13571125674028858,-0.34919837521671343,-0.5970094381030143,-1.0603190616492928,-0.6074555959343775,-1.3826303101797492,-1.2896294215729693,-0.9200053936263396,-2.153535289690256,-4.070654629990699,-2.7144009672157057,8.818434878847375,20.697579833275213,7.800654257339765,-2.6400342780599995,-3.027199742565155,-1.5527211393030662,-0.871205225462096,-1.345755338983699,-0.14540974513686403,0.0941278421680991,-0.2888131543044091,-0.15578969898460646,-0.9328713451232152,-0.9892824712023468,0.15219479947908865,-0.26194064208919476,0.6786845269464035,0.7605247111667641,0.18609090699637235,-0.1665866209929919,-0.3992143356863369,-1.412658211799852,-1.2110119550995595,-1.5988629863569153,-2.1851985671700067,-4.355193946484493,-4.509811671733174,-0.2929640805332162,11.95664673810853,17.029074961704943,4.478312209457751,-4.197594492954961,-4.98897247653415,-1.8862406396228608,-1.1966791478356957,-1.7675063880164201,-0.9123277015751071,-1.1923960124333814,-0.02075447507442544,0.7613031810368553,0.5915930891229912,0.2056410375824159,-0.48597438260519255,0.11124987891338844,0.8764210775999168,-0.5968504872572169,0.9285668927853784,-0.7287887768672637,0.5373640598304327,-0.2237853707140955,-1.489193632024665,-1.3857209036827554,-2.0518944672822417,-3.0611495435628866,-3.8519424846400914,-0.141545541674401,12.433397216489801,13.760463100192743,1.4340262935924324,-4.6505729706957855,-3.9585082842574386,-1.9887232908170702,-1.6448153226327569,-2.084770024016974,-0.403486057919969,-1.4584581284448346,-1.2667035535088906,-1.0925190488878445,0.16257666646474472,-0.7135237559523229,-0.09193688162227077,-0.8196431309877175,-0.07899271502053623,0.41656869713931965,-0.2758853180593885,0.490054972231866,-0.1343603616199847,-0.7932979061422561,-1.1387521042738071,-1.1467257119484677,-1.867557405322837,-3.5211740493725157,-1.3688213870348764,4.225371426764784,10.036581216549601,8.442484548720488,-0.039127355473188526,-4.973367825652566,-4.569888426598826,-3.413713402631708,-2.003912812212791,-1.9939975012807076,-0.6796616263269503,-1.3683597140697104,-0.9157501574951665,-1.3816933593013774,-0.5097002297374424,-0.14325431312459783,-0.05774794144816148,-0.7447912361332945,0.5000466139760305,-0.67797387393454,-0.13294146581706962,-0.010719239062538079,-1.092095166033699,-1.6102936941825117,-2.1806634270178202,-2.6101844090010204,-1.9605618525985695,-1.5980909356464474,1.1614504807677115,5.256802295515136,5.599271310707536,4.7761408558026375,-0.9699735833271987,-3.8790873811198887,-3.9891443291792434,-2.164449345661338,-1.8111057217905024,-1.3814071937074341,-2.120595895296745,-2.126516972003327,-0.1508622705595423,-0.5934506568823698,0.4945130683288452,-0.27429273703973645,-0.011717961891534031,0.9672692895785484,0.8144285178579784,-0.1918428077766844,-0.2566585655427319,-0.2791092968121443,-1.5952851251135145,-2.3178978291161867,-3.0052718341347324,-1.3580236334857125,-1.0837071217677525,-1.7971773730265639,1.2021642637912406,2.9984639014555,4.011693870710714,3.4864172161395905,-1.5153744454599678,-1.7472074083676021,-3.3285413817674705,-2.3778161917977108,-2.9634017314385828,-3.256557357883458,-1.6159506837716175,-2.0361525798568922,-0.40909948285076503,-1.5511389571555332,-0.7168931429537134,-0.22489115494498593,-0.6891147690146654,-0.6210025949382918,0.6481505458680488,-0.4867324081383532,-0.5787439013169877,-0.5643007159111776,-1.1343981756665904,-2.257087416047196,-1.5046605810312292,-2.2237990608889553,-1.1566602398379182,0.9210893353569783,1.5395573969757739,-0.40164085763520174,0.7979663654956115,1.4092629763106244,0.5823118532983231,-0.5419207668186756,-2.697692809283518,-2.59689654374709,-2.230514404139278,-1.950301515252253,-2.9411108929307566,-2.1123427927105713,-1.898097154600201,-0.01519868348684834,-0.3908408984564986,-0.4293031341215701,-0.746479814525105,-0.04495871827568987,-0.7753889332677457,0.6531880597568293,0.07442599545484091,-0.6878540240976733,-0.504931345016842,0.37354659540682766,-0.4536677382995689,-0.9772599753199774,0.19244709524188333,-0.5422716985406753,-0.8428567183735433,-1.7297479385056345,-1.7039523374883896,-0.7131670928873999,0.7532306761090047,-0.16799654630763977,-0.41141736367918186,-1.7830041777282717,-1.809695970339104,-2.7210255387363556,-1.8362477733985603,-1.1697129813368812,-1.166813076960695,-0.5985627434282126,0.6925062424032401,0.6036678639632528,0.6631377289058005,0.11248953755894253,-0.7483448818915164,-0.30708702566426466,0.5716134092764468,0.9880925060396024,-0.06869251289106479,1.0930185401269705,1.917762975204614,1.7479374012116624,0.5906263225842525,-0.4013105932395533,-2.7899690372718777,-3.9433431999572095,-2.277965583564744,1.2787424719853586,2.840044679697147,2.062587286042651,1.665732983979326,-0.2121276604283076,-1.2867210121924901,-2.130613881766957,-1.2133213434615921,-1.063826358945691,-0.16370186295082262,0.11204973952439524,0.3381505952642617,-0.7336990550336135,-0.38330158781002166,0.14748267301600793,0.965859083971125,0.9909514255275458,-0.9099340463213992,1.0626794440992513,0.12796227542094704,1.3701619870082649,2.940610554682245,2.985977295281037,0.23953572986975338,-1.039292414786826,-1.2485137999211544,-2.2692724433736493,-1.7324834952223669,0.045521554338122765,2.7412018608442925,4.232634815865463,1.80069530610771,0.5070467528510971,-0.9220757904409722,0.3216002791957599,-0.8113652894790575,0.6001131042184458,0.08208322749276983,-0.2196794765771766,0.3709310156718732,0.07082760190972971,0.3252549747546005,-0.14693521114339592,-0.6677565605835214,-0.34132136981177563,-0.16739957022302385,-0.8625511764953641,-0.36664411692951104,1.4100231765556739,-0.2648213886616467,-0.9321536538736264,-0.5111503490962352,-1.693418218001221,-2.1787027191493755,-0.7603611282216528,-2.3392667240189717,-1.484930622655317,-1.2674019776678127,-0.3406794324427028,0.5611457611519939,-0.3420420858593909,-0.5762006770963618,0.38017983572358777,0.5121048988519936,-0.8923846695000583,-0.33226502137743286,-0.9847794350521523,-0.15221147699997156,0.5839748879173711,-0.15691685888755647,0.09823398643895365,0.8388053740808099,0.6145507000273434,0.4083516705007886,0.9721277459371233,0.36798441061855386,-0.2488296475924297,-0.05519810083334709,-0.10017544465498357,-1.0249359015691604,-0.3682003992375119,-1.7852641921484198,-1.4674825118149504,-1.1349238449108046,-1.3261912568869194,-0.8968484809382667,-0.31811273627673703,-0.699017280305471,-0.16991840513164666,0.29713371738008426,-0.5948049879392169,-0.09515403974249019,0.4321669519349785,0.5303802409701556,-0.5455935185599186,0.6901687119596753,-0.40138842832936716,-0.1005819689848968,0.030728285702672498,-0.4540330535373571,-0.011731042712840978,-0.43104005732381073,0.45747377766634423,-0.14746217588912983,-0.8605245363937342,0.7609968244754308,-0.20338471825251822,-0.9915350189938096,-0.5933626396627492,0.45960099911548985,-0.24287221831110542,-0.10174592702056286,-0.10012007212993602,-0.8796027526827264,0.554399098587535,0.8092945707028638,0.8223563973245981,0.7778591655879937,0.9895361102760645,0.6034520575237593,0.7883562203917246,-0.0742566138990501,-0.46479964918844807,-0.6313279075497586,-0.3764819468871967,0.7970263016730439,0.39616187923399204,-0.7907636271128557,-0.3613303346897303,0.25411639513882056,-0.9181936264033661,0.10911072057124144,0.5025939484050452,-0.981843239537432,0.8908139846588359,0.0022493608673440227,0.0522114070263647,0.06463716845322462,0.5893674864055435,-0.916910807265413,0.8959738928976424,-0.9550821493118065,-0.8355236088716885,0.238584009901039,0.35541482492649096,0.8826520030125594,0.6273189880417893,-0.5672260813129938,0.32693210199719913,-0.1789562230784243,-0.6285146765209,0.6961699655337164,-0.24274855141582874,0.886341190447614,
0:-54.93623586358571:0.5454053953719247,0.4747991582555062,0.21361403360263442,0.8947435009223002,0.6746134232300638,-0.9388476993594217,-0.7541851251835388,0.7810097512644749,0.16749183223504338,0.9619438218469505,0.3947610993521935,-0.18447145251796826,-0.3095846491616485,-0.9817293601447887,-0.3647917544333701,0.07064946121814208,-0.862711882897101,-0.9258605722151014,-0.44785351969920795,0.7186002479691203,0.1206476744963354,0.14285067362204518,-0.8713643860880123,-0.014026926718275545,-0.9482708958478185,0.15350803518835265,0.5689197118335323,0.13001690238699548,-0.6645700695398418,0.9075976837628303,0.9571764551846982,-0.6198425467400224,-0.10443109156300556,-0.7318406957367907,-0.22704228914418983,-0.03800738691769981,-0.5022155734128826,-0.9408567497407613,-0.9325119963690953,-0.44267456978786895,0.15187670749722865,-0.32982809908747823,-0.5485610584350115,0.8527429529074754,0.25231274789479746,0.9416803128459303,-0.049982662558574184,0.19016355906623672,-0.9447965148456001,-0.45041686067149567,-0.7399292369756525,-0.242570172986035,0.5917320454578681,-0.19112682333548192,-0.03967936326908794,0.24232196065919043,-0.8171661954865483,-0.4077584203571165,-0.15271742353323958,0.41284656240142853,0.3466911119316694,-0.12144631091940136,-0.328628875767079,0.7218089326689334,0.046284897497242246,0.33783903359755624,0.4931767515313331,-0.17467064304205543,0.17005198047104927,-0.671100797218752,-0.5858163304072252,-1.3843609475552952,-0.5528364120911492,0.4413257535366797,-1.2400717356546866,0.18233468406785466,-0.2774303764548905,0.3673767475277945,0.8017802480860439,-0.2880387772948348,0.2353514361994778,0.9981651361073854,-0.18612724049719698,0.334538630651777,0.23987286615743675,-0.19622044644384173,-0.1516090320159036,-0.4553410208564211,-0.1567164922737749,0.6615776046568929,-0.4253972464593147,0.5600136870801427,-0.8856416333709382,-0.5950830656758713,-0.008583121728538074,-1.4940466272916035,-0.9020981946310834,-1.5933215548071702,-0.7559745987531477,-0.34764117007093326,-1.1606922157290915,-0.8939302748390076,-1.7384245121312212,-1.3444538720944197,-1.0674091454273906,-1.2897806243648708,0.44592874226510815,-0.2626762267344339,0.24989116305046927,-0.3998817427486832,-0.05941857548995126,-0.3317145974754423,0.931402550110582,-0.4429819238988899,0.8596298844815315,0.9334170188975754,-0.33411521854167453,-0.4081193808751247,-0.5170230398534299,-0.4414342277535676,0.3330832146498575,-1.1749257893188063,-0.6184403282738805,-0.6482213908231815,-0.29850912877195285,0.35349725782867064,-0.7118135897672767,0.48046908928278453,-0.9766315653767711,-0.7799361567322787,-0.6874362706396684,-0.567741872360791,-0.7473730926293144,-1.5910649661994243,0.2098791876494041,-0.8830119820529129,-0.494344596321772,0.6564541318796999,-0.10085468391309539,-0.5912105193197794,-0.7828148952327825,-0.7200374686256528,0.0609310330958647,0.8813276208839411,0.07077903313474652,-0.9896359263590979,-0.6128051636423402,-0.46888663341582987,-0.2042764759066575,-1.953986922290979,-0.2179429480787244,-0.6341561260993336,-0.399568935325426,0.8242139908589308,1.469938808439595,1.4319066792598947,1.2423492824611655,2.1036672935578427,1.8784166436288068,0.8505341440345401,-0.31281061737936744,-0.638243629186401,-0.5004801194872602,-0.9080630641910451,-0.4892342583868562,-0.24328937135315543,0.10002175046578915,-0.8799526571411431,0.44843669745879366,-0.8626386981805401,-0.227787012433331,0.882970936950856,-0.3230657297613841,0.2636999713757338,-1.0721805555050514,-1.9926698487039363,-1.8497782822648559,-1.1776298532942824,-0.732320396239281,-1.5504342339319168,-0.8090606632472181,1.068505352814514,-0.08196995236215328,1.8948861120035199,0.6692296241732518,0.4479843837787872,1.6318506454137256,0.5359234926985428,0.8325655442645287,0.9903699346711489,-0.7665478800096869,-1.2395111179372493,-1.123365752016976,-0.5920003893998026,-0.1253844297579384,0.06022329215995205,0.16914006138709703,0.15321719643123297,-0.3783717087638911,0.49207708666774613,-1.1620248011106278,-1.0645188546364381,0.16904084917490503,-1.4094748245983073,-0.07308017370878696,-0.7750506706020787,-1.4497381441097075,0.3363164930064781,0.9715668405991237,-0.4173425072718332,0.3866228949365382,0.3827555423632155,1.0782325557869812,2.8176854247343304,2.364420411271345,0.6441898499250351,0.11375752047545688,0.6171283535982973,-0.19877086173212224,-0.24837785411334865,-0.9862085750804658,-1.556569369930569,-0.0021326385170219843,-0.6588016184917468,-0.22290023258090275,0.548708770886001,-0.36328237434526145,-0.3920328371190943,-0.32062282843413503,0.22026365242031468,0.1278849914175296,-1.1301509954871483,-0.09638789468079698,-1.3226391137837787,0.41671146603195125,-0.03929325100013436,0.5722191307193092,0.4763227852405074,-0.015081059565783544,0.5694558007197382,2.4239150491470163,1.6494877095147435,2.00627567643483,1.367337026241223,0.5050789537614151,-0.9249112347416766,-0.23246174433413827,0.22708870689413052,-0.18332634013705376,-1.1036736004440058,-1.1796524669183075,-0.7192239632725372,-0.5383278276056711,0.41704332039969166,-0.5607574866867033,0.05146907961966944,-0.9597788396710594,0.13097446307762567,-1.167453371283107,-1.0497546863546703,-0.10296542416819363,-0.6740313099945241,0.19693559455436177,-0.22715108932234007,0.38325400789713426,0.5705618303230184,-0.26366675031155784,0.44810762823716627,1.4621447188792456,2.1658526061154015,3.23492809141743,2.377440026264207,1.2977284872008625,0.17544373413151712,0.7485005927488219,1.5684666432895715,-0.7707409009814454,-0.37442963778397514,0.741716681492818,0.10552131639489505,0.2745535799994352,-6.60061435932651E-4,0.057600161197339336,-1.023563164003964,0.20784252200518658,-0.6551732092509918,-0.1569911865315986,0.6981471863227979,-0.9655394584081011,1.0558548527039204,0.09062728975303334,0.5335111057438254,1.084792233959479,-0.39199197935374736,-0.5769655610942183,-0.5707052424941603,-0.7108468172859725,1.6220048480968283,2.361641320546207,2.645677212565967,1.428217440409433,1.8260203622534994,1.1397779732244375,2.238049925010403,-0.5122974835346654,-0.3891000334506652,0.5030748786644064,0.13920854921287087,-0.4330352929458572,-0.594279745656831,-0.7291917500955826,-0.17289641542803214,-0.9184298970404966,-0.5893179729071918,-0.24098047980366744,1.3088797391371907,-0.018493919721120616,-0.7055161493783285,-0.3159055748225838,1.1261902574713956,-0.3549048076664981,-0.7543155151968663,-2.829820993563601,-3.4109852282778816,-3.8825508947273413,-1.005792531755507,0.7833093569681328,3.272997564905184,1.4493060915796852,0.8794155435490227,2.577218205758742,2.500618234061821,1.0819141876026084,-1.0410993231291388,-0.31167441567968707,-0.35878689429652183,-0.658978753315518,0.6433621097905136,0.9916720903201512,-1.0336645811899405,-1.2749499662210217,-0.3515904785133285,2.028690769680732,-0.20074047425119343,-0.0634694862709768,-0.7322738897871546,0.8594642425343306,1.2757140624431615,0.6367517935653803,-2.1146911584940242,-4.0968002960235985,-4.470589977423874,-3.1321970330992728,-3.4341924448242316,0.13310541881441795,0.08245914975433292,1.1017677822904934,1.6375909351758922,1.7755170683294137,3.3718070898059866,1.673740407133758,-0.06973307339645886,-0.7070399773017653,0.057112872448940435,-0.6849651475656733,0.26834975624662033,-0.9259691617917815,-0.22352946936906334,0.306066950675555,1.0840802326142036,2.6179095257887615,2.0033942004171443,1.2661908076341757,0.14856792340141378,2.5131932797990353,0.6747451234394832,-0.18298494010759608,-3.179701057707764,-4.7392149706582725,-4.757341493743609,-4.406991374062873,-1.9280582610541561,-0.09245528571283591,0.027773236401357322,-0.8155733424067121,1.3463319008387709,1.9784738720826434,1.8463006175712156,1.1070285184981532,-0.7601950991811444,0.11291430853126043,-0.1681816022226139,-0.3080590410076338,0.8707320630824875,-0.3820220297084131,-0.23156179599193216,-1.1421871603545652,2.1491973468662042,3.4694759195750935,1.2892294712183927,0.9431709979912968,0.4003259331586716,3.0515434355905695,0.6274383812018646,-1.5711468137089573,-2.498393351574433,-4.763472005469565,-4.941634594641622,-3.4664944515994005,-2.75382057462272,-1.0396155142782337,0.3396926152291086,-0.5553910118836943,0.5774424030718115,1.001325864020718,1.4009096144439361,1.3546815111821608,-0.6826183168206733,0.3279361613157605,0.9072025417264196,0.7470032609135719,-0.06772121919624065,-0.48516823053677205,0.21734063107879883,0.3177456222611123,1.830912425679117,2.1333933075084577,1.8811738676459662,2.398582501267177,2.593152255089274,3.066891277160988,-0.09281016378669105,-3.4453314125602925,-3.368163253528501,-4.959597424094781,-5.285334457595769,-2.2169245546416194,-0.7439173889714358,-0.07982525845227482,-0.7270917388501036,0.7644392703477256,1.079697525801626,1.6679156701440296,2.239788086329638,1.560216585626626,-0.48668903147787107,-0.17333709618835916,-0.19573733945046892,-0.5846017121685536,-0.6359980655101041,0.5676554997698393,-0.7258854244310345,0.8819719844703209,2.2137415543910133,1.7397089808744879,3.003985241405472,1.8606959462744705,2.8130191560828597,1.7299344054343857,-0.5823390240172603,-4.54433036306078,-4.456545359268196,-4.733947041172877,-4.444419021962952,-2.5814604975743642,-1.18882030144055,-0.2550121681588786,-0.27181515903434367,0.9764360714635478,-0.046046943812618125,1.2941520161983673,1.183543816425632,0.7601231708822863,-0.04100838581397148,-1.008001085360751,0.07758413409960901,-0.9377642959434886,0.23558974895386697,0.056483389977118825,-0.4030101659331556,-0.23048076320024183,1.5327699046299996,2.0317029781948173,1.4793606178873804,1.8527423707156438,3.08952901855991,2.3362820279219942,-0.04002009156162578,-4.492518031192801,-3.9473818367066027,-3.659920474659118,-3.38303166120212,-2.05623684165835,0.5573543530025142,-0.3123892454034187,0.49942943387694205,-0.9920950435055438,0.5328763680578583,0.6779789282896707,0.7414394114189021,-0.5432268625606581,-0.759270987350859,0.6341841393973259,-0.7100433502784491,-0.44297591019942684,0.8514756500844267,0.05597376537577998,-0.9908197769515504,0.3844469723853396,0.5756887548075915,2.4215964320274637,1.6063051594394862,1.5309495326888276,1.834306930747906,2.104715639374743,-0.29633323944066436,-3.001753137221003,-4.102712112580367,-2.5303261877112573,-1.6840330924912823,-0.6596415290533105,1.2224187603686818,-0.4075718952138472,0.2589649638540352,-0.7688879253560742,-0.6791343408966957,0.21164648302589117,-0.39409835474797617,-0.20452817950241453,-0.11110471196002333,-0.6954938592170049,-0.5458857909917681,0.6515442158580449,0.4083456202136713,-0.6037109812027902,-1.3491482364857603,-0.5877286320391054,0.5908178592513176,0.6333015019647006,0.53364999988471,1.2369827478437958,3.9179673985509087,2.8430278233711204,1.455702337436098,-1.940232966419781,-1.591211857399258,-0.5236379631832471,-0.4781434173513727,-0.4064401869970644,-1.1520213512451924,-0.43389033824194967,-2.055492034338885,-0.737972930136405,-0.15485542760154528,-0.8214801258368659,-1.0599799742130764,-0.4440141418087825,-0.16684924688707634,-0.2608720705778341,-0.8761198105461939,0.4745457796936967,0.9864641787720946,-0.7973842713977498,-1.3110276835751047,-0.5431388984654741,-0.7687952089008556,0.7492245681345111,-0.19885346443676172,0.8770171032028602,2.552014046490308,4.385584834156944,2.2210979129879798,1.304010276113796,-1.0329226906148656,-1.2672795575738391,-1.0218603346677637,-2.3069609860340163,-1.430097301528649,-0.7245259179600562,-1.5796691215954672,-0.6647768372065452,-0.5758214014073367,0.3150620730198629,-0.8580714100647906,0.17313917654203667,-0.0081727316483044,-0.9488015140151823,-0.007138467305910057,0.7086356224496195,-0.4177229812164606,0.13268418002257862,0.4130201239500434,-0.6449811575363619,0.5869947994983163,0.5159299453277739,0.3966132631825467,1.5300468475262803,1.440048257206118,3.3530271919345846,2.610176782199296,0.9177621082844647,-0.3171387006929118,-0.8441496858248464,0.013759494174387385,-0.45591711631457577,-0.5189176954653102,-0.22061791673444486,-1.4661446031236411,-0.7640163883431386,-0.6255854203912605,0.05303363005034595,-0.7564951659349323,-0.598696890431534,-0.17819834520139066,0.6538888164055044,0.9676211597671114,0.7041797061134389,-0.7176728027926269,-0.14761494113732498,-1.2445688270005282,-0.8190696052847195,0.965685541778094,-0.4201934246409136,-0.17530219729464364,0.8294739105084986,2.2113561560381085,2.50963561920624,3.341246986203688,1.4176800732966268,1.911487986930451,1.7054491280474768,0.3271283030650042,-0.03224376825557711,0.39848712074353565,-0.15720634813346057,-0.465102894896733,-0.755040351304302,-0.8630302054569108,-0.47850460098452485,0.17579925751819925,-0.9365898363148933,0.011300092902160334,0.19991157638049892,0.23312077664852837,0.4119940217061986,0.5085998266678253,0.2177873491964572,-0.7051770490984546,0.47871602792272033,-0.7584952553925051,0.7950275246987974,-0.012690727105092373,0.48881207799276777,1.795033622232588,2.4140313048182427,2.1940476649811456,1.8195492320518662,1.172115031313558,1.984274521096333,0.9195296843480943,-1.0201399095261026,0.5585724606959913,-0.26500311757221595,-0.5609849786587827,-1.5938123523096719,-1.3764790383896712,-0.7314478173240655,-0.5553196606726573,-0.524407302100127,-0.5542860076650992,-0.7653731293776342,0.8135360668427774,0.581051301665783,-0.46701211068006176,-0.8817594209049896,0.23127983996626827,-0.788921976820022,0.5965670332273363,-0.5535543023845605,0.09785151909257468,-0.04362365643826033,-0.16570975515796227,-0.763309892306226,-0.1986481557447804,-0.5390730861418839,-1.8084785318214334,-1.2268226072910735,-0.31956844199112583,-1.9861776066483698,-0.7598536687363272,-1.5316297735566549,-1.2521216642370763,-0.8813565634438955,-0.5328049017030787,0.6344471277533328,-0.16576423707825422,-0.37066738534087273,-0.011443212882993992,-0.8865002417758037,-0.444334120694339,0.16938610822438327,0.16364982748917534,-0.7783191773053098,0.012046215711802246,0.35781065907091036,0.8420641441885977,-0.627495554349993,-0.19964433063367942,-1.026686282472095,-0.8539201550056662,-1.617155950478077,-1.7165321385856698,-2.321575947283253,-1.9686702435011556,-1.074560812189317,-2.4567936649205064,-0.8891483525108358,-1.274017415903906,0.0032430321113420734,0.3216795120478179,-0.6279441008112666,0.1384871923421802,0.18757475560146294,0.07334203534862002,0.4758102449981422,0.7307093542250289,0.08734341582418792,-0.6765509258704989,-0.644168495399718,-0.35139072671852745,-0.3539550315473583,-0.26341320729210627,0.5224041259867473,0.6521410910923853,-0.7056086449667759,-0.7292826416395003,-0.1776797381028922,-0.3153991390541628,-1.0130433231260505,-1.585524691257352,-1.6971981838298429,-0.0920491184076844,-1.1332662541383722,-0.12424306879944166,0.04261954683228593,-0.17498174923417478,-0.42566837753588627,-1.0097107094104931,-0.5592455091893845,-0.673382765407009,-0.293731607043155,0.022121194827867625,0.09969138126924393,0.1547550954346737,0.8058688996994847,-0.5090704762156784,-0.08282467403486615,-0.5779778034495211,-0.591811571340604,-0.07398812015358636,0.5577440330665747,-0.8420990149423631,0.8178347853076706,0.13791470350640972,0.657903668850043,0.17230920916260892,0.7567002565995957,-0.8508566880905589,0.07765912456148186,-1.0337686698995225,0.038615207294904606,0.6029019808394337,0.6518120440311223,-0.7002894818492693,-0.76206126138143,-0.7452851741732368,0.5134592579738103,0.5849423202584111,-1.1608003255823949,0.15177013687837732,0.7815792282571394,0.8550028202462161,-0.2275350635861353,0.5573393954623886,
7:-18.926991559090222:0.45420310800716224,0.7856760846352366,-0.8703002155429842,0.0685338400297677,-0.47631336712434336,0.4070149393871332,0.4264907017642281,0.7539644554101654,0.26900278641053577,0.7612302436510403,-0.17531072048059904,0.49652722744642785,-0.5219832738202408,0.33769323553153185,-0.5723901051568561,-0.3803539980426456,-0.974092764228792,0.7341151668969703,-0.0482251628616035,-0.2487505725464807,-0.6326793720380084,-0.37756000065479767,0.20509235725046215,-0.45663548412486277,-0.37172629257160206,0.044785911468264494,0.1469916031780525,0.30675123057441667,-0.7177589035348448,-0.43852927191026225,-0.2496978847486273,-0.705474236282081,0.38119159657516044,0.3376068476694698,-0.8477566615596106,0.46442328181523695,0.361165420017477,0.3817063932126883,0.9119681811711229,-0.7924453795870168,-0.44668692802656507,0.8391892769709458,0.5846828762218094,0.7522133427441933,0.705144296466545,0.4956405673641022,-0.7225575247184952,-0.26550593637040176,0.05306348648175961,0.4591163552811135,-0.6306990103267233,0.7731849723983124,0.7860969565241998,-0.6322493630576222,0.15857208135351875,0.7946012393573842,0.10204414627750902,0.4083686379550038,-0.15746492103262488,-0.6762708949927618,0.48111471029802333,-0.06623445885318564,-0.06000160300574175,0.9912529595776333,0.2884399048967874,-0.4692379197056349,0.03471168852859448,-0.8982582018857856,0.3656758785963436,-0.981897603442148,0.5476952704958273,0.26647353627973847,-0.11675564758854882,-0.9572885948794589,-0.8608668894902811,-0.17492048058144188,0.3985840945677698,0.6947843737174377,0.29555908767127537,0.06339679483320164,-0.19788532752257293,-0.1233690877515603,-0.324373653186089,0.08060806993694203,-0.36855710744299497,0.03715291488490369,0.8678631536519936,-0.43302443717962036,0.09566895672747894,0.3232856061846872,0.35635288962271133,0.7241483729386822,-0.9245209683238137,-0.798314040910887,0.6953886626696427,-0.9067495228955604,0.35103836810817984,0.1684052188366675,0.1617141478601577,-0.8483534659526206,0.358518563974905,0.29119425335944504,-0.5170154992691185,0.19748070032205337,-0.11251311980906512,0.018873151668513145,0.6341428669301125,0.2618658804660477,-0.6950146227029647,-0.05700390236650176,-0.8532081156456675,0.5715204640190186,-0.8710894364084218,-0.9861968756574069,-0.10239355354918445,0.4309223304844951,0.0715642803864518,-0.9134817312255146,0.9176757203088796,0.30053970341177955,0.03602949510222207,0.6158162761844834,0.4106300041517642,-0.6810286480382229,-0.028425417348559905,-0.18298237483246793,0.8707034504502584,0.547889357734076,-0.024402976047292812,0.6692688284080257,0.9552769162766974,0.8276946137620671,-0.3790659804544189,-0.17028970670749835,0.6364401631936583,0.2505954216130392,-0.05214863533154615,0.48067633846065805,-0.09246966651564195,-0.9594079298391385,-0.46235665039223384,-0.6407612162475012,0.5551237617576218,0.8606357469449156,0.4397845947812567,-0.06335315233844321,-0.8164818726233429,-0.5693658844567294,0.8286616015330941,0.07093564465544983,-0.9780016438468788,-0.24486698588293207,0.9325323872263842,0.5973784656273754,-0.9988261605202575,0.15255690161399105,0.032191357491800944,-0.2074774125390595,0.2795574071968007,-0.6672928916308505,-0.4358541900033276,-0.9838858287657763,0.17390262451413618,-0.8712028448796738,-0.7915253012331672,-0.06671819145742386,-0.45619247534770246,-0.5394109020928727,-0.9237779413808151,0.2871268127633271,-0.10296151626035671,-0.5681104228195148,-0.9966011916289732,-0.7005989052242437,0.2737400622740152,-0.9077862072381062,-0.3075642111238641,-0.045109245985247626,0.33631885788334465,-0.49238341974897587,0.6934130151148777,-0.1475159911055827,0.05447232237084422,-0.00606050777585281,-0.332801394345657,-0.3835739254887802,0.2851017926914354,0.8963688432067105,-0.9311076916922083,0.3498897112558807,-0.980938287880669,-0.3237230296436191,0.7886640632850146,0.3718311577764665,-0.30286361147428226,0.06754351001717411,-0.2344606266034903,-0.9095639503875264,0.698791110404325,-0.05964067268015735,0.2661640279612267,-0.009770453880062665,0.5478652223224617,-0.6408949265881142,0.4017158868511214,-0.9210827519512547,0.5408332896093375,-0.6372217681830994,0.840253524086859,-0.7379762192856295,-0.21602098801425063,0.4077385080990774,0.779271684124641,0.6080854002835828,-0.08186408630549234,0.20362163881414105,0.44411343473521525,0.5966067097045074,0.44688062033328374,-0.016990306067138746,0.4722900533369821,-0.6179642963065699,-0.9854658222878605,-0.3780127234353731,-0.756993541918398,0.6268631352208542,-0.24770651908264155,-0.5943408258883032,-0.20467963521529048,-0.03702867419127267,0.40349776150380184,0.6848164233105881,0.4938659943192419,-0.9322613510881691,0.1704110634729958,0.19954382016694067,0.4849175501080909,0.8961029968324403,0.06594510544752438,-0.18719814976062646,-0.9299109454041151,-0.5931263297530238,0.3645692787104284,0.283601785459105,0.7881556600196582,-0.2856570179275014,0.2132440849749861,0.3364056910646096,0.9261361228550629,0.48895973715809404,-0.5354752674183685,0.18010640889096394,-0.4861199776857321,0.2302144884356246,0.36379055965603685,-0.6832558923586882,-0.22214014706196883,-0.7279592889897035,-0.21910525321606766,-0.099819585073134,0.6957718161736195,0.009618807564054465,0.05320143386508288,-0.1991313642952008,0.7856050630987993,0.16613143947009004,-0.4537927781795136,0.40310728988561234,0.3344758342579281,0.8402862342227361,0.5471647713241086,0.7183149223776486,-0.11586821613503354,-0.426251701507907,0.0379886587562516,-0.9724527993880374,0.5128458402836604,0.9629438576861047,0.19539441485557374,-0.029541982211561242,-0.9741209681442543,-0.8106402343881232,-0.7427712308444523,-0.22063918854929868,0.9309642859702305,0.2645778393995489,0.0491628235837966,-0.37054592927806745,0.4031209342875859,0.24296942712433883,-0.37899283910125864,-1.0362152242627767,-0.4353551060221102,0.40279348455808056,0.21805545955545405,-0.45204415156035405,-0.43494745095391724,0.6365968948999786,0.02038942313559235,-1.107210690636966,-0.5305504951863788,-0.18055498261779898,-0.2602239489074316,0.04770307015248299,-0.2430476699755352,0.23240307082692085,-0.4955121530071344,0.19259375796423503,0.6270890434772041,-0.8118942883750931,0.54378639939213,-0.9352042268845426,-0.32321684400457645,0.6066608367069761,0.46068490721743166,-0.8578273608965878,0.31594441649115457,0.6665997836820141,-0.9259853214904308,-0.7350869820264846,0.0427993054094705,-0.7849170418478478,-0.5191720076661244,-0.8431736456104681,-0.24570046886657884,-0.428488604662082,0.6374657636247889,-0.6656866687836644,-0.36178526580055803,-0.1688570874320205,0.8292863206120125,0.05908819946863166,-0.9309346471542544,0.974505307051016,0.31740886868466095,-0.2878599653903081,-0.4215204287531076,0.28897995550429023,0.31080183384776616,-0.3257592659336328,-0.39978310800449796,0.7409682262719495,0.3237383130708011,-0.03828793541167886,-0.9183225316782625,0.8948572768033185,-0.6134899362664723,0.9228200234043393,0.48714108998249794,-0.19184026575975802,0.43240153167256695,0.7561745225101772,0.06708077613558634,-0.21899703170422827,0.005239893839608704,0.5625461729939064,0.3767671633495768,-0.8100122769199516,-0.6474420636455076,-0.24316596510587607,0.3215445664673633,-0.9561011988630579,-0.15643107396287537,-0.2774153078630853,0.8411884667380221,0.1710358987110191,0.7132793840262899,0.7647822586523553,0.7554496060625132,-0.09787886641138069,-0.5752864285809218,0.7612925047120532,-0.013177091392574962,-0.5896816384398608,-0.22107975671257563,0.8728152089297689,0.0026026787250286215,0.49925934815181616,0.04335856980637208,-0.3633213188409471,0.14532452513216196,0.35362758499060803,0.8303703841772871,-0.040718426697912105,0.5766138136220051,-0.29008466556022694,-0.7583554592870843,0.39677458994626724,-0.013475330156461551,0.7230368133376464,-0.2203956132332304,0.4772258123204118,-0.6549449143238182,0.3957596398861683,0.21882723317058497,-0.5939587703851082,-0.27104366358947507,0.579081924280139,-0.9283301936267049,-0.754004780896605,0.2923695231808035,0.7996449431306457,0.09865469614460412,-0.8638314523916247,-0.9871020329447975,-0.8503419866016675,0.23715329245463,-0.8763770289813358,-0.5635781929740649,-1.0545213455839906,-0.43505211225335255,0.5205840974076921,-1.054518793345793,-0.7274629883437642,0.19367400240121532,-0.26346780137624576,-0.735058735712404,0.07738989726368653,-0.425238375406132,0.16544026130255163,0.8687122686637562,0.47736370881683277,0.8617305581543276,-0.37850007709863964,0.3982630519856308,-0.21737229121586688,0.34961545435063884,-0.24705187063977432,-0.030222066179458714,-0.32823156188176184,0.22256497997330862,0.8499089839401944,0.45427453813177504,-0.2865084453380097,-0.2734189735978248,-0.1326847331849303,-0.8054141017515698,-0.518910217605403,-0.2394206439726621,-0.6612880597432365,0.552110872825853,0.4703096132606378,-0.01446827869250758,0.7544698620565278,-0.690095063850364,-0.04950864081051897,-0.14757291986098361,-0.08436789212532053,0.5228755850018746,0.47353226050236175,0.004961385880206737,0.630229570476166,-0.2164924167553603,-0.938621854060799,-0.8040217444412774,0.7515543636848608,0.17279938648723348,0.5267012029900554,-1.0025779181629682,-1.0212533589588333,0.12942008123913945,-0.7545618631829435,-0.3635678935214394,-0.7401182237509314,0.06894563004487991,-0.08652459259960449,-0.6690841763024037,0.34284127300121986,0.9338953273475403,-0.8045538486033836,0.3451984856008623,-0.07621484050420996,-0.661149608762558,-0.6033930649739359,0.09955812772387357,0.752925945992658,0.6272960183008236,-0.3109409852619922,-0.811545681692427,0.009956270515118696,-0.9176575904917407,-0.7201382721469076,0.11899266586712606,0.02296708228492218,-0.21715880006419608,-0.5211561453062924,0.04699524532901725,0.7090451048386529,0.37200075474876243,-0.5645422630988521,0.5863837084800609,-0.3455300967631659,0.22060936392598213,0.8570618982805133,0.4902586996697428,0.593587564445764,0.3627869252946762,-0.685923549224112,0.852582128330001,-0.9881290085584699,0.6005434216814656,0.6007719438372429,0.19084758677425218,0.1228710939827593,0.008170196301659202,0.8996371940670982,0.15982508208830262,0.37363384796748983,-0.3324681372392587,0.32501246511153187,-0.6459628486858727,0.7713652428702681,0.7638971789032827,-0.14851462636683532,0.9433734396369919,-0.2807697038690495,-0.5699359482819194,-0.3554516964195667,0.529258187937134,-0.21724279094738116,-0.43461485457614646,-0.8943699193929858,-1.022536306557994,-0.03854516206132208,0.00806441401855018,-0.8168437411910738,-0.7906182299038901,-0.46305884074293135,-0.2253535654887668,-0.47460701237168174,-0.7929661855761209,-0.68687213730399,0.4166314091818393,0.2549134111711457,0.13875084168432364,-0.5406616294435763,0.13237397220817326,-0.37490634894584207,-0.466131233091004,-0.07780300266919773,0.3059480211443772,0.8724027141329017,0.2538143074139253,-0.5833328860906246,0.6894214766892339,-0.24556491229472835,0.2900965899057024,-0.689833974692952,-0.6279550612887432,-0.8363346997984602,-0.5696450434222986,0.649592869859312,0.8172805762027687,-0.3993330480619171,0.39076175559368564,0.11110588737896025,-0.5679563799437699,0.649563822663025,-0.6631535114938403,0.7633086861010521,0.8802713761527987,0.709375394545261,0.7588036223117381,0.7623702837254726,0.7448962787173292,0.40368469154864794,-0.7012978665442746,0.2684694439397396,-0.5961055285733171,-1.0721793874871697,-0.5094976450708201,0.668720355876856,0.8196541066220726,-0.48023241832160474,-0.28832878368788006,0.07156737123850924,0.9135023199709024,-0.16374187705031762,0.2664376431650798,-0.5487394927795428,0.882077113497569,-0.6417170292256636,0.001419223505212143,-0.07960798719842141,0.6607280203073042,-0.7683014093777112,-0.5803449323605921,-0.15114947647007404,-0.6515278364543298,-0.5434006687450699,-0.03940972126072072,-0.6184222033467917,-0.44753837691230697,-0.44879386579952424,0.8457666501390118,0.8903032024227002,-0.2240265045990147,0.5314150634601903,-0.3024939978659032,-0.5272825339363365,-0.27006657325925787,-0.7712892056523164,0.5422728935594919,-0.8767234383722992,0.1258965749692995,0.35112983056882474,0.6439943631317919,-0.04495379575297792,-0.2959436527422831,0.6764273986196206,0.2441045377554776,0.5842649709462586,-0.09119036047747967,0.5280385954900765,-0.10903307101701694,-0.7420013939914883,0.9786546727163292,-0.5931664654831441,-0.6223521519101697,0.05504550371528781,-0.8839867214106558,-0.5003314047723988,-0.8247731964045327,0.39328371500716025,-0.3491543755239974,-0.7352896418883733,0.3726045932466787,0.45245488575318676,0.4118759566415866,-0.06562209860962401,-0.3867370247364911,0.5377176078172115,0.7060153164520905,-0.5782458764820481,-0.4863934937494624,0.1446153178623533,0.3747977161962288,-0.819856225028038,0.5000870166581509,-0.4724033742226404,0.42717977292558706,0.33904188020609377,0.5354985181605812,-0.44831638891442344,-0.1656206808909928,-0.7501498091699921,-0.5383863230228559,0.36359970549964415,-0.5207857581421355,0.7833189334341094,-0.3160790545726462,-0.2547261455332435,0.4724232743004195,-0.9492720410198574,0.6243464635828129,-0.8139719022906826,0.7084659062576797,0.5225104795586017,-0.9064255667037658,0.8324698919318435,-1.0280313661188272,0.06676132815521202,0.7505035040632073,-0.039813053817654716,0.7763680644777649,0.6454988425593364,0.5402097290725938,0.8460632114005552,0.5170999632150148,-0.8673821595033708,0.5326221297470823,0.904278675030189,-0.3724385614807262,0.08444967140864246,0.7357695225706584,0.05129285010256233,0.8797148270231274,0.9504175976054822,-0.8941824219705942,-0.5704739048553763,0.5198286103320544,0.4501937395621889,0.3921100150258199,-0.0134688804523107,-0.032691971720128256,-0.07647770567494051,0.6387564304591307,0.6801317073757727,-0.148329223566735,0.4272746850733716,0.7186359140882832,-0.0401913864780829,0.9966693106840476,0.25827867195309606,0.8354748649244519,0.43879996179178854,0.013654517281363066,0.8076226480972049,0.7965687852862589,0.36892493705851104,-0.5641066640620249,0.9729542998451752,0.14613755063908987,-0.6797798474969845,-0.9320708049171857,-0.6086833061171264,0.9704334566642779,0.5037651756455698,-0.11997222887123656,-0.4636891432144708,-0.28126845384292065,0.5233255678049336,0.5050750491467837,-0.497576830144912,-0.8940115139452816,0.4114406851151085,0.10574830271935426,-0.7614895660259029,-0.4773388506680638,0.2996656962281449,0.11174444663116083,0.2822511333809893,-0.6607321456091733,0.8892357898993098,-0.8881351650851483,0.9129839944708547,-0.4311547195337411,0.2943175674123457,0.06289204407534688,-0.9065176230550174,0.4968822483494497,0.8027399383500469,0.888302544519726,0.5622063288103804,0.09370890481804807,0.6337679589070154,0.5346140791855425,0.00839721446953287,0.2886032685229894,0.8642272891613132,0.5969941309274794,-0.6137430100985254,-0.48271315667221476,-0.6449287888371025,-0.26223136101796185,-0.8859103905058757,0.3464550056423093,-0.26873777160085294,0.3018108400015099,-0.8388912327169402,-0.563778597478192,0.2503275676898513,-0.24623595207303395,-0.17272302563505126,-0.38709749598965626,0.7405477741862969,-0.11817964459225228,0.4147463338366344,0.4118532249980409,-0.3026392376982847,0.05451522029329511,-0.08597052923648685,0.0888446076241141,0.10032703483262247,-0.7458405552103755,-0.6603226940668748,0.8033618407156969,-0.4580740180820972,-0.9099996929809062,0.40993360176980986,-0.5539205184227332,-0.14191474184477013,0.5456778371843228,-0.10638862698231857,-0.5877164799057354,-0.39245287355695624,0.8261994486021899,-0.8636634599611565,-0.48447924332028824,-0.5320643670647314,-0.6565381512220461,0.030525752211834956,-0.8088305714980093,-0.10020093028620192,
6:-17.69218673200095:-0.031167254957695567,0.312739536847052,0.6872539475594819,-0.4192903376418782,-0.9082740265889213,0.5333993015725613,0.8124092634969149,-0.2385261738328046,-0.5519895146394487,0.05116437479471858,-0.21728995696708964,0.6334901096304193,-0.681066314599557,0.22612190124883205,0.6275336053904008,-0.629768215740326,0.0793564105140172,0.5717386909916751,0.08877929977942411,0.40088163085889184,-0.8243442419137839,-0.9447067322790335,-0.947062152387129,0.2552625794322636,0.24061786850741473,0.8474278934343318,-0.9233583084070545,-0.4743625625463479,-0.33518928558055006,-0.1866486071600557,-0.48008904418898024,0.34485274319480697,0.22463790438396808,0.7691000344979475,-0.884221923847317,0.7978890352469146,0.21422446310127494,-0.6721697573286367,0.6819673685743336,0.7643915029750031,0.9367528924603261,0.02167977664074034,0.11925523214345703,0.8285145724539018,0.3767825958043858,0.3097499846512238,0.8463281771511233,-0.8883133663856312,0.42514728226325255,0.05923677197355314,0.3707632035496421,0.12033665690866004,-0.9120451556309292,-0.8306347785859163,0.8651799006564109,-0.9232587523731863,-0.177107598378893,0.05816207777559823,0.2285434813472312,0.5442658074105055,-0.6948829424106985,0.9670057208910505,0.45847213145813587,-0.3464368075491118,0.7644940198751915,0.245622138883487,-0.09709441782908335,-0.27017144172621516,0.34348156348651027,-0.9254289812085855,-0.6321998281336877,-0.2924840809142583,0.8486530054519165,0.4688701961491903,1.0430873037282935,0.45197322317522076,0.7385950670923827,-0.2594415564802754,-0.6668846389226059,0.15425621149383795,0.2025239649223481,0.3471139355092541,0.021677976589459247,0.9789510517672435,0.9032899871345947,0.13319592006939307,-0.6931561002140102,0.5153652896687484,0.7865890272304078,0.08395916419451832,0.5507402503640606,-0.9613994165663436,-0.4275230706408556,-0.9165017085940703,0.874639750879098,-0.9074332048840766,0.38370488889541365,0.971046925811254,-0.7512893222432054,0.1462372089233366,0.05567615377840811,0.056053894433037606,-0.6170143054638001,0.6210129698540321,0.018546843142321478,-0.12112597814416691,-0.5587498743341646,-0.9297189432121131,-0.6178250399650018,0.39307019035481855,0.1315623912787671,-0.968308738773233,-0.5435172535848449,-0.4891812469162474,0.391727538002636,-0.7047653811966104,-0.36653280015814943,0.06628846231129817,-0.059271127892257684,-0.038614288749291424,-0.5629644169826341,0.5653575767109248,-0.8675339925817492,0.015053641177024105,-0.9377501244725127,-0.05457291358138491,-0.11906330812376463,-0.8823664039545283,0.9291874568197228,-0.7727985383488688,-0.1657278904653361,0.15988822484238452,-0.35158782133387184,0.4177721680219643,-0.21111812795446938,-0.589675760993478,-0.3076389807441717,-0.4763712050252057,0.2315956228177346,-0.8951261708383838,-0.6408457381640142,-0.5529998872368032,0.5916613166808263,-0.7590622264778757,0.41959815523808314,0.8127055537084078,0.5329957020050013,-0.36694924965139525,-0.33811627413382744,3.107561304741921E-4,-0.4397085539627654,-0.7245958749540488,-0.11194973613024106,-0.15569255741871038,-0.799635092154254,0.36741827207142513,0.14494787673879872,0.19737590278007325,-0.6875083500368105,0.9097034966468186,-0.39843262507997496,0.5418765539802687,-0.8297950117466651,-0.9965545428455386,0.41229269360246945,-0.6962030027426787,-0.13661543448085461,0.3569513988424715,0.5638948952654115,0.5631930132233531,0.8219868328313892,-0.8030001074425094,-0.7004899611083467,-0.46920328089181446,0.2587075564619012,-0.0351206876308901,0.18941496447192988,0.4540953430921104,0.14301853229435962,0.047311655692007556,0.46724295593590104,-0.8443461964058053,-0.8633812229584356,0.5819490018230583,0.8499595541739107,-0.21160993921067084,-0.8780108878466152,-0.7850576178595939,0.6305069024648167,-0.5066704806484926,0.6712688668788231,-0.5031124319294459,0.2829537229017433,0.4546892844708692,-0.44099173772783884,-0.9183909256354309,-0.8834855967441346,0.6103296992091037,-0.5220240737772068,-0.6908012526048513,-0.702142398343421,0.617572620977213,0.5831892831482824,-0.7644922205345105,-0.41639067079830444,-0.5658412615206154,0.1925303022890801,-0.7863040350667644,-0.17843906299398757,-0.236361594170871,-0.9757961168757217,0.03409643462619999,0.8905146854311818,0.8308875213271787,-0.4753736699236162,0.7167174202801092,-1.1488461689960194,-0.6252783299794984,0.37466484767555464,-0.79480332409443,0.8298666154573661,0.2576485514652681,-0.7031970455138212,-0.9806207953866606,0.35301412461904014,0.023758261844588634,0.9668476729668787,-0.5248048380301644,-0.07951243653399996,0.6660113652399068,-0.7118876956689003,0.6546894271873295,0.36839346289107516,-0.26302581818261406,0.6032232518126726,-0.5157875799118758,-1.0377010623119969,-0.5873610362754809,-0.7631826404049049,-0.10078494986400836,0.29366676533846137,0.11369600629691758,-1.0080818203075785,0.3896805931755982,-0.25987939742795513,0.7959512324334941,-0.43618084197507595,0.3816172035027213,0.667409773385084,0.4554955770533953,-0.9701846269340322,-0.7617077365958438,-0.7160307442068387,-0.07323863168331668,-0.25515980457334553,0.7527849778310515,-0.9972088999168834,-0.5078924431335776,-0.35347009010025265,0.6724656571184235,-0.2449730911622932,-0.9016274897815153,0.9106153370640423,0.6327126360720408,0.1802653370191717,0.5885623054214975,0.4093911134485431,0.35627755671348804,-0.3810036937172811,0.4844158720133827,-0.492703263228476,-0.7113815439657623,0.2619782510163112,0.27468161777659406,0.7940937232533489,0.9378345189744254,-0.2950175988656493,-0.027243486426730076,-0.10869590272543152,0.3923764178424624,0.2072752413789328,-0.27326608628869387,0.5724876753979673,0.8064645209576604,-1.0219402196811984,-0.25360806618322473,-1.0226869774392886,-0.36358321600274196,-0.2730889357108911,-0.21257180459644312,-0.9341497612395169,-0.08343343060993194,-0.21423645145773063,-0.016874667150498034,-0.029098514248372856,0.4662704302122579,-0.8726566552274869,0.36802605067760447,-0.20051415013987203,0.024946302917326347,-1.1019847452134601,-0.5228995179708236,0.7331244758017096,0.9663356031378268,-0.7398763655606889,-0.3498562632044071,0.12111672710494667,0.30971596585764377,-0.4390815829373825,-0.6284578856087535,0.7011344480272463,0.71983056512131,0.7107542819103057,0.2116557870544898,-0.8260746089563581,0.4861269251932142,-0.8880631060735147,-0.7662576392905528,-0.4612610609740946,-0.5888679970158266,-0.9409643586401211,0.11173855758798544,0.3998740236560415,-0.1219638357945447,0.6847476171001724,0.49365053689317,0.45008575508484694,0.6927324217132799,-0.5369547391350908,-0.6515750772661766,-0.3091221385127296,0.1904922571608704,-0.6077102757812812,0.5693903189356114,0.1339744616596309,0.44177905023004466,-0.06437107633762926,0.6956753665351689,-0.3557777333007157,-0.9385964352285978,0.023885521847196563,0.717705050361801,-0.8848152703899114,0.4220140764346495,-0.45298633241578334,0.6366994641057089,-0.7728559734186488,0.5866950709226681,-0.828077611168679,0.5303230430120962,0.7493211386369222,-0.4398437010090957,-0.3934854324422773,0.48785087566894175,0.9395531435860688,-0.04672172416118683,0.6892459098852676,0.8383876531034885,-0.014534443482147276,0.08024761885492647,0.191552308518717,-0.9564961008331428,0.4647616705877739,-0.2768104711788865,-0.9870184931877082,-0.9162987747278061,-0.9365091097355176,0.227215089406064,0.8402594458164577,0.19725861104533263,-0.808447989170823,-0.4827396753913714,-0.17674516425299786,0.3013336755443332,-0.9873785543486076,0.31065428807234463,-0.11648916479863301,0.6604517127259099,-0.932868387461562,0.557734719511263,-0.3198260619396056,0.17973182038476326,-0.6441194012805065,0.10147905015569106,-0.5922295568526329,-0.23649442008074517,0.07125154678931823,-0.4252366311562607,0.9553369166860162,0.8057121881851321,0.578115203770074,-0.1536808809523661,0.9777108154858497,0.9155707513927182,-0.8852674672299234,-0.3710031928626823,-0.9593634492587398,-0.5775371304656037,-0.45447061034983566,-0.41600341302676236,0.12366239603260425,0.030414853920214712,-0.20265141999940614,0.31766840182442746,0.6515015807059249,-0.39679468066185936,-0.43017151742832216,0.27956655599618957,0.905387782307647,0.01772356325230569,0.264278521274617,-0.3088332288208919,0.6157670723910762,-0.6838164866844004,-0.3401406227486948,-0.9319733401204692,0.3013918101561264,-0.6426276956209266,-0.28087392896672625,-0.15239728328984783,-0.32628854968007,-0.06817298401971676,0.349895584562465,0.20895153416683088,-0.5893461025858673,-0.7469187483732351,-0.06771111483768658,0.6595381820996896,-0.7686283037866851,0.8872541931009539,0.8564579278888816,-1.0147261841159085,-0.28289360509353817,-1.1815574133347444,0.7577010862889074,-0.05614509728784782,-0.4419566833856394,-0.5063600077910271,0.994656985528865,0.05935225283717678,-0.6632725897290105,0.7594062101768967,-0.34912327855020686,-0.30894663132441685,-0.6052536631324499,-0.451480895519856,-0.8913889945434823,0.23256761701109208,0.4313962692610801,0.768171635621923,-0.03867072488892536,-0.8531648963272868,0.3594465997109234,0.9090818308055422,0.40756622979119317,-0.006856509974330892,-0.3534833833788957,0.1585367484727522,-0.07080764758332715,-0.11618402794994513,-0.26832160057908844,0.3598581740411344,0.8639087870677408,-0.21685759207826896,-0.14367691443842476,-0.8211101656723558,-0.5074775964144885,0.7277162481379936,0.6533073147449698,0.4627108582444198,0.16176197381098095,-0.3603129757853846,-0.5349562116910591,0.9441054141069698,-0.14879940593496765,-0.3658562328670851,-0.910211063972469,0.45766910687623197,-0.21858789109786558,0.3666435604602628,-0.9348774994040416,-0.6649520057340742,0.4235020840668619,0.8812061891102749,0.045877341299825916,-0.26140120215701734,0.8392122666172936,-0.7330732742101423,-0.17303252869665423,0.6452583248164775,0.07913036949139762,0.3468086293476765,0.5418474943706817,-0.010024617204056745,0.45328304264462266,-0.19583618754329202,-0.9527039714071387,0.39104949279474704,0.3450920137609375,0.3632759811330862,-0.20828008435442977,0.4398546790414334,0.9262220793413896,0.20390150702267407,0.2699310971100344,0.6851962961938647,-0.9850443338690775,0.17051177251761715,0.18182756521768043,0.5902663777760824,0.41971353499182074,-0.8850127072353442,0.6932042684701829,-0.4080893023683899,0.6833794329520488,0.29358289893883727,0.13213353446393356,-0.3582545428487515,0.8415095512030571,0.824289031070788,0.5171807766133074,-0.2244106214021841,0.9230215612737248,-0.07388903718917263,-0.9520606210548285,-0.25760920585681724,-0.9474176410416102,-0.9172824191942903,-0.7511764102464957,-0.01777184240768355,0.5710329453558057,-0.42155933647369564,0.42688602221538874,-0.9974288357473856,-0.8161650198820221,0.19426574696571644,0.8410500681907157,0.11788215407897296,-0.7031895054941288,-0.21288954199106822,0.47450904147661266,-0.23042937408446923,-0.7486435611914317,-0.3825053742107744,1.0043716290489062,0.27113224423338184,-0.8808932427724845,-0.7171193752189323,0.13572161012488956,-0.920027006531285,-0.7968532921380127,0.70095247209825,0.6417862523627519,0.38081410981739294,-0.24879192912894013,0.07660382019850669,-0.6955460619823842,-0.994976445022997,0.24296846575960823,-0.6567668069466632,0.6158251386993261,0.07412604242701348,0.20272388007161612,0.8843480611592748,0.7207864530642505,0.5920154022144718,0.2796524958723369,-0.46449978711388495,-0.3775658150800535,0.6856798799878361,0.16171722292436325,-0.8624916904202288,0.31453427972743364,-0.7354856693964051,-0.8263105844393482,-0.7700286658883896,0.5345166197209713,0.7493380380197551,-0.8572957594459547,-0.09741078454046513,-0.2702313154636807,0.944315513824236,0.33488011158366204,-0.3476177805205599,-0.8023472448205555,0.4677759055090255,-0.8389208474570669,0.4338003833507078,-0.7466137291349554,0.321314117237119,0.8817542322769624,0.7509777876251811,0.2660884877370757,-0.002411175795395386,-0.1575237178349724,0.4594993871189804,0.09598142368145555,0.6503011355865406,0.7333857858775097,0.14721751046794232,-0.5648326327671583,0.23628338322929868,-0.18062302611534695,-0.020425458893730358,-0.29738515671070903,0.4337745805008471,0.7919299285612753,-0.5486674409961448,-0.21696992275564878,-0.0372677565099973,0.6487708578179989,0.5987480798329609,0.7126913448117378,0.03481024916874987,-0.8194788903965133,0.8691820835290448,0.43869559541883396,-0.9287294597749913,0.4665153629947419,-0.1549650571743031,-0.4842143819902647,0.8982063520472238,-1.0148879533467892,-0.2847742743299356,0.06796918227227046,-0.9246918907107684,0.7581569899193852,0.6649660136424967,-0.02568848001647686,-0.331438837912897,-0.16502455057610638,0.25116954271958847,-0.6585304898782018,0.6305378561127819,-0.9588201824164706,0.788079584576759,-0.9978050318408148,-0.501664514641112,-0.2983470887126395,-0.7345120961643788,0.6353520294452135,0.051573232422373126,0.4418278505376077,0.6052352302265819,0.6191485708785711,0.48807488997948667,0.07720018287521445,-0.6519914281919642,-0.0019421775752817413,0.15508392532402088,0.020929662206047847,0.03385488307960546,0.43000917830785823,0.12651960322551842,0.1175883667513959,-0.7849686932422104,-0.7919543242276914,0.15964026348446855,-0.7963468119487792,0.49002508495081054,0.6841013913240305,-0.2018618308541934,0.4624688698383484,0.5498916535559272,-0.644864358567503,-0.7359990812428897,0.5865185610633022,0.1580585346733533,-0.428694234036825,-0.477128612816342,-0.13572812374788032,0.12537658982920452,-0.45575168206022054,-0.8232093335850681,0.09943963898891284,-0.9605029157148588,-0.12336915273740104,0.3964211971541643,-0.7247389286472934,-0.5564403010675857,-0.5678958356623273,-0.746141066058076,0.02357034607888842,-0.198125729703926,0.02304171732143846,0.46412880806421714,0.6239157562884752,-0.5184085509009089,0.01628612788037955,0.5380059396989739,-0.7954708024605764,-0.9560856215808788,-0.18389810843434146,-0.9045485172592583,0.1372821514149409,-0.8379420254149569,0.3386633595670471,0.2836857125406487,-0.8827886256242443,-0.34603814918875675,0.5465026022949386,0.3991861028542367,-0.29545044303073353,0.7419897096842974,0.05598673176190036,0.9329353277495179,0.7214981304297112,0.39369585307051236,-0.1436164143788117,-0.5469116165068733,0.2500008959910848,0.9383390793754881,-0.7385309393133643,0.8071228043862941,0.1418839947162697,-0.11044935503634781,-0.40148582803307004,0.8748120441556823,0.3538116372054917,-0.8725721358830465,0.03345063212022356,-0.9860387834810916,0.2821205025845941,-0.8593021718209117,-0.38118006273058624,-0.022591421593983398,0.20500675710027844,0.5825729649266749,0.22158438782102485,-0.6736326366285044,-0.25714473523729486,0.6130461983530838,0.7381443630753843,-0.867538523192955,-0.6865762607623672,0.5442607411622004,0.31060618125969186,0.9538634629271613,0.7176511777916096,0.585932022602737,-0.6350513458680636,-0.9768960908571076,-0.5255562892960826,-0.1977376251856459,0.6545472289335079,-0.5834853127412022,0.9033556943163832,-0.4606296843815483,0.5085258952180695,0.9284469285114242,0.9403128525391667,0.7365056527327644,0.9570452518264138,0.3174381549221331,-0.7593408472112164,-0.1579380053756565,0.5506632590710494,0.6773853363960058,0.2549893229405791,0.3657865027720324,-0.6761224457374659,0.7777904649301954,-0.35239460192323885,-0.5034322581452192,-0.4187710739345468,-0.6022854594804724,0.6815561989697292,-0.33032710719825475,0.9664616396131168,-0.08667395423561407,0.008474843375811038,-0.5151159885190114,-0.3791915950802119,0.6970875639205637,0.6776312799431935,0.9569619957614836,-0.8549287565256921,0.24962018037379496,0.11964457604535404,0.7226547613942698,-0.4496311303956573,0.40698689531156274,0.3602591657874379,-0.4667206424977697,
