0:0:0.32913936183311004:-0.8139681618728205,0.4400620551435076,-0.1952921338805603,-0.8985348227649983,0.22596939435828745,-0.8077503849881609,-0.4119147158619215,0.4221228461806513,-1.0989354989329694,0.7620630225455403,0.603436264242944,-0.49035819450733725,-0.5121388925073466,-0.7739908123108734,-0.957664302794123,0.16778302797595693,0.1517416077409193,-0.0265816561215908,-0.5769916583372519,0.21834142912412569,0.20847739914183674,0.6141250481641569,-0.5653138823727204,0.5883816204909793,-0.5175005955292128,-0.35573930055044134,0.15032224618336024,-0.9319081815094576,-1.1377087043720755,-0.5562942425269283,0.1113849049064211,-0.8385642436210454,-0.8369267839102856,0.20413906598743334,-0.5455300160600871,0.3834238105049465,-0.7707886737616335,-0.2754866806589587,0.7279863221690613,-0.3980353802163755,-0.15644854381643788,0.6611752025714652,0.3381843311196905,-0.4211011409369493,-0.5418563527450151,-0.2172587331939206,0.6673133513425323,0.7339588339623108,-0.9794129818259891,-0.9447714849864484,-0.1772914849922201,-0.6629640783109838,0.2424930360767661,-0.029167601223606163,-0.2958750052264493,-0.17171924445973044,0.5413282446832914,0.4341324842627915,-0.3823487042330326,0.7722005121357554,0.584164763661613,-0.2676007037956444,0.018050043173132135,-0.9289422062117972,-1.1283677536927774,-0.35793528148266085,-0.8726098845679496,-0.5054819917718558,0.12262975331175367,0.5613097400132814,0.15634968012352082,0.3266310923813834,0.3550843223604816,0.7071578746737608,0.6453630082629164,-1.012125919324849,-0.49438395639129123,-0.10600031911358679,0.048072187376999254,-0.14087673882474483,0.18965602455715083,-0.8688968837904705,-0.910638756652824,0.21606389920303393,-1.2220114773555921,-0.5259236301805977,0.6711612922154924,-0.8233143510723292,0.34775449818600207,-0.17126025072362563,-0.875262146675859,-1.128845668008693,0.26537967968611526,0.22827391081710252,0.472540646766149,0.6608337695789153,0.16534765212644167,0.07195840011955405,-0.9683440092756894,0.17614926465294808,-1.0736203052018944,0.1918097785862909,-0.8464787295142248,-0.8434773787140449,-0.15902906974520545,-0.8191803143242316,-0.8175173490709666,-0.3301862932386558,-0.33087289921803836,0.5293032218124163,-0.11025774799053412,-0.8477447224819337,-0.47478997639601933,-0.7748460021025159,-0.5813286603836747,-1.1536557823993017,-0.44897329066319724,-0.8309768500561447,-0.35887630797014475,-0.22776748185115875,-0.6950859275989485,-0.3787488369673382,0.28542509137933375,-0.8707441534883865,-0.5691650024893079,0.12165731774848414,-0.4094643085884204,0.16555664746161877,-0.27882427335215226,-1.2019619793529714,-0.6297103139911121,0.043349193153233725,-0.026009991766384723,-0.9893215716895809,0.40772315705257167,0.639078426657726,-0.8383514825499452,-1.1132652491488648,0.7120870864755048,0.01106620151568341,-0.4953464146298355,-0.19573396794440576,-0.7586362964589008,0.7430627858776019,0.6364684414315149,-0.6552536648281053,-0.6231348130252061,0.6587098932127137,-0.3216843915920358,0.3946398109472936,0.35237369791500944,-0.7894177580149525,-0.5005734165254163,-1.0540546935414914,0.49687434145746023,0.1336773251977354,-0.500578392653072,-1.070245474033143,-0.8222741151308054,-0.3070639967093692,-0.4747376299845283,-1.2145537402241764,-0.23978707455543916,-0.6412257744516426,0.6867020267715768,-0.2759078451206004,0.6966926945911381,-0.1189604898305572,-0.27904080738483455,0.40131506777366066,-0.9018924656900619,-0.7641522881514553,-0.514309069909027,-0.9783869877275728,-1.1974723610377962,-0.5214552674779908,0.5853627757861293,-0.6691551925087563,0.5171431748077266,0.5328019444199086,-0.30717121895694155,-0.5407999199721989,-1.097166818453786,-0.6435062372164321,-0.997861795063152,0.6947149465916101,0.21895835273655184,-0.993263899350026,0.525473964288621,-0.04260648647100067,-0.6819434258562284,0.5086855957517631,-0.2369332019085603,0.5893518864545079,-1.0303008259353288,0.24431256673133814,-1.1765761581269634,0.2756106407378609,0.0693221145923369,-0.3792838280328878,-0.9461515539101074,-0.20845212326833024,-0.2011039737435953,0.289970719525205,-1.0995056448028617,-0.7904970432481132,0.7297038391889937,-0.3763978552561418,0.11357172392621954,0.2080869043641423,0.4821645326387316,-0.7305385786333691,-0.01652539319460896,-0.2553075823510542,0.2257865492147777,0.7623958364842874,-1.0653348287280806,-1.2163468600377922,0.7039336021760464,-0.6394983474221064,0.12372635726118093,-0.2849871896702668,-0.6972287588835054,-0.8484584380588369,0.40366284450659773,-0.8512779784967227,-0.5648793933597077,0.4988576233527401,0.2953269697095757,-0.7425935356620517,-0.4726988349160494,-0.19975158924005373,-1.0861270417940891,-1.154779884581067,-1.1383653016425945,-0.7691959294255153,0.2664480442606586,0.15472546073389318,-1.0830305330653427,0.0075785797322307225,0.2666452979621653,0.04815503949081448,0.7138689770426606,-1.2188899137946694,0.15437162133335555,0.6313957941931432,-1.017986371369145,-0.7152000314572674,0.33743592759829055,-0.9362139915263783,0.16142820364903676,0.15145846253058565,-0.6099170799920783,0.5994313046269765,-0.6500707352212723,-0.23772714754447186,-0.9838609950200823,-1.2099914513657912,0.051511395785698744,-0.17388811224837122,-0.5824969011030575,-0.1728106662126804,-0.7931974720066317,-0.3621223364598778,-0.13710302595316917,-0.2217328848446244,0.38269529902866484,-0.9664110353361678,0.12464289231736946,-0.03626487144577947,-0.09267006984519519,-0.06335843947037668,-0.0564756314030898,0.435309529542199,0.4600904534654898,-0.7102267610123961,-0.0370835710037714,0.1851487211153544,-1.0731206477492299,-0.3968299028879287,0.45975916389971894,-0.1581714377924725,0.5917931480604501,0.6177368387779347,-1.1392730231516663,-0.5149734607629314,0.5702541631331557,-0.8913347753067054,-0.6433535284796776,-1.1487383899354489,-0.44984228111428026,0.5846994476833246,-0.33121047568726814,0.08182368967141694,-0.9952985793006536,0.11638807019915855,0.2737062248084899,0.5307293321901776,0.6614324660580253,0.32501563884352463,-1.1301708442944545,-0.7849372985526409,0.07556080637704635,-0.9914901047631851,-1.0177084665741125,-1.0456649529072304,-0.6327576851740991,-0.44402148414494497,-0.16442384543707445,-0.7695167372219293,-1.0319066593324429,-1.0509257382992836,-1.0993555913871005,0.12264553438948735,-0.964531737206473,0.06400539678702072,-0.7439895115410441,-0.9446344286217326,-0.4709253434374221,-0.02587170859808031,0.23839771076517927,-0.25779653828873617,0.347127867967582,-0.9443315295515412,-0.9904988314341405,0.1714072473005288,0.0366085150105691,-0.5253995280754405,0.33196338668429903,0.4842244205989584,0.401149941801665,-0.4085363098529625,-0.17859979744595353,-0.8947830612925837,-0.5875496480820493,0.12553923197952901,-1.028743488898579,-1.0129857905382629,0.7504186257717507,-0.6256247384595974,-0.7601520018115346,-0.6041977735092505,-0.4651278858247754,-0.541781486675457,0.46668041341064764,0.6083759613393469,-0.7338560729056479,-0.0937433299616176,0.5739904556994495,-0.4374020316260713,-0.6890874404849363,-0.8699251144665782,-0.8769042083347267,-0.2392271910165237,-0.8659693930051143,-0.5896698317092338,-0.2418860333908951,-0.6398642847695447,-0.23369156343282144,-0.05900463427891533,-0.7008034038907344,0.4921748573575642,-0.046592585826173365,-0.7729788906419878,0.44916764749051513,-1.0197262499295348,-0.010152153385511488,0.5989209852765099,-0.31389998539581015,-0.676797364392551,-0.8915213708201106,0.5287552325030197,-0.3178873734565012,-0.25955604717431807,-0.4999009216905539,-1.033325188662086,0.49096693087141613,-0.8394131786116261,0.016800488735633688,0.31660223522096714,-0.16326284374099662,-0.7238000322720212,-0.7702452435167075,-0.027692784377770303,-0.02297031913135919,-0.2179481475700397,-0.7751762320709115,-0.6107738915011823,0.45528554894287676,0.22948678841996076,0.7391279250242556,0.6448141295683253,-1.0744373134516783,-0.08224977415304591,0.7299165285799365,-0.9037716677474321,-1.1397531563547803,-0.39879135539958693,0.6471653187455164,-0.1742316302207915,0.3368973319439613,0.5471420527542217,0.25432657651625795,0.31394380458403187,0.24360764139478774,-0.06069600225207091,-0.41699362866474404,0.3323786379885589,-1.2107459362140938,-1.0550644436649554,-0.0050220837703006,-0.4114998792498005,-0.866654957303661,-1.0408711915196749,0.45166920390915016,-1.0868962983506785,-0.366925886497264,-0.7424266288228057,0.48689371462340886,-0.27482170401026645,-0.8448238394309115,-0.9813150761653793,-1.0119437983706294,-0.23123577140594329,0.12490446778124481,-0.32593381049297876,-0.8125302642403475,-1.0221607497045455,-0.7187521448668517,-0.7749499501680887,0.30576534651114706,-0.5110451599161153,-0.7085317367987529,-0.09087502129154579,-0.10781258168363557,-0.4656903340192706,-0.30405232951286215,0.09732405996346045,0.5752554313981608,-0.5442064233291971,-0.21179436227159076,0.5484618868746234,0.516575502444143,-0.8188224156235403,0.2602666733256767,-0.5271427826645471,-0.9511490114034244,-0.5277354173680298,-0.9881377825842383,0.13978942554377793,-1.0826893788151688,-0.9534794535774019,0.41134459903270393,0.5148529617235522,-0.7297041112447136,-0.29468424706491403,0.642219755766545,-0.02177119261108908,-0.6918673276209992,-0.5728946734017847,-0.08745993120099858,0.16435442161342767,-0.18610753954459908,0.286961969601734,0.3630578553712535,-1.1696357865228186,-0.9402436595683813,-0.8258680457869852,-1.1881485501767326,0.5178393443814242,-0.8960307355005979,-0.9084863929922573,-0.47140464781164176,-0.666479592501191,-0.1054992648551467,0.5096084314430319,-0.005772167915638221,-0.587659763582779,-1.2113515148625922,-0.12421853913897068,0.40814779645928734,-0.49007633484642316,-0.9278823787944751,-0.2883727033634223,-0.8873724233505554,-0.5229175001268276,0.7406631529397498,0.6148321535472409,-0.9140171126368484,0.5729505426101758,-0.346445662617717,-0.7250598453665428,-0.4242169412779911,0.023356618555025525,0.38753029010450896,-0.8764647035054488,-0.6947959327579434,0.29668807345870923,-0.9645591107005882,-0.9832252317442799,-0.3781031056320135,-1.1836336327225623,-0.727939134587757,0.23833421189228307,-1.0350212041599427,0.7248182950680735,-0.6497913718080206,-0.7679472760445313,-0.35254972685226094,-0.5725267584989091,0.7459930576401542,-0.4235412303085785,-0.5076310680375076,0.6823597942729166,-1.0676255833377646,0.059234373837151306,0.6873290370664991,0.49366708103095636,-0.8706072410014163,0.5577536860517397,-0.1606317882771554,-0.26015760978806124,-1.1042928377384624,-0.6959946028358998,0.10972848698708627,0.6570694776911566,-0.06862695903647076,0.71656494924544,-0.7235854604058294,-0.24964578758157496,0.20269452863515358,-0.4200516256878824,-1.1800369092226308,-1.1518486117803186,-0.2766719702455176,-0.8397294459409452,-0.21562525086834575,0.22623812969950366,-0.17430175127712969,0.45692913859511614,-0.7614128538382053,-0.9886443139480628,-0.6432608041792932,0.1813058588452521,-0.30436959674625214,-1.2583826781293932,-0.7466465946293183,-0.80145904154717,0.25841559860475655,-1.2232754561562047,-0.43240390519711625,-0.022863076563037685,-0.5257154923511734,-1.2092160935245524,-0.48928967943090795,-1.1931004777186611,0.2774980293656909,-1.1116621180901576,-1.0600246968714064,-0.06425922985971888,0.4176606337062735,-0.34899171550199304,0.28622015575408305,-0.09795808068435755,-0.18749480421826561,0.4233639732887844,-0.3508883511668311,-0.7285262880506809,0.7500973744729805,-0.10358865043754258,-0.777036693119219,0.34347257956840643,0.0626058273196092,-0.26170783690009025,-1.0378167301567716,-1.0209136047503617,-0.3956940363609901,-0.9786564005135139,-0.4214585256967961,0.25372738183285337,-0.8558316535003796,0.26321177354870934,-0.60497698557672,-1.1916705804108318,-0.9807721404455355,0.6162305671291778,0.692427568160862,0.42645370097802077,-0.5778652397121917,0.6904836577375068,-0.02531487738788413,0.41380677590508685,0.09303144630340474,-1.1093152445373766,-0.45068919748588054,0.0981440315433212,-0.7578892914401493,-0.5300484317362837,-0.7883324850162683,-0.5893916075001205,0.4686748654380966,-0.7131643327325012,0.14628952067209702,0.38684638773524527,0.28577178761931193,-0.6362934622109108,-1.0223473675952885,-1.2192570427379277,-0.46367866580646705,-1.0674585086107928,0.2905589515251219,0.06885512882951059,-0.5806467064083652,-0.1186609654712356,0.26898867306931507,0.095018901477185,-0.2777737327332397,-0.5110958521654583,-0.9047494968096291,-0.48854462214759753,-0.10254654646977011,0.28662660488913666,0.03966549960670282,-0.23673248435142888,-0.39710785972581275,0.6450803548663403,0.3976981597104553,0.3030991954832129,-0.058894201803144045,0.6624743893193693,0.4906921524577001,-1.115878631592945,-0.8738083691264297,-0.830873969928454,0.2271955540348031,-0.18756241813747687,-0.3110511401980572,-0.5247780434697554,-0.8027496238141355,0.3912925837079506,0.40088925248723395,-0.14589412376828043,-0.18369155379793822,-0.43819642523329555,-0.2129641252819118,-0.9796237041551661,0.0996554682786838,-0.003906437643633554,-0.32649940996828425,-0.1436261720119558,0.38436670949923163,0.027955212718770384,-0.011704107374404103,-0.2915131668332048,-0.6318507865882097,-0.7836650046106722,-0.6678225069461056,0.6994739682954554,-0.4482762387004123,0.5035930898319296,-1.1508051372044945,-1.1741755320423288,-1.0354155895070294,0.4024719262049983,-0.49220037100488273,-1.0105827294650815,0.6620565953090586,-1.1460812730439274,0.7196960421491995,-1.076285513265377,0.10568163433251554,-0.38405328949597617,-0.29749182625404674,0.3310866533860737,-0.18939176962045493,0.42224173220310895,0.44119053875775444,0.045792965461807424,-0.19901109214370272,0.3984192396508296,-1.074894116412319,-0.40491082917176746,-0.7921852440738241,-1.0846030460336389,-0.7106951050813716,-1.1719532219211934,-1.163488111848242,0.10862432799241271,-1.2125332948776488,0.4753037855263796,0.6282222213873284,-0.06402025590842213,0.2321874282725097,0.09110289274428862,-0.7400114288048705,0.19466700095258516,0.15305718746685906,-0.12276263259999236,-0.32018217522256015,0.40800836358162973,0.7061934385928299,-1.1947429377194358,-0.6827390442415825,0.6639509956997133,0.6107049118243307,0.27497198855307964,-0.918456597764725,0.39383938175098543,0.3435195774864459,-0.7845642058293063,0.44866415299408896,-0.028336012729126406,-0.9364713486467405,-0.2587339433779793,-0.17323700200260828,-0.9326149156200406,0.6700417368388333,-0.07892344145261601,-0.4450275581271833,0.003606360083019604,0.1605269201051407,0.014109360416595105,-0.8177599229687827,0.15352128576782184,-0.9752558077046283,0.5891518504613948,-0.19300115021716638,0.2782938193981639,-0.2029683710732407,-0.63595294987083,0.17486337095471896,0.11592398441574941,-0.9139485576754828,0.3051694198289416,0.6474169837461696,0.09903792921673862,-0.5891719282440823,-0.4450451247899821,-0.05376803685546722,-0.9738405915447109,-1.0057108529202752,0.09307666912087585,-0.9608679540079403,-0.24684537211427274,-0.6997418962553048,0.68720706892517,-1.1734019351051774,0.5281362127144423,0.5470989917410803,0.6522551143107171,-0.6099222142387569,0.46246843717040237,-0.3089781775730168,0.21233924544971886,0.4795679447530497,-0.18814267954079292,-0.5557332438587875,-1.1524136413891433,-0.3534298973560973,-0.7641321464125068,-1.2218035571834518,-1.0916601696161568,-0.030444461179988332,-0.9892154684782559,-0.9414310872305146,-1.0078270505803708,-0.3275054000982145,-0.7101463070583237,-0.5299650363120252,-0.8954718935374674,-0.8969222728619544,-0.06338848082235705,0.7091694039355604,-0.5383156939291143,0.5157553812083016,-0.7988683612276969,-0.9398896306733804,-1.0548531038197724,-1.1042578423902745,0.5656705652087886,-0.08585215813619528,-0.3205550275540826,-0.3363547542757478,0.4553280117320553,
0:1:-0.639944013640091:-0.7950055352995465,-0.25932240355010666,0.4152634383613177,0.822998254926932,-0.7644052576839654,0.11294826652067644,-0.21983024937961043,-0.8960776153271052,0.10046209470981615,0.7842839951912003,0.8782893116641354,-0.04003659567584496,-0.16631500666675397,0.010643831947662047,-0.4185085987708704,-0.07550740296514255,0.7492862445852998,-0.7748887905475518,-0.2055224392096186,-0.3809863927349168,-0.0319785692420442,0.8310201345862919,-0.9896214520622694,-0.7067660121750342,0.5824163856197303,0.9017675371794179,0.18662686979295584,-0.09862967294558972,0.8851533862023936,0.7050987360906359,0.8398489411401805,0.8639182407740326,0.36130672526375845,-0.11433391334539533,-0.5598409986013898,0.7363783563048283,0.7325487861572455,-0.13203319808725347,-0.32072592931550614,-0.11240294814943978,0.22424446829917563,0.5497100257553776,0.9705673231225027,-0.9818496162020157,-0.4112993707170882,0.9806143541776259,0.8455889354466948,-0.254877325810057,0.4133232880205753,-0.06789167465248425,0.6835951012786008,0.04806636045696805,0.13938964362401396,-0.8470828231102571,-0.7221988397048672,-0.8341272959076625,0.056334265807937337,-0.4831554740945992,0.14273694823408567,0.7918209179848003,-0.9725223691424206,0.7610113889678582,0.16140891250479286,0.9866184550923808,0.9835593374363903,-0.011147042037850042,0.17117640521462515,0.8299957059710906,0.34037090006608167,0.5955419705880147,-0.6146650096167828,-0.46140904364235075,0.6653534436507355,0.6379853288388078,-0.41198001003864826,-0.16520163502644736,-0.053180083428812246,0.007214563190384551,0.7735514434006733,0.5461918342459755,0.06843362942133982,-0.4946339411407775,-0.7922117536803438,-0.3649396842428903,-0.8542377188437825,0.9078900360738299,0.42229982161944846,-0.5060357066097559,-0.21177649678341237,-0.4425819796763749,-0.3410560289721103,-0.24610119681392098,0.08055205638052157,-0.44288179136308686,-0.9444247521199037,-0.5847911587770525,-0.986982547883312,-0.22142361030019184,-0.31668171628327496,-0.9831200758839325,-0.7387755712162896,-0.6442675010497609,0.06461638802702652,0.15692425268837223,-0.6750390948140903,-0.9886555060152363,-0.33012328282004855,-0.8135873394688945,0.9255606242290767,-0.7236589588209928,0.42610774978326793,-0.3489226235399175,-0.05949795993009009,0.8597245381770817,-0.14649025656422285,0.7114756761469592,-0.18148167290666928,-0.9348546477394583,0.34088037161792384,0.3955149045776219,-0.1183945953351171,0.3563376599015217,-0.8992437698148904,0.6006108771012724,-0.05359255680562474,0.5648305093936512,-0.34852522807126013,-0.2013465006129102,0.6890661861239715,-0.6868558981297916,-0.34604304172377426,-0.2719354686548017,-0.06987050685222886,0.017904372287520048,-0.6673082438717932,-0.07095446060855416,-0.8932638292711961,-0.7282072663226492,0.19863563739965975,-0.6830355450418761,-0.13100796079244054,0.017457703695040416,-0.5943469138938214,0.7796091701505908,0.3373471703518754,-0.8631209424672991,-0.05793178681088192,-0.7716817385477098,-0.8764053557952315,-1.2725157958874216,-1.1041260475137078,0.42076487367040055,0.022351693748079375,-0.82306499311467,0.1381123071848872,0.6752002596258196,-1.0510777056477667,0.3121425032372752,-0.5525134890083874,0.5058284317728664,0.16100912276811846,0.8875135493761995,-0.2022906956098577,0.0018346555054092834,0.8247915221313,0.4117528935988638,-0.06474563457965762,0.5205697136669682,-0.07207153831425558,-0.039650143914130895,-0.0705461137727654,0.6648083851138435,0.7587456902741375,-0.9397897287753119,-0.7396844131168632,-1.1000386286591952,-0.46338461331267206,-0.7840819983218151,-1.4004500838421832,-0.004651880319485967,-0.2615780321667576,-0.23101963902103953,0.5582038423027562,-0.8179118739888991,0.3438776247800227,-0.9005427500994421,0.001084226165552763,0.8639118361440241,0.18400837100637868,-0.6665854441949758,0.6858630544242894,0.4968301598743158,-0.4126845934903203,0.19998158965594787,-0.9946162794238824,0.8507368615768803,0.9578067088557557,0.6448679260323088,0.03162107850387137,-0.7394020835657048,0.23083702562966144,0.19679128160834303,-0.6821439482039211,0.8051373907415943,-0.3119281912810043,-0.5446083574939059,-0.9367744011182338,-0.27695932303228843,-0.8351454556910483,-0.356060025383376,0.10008331668736699,-0.6792072084272496,0.3186184575992152,-0.11682202147653045,-0.4292319587064279,0.5576104200507637,-0.5115530884202389,-0.9074877662028947,0.01954936715843871,-0.04588986228586701,0.8908984443586558,-0.12865338960944875,-0.92711162700353,-0.606231660358089,-0.37918079203574045,0.6256200323889528,-0.3326499292010505,0.2969956329490024,0.17791664542668026,0.1576752132314128,0.22347590012245808,-0.7487657956753822,-0.19636267906628338,-0.40390894982341546,-1.0679153874050822,0.22474904271217766,0.27749535267930125,0.0710433944281916,0.30934920232437224,-0.864289776505368,0.4592114861600807,-0.9343834033751703,-0.2893330848988551,0.21373440548208433,-0.7688746191099829,-0.9774463346225497,0.4886094428923462,-1.0398733962470514,-0.7346325485594544,-0.9017786822271732,-0.5555628567696288,0.7222911293230518,0.27269861528102746,0.6475475533267057,0.26570072507892994,-0.4765061836728367,0.7554304243959326,-0.9179139202889776,0.22931287408354184,-0.7069818641077176,-0.6368132558749977,-0.25231000995135144,-0.5819549837465388,-0.21358914365634799,-0.7879924343754934,-0.4961171805487024,-0.218813986307796,0.6515367719569728,-0.5594515551556687,-0.10041639806656888,0.43216812182976166,-0.45580568684853273,-0.2585155748106456,0.5630812319348887,-1.181823836260411,-0.37859245752276016,-0.5163606855328364,-0.7018551298998994,-0.4158522752221799,0.3900696468086529,-0.05451197009855373,-0.1683685524157836,0.8207545500859912,-0.6256304164503136,-1.0530973006201987,0.733764896163678,-0.8216019854559576,0.14181024273560747,-1.3411805590444614,-0.1670849478643181,-0.2503034001045889,0.03367405122853636,-1.0083783114992393,0.13732457333246892,-0.06485804841087034,0.8752902842410887,0.22654840050552927,0.00414601744456833,-0.007391177714024917,-1.3535900003119472,-0.7070435478919617,-0.32009396311159116,0.23629637267239365,-0.2032503101529788,-0.4028841395195055,-0.32555786846074275,-0.5634293275824939,0.9547900238125008,0.8711056008787055,0.17853138616254055,0.02100137317828483,-0.058878151664724356,0.4232436579201434,-0.21320802329900695,0.49402590350207837,-0.29318222965973095,-0.18512287348084303,0.17905071559263255,-1.628407600256341,-0.9863291382557733,0.02006619283332406,0.03430932191172474,1.4089461705463704,0.12244318505415322,0.5507965160094086,0.3516301159178673,-0.5418863496539847,0.483698720399143,-0.3051764474926716,0.3190777718024884,-0.18385765425003414,-0.8950585809857353,-0.5990136931889637,-0.9095943107698627,0.7565663171357548,-0.0785246810644809,0.37596676392452694,0.7441034408776765,-0.9030753882832296,-0.41858546006338876,0.24155012444225812,-0.13259335422427077,-0.16904433747569383,-0.7280337848769258,-0.7106367101779917,-1.3303947394314748,-0.6236435752990758,-1.304541707891817,-0.24363532409470426,0.9320366516474607,0.6464983763532407,1.109628189730278,-0.1734629066417183,-0.7155869846669212,-0.4480315969704232,-1.1631278513468524,0.366418501462116,-1.1281542006962637,-0.577704227222062,-0.7134714616400512,0.3263002813833111,-0.2560475226631274,-0.5653317904233207,0.09618009546054404,-0.43518182066980543,-0.7752457728394397,-0.7084894046587131,0.8562315788937356,-0.3356195821583771,-1.013320907822205,0.6304791480598596,-0.8328713303999932,0.2878082900195703,-0.4251823725823985,-1.1026034401763634,0.053548636683389085,0.11160722382141067,-0.1056776503076709,0.325372457045252,-0.21635925518396917,0.31076010198211956,-0.7377620930965131,-0.21010396653812793,0.5080923783954486,0.34373505924972025,-0.05341055587225238,0.6809732571197749,-0.1157428823302608,-0.6980292042677537,0.041921652474255534,-0.9735523499432734,0.5569523880761271,-0.012678687647801492,-0.4117604917764935,-0.8930656888038121,-0.5574647933192853,0.5267775009364132,-0.03312781290346455,-0.051208809702651174,0.06586157245862609,-0.17715806516269475,0.17886832792767743,-0.6811092554028048,-0.8043851815462567,0.6077153318386493,1.3343065910009442,1.2873384784152095,1.3532349227602036,-0.2929752939293944,-0.8139184885089772,-1.2986260608058278,0.1900427418912988,0.594260417602716,-0.3948326773726163,0.30582134133082844,0.8005545877938357,-0.518038923910383,-0.9107773508817456,-0.11941211661752345,0.95397219112342,-0.5561786738836526,-0.49053420851272306,-0.7418137530829,-0.25919416434208525,0.598541384724401,0.43398423572494665,0.044356977300238354,0.06663860680327104,-0.6466481112042808,-1.4470571181223606,0.09362132702976325,-1.4459779164293063,0.1430529586157074,0.3379180137837031,-0.1139046819539905,0.09251922295899791,-0.5644078678968125,-0.7753185228122131,0.2976678770517611,-0.34838098981493887,-1.1763291777977307,-0.2560028516974333,-0.8084632836039962,0.6658934168368827,-0.7301226103641822,-0.1575347832391302,0.24007271064415664,0.9263907202483638,0.23712507889911816,0.501103633326756,-0.27867859997324484,-0.07523701299905292,0.2732437337965475,-0.28628515025287143,0.00917187128141443,-0.4966658760467894,-0.4602872675162006,-0.8590446361227495,0.31185669925733245,0.47244141634274567,0.24449985020361872,0.3910026246950583,1.184513309827128,0.11565255976306546,-0.28527922181070065,-0.9252301839827459,-1.3551622606578335,0.1169257089930232,0.1471862864318524,-1.1712983572144613,-0.016556165966423793,-0.47066219737183757,-0.6533173313947264,-0.015751327784756408,0.20749486431286154,0.2893676495450617,-0.48499797713068565,-0.19660707480778153,0.19238685733969435,0.7917465033007015,-0.9932991120631629,-0.21233897563436446,-0.040821775198934415,-0.08549773302764441,-0.377445944946652,-1.452915360082872,-0.48363037726340397,-0.8374810093725509,0.22344560419441656,-0.22266085263877056,0.9778826868368611,-0.14681356094476894,-0.7354097462269572,-0.09827539551665587,-0.26183972602950667,-1.3607568060738282,0.08992591743064382,-0.03075889450720788,0.46433178008086873,-1.0504716388291808,-0.19738641106235788,0.8791612774308148,0.29233739170650186,0.13293958644444862,-0.1264869480115704,-0.6193803599099332,-0.1809835129675847,-0.8910138446471412,-0.6817998675679433,0.15695561733322766,-0.9563635122829539,-0.008798804870921991,0.011533497670157922,0.33298718682363965,0.274366610848163,-0.5941137631751781,0.07970960852872824,0.3884216930391106,0.7067994025408839,-0.24769375421908407,0.14258287992095683,-0.8268773146967652,-0.6921524386405318,0.14807149195570649,-0.12787242884102012,-0.2418610029325487,-0.046394265046697705,0.6231957517105197,-0.19726305489489934,0.22645030823472467,0.6476493965874053,0.1784829017994862,-0.8958368112748097,-0.7924525577814336,-0.3344286768794561,-0.8333562817001752,0.9100587424024548,-0.4916684271652043,-0.6766577577057279,-1.192853917647504,-0.4477247171376031,-0.5349701510723834,0.14952593801648648,0.8054393478909695,-0.20871641799225255,0.47664439940805625,-0.3983443516858643,0.1656423071708191,-0.864435702094741,0.10121592539741997,0.001981111156012493,0.1677542278707127,-1.0455447658078512,0.1323563923435726,-0.6046977169174639,-0.0588904544600048,0.45006208476919696,0.22267212271464926,0.5992979598481716,-0.3814466315349071,0.8682628305650603,-0.42989518427649337,0.18602403890640615,-0.12397026912635772,0.5773575639312806,0.6379649698110522,-0.33650900129616707,0.18752742705753653,-0.7740321811161861,0.6667464644797958,0.2550826365426627,-0.47124361611066645,-0.669695614648819,0.021415458790368224,0.002511279061611762,-0.5838831519845241,-0.7651792464748143,-0.1820976360725446,-1.287425254265842,-0.3968035948955522,-0.4206999904837893,-0.3737017242947894,0.4752013729470091,-0.45072457085095086,0.6545659922361678,0.053324100402597496,0.7183402233050424,-0.7490455606930728,-0.8302200074178796,0.3331740588623017,-0.03168406213101677,-0.7668421141048567,-0.8572121561151729,0.30761120500153766,0.5714167536639515,-0.7637763812292948,-0.7005653484600571,0.8330147625674694,-0.5293158365379603,0.44381293911080505,-0.26484236507429043,0.31807900861971017,-0.4729785895521038,0.6114620168546732,0.3208409919773899,-0.816582026744579,-0.6769905865049965,0.6435954997306373,-0.557242428377595,-0.7007315827266692,-0.34337175436068545,-1.0657030096503264,0.699584268399392,-0.5301643793339418,-0.39199225325345505,-0.04531592366050188,0.7733382517281967,0.04426573182603989,-0.8040199391517442,0.9954825210883392,0.42322741657944984,0.20267231914619296,-0.0730249788768582,1.034881199621329,0.7803696933204045,-0.46709541202194343,-0.35458776550537335,-0.8325082568131825,-0.7712440879687232,-0.5884916791512723,-0.43164139010918107,0.20701298116898706,-0.5553142929785557,0.582218298928328,-0.4617156204776815,-1.1980608704930358,-0.4649293023044704,0.6661007454667037,0.9457121959114763,0.5445486580358491,-0.08550518940115766,-0.3818002267029544,0.5947630155183886,0.5266239670515002,-0.8230629768487091,0.3454862870539733,-0.36270111242798586,0.13685211228110886,0.49104151613677127,-0.22074799022614336,-0.19135921984894733,0.6002789391071726,0.843448491134994,-0.421825219921413,-0.6129324093356285,0.06556126831633625,-0.47241031601327355,-0.25932691551330195,-0.5292556049611327,-0.10469461815154318,0.6761461466171599,-0.2203376481607894,0.4235388031929633,0.028206909554906606,-0.12025329654058436,-0.06458415578665648,0.7128428729333102,0.36854932030913834,0.625002038696337,-0.743794284353254,-0.24050741853346824,0.5191656198915499,-0.6006722560419683,-0.5428708960728873,0.5514596714709028,0.21294576756479308,0.0969913505146242,-0.7075819791669482,0.32975542726915347,0.5142583645827734,-0.045188742253128536,-0.903096146488572,0.2870424120505429,-0.9966568164721732,-0.38858108385448187,-0.20598607873566027,0.08901424350919036,-0.3858596916570472,0.6230475755027349,0.083794722738133,0.6832726451816037,0.6123280239416262,-0.5781165738567664,-0.38389348247379135,0.3137638684463617,0.21080442008061212,-0.30121580122577485,-0.42865026100543746,0.1943146482029921,-0.9567956501440421,0.6798876664233552,0.4747824774028348,0.6060653496180596,0.7104994059197067,0.5045936665265145,0.6558305351126553,0.8199326117441482,0.6662001577274582,0.25513516982903617,-1.0201239494282774,0.3890020837043266,-0.5786135221550758,0.8148447626430709,0.48550315859913584,-0.6382991164247367,0.07970957167720379,0.13339609379739364,-0.16992387695719066,0.4065016476926769,0.4314191897628891,0.5884523724497837,0.4095722033024207,-0.9402295474552772,-0.2914080953022185,0.12230915039941148,-0.6952524451175062,-0.01662429020859731,0.5128335639466465,0.21422981942694574,-0.11214532618818687,-0.13092675354395678,0.5197313357881083,0.057619107101306494,0.37920601947110594,0.6327526977804325,0.12608702840144118,-0.9899448705768207,-0.5511324895286919,0.07447284575265561,0.6615100351770495,-1.0134490600786392,-0.3280018310299609,-0.35191959113890103,-0.35312721445728573,0.8851975429818248,-0.05802932374815035,0.11182258403721693,0.35113056015177163,0.16973608055577974,-0.07983577135137278,0.6933876221728082,0.39530044138408116,0.6024615832639392,0.8362715400554762,-0.8031699307176116,-0.9959377818569675,-0.7383394439794287,-0.9190744393810869,-0.9630932976294356,-0.0044318820821874815,-0.8649405142426353,-0.36925972259145273,0.015764224174997683,0.5176998243887906,0.9140084055812854,-0.2660477105865835,-0.8132583492471543,-0.16062660525938846,0.14893760801024739,0.7171095725004772,-0.20852273145233496,0.22072058692275204,0.8885839221023233,-0.6959123700971876,0.5287356938019477,0.56674272984951,0.5227599515140119,-0.09072095416820802,0.8917646975542955,-0.23230681772679546,-0.12329685736276944,-0.0168866057508841,0.20759747103186682,0.28486767193445245,
0:2:0.4374694448450267:0.34878976249271054,-0.8981892927863101,-0.9798753188451855,-0.8488249820568808,0.2659514057098902,-0.5226554473492269,0.7109487281388461,0.6113015372146456,-0.986609882222281,-0.6288251872637566,-0.003497348600289711,-0.8821395077301007,-0.8442757801447409,-0.28359787264996084,0.45108670822250174,-0.7046554218246378,0.1378626902420682,-0.082993847520423,0.6315727329978494,-0.24513360848205556,0.273970056376067,-0.6858140531479558,-0.2505285097206236,0.028948353225398116,-0.16230183254293198,-0.4711150855605711,0.3745954028524332,0.7076008481100552,-0.41446705530845557,0.055805178108383806,0.35860990619214017,0.5777516464753593,-0.7888802757762997,-0.08414247795750937,0.4890332712427844,-0.5940194501473942,-0.793052143052256,-0.08186671082016206,0.5190051185825132,0.15490048365726747,-0.5992162133765565,-0.8608764460272863,0.16542685055064796,-0.11357041640328722,0.03778217927985376,-0.40393875622609016,-0.5721909992856542,0.38056104105653715,0.6951537099164079,-1.2271259255832394,0.1524677470653541,-0.4138279628651183,0.5449230398546286,0.6514326836964738,0.15144517912338068,-0.5792467232890329,0.5211087973818581,0.2073396712844856,0.38281110123581086,0.14887518619633938,-0.19858556939117983,-0.05127236552309849,0.7087913904357052,0.5946004034231362,-0.3206263449362527,0.008180162077065924,0.5703337202394461,-1.219143603440387,-0.6185083680054961,-0.4583180353258055,-0.4486305185983484,-0.7611256690479269,0.6742122564924939,-1.2541780626273558,-0.7454748900120749,-0.8041343081676454,-0.7877239151038526,-0.32607163216371077,0.16712712760775006,0.1192911755795068,0.4891472187533451,0.21014822832179797,-0.7288388241938305,-0.30933042820402024,-1.0127832180302512,-0.939288956114594,0.035096046375598905,0.17732319092162918,0.6603010571298146,0.4224158329281407,0.12153195889890316,0.3852314245972461,-0.7631042284919716,-0.8890875634706494,-0.34344063500842664,-0.09762362103934293,-1.9773402564170453E-4,0.363604528945181,0.22463473954691648,0.17444724312984405,0.6662448197103137,-0.7420943879200151,-0.11463559438754961,-0.8880915689141791,-0.18851138058039,-1.189120308420611,0.5012882087907491,0.4087311984894553,-1.1546789705172864,-0.9409154677655811,0.299622839884756,-0.5505576840525036,-0.019521215435613012,0.2601298273174024,-0.6572273311877758,-1.100364923742558,-0.1108716848460735,-0.76211458009585,-0.1835837767623038,0.35402695484666985,-1.2626773731354386,-0.7560410725365626,-0.6832071802172723,0.1975816842954318,-0.8248244642507013,0.3128909522811682,-0.7044327733863261,-0.17427866794485117,-0.49978669270192755,-0.9493498801629253,0.6979338285323609,-1.23788825406793,-0.25912127249654765,0.002738202339248118,0.3594448368359447,-0.24433402913984137,0.6099096984471337,-0.7394458071360716,-0.7205153218498411,0.04345019615813047,-0.5276795998462604,-0.952648412341739,-0.8695234522521154,0.1144409421462274,0.3381961499362806,-1.1274458680389343,0.34941323280809006,-1.023913869306692,0.62668332082522,-0.36781767619634675,0.1499712312795777,-1.2349841114974824,-0.012567885968722502,0.6673055803406092,-0.5425632659308628,-0.031040530748680167,-0.1622732474082763,-0.9851565897933167,0.1824192673703886,0.35658439485020904,0.46530076385285213,0.5391948260186735,-1.154315316626417,-1.0643022315002333,-0.7163277639392487,-0.18379797851790264,0.16366779067728768,-0.3870375186357045,0.18001228657167767,0.21246651352920687,-1.0004638463411735,0.31532190080966777,-0.19537781500223772,-0.1814369989597504,-0.14763941657196408,0.012964779903873916,0.5564383524927881,0.42516048692029645,-0.5893411594549308,-1.2478360159970818,0.0843149744816427,-1.2465793521089719,-1.2181121655139433,0.07382484992127551,0.09384108336921226,-0.2667002535387139,-1.0481493556726202,-0.5031555153428301,-0.4911238958116855,-0.511541991670127,-1.1427037716509754,-1.2088899307753922,0.5174235912535886,-0.628183144311891,-1.155191951340347,-0.30337798253239834,-0.36158901734176646,-0.5918521458338292,-1.0754040604559496,-0.1835679138988612,-0.060096716393606496,-0.6396012247949195,-0.4919600300976225,0.1723702452654478,-0.9689007542925687,-0.37252896843634925,0.22627087139444557,-0.9641319788863786,-0.922765282327474,-1.2787617312387853,-0.1479070690781189,-1.1064823145067846,-0.4400205611333535,-0.01690581859828313,-0.14565394403277238,0.08454278269906476,-0.33811277751224944,-0.6244394687053145,-1.120101193559495,0.31589370512727927,0.03774779117487646,-1.0933854955651776,-0.333902056131592,-1.2495576264518182,-0.5470467143101239,0.5042736946573859,0.5148955452296236,0.5818075029274784,-0.9966514710461728,0.23372179204477578,-0.7083930648592641,-1.0865994391104195,-0.8979427076889094,-0.1585696857719543,-0.052046323350649515,-1.1715462877844038,-0.3816545674385211,0.48067385438057847,-0.10017226077408148,-0.5085141031826769,-0.1436005985326626,0.5078670700090615,-1.2805102598897515,-1.0156904188827145,0.4209051544327324,-0.883697449711692,-0.14720698975415922,-0.12573070459319116,0.5748381187354007,-0.9447077760817661,-1.128774606530363,0.3588466583084579,-1.1570271674782773,0.6538976906498934,-0.6267696888194095,-0.1291374274327409,0.6398390711127123,0.015250454367660992,0.07046768162778669,0.07590733559980926,0.10157276923536321,-0.9739391072334953,-0.007558345563068241,0.07069044426172573,0.6538518346963712,0.6615637876564199,0.31771107484775124,-0.15197596676397648,0.6513603497521543,0.4613945915994226,0.05838925844810434,-1.050539440956686,-0.7529078458719621,-0.37243314054568666,-1.267266551253527,-0.8754407879039919,-0.38445510901686625,-0.3376487373132626,-0.28912282802582023,0.19066539041344865,-0.4995721244316576,-1.0753082439220563,0.056262236467156175,-0.6020961349889493,-0.4136378073367089,-0.418348285343222,0.042548631907061346,-0.1410633517890774,-1.1531794555561332,0.33969194975363576,-0.61635383735509,0.5084883759537993,-0.5989146987966912,-0.9441845517864814,-0.4021028536443311,-1.0686641358200148,-0.02048766511655042,-0.41699264920911966,-0.8205337647696892,-0.2719673227575039,-0.2925308723335179,0.3102917202841459,-0.512785731503581,-0.5886206367662631,0.6398118042315041,-0.8670578886466906,-1.1294480982230013,0.21590077293832266,0.3926410100254731,-0.28693193336488004,-0.1006261557546154,0.4801175126814487,-0.3722732216931936,-0.3136920329664587,0.05162191804741094,-1.2577460590648324,-0.8880680066581748,-0.030635121042659023,0.5232430566426075,-0.8748762691078397,-1.2288853292677457,0.2770851192948516,-0.10982172386988556,-0.43281468494085507,-1.2830423555844475,-0.6799833741366436,0.2669929097045506,-0.35934854617759565,-0.3576702411928396,0.495880414186801,0.10770432381010522,0.7168055969531587,-1.104448516115208,0.44924080533493993,-0.4808074766788487,-0.6505426460261119,0.4286467091312415,0.7272145285122112,-0.577589395462107,0.6159850093098757,-0.7595438350058793,0.49157780208119645,-0.36685302391163604,0.31553706457705305,-1.1877008563868987,-0.7032849181622455,0.6741756307516236,-0.36265207312150666,-0.7339808377585804,0.18391424199864995,0.41507176416532715,-0.184093743857842,-0.4511560564604695,-1.293343077105171,0.5905154775868647,0.06860308237654755,-0.44290278379821396,-0.9028352439600584,-1.260241971156773,-0.2524563272061377,-0.9909107003711314,-0.8667065425664088,0.6000175495185995,0.5259271342895132,-0.11266877874133197,-0.9454593556914086,-0.8431694242361158,0.07621565525667005,0.11055496871091651,0.06858301413924348,-0.5309088226623736,-0.7724801952367925,-0.8006262045227605,-0.25860808398783763,-1.259271551073801,-0.4969990281359965,0.5145942209166021,0.11177540490945614,7.509429208320791E-4,-0.17476958918727048,0.3961530256784437,-0.8857056464600412,0.5463767444898894,-0.4017496976399743,0.6484110855003571,0.02172555230895078,-0.8184095620005855,0.50348394304414,-0.45639184192915927,0.05694762039494367,-1.0034318543197582,-0.7650895883524264,0.17145017932932827,-0.2286931436596024,-0.4337053916972717,0.4371710077455799,-0.7518928226622509,0.02433461848797236,-1.2384968082435346,0.4730340574362324,-1.2143990601582935,-1.1988845450800332,-1.065415793194252,-0.6600888059138399,-0.023551662867122822,-0.501688413421473,-0.04802536436512096,0.2622530245681334,0.6359372757271167,0.4227405290806514,-0.784672228471143,-0.7973768150350702,0.6423918307258115,0.32330196788002064,-0.06677576083975409,-0.45864697830555046,-0.832976306799537,-1.1941678915025948,-1.100094900277251,-0.2407586260653951,-0.19477085916861445,-0.3327051889341353,0.23840197513082115,0.5066422351956033,0.5691937615152676,-0.08568616010106604,-0.8795259838051442,-0.31271872190244165,0.10487630254491838,-0.2937804139296315,0.30765896532377585,0.5431151187620076,0.4309486082455247,-0.9456448272834177,-0.9752859120328866,0.41451138374512386,4.643951715478671E-4,0.49338899477233583,-0.09412902778794913,0.6695183526268578,-0.17672246956089355,-1.141662580141093,-0.4438414903991465,-0.7592774429385301,0.3196214514647514,-0.6987009542114428,-0.9060605109019754,-1.2411173038061507,0.6342114827624664,-0.0346003522667859,0.723099369993902,-1.193329985343933,0.6139183201650837,0.6257057130814685,-1.2416211109908895,0.4129722513722348,-0.16714545398858224,-0.3128809793908776,-0.9784322707123061,0.6899668716203328,0.6217680865424328,0.07584854938414898,-0.04070988469599999,-1.1509439388587615,-0.7668546576426672,0.5578987943628309,-0.5047284316895865,-0.6460813005344669,-0.09333772928598345,-1.0035027692635794,0.2789165386331213,-0.3420484955100485,-0.809606621645639,0.5644947367685023,-0.05725328521818832,-0.5685542814354841,-0.08544929335777733,0.41041835942239546,0.27826398219229315,-0.32213084974692086,-0.3006256887358282,-1.1558665066264573,-0.5932787036680796,0.4253982584047117,-0.4914872226555642,-1.0834894497565173,0.5546519895807569,-0.8673905211009967,-0.5596127983212709,-0.21451575323893818,-0.5053367505045334,0.2568289417399153,0.5591910247103039,0.5961956724825341,-0.31580139040403976,-0.4248218989290613,0.19870363187689308,0.03299250540468542,-0.11515107441253714,-0.9892598312875693,-0.5968007489082577,-0.13009522137020818,-0.378480138356071,-0.7462924064702069,-0.6050426764384591,-1.2171191636990868,-0.6448353694425433,0.15782489930074464,-0.026906997881138903,-0.37882819956251923,-0.2386464077521058,-0.5068331946119431,-0.4785240953520275,-0.008097596791941773,0.30449151641985983,-0.30675793622614234,0.05468933100800589,0.46513333414873487,0.47666629291991447,-0.7601118949969137,0.5772787878249634,-0.05231136995976912,-1.0075127870261893,0.17281163289917015,-1.088615990068308,0.19160541556288443,0.3918968783896345,0.5096535173703098,-0.868641125883198,-0.8853018158973627,-0.40094455174739135,0.2760920736005877,-0.40197312121743317,-1.2370877644430074,-0.08373154455256897,-0.9385186406370508,-0.22981478237166897,0.2761324884225008,-0.6857197183765819,-0.12330454625394151,-0.3254996016610652,-0.01199132721869008,-1.1643827986319608,0.308020357738578,-0.4092456550411614,0.3957319699285672,0.6329215573438004,-1.1262400786671323,-0.9598460620458013,0.24676682494423477,-0.15060176421466126,-0.4546116976691511,0.6490171722198169,-0.4793558618658745,-0.553927267829739,-0.9614217212805046,-0.6960924377495001,-0.06669330770581666,0.4761465345686602,-0.9109527303259146,0.29869042447855576,-0.874245458628327,0.6251277194742816,0.15432696766307863,-0.7222268333727961,0.22544882145695705,-0.7630791836442276,-0.8358771647832396,0.06557833477328834,-0.5175379353754045,-0.942450460900099,-1.0814840750018728,-0.16499914603551016,-0.45316348272070345,-0.7399777429536021,-0.23623624815464553,0.3493501995733073,-0.5294581808496049,-0.6230008462382619,-1.150771270245489,-0.00837754401080595,-0.38062576822645766,0.3520827544857488,-0.7300390254994912,0.2440265235797982,-0.9402068008432924,-0.8505756581477488,-0.08808796073382354,0.6760447490853599,0.4947164840425413,0.5828460780392141,-0.040423809569830264,-0.19867657787311938,-0.09943569227956237,0.38999414284745837,0.3838254266590607,-0.15115335456164677,0.5608842138262048,-0.8863033738909586,-0.4244250084145858,0.6491453407665885,-0.8619622339629532,-0.7931362046050401,-0.09837933955849658,-1.2566659311246626,0.008259445632876278,-0.7107823827800999,0.11187858286195292,-0.3610501953546699,-1.0715000166728958,-0.6512721058906037,-1.0117899896680533,-0.5359351888115385,0.5426062800339204,-1.2511620879801746,-1.2021389202486445,-1.2191642100985027,0.3089612340459795,-0.39211105041967503,-0.4215608508631085,-0.09397427205579127,-0.35241688647783154,0.6837982060163322,-0.6301771048046622,-0.26929712831946573,-0.6712992825431081,-0.7046328743005867,0.5630453521062925,-1.2615834878937737,-0.8624313441531525,0.4295657481240674,0.47011877751868664,-0.4942471389279794,-0.464603876698714,-0.08403863923243772,0.2973496787415677,-0.2560068201232671,-0.6638897747246666,0.11457956075867615,-0.21560672735999667,0.3364772481338425,-0.28164191572617414,0.017997750287934437,-0.3579041433971549,-0.185616806716683,0.28268300096325105,0.06576955248279219,-1.0720441193312464,0.37235908365790343,0.43304245883966497,-1.1698546400190601,0.6274208669051694,-0.8615615965901765,0.4807017824756825,-0.19697899562787333,-0.012826383504605687,-1.247799619056932,-0.6233182456757315,-1.1115676731774469,0.11173926970159663,-0.4950604126063237,0.32009903618709307,-0.3268025410089877,0.20169489021346482,-0.946937483789166,-0.0023069066367060378,-0.4165675778235665,-0.11078547903314961,0.10939284141997627,-0.6548908965761752,0.6613312063387832,-0.40764908308065323,0.2557505501223274,-0.5611378558402694,-1.047593586841141,-0.98623100352327,0.25851540308974835,0.31149093986566245,-0.9573496066728342,0.5540494809877464,0.3248951713981558,-1.0840000109869492,-0.7429222426277842,-0.0036468256441233786,-0.41467467412864,0.19562290051607806,0.3609363911422198,0.4461369702695281,-0.6032251236362282,0.6537053978396232,0.13259940870538445,-0.10992197064796937,0.02569672708326933,-0.3529128288657444,-0.12518586249972055,0.6760216703592964,0.1581096793841795,-1.009638466280632,-0.21394536844296802,0.5449970854612144,0.10248117479167779,-0.20506829249752934,-0.6802856971681036,-0.7444063367352532,0.40334163209234297,-0.08993245667422625,-0.5687993297189545,0.5539870847345553,0.5714773976745249,-0.07410789790378901,0.2629390025046338,-1.061013761752865,0.23771945499427596,-0.9377115031333817,0.20360562720056471,0.02821175323933424,-0.08301592587543005,-0.8355188340971099,0.6450465384503951,-1.141289632059409,-0.5608094411961219,-0.7315282474325909,0.6447814692001276,-0.6517507762603454,-0.5378843607965464,0.6307854978742067,-0.190699515716199,0.6859087630591202,0.40623457573759547,-1.0406734294400588,-0.7957428512205006,0.4710376744246206,0.4320159220500962,0.674219179850368,-0.2561219798527087,0.5287781044419632,-0.11236228891469663,-0.5095480502341504,-1.2223329283719913,-1.0111997285243974,-0.6442068803279997,0.33323572330897916,-1.257241190694521,0.3868430288864007,-0.6966385307708678,-0.33024988064582833,0.6917814698802985,0.015108968433389647,-1.086655892342485,0.688191259935499,0.24082147520600036,-0.552840942211906,0.07954346606705148,0.46997472828701015,0.14885386747472024,-0.5018474048009942,-0.1118247629874571,0.26702824305608575,-0.0204454897468873,-0.10118585067409437,-1.2573424920836687,-0.6913438330292968,-0.38413230296207407,-0.983205117828656,0.34331177101617505,-0.8074711234453725,-0.6485587995797799,-1.1968605994808992,-0.7137356037150975,-0.16580660313999326,-0.8864404719061549,0.5256431443467764,0.5589024852246262,-0.7964468269295423,-0.9748439731531822,-0.45600802687217723,0.5000225894185281,-0.38582374064643205,-1.0977018307962725,0.1751425932099857,-1.119171743295771,-0.7646113426369369,-0.3447945828631058,-0.6910536890367579,
0:3:-0.48300277266370467:0.6688520980413684,0.5298954212738269,0.6352725199788225,0.08559184488170755,0.7428619064367736,-1.0990347986130522,-0.6366411427320728,-1.2207906266540953,0.10422378024048072,0.6104837624448547,-0.004098306469529293,0.20461296567135603,-0.7423953381115695,0.3163716621302752,-0.7600062579488307,0.5450204389634834,-0.8156232786461435,0.6860369577274961,0.019924342575368476,-1.1600463980006512,-0.21291557588449736,-1.224366267918047,-0.9227702908590096,-1.0057908035137906,0.6722539378589389,0.09252789560019879,0.3162208465889242,-0.515162380334109,-0.8765869274142406,0.5683249621849253,-0.2013852721884513,-0.0719446468859763,-0.2021701071929967,0.24208239258250136,0.3787846594055747,-0.10346672793682293,-0.3253813632343293,-0.16190736348594809,0.3715366652400937,0.41845993818924765,0.08850316257330054,0.6198911561364707,-0.6427907287706097,0.4437596568590895,-0.6973325524466785,-1.0880938954357238,-0.7457153158430624,-0.7727644593519196,0.005764014514196446,-0.49756457346381255,0.12758992934226895,-0.9398278448757118,0.36229225600303233,-1.223600056772236,-0.1494427979318631,-0.9311122540458652,-1.1978018999987883,-1.126411725822861,0.7029032619810727,-0.09451034833138092,-0.39531196597400886,0.4278744380494855,0.25643646141741794,-0.9340494474606618,0.5096487889040227,-0.4873311659155504,0.5198700763571615,-0.6654185293988784,-0.8908689041334245,0.3219253358660135,0.11702692413142034,0.2779983673087083,-0.5053757200620808,0.7213249023351203,-0.34730190187933624,-0.7152147900739803,-1.0863619934839666,-0.3466025914570046,-0.201945306080638,-0.4372223381565714,-0.5683963655337461,-0.19678462595711113,-0.5289873519472477,0.6568944229489944,0.48756293281470814,-0.3191708470200278,-0.2003902030057401,-0.22315859789755924,0.207764513562505,0.2912267814456411,-0.21133069449527628,-0.16620308705188408,0.7449417389967532,-0.16154764434814942,0.5617390281127607,0.5116078109765836,-0.4154069540620496,-0.23730443446498667,0.07927889273187914,-0.09715854947814104,0.7085434843422785,-0.14537032812404285,-0.44899754897996663,0.31207557063358793,-0.9362575637327677,-1.1967491230914278,0.723774854355879,0.6845724408890361,-0.3435688053868691,-0.3587660307631296,-1.1560102460109427,-0.3027621095175831,-0.10013743631507235,0.7078587398912501,-1.0929080916410512,0.20454933609475304,-0.5463725036067805,-1.01663767800875,-0.9529982590586452,-1.1805078112914857,-0.3959389036010355,-0.8922151867786755,0.1420900215313574,0.6674737385598943,-0.5017828774110527,0.1596042007522422,-0.16710230281183827,0.15581587856009144,-0.09254795545615871,-0.3875059692430504,-1.0303920555167694,0.5400740257998355,-0.2953728540698149,0.3520679732219856,-0.09333517713887723,-0.9023795568228561,-0.29308957518722945,-0.024756313826775646,-1.0080567338565352,-1.0804452217172622,0.5542142025246282,-0.44627669350098925,-0.4810722622522387,-0.4089350431461278,0.4438358767497433,-0.4775510854242762,0.4793551305000715,0.6268533150747833,-0.614414630308608,0.6389950570788046,-0.33767239137803606,-0.9277933463706521,-0.8779716123712784,-0.29317891167133003,-1.023415584649987,-0.7200170279986912,0.4345289671017151,-0.22660818382347403,-0.13500126442712965,0.6344670437507114,-0.8616605811168135,-0.48593662308870295,0.2291042742482429,0.07670645718143025,-0.9917637184318623,-1.1732796605237759,-0.35574020489644187,-0.4454667284628658,0.6389831799119778,-0.011483010521159142,-0.7201221294959418,-0.35777994857725987,0.034731635796365866,-0.8898973559372992,0.7074018295673735,-0.6113004493862255,0.4512777841019391,-0.48417784974305933,-1.1659473904850362,-1.1225259338425093,-1.1996686913671581,-0.8744970757893816,-0.13795644567738535,-0.46066537170333904,-0.2783667645028295,0.5980478832099287,-0.6743224853634338,0.5668064156007863,-1.0124354504392261,0.7424836031820581,-1.0871507911492493,-1.1780284066613589,0.4653082562292235,0.6285868525704686,0.5954869823791709,0.13883098568846972,0.2472294115994658,-1.1168423202561937,-0.03635820729584374,-0.786223305452852,0.01752850347829285,0.7517034762434875,-0.9159918432275529,-0.5701287494180298,0.37021614322603064,-0.9736574634392546,0.14688550145701768,0.27650865908921207,-0.09647202726189201,0.16544597201597838,-0.9057167526103928,0.08099318144448912,0.7105153588223716,0.1036260286636524,-1.152891195968849,-0.978488759943291,-0.9240482808611009,-0.851740486651061,-0.6366025698694353,-0.1739776432774157,-0.989330447105747,0.038446708501597086,0.09648476847127639,0.05910773939375391,0.34899274612459424,0.4751061572422519,-0.2505452234082219,0.6010122941368643,-1.018567020382011,0.4766259806444275,-1.2436912911314795,-1.061039686030262,0.06367606268527826,0.4964530893044924,-0.6356150120767688,-0.14699173139277105,0.6123551164086221,-0.5478810223023661,0.0055157276246301035,-0.14218056381362656,0.17886995468415337,0.01205821150422851,-0.5630546749493518,0.3932210389427151,-0.7628132262771524,-0.5367750302624902,-0.13215518221407113,-0.21127135929731028,-0.13222359065967498,-0.9035738503377979,0.6419638870526364,0.4676804133906828,-0.8635634165530361,-0.6992376383309234,0.24503979078612034,0.7221768807583058,0.42034897972532265,-1.0998593545011401,-0.05793125814480003,-0.4967172831033304,0.541605309041182,0.24688720075350065,-0.902118702156324,0.17745079581889722,0.694072051848652,0.4025857402796653,-0.15502595049898854,0.04763092432923098,0.15701450601924946,-0.8937235381265737,-0.806574264023612,0.11065661232337325,-0.6200002860116182,-0.0791803720711505,-0.18284154264593905,-0.066700204854936,0.5413925840854111,-1.156444177501799,0.04326771421887861,0.3683227694389077,-1.1944910396748798,0.4477612211593905,0.5411467375229767,-0.37463878071990836,-0.6129124222326332,-0.9944768699131162,-0.7586540064367768,-0.6499778974742009,-0.009645925052508969,0.57683312094362,0.14325491925514994,-0.5306599900845448,0.32919310535741286,0.39134983693392056,0.29276470390687526,-1.1724939508537335,-0.18237628218685134,0.0033919226418720394,-1.0710111215594076,-0.2470926986741668,0.4987465724166655,0.4755997229558646,-0.4260785437555008,-0.3845741903924479,-0.1492879711620578,0.7138184474814648,-0.6118593294316841,0.5242490042981823,0.456921972127874,-0.21074481612872267,0.6083816314183252,0.4137180987082841,-0.07039670389688561,-0.1542897279696375,-0.6734733083063735,0.4847430012515228,0.35013103058676415,-0.8499478776266142,-0.15814460425308843,0.2364953522929649,-0.8582305636868239,0.17122016112555477,-1.1366985834270589,-1.2108516589465996,-1.1966929349295374,0.08655250953319224,-0.8287214739162826,-0.8606219672760104,-0.4537050483915255,0.30363778996403296,-0.4028972729755905,-1.1270178822364298,-0.1822181576073672,-0.10218408219736458,-0.6103824675374281,0.38133508856549425,0.6058897045182455,-0.43860767630123176,0.560263552859057,0.03870061569041304,0.6652811003898053,0.3752462690793676,-0.40333971959582227,0.18358397431002807,0.4756093289653426,-0.5541621099211758,-0.3222502341882479,-0.8405829290708322,-0.9563185967846457,0.636917933399969,0.20659164854140957,-0.3133202291944084,0.1415430544146242,-0.31277701502500527,-1.0295394208043345,0.4615597458555919,0.4143032861858963,-0.966686087355564,0.25199305844981196,-1.088823487895646,-0.09435082171419205,0.4483253319493972,0.714071102581746,-0.571852586849222,-0.21579304472685878,0.02771078570054959,0.7060750797251834,-0.5492120402782771,0.15400411969160174,-1.1823807872740422,-0.6652060653821381,-1.0975295198540318,-0.8802326147919937,0.19598714193356448,-0.9045279659305954,0.6601992601977594,-0.5981976746665187,0.45638836593476906,-1.2272289279346518,-0.1266234432283571,-1.1694092916205305,0.6904138576625456,0.3889796393339987,0.32475791743918975,-0.5807997991958831,0.5274766365185447,-0.17640171392957765,0.7118788713184078,-0.03155351848211455,0.15757782889168254,0.15380594309241838,0.3303651587707198,-0.10010957729712402,0.0480781750663646,-0.09432009389530355,0.32552685789145486,-0.7761125601893714,-1.139504104402226,-0.36389048481931513,0.5726843936236535,-0.39641775472270796,-0.8440839142417371,0.21651340130213914,-0.5786749094048617,-0.7241756638045838,0.1044270253100743,-1.0334745664452476,-0.16138912554071302,0.11738619984111794,-1.1605632550567628,-1.206679499834442,-1.1080564376157718,0.3546870974285115,-0.6297653375907678,0.16070585674062418,0.6926672145239305,0.3303699608751141,0.18366523466991228,-1.0273797488415983,-1.219303824963934,0.3887455440061818,0.1289140739461541,0.5135447091894836,7.382740053423551E-4,0.09017297400312618,0.5447663548565321,-0.3896949071209268,0.26155996803107195,-0.11138778506518215,-0.9211352027945069,-1.1734540970999392,0.6793873455159265,0.5955833011279208,-0.45976547559003644,-0.3132727368158246,-0.6776644689425356,-0.4411050395528544,0.12929628680889776,-0.8896795208428596,-0.07545539768511789,-0.12293245886804555,-0.13525489136104624,-0.006115376224314138,-1.1923789544930077,0.6592340876599966,0.0378395766183467,0.40272667461419864,0.29640418358639253,-0.2511381901692285,-1.0212156843701785,-0.837843222494825,0.36206493303177023,-0.02900937564811031,-1.0324752674819864,-0.41817567671405625,-0.9577531955499285,-1.003871844212874,0.7228857930446697,-0.7590983963423341,-0.6746377974906643,-1.0113871248758262,0.1640556736458075,0.6781378223640766,0.6873037159087328,-0.6132485834639884,-0.7807418060246875,0.04293392001926688,0.04242483744021081,-0.6193787452144749,0.16762138557494344,0.11314367512229132,0.6923367356252872,-0.2714872060319169,-1.1327594522100897,0.11011345958438815,-0.8249211463315963,-1.2068185992721223,0.7282499724752725,-0.21463738770169571,0.20550119444679732,-0.037069590226257707,-0.12761122129405011,-0.6382030368386181,-1.2152841021877105,-0.5131047031828907,-0.2868374254525474,0.11898473163629653,-0.10445168040582042,0.3010462425616209,-1.0982970565113872,-0.02608726600271253,-0.9888605135897308,0.06457164311284748,0.6369009669438548,-1.1112300386575982,-1.0761801900118104,-0.2491439928430871,-1.1917748440469775,-0.18645112406568196,-0.7238686151860227,-0.21702870013781475,-1.023087324837213,0.46985739972602836,-0.5147027991862112,-1.1130749560063569,-1.2048878896731898,0.6201442538333131,0.08511865911778436,0.18452953549953102,-0.16844249735604305,-0.5010747805107783,-0.5716908167589861,0.4767668386345704,0.3158496844825035,0.44070262431969953,-0.9736571399482961,0.06553465455861911,-1.1764119807799511,-0.12794281600367668,-0.518597769534489,0.473354113750383,-0.30798971378767137,0.27253199679247814,-1.0025443744084177,0.6473904638673869,-0.7037362865828934,0.42297706824330594,-1.1624634628778954,0.027739892030854606,-0.7675843941218655,0.7065173900515167,0.3223394832920589,0.5558007764741142,-0.1140424497378781,0.45066435549250405,-0.1808458217081412,-0.374317175183747,0.04952357539954853,-0.8555846563091514,-0.20477671646732692,-0.796944019388327,0.2584797914284096,0.6057611744915762,0.10619039313623407,0.5501985948756926,-1.1711712817932352,-0.6969906457539917,0.07397898796843076,-0.4449013855830594,-0.9557026015580009,0.6941542828070486,-0.7746022724248631,-0.9471386508957733,-1.1175974274806826,-0.8235390483824295,-0.2919042532885304,-0.25018255765909936,0.36914313242102026,0.35479881370944055,-0.39986063854021964,-0.8424381740916271,-0.1778234295029978,-0.9286690984505521,-0.3184373451148475,-0.23909795613290588,-1.1727738834169872,0.21541633698222565,0.27645979391420195,0.6206542350897605,-1.1425714435385874,0.5032829950807606,-0.9085695197380558,0.37048308471947644,0.1742120808384485,-0.1159062297970874,-0.8770807662621245,0.411210459959609,0.09782528238197657,-0.2286983617856367,0.059319154016854524,-0.6710463115600523,0.6624850617720043,-0.25654026201528524,0.7440021692511937,-1.2144910862820364,-0.6933195847026589,-0.9163591296743644,0.3791623294566112,-1.196380820275404,-0.236609441734549,-1.1539835595636772,-1.152911752102685,-1.209135254306095,0.4136170999695601,-0.2520840776208652,-0.7570813731475615,-0.20798692199632743,-1.0929108066507283,0.5495599916132645,0.008561756304836578,-1.1380347163345275,0.17937544506672978,0.2574682879132785,0.11362520807279082,0.2931940968288833,0.4040253035471098,0.3675005877491086,0.24634655891846424,0.3720640460646724,0.35589626294571763,-0.6831654608710158,-0.7181245531199167,-0.6205065967762279,-0.673773207395882,-0.2976992749176492,-0.8540763911863798,-0.6009427549718351,-1.026508327407799,0.3284598546164259,-1.11357301582801,0.3708379672409562,-0.6271987773301081,-1.2421829184597317,0.06067353700540593,0.06130314144349557,0.15630401738630684,0.46186902630319737,-1.081325963769886,-0.06803604977066258,-0.511759877693696,0.15113266831939745,-1.1271785282329103,0.1456765406252539,-0.6558957295633143,-1.0293674133397834,-0.31963258879246453,-0.5865875369177709,-0.3334286037544207,-0.23527363506890578,0.5991550683898095,-0.9315679518343674,-0.583512711175,-0.8702220504059018,0.5633713123127218,0.5385393894181847,0.5342624022741074,-0.81573257796939,0.024059845990795557,-1.1338082881881504,-0.33999249352311706,0.4916991751890077,0.3220056309935277,-0.38082349939139226,0.0667054978041647,-0.2695918878527237,0.39134624136234064,-1.2006810747910004,-1.223000150816171,-1.0800513762265547,0.04530203081958326,-0.38324815372909016,-0.05314517971573352,-0.6811830712017399,-0.3586795781084137,-0.33360084430460196,-0.6503008827767062,0.15559813362825178,-1.1423444391093167,-1.0453350550242673,-0.7718053827463066,0.259536735327029,0.002376419081852245,0.05223246368391693,-0.6411899181463203,0.11782133361641116,-0.5251358284556097,0.5443707448112968,0.35186949779692345,-0.3027537924503081,-0.7733891116435846,-0.378222407900256,0.05997034706034877,0.16845313223974379,0.019664352947793166,0.24896069622407874,-0.8140132340598195,-1.0606487261536761,-0.7317727264343645,-0.44437388629900015,0.45594956637656037,-0.095834673124262,0.6745387807336306,-0.3922083332653459,-0.6352869918521725,0.10935260739830673,-0.782782093366858,-0.3336868536139064,-0.10040424618896698,-0.010860833754058793,-0.35691303351406783,0.240018640844629,-0.5081855813043974,0.15779479310494032,0.46661615061078887,0.6693273361025875,-0.5686248123596926,-0.408000440039465,-0.6993190748482536,-1.078749268613553,-1.2466923583023453,-0.9025049842375155,-0.9276181386759248,-0.8163939562260479,-0.4582879345003186,-0.5885723202088564,-0.6915840901950049,-0.9227218915893868,0.4715042068955116,-0.09784716698297713,-1.185586504752718,-0.6503433646864131,-0.12416264970796131,-0.5265116134968172,0.09470034017509014,0.42146761912880054,-0.4749478513929388,-0.7900814211141156,0.10091976717532912,-0.7360948589627925,0.005854423175618215,0.49286282575162604,-0.4659821613744096,0.20855769788592637,-0.8351147839646113,0.26602976611873785,0.32967676495220255,-0.3995976846443119,-0.4166841029884698,0.397643773977144,0.4474626673731519,0.29352030961519177,-0.41458367552271574,-0.26533618283518434,-0.7218141017880326,-0.6443196278518184,0.11144886520302706,0.22458659617837054,-0.8176193552924056,0.7157188111772934,0.508114096695524,0.36622137707453034,-0.3544417423775533,-1.079483248106943,-0.7637790979453347,-0.7352938120150629,-0.6145224132296909,-1.2123186696214499,-0.18715543051955116,-0.9254115599738375,0.3358966733206556,-1.205474025358287,-0.5752242697218237,-0.35145904218347573,-1.1106894760545991,-0.3341600094006393,-1.0033513321366543,0.7509774706993047,-1.1200402486644048,-1.1257383427807244,0.560478335554478,0.7494596128226987,0.4942958817852502,0.25285426004614864,0.657900782058322,0.5988334521695203,-0.16184303222876542,-0.2739186491024221,-0.7959929528992962,0.14171885146403584,-0.7600538438005955,-0.7156088087167635,-0.2500243904929977,0.28198348819441976,0.5416965492102994,
0:4:0.398542388202976:-0.5220510415175306,-0.5115729371644568,0.671812183815655,0.7724760038892611,-1.104766100576369,-0.25589919050205084,0.09228930652001369,0.7857098473391078,0.6375798543697133,0.01058087569303171,0.8070279009244146,0.052192851395674304,0.06129108072968648,0.5625117638044923,-0.45332052506805126,0.44867251862594254,0.37054872714180237,0.13665540395120826,0.4615725354720522,-0.3382851693337871,-1.1039828330560366,0.7011516699110023,-0.7972571034983329,0.009431457334233161,-1.1194029764510736,-0.04618821937699923,0.6221147226600909,0.2983878948981005,0.010605210622642884,0.4966802253123487,-1.0821796585763994,-0.02423661171144015,-0.20205053424334027,0.06391489302901734,0.5244994703444987,-0.9222960343179132,0.5260835404648082,0.7680551936976671,0.31796926925265984,-0.9961781969443273,-1.057260112473049,-0.5438121766700246,-0.8606985033589427,0.33809654875327194,0.18157219941317562,-0.9925071374953186,-0.7690431821054872,-1.0658052666434052,-0.8449041369214004,0.03574844246052606,-0.30944685591106086,-0.72006536869966,-0.7239785763162077,0.10277641795442308,0.05766838672714989,0.32942157755234075,-0.8279398205602584,-0.26237527735334315,-0.6778363977752646,-1.1435088206891537,0.15171318931555214,-0.42524930457871807,-0.5920384812270665,0.25797687435173705,0.3262055166667072,-1.087457319064647,0.48052721427317946,-0.618873649507952,0.3918095050330592,0.34916876806162084,-1.1019914436366658,-1.0556203677995593,-0.17924000317702257,-0.8417729598989535,-0.26172927123999123,-0.7818213035759828,-0.4014708445322032,0.5287350899271425,-1.1330707679469214,-0.4625688171678241,-0.9222938728565032,-0.6614216551254117,-0.4095599136516958,-0.5252335540604969,-0.8889214042188436,0.3529275758471943,0.5301653142442813,0.793362553879623,0.664692563854616,0.07466756922784695,0.6676471963754604,-1.001600673139068,-1.0701321219894275,-0.2795372031631103,-0.5001151297696484,-1.1082247588699308,0.47197307772267877,0.0625985076249112,-0.2907825299535757,-0.7541149130038804,-0.3449420150692007,0.5132782957546398,-0.05253734181543081,-0.19943729739579946,0.19256599801458985,-0.5951760785391165,-0.47716924382437786,-1.0638618267875233,0.3509959130701565,-0.7322118172687799,-0.26470770573937213,-0.22411054612608364,0.0742574553400912,-0.2341459475539915,-0.7013712304953789,-0.2432315231391768,0.1093759859373653,0.686736302023231,-0.8621536350661893,-1.1967016856624102,-1.2170977594563737,-1.0824322895121343,-0.6268010522545209,-1.35568559747928,-0.41810955061080207,-1.1136489873695763,-0.19715509283980134,-0.2895286198361483,-0.814408601962697,-0.6027477851830583,0.270712675658075,0.5253464252928587,-0.475692187871571,0.6531811730134649,-1.0781223871517038,-0.6750516072105047,-0.023114903471169776,0.03902527469544316,0.19669153706669196,0.054717510193103246,0.5796411095793981,0.49066253523410025,0.6586719612911305,0.07414910191480611,0.48451366953623065,0.12062332792856563,0.16500374022956613,-0.8756635614174162,-0.7588148379313082,-1.0297568239097314,0.4878415791455667,-0.6839674475141515,-0.8521025613684382,-0.04360267359906607,-0.34497833805114425,-1.0987877032396944,0.5193998879135776,-0.2890281800474896,-0.2752374906170364,0.2877462144397203,-0.593561942717919,0.6589723691331288,0.4178147245619065,-0.6641774043402064,0.03942625770933384,-0.38330739240116435,-1.1063944005841182,-0.8397405034918999,0.7620991001879218,-0.3110273523505099,0.7625404234019373,0.7650278439896578,-0.6809621434690559,0.4708443397627447,-0.36263048546601495,0.7704259551931097,0.04919998379092672,-1.0167118715442873,0.6881158977608718,-1.0039682752658192,-0.08781820471573577,-0.7540518742815936,-0.31834058810793453,-0.8727424177943311,-0.7100059317710411,0.16429990713499484,-1.007885870161329,0.03273925464399953,0.6981281429899416,1.332888165959023,0.3079361854879318,-0.7671154780972023,0.15572447186572974,-0.4884071198618015,-0.08597123854803429,-1.036109201866215,0.03762174734725867,0.6432113654327489,0.750203897480894,-0.6892940406401724,-0.9970292588754404,-0.7791638171217401,0.1748721001617117,0.42257885375059046,-0.38426579575759673,0.7377427128427511,-0.26640303375971114,-0.8270729706192695,-1.2809733093193312,-1.3535682117261547,-0.9072626888771755,-0.49000377545300666,-2.0116021419383947,-0.06297772048976795,-0.3325186230492526,0.017880185238626646,-0.2273634256417469,0.24818743454941097,0.5945909984577713,0.7479596798365701,-0.06292428442802607,-1.0286571765436212,-0.977551007548515,0.20229477884779548,-0.5690441835729788,0.029767138903269128,-0.2476612264204318,-0.6676562298614206,-0.4118083832604615,-1.0650725318473384,0.7560599486724003,-0.37893955779139094,0.6863753081640158,-0.3943296872116493,0.3722995918212214,-0.4811069530067783,-0.7392750217275605,-1.7038323483604614,-0.3731501272528196,-1.5348142580283255,-1.156760277003198,-0.6187638893062274,-0.16035998111364808,0.4432173563473863,-0.7113716262129611,0.1029645915512584,0.2001560753129013,0.6000331787385953,0.06411792835117441,-1.0998341299156937,-0.2486730171836913,-0.2697368770589487,0.7957580596629726,-0.21650549368746785,-1.022090218310009,-0.6571705972736841,-0.373422811066408,-0.8048365655325057,-0.056534977801838436,0.6923742365644502,-0.15877673828910827,0.45263850455058746,-0.7502865110905268,-0.4983099971078915,-0.4892012699781473,-1.464604803585486,-0.9189203256193572,-0.4030572410344757,-1.000072402204861,-0.9644397833809814,0.2104213713466454,-0.23421701481961135,0.5549509676086164,-0.7194849930421457,-0.16658706948107868,-0.5584332511346525,-0.05236391949077589,0.5659632350865548,-0.2518283689434266,0.666075646807484,-0.27123085570568267,-0.6139260351468051,-0.5530348668612773,0.24521767630184096,-0.12031312313062288,0.10470754223678459,0.5693947011768303,-0.08017482057338203,-0.28657173862142005,-0.535273211753903,-0.3367192991895457,0.04201815351396185,0.3669724759937498,-0.6532284010580098,-0.442423063437043,-0.8099964825624054,-0.48057355740783114,-0.05817961248344151,0.25530086220000586,-0.8696260458795462,0.645183026428328,-1.036991817500644,-0.5533989217815695,-1.1673706101387729,-1.0198796300538333,0.5443707589921258,0.5971437433734471,-0.0330597353491126,0.2391155060856238,-0.19615503307687285,-0.3717987060990952,-0.840823067422023,-0.6416741087017024,-0.6187207403988078,-0.40525129746416366,-0.20924435233494393,-0.8058261707547907,0.3835583250615294,0.35784402931745973,-0.5545990172030754,-0.4986062344587365,0.28637303332819974,-1.3066314860398318,0.5111299820814628,0.08765726782440368,0.7166885579751465,-0.03857368358712053,0.12775503098788632,-0.3092069092081244,-0.040525536643727066,-0.6517656910181991,-0.9777804127187025,-0.4693229464942892,-0.6794970791449894,-0.363177971639973,0.599440310711216,-0.8186775650669613,-0.3919631817863654,-0.7464622732499031,-0.6008657670094248,-0.19837108365241576,-0.12795073083417127,0.06129209591793806,-0.7340818591256849,0.08636795549985853,1.0452586656974279,1.4597823086353265,0.7356114025837193,-0.494630933846929,-0.13189877851770854,-0.35450537156473505,0.7059594858828013,0.9904904174032885,-0.49225053875398844,-0.12783388747057517,-0.2570701154240539,-0.9723309268854275,0.3358035509024102,0.15428587004068633,0.20149933564216743,-0.4792355450837023,-0.9068133839775948,-0.5961536335075284,-0.09494768275941357,-0.9046906201394882,-0.4444394666164247,0.11325445218729316,0.30686071883395727,0.3752142280509231,0.8520979645951003,0.7884444367332526,0.9928132344155635,0.8073529583774441,0.11324886577929776,1.1031420152703764,0.8067553043665243,0.3872638728230215,0.23108708614361084,-0.7206854292834675,-0.6305763357171614,0.38357304595423636,0.5987010458112685,-0.5007118287882962,0.184927745441655,0.09843252583521254,-0.502071666577442,-0.9603636557754681,-0.5653788705265463,-0.3752542160443222,0.5614478654190038,-0.2251378532388114,0.2776906345751839,-0.5812421128799268,-0.21985226767267793,0.5205181455428883,0.2808557883163542,-0.3288866062313314,0.49503877221390113,0.6407792240349063,0.3920068435334818,1.343714464168243,0.20657254148061283,0.4642527537031412,1.767765340039809,0.25702733655366666,0.11654320649658856,-0.44664858601932733,0.09860193676886496,0.0667192343261981,1.3337870841632167,1.0747461421593698,1.1735735296385752,-0.5084341406474853,-0.7698867475169434,-0.026226808131459,-0.7683153810247835,-1.1867165975920775,0.6394580036176795,-0.49271055424047006,-1.0122299030518531,0.04723989382922391,-0.3876671118852723,-0.04366113383779687,0.15307526456490336,0.4994865527186234,-0.16839064725413833,0.8514300597136832,0.7257419639012926,1.1177018348083272,1.48515313850893,0.44528817981908136,-0.19810005348811113,0.7736982051979457,0.5874484135302475,-0.2546470582746252,0.34346127478900007,1.218498032035779,0.35030285988952603,-0.17981011149129456,0.5831824961269717,0.5479230768194596,-0.13820443273011174,-0.5647246933801582,-0.02349740546885895,-0.7017524400808377,-0.28356437110220367,0.4211595596007586,-1.0407966763669152,-0.08538354150530975,0.486492181972979,-0.4032835394200564,-1.1845496264404067,0.5453567469274926,0.30898712058852296,-0.041295346290244006,-0.07194652668249146,0.7540125479271127,-0.29402145393100715,1.2492643903031013,-0.47987451089275707,0.7897405077387549,0.10394337085260386,0.9216563691145087,0.8598736683006302,0.8481971681328077,0.2022623016726498,0.3655539584990244,-0.2287979457405658,0.5335912660386388,-0.19878770802713389,0.020787052249096046,0.10161163176541657,-0.09182588370752742,0.21963147232559083,0.27193111924418695,0.10908368781904348,0.6510198551784541,0.5844196645425368,-0.47303343348443966,-0.2545559984947748,-0.5897100782869092,0.5884850703526627,0.003943690218428195,-0.5900429198834201,0.9216023620034814,0.33744033356645436,0.7589409220829814,-0.6318740188044343,0.19572577905293317,-0.18703184019242536,1.0455545356767235,0.37292789775467333,0.6462909633323806,-0.5927640184012676,0.388811345545753,0.11222817965953258,-0.8893000883858819,-0.9285067840672525,-0.47518452594966704,0.016548179641568135,-0.46606631658343056,0.4371808519425888,-0.10096836862408529,0.6252423629788053,-0.5520427915757367,0.564669298566588,0.16382356033072876,0.3903306159177867,-0.4118370180759272,-0.9862184278203782,-0.7812188483904694,-0.819538510325414,0.6896024054872968,-0.7343146271691404,0.11339439611523762,-0.8789582673623226,-0.07830886596644074,-0.22218962129646697,0.4423656901426895,-0.15015435286071108,0.07702447867996262,-0.646276177159225,-1.3173079532345993,-0.1096566317254702,-1.396596146631604,-1.2510455466688322,-1.247011479843523,-0.2597508197655412,0.4864922400452115,-1.1483651416416925,-0.2787127246497615,-0.9597605342956979,0.020172365918079287,0.5122703586857624,-0.13056541912698413,-0.9165208525591231,-0.5714610747345078,0.03059464711928346,-0.3397853278025399,0.5538756399929105,-0.6031293053895064,-1.344880616813974,-0.5407462560796974,-1.3730051807503552,0.2270947461923248,-0.8412344403371859,0.009527424812886239,-0.9836696836851931,-0.36035329433237034,-0.541942294894875,-0.7432830434109586,-0.03759471145267543,-0.022673464407337862,0.36886087225902964,-0.7356936540909839,-0.31070478054515105,0.12415873274912483,-1.1383151448285862,0.43772587699907534,0.506413003724136,-8.708830551118747E-6,-0.8884196609995372,0.7819490167542552,-0.2060851439400462,-0.8406542824939248,-0.12530971563981078,-0.503631364856448,0.023623846369422573,-0.8015879821829129,-1.8416106830854388,-0.446153934221252,-0.3745628207117361,-0.5708854865210067,-1.0689090212705186,0.17006467881392362,-0.7751245849906928,-0.5780820898567739,0.2878205650740417,-0.6780345119194708,-0.8893476150948496,-0.7841674945110763,0.49227273418692047,0.11899140550493556,-0.1961998582887737,-1.017123831184558,-1.1485262635066642,-0.8358315957227614,0.42095216474441594,-0.7630007112847752,-0.7713407170308908,0.6499313278757429,0.6756323021537326,0.3209013573171549,-0.7877685008813283,-1.2065901464975732,-1.3285643606514868,-0.20214092912899576,-0.7932693802799635,0.04653575250619035,-0.7271934141121146,-0.8445646377037525,-0.701372329728282,-0.08153420564732476,0.6769673028050684,-0.9087539514501758,0.4212200678104692,0.15011088170998094,-0.1783722502683908,-0.2898511782521991,-0.5581422093255336,0.07107139267866347,0.4080966926258737,0.20310362086201428,0.318915498123305,-0.6528124632481501,-0.5217568228056972,0.29521604684777364,-0.34387237526499287,0.16256327474738402,-0.0986653354809345,-0.4405745535715125,-1.1759534265589957,-0.1653650472513311,-0.7000985568592625,0.14089913016943614,-0.34019657886580684,-1.1894494586713193,-0.4371093276628386,0.39248561925451,-0.12270506643048663,-1.2011205345406315,-0.37479434484781554,0.39964228290678067,0.6851950708420027,-0.38571066207233445,-0.5761231322374553,-0.6011972387158656,-0.8060230475013501,-0.7141283485081599,-0.9082811755047305,-0.3249173628007183,0.12967265895106836,-1.030778395551651,0.3492833790404309,-0.04794102846719863,-0.18096452904457525,0.05253795381296227,0.0932889948691111,-1.09611779462687,-0.7587686373510585,0.1639330235678679,-0.7406894607512858,-0.14402662615573178,-0.8655652610024163,0.2209201743580002,-1.1226667279796776,-0.15255373307525907,-0.7563957197617298,0.016848191156608367,0.5778817391958677,-0.44438952754727484,0.28473758129305976,-0.1597670051101819,0.164850455372787,-0.6973923847219049,0.11433874829448372,0.8091888149255332,0.5713850752660637,0.040352891865769326,0.06779528795622664,-0.38029049495693107,-0.5073127104427512,0.699470886531826,0.4093411100441187,-0.5564465562904066,-0.6098399599905211,-0.7771497779980931,-0.19295953738022079,-0.7689796217015626,0.5499898819084658,-0.4864258572674647,-0.7434517104868765,-0.6700219911295237,0.20940954065146403,-0.8923831446551312,-0.3521040783495326,-0.64855665073539,-0.9612043314258834,-1.0622382176456153,-0.6339151937009857,-0.2265831270672525,-0.06675967032688222,-1.0206779263058057,0.15119713934515355,-0.9383337834829458,-0.05254285073826837,-0.9178443214992229,0.43764205545276896,0.7490601126187524,0.09662418214491494,0.13269196068627528,0.5897489773264524,-0.727999097753618,0.6548790707937928,-0.2648933856772534,-0.6220052085052176,0.13651837977695047,-1.0448575329362597,-0.871063223929757,-1.0391406033709147,-0.8362327516204212,-0.5300955486720412,-0.9771263790388576,-0.8847757782027836,-0.5853790129769794,-1.1785149577227505,0.17408751512979628,-1.575615490946136,-1.007221308152977,-0.2950208803408519,-0.6559172899517943,-0.8305606482386862,0.008590263173983913,0.6143572367422416,0.5460973984827975,0.6149457467686843,-1.166757319603068,-0.167482449156754,-0.3156222993065518,0.5436153823667451,-1.0857553393600219,-0.4707550065068676,-0.03859617622605131,0.41311358696953937,-0.5572880860152042,-0.06677502147589302,-0.41356753043406785,-0.39669668277877385,-0.30576871603379524,0.24042997589502452,0.2813712703492341,-1.216866844812848,-0.4016198752233188,-0.879035303610038,-1.0353954453398058,0.08833920468640727,-0.5148809178938035,-1.129656853271741,-1.117387913712312,0.12557857066202296,0.33321197104830447,0.5503815665507281,-0.0587838245003355,0.8123706557427279,0.2807210727809088,-0.029505718239545457,0.4215318929885847,0.42606368622064467,0.03265913824835199,0.2390370693498962,0.7237438718824001,-0.8289717150578031,0.6817396267533151,0.8083681975452696,-1.120203613781622,-0.07563915876786176,0.3898698682768102,-0.2825114481498041,0.4661874332318706,0.3486196948418649,0.6039999532955862,0.26365563704028583,-0.4238328481682232,-0.8779324061590179,0.7589313664588889,0.06354908808269615,0.669005820907339,-0.28221719124344563,-0.9862564087103844,-0.7543023008316496,-0.6324899980341843,0.057851761583638577,-0.29551456819936234,0.4632118938120529,
0:5:0.3852374648950904:-0.7548771718949095,-0.7150746850462651,-0.65257496217866,-0.5715472102460967,-0.35398896562486565,0.03146112490403087,-0.701909984478818,0.3106431748907897,-0.6144551685269192,0.34132506726444795,-0.03350891086031434,0.677430451270029,0.8384403989002475,-0.16253826789087514,-0.7393055170224104,-0.35944858187583656,0.5379646099609247,-0.3093997241880318,-0.5384146532244415,-0.005149341792771755,-0.7069866675831719,0.5503420620267828,-0.6931776156533339,0.6926733193361944,-0.6421718150462022,-0.3265629690575134,-1.138160166690169,-0.9210534739566253,-0.2389532408446199,0.7381694788066574,0.16340028466357906,0.2646462423663038,-0.5112398462000908,0.5640986389312818,0.11715009361733855,-1.0988087044794315,-0.8834040313337795,0.49650796595373914,-1.0636360365838968,0.3155280960804204,0.6987673818164161,0.5686821706940005,-0.4722088212374033,-0.5260429674259627,-0.7530645803028286,-0.28024814345496607,0.666326286589088,-0.42295714176062543,-1.0268741268155348,-0.6641255458150442,-0.4647577814391453,-0.8192927537813545,-0.39068100484810947,0.13235966605126956,-0.7314378571306884,-0.23071218207524288,0.6030094395651838,0.08118203433313906,0.5237422242213398,0.3631204992623257,-0.2659961298687959,-0.6005580578653688,0.7446848038493776,0.3961997458878246,-0.19123946228155306,-0.07324047154828878,0.8196429953803568,0.4431327798271365,0.47373615287002124,0.2162708511364401,0.11831288971049654,0.5899805158282818,-0.07639665536523514,0.5424967134589906,-0.4780036453638027,0.26088918964320423,-0.7024756822464155,-0.29049857088296804,0.0042931123294228995,-0.9551210486946964,0.7717016688232267,-0.19362827354694892,-0.5777415854501832,-0.1076967577290166,-0.6274856379789452,-1.0612784621824367,-0.8573388294631336,-0.67586481871331,-1.004164247188368,-0.7734234659727395,-0.6001529088452858,0.585778588055914,0.7693175390122797,-1.0239994095471208,-0.042809478303407894,0.8230677628356281,-0.6660424598036884,-0.6763024510306763,-1.0769860408826517,0.19462703772943385,0.5589088782157614,0.2843236900350923,0.4289735194540503,-0.41602799155049947,0.44681577125101807,0.5134041546212174,-1.0635156679748732,-0.17270054368954596,-0.7400429358386087,-1.0091627368744758,0.3646052333037162,0.1674932518760421,0.17099450732412338,0.4006750374328858,0.29765074850640943,-0.5124790056703442,0.7767217617420357,-0.754170399539501,-0.009634913360390613,-0.3666079452510882,0.7151004836901051,0.3362777396338324,-0.2741256436200498,0.30706589938567147,-0.7510148915769301,-0.8879510298397103,0.5849792164505244,0.28914433965003916,0.1985086743242502,-0.7279325680948318,-0.8331564225943694,-0.309524678879579,0.3682954160515612,-0.14761484257702476,0.25770512080706875,-0.453205062517937,0.06950765394935353,0.8181244148132322,-0.41057625376055995,0.20787004136901457,0.11632299766422213,0.6467104741690818,-0.3464300172049499,0.2427577812569243,-0.023391556655405373,-0.8331322947769291,-0.7878634828222645,0.08999835243806699,-0.8438928686954917,-0.7884914475743272,0.1417938805240058,0.2252203407061703,-0.37789444793564886,-0.8514883768887663,-0.10369570589738601,-0.11236185477916216,-1.0463231117847416,-0.4566075942363585,-0.18536488930750888,-0.2767607816825799,0.27455213467981476,-0.1299788969008891,0.5242472937326043,-0.4473998112697584,-0.8674447537789182,0.7214092139071525,-0.5320808389240972,0.04196010112816756,-0.9081082022036754,-0.6333762993626132,0.6121430488393841,0.6524182573602474,0.6798906463193004,0.5347596729397501,-1.1347136577734633,0.023783008940590517,-0.5254771603253277,-0.9259806009742232,-0.8481137697690918,-0.8357777764068507,-0.2938521383120507,0.2916143005841371,-1.0550837586034252,-1.300494136332374,-1.25267367697857,-1.0845739407986903,-1.2909369896949936,-0.8288327238641243,-0.393739311595959,0.17761695469086153,0.4106730014415445,-0.06078800980323933,-1.0467334192362843,0.5103942265411023,-0.7667554941463589,0.2863473769545221,0.7343017558063268,-0.920410773607602,0.2429452821493762,0.22187760972402287,-0.6272479831300803,-0.137506888810008,-0.5675250846810099,0.1088018863514828,-0.8129278930061123,0.6274794669532552,0.8030817561149675,0.47773850720799504,-1.139182424692214,0.6681410023569939,-0.4962747302652367,0.5651509052408035,0.7424880791545985,-0.36909293576231117,-0.1451920314714304,0.5803954941578298,0.6740232295590403,-0.34481769453131084,-0.923358680264599,-0.7962884698237539,0.20599944060122527,-0.20021299837841855,0.31824541176095916,-0.028416052064869846,0.6284889609344898,0.5587257945259329,0.7201290521073386,-0.09185366734425894,0.018401288065034074,-0.0225848318401887,-0.8539972884609526,-0.5425207973588643,-0.5450221441544895,0.2098878102961997,-0.8681161323682315,0.1488506145311596,-0.5149983299074825,-0.9768854388367774,-0.5561551986543767,0.2040779273360462,0.32109467349455667,-0.3833397077306284,-0.12922910481058814,0.5579256518504977,-0.32766001724914373,0.20903105926276794,0.5887877640091523,1.0405404171521715,-0.14768348009361768,-0.6543003379575077,-0.3775347672370597,0.14630349179993288,-0.1696389089620862,0.3608738312994375,0.2480075542800988,0.4052269495291618,-0.11783077232969912,-0.4227466014931703,0.14361377765437855,-0.026181579512030817,0.6760983567136174,0.3034742792368975,-1.0214423982747936,0.5250255670379452,0.6073820480074291,-0.047565746735607484,0.744290104516443,0.7129788130219673,-0.3705617392633815,0.1705137705253023,-0.1727271021572146,-0.9447415655666791,1.0025385988168443,-0.32794215326400916,0.3166300140522017,1.101182642317766,0.28179088325945456,0.7854729751788772,-0.8869987983514803,-0.837476574268846,0.17192921971951405,-1.068377276166005,0.69904214911148,0.3838284600362133,-0.35537932378743425,0.29707268469609993,-0.1327805389959603,0.21973760080134272,0.044564124229638784,-0.9638145620300754,-0.9334203212643702,-0.599666372676287,-0.6111949408691467,-0.3399691365866137,-0.32625411934863835,-0.8704015064003204,0.3431890014576298,0.6441070594752305,0.8027621269188039,-0.851034356150082,0.378434655731689,-0.5599289523431019,-0.5502650204264856,-0.056858132896723264,0.8772918371026837,0.6959399953514706,-0.42949422346919813,0.2349827498315314,0.3352290768063653,-0.06242912936159991,-0.37547262219669364,-0.31843307655475844,0.19015943550759515,-0.43749998637361726,-0.4003020590999932,-0.0091669120974444,-0.07487238019723991,-0.8147258747954601,-0.26021528763391266,-0.48509500855447607,-0.4776510333938732,0.3822518135441703,0.44324194253644994,-0.9091188304537816,-0.015847117552240254,-0.7984638290527479,0.5401553050765178,-0.1766810365444371,0.3322189654098869,-0.2042998705392911,-0.5378839484024227,-0.07598092866272065,-0.09049770770126228,-0.9418187976035476,0.1482928680677225,0.7500578710741294,0.38682758437290776,-0.6866596656838553,-0.08889923424828328,-0.5535236168936108,-0.5410262068926512,0.14509722704057681,-1.0594619085037777,-0.2542597053416731,-0.5231186847298999,0.7800809848300795,-0.04246782694301048,0.4165586643214858,0.5923695410995029,0.7948582613543256,0.17068000997514074,-0.5547055032757633,-1.0118056855294921,-0.5698369148724716,-0.9562797325297523,-1.2310740024172733,-0.18731531599470722,-1.1159340112756393,-0.13761527182156702,-0.2144561034569009,-0.8895404381412524,-0.08555483386500662,-0.7904500428658852,-0.9938120555948377,-0.6289027972341062,0.06239629570186187,-0.8306856829265442,-1.0570695812174273,5.206532286810801E-4,-0.24897952329708403,-0.7479705384871799,0.3642066243757505,-0.8325724557274241,0.626511053365997,-0.5403087646958156,-0.6588190997681402,1.0875980980263336,0.5534285325319598,-1.2876551205382136,0.12920643355208114,0.36091807906693923,0.01956747475505576,0.3788584552765407,-0.7228414358957583,-0.9788584616299991,0.49529867595921484,-0.1758172882313992,-0.8102232672531993,0.26455720930179805,0.5670848936305838,0.6826554850924944,0.43816419378682,-0.3548395198690424,0.08018010846927756,-1.0694807503223809,-0.8952389471611316,-0.7729514180540871,-0.05041452593094449,0.2211001256459469,-0.9805058488592855,-0.011334091516860784,0.6755124667556248,0.5260269210765002,0.6915014670240224,0.24820895644060423,-0.14322490896336967,0.27727809758531313,-0.8144870200693646,-1.0276177388819938,0.3321685551064519,-0.7457607495139029,0.6220495122815018,-0.7752443970812753,-0.20758935726365937,0.5128977322481243,-0.05642269377310351,0.18426273900773155,0.6022414733060586,-0.2877210925533505,0.7164863563492144,-1.0851253042906206,-0.8236356438646285,-1.090688208665436,-0.0022600716719594766,-0.00614233580733678,-0.4933374380438514,0.4017855929749893,-0.16980120644230107,0.5858474019069995,0.032247817095305144,0.42951937215353575,-0.5149092597064227,0.4685091090830166,0.3848487701600132,-0.2466241504710028,-1.091781284610766,0.5806441057472668,-1.1286585402919012,-0.17704115741587143,0.36750786929583645,0.6696527338100312,-0.5108492683520077,0.2724509239411232,-0.5736684682653994,-0.6581980037485344,-1.0304304589845479,0.7139809577714015,-0.9686764370462574,0.39389326658951984,0.08367020459227281,-0.03636911700631505,-0.8839329972304659,-1.138810464088061,0.6241416971762316,0.09137838262374695,-0.561515670624449,-0.08829008371257381,-0.48642186814450145,-0.6753860261821698,0.3919744171460055,-1.166683420822985,0.3037337814574575,0.158741995543633,0.6857338864212358,-0.010525167786192186,0.13568798624008202,-1.0536227712533306,0.7621442176687593,0.03875235538610464,-0.9921757850214671,0.44650012609997475,0.42576373634148684,-0.12958987603556427,0.14736035680753018,-0.9420038348105266,-0.46950139740722013,-0.8417609805286904,0.5300167727256814,-1.0672067351447363,-0.13409132318289047,-0.5969465825520269,-0.3670076241613796,-0.2048674592829081,-0.1348148397024743,-0.8445589190348699,-0.9794572889646318,-1.0181369953305945,-0.8904622419925282,0.20560791628946432,-0.004981613474237202,0.5785629255284589,0.4508496703831887,0.4274846963323004,-0.5673173406886087,0.638418307282471,-0.5565264415819831,-0.23882860632345884,-0.8774838267268428,-0.5572755793043627,-0.7932586083567263,0.5998556550166532,-0.07451556770186095,-0.9229110038260163,0.17832048240245923,0.6063640541255363,-0.5770307309924884,-0.7149028114271185,0.7608181871200493,0.04919549255329954,0.4515837655188754,-0.33210298424238627,0.29087643571565414,-0.892221319816555,0.541981468680293,0.0766287345668826,0.3745667278138456,-0.46334699968773313,0.3645195168321971,0.001127475921119577,0.7198095547946092,-0.4606860248108495,-0.059160469034946164,0.6776787004351418,0.6231082369384283,-1.0562549847888074,0.6145894438119741,0.018985462597506584,-0.32988308679978623,0.2767428307851607,0.056079315441493596,-0.29995429135214896,0.3287044989699319,-1.0369391477726155,-0.12403619806494158,-0.5647444769812465,-0.36042598803643106,0.2964593160770908,-0.11038712494220491,0.5600502094715939,0.7057095437496826,0.3306813037998487,0.9401836537577775,-0.3655787749174257,0.3536088533391035,-0.5263857332644403,-0.05533144324901556,-0.2797830091404507,-0.5340318733937346,-0.5863423115582681,-0.22889970113068925,-1.023322834284879,0.02556780648009538,-0.7991389970258679,-0.8832746419668507,-0.8477090692444635,0.5253114015361792,0.1617738514664052,-0.43648200815913457,0.8325389197638552,-1.0027784234008814,-0.03207215429043226,-0.8585750587850843,-0.289650538582907,-0.26191823023699684,-0.3533246011279975,-0.42960127775581924,0.20179350471448815,1.0421533792975808,-0.6260412918561387,-0.013886369655028019,0.8500580203348923,0.3123505667272268,0.313065287147126,0.8191675824544935,0.09446489124554953,-0.926567777648356,-0.3909159714706758,0.17354592721239354,0.258977358939202,0.7630322432779472,0.24608913496559853,-0.30874646479987045,-0.4851017170805915,-0.34622101169321423,-0.911362227658915,0.8073265813548162,0.5958992533106752,-0.8012881168644249,0.31059751432407756,0.5707057247226371,-0.7480053041961738,-0.3403196788417316,0.31001558398853996,-0.4888638371257408,-0.012308997802342946,-0.26329753800772443,0.22238257978664233,-0.09669331335938791,0.45443835473571115,0.8269024430010165,-0.15275771231510735,-0.7426556000508361,-0.883145299459773,-0.980824019070725,-0.32828786133153004,0.15668722115545466,-0.9260230954085925,-0.23667137390124451,0.6269662372814466,0.32229792168643984,-1.0278286388516011,0.7318573746351958,0.7118298347511854,0.2376369721514239,-0.28765276549898994,-0.20340964596740194,-1.0635674965714363,-0.5571920829690523,-0.3668016388173941,-0.8516337213027041,-0.2897964913429799,-0.415117550248762,0.7757741541751265,-0.20299075539064093,0.6300199854307533,0.16203399456997566,0.021018246875708357,-0.11882583341574234,-0.031020274092766757,0.4280621808083993,0.5008009252894334,0.38071917479865997,0.4885313517604105,-0.9742949393565815,-0.6701731216881976,-0.8085060079601847,0.44480389328065556,-0.5443197424882904,-0.42010145017887734,-0.7585323085287865,0.6232664303621053,-0.6101695517568285,0.6788961750611817,-0.9358545353055964,0.1428993468029822,-1.0785177776853405,0.6536228971677949,-0.8330671365283702,-0.2012348340482016,0.5623436038830856,-1.0892336572457626,-0.508213044877413,-1.066210575826239,0.15006767966513024,-0.40736382859884196,-1.1493861503449776,-0.6303540704151147,-0.021968186418661974,-0.818046962344005,-0.9450894491728145,0.1773915015964713,-0.9170396615225604,-0.7526999180186335,-0.3272883508069483,-0.20804199915736,-0.25073748789880473,-0.2650354353637267,-0.5939965667059192,0.13152884719830296,-0.9879655115516696,-0.02114448768564169,-0.3947374327227731,-0.6608351244391054,0.5037010229396665,-0.35465840493538503,0.01761420440413194,-0.4647094501136357,-0.4148132750704778,-1.0078919611298818,0.25222316549856133,-0.03287596658319399,0.19539113033745442,-0.5525968743175439,0.0802917928333399,0.49845429523277074,-0.7784760894463041,-0.15349029099197403,0.6108699806211403,0.4446217955147712,-0.34912125068722255,-0.757672882073394,0.23025699906286914,-1.08336315894428,0.42398259608737315,-0.8524885136474889,-0.47252677198141685,0.07524761416949681,0.14323461285894037,-0.734709971589908,0.4207788340995116,-0.5051351781850593,-0.8865042829281146,0.6738037673147704,-0.7985611838223065,0.3027771176022899,0.7851257427270798,0.7176636105418338,-0.2033398975737358,-0.8373710827293247,-0.9785536521554306,0.09701313585675637,-0.4234481695621876,0.07921887651003241,-0.730343025388655,-0.0475376236444187,-0.26424622957058064,-0.6242327382154834,0.7438663096843391,0.7897340876072642,-0.9431030615072798,0.8397567508465593,0.01142692423376982,-0.1642697754953527,0.28575131898591666,-0.8658339464443642,0.6339544390651525,0.4145075088567989,0.7255102354247126,-0.3584903209052664,0.4736664601775074,0.2689213727907261,-0.6454021439066769,-0.2547660349949512,0.8014708075786617,-0.12087025591852446,0.30219003312828757,0.20128209911172715,-0.8520803265822877,-0.8024887615668872,-0.9814964045277568,-0.7887932906592896,0.3066695287850267,-0.3360813170416516,0.164427857663698,-0.2144528802841545,-0.5527440784852685,-0.32042628872071427,-0.6470389582967124,0.06450280207659358,-0.7635041109066246,-0.5574045636956042,0.2726348799324517,0.33872522866027094,-0.017613363377059408,-0.5353427694196132,-0.3679519561400875,0.3153828696423863,-0.44611353342150023,-0.2512767669122025,-0.08984247914293048,-0.7112829608435437,0.4669480965326347,-0.8302960728649158,-0.2045642863199593,-0.2372230002433996,-1.0925886530013853,0.18174950693659242,-0.2749737920435919,-0.8600040274325661,0.7119308946121015,-0.9831016396667768,-0.660919212554927,0.4929769682331678,0.3627965433749269,-0.167118687564557,-1.1438061941679132,0.14972090473604427,-1.0933133384212959,-1.1119701688606032,-0.6145975498033452,-1.1532932723963498,-0.6269044823257331,-0.24628137418718474,0.014496546672680593,
